{
  "b1" : [
    0.0161464254624888,
    -0.15042959833088076,
    0.10892749528941734,
    0.028221867385797458,
    -0.042612035120980565,
    0.17906848370220133,
    0.24099405598109178,
    -0.19424617852708698,
    -0.06351493163186277,
    0.13464823978610987,
    -0.06209691181592883,
    0.03879392042930653,
    0.10336131987001655,
    0.0999237724262303,
    0.10432851913905167,
    0.26648639872524177,
    -0.13576123733020934,
    -0.01019950396466595,
    0.16317794775577554,
    0.12586270076412368,
    0.244424390585821,
    0.12114905299933605,
    0.07818549138922333,
    0.18421178148107287,
    0.11517959715329852,
    0.22793869444056797,
    -0.063351139700619,
    0.06657228038805355,
    0.0083134475091024,
    0.1428993487180412,
    0.13088066357732808,
    0.06324555678087203,
    0.003942935929130474,
    0.18083541145600596,
    0.16720508684802968,
    -0.0381263349866033,
    0.05853969903871645,
    0.14801191437903913,
    -0.08106593052601026,
    -0.1798471128700658,
    0.11875870461320907,
    0.06884979510173275,
    0.24404605355208503,
    0.027261329239533394,
    0.1496894531977781,
    0.25134986351726946,
    0.12358280649667691,
    -0.1311629424339865
  ],
  "b2" : 0.030927834230795332,
  "feature_version" : 1,
  "hidden_size" : 48,
  "input_size" : 34,
  "version" : 1,
  "w1" : [
    0.2490975323387007,
    0.11506034870506708,
    0.22124597493168602,
    -0.4539502756155795,
    0.24695315681133093,
    -0.14361785635055396,
    -0.010893617039561116,
    -0.23357697202457053,
    0.31423451500308486,
    -0.10042179137699124,
    0.42033462679527145,
    -0.12587661043232903,
    0.6579787090630335,
    -0.22205497655375311,
    -0.35542323038219453,
    -0.011047189413571584,
    -0.2586486533598985,
    0.03671649665904633,
    -0.059729790060002945,
    -0.04279097328798667,
    -0.00260638281205785,
    0.013987164930148076,
    0.03813714714306683,
    -0.33206361040065385,
    0.13102453893698462,
    0.3779634157129439,
    0.01988764649633609,
    0.08607765921410057,
    0.19911532634918916,
    -0.12432550816527609,
    -0.4684891364050391,
    0.14084978190386016,
    -0.015687187705415388,
    1.1611052226270244,
    0.0781291762448014,
    -0.16950495586208839,
    -0.013410046993976242,
    -0.09109369708702418,
    0.05120149786437769,
    -0.0778635691919907,
    -0.30121047442579635,
    0.1509082985227175,
    0.0397952477454598,
    -0.17582856511822506,
    -0.1708116772100561,
    -0.13206416472655713,
    0.012550482168977894,
    -0.0836503783871586,
    -0.23454206875650344,
    0.06825396775606911,
    -0.2588993760633532,
    0.1835025002078215,
    0.18619058603153124,
    -0.2273959611796637,
    -0.15941031524353155,
    0.2006997489888694,
    -0.22576414571452044,
    -0.010968148052866961,
    0.033107331718630284,
    0.1311957646330141,
    -0.08179603509740335,
    -0.07154853015994969,
    -0.03002071722351622,
    0.00927189235986907,
    0.11141292842389483,
    0.010337711449886614,
    -0.024636661952567775,
    -0.07105638571576779,
    -0.07143603593691464,
    0.20739354057452855,
    0.01701264547637586,
    -0.043308243396755125,
    -0.32107510521097393,
    0.16185177412767773,
    0.1405737079112961,
    0.07416370750705023,
    -0.26095928521872797,
    0.284773160943579,
    -0.1943479870317297,
    0.1664753103637622,
    -0.5579119502781775,
    0.2850975518012258,
    0.014335053021294033,
    0.27379409527821746,
    0.21762241567222887,
    0.2994984990483683,
    0.22038868804718836,
    0.19367428486627367,
    -0.10885336725613456,
    -0.16499886446236306,
    0.12069191071147305,
    0.09762080849549695,
    -0.13449886604123543,
    -0.2648642224860442,
    0.08086812441957505,
    0.3969311639962596,
    0.3546116985197169,
    0.4017009994064908,
    0.0372110965189332,
    -0.006572737955704225,
    0.3065174146666914,
    -1.277405960682418,
    -0.2627157275920016,
    0.2747378443609802,
    0.26831619472998036,
    -0.42200907635115914,
    0.025372694644719234,
    -0.107209641491375,
    0.23458664698022083,
    -0.23624527060475856,
    0.2450862711648881,
    -0.009189273550316412,
    0.24177579511346844,
    -0.05518560897671684,
    0.34186378787033683,
    -0.02932465172137172,
    0.043897588677249515,
    -0.1854684040990083,
    -0.1793281897432205,
    0.2778599572777946,
    -0.059200570878214,
    0.04550986821876468,
    0.09150874689482022,
    -0.013485094766987378,
    0.15871834922047287,
    -0.15545191322987817,
    0.11336732358462272,
    0.6461862532489178,
    0.21057131740256393,
    0.270819574782695,
    0.21131750427555784,
    -0.5678555700838611,
    -0.2933966383500221,
    0.21352610635926336,
    -0.14183964067883348,
    0.8452480538034083,
    0.16494416324500105,
    0.044397661527703886,
    -0.36754749147576354,
    0.25244017620607745,
    0.031318093370643736,
    -0.07912170943463973,
    0.33157384558897257,
    -0.15768556999407432,
    0.09614105748906907,
    -0.409625897451351,
    -0.0655476880589447,
    -0.1679880396880633,
    -0.38461047720699376,
    0.101030185411725,
    -0.2279079588824392,
    0.024400023496248865,
    -0.11024722050147168,
    -0.19282669733720117,
    -0.13704526838345965,
    0.12485091017572475,
    -0.22023158203253218,
    0.10657680707833704,
    0.013989844905606248,
    0.043268519478953625,
    -0.1386963472766287,
    -0.03872832913283285,
    0.29495412084689066,
    0.3099525430272603,
    0.4550715121424114,
    0.23715303599730594,
    0.14673937686820993,
    -0.040172376485169206,
    0.30570930474264024,
    -0.904373088300054,
    0.22512798279067717,
    -0.06331535994496712,
    0.10107922057665537,
    0.07165415331110866,
    0.17653559412815867,
    -0.05111308025556855,
    -0.0452594720105247,
    -0.0013715455287905535,
    0.2780999792179319,
    -0.24328315606277398,
    0.2508984680906894,
    -0.3027037970909624,
    0.639602437869244,
    0.04712103180893777,
    0.16207358029971813,
    0.14617650017445963,
    0.08094102705445785,
    0.11640331885368135,
    0.14402234108879872,
    -0.03026480110250394,
    -0.2624819960043328,
    -0.15142373262771694,
    0.2657310442812817,
    -0.1690617697084694,
    0.14258501564114218,
    0.12857781609815525,
    -0.14047375100987652,
    -0.19488594130260126,
    -0.036276713395198855,
    -0.19161362928387754,
    -0.19440007917901164,
    0.010620907681130474,
    -0.0867126605983026,
    0.7634723593251074,
    0.05168869977716293,
    0.11583112384290678,
    0.10151396507160097,
    0.03860394184628007,
    0.2600788588842494,
    -0.12230468818511595,
    -0.09131610759579885,
    0.00031293343949606405,
    0.30091603737137307,
    -0.05088519661343789,
    0.04575694041843893,
    -0.17975655851425634,
    0.5803826057024076,
    0.10522971207246837,
    -0.049116354207956375,
    0.10701057929580102,
    -0.1266260457983315,
    -0.10894495712848157,
    0.2271485165188706,
    0.08695785098129825,
    0.21930766070138774,
    -0.13311168516580416,
    -0.10509400866257959,
    0.11304032320236453,
    0.1719008557242646,
    0.09112622018152017,
    -0.09601585186284736,
    -0.3081779548804247,
    -0.26340543861625304,
    0.07232724423111558,
    -0.13233818815849901,
    -0.05785089999555503,
    0.14997890129070665,
    0.8231263810114777,
    -0.15121867206435696,
    -0.15295648382091617,
    -0.3748577887505468,
    0.389879637536357,
    0.021989025161976487,
    -0.15474286383235986,
    0.0836571014619602,
    0.08142276931264733,
    0.014290977803312956,
    -0.0507317859407163,
    -0.140879949880578,
    0.17625674146018844,
    -0.08528864945137132,
    -0.24391285707757596,
    0.16346742861199787,
    -0.24307154717521134,
    -0.027535070263608897,
    0.17262441284994934,
    -0.16912969602046984,
    -0.0490808213679496,
    0.0917199994442432,
    -0.0478094730837082,
    -0.27418869233651916,
    0.0013151694650550994,
    0.23532643887255686,
    0.07751575799709151,
    0.5896546462429885,
    0.3464629482594947,
    0.3899626765509614,
    0.17673082947311272,
    0.4697261910578426,
    -0.08795241000652246,
    0.02259709489931308,
    -0.34095809257081083,
    0.1702770174075837,
    0.0496341445792972,
    -0.12466315303929061,
    -0.18325618810092678,
    0.24480899584096893,
    0.09934250008514343,
    -0.07293576723212164,
    -0.15835083141743614,
    0.1310145163957072,
    0.05728668468785696,
    0.08956228429619724,
    -0.10677062572779339,
    0.4537473663622219,
    0.06076220664405294,
    -0.24677962951971424,
    -0.11682257557800863,
    -0.3616238501139677,
    0.05301077582984731,
    0.14783089072219338,
    0.16995549667993293,
    -0.20316676372268536,
    -0.455394589626275,
    0.234797105437894,
    -0.25216163225917204,
    0.1473686700098138,
    0.5584887756309413,
    0.17757986530309816,
    0.20025681149598656,
    0.08687203236597858,
    -0.11140265598080523,
    -0.07491396241654472,
    0.07049537955700723,
    0.20194939170997217,
    1.017014005338093,
    -0.05727932465516841,
    0.2320970844792901,
    0.11959814221174407,
    0.07012770794835083,
    -0.17442541178418536,
    0.044123055739118906,
    0.1545638700784048,
    -0.08670257864209666,
    -0.20333769262683202,
    0.20280064390502886,
    -0.1689426504740354,
    0.17307879998120612,
    -0.28376383822821033,
    0.08160660312810887,
    -0.001827859969848985,
    0.24884788409447992,
    0.025237929104287793,
    0.32538612842460246,
    -0.07611795798082391,
    0.07864974722103618,
    0.09688025779660872,
    0.02861842373870019,
    -0.19499628598800725,
    0.055974109765622206,
    -0.03903429591817112,
    -0.12144681436252608,
    0.0961297747484356,
    0.17294662718461096,
    0.26594836744363387,
    0.11971044343299295,
    0.3101674278256841,
    -0.1529692509366059,
    0.11914833988153971,
    -1.1324081951969411,
    -0.025562781846498267,
    0.15343322274638987,
    -0.08949571225553171,
    -0.15569867269922844,
    0.07438109384985095,
    -0.2944662181157574,
    0.05491112852771379,
    -0.06391514024172087,
    0.13774229360393572,
    -0.48282971377288264,
    0.10698653872629131,
    -0.14886717235893712,
    -0.1899470769666582,
    0.0035382273749960808,
    -0.11065194730023323,
    -0.18886085081944354,
    -0.10102233962773574,
    0.0007522629671250617,
    -0.46798357266199964,
    -0.08229849730792534,
    -0.20595111131777927,
    -0.07967409706184621,
    -0.06352298074993568,
    -0.2399571413680382,
    0.23517167820948032,
    -0.1638134441184008,
    -0.13615029228044534,
    0.24710360396821696,
    0.02445760676584239,
    0.010753740003422992,
    0.30184233910320923,
    -0.03120616355083154,
    0.3963825345606876,
    -1.1042636042706442,
    0.09798681863228362,
    0.006453513839702763,
    0.22931080470732015,
    0.14837547670433116,
    0.16861884052235415,
    0.2807893069667498,
    -0.12973498001212957,
    0.1425156026137591,
    0.19844510497174736,
    0.16921575704120712,
    0.004000372420138124,
    -0.1603544546944467,
    0.39587714077759445,
    0.19422734351889398,
    0.2878156989421893,
    0.17350396093761078,
    0.05099427355580122,
    -0.05581787017625274,
    -0.09199433633385065,
    -0.06951029574689688,
    0.13196445902825416,
    -0.24923410367583146,
    0.21533003811241902,
    0.10187745794034327,
    0.09038828319854021,
    0.10789961024931233,
    -0.08210387592720245,
    -0.08169579429120381,
    -0.2684195150546014,
    0.19809844412962138,
    -0.1002142125168797,
    -0.1640799090113324,
    0.15633130267655496,
    0.5709397928142598,
    0.025235767217984068,
    -0.22315255477903834,
    0.17699092146696516,
    0.03741444837866452,
    -0.13117094913559704,
    -0.17113288974862106,
    -0.1460643839001926,
    -0.052728109387238334,
    -0.0655553470434776,
    -0.1402961320532546,
    0.10356925353703042,
    -0.0015845600293716798,
    -0.15099445098719036,
    -0.11647350922508173,
    -0.19881726497927887,
    -0.15257835514904602,
    -0.08669058855839622,
    -0.11675108996199542,
    0.23304585292319696,
    0.11292590528328685,
    -0.08315871193446706,
    0.15027316377546085,
    0.13955992835457276,
    0.11531420655295452,
    -0.17392942350141027,
    -0.02980263767775315,
    -0.16735921691555436,
    0.04613683404396986,
    -0.15286552578163853,
    -0.09817190717217901,
    -0.13370147111564165,
    0.0030673633153906663,
    0.025009001809538006,
    0.011367626581290997,
    -0.07964988895417788,
    0.20387298124877531,
    -0.16635403569354285,
    0.29643570508718653,
    -0.11627593642546928,
    -0.23040501801866195,
    0.14039233585927835,
    -0.12553647829871561,
    0.0009212302313692195,
    0.07054546022427387,
    0.13960148110355858,
    0.21964370999289215,
    -0.7573426514535528,
    0.3357196283469252,
    0.18944490133312297,
    0.04134220401823465,
    -0.1816934468571281,
    -0.2456877887586779,
    -0.15369404594283795,
    0.4102484194362359,
    0.31405311879465914,
    -0.06438814279916778,
    -0.0034096605903444436,
    -0.02917120980934756,
    0.04759422884045672,
    0.01632876311350697,
    0.5446181815727301,
    0.6817148085686365,
    0.5178138818786904,
    0.04667845401663322,
    0.09033720481058963,
    -0.02463122585583051,
    0.45924388363612323,
    -1.1535886505923871,
    -0.535044517965886,
    0.010239439948625657,
    0.33790780799999254,
    -0.6522780573020819,
    -0.3030035406381216,
    -0.02736397218964599,
    0.07329809660859467,
    0.17277714269273817,
    -0.08902243069845445,
    0.210135882973568,
    -0.08767365968971007,
    0.027181141841060207,
    -0.3967654587374195,
    0.22095246245224,
    0.06973971283702009,
    0.11726069260834543,
    -0.37461249184881923,
    0.06677035694007638,
    -0.08964589696538365,
    -0.25346188948012155,
    -0.06304300561165302,
    0.2202322974095274,
    -0.15849044751011626,
    0.21731508702684382,
    -0.13162644293294143,
    -0.31573620168459404,
    0.07810358997456353,
    0.24016946029414396,
    -0.009647044089771814,
    0.13116222507277103,
    0.27980052789783855,
    -0.08027582235443839,
    0.148417727266891,
    -1.150541552866852,
    0.044487583037453024,
    0.2353906149100049,
    -0.10043243688192084,
    0.25822221228163195,
    -0.06378550969579554,
    -0.01951612865652359,
    0.1463687736691905,
    0.06587252626161419,
    -0.06461753847553404,
    0.31404076829741223,
    -0.09366282527063641,
    0.25182286166693496,
    -0.5896883086268488,
    0.24573040920768277,
    -0.10503161826949735,
    0.17894651302927528,
    -0.06876614727779165,
    0.3889983027595861,
    -0.1833584309797052,
    0.11108577841190617,
    0.17201804177183727,
    -0.12855303608089225,
    0.14290541995919376,
    0.19517231125635062,
    -0.09037268544696477,
    -0.2702008404601284,
    0.3745298235003473,
    0.4361638908137355,
    0.2006823640824563,
    0.12013205992712446,
    0.18513645262670608,
    -0.030976022148038435,
    0.060727491543847364,
    -1.2665166444578857,
    -0.03360015750026288,
    0.07923137626898857,
    -0.1642320382039065,
    -0.031670606348269646,
    -0.17596037552704366,
    0.07123207672968915,
    -0.08937397993361067,
    -0.22974745254312237,
    -0.0018887718792696246,
    0.047536987715969176,
    -0.0002267751727612625,
    -0.12897211824998586,
    -0.1119066033529949,
    -0.10663842380691864,
    -0.014586193533505048,
    -0.1330420034197673,
    0.06148110081405316,
    -0.043010035333492166,
    0.14026869530832314,
    0.027479341075079163,
    0.02128511609167271,
    -0.048069421295301056,
    0.0011830029315917988,
    -0.07082791333647317,
    0.045832822528900787,
    -0.012608083321531958,
    -0.151280750175251,
    0.006009801408605798,
    -0.13189370441170054,
    -0.21563497349092944,
    0.07911339654326571,
    0.1377549416208587,
    -0.17767314130294126,
    0.20275873796709049,
    0.3394113411590354,
    0.1156040840994239,
    0.13450123419409632,
    -0.2084960041353993,
    -0.11814694874503619,
    0.21822128209184372,
    0.036372035226059134,
    0.2759801713978089,
    -0.02676150842518666,
    0.24810216268068416,
    -0.191061813046834,
    0.17008493402226757,
    -0.04420462343556331,
    0.05956445368180939,
    0.16826496638536315,
    0.03322468660484844,
    -0.07289345777166724,
    0.21642944768658035,
    0.08615489533470125,
    0.16902148515887158,
    0.1689638773881585,
    0.41422288425966786,
    -0.048522849206200355,
    0.34736571854945725,
    -0.11500306037832672,
    -0.0018088038533340025,
    0.008462198441981327,
    0.2232239046279401,
    0.4320847165888263,
    0.27904864697158493,
    0.1509192316200958,
    0.019439380245700046,
    0.20783895511688022,
    -0.615637423870109,
    -0.06068057481538506,
    0.0775687356569914,
    0.046618489375942845,
    0.28305264188866175,
    -0.3088133220759521,
    0.0735561003820944,
    0.11285759578894158,
    0.2542170634068615,
    -0.05910182200185191,
    0.3308329706390658,
    -0.02179663389587488,
    0.0611606985477648,
    -0.5298651123133887,
    0.30857175219455135,
    0.18795662864250867,
    0.2751325207698402,
    0.16688854813509527,
    0.02233997789525057,
    0.013701969702569601,
    0.26340066559039,
    -0.15396222309843818,
    -0.05224887895898835,
    0.02650144776896378,
    0.11099029260871056,
    -0.10262544487186386,
    -0.29979414597261494,
    0.19187264882172894,
    0.4325471879059907,
    0.30241475434668263,
    0.3879988588544012,
    -0.024389793197673076,
    -0.19267288584787193,
    0.1808892786392706,
    -0.8907427884226624,
    -0.020468333199694117,
    0.1139914667139912,
    -0.1457661727413604,
    0.35051585593248347,
    0.42441951743441536,
    0.0879302130195797,
    -0.3008188256959049,
    -0.039914187489401606,
    0.3832812763461741,
    0.04371749256626967,
    0.06812463261364683,
    -0.2416738437275102,
    0.39496233815461546,
    0.061270828146008545,
    0.10901338413918674,
    0.24225795853748927,
    0.3185381636322807,
    -0.1974034627829112,
    0.31351849586611547,
    0.05211229323644015,
    -0.031012183476160388,
    -0.01574078102564977,
    -0.11259992791897093,
    0.16089669008174612,
    0.2251571128993028,
    -0.09816848826888051,
    -0.2908960071610886,
    -0.27871624498344433,
    -0.40020450419604126,
    0.04832984833031871,
    0.13099760470450855,
    0.004051542048403996,
    0.060791543411959484,
    0.5171594237772803,
    0.42351937322515903,
    0.053826276245839466,
    -0.0691763419313686,
    0.06058530071205865,
    0.13541945501976588,
    -0.08943394054407698,
    -0.07770607221348652,
    -0.16299724570247096,
    0.14709517307837489,
    -0.10973899682950226,
    0.12299665247654351,
    -0.1297378666183404,
    0.7460280299622117,
    0.13820917337951913,
    0.00713648556438189,
    0.1787721271204451,
    0.07066322604476044,
    0.09907453843428984,
    0.003934593377506986,
    0.08534898433573675,
    -0.015733356773460043,
    0.03833334475600087,
    0.04171256442252353,
    0.01503083655565203,
    0.07866794658701959,
    0.3785607652847114,
    -0.1251224118549236,
    -0.1679744444280897,
    -0.06478933800426072,
    -0.05717807011412029,
    -0.2749296946600436,
    0.12675427016594276,
    0.08177938155458382,
    1.039650912997181,
    -0.1933723767284434,
    0.07573626486077437,
    0.13286660328092656,
    -0.07905994618808568,
    0.10578435856772277,
    0.029449330644970916,
    0.006850149580042948,
    -0.13918608704015437,
    0.1049241837671345,
    -0.26597035270734315,
    0.28884182790501256,
    -0.14171929388623197,
    0.48570080038839025,
    0.08073143036781036,
    -0.000706820881815765,
    0.1141562883451705,
    0.25451563531221627,
    0.06379630812900912,
    0.034676492254329006,
    0.07774590486784504,
    -0.05448693470307288,
    0.07359029773462708,
    0.025034051722629198,
    -0.013276586285451664,
    0.014766401210125311,
    0.10652194242212577,
    0.010946707673484542,
    -0.27862662807032684,
    -0.1738624135483886,
    0.02322411053049172,
    -0.08996954285483438,
    -0.026950564611602286,
    0.2733963299729056,
    0.6620526963604116,
    -0.3705914240305768,
    0.31491282997538006,
    0.008576546651688622,
    0.3067016929345808,
    0.34025228914710554,
    -0.18632026050878456,
    0.02148872606419255,
    -0.15517925168864638,
    0.0736533383436975,
    0.0674636188625914,
    0.17121819370123048,
    -0.3115059133445825,
    0.5555327090835549,
    0.32059413608026904,
    -0.18522064161025883,
    0.008711804116211717,
    -0.01907549171912794,
    -0.2537060914458212,
    -0.023784196960805512,
    0.3823199908821678,
    -0.2765525881173264,
    -0.18696103292101426,
    -0.08605046431821146,
    0.14037653501261738,
    0.27784931245760786,
    -0.34517606755579583,
    -0.5734588507343632,
    -0.14961003801738043,
    -0.12311498322509072,
    0.13973977073987756,
    0.08576194778808492,
    0.04487540102617445,
    0.0849398573906866,
    0.8559573927965067,
    0.36572652952729207,
    -0.17798728493864566,
    0.10364527163836415,
    0.07619351813849075,
    0.17721355237573239,
    -0.1654805102466296,
    0.09420331448771682,
    -0.11206493415397561,
    0.23494503694231192,
    -0.2599058161118327,
    -0.0395551721247867,
    -0.36022560158751676,
    0.26933387831497135,
    -0.21115923403672943,
    0.15066275216730995,
    0.13607692147534547,
    -0.11826557782825828,
    0.07632327056024144,
    0.05854158222897008,
    0.06919004517735655,
    0.1610253218696385,
    0.01787670312458983,
    -0.08631918910452532,
    0.21586555264650661,
    0.3629504346027103,
    -0.05732490766281727,
    -0.09237443431135486,
    -0.21622659957346718,
    -0.07314096918261306,
    -0.08774416785421735,
    -0.1655962820586492,
    0.16523775159432838,
    -0.0533554655354305,
    0.48320994319796706,
    -0.029549268328881342,
    0.18852208181448707,
    -0.4177975366719388,
    0.054764384787317516,
    0.11029771795670934,
    0.20653389461528568,
    0.19147638961317198,
    0.023244441332898397,
    0.11780162429844175,
    0.0951096155911932,
    0.01667556669072502,
    -0.12693834335531154,
    -0.23313946962855986,
    -0.09505176385440173,
    -0.3150919811996502,
    0.2230744256351407,
    0.2202099247284878,
    -0.13976671460235013,
    -0.23551896278244297,
    0.4407243152817763,
    -0.4446971989669103,
    0.1123737432267653,
    -0.06640833479263361,
    0.16446598763030726,
    -0.1766367788986591,
    -0.08823187991702128,
    0.40709244394577576,
    0.3066902750776555,
    0.4459259763889336,
    0.2558998843120074,
    -0.007146035126463289,
    -0.03649847392884484,
    0.13465061688107885,
    -1.1048770852560483,
    0.15296155302634706,
    0.16030291570382382,
    -0.24223242854901064,
    0.09884343593579344,
    -0.03576395098250203,
    0.0675942831398864,
    0.13188725935162154,
    -0.00799461673143137,
    -0.11593022206874674,
    0.10942261445890056,
    0.018311342140461415,
    -0.08626757304589411,
    0.013745319661816153,
    -0.17657684734725582,
    0.2708846351148542,
    -0.029618776624368844,
    -0.1514452769158162,
    -0.027605765807934175,
    -0.17266061958650925,
    0.2833227984229563,
    -0.10001725411580918,
    0.043302473714985926,
    -0.0789202002973082,
    0.4448637863534072,
    -0.022343179290109375,
    0.021979006367767583,
    0.19212193245084133,
    0.10461970645622135,
    0.26470694095353714,
    0.14609026898624564,
    0.4169864549373552,
    0.014211628061867092,
    0.17531600193136604,
    -0.9187078428313203,
    -0.022014427125281615,
    0.1822017752126353,
    -0.5139219315739612,
    0.6757288703662502,
    0.10895541667503002,
    0.0474503334334009,
    -0.13122573412176422,
    0.26141349706730194,
    -0.1473294945364586,
    -0.20676829032993066,
    0.07742534590215706,
    -0.07289742316033719,
    0.19799015686586074,
    0.12792645301860212,
    0.10853860574635704,
    0.053459215914684666,
    0.026757031104220824,
    -0.18459391342363668,
    -0.22485135819538027,
    -0.22541727334073214,
    -0.21892136378852248,
    -0.04685380814648893,
    -0.14767736435607945,
    -0.10431775837478464,
    0.2663924695140157,
    -0.5514299926845714,
    -0.6729358998288448,
    -0.3810152406420975,
    -0.2617443498604867,
    -0.012970808996027651,
    -0.13517514607640968,
    0.08337463167269145,
    0.15588277087730992,
    1.0071415226573457,
    -0.24059325549376476,
    -0.07350519201291546,
    -0.10346693209083352,
    -0.10685735680165763,
    -0.04053332459673904,
    -0.144036323236816,
    -0.14677876424330602,
    0.07672031247907982,
    0.1306546770316687,
    -0.10377407132314659,
    -0.09848523496365004,
    0.17978216480575315,
    -0.04573086218269399,
    -0.01079453414765539,
    0.013124487987015047,
    0.07590931271944855,
    -0.17027134180087589,
    0.06266127936498106,
    -0.24510706896457649,
    0.11268423683830817,
    -0.20943765383178684,
    0.041047092817515965,
    -0.09981908112096899,
    -0.18838089465295077,
    -0.19021769913774322,
    0.10877928502994076,
    -0.048428944839151666,
    0.03647524803286511,
    -0.11140414365975598,
    -0.20891577947686524,
    0.060023095271481204,
    0.036178910053386595,
    -0.17465927863797792,
    0.24177456189640084,
    0.23086915990643259,
    0.021961595501360665,
    0.2261946705839892,
    -0.3783311371611593,
    0.3298824603559034,
    -0.24173039135054433,
    -0.010038662524433887,
    0.06875564388985811,
    0.10105567624922328,
    0.08298368223073786,
    0.009400167667839968,
    -0.07554094429954218,
    0.466520579170104,
    -0.00532236809360514,
    -0.17203833815127265,
    0.17806337795733584,
    -0.337581006000748,
    0.1429149609750492,
    0.08399183541308404,
    0.19753726735459232,
    -0.10554990060158742,
    0.03532420585362283,
    -0.07606486681251609,
    -0.13454857409049847,
    0.02158524379143754,
    0.4069169161679261,
    0.1753164069111956,
    0.19362351536130473,
    0.24068755770706707,
    -0.16933315900742024,
    -0.08764799510592573,
    0.060762817787927505,
    0.18308510721579416,
    0.8829639553657186,
    0.1473993024764966,
    -0.15495774166630855,
    -0.34888531893371505,
    0.44052339112650835,
    -0.051415823454235746,
    -0.0294671141148462,
    -0.12192217782304045,
    0.11513689680444789,
    -0.39173955276584793,
    -0.25494323996720997,
    0.09827875426598875,
    -0.18054182133986982,
    -0.3096314830587792,
    -0.20262964578122616,
    0.3033887873267058,
    -0.000611716746752834,
    0.17138541869456936,
    -0.09317431717645103,
    -0.05984368376087702,
    0.06673889952043567,
    0.010470109060961102,
    -0.07956841933043053,
    -0.0009011316681381046,
    -0.11830027482189985,
    0.19592141190596166,
    -0.5585793980647108,
    -0.6194312189890887,
    -0.3612122340755149,
    -0.33322194893246454,
    0.04085075277398956,
    -0.12893329429627173,
    0.021366679661917604,
    -0.17639712767066015,
    0.07344271161451135,
    -0.13516324398061358,
    0.1223791265336787,
    0.21000143033524546,
    0.22485345925467062,
    -0.012808770995630506,
    0.0953754701520579,
    -0.08094947782218041,
    0.22224704548785318,
    -0.07529462341616319,
    0.08625498071564104,
    -0.11086808290956991,
    0.1338914574270009,
    0.029446690862603455,
    0.1625985654217789,
    0.05679779812724172,
    -0.11302715185852134,
    0.1242231099641943,
    -0.08618689387484861,
    0.13136105931330572,
    -0.20599217375306705,
    0.12956589321506384,
    0.018056627725274155,
    -0.22107073922191642,
    0.10755672171632057,
    0.001007755804924487,
    0.15922112152113366,
    0.06320413687298783,
    0.03207716394902164,
    -0.03566135139064763,
    0.03128920536756296,
    -0.036472249169551184,
    -0.0036395184808898856,
    -0.168439298905086,
    0.12069859426433155,
    -0.02238589284458038,
    0.010525021562156078,
    -0.23891093982747005,
    0.5426305989302591,
    -0.0035019748233961604,
    -0.12636392914528713,
    -0.026938353818229132,
    0.21060372580666933,
    0.15679145586078894,
    -0.242632478731429,
    0.20850390563253937,
    -0.050183220451961365,
    -0.1368824718195178,
    0.1862826033240011,
    0.1593537254739063,
    0.03407704821254227,
    0.3436874283234833,
    -0.09786809450821095,
    0.03125791860415801,
    -0.18349210947745898,
    0.36389912984590056,
    0.25140566868748493,
    0.12943847408562362,
    -0.1822411926940039,
    0.23282263281081825,
    -0.5679880572547648,
    -0.9068323331111302,
    -0.5804614881086632,
    -0.3876830560100041,
    0.049315360464166416,
    -0.15459461172410918,
    -0.07796188540835017,
    0.05972091080560314,
    0.582630417598697,
    0.3943339290442579,
    -0.08572706973215226,
    -0.025747921345600652,
    0.1317485213157712,
    -0.038084984849534445,
    -0.031661997066566874,
    0.0929349986957831,
    -0.19676788319178493,
    -0.01574605816175851,
    -0.16638889582097816,
    -0.22273713376775056,
    -0.08030471959867054,
    -0.3935847597775193,
    -0.010282475943905621,
    -0.0227861916900524,
    -0.1309403907609893,
    -0.20971266684300427,
    -0.08624722471618451,
    0.007083696529334897,
    0.02446691059876576,
    -0.1751508780281414,
    0.03961466981693993,
    -0.0678636991284717,
    -0.1402793275229885,
    0.0438598589418171,
    0.015689648322658206,
    0.22564800254672981,
    0.1699369292638771,
    0.16779233025314816,
    0.1892986270593817,
    -0.044575881614683247,
    0.0561284507198674,
    -0.14535886198354597,
    0.04129190142522564,
    0.19439671518703372,
    -0.12884191216909466,
    -0.31285702592680814,
    0.5874909366032247,
    0.14711767507768495,
    -0.06257906787202236,
    -0.1652383996315136,
    0.00655877213160668,
    -0.14021521974462486,
    -0.23545317003037697,
    -0.21443016296675593,
    -0.09457719179790813,
    -0.49684479876791887,
    0.13341031750693158,
    -0.038592040718338494,
    -0.08665406080481979,
    0.08849466224173484,
    -0.20065493181189353,
    -0.02549247918130757,
    -0.12206523551043609,
    -0.00405398224398698,
    0.14592221934013164,
    -0.13886189155875237,
    -0.05092042026759807,
    0.173578213349084,
    -0.5933887395634955,
    -0.5706181394487517,
    -0.5964097709184705,
    -0.7165069764560925,
    0.0746187922729936,
    -0.016318341955284765,
    -0.07614088171935048,
    -0.10890675470863438,
    0.19362928705990365,
    0.0934182883928819,
    0.260715780913101,
    -0.5345082817189103,
    0.3865313163992037,
    -0.043200279980339706,
    0.0840081897357338,
    0.30172160981347046,
    -0.21338245086856147,
    -0.02621237337732714,
    -0.14532436135018295,
    -0.0053217684409724575,
    -0.07344929435734063,
    -0.25100991564487934,
    -0.00843006403004806,
    -0.28026196077373194,
    0.18806355996537452,
    -0.04950108538748559,
    -0.21367663370625534,
    -0.41712480579037725,
    -0.04919857021646454,
    -0.12721531906831016,
    0.013799538790575713,
    0.059069028755340425,
    -0.012456978656735292,
    -0.3208254770615066,
    -0.12886016665960945,
    0.5446292763132581,
    0.8225481268726249,
    0.6288254150156902,
    0.03439348971655213,
    -0.04927242335891818,
    0.15609296747704107,
    0.284678273520393,
    -1.2256802946973289,
    -0.1189486714551206,
    0.009140836674276027,
    -0.07744986689413613,
    -0.1545552438653027,
    0.032934792222667666,
    -0.11352818396298828,
    -0.1267531163575725,
    0.06820901724746617,
    0.07132455313944254,
    0.13783125773957847,
    -0.12784636762064663,
    -0.18593659318785252,
    -0.011646047141322712,
    -0.2045827948435169,
    -0.03887615214323235,
    -0.2511517296274052,
    -0.14747522488703982,
    0.03858241018626465,
    -0.0005474804092938383,
    -0.05962122734965973,
    0.09450116567767537,
    -0.11443264534944868,
    0.09251132176084789,
    -0.17677333651985438,
    0.025473797308444103,
    -0.09685001881446023,
    -0.12604081250328553,
    0.02099814450927721,
    -0.22325256359070672,
    0.034950787832710405,
    -0.13277479742221493,
    0.09071328262011016,
    0.057177344182651677,
    0.02861965419038235,
    0.030593245278783012,
    -0.16548573422987742,
    0.29513292481260844,
    0.10640884458300011,
    -0.12751671152261088,
    0.011986928170861187,
    0.2132559913289535,
    0.08013657572087185,
    -0.1265804381726971,
    -0.016053323741358812,
    -0.1750306882557924,
    0.1720213126936799,
    -0.35168977397818124,
    0.00036817099206195084,
    0.027976915765566823,
    0.108683498284407,
    -0.10905622584977287,
    0.1478251487542102,
    0.09334193925506601,
    -0.09772345748393549,
    0.19561709290129806,
    0.24561455248789726,
    -0.10217898651651837,
    -0.14277425872364644,
    -0.08060371055806642,
    -0.1839140066339718,
    0.23055897288064087,
    0.25085217789995234,
    -0.0887301085352487,
    0.26750375803799004,
    -0.013898313927702962,
    -0.07355860938560792,
    0.004089933284103992,
    -0.612423016095188,
    0.43755069521549517,
    0.07296871501627707,
    -0.4364390512702789,
    0.33202811387177755,
    0.3732206795610734,
    0.03026792160342755,
    -0.10461085712799242,
    -0.11754617141231191,
    -0.020396528946487316,
    -0.1904146220146155,
    0.11767802203401478,
    -0.05349725562479877,
    0.4913263402572913,
    0.22891075909883485,
    -0.20261521943169622,
    0.2513965252110109,
    0.14467649924505205,
    -0.26936312351282005,
    -0.24045577754150774,
    0.03898835035065338,
    -0.40015536663728685,
    -0.23013595083190003,
    -0.18285724737457373,
    -0.1557990949393881,
    0.06343636097009725,
    -0.3459013481799487,
    -0.4943074277776822,
    -0.23387723791327494,
    0.07181546555721317,
    0.14008665176780952,
    0.19413584003272677,
    -0.055642692769416156,
    -0.04765229140023536,
    1.1218228414270195,
    -0.19564655744360746,
    0.22405349347803355,
    0.2885726301355732,
    -0.2447134216964274,
    -0.0745877381973425,
    -0.12371228301827782,
    -0.0035643459812120344,
    -0.19854280559940582,
    0.027113912646852346,
    0.04832495045599683,
    0.21775820077181066,
    -0.14716116297368054,
    0.7131126149830194,
    -0.009710805391050964,
    -0.15216681618440978,
    -0.01297329037169556,
    -0.3965323458025938,
    0.20478687349655164,
    -0.05517657670519439,
    -0.005711498829056428,
    -0.03301584276700546,
    0.02387042593066301,
    0.08155950639327601,
    -0.30331038852172726,
    0.03422875832676152,
    0.6829282498967831,
    0.2308153808483584,
    0.24794172335856948,
    0.11052673341356947,
    -0.4861338702325766,
    -0.25904136864668725,
    -0.02250928565943348,
    -0.0008522034315824877,
    0.9118666373122303,
    -0.09638926593246179,
    0.3039051072015618,
    -0.15617104447788402,
    0.2967666731608466,
    0.1591979774146423,
    -0.26641411239570834,
    0.15545005852150975,
    -0.0874459411836968,
    0.1344102350143317,
    -0.5019595039572324,
    0.12970431609135188,
    0.020293740026408245,
    -0.2211034619976029,
    -0.10331619304312835,
    -0.07634780342528134,
    0.06400645771566306,
    0.13002385157625201,
    -0.18509712198398323,
    -0.19258207047115755,
    -0.11020319283723083,
    -0.10944756400092169,
    0.05881918455989756,
    -0.12123564511139555,
    -0.21055513588371413,
    -0.005826210602057586,
    0.0247852793705452,
    0.24990804407795483,
    0.1806507909577877,
    0.2709293112400669,
    0.05569753993258727,
    0.12934322653567248,
    0.19249058920067774,
    0.41906175258555706,
    -0.8321814800213556,
    -0.20438865368685136,
    0.13054169863164566,
    -0.30630038823312544,
    0.10766927829150592,
    0.22042379271447962,
    -0.2854741377149395,
    0.2792949856802009,
    -0.054700389224726594,
    0.03468815651957932,
    -0.029931900651401968,
    0.08141288958242389,
    -0.16763059967888955,
    -0.15425015126817368,
    -0.1369515235622038,
    0.016139225717034987,
    -0.17980020965525645,
    -0.18095382784212083,
    -0.09093713935666077,
    -0.35088560792793655,
    0.1321678279771015,
    -0.12498270702281813,
    0.12257578680247944,
    0.16475514652856352,
    -0.2035827762920216,
    -0.089426618922488,
    -0.037474802586809595,
    0.18017445121577866,
    0.2424181093333689,
    0.0622697701502888,
    0.031258793973481774,
    0.2036360714184158,
    -0.08741863223093663,
    0.323435636506886,
    -0.8723969255047077,
    0.10667998835772495,
    0.24576768313141184,
    -0.06261811989695899,
    -0.24613198739666395,
    -0.12244793323683416,
    0.32150019721752,
    0.16363535348811517,
    -0.17671713223026436,
    -0.09535779001158262,
    0.1421607903779812,
    -0.05778000845303651,
    -0.1997264153255344,
    -0.21818531035787533,
    -0.01629266342523274,
    -0.039817451993951744,
    -0.0750784338878185,
    -0.2146251034679911,
    0.3192455666735168,
    -0.09032731407602838,
    0.016617336467777546,
    0.04423290551431015,
    0.03725848169514586,
    0.21100590795999968,
    0.09647278002984509,
    -0.40811387727806453,
    -0.21741201604869664,
    -0.11260961939428399,
    0.1576705800183766,
    0.16740698608960397,
    -0.12393783029691671,
    0.15366935831314874,
    0.029161505636979886,
    0.1451188859870276,
    -1.12402743978439,
    0.0930273274241122,
    0.1676731864605632,
    0.2229235094862795,
    -0.24985586759104067,
    0.16917619337688256,
    0.05395765768062363,
    -0.0816584938037952,
    -0.0361360313202404,
    0.12829816209650827,
    -0.022345215518646107,
    0.30541128485339347,
    -0.06989321764956084,
    0.6277912274316608,
    0.003636725872585515,
    -0.20468455066700425,
    0.05289754241483947,
    -0.030907925773102963,
    0.053461219082329876,
    0.09611637654392846,
    -0.0524348850834941,
    0.10087348058843267,
    -0.15509656413745632,
    -0.004431350593162735,
    -0.06913291107557254,
    0.5265378512666808,
    0.38288206299169153,
    0.16725224221360468,
    -0.01953774587694298,
    -0.15275889357586928,
    -0.1926504738639312,
    -0.0175637371663081,
    0.07052407078952541,
    0.19744938304616255,
    0.853081671457211,
    0.06940517897305437,
    -0.22564990180575722,
    -0.5628816934534068,
    0.32214700881238717,
    0.13006475562766648,
    -0.05173665973131819,
    -0.37249919381650337,
    0.23475163101935886,
    -0.12531327450242719,
    -0.3804205644067944,
    -0.08053815158519065,
    -0.4766128151173598,
    -0.8156396178754527,
    0.10203048216634603,
    0.10600309028843166,
    0.15653988059273766,
    0.3571601063769789,
    -0.346848465735819,
    -0.37595985129863535,
    -0.24674641535295228,
    -0.43323228790665275,
    -0.016110635780773055,
    0.2836902179171757,
    0.009273695791812094,
    0.20466767584905465,
    -0.8390854687931854,
    -0.371118265116297,
    -0.41164783268945054,
    -0.6053930073107269,
    0.32372332974963186,
    -0.22227081016647518,
    -0.1514543701623259,
    -0.32972074837232157,
    0.29873763310312074,
    -0.11660764420097253,
    0.10121829487734471,
    0.08523812438700437,
    0.1567627963818038,
    -0.18186882733022558,
    0.03341740200706947,
    0.11526350560745816,
    0.12752951147573177,
    -0.13771902889560442,
    0.1409043969730689,
    -0.10077513215744117,
    0.17198677565995715,
    -0.4680288392930479,
    0.12284257091105852,
    -0.059386323977796265,
    0.21314906597378472,
    0.08377736474293813,
    0.1615916891760416,
    -0.12027323796395385,
    -0.1519914182855485,
    -0.11379193302329398,
    0.25778527086835734,
    0.1819658853551035,
    0.11907141636647037,
    -0.2031878512399979,
    -0.3054805767399414,
    0.3189390222013827,
    0.3189994626706976,
    0.32301119929776273,
    0.2130600165741294,
    0.34538049362669926,
    0.08337058518089882,
    0.16461105541221477,
    -1.1392182307268448,
    0.08614804903070146,
    0.0035308029007830523,
    0.1731007293313509,
    -0.02779372885646339,
    -0.1474157884944978,
    0.28757030915519627,
    0.05430382182997467,
    0.2665857314403447,
    -0.24576637030776172,
    0.11142487406723994,
    -0.09312883528260184,
    0.2528390826842878,
    -0.17514397141003438,
    0.09960996605516122,
    0.3627959241349491,
    0.22486945735414401,
    0.03484611183084324,
    0.034047340438007216,
    0.050966035913377276,
    0.05379944123260464,
    0.04434014752621228,
    0.2158703605897413,
    0.04943535506907941,
    0.33432881384828356,
    0.06378474820978226,
    -0.17528082804338982,
    0.14960967508635128,
    0.150243059018085,
    0.28615025341738126,
    0.1950342167062523,
    0.4023598266804166,
    -0.015583787555581097,
    0.09250645739067413,
    -0.8135111915282105,
    0.04224292884665861,
    0.25063891452494375,
    -0.14858015421733198,
    -0.2868558910540382,
    -0.07905705426191592,
    0.09961775414605042,
    0.12718445417432706,
    -0.08300131363414631,
    -0.056253883101528894,
    0.003873397835272097,
    0.16037705537127228,
    -0.1098962181543027,
    -0.47179301496665715,
    0.23923318454641276,
    -0.2278336219711093,
    0.12657668661743632,
    -0.4713757230607203,
    -0.20160380353040003,
    -0.14754098141247332,
    0.23776349824369608,
    0.43649089732667534,
    0.19556985657083803,
    -0.14303187783299767,
    0.21344221033354072,
    -0.08139774638908068,
    -0.27995904920529074,
    -0.185667694777545,
    0.36885504612870107,
    0.254677898888958,
    -0.00426099267908094,
    -0.2081866045260936,
    -0.029292678318065455,
    0.30588502739622675,
    -1.015727694064844,
    -0.08953694615055574,
    -0.05969607024258321,
    0.034430971099241696,
    -0.13874203748338446,
    -0.08213496060056047,
    0.03513664901005297,
    0.0659959502142772,
    -0.16550619969441102,
    -0.05718816556672682,
    0.09742679515373236,
    0.0645752701308056,
    -0.028219319058185397,
    -0.043971531845754634,
    -0.07685674243911782,
    0.18266980180550063,
    0.004876639080178417,
    -0.09123049259767185,
    0.30211327827976303,
    -0.26416765540053405,
    0.016313684806092243,
    -0.008618849460878203,
    -0.07427343942792736,
    -0.09898760146271912,
    -0.09514727049905253,
    0.16023932341798422,
    0.23218459863880148,
    0.16032624718556612,
    -0.1879999914480926,
    -0.008392110806227154,
    -0.1521390639584216,
    -0.1695089221101476,
    0.04407537086412188,
    -0.12677034680696894,
    0.09373341291405905
  ],
  "w2" : [
    -0.41953679695840507,
    -0.0421612618757763,
    0.6045643275108823,
    -0.5990437860662873,
    0.501909857242677,
    -0.4055811964254094,
    -0.29618933430079597,
    0.5813950307203066,
    -0.3454296176480558,
    0.2920380614059157,
    0.24586271507858087,
    -0.05892910560632915,
    -0.012099528183886672,
    0.830727478439057,
    0.462812636153886,
    0.610572979218513,
    -0.061918048395757305,
    0.1523938649334805,
    0.5837171827421151,
    -0.39907880900786524,
    -0.3972959894455892,
    -0.18324413664960695,
    -0.4590969568805631,
    -0.11563701437618977,
    0.5297821175144939,
    0.3148757220128461,
    -0.7533181979136611,
    -0.08771643231685747,
    -0.3754038523305873,
    -0.45949590164209286,
    0.04411889446108088,
    -0.46067290651692133,
    0.14496343543568552,
    -0.5949452569569487,
    0.7644996789860287,
    -0.007028222538566058,
    0.09755897146194631,
    -0.5396279453772189,
    -0.7201180024761795,
    0.27398898572882296,
    0.3033170706957899,
    0.4120842189120758,
    -0.4591140648160779,
    -0.590454163149583,
    0.28660032325301127,
    0.3064185870949942,
    0.6695644433056065,
    -0.04766131342055754
  ]
}