{
  "b1" : [
    0.053236345436147484,
    -0.1867721784098608,
    0.08616151858437505,
    0.07264162018382654,
    -0.03934458206971137,
    0.21499771650303834,
    0.2615996925777182,
    -0.1747088054115594,
    -0.017548569389399967,
    0.13293393038011375,
    -0.04716905810247492,
    0.056203179826820424,
    0.09649063540855993,
    0.11296895479296097,
    0.11675301289176625,
    0.266322378827661,
    -0.12312061212208318,
    -0.007928969940157658,
    0.14966165754383662,
    0.11800637906664127,
    0.2595471937636436,
    0.1514577500224042,
    0.0834554721868757,
    0.20448418932845197,
    0.09397680824111661,
    0.20257082127735743,
    -0.06173028916139941,
    0.03300547124342799,
    0.029773045209017624,
    0.1537061461745994,
    0.11005951225138705,
    0.0254944005970062,
    -0.03851964828738342,
    0.1686418183363015,
    0.15024418974388196,
    -0.023494795135086597,
    0.053440968499731484,
    0.13274762537001591,
    -0.0630360384613528,
    -0.1977300569897559,
    0.09353647827221317,
    0.04950194081752122,
    0.2833086331590732,
    -0.0035573536623405115,
    0.15474354512544164,
    0.23626016015222845,
    0.1297187019452228,
    -0.10050874030767534
  ],
  "b2" : 0.016002405282175995,
  "feature_version" : 1,
  "hidden_size" : 48,
  "input_size" : 34,
  "version" : 1,
  "w1" : [
    0.2365663305776908,
    0.12214196824288961,
    0.2774241611312256,
    -0.4314064654600979,
    0.23503712956334258,
    -0.11296806181895441,
    -0.009160731832255303,
    -0.20805099713713932,
    0.3007635468941787,
    -0.06358247601598964,
    0.41815495902524163,
    -0.1042282364936923,
    0.7032737598029144,
    -0.18151461731649474,
    -0.3213091094875175,
    0.02274355344213985,
    -0.22575165617511342,
    0.021901530801182737,
    -0.01398700177786197,
    -0.044208619265077416,
    0.0379545261841992,
    0.07688778157866462,
    0.07003021106368947,
    -0.32942748573253866,
    0.143478308549033,
    0.3860614660341237,
    0.04813830045326875,
    0.10847012133155966,
    0.216230901636968,
    -0.0896963449120572,
    -0.47157075640701884,
    0.15960456982792137,
    -0.034824753306206255,
    1.1483656461281775,
    0.050995988610585234,
    -0.1667455648512619,
    -0.03352954294428659,
    -0.0910916966910747,
    0.03472952542551258,
    -0.07670994771242275,
    -0.301203859915328,
    0.11610427532266406,
    0.021259947763415932,
    -0.17467279235061728,
    -0.17080792622619945,
    -0.14456810251176347,
    0.02073954923327621,
    -0.11506179331194963,
    -0.24256473212675758,
    0.031866073249956564,
    -0.2647861767832895,
    0.17353702688516934,
    0.17235882001486838,
    -0.23157915489572187,
    -0.14864734685094813,
    0.15323492565718755,
    -0.23549241883013583,
    0.010894574269734943,
    0.03653517976858037,
    0.0906747349551711,
    -0.1041673529847882,
    -0.07030772981862571,
    -0.06270530081205353,
    -0.017039286150951842,
    0.10366658697474772,
    0.005906451297979518,
    -0.01630592699568298,
    -0.07464091898388568,
    -0.0714344672164232,
    0.1924355502029381,
    -0.014377547389730846,
    -0.03899779338436168,
    -0.35104813056828543,
    0.1431860872905788,
    0.11117099872545205,
    0.12398889808815691,
    -0.26261891107135626,
    0.25980240483356365,
    -0.21556668867796822,
    0.1927558330389699,
    -0.5937680562755447,
    0.2581922965165361,
    0.0032969706238681756,
    0.2510025818882552,
    0.225632671064318,
    0.2988599430289061,
    0.21649886390375017,
    0.1700746597114932,
    -0.15993705194439337,
    -0.2133485201126487,
    0.1044590129299819,
    0.10101102368407353,
    -0.14380941349407533,
    -0.28239955302306385,
    0.04792234485653874,
    0.3506551536787286,
    0.3208340706512158,
    0.3717878189940499,
    0.07626906392342798,
    -0.03259718294845216,
    0.32794991989224004,
    -1.2474621617937505,
    -0.2627099584170296,
    0.29528995044878076,
    0.31223699479291395,
    -0.4161328196752931,
    0.03492502714670802,
    -0.07743762285452756,
    0.24143734605049233,
    -0.23204569612024573,
    0.23676429878166097,
    0.027276710635350126,
    0.25123976551847016,
    -0.049835711132455676,
    0.37748628606554335,
    0.005013215511833792,
    0.05249625100992651,
    -0.13385379829662067,
    -0.13759228011494476,
    0.2663192604778873,
    -0.07689018104562453,
    0.04004409705215326,
    0.13724805771591633,
    0.010636340410703373,
    0.19186774753031796,
    -0.15462960822097058,
    0.13437922954204273,
    0.6488271279839496,
    0.23111314579938078,
    0.3043120885878392,
    0.23670305242238493,
    -0.5277266971160475,
    -0.30633687924693703,
    0.24426630544946365,
    -0.15890210917227282,
    0.8009457862529968,
    0.16494054110998016,
    0.05295178028217545,
    -0.32667515590518115,
    0.1987883546078628,
    -0.015483484211078197,
    -0.08393502923306613,
    0.32923323329205495,
    -0.11442304901677856,
    0.07106643245198013,
    -0.3749752875297548,
    -0.05148097242750889,
    -0.11354556713231692,
    -0.346004536866781,
    0.10619309811507231,
    -0.24817326565233075,
    0.03045255692449592,
    -0.1364451203664813,
    -0.1736272317576397,
    -0.11654405639026823,
    0.13111791498957587,
    -0.23611053455778114,
    0.11782719716929703,
    0.030352572183802298,
    0.06111740308085838,
    -0.17506190858161905,
    -0.0336717858347221,
    0.3116168833917355,
    0.28548091946707715,
    0.4223265726387414,
    0.22210730817556554,
    0.1602595045402592,
    -0.06372915510492713,
    0.3465820511895682,
    -0.8786027037675229,
    0.22512303903044284,
    -0.043413164591104926,
    0.14844530507290696,
    0.05629948634249771,
    0.19501722663389043,
    -0.0321622777289091,
    -0.02626916950361402,
    -0.0371324457608416,
    0.2689943383636648,
    -0.21660057595997306,
    0.2618249253408428,
    -0.3065696016340102,
    0.6746632395153619,
    0.07824490019384568,
    0.16712018395651884,
    0.18129781011403007,
    0.06179762209584525,
    0.1225486937033381,
    0.12282239911371762,
    0.01511176040733756,
    -0.22346405408002218,
    -0.09943872509096333,
    0.2650355383037682,
    -0.156603442820203,
    0.16186300325815905,
    0.1434615753892342,
    -0.11682840637172354,
    -0.1426291472046354,
    0.009736027438247953,
    -0.16008537607018525,
    -0.23271977862692358,
    0.04134778926776767,
    -0.10496418230314494,
    0.7293320149099485,
    0.05168756470588614,
    0.12915409638959044,
    0.12892976912183704,
    0.05687621558418338,
    0.280153586762876,
    -0.10743222394167111,
    -0.0714545469554935,
    -0.043833716879694354,
    0.2955902513034514,
    -0.03154614675494495,
    0.0550052451366277,
    -0.20130933588394562,
    0.5994061463439752,
    0.13184403515848037,
    -0.038244241169778016,
    0.12450269152916726,
    -0.10812810841547908,
    -0.08152453145319197,
    0.2271435283913505,
    0.08695594140815212,
    0.21930284475913092,
    -0.09145810640449045,
    -0.10477993093646,
    0.08619421422285549,
    0.18135073373024285,
    0.10591485196426556,
    -0.07350353851202655,
    -0.2567157569385866,
    -0.21758422079215922,
    0.09404312291874009,
    -0.1820853176645844,
    -0.03389492023622591,
    0.14159886286238207,
    0.7939905429152158,
    -0.15121535133823916,
    -0.13246284007877376,
    -0.3552112367213658,
    0.38779132540642425,
    -0.013996211697934587,
    -0.1363933866609574,
    0.06714412746608286,
    0.13497992036451548,
    0.0032378228988246935,
    -0.03336231816848636,
    -0.14431752393147917,
    0.19385269564112473,
    -0.07089518821161837,
    -0.22415895776029693,
    0.1596110591275835,
    -0.2193119445610104,
    -0.04648414455921271,
    0.17650128319727484,
    -0.11865767505095762,
    -0.015103910879593098,
    0.11255494423300935,
    0.002228867487898043,
    -0.2613668234553554,
    -0.0037269387272052578,
    0.2233927621627047,
    0.08079983455201645,
    0.5852661470222048,
    0.32080263044169444,
    0.3506899767222437,
    0.1683531976950932,
    0.5034992177058188,
    -0.08853062473880298,
    0.029705896327043325,
    -0.37061505808627615,
    0.19927590465332487,
    0.05610435148188637,
    -0.08796084046588008,
    -0.17099357562207723,
    0.2794182016393392,
    0.11355325043945423,
    -0.06646780713888005,
    -0.13255167245760577,
    0.1451066058277329,
    0.06522019958697842,
    0.08831174719166257,
    -0.07969752313714598,
    0.4842730840306957,
    0.09370907624718736,
    -0.22487271680909687,
    -0.07010726967886334,
    -0.3127030439327549,
    0.06167481460280585,
    0.15782373132611718,
    0.1808355167717827,
    -0.23298685347357817,
    -0.46137790474293106,
    0.2698933165591969,
    -0.2441063183177945,
    0.17450926125145758,
    0.5559538204234615,
    0.2180733168734058,
    0.22153011576694925,
    0.11332539971128251,
    -0.07631522638598436,
    -0.09275825102116803,
    0.07941491710667974,
    0.19513581819713044,
    1.015597504388788,
    -0.05727806681536456,
    0.21724337964416923,
    0.1498357178140548,
    0.04930236632442026,
    -0.18359151174631128,
    0.027262426359820027,
    0.13500249357387592,
    -0.03931955336445348,
    -0.18077249612324736,
    0.18112682054884227,
    -0.1804643820504035,
    0.19646631890941027,
    -0.2923684305377259,
    0.07194545085372894,
    0.04130450428661614,
    0.23840215451477767,
    0.06779845500435926,
    0.33130124800663047,
    -0.03697984023865137,
    0.094363260599056,
    0.06810068411335628,
    -0.017831312640009204,
    -0.1746572338360134,
    0.10354819526603315,
    -0.06100090479388944,
    -0.13549385251178353,
    0.08349307973397657,
    0.12774775611737474,
    0.22519124464392193,
    0.10813062047611957,
    0.36185361734080257,
    -0.17874575121579828,
    0.14047198403672786,
    -1.1020115005067932,
    -0.025562220493881134,
    0.14139606738963081,
    -0.04879948083840434,
    -0.1815863628855015,
    0.08103578332433671,
    -0.27426941576697,
    0.035770921894851745,
    -0.01982607249844247,
    0.1444320940092261,
    -0.4626287750064742,
    0.08784518852979123,
    -0.10477623908921303,
    -0.17379595940455364,
    0.0028955884857030678,
    -0.08134482362483089,
    -0.17820523759235798,
    -0.1022863087317505,
    0.04423218764842735,
    -0.46797329585390934,
    -0.0690485057124,
    -0.16630560285216828,
    -0.07952236373511641,
    -0.043237885431823844,
    -0.22143124773266545,
    0.2373641320390056,
    -0.14810552153369383,
    -0.12691366393934447,
    0.222014867890775,
    -0.014283072885241778,
    0.020870160705862437,
    0.32634195725913206,
    -0.07400591341585006,
    0.4359310722936192,
    -1.0679661647103047,
    0.0979846668650231,
    0.023863483424863198,
    0.22930576909662106,
    0.1483722184138275,
    0.1881042749781813,
    0.2997611147953142,
    -0.11562121634414134,
    0.09808985411198141,
    0.194840840327845,
    0.19264242959776487,
    0.012163158899380326,
    -0.18301948603140478,
    0.41299794661203537,
    0.2170586466259618,
    0.2878093785780243,
    0.18947271972136812,
    0.050993153732706,
    -0.055816644428809264,
    -0.0919923161596622,
    -0.06950876931742804,
    0.13196156112025126,
    -0.22796775279317708,
    0.2092106004972218,
    0.061147869978863706,
    0.1106267865156377,
    0.12216538019042295,
    -0.05940575818545132,
    -0.03849713880403264,
    -0.2284913733087181,
    0.21928112485905524,
    -0.15260677691477922,
    -0.13722444373230816,
    0.13290519733201892,
    0.5477864878669148,
    0.0252352130465305,
    -0.22314765440194329,
    0.17011862011694767,
    0.03741362676626561,
    -0.15146678304782857,
    -0.16191768891951333,
    -0.17949803608647166,
    -0.04206103998179282,
    -0.0858526218587446,
    -0.13108160839202074,
    0.07013011945537204,
    0.00908138627587871,
    -0.16374203345975258,
    -0.1198873350770791,
    -0.21412889108412006,
    -0.1605904533352437,
    -0.0765469813767951,
    -0.09587299948706983,
    0.1957362548598177,
    0.11504005055607792,
    -0.10051676041571007,
    0.14643197857418705,
    0.12397049480075957,
    0.123805596284916,
    -0.18835666219405808,
    -0.03226728864578982,
    -0.1589835624627564,
    0.015702554468021834,
    -0.11128847172748631,
    -0.12133054913605167,
    -0.1530079032648564,
    0.0030672959568208854,
    0.025008452617798944,
    0.011367376950911562,
    -0.05077866411571451,
    0.1852363781830858,
    -0.14800701587325146,
    0.29642919542732343,
    -0.14091935459633695,
    -0.24609957201230764,
    0.12095121566532212,
    -0.06469341758017773,
    0.0009840196965214803,
    0.05085513559132521,
    0.1289844468308675,
    0.24892738527018846,
    -0.7515848155899766,
    0.33926161103035085,
    0.1880028828154062,
    0.0573066830890067,
    -0.20447202416851695,
    -0.22819938689316266,
    -0.1136276834138223,
    0.4234773461553749,
    0.318968004935742,
    -0.04135497250989345,
    0.0037084653137425564,
    -0.0022479461076475803,
    0.02439674478658605,
    -0.004202488589365155,
    0.50959183980495,
    0.652264964061759,
    0.4871004435205131,
    0.04408023108405067,
    0.13584367793116522,
    -0.05259908919258553,
    0.4802821806368489,
    -1.1314001485889906,
    -0.51471379172663,
    -0.018191096129079494,
    0.3484568609448531,
    -0.6100001319972199,
    -0.28144155670423837,
    -0.04945619344562011,
    0.05960146956410381,
    0.20285973002869614,
    -0.06746514573891532,
    0.188487556579852,
    -0.10240078732768795,
    0.04864528051807414,
    -0.4129290154490917,
    0.2105537753034901,
    0.11273073156298274,
    0.1172023394564536,
    -0.35104146849525836,
    0.0633888684740258,
    -0.07263533787717869,
    -0.2408072101802906,
    -0.06830936244781668,
    0.19265807077974662,
    -0.16767355762024042,
    0.2643360880389653,
    -0.13247008463854618,
    -0.33604829063823793,
    0.07086163089720236,
    0.20369464097256593,
    -0.04884372220905176,
    0.13606246126039265,
    0.32605551775864483,
    -0.12159193204065427,
    0.17222172639558758,
    -1.1079016142395102,
    0.044486606097744026,
    0.22011947404586707,
    -0.08626646827372796,
    0.2520800231661084,
    -0.07834897822780552,
    -0.037253160000355945,
    0.12702799935613815,
    0.11672273706699247,
    -0.04638958827151777,
    0.28766678298739423,
    -0.10171322185463427,
    0.2791138550378248,
    -0.6006965274375146,
    0.2393005211332157,
    -0.07861096348265101,
    0.1677579045300896,
    -0.056054953828528875,
    0.4158211442230507,
    -0.1570423768452714,
    0.1318743618744326,
    0.15285824374927245,
    -0.15685639679030702,
    0.1669195612096386,
    0.22017388075605043,
    -0.11053621460123057,
    -0.26853433323429404,
    0.35644789948510963,
    0.3881746355816633,
    0.16023888022194846,
    0.10901820775363864,
    0.23105769930795267,
    -0.057351671033854246,
    0.0820219201730928,
    -1.2367783428518142,
    -0.03359941964878559,
    0.09186728029038965,
    -0.16422843170735948,
    -0.03166991086927733,
    -0.17595651147899508,
    0.083868156413808,
    -0.08937201730224137,
    -0.22974240734363915,
    -0.001888730402287818,
    0.060173587738614254,
    -0.00022677019283233726,
    -0.12896928605290525,
    -0.09894287596485803,
    -0.09423141312590257,
    -0.014585873224159886,
    -0.12068021709404567,
    0.061479750703683604,
    -0.04300909084333292,
    0.14026561504109383,
    0.027478737635276633,
    0.021284648675579436,
    -0.03666755470710755,
    0.011153734584128808,
    -0.07082635797232081,
    0.056813653818847516,
    -0.01260780645101716,
    -0.15127742808591263,
    0.017578248111545996,
    -0.12044109575923033,
    -0.20475484869210275,
    0.07911165923187032,
    0.1503895604786665,
    -0.1776692396429629,
    0.19116571455479234,
    0.3394038877656145,
    0.1005218560089856,
    0.14368573289353012,
    -0.17748834964064084,
    -0.13780502563080435,
    0.20194808470328515,
    0.022924523782087647,
    0.32355638218151705,
    -0.021650931647209846,
    0.22690244993443828,
    -0.20329745929439544,
    0.19374607980094888,
    -0.06323829108889625,
    0.04723867514080215,
    0.21563054790107186,
    0.027018406262532567,
    -0.038040611465078616,
    0.21642469494632924,
    0.07391939193475373,
    0.1690177734868807,
    0.16896016698027824,
    0.36691850452089725,
    -0.025842770471168473,
    0.39088641661019485,
    -0.1073157993119103,
    -0.007881087577289737,
    -0.00819090149630194,
    0.1726591770118788,
    0.39272694243281847,
    0.2620644813896171,
    0.2041590474295607,
    -0.006888000361941989,
    0.22971024494617223,
    -0.5842802409121752,
    -0.060679242283882634,
    0.06260824068475433,
    0.047122425986459104,
    0.28304642612162584,
    -0.3223561980115907,
    0.05686168358280969,
    0.08936897836267385,
    0.3016517623099199,
    -0.04446873003576111,
    0.308654617259782,
    -0.03812673253748792,
    0.08448589042319461,
    -0.5462533189824869,
    0.2959379490052214,
    0.19147713029918073,
    0.25994885416514346,
    0.1342222468216259,
    0.009224109581950224,
    0.041244965403755364,
    0.25989354609674753,
    -0.1471671930101052,
    -0.09283594420173678,
    0.021988113884584805,
    0.15067345422611114,
    -0.12124155386784446,
    -0.31753129438039546,
    0.17558728908004528,
    0.3855428263698192,
    0.2624972183514367,
    0.3703967544678232,
    0.02310980888883668,
    -0.21868945276645715,
    0.2022899039958285,
    -0.8608753817705103,
    -0.024225646286516314,
    0.12526284545776628,
    -0.17659825791776337,
    0.3774001620278818,
    0.4440770364778828,
    0.1017408723358817,
    -0.29049503395020276,
    -0.0883308714512164,
    0.37713384568237307,
    0.0632015268576863,
    0.06822526071466714,
    -0.26843536677945135,
    0.38338802658144483,
    0.06177885787631895,
    0.0806926987903907,
    0.24063577029371613,
    0.3119909089750408,
    -0.22890642279992568,
    0.31081683747244315,
    0.06776400202365447,
    -0.057925880061879334,
    0.02027688087966996,
    -0.15128586758522955,
    0.15028106223134766,
    0.23290762435780232,
    -0.09231450400046502,
    -0.280871046421996,
    -0.24941799804785408,
    -0.3683019339540683,
    0.05848077995328978,
    0.07242499380127351,
    0.025713595694328854,
    0.04799603815294217,
    0.4950299958255815,
    0.42351007284216796,
    0.06885229002294534,
    -0.060745927105060236,
    0.06058397027105555,
    0.15441425409204043,
    -0.0717703986024135,
    -0.05828833873399408,
    -0.20712374264349864,
    0.13997021135987345,
    -0.08692115066221565,
    0.1341214957151864,
    -0.14594508634845593,
    0.7678756226012762,
    0.16098352389432866,
    0.019863830978753005,
    0.1931629877974435,
    0.07066167429126283,
    0.11279557388730088,
    0.007622832021422534,
    0.08734617110245071,
    -0.020241035508130816,
    0.0648203290467915,
    0.035063366840564276,
    -0.011133953429905068,
    0.11122615163825299,
    0.39416857478812567,
    -0.10153566195113524,
    -0.12449757681666694,
    -0.024935061902030174,
    -0.03634384731947728,
    -0.3227751152425763,
    0.15170750285731888,
    0.08158200148221004,
    0.9970623492199604,
    -0.13542443568533294,
    0.08423094423591265,
    0.13286368556999933,
    -0.07905821004946394,
    0.1266648369039771,
    0.04217716341748603,
    0.025769898877296967,
    -0.17269989330398017,
    0.10050738941498555,
    -0.25033670789896056,
    0.2997670049431851,
    -0.1601600527494112,
    0.5048685046026721,
    0.10492085008189549,
    -0.000706805356818569,
    0.14529561989014292,
    0.25451004621233936,
    0.06379490718039264,
    0.03467573076706861,
    0.07774419758742797,
    -0.05448573818072556,
    0.12069243796044836,
    0.012282159514246155,
    -0.05142987792093044,
    0.03236685716128483,
    0.12173704220324554,
    0.03482503402118968,
    -0.23480487287137133,
    -0.13304973477167367,
    0.05806912352242705,
    -0.14105904627700175,
    -0.00048649161626299173,
    0.2586889940585281,
    0.6543258280785429,
    -0.3792681321754848,
    0.3320092862800158,
    -0.00254306500180534,
    0.3233765495765026,
    0.35414804862735216,
    -0.16981085073653207,
    0.028489828593370257,
    -0.19059364961866437,
    0.07792141476276099,
    0.08818501603066137,
    0.1621811205613982,
    -0.3259829858433984,
    0.5614988329486048,
    0.3295510208023139,
    -0.18787247473707255,
    0.011899675607001602,
    -0.02850307174944881,
    -0.22911868089267293,
    0.003556159656458118,
    0.3697373759198601,
    -0.29810960276811765,
    -0.162648826181182,
    -0.12551250114818657,
    0.12932064602070795,
    0.28234194069729934,
    -0.34815294766418065,
    -0.5486830403301622,
    -0.12609389061484647,
    -0.09361739763470535,
    0.13562053580793462,
    0.047603834287083334,
    0.066599741227731,
    0.07299134847788746,
    0.8234798711306974,
    0.3657184982593674,
    -0.14712190656858085,
    0.10995299400609339,
    0.08908069711955159,
    0.19966615300945287,
    -0.14769285120605138,
    0.11077228683652211,
    -0.14710300070732077,
    0.23111496619924057,
    -0.24084797637582142,
    -0.03366754119213992,
    -0.3723198114582958,
    0.29208636819878386,
    -0.1864135688004828,
    0.16317837671447444,
    0.14858831678262452,
    -0.10868481063364856,
    0.08043337766586514,
    0.062356970255213535,
    0.06436305922566923,
    0.1919794359649314,
    0.054001287702626424,
    -0.0905355017199883,
    0.17649268227018922,
    0.3815970581499448,
    -0.02902602365383304,
    -0.07087482735055052,
    -0.18377222009335925,
    -0.03977890897954556,
    -0.04341591303269855,
    -0.18571255391609445,
    0.19376704548366774,
    -0.04585940400507905,
    0.44110774447752615,
    -0.029548619434818135,
    0.17687524776651306,
    -0.4448117684517471,
    0.05807604999605832,
    0.07460308002528152,
    0.18303378245589846,
    0.1744261552630477,
    0.0639529080538384,
    0.10897989797943217,
    0.06085477332640543,
    0.003755693030422553,
    -0.1234058322242747,
    -0.2585213279186775,
    -0.12157890325174721,
    -0.3286707136774436,
    0.2034555649315853,
    0.19966822311832028,
    -0.14432713174869188,
    -0.2725864630371979,
    0.4298372747743023,
    -0.45984465269170244,
    0.06476557229211248,
    -0.08315410764372996,
    0.16419458726003044,
    -0.18554554186864491,
    -0.11785102243245762,
    0.366911666832195,
    0.2610999669762926,
    0.4034036673199391,
    0.22966590903040537,
    0.0046079397384362,
    -0.06255814238157814,
    0.16172131869316073,
    -1.0713080273788584,
    0.15295819402622232,
    0.14507833231138578,
    -0.26672726746740444,
    0.07859895595009099,
    -0.06680790797567462,
    0.05295988035716008,
    0.10288318221109533,
    0.03373046072633309,
    -0.11905354172799078,
    0.09050440855264845,
    -0.0056776929189722635,
    -0.07797552252326229,
    -0.014564957157589485,
    -0.21050135090828548,
    0.2397638744334844,
    -0.052102555664789926,
    -0.185007717661597,
    -0.024623518033813012,
    -0.18738880648348052,
    0.2514783500863558,
    -0.09840886596593257,
    0.016024629376511085,
    -0.07234083028408289,
    0.48916146238509123,
    -0.058575696885423155,
    -0.015702557707386267,
    0.13868208140603988,
    0.06156566804772482,
    0.22494445255278311,
    0.11642423367091084,
    0.4707580464258934,
    -0.012024714583977511,
    0.19648507167585474,
    -0.8883065319683446,
    -0.01944171788810653,
    0.18269168517873735,
    -0.4911689906735034,
    0.6526710868960384,
    0.13766296167789493,
    0.05143302842323538,
    -0.08455575973909944,
    0.21572294931220298,
    -0.13801058368745042,
    -0.2149359003190804,
    0.09940273295673085,
    -0.06619059001413946,
    0.2101845251467071,
    0.13880472520891055,
    0.09263978069303112,
    0.057959833681621185,
    0.021234112250011098,
    -0.18645752497742688,
    -0.22484642051296583,
    -0.22541232323095556,
    -0.21891655632737664,
    -0.021278899029889196,
    -0.14026247592973762,
    -0.1215382769767535,
    0.27291747654126464,
    -0.5731207102733701,
    -0.6960490409224925,
    -0.35649358753006133,
    -0.24008530735261957,
    -0.005246605111161487,
    -0.13517217766231157,
    0.09042087154264027,
    0.1430725553713412,
    1.004587630384207,
    -0.24058797212302507,
    -0.10592880005638006,
    -0.1292606766366194,
    -0.09447346386294256,
    -0.08360712736337976,
    -0.1425369892317127,
    -0.14115289829048594,
    0.050143708698931644,
    0.08563943306151808,
    -0.10227562146753133,
    -0.09286042952526123,
    0.1530746451562758,
    -0.06892816307409644,
    -0.04565890103921307,
    -0.016277260272102596,
    0.04272956732213199,
    -0.18533115833475064,
    0.05555375251302294,
    -0.2420346017368359,
    0.09217848200193439,
    -0.18471536772640781,
    0.009509302623718904,
    -0.08120600858838523,
    -0.2247824256288271,
    -0.20308852827966747,
    0.08183821731395717,
    -0.07391768637654818,
    0.022698194420585505,
    -0.14013945992245228,
    -0.22845346300336847,
    0.02192513885257042,
    0.005559494669498109,
    -0.19547654925517563,
    0.20833140566549255,
    0.2284030039123195,
    0.04391357668501277,
    0.19779843923537252,
    -0.3536446813639065,
    0.33423464703349,
    -0.20670863821271157,
    -0.0056277075683405075,
    0.044073406778286396,
    0.09333152901967902,
    0.11453283356688507,
    0.013568455263475792,
    -0.09537897850383219,
    0.4896326822781474,
    0.021973296691182337,
    -0.16359084857096143,
    0.19947161181474565,
    -0.3363774753626467,
    0.1196450518260184,
    0.07312442352346503,
    0.18432363176383182,
    -0.10721384966017494,
    0.07040792370950848,
    -0.07561036943726722,
    -0.16071055913600432,
    0.05059339106725412,
    0.41881376384578123,
    0.20711772248875318,
    0.2219031610839389,
    0.26527849709197926,
    -0.14872050321896418,
    -0.14063545116300272,
    0.09058511730726551,
    0.18501557804573737,
    0.8463424585409632,
    0.144874567692594,
    -0.14652419394676114,
    -0.3159060897242315,
    0.4221155698927983,
    -0.0174866926121896,
    -0.019894101183781963,
    -0.10224678354268103,
    0.06523608176849698,
    -0.3917309502583238,
    -0.245861016948588,
    0.1200199966167394,
    -0.1602404733053593,
    -0.28620302712834933,
    -0.19043830166300327,
    0.29900868751265613,
    0.023423613908922256,
    0.17871501672515666,
    -0.1141619147064771,
    -0.07267477142237236,
    0.07706209462676872,
    0.03339997189676986,
    -0.07597255154677258,
    0.006324443400553128,
    -0.13514510678805616,
    0.2083445212048363,
    -0.5305125432762847,
    -0.6301468075652712,
    -0.3174976014359655,
    -0.29537815624741554,
    0.049991684582033916,
    -0.15424697570512239,
    0.029796355339057026,
    -0.17639325403163822,
    0.0734376855880334,
    -0.14184350754763006,
    0.10274679739390663,
    0.19412579707337319,
    0.22484852152626925,
    -0.03395611382295164,
    0.07183744965758149,
    -0.10141922024476675,
    0.26934845914777794,
    -0.07190390263007729,
    0.06112020960269286,
    -0.12562789347603756,
    0.1583618219635936,
    0.012532298059111265,
    0.1351737497309545,
    0.05167776195540172,
    -0.13506245195035083,
    0.14439004228506008,
    -0.11043652710654157,
    0.12050880852881422,
    -0.2013815002244038,
    0.1448233167899386,
    0.0017295421074484721,
    -0.25543943359253984,
    0.15486675891772111,
    -0.017871288164913807,
    0.14369110706877591,
    0.04231356172920275,
    -0.021730465843281442,
    -0.08659332559879343,
    0.010983959265776005,
    0.021835044244774643,
    -0.0344835803330958,
    -0.15427776399284157,
    0.15557747389201923,
    -0.04330391246416456,
    0.01551909971420857,
    -0.2793311973342154,
    0.5001739830834337,
    -0.01190284916521832,
    -0.14074373616153762,
    -0.002760014930447171,
    0.15516621694808216,
    0.1273181183220909,
    -0.29615440019806166,
    0.22165981857546183,
    -0.07256156518580806,
    -0.1547775841244279,
    0.1724582913042454,
    0.13205603430569376,
    0.002138216569822669,
    0.30151996573419626,
    -0.13169795883288965,
    0.012587722090607864,
    -0.17644887457917988,
    0.36375792390377265,
    0.22301153094518988,
    0.08633626375230892,
    -0.17590367137040125,
    0.21042060376071028,
    -0.5808435731400116,
    -0.9442204418768633,
    -0.5631488324399111,
    -0.37448689201504454,
    0.040566991047129984,
    -0.20449595378094415,
    -0.06819610055042016,
    0.05844912020350257,
    0.5815316449326516,
    0.3943252695647197,
    -0.08572518718606467,
    -0.02003300725208747,
    0.08816579532751573,
    -0.06427211522392526,
    -0.06970283585681952,
    0.09104489631974998,
    -0.18544568260650804,
    -0.01887232405878899,
    -0.16673202002081658,
    -0.20682513536148492,
    -0.0803029561261038,
    -0.39462572936790963,
    -0.04683600552123711,
    -0.06497921825043537,
    -0.16901846570952536,
    -0.25340427440591357,
    -0.07734914748317437,
    0.022515238988827586,
    0.02202759156598777,
    -0.17639803718958413,
    0.013932182421936253,
    -0.03594457944583778,
    -0.1399856006447365,
    -0.016981374118421988,
    -0.0035488096750593587,
    0.18086176705989826,
    0.1469735698512328,
    0.13394981503837664,
    0.13129436208532372,
    -0.04850408997752893,
    0.05612721815242239,
    -0.14535566993746554,
    0.04129099466487889,
    0.2009204574520312,
    -0.12883908283130874,
    -0.32450083728208,
    0.5774160088920876,
    0.18250961922171655,
    -0.053005331946554025,
    -0.151161489636728,
    -0.0478343383278352,
    -0.1501107131751893,
    -0.23544799953469303,
    -0.2144254541313132,
    -0.09670806287035011,
    -0.4954736242762531,
    0.12670638283288937,
    -0.04811601555667784,
    -0.10907404819783417,
    0.0789017100157652,
    -0.20065052547725482,
    -0.03971196768614568,
    -0.12206255498685976,
    0.0038909525421431373,
    0.13671150502024293,
    -0.15468775832416806,
    -0.06774647556770715,
    0.16453253788902403,
    -0.5518699866593779,
    -0.5774644888873436,
    -0.5593566772601515,
    -0.6807817204560085,
    0.05418699120276639,
    -0.01631798360837171,
    -0.07613920968367455,
    -0.10890436314217083,
    0.19362503500675465,
    0.0934162369488321,
    0.24540539880722703,
    -0.5271863021564174,
    0.3557762507471299,
    -0.097395684696511,
    0.07477315596276157,
    0.29074070378459527,
    -0.17059746877785492,
    -0.05795325682801901,
    -0.15158963408812437,
    -0.008657768052894472,
    -0.0636944646273196,
    -0.2596404769214604,
    -0.0325366291181626,
    -0.29073389076366457,
    0.1727861260103082,
    -0.05211584661295217,
    -0.21271663458158221,
    -0.4087588315660267,
    -0.029596744996837638,
    -0.17540038125461255,
    -0.0034994644931914884,
    0.06322966258563115,
    0.021437510258639405,
    -0.3554111235542768,
    -0.14939431183128993,
    0.5230771240040784,
    0.7967437801861278,
    0.6056319872838164,
    0.0170600025498547,
    -0.031812091583970796,
    0.1299291670532443,
    0.3057045391820846,
    -1.196598727611451,
    -0.11894605937055074,
    0.02110443683900352,
    -0.07141053281584962,
    -0.15455184986886064,
    0.04756477158871088,
    -0.11352569091103609,
    -0.1267503328892461,
    0.06820751939364987,
    0.08595368947545516,
    0.13782823099789918,
    -0.12784356014478254,
    -0.18593251006443387,
    0.011453694034632358,
    -0.1895094775111394,
    -0.03317130325455742,
    -0.23575739093814882,
    -0.14747198636613282,
    0.03858174458711082,
    -0.0005478844667106117,
    -0.059619918081669665,
    0.10053695817067976,
    -0.11443013243573938,
    0.0999869469570411,
    -0.17676945461937543,
    0.03766379158577264,
    -0.09684789201105305,
    -0.12603804467698293,
    0.03194322796384661,
    -0.21231165388542447,
    0.053675311707439506,
    -0.1327718817192032,
    0.10261250633344955,
    0.05739436229543042,
    0.01609334242552976,
    0.03059257345814841,
    -0.1817871885253861,
    0.2840284407706178,
    0.13235217891563947,
    -0.1300474818347615,
    -0.014419180749645238,
    0.19510890517707813,
    0.1302712877071522,
    -0.11161516451422819,
    -0.04809305837436985,
    -0.18244397607989601,
    0.19346344971596122,
    -0.3639698757232516,
    -0.01011871242178809,
    0.03169068389928815,
    0.09985998935869023,
    -0.10144618477020483,
    0.14025585382209305,
    0.09491340095902084,
    -0.08505562161678028,
    0.1947403455526398,
    0.23114468969612614,
    -0.10863747878455149,
    -0.1261078274673973,
    -0.09411161018970168,
    -0.21077500685766606,
    0.20255718606464615,
    0.19330612526429916,
    -0.15011673938814077,
    0.23797575167752397,
    0.043261043763462646,
    -0.12934727689127903,
    0.026333091447221707,
    -0.6008036581183253,
    0.4375410867063842,
    0.07199690402893649,
    -0.4608727340067517,
    0.35558935916463624,
    0.3857752503646276,
    0.0404332765482136,
    -0.09498028182361455,
    -0.1700298672776405,
    -0.035342134477010546,
    -0.1820877373562946,
    0.10400262866752466,
    -0.0823497215305497,
    0.47701632735981736,
    0.23849620451254017,
    -0.19890888455632075,
    0.22464142457616842,
    0.15504974838706526,
    -0.25747821557481704,
    -0.24025049011209182,
    0.004842945285278328,
    -0.44921441007717317,
    -0.2082885186337894,
    -0.20957525053515355,
    -0.1805601064600506,
    0.06211643847696087,
    -0.2956149402465039,
    -0.4647930266831775,
    -0.21445139186916687,
    0.10204549078648477,
    0.13689298803798383,
    0.16383021607788129,
    -0.03533713396066662,
    -0.0660627203220778,
    1.119190193025532,
    -0.19564226109167995,
    0.23303277572297854,
    0.321434248332493,
    -0.2824084349909036,
    -0.04657569794758998,
    -0.09990124953929572,
    -0.013759765689382713,
    -0.18008697638511423,
    0.05214748032659868,
    0.07498683411563467,
    0.21215527829560107,
    -0.12562751195406857,
    0.7457292934089941,
    0.004823211634214461,
    -0.16958978484076176,
    0.014780350054715376,
    -0.38213724673705807,
    0.17670213335404783,
    -0.024169946430660113,
    -0.011887784771422652,
    -0.011723104751009435,
    0.043990658803532916,
    0.10321503242667159,
    -0.30625622972209804,
    0.038180121934107865,
    0.6732602229149284,
    0.24457918860297584,
    0.26768629399598937,
    0.14135280589159419,
    -0.4541229978427315,
    -0.28149066572508213,
    0.00034510511048560126,
    -0.028520944302616286,
    0.8979184562584581,
    -0.09123725519075038,
    0.26901450364061136,
    -0.12689464808428239,
    0.29404910594665357,
    0.10814891956649768,
    -0.2522932495779703,
    0.13452888800772297,
    -0.036314109091565,
    0.1145007489138283,
    -0.5106034717948813,
    0.12128969310785773,
    0.028437100687143196,
    -0.23673270574619973,
    -0.12966372182059507,
    -0.07168760578379284,
    0.04851769437243886,
    0.13562924828530099,
    -0.17795181433184684,
    -0.2205847538575835,
    -0.10965285773012029,
    -0.09940316193751991,
    0.05045199992262874,
    -0.1049806681437245,
    -0.2141453891137255,
    -0.011265017137774778,
    0.037504628225058144,
    0.2616086347286672,
    0.14606172204810197,
    0.23182851781039168,
    0.02806638882259118,
    0.10638176692066527,
    0.1444151188075299,
    0.43667576508145384,
    -0.788631217633803,
    -0.2019375823856323,
    0.12275925414966751,
    -0.3049963357777623,
    0.07532486580741167,
    0.17171969465222503,
    -0.2713758250264024,
    0.27769495780694997,
    -0.034599241361827224,
    0.010495147808063994,
    -0.014117758650140288,
    0.05001159655598871,
    -0.13001740418237515,
    -0.1560178538254667,
    -0.16887845719632172,
    -0.029400804865111166,
    -0.1838432165980518,
    -0.21074069392126724,
    -0.07191676872954951,
    -0.35653093099243605,
    0.1272211472177611,
    -0.14915449454504764,
    0.12403133795068376,
    0.15922480654949842,
    -0.19829961182073672,
    -0.13784929083802094,
    -0.08103607596099222,
    0.12089470714847707,
    0.20908409737191389,
    0.011771150123637995,
    -0.0055912706953310225,
    0.21556909378065786,
    -0.12083830876070384,
    0.35059261903747435,
    -0.8362494179357827,
    0.08691656629116411,
    0.23919431065015287,
    -0.08385166431375587,
    -0.2761085821777258,
    -0.14505680565751186,
    0.29675996815290984,
    0.1544231368042934,
    -0.15105961558896863,
    -0.11801178757435417,
    0.12820286944032394,
    -0.0677874152990848,
    -0.17406839340584776,
    -0.23211074036400503,
    -0.03328057904573279,
    -0.044807279458290834,
    -0.10142399294804925,
    -0.22552747949167495,
    0.3254552232795536,
    -0.09402315931928544,
    -0.008134352848629038,
    0.049157132556100616,
    -0.0014477051496563323,
    0.20452413518259166,
    0.09182565510875645,
    -0.4314808692254577,
    -0.21803273303350462,
    -0.11954476463933565,
    0.1487321017514518,
    0.15291423403674972,
    -0.1274676672637098,
    0.1736113163442874,
    0.013386107396694276,
    0.17140620013839566,
    -1.1003364307878138,
    0.09302528456556033,
    0.18733288606451762,
    0.22291861415026545,
    -0.21039797642106628,
    0.19045053483736754,
    0.07168346316772048,
    -0.06263253789145462,
    -0.06942632822754624,
    0.12161592853976637,
    -0.0019915446074581507,
    0.3185690089883181,
    -0.08945535694325481,
    0.6494312717874193,
    0.03427544909272829,
    -0.15793906869888255,
    0.08641420159306305,
    0.008545157352078236,
    0.05346004509217058,
    0.09611426584807702,
    -0.052433733620267424,
    0.10087126543344908,
    -0.10315435034754811,
    0.02103905176409239,
    -0.07261234574960664,
    0.5484722238016311,
    0.3978167304264452,
    0.21024087698343297,
    0.018696783017039264,
    -0.11699868822560726,
    -0.15914126593638714,
    -0.06505935045648255,
    0.09618809378589263,
    0.18363979449713036,
    0.817452264351442,
    0.05902147727271614,
    -0.2259103527886829,
    -0.5962471444600519,
    0.29866879185705697,
    0.16062719281185373,
    -0.04414761465540359,
    -0.3643675436693742,
    0.18253467447684163,
    -0.15845284839859877,
    -0.3804122104615655,
    -0.09634387978069224,
    -0.477043534193529,
    -0.8523994375506336,
    0.08645893954314955,
    0.07847305522468384,
    0.13505719711274664,
    0.32619053339217435,
    -0.34684084902590273,
    -0.3759515953096067,
    -0.2504695145146322,
    -0.433222774228521,
    -0.03141005567061993,
    0.2798770129014912,
    0.0008211016658756394,
    0.17510362748418037,
    -0.8189858941716971,
    -0.3903793707840719,
    -0.37231874127067605,
    -0.5636524473021869,
    0.30113225646733643,
    -0.22226592915228283,
    -0.15171645046150195,
    -0.3297135077830097,
    0.29888457964123083,
    -0.11660508352645534,
    0.0859757019121516,
    0.1092215496625797,
    0.1651252374576091,
    -0.18895714279877968,
    0.017164150087930118,
    0.09912459433333087,
    0.17544272939579159,
    -0.1202981035666765,
    0.11762088478989256,
    -0.10610180079892424,
    0.19587233447365013,
    -0.4773385136004494,
    0.12967735730002589,
    -0.04800613934456944,
    0.21029825444118794,
    0.10571568545528758,
    0.14361441550916648,
    -0.0705897871361835,
    -0.16402114637785545,
    -0.10625045550946445,
    0.21027856402599548,
    0.1782318628875454,
    0.14406893281682112,
    -0.20801386851176376,
    -0.3108647489601546,
    0.30265524071846267,
    0.2723970698050305,
    0.28177595238158176,
    0.202315819461614,
    0.3958011511072201,
    0.0569656561869363,
    0.18590195503875162,
    -1.108651865023726,
    0.08614615723812864,
    -0.011553458416553726,
    0.17309692806744192,
    -0.027793118514201954,
    -0.1680633646571395,
    0.27079976305886866,
    0.034538138796635615,
    0.31387015221717135,
    -0.24013822057290043,
    0.08955732641919857,
    -0.10461799063404965,
    0.27646412679862375,
    -0.19538122514766162,
    0.0793899129275182,
    0.36278795722121304,
    0.210878151232034,
    0.034845346614108395,
    0.034046592763927824,
    0.050964916709940446,
    0.05379825980640646,
    0.044339173822019406,
    0.16914479247184225,
    0.057622706450579535,
    0.3780441157523543,
    0.04165295651183915,
    -0.1908391034662233,
    0.12569823321268048,
    0.10130390800832116,
    0.2446091363975121,
    0.17536056008900958,
    0.4526265923078664,
    -0.04196219076809394,
    0.1140678048474659,
    -0.782692889942993,
    0.04224200120073905,
    0.23596865368957848,
    -0.1378071554640425,
    -0.26311262402849417,
    -0.0899313802542152,
    0.07614641749182192,
    0.1399004500146922,
    -0.06843289481885188,
    -0.06911860074687648,
    -0.01151650582149915,
    0.1746725815348479,
    -0.09678274799539235,
    -0.45951141382252886,
    0.23928233696422116,
    -0.2551831990334806,
    0.13951647353261143,
    -0.470455752088814,
    -0.19392512287201366,
    -0.12851073530844803,
    0.2519783873508499,
    0.4164003785906169,
    0.16555602249617563,
    -0.12532433742001414,
    0.1959019285280818,
    -0.07045830461632666,
    -0.3013606763839475,
    -0.2023847269692778,
    0.35355341233241433,
    0.22387696460185752,
    9.023837511416972e-05,
    -0.17577328333369513,
    -0.06032217122092383,
    0.33027143319102065,
    -0.9883112875915755,
    -0.08953497994048702,
    -0.02276116286208407,
    0.04670459427981267,
    -0.10862836022923532,
    -0.0726146820258957,
    0.053050397681521394,
    0.07883346587847745,
    -0.1532311532127795,
    -0.0929736294277453,
    0.12592605718746105,
    0.07525083578717483,
    -0.02212345516495132,
    -0.020735579347327105,
    -0.039178435655007136,
    0.19000592834635815,
    0.048045063858000274,
    -0.05482609307646575,
    0.28467572249591944,
    -0.2660009654617336,
    0.03217307561033341,
    -0.0029030310640308804,
    -0.04345859147638053,
    -0.11435865789090478,
    -0.06536464661489814,
    0.16720540351290628,
    0.2552236274734376,
    0.1933796238149266,
    -0.13989623893645697,
    0.03959152855899601,
    -0.1038541588796934,
    -0.16196476540993435,
    0.07818949112766974,
    -0.11219257641890663,
    0.045180827771093196
  ],
  "w2" : [
    -0.4466208899424423,
    -0.011114382358668106,
    0.6051590269771385,
    -0.6126427767418047,
    0.46303722301518624,
    -0.44010234438339163,
    -0.3275890255810909,
    0.5574698322458181,
    -0.37296391251646716,
    0.29593386144682027,
    0.21178068592721022,
    -0.08351474655604567,
    0.01964477533890894,
    0.8054197619754038,
    0.4888927833921035,
    0.6157968115350209,
    -0.07378849381071802,
    0.1592153734165893,
    0.5994336016165869,
    -0.4076936028016583,
    -0.4434690977228166,
    -0.22309599945954822,
    -0.4765005701854552,
    -0.14455769537995733,
    0.48616003759665816,
    0.3183736537008787,
    -0.7236063877404212,
    -0.06761451039635293,
    -0.4045261990820585,
    -0.409624198350118,
    0.07876236498360102,
    -0.43384025486245714,
    0.13015150771491035,
    -0.5596229101441852,
    0.7297828728032713,
    0.0019717045223846077,
    0.12119895244796074,
    -0.5694075789448417,
    -0.7407297437544251,
    0.2298832068109396,
    0.2706978940548238,
    0.3859675047026382,
    -0.49351200580563515,
    -0.5399831848762456,
    0.3054972259486035,
    0.32920644786775816,
    0.6282255601903982,
    -0.05398425309293337
  ]
}