{
  "b1" : [
    0.019781027112653744,
    -0.1537418279839739,
    0.10284424822007794,
    0.023738147844528667,
    -0.04377108877286241,
    0.18597598791921868,
    0.248285157081474,
    -0.18891316417408507,
    -0.06251788131650007,
    0.13042652471714597,
    -0.06531235848538515,
    0.044573482239216075,
    0.09712101089058635,
    0.10236910428371697,
    0.10206891443011087,
    0.2601540966840936,
    -0.13576122755540054,
    -0.012715819905836201,
    0.15771923961858905,
    0.1296305099955203,
    0.25195349943073453,
    0.1295871717501241,
    0.08033395638252717,
    0.18453032478236706,
    0.11000670879187027,
    0.22307310471078146,
    -0.061002524378294246,
    0.06181701496803593,
    0.015882922058815956,
    0.14430911481414632,
    0.12974020702461517,
    0.06596151924033902,
    -0.002306988734857618,
    0.1815611998568219,
    0.16243810415006302,
    -0.038126332241507264,
    0.05396171507186522,
    0.1519617784738624,
    -0.07573815313385476,
    -0.17836057764171342,
    0.1179191729379377,
    0.06760968390396002,
    0.24997096594619597,
    0.02745936635505332,
    0.14379733975975081,
    0.24510140701757785,
    0.11884137531852144,
    -0.13008316567459885,
    0.004930119778165727,
    0.002121489221655149,
    0.0023714701728449906,
    0.0008224966522103563,
    -0.0038209129179032643,
    0.00859527996980228,
    -0.007737795027149005,
    -0.0056631648613036005,
    -0.00867994763971183,
    -0.004751123004963163,
    -0.010228731930789287,
    0.0036817915808280777,
    0.00531201478634887,
    -0.007003154682108964,
    0.005729096453647028,
    0.0037194838264923333,
    0.0038481306587746238,
    -0.006453675319975698,
    -0.0043885281828818816,
    0.000933695163186216,
    0.005235647289599902,
    0.002119616721732828,
    0.0008373899862011547,
    -0.0039752199859041035,
    -0.008100320679412916,
    -0.007467307609442792,
    -0.009808799423627891,
    0.00842075675512546,
    0.0032483977169158423,
    -0.0067862644982467045,
    -0.00016969336468121053,
    -0.01137097128080278,
    0.0023092357226722174,
    0.005600691060593869,
    0.0010996687515089749,
    -0.008589279752489827,
    -0.004642392263783544,
    0.004488536362147012,
    0.00639311781360726,
    0.0005619336762866939,
    -0.000719376395534149,
    -0.005186562187009969,
    -0.004753295645914881,
    0.00527514137349391,
    -0.0055013151293873425,
    -0.004949049094086785,
    -0.009617604341343948,
    0.000369645164862758
  ],
  "b2" : 0.024681283209992754,
  "feature_version" : 1,
  "hidden_size" : 96,
  "input_size" : 34,
  "version" : 1,
  "w1" : [
    0.2530060848544473,
    0.12249603591087767,
    0.22212746373550277,
    -0.45395024293116076,
    0.24226313236860644,
    -0.14281603343013086,
    -0.005135742580225013,
    -0.23719339277488635,
    0.3099338477213919,
    -0.09728549643033568,
    0.4264825338838924,
    -0.12949303893707056,
    0.6670434318714485,
    -0.2163893148698203,
    -0.35217004268358976,
    -0.007680721558100019,
    -0.2570871200558527,
    0.03962258974398645,
    -0.05960916101080135,
    -0.033482993892188194,
    -0.010760168420381216,
    0.018703123660819256,
    0.04372042148078307,
    -0.331072277350787,
    0.12523996442914656,
    0.3777638965432585,
    0.023000076181762568,
    0.08900527947006495,
    0.20479159084666965,
    -0.11660619229132484,
    -0.45997631649413884,
    0.14787892862464153,
    -0.016084902633880193,
    1.1592087357693972,
    0.07061462563669514,
    -0.17118817972691763,
    -0.012625353922795696,
    -0.09109369052827819,
    0.05087277409101521,
    -0.08166870621881821,
    -0.3012104527386429,
    0.14798815146202965,
    0.04061598838032819,
    -0.1796336950915731,
    -0.17081166491161573,
    -0.12854379016346643,
    0.017750107545288857,
    -0.08205554917801526,
    -0.23678956608093035,
    0.06446598777045799,
    -0.26356171535835815,
    0.18786245610114483,
    0.18639996608699064,
    -0.22927720599377815,
    -0.1629275154805905,
    0.20004244781479824,
    -0.22557847267496592,
    -0.008149514518605235,
    0.032398785051806475,
    0.13211678203142568,
    -0.08163494370128452,
    -0.06843537544423274,
    -0.025830031017310805,
    0.0043404802213586734,
    0.11304503494861223,
    0.009671520831336438,
    -0.0304209782506343,
    -0.06668759559020519,
    -0.07143603079296165,
    0.201255759409068,
    0.013486326060987604,
    -0.036755414806884566,
    -0.31331164133074235,
    0.1576878285224173,
    0.13381172832259466,
    0.0795440969658654,
    -0.25423105706308424,
    0.28314102099473426,
    -0.20285333215646,
    0.1695174353398467,
    -0.5673409849616793,
    0.2794503416026135,
    0.012929369956482362,
    0.26602059464118766,
    0.2163526845342148,
    0.3044836656037179,
    0.22052014112858784,
    0.20085251927332576,
    -0.1160961520126943,
    -0.17208384479627065,
    0.1155215480688459,
    0.09939697986631961,
    -0.14257427096630104,
    -0.2608052223979733,
    0.08100347963984926,
    0.3972063541866057,
    0.35100696230483547,
    0.3912044294029783,
    0.030620861208480756,
    -0.012862694947557997,
    0.30601649440615175,
    -1.2824496012802324,
    -0.2627157086764699,
    0.28234189020826034,
    0.2603231813095098,
    -0.4258453644763232,
    0.019245677706334036,
    -0.10471177506409463,
    0.24000533192489096,
    -0.24760367713097653,
    0.2386943558701218,
    -0.007663982071694166,
    0.24796878853170312,
    -0.0667454324275803,
    0.34426045427520335,
    -0.03129356815906523,
    0.03385896671473127,
    -0.18847917787648708,
    -0.18275856446182515,
    0.2711509525019276,
    -0.0589329394211936,
    0.04066891583013216,
    0.08218284918702772,
    -0.010447722901147358,
    0.16356653297975474,
    -0.16602464556952726,
    0.1135119072923581,
    0.6435198508610549,
    0.20957362827556875,
    0.2709689963483694,
    0.2172622308092941,
    -0.5684942524856678,
    -0.28876917308657096,
    0.21977350127799186,
    -0.13825461100260358,
    0.8407251545328818,
    0.16494415136990273,
    0.044910889408688454,
    -0.3686317499887854,
    0.24689846365446919,
    0.03423403373396237,
    -0.08258779774126142,
    0.33088894147460013,
    -0.1503759275238727,
    0.09662884924243723,
    -0.406220680289689,
    -0.06810347712987015,
    -0.17336802212820987,
    -0.38553688378657075,
    0.10017770142584086,
    -0.23581214094990402,
    0.023999210328738807,
    -0.11265339081731826,
    -0.18907254180327887,
    -0.14159412803945326,
    0.12428538161475762,
    -0.2236075449252148,
    0.10907247234209626,
    0.01144063718392823,
    0.04822408313159661,
    -0.14808822021214407,
    -0.03984454707294877,
    0.2935339684395188,
    0.3115735704931403,
    0.4548893119111165,
    0.23132189943274134,
    0.13852350801377486,
    -0.03970308175240903,
    0.3025771255830301,
    -0.9104866434491533,
    0.22512796658088602,
    -0.056188816910947265,
    0.10379989744238688,
    0.0763479762292951,
    0.16826773332805653,
    -0.04598173195444102,
    -0.038891917601293784,
    -0.006730753022839645,
    0.2719041464433153,
    -0.24057948342362262,
    0.2586026762896553,
    -0.3056127196293362,
    0.6500858800543375,
    0.053489897874597535,
    0.1591945560575254,
    0.15422865785279702,
    0.086225892915685,
    0.11707024222444562,
    0.14402233071871562,
    -0.032352692151598667,
    -0.258632598912599,
    -0.14289703653051009,
    0.2723842954602131,
    -0.1712005641133249,
    0.15000882508167132,
    0.12635917813863481,
    -0.1404593891371526,
    -0.19372670164917152,
    -0.031769948053494694,
    -0.1821762747163802,
    -0.1873558919414855,
    0.018193252968830367,
    -0.08267065968399949,
    0.7605575021147645,
    0.05168869605505394,
    0.12188528695249774,
    0.10275722478797278,
    0.0474869707810161,
    0.25104123810973544,
    -0.11741977859271742,
    -0.08482419039095156,
    -0.005203168853523067,
    0.2942388035688846,
    -0.048694101038046465,
    0.05286077654515612,
    -0.18278444326704565,
    0.5902749369761979,
    0.11136851753146247,
    -0.040098775291046725,
    0.11389962836733444,
    -0.11773689415461061,
    -0.10770168225862509,
    0.22714850016387395,
    0.08695784472062806,
    0.21930764491085622,
    -0.12587584710763258,
    -0.09630596437060616,
    0.1041111671251904,
    0.17828907473666855,
    0.0893109261173819,
    -0.0943992356647055,
    -0.30751860336764525,
    -0.25911994834252206,
    0.08211575466697724,
    -0.12596484298086885,
    -0.0517414112313004,
    0.15143709518785775,
    0.8256151174188795,
    -0.15121866117661292,
    -0.14497109397238703,
    -0.3731454721915259,
    0.3949897083167727,
    0.024489313069847203,
    -0.15632349784704644,
    0.07984336816297073,
    0.08731695932118391,
    0.014316922876081297,
    -0.05442534424184539,
    -0.1436042024292282,
    0.18342430161609352,
    -0.08066059144465562,
    -0.23822507406617785,
    0.1685282949072363,
    -0.23872381049832653,
    -0.022809976634929185,
    0.17176191027419124,
    -0.17036864989366374,
    -0.04673241291318398,
    0.0878594114581528,
    -0.045653813755772134,
    -0.2698147047835228,
    0.004796438161078514,
    0.233273530727392,
    0.08138350461916824,
    0.5933561844420168,
    0.3507821036651195,
    0.391032228383411,
    0.176924344064893,
    0.463732929039657,
    -0.08659237365084338,
    0.030009280840771944,
    -0.34860106534566787,
    0.17014142026716944,
    0.0551404733615613,
    -0.12471429019418569,
    -0.18397293203877704,
    0.24360001882346735,
    0.10083230827713292,
    -0.0655620922245684,
    -0.16264681995017766,
    0.13058712991657126,
    0.06150588945919715,
    0.0967705181851364,
    -0.11111474868922369,
    0.45734743101247655,
    0.06196952212909942,
    -0.24637884436733667,
    -0.11401148634222442,
    -0.35920796287674356,
    0.04801250534387009,
    0.14692377546422494,
    0.16908497814758094,
    -0.19637855960705244,
    -0.4478075660740924,
    0.23625236237020691,
    -0.2579528811603952,
    0.15327716737758604,
    0.5573848147695053,
    0.18077520852862505,
    0.19803256852174883,
    0.09150523214453489,
    -0.11043576837072337,
    -0.07243753651502341,
    0.07537422754021145,
    0.1977979020266631,
    1.0175071936872475,
    -0.05727932053075528,
    0.22595183443525124,
    0.12009916047537685,
    0.07628826112593048,
    -0.1663763235042002,
    0.03954834655263953,
    0.1486523854526484,
    -0.08174409010550723,
    -0.19605373314932026,
    0.20055237927001954,
    -0.1763193157340475,
    0.17552059656663016,
    -0.2912279276669085,
    0.07748911155283933,
    0.0015027798022129947,
    0.24266278021030874,
    0.026540690744748307,
    0.320284477177844,
    -0.0732806824318005,
    0.07880127433782652,
    0.08992158283946694,
    0.023693686766787608,
    -0.2000563531179095,
    0.057183811157572595,
    -0.03917986213152295,
    -0.11848160309652712,
    0.09683117252563742,
    0.17371235968493862,
    0.26176680829225124,
    0.11075647487254,
    0.30377456606742814,
    -0.15912855685330232,
    0.11863945785439542,
    -1.1383816735763435,
    -0.02556278000597803,
    0.1488138702281668,
    -0.08789030055624208,
    -0.15569866148892433,
    0.07144497356002388,
    -0.29075474483813857,
    0.05425523657189323,
    -0.06814823176074838,
    0.13480616875210247,
    -0.47911822693309264,
    0.10633064302104137,
    -0.15310025776141847,
    -0.19427255081040584,
    0.005762412094778949,
    -0.11088289270775448,
    -0.19253963167766597,
    -0.10020334119337254,
    0.0035965503599651736,
    -0.4679835389671834,
    -0.08518031942441207,
    -0.20595109648929974,
    -0.08133025100124398,
    -0.06557352679328472,
    -0.23946977481340964,
    0.23248173366258018,
    -0.1638134323238332,
    -0.1414628519862193,
    0.24834294274990454,
    0.02535328247159347,
    0.01011351109096181,
    0.29868649754506726,
    -0.034806797335547,
    0.3956873211684946,
    -1.1092308307842005,
    0.09798681157719556,
    0.012233077978121499,
    0.2293107881969038,
    0.148375466021298,
    0.15956307935616618,
    0.2853195497802081,
    -0.1239942419764396,
    0.13721722520219085,
    0.1918014850960257,
    0.17143489783305432,
    0.011009679996049902,
    -0.1632545750418152,
    0.40566576686811057,
    0.19930112111954806,
    0.28781567821944637,
    0.17974487637724604,
    0.050994269884176595,
    -0.05581786615735202,
    -0.0919943297102675,
    -0.06951029074208459,
    0.13196444952666833,
    -0.2449701170383661,
    0.22363952321417147,
    0.09355761692183773,
    0.09703217718668189,
    0.10584087564844213,
    -0.08148374460353755,
    -0.0820505530898945,
    -0.2647794340069756,
    0.2076786353736478,
    -0.0939196342867826,
    -0.15748898762211558,
    0.15515335872018546,
    0.5779882025139691,
    0.025235765401008886,
    -0.2231525387120549,
    0.17075060718620375,
    0.03741444568482433,
    -0.13324841881224916,
    -0.16193790734645525,
    -0.1544429348491213,
    -0.059310350712352855,
    -0.067632821444453,
    -0.13110115187133525,
    0.0951906846144805,
    -0.008166805036821642,
    -0.1565936509541227,
    -0.12304218701285141,
    -0.20036384562841228,
    -0.1589300374298489,
    -0.08511358835217299,
    -0.11675108155591721,
    0.23373109281839452,
    0.10956821580566745,
    -0.08546110199339908,
    0.14828828146758877,
    0.13292245145160428,
    0.11285116544063548,
    -0.16997883782256396,
    -0.031739240665582875,
    -0.17049909120490356,
    0.04009451935924513,
    -0.1551839475920002,
    -0.10395361216299943,
    -0.1355050948528717,
    0.0030673630945405148,
    0.02500900000888993,
    0.011367625762821909,
    -0.08267550919085638,
    0.19928029207009182,
    -0.16172244902243316,
    0.29643568374277657,
    -0.10905454451217038,
    -0.23874145900819066,
    0.1367059988852432,
    -0.11817157437665814,
    0.005338697328528947,
    0.06824547570496838,
    0.13542533585639652,
    0.2240920137434958,
    -0.7577597196193272,
    0.33867358546119825,
    0.19815867694925085,
    0.04135848520836525,
    -0.17808254589656838,
    -0.2370563629308606,
    -0.15316804501244813,
    0.4138642235563681,
    0.31463089100783204,
    -0.06651931269509105,
    -0.003793554320873497,
    -0.025485827785523822,
    0.04983179635567291,
    0.02011509536577981,
    0.5468530005840376,
    0.6836622343279968,
    0.5168343144316923,
    0.04484213438233014,
    0.08532577288678597,
    -0.029024625625546942,
    0.4586197404252156,
    -1.1568273390626762,
    -0.5281013514536886,
    0.004697776072366231,
    0.333966937235673,
    -0.6522780103380632,
    -0.2954434814666654,
    -0.028633495732212928,
    0.06697096719666448,
    0.1736819683435042,
    -0.08146238693363768,
    0.20891329485798976,
    -0.09433316050292083,
    0.027513168091584324,
    -0.40668412534510595,
    0.21866687893910602,
    0.06831897015741417,
    0.112195350341518,
    -0.37897597584418213,
    0.07298696008325445,
    -0.08826445115077937,
    -0.2597710108081805,
    -0.07038326912099434,
    0.21297308123828745,
    -0.16380736115244626,
    0.21919724086774403,
    -0.13701734070531502,
    -0.3198207246573328,
    0.07337165323195854,
    0.239868151427221,
    -0.01275046820028803,
    0.12382689276219645,
    0.27446169009596044,
    -0.08599629999693746,
    0.14787674456995092,
    -1.1537735466310348,
    0.04448757983487129,
    0.22868195304785857,
    -0.10136491489044837,
    0.2582221936893052,
    -0.0577445403289674,
    -0.022342801432744423,
    0.14006671434861226,
    0.07071304696266917,
    -0.06252550231391198,
    0.312044521904554,
    -0.10181808548940027,
    0.2541874292843977,
    -0.598594276781041,
    0.24017495244750217,
    -0.10621819405605412,
    0.17160746901885776,
    -0.06927228486881294,
    0.386913169844258,
    -0.18357178430172347,
    0.1060629657525356,
    0.16832069642955655,
    -0.1349135661623314,
    0.1357828037406795,
    0.19658315887603534,
    -0.0975226294853822,
    -0.26950879476905965,
    0.37220169772436884,
    0.43300407402839847,
    0.1947145010784881,
    0.11056561964790669,
    0.17897473036219308,
    -0.037839381584522686,
    0.060230677668499585,
    -1.2723151076501313,
    -0.033600155081051616,
    0.07923137056432966,
    -0.16423202637920015,
    -0.03167060406798606,
    -0.17596036285789704,
    0.07123207160097975,
    -0.08937397349868431,
    -0.22974743600130634,
    -0.0018887717432780537,
    0.04753698429330616,
    -0.00022677515643345055,
    -0.12897210896399364,
    -0.11190659529571972,
    -0.10663841612895236,
    -0.014586192483299149,
    -0.13304199384074336,
    0.06148109638741404,
    -0.04301003223676973,
    0.1402686852089774,
    0.027479339096566663,
    0.0212851145591444,
    -0.04806941783430284,
    0.0011830028464155902,
    -0.07082790823686355,
    0.045832819228937664,
    -0.012608082413749987,
    -0.1512807392830373,
    0.006009800975900111,
    -0.13189369491535408,
    -0.21563495796521173,
    0.07911339084710133,
    0.13775493170250322,
    -0.17767312851047548,
    0.2027587233684618,
    0.3394113167215655,
    0.10935373101335197,
    0.14324108300454122,
    -0.20478290774556765,
    -0.10851145142581725,
    0.21385292892916855,
    0.030259407242457327,
    0.2814416121342048,
    -0.02023674916733297,
    0.2458477820194346,
    -0.19797416968344894,
    0.17321430939378407,
    -0.053766685049187884,
    0.05676675639869242,
    0.17165335713661456,
    0.029311366748841293,
    -0.06848249439682942,
    0.21642943210373236,
    0.09135636442690753,
    0.16902147298910647,
    0.1689638652230068,
    0.4086529667687194,
    -0.0549873952201876,
    0.35572674221229783,
    -0.10654349456351506,
    0.0008905602562463376,
    0.00843242467101277,
    0.22274779606599437,
    0.4275714396554603,
    0.269962160874266,
    0.1445001884351358,
    0.013026772044736061,
    0.20731329937736517,
    -0.620628376121453,
    -0.060680570446307786,
    0.07144614990314821,
    0.04499948486433468,
    0.2830526215082366,
    -0.30038538236494855,
    0.06906043944256424,
    0.10658826749004077,
    0.2596629508749518,
    -0.05206884172529895,
    0.3286960902392435,
    -0.02970520560096947,
    0.06427204352619097,
    -0.5383639280087983,
    0.30289225487074495,
    0.1862452396677185,
    0.2689826176542747,
    0.16810801549749457,
    0.022993502512703424,
    0.012426520305100518,
    0.26323980678434494,
    -0.15897379905584771,
    -0.056082340347381125,
    0.01834946770664197,
    0.11965855293328755,
    -0.11093683755099014,
    -0.2981545946376749,
    0.1911010965913923,
    0.43303726456157327,
    0.299204941229086,
    0.378450552339218,
    -0.030300766979041452,
    -0.1989486546949323,
    0.18038992727966607,
    -0.8957964006693694,
    -0.022577064286918445,
    0.12049840069876473,
    -0.150515831772941,
    0.35051583069481784,
    0.41538269806927086,
    0.09097477943385654,
    -0.2945227796607196,
    -0.04576324113503307,
    0.37660378025383223,
    0.04596920459043504,
    0.07575249891787533,
    -0.24575837152369512,
    0.4020882787255053,
    0.06448853410924703,
    0.11007552783027846,
    0.24601942012697103,
    0.319761788342709,
    -0.2061380823991374,
    0.31982826665376035,
    0.05251604994610699,
    -0.03445156187837966,
    -0.016748924863339208,
    -0.10630471240092886,
    0.15735033945692192,
    0.23015179516324463,
    -0.09907571122535892,
    -0.29037171711517623,
    -0.28107711658173185,
    -0.3955942417063592,
    0.0570697563942201,
    0.13719506024648512,
    0.010474509799134718,
    0.06401903325484887,
    0.518190445706539,
    0.423519342731514,
    0.06135990507376877,
    -0.06956749996219859,
    0.06058529634983697,
    0.127242212829204,
    -0.08438640081040497,
    -0.07131950508717026,
    -0.16852891661020258,
    0.14095366267300874,
    -0.10714079611214186,
    0.1305995005380749,
    -0.13291220553823108,
    0.7562514684171022,
    0.1445615349342089,
    0.00674547366976046,
    0.18671399301300376,
    0.07066322095684607,
    0.09907453130117451,
    0.003934593093919619,
    0.08534897819067641,
    -0.016124518652017847,
    0.043969573388185315,
    0.05224083702153094,
    0.009111823123115235,
    0.08567161548154056,
    0.37646732954613304,
    -0.12455811108534144,
    -0.1662598179925306,
    -0.06056131185966559,
    -0.04758372215420653,
    -0.2685698352947447,
    0.13309900305852543,
    0.08750587388339594,
    1.033647831403426,
    -0.18683525700919695,
    0.0834597985011038,
    0.13286659371489218,
    -0.07905994049562483,
    0.0967369395817421,
    0.034223445193248304,
    0.012972925716606779,
    -0.1434638296373411,
    0.09825295846062589,
    -0.26356264464009094,
    0.29632242175973333,
    -0.14316603055946298,
    0.4956768730825848,
    0.08823544727222829,
    -0.0007068208306607634,
    0.12301974159282224,
    0.2545156169873929,
    0.06379630353567736,
    0.03467648975768181,
    0.07774589927035543,
    -0.054486930780098634,
    0.08272909683775309,
    0.03322580481897529,
    -0.018193166555901082,
    0.020477026874375772,
    0.1044303918295262,
    0.011516249283822787,
    -0.27553959049661236,
    -0.16816942172009736,
    0.03400661344387394,
    -0.08362465558254235,
    -0.0203756946541978,
    0.27801307146561177,
    0.6599339827200427,
    -0.3786909931397323,
    0.3206914028876562,
    0.011441047297169328,
    0.30303108589183947,
    0.3316806251110017,
    -0.1847430599919599,
    0.028703682421065697,
    -0.15923710079458273,
    0.06773556108268532,
    0.06813424893348834,
    0.17700366706335846,
    -0.3109689540609207,
    0.5636305937195603,
    0.32387646180725743,
    -0.1849537251599261,
    0.011665144926644258,
    -0.019708352656860446,
    -0.2520768071896908,
    -0.026033297630311043,
    0.3821387786810194,
    -0.2794052229099779,
    -0.18622741754160718,
    -0.07976683172751806,
    0.14109887414273223,
    0.28055899059782424,
    -0.3426686760420653,
    -0.573505383882382,
    -0.1484500364578122,
    -0.11959597944915284,
    0.14493665768332908,
    0.09284452016622327,
    0.05127986805568913,
    0.08561319987999,
    0.8577378476924953,
    0.36572650319490707,
    -0.1730729751866231,
    0.10920459189850443,
    0.07072367154326115,
    0.16906003251102586,
    -0.16410789635515885,
    0.10012421667465293,
    -0.11725334235845605,
    0.22894189572229628,
    -0.25906356559485366,
    -0.03272746831701631,
    -0.36271054597004493,
    0.2786592616318835,
    -0.21085028720593968,
    0.15497756376008623,
    0.13540619877065593,
    -0.11999047686600377,
    0.07746901735256786,
    0.06308508752994511,
    0.076611113736284,
    0.16346323537586627,
    0.015351527272733471,
    -0.08277447230821575,
    0.20783790610281933,
    0.3696235032794874,
    -0.05303403409103864,
    -0.08768069328459908,
    -0.21859165681372106,
    -0.07283837946316365,
    -0.08032727024656466,
    -0.15705440292722042,
    0.16779875092236676,
    -0.04636131497115134,
    0.4814773432222371,
    -0.029549266201023668,
    0.18180220016949092,
    -0.4229876324952707,
    0.054764380844130364,
    0.11705007237496019,
    0.20243974191973213,
    0.18778265845438358,
    0.02559381396590581,
    0.12403964701169336,
    0.09208907318486938,
    0.00987678522006472,
    -0.1324017035265759,
    -0.24117165483034436,
    -0.0998443676617891,
    -0.32098414112114143,
    0.21799799554415472,
    0.21546053304944426,
    -0.1426524017058515,
    -0.23599314646226047,
    0.44313649376885517,
    -0.4434498234887208,
    0.10341863508366157,
    -0.0721246411505871,
    0.16888625150154085,
    -0.17848677387196638,
    -0.08675465016669273,
    0.40608043225851875,
    0.3071062810051003,
    0.44223105697651244,
    0.24755013863056635,
    -0.01385341813657392,
    -0.043367496452450416,
    0.13414530190572702,
    -1.1106754478436716,
    0.15296154201342593,
    0.15357816918755962,
    -0.24612927997984815,
    0.09786384728691813,
    -0.02776682663305808,
    0.0636844714831322,
    0.12569920188620956,
    -0.004659905170356676,
    -0.11132432160297348,
    0.10758014092224905,
    0.010927996126728975,
    -0.09565404241234256,
    0.007061548354261608,
    -0.1802049914101842,
    0.2705690997133967,
    -0.03607405519154339,
    -0.15327385894810705,
    -0.027492627202093587,
    -0.16894452051324474,
    0.2817969289932182,
    -0.10540919296752488,
    0.037075378465745566,
    -0.08321473822552448,
    0.45321789602301804,
    -0.026322610021532977,
    0.022096902244677075,
    0.19063842973638126,
    0.0999564388890274,
    0.26006032688484554,
    0.1368146337674606,
    0.4106263587550406,
    0.007334176602994686,
    0.17480775086718964,
    -0.9245154210827423,
    -0.024837258838323106,
    0.18977558671793776,
    -0.5175023473424057,
    0.6764792962712566,
    0.10343176609286055,
    0.05142023786642375,
    -0.12604933642713861,
    0.25709948553297557,
    -0.15049311395694645,
    -0.20224198671851068,
    0.0784783265983388,
    -0.06612561868763742,
    0.20355163272471208,
    0.13173174305594748,
    0.10727813038121506,
    0.056417285278124694,
    0.02852947588377742,
    -0.18695031299930318,
    -0.22485134200608298,
    -0.22541725711068897,
    -0.2189213480261847,
    -0.04080035855809,
    -0.13907934192290528,
    -0.10395689342310697,
    0.262913960531104,
    -0.5572448712444146,
    -0.6718887397063026,
    -0.3757637221197162,
    -0.2581413080186715,
    -0.011569184092124775,
    -0.13517513634379946,
    0.08795739656760629,
    0.16255448681489734,
    1.0038384540159295,
    -0.2405932381710509,
    -0.06950716581420247,
    -0.10784011006674483,
    -0.10577509539191779,
    -0.046206631401901545,
    -0.1454668575113205,
    -0.14406457781583093,
    0.07299855432104621,
    0.12498135790097041,
    -0.10520460849653308,
    -0.09577105201330896,
    0.17601569816609722,
    -0.049059269172049794,
    -0.013888381755697437,
    0.009310917966123093,
    0.07148031490841926,
    -0.17605172144408085,
    0.06779894365784865,
    -0.23928533398272459,
    0.10861036410941939,
    -0.2024951700931966,
    0.04172589507957523,
    -0.10078205636064703,
    -0.1916632428823255,
    -0.19169668152251101,
    0.10609242777421428,
    -0.05085662991410771,
    0.038514496706689584,
    -0.11103269920581021,
    -0.21236906978020575,
    0.0637421547060319,
    0.04086468982266455,
    -0.17571179409070092,
    0.2411693635459908,
    0.23190586710187205,
    0.02875819696426397,
    0.2248408030983508,
    -0.3707518644085013,
    0.3244046067951514,
    -0.2375072334663272,
    -0.004273370557718989,
    0.06431447845646125,
    0.0956499894377515,
    0.08649910529521838,
    0.015893772263554325,
    -0.07953424166253675,
    0.47594106108532375,
    0.000882029991260508,
    -0.1724623512170058,
    0.18676506661298545,
    -0.3377519134357489,
    0.1443383052414847,
    0.08516431333266128,
    0.19508140876437766,
    -0.10748043785776161,
    0.041661720516381846,
    -0.06911601914568909,
    -0.1347144377167906,
    0.030789781988076102,
    0.4063347057741572,
    0.17579326699673492,
    0.19403197176073242,
    0.24465653008243504,
    -0.16099594017955646,
    -0.08154498941390831,
    0.06713213017553467,
    0.18414647063010442,
    0.8798058290073931,
    0.14967659764248023,
    -0.1549577305093515,
    -0.34688475507933986,
    0.44083267146942334,
    -0.05434638604366241,
    -0.024885618562304902,
    -0.11928285604037092,
    0.1080840394847817,
    -0.391739524560601,
    -0.25494322161129723,
    0.09928804172857054,
    -0.1796587565822327,
    -0.30797280539095684,
    -0.20016612188125316,
    0.3033754553654798,
    0.0024248776052367624,
    0.17205257071421964,
    -0.09029095147392933,
    -0.059843679452131926,
    0.06457202886566912,
    0.005502587713957607,
    -0.08083116234400022,
    0.0036308633876004494,
    -0.11837159140244409,
    0.19226238870800247,
    -0.5645649163400662,
    -0.6193283090956051,
    -0.361704881944368,
    -0.3304222588240785,
    0.0470858032946184,
    -0.12893328501307483,
    0.02136667812351671,
    -0.17639711497006738,
    0.07344270632663631,
    -0.13375695419429665,
    0.11752749042618056,
    0.21554900057166973,
    0.22485344306523025,
    -0.004414675637750739,
    0.0908944718693666,
    -0.08612466544421611,
    0.22771233131750226,
    -0.06887659791928726,
    0.08439446170436793,
    -0.11615385654428945,
    0.13697908642479087,
    0.021012914735550826,
    0.16001404086224302,
    0.05803963606663855,
    -0.11451772287963286,
    0.12660261996751979,
    -0.08831692884754794,
    0.13516082201004326,
    -0.1990430298337162,
    0.12901366472868278,
    0.01301575848045961,
    -0.22472593793854936,
    0.114887835253228,
    -0.0034730660152976355,
    0.16125987313033646,
    0.0629371043221043,
    0.03350367939775113,
    -0.03912562575183637,
    0.02428232006433247,
    -0.04280131006081806,
    -0.00930908229080646,
    -0.16690359902806512,
    0.12060129440323003,
    -0.02036024312021399,
    0.016415020018902313,
    -0.24068387866919633,
    0.542165184799701,
    -0.009503183835790354,
    -0.12263444364017463,
    -0.02102175360006508,
    0.20645178413424564,
    0.1502368995171013,
    -0.24405147651221243,
    0.2155689511400791,
    -0.04924351463112709,
    -0.13170191768628578,
    0.1895255016104726,
    0.157529472648742,
    0.038210687023119534,
    0.3437850942524927,
    -0.0951483821937295,
    0.02895715966212545,
    -0.18506268530858122,
    0.358498497065746,
    0.25122087393309345,
    0.132931401452845,
    -0.17833520316422607,
    0.2336459296728493,
    -0.5677103125284507,
    -0.9071643415883859,
    -0.5777587838207967,
    -0.3834142674712814,
    0.05585235879265005,
    -0.15130440980961965,
    -0.07486221717709782,
    0.06786789287809436,
    0.5785531831959565,
    0.39433390065236634,
    -0.08572706355980343,
    -0.03300051649435057,
    0.12754279172541358,
    -0.04234170529091905,
    -0.032299904946919325,
    0.09213347988902161,
    -0.1982746686793467,
    -0.01925177944214745,
    -0.16673566949180693,
    -0.22552011692196755,
    -0.0803047138167309,
    -0.4005947667490807,
    -0.01695944641289598,
    -0.028109666228075973,
    -0.13869341266686366,
    -0.21403475437674507,
    -0.08466061532072744,
    0.004844619301739037,
    0.018549585924606378,
    -0.17481533885027878,
    0.03831594105820843,
    -0.0633021558612865,
    -0.1455000299126479,
    0.039070174243885716,
    0.012870321857144196,
    0.22220314068314703,
    0.1655661735932237,
    0.16184138864803058,
    0.17876520565614726,
    -0.048143715743564165,
    0.05612844667861908,
    -0.1453588515177083,
    0.041291898452208826,
    0.19736374399982193,
    -0.12884190289247727,
    -0.31457473967342736,
    0.5881682816837268,
    0.1430103592905791,
    -0.05827641843987007,
    -0.16270130767993943,
    0.0002577951993562063,
    -0.1408819482453771,
    -0.23545315307774928,
    -0.2144301475277846,
    -0.09600902986766768,
    -0.4985283852733044,
    0.13354851369752618,
    -0.03803942799916195,
    -0.08581549241590042,
    0.0891550624076141,
    -0.20065491736473887,
    -0.02549247734584913,
    -0.12206522672173942,
    -0.004053981952100268,
    0.14449594769202276,
    -0.1310204196251712,
    -0.051956789622739294,
    0.17311278083883766,
    -0.5883686411250947,
    -0.5691750152279834,
    -0.59972408633891,
    -0.7141401932518019,
    0.08232558258481226,
    -0.016318340780364177,
    -0.07614087623720717,
    -0.10890674686734829,
    0.19362927311859543,
    0.09341828166684552,
    0.2540286442553125,
    -0.5331791119128901,
    0.3838884773654307,
    -0.03814228337014033,
    0.07823227763672916,
    0.3014572049551318,
    -0.20906940250723874,
    -0.023326454196921583,
    -0.14834303293593293,
    -0.005369626259089635,
    -0.08080384238808724,
    -0.2568583161246917,
    -0.01129877547015193,
    -0.28205701839081276,
    0.1821918094844292,
    -0.05026007427571917,
    -0.2206201922260708,
    -0.4221339054573841,
    -0.04071652187571515,
    -0.13204074925444925,
    0.01163143352903756,
    0.05012976925943723,
    -0.008747050319629787,
    -0.329340013440721,
    -0.129177434114823,
    0.544029047229095,
    0.822142503808354,
    0.6274345960408093,
    0.027552129913585105,
    -0.04678315824634475,
    0.14924552066117394,
    0.2841789451059953,
    -1.2314520170691126,
    -0.11894866289081653,
    0.009140836016135807,
    -0.0774498613177459,
    -0.15455523273732547,
    0.0329347898513627,
    -0.11352817578895931,
    -0.12675310723134842,
    0.06820901233641707,
    0.07132454800407485,
    0.13783124781572823,
    -0.12784635841570843,
    -0.18593657980041825,
    -0.011646046302807345,
    -0.20458278011355616,
    -0.03887614934414948,
    -0.2511517115444813,
    -0.1474752142688239,
    0.038582407408331194,
    -0.00054748036987525,
    -0.0596212230569315,
    0.09450115887359166,
    -0.11443263711029848,
    0.09251131510003294,
    -0.17677332379217456,
    0.025473795474330752,
    -0.0968500118412591,
    -0.1260408034283473,
    0.020998142997410856,
    -0.22325254751652268,
    0.03495078531625376,
    -0.13277478786242983,
    0.09071327608875403,
    0.05717734006588302,
    0.028619652129767314,
    0.030593243076191087,
    -0.17082562508594648,
    0.29168975326964536,
    0.10531118221533187,
    -0.12352351748740308,
    0.006931558768997298,
    0.20747701224085613,
    0.08597708457580844,
    -0.12503558640775847,
    -0.018781728405456933,
    -0.18177849293960488,
    0.17550981643523664,
    -0.35830546658441215,
    -0.003582635277145936,
    0.02547410574974529,
    0.10416031342002942,
    -0.11132229778405531,
    0.1450368510730339,
    0.09581519048635599,
    -0.09436331243955798,
    0.19559902373484428,
    0.24428472750661118,
    -0.10027661316448257,
    -0.14823501471973888,
    -0.08670501259867183,
    -0.18070469445962323,
    0.22962452051026627,
    0.24924993356881645,
    -0.09254765859341253,
    0.2575334183439261,
    -0.020354101898708964,
    -0.07886495353957343,
    0.0034924946558885406,
    -0.6218912052821692,
    0.4375506637114284,
    0.08085723286003106,
    -0.4362891599140961,
    0.33677495671110713,
    0.3654607385728578,
    0.03569380629079607,
    -0.0985167362342233,
    -0.12349063046266784,
    -0.027641299975443904,
    -0.18638382346981403,
    0.1255134845918048,
    -0.058056929110371185,
    0.49465979378239966,
    0.23437981437590505,
    -0.1998496687663777,
    0.2559135562189846,
    0.14614312475619506,
    -0.2652066734881289,
    -0.24110643297392192,
    0.03543769928025556,
    -0.40185821384567794,
    -0.23610102267809913,
    -0.1773838321914033,
    -0.15673903146413945,
    0.06972837870850876,
    -0.34358218309189964,
    -0.4941643219693149,
    -0.23319457654660505,
    0.07485679294578272,
    0.1468553717991369,
    0.19914907683208505,
    -0.04908576142738928,
    -0.04615496959007885,
    1.120055518972671,
    -0.19564654335705575,
    0.23148882883913996,
    0.2918299875235051,
    -0.247801845474864,
    -0.06963319055127969,
    -0.11941377845669655,
    0.0004389292091576425,
    -0.2055075984314455,
    0.031846557418205496,
    0.052281739024458006,
    0.22228465210175322,
    -0.15202395596895057,
    0.7232473810733462,
    -0.00631440842350185,
    -0.15229570517262261,
    -0.006801967210979243,
    -0.3940952991652554,
    0.20411976111553978,
    -0.055046713938289735,
    -0.005880618818756392,
    -0.03323500334294164,
    0.030627594465797214,
    0.09003832051538965,
    -0.31215092490281854,
    0.03395236841185934,
    0.6796549857020764,
    0.22919403794667606,
    0.2537090717888295,
    0.11900693056070448,
    -0.48026488454170524,
    -0.2541719858715427,
    -0.015270728125914332,
    0.00023430790503017708,
    0.9083216960585329,
    -0.0970321103467397,
    0.29631344867542797,
    -0.15211769037968578,
    0.30090861356184884,
    0.16191438982616183,
    -0.2640095971919283,
    0.15499715565158717,
    -0.09145838757010531,
    0.1337378925537263,
    -0.49990257839726604,
    0.13212778636036313,
    0.012481732244826698,
    -0.2228392475261081,
    -0.10066063161652068,
    -0.07261130083758022,
    0.06338298545033741,
    0.13361317249404256,
    -0.17832845036743358,
    -0.19289961136886233,
    -0.1106840302092516,
    -0.10927272373339536,
    0.06050684499913239,
    -0.12526379832816753,
    -0.21193980186772857,
    -0.010976830119485428,
    0.027215628613827564,
    0.25059760316078594,
    0.18312444786649573,
    0.27591369702820534,
    0.052942938181476655,
    0.13066646024796227,
    0.1891170053010361,
    0.4125966836981823,
    -0.8383592546368451,
    -0.21514422897000873,
    0.1310035365171444,
    -0.3046412206019967,
    0.10963090505055097,
    0.22424157081334226,
    -0.28078436008879776,
    0.27701313840851466,
    -0.06255353615560508,
    0.033818636238531416,
    -0.026267649866223878,
    0.08165870374648913,
    -0.16910690449823534,
    -0.15199588202394243,
    -0.13871555742540728,
    0.014511184496664805,
    -0.1813526193564319,
    -0.18326921603107252,
    -0.08950152809900154,
    -0.35319158165018033,
    0.13853487790274202,
    -0.12315755231119614,
    0.11987917254889006,
    0.1637055547759125,
    -0.19637432594702958,
    -0.09692574861119549,
    -0.03756522561657934,
    0.1774776015331585,
    0.24332347896756423,
    0.06236289577393997,
    0.024766614587000073,
    0.20316932564501033,
    -0.08895834227570898,
    0.3291519580313669,
    -0.878317243910025,
    0.09931926293640306,
    0.24465976809112552,
    -0.06114417511994941,
    -0.25070610382980685,
    -0.1183585957698695,
    0.32016003820180516,
    0.16114476345250095,
    -0.1833698128978035,
    -0.09131503656663667,
    0.14141149479821202,
    -0.0592226541622173,
    -0.20637909433640522,
    -0.2191383651034556,
    -0.01661423075593491,
    -0.04131678644078757,
    -0.0768230058554037,
    -0.21766968702954143,
    0.3263803853432957,
    -0.09164561911865814,
    0.020124003631773482,
    0.04396383956239709,
    0.034991171781228035,
    0.20807519972160493,
    0.10133348310033835,
    -0.40659750381124843,
    -0.21608086003408758,
    -0.1083099504590043,
    0.1541769444000961,
    0.1652418961600611,
    -0.13085546281934746,
    0.15009485934782668,
    0.026125777260861984,
    0.15152066023797622,
    -1.1296708030306803,
    0.09302732072565532,
    0.17477649265262205,
    0.22292349343598764,
    -0.2540561550405856,
    0.1673115309043224,
    0.05824434088877124,
    -0.0757704969761666,
    -0.040590742396237604,
    0.12207886580243066,
    -0.020150255609352068,
    0.3128518988910453,
    -0.07197652270360465,
    0.6375615314913085,
    0.008325961215836796,
    -0.20686716747240522,
    0.06083544982882963,
    -0.03510822898689923,
    0.0534612152331072,
    0.09611636962323956,
    -0.05243488130770033,
    0.1008734733254679,
    -0.1499760416940875,
    0.0015681930079818793,
    -0.0714375393843688,
    0.5332359252334241,
    0.38060127314518083,
    0.16863078367908868,
    -0.020938476665447535,
    -0.1496242615151052,
    -0.18287421021762554,
    -0.011201237277126299,
    0.07679596539300755,
    0.19916830353174197,
    0.8537976897276296,
    0.07379683598457913,
    -0.22897290597522593,
    -0.5636032184332584,
    0.3230087960271657,
    0.12344732282725795,
    -0.04708358457642877,
    -0.36843250159953655,
    0.22725289125261602,
    -0.1302170059104706,
    -0.3804205370165146,
    -0.07765386779559605,
    -0.4755510783013148,
    -0.8183215128467306,
    0.1030546449351756,
    0.10579541675490299,
    0.1596688084082163,
    0.35649295120862734,
    -0.34684844076273036,
    -0.37595982422952684,
    -0.2467463975872109,
    -0.4332322567139289,
    -0.014496593838124605,
    0.28698719262667743,
    0.009897869040766229,
    0.19759060575505763,
    -0.8368656043765949,
    -0.37097184715533454,
    -0.41481672293090943,
    -0.6041904562397028,
    0.33073095042425754,
    -0.22227079416297732,
    -0.15171977126805514,
    -0.3327783330382461,
    0.3019445872974895,
    -0.11660763580504888,
    0.09497456329530793,
    0.08137469096547749,
    0.15654991578448774,
    -0.17591147033861187,
    0.03046206462422752,
    0.10950676570938275,
    0.13297230199109522,
    -0.13476428768434934,
    0.13905707697513092,
    -0.10770465969269905,
    0.17509600569553935,
    -0.47728169972293977,
    0.11715678411147984,
    -0.0625007883302524,
    0.20617150354815733,
    0.08252103238437107,
    0.16083038259203647,
    -0.12482443961532655,
    -0.15486337863707117,
    -0.1144557646255206,
    0.25378062580986815,
    0.1756708627899388,
    0.12020646173186286,
    -0.21139444645559535,
    -0.29994646779463235,
    0.31955056188050135,
    0.31682929775769497,
    0.31961511147201727,
    0.20314181147585134,
    0.3387055959998049,
    0.07696333918518992,
    0.1640991298149581,
    -1.1442003758616883,
    0.08614804282794793,
    -0.0027176357559367485,
    0.17310071686532255,
    -0.027793726856003446,
    -0.13838555038793562,
    0.2829990616619373,
    0.04818438852705641,
    0.2720462194005648,
    -0.2390779547840923,
    0.1091761049724565,
    -0.10061977315487189,
    0.25596353653745907,
    -0.18491651879504536,
    0.09415526491203416,
    0.36279589801298534,
    0.21812639096825553,
    0.034846109320568114,
    0.034047337986199175,
    0.050966032243350924,
    0.05379943735809062,
    0.044340144333487236,
    0.21030730384982388,
    0.041120700699313,
    0.34268074715004054,
    0.057056074215499526,
    -0.1731789684328537,
    0.14905757868157166,
    0.15047375774627045,
    0.28229400547044714,
    0.18533674492340718,
    0.39596173277339486,
    -0.0219940789572845,
    0.09199564302766566,
    -0.8184955205398844,
    0.04224292580566097,
    0.24544691170334337,
    -0.15010964246934982,
    -0.2830063203467923,
    -0.07207389373528242,
    0.09541397805184083,
    0.12497077115112802,
    -0.08321557008326892,
    -0.0498899402768802,
    -0.0011281270140696385,
    0.15750078352205285,
    -0.11454964831249348,
    -0.4792844800967461,
    0.23589393714325668,
    -0.2328963715052862,
    0.12341470170326395,
    -0.4782664202940426,
    -0.1940062380152076,
    -0.14870720150903063,
    0.24108769997304597,
    0.43375546625391354,
    0.19319921468518295,
    -0.14870985321520194,
    0.21437982679358067,
    -0.0865962477443409,
    -0.2871435595926264,
    -0.19377815031308968,
    0.3656859694031813,
    0.25173611564787135,
    -0.011746648830310775,
    -0.21190576030860664,
    -0.034910678053412456,
    0.30539745401904594,
    -1.021519780755366,
    -0.08953693970389583,
    -0.06198443153585561,
    0.03578001933251159,
    -0.14128550930666361,
    -0.08039817556896953,
    0.034853217540419194,
    0.06986196313636762,
    -0.17252906933702952,
    -0.05761155344383177,
    0.095617019622587,
    0.07054045387072191,
    -0.034591618278278585,
    -0.042165037849517126,
    -0.07726251747261889,
    0.1845665198696096,
    0.005331986927671284,
    -0.08885820057509713,
    0.29973318370773455,
    -0.2629424862045001,
    0.017932250044990355,
    -0.006151658977232355,
    -0.07238482918240059,
    -0.10266346442058154,
    -0.09938070192220366,
    0.16565424554485964,
    0.2315737812737385,
    0.16160088459411304,
    -0.19262868086393,
    -0.008076998453639036,
    -0.14749680061178036,
    -0.1633531655288759,
    0.041787002099305935,
    -0.12677033767950427,
    0.09683074739541768,
    0.0026814543230358817,
    -0.0019627842923682815,
    0.006452741221959907,
    -0.007035975739381936,
    0.010296139555542259,
    -0.0011392603962217752,
    -0.0071592776124343145,
    0.010852798071340293,
    0.004229036245898736,
    -0.004753048072006987,
    -0.0033888181634637755,
    0.002372839209810629,
    -0.0052162216062808485,
    0.008366649788935697,
    -0.0035463577501946156,
    0.006084638171841672,
    0.00139091079495733,
    0.0003290822290072492,
    0.003216454064322582,
    0.006696916253972357,
    0.009065282095678162,
    -0.0034341041387093633,
    0.004772497141902557,
    -0.0034467032294556717,
    0.004064706794730445,
    0.0023272218639248205,
    -0.007352800782892069,
    0.003578464113261787,
    0.0008422948945299078,
    0.00190655150686164,
    -0.008505850574841203,
    -0.0028669011528551403,
    -0.002307622197892294,
    -0.005697012003148307,
    0.003422217621263368,
    0.008773505488476033,
    0.002968116239815032,
    0.007656486822421452,
    -0.0025891593042644584,
    0.006348820927425318,
    0.0036685901248437926,
    -0.002036772132935873,
    -0.0033939640456104327,
    -0.001839248374072001,
    -0.0016455999590276693,
    0.00018289116683330476,
    0.004305259709791955,
    0.0045969739583622575,
    0.004899467134819521,
    0.007250132069519694,
    -0.00104309985217331,
    0.0061687314486565245,
    -0.005143844075650368,
    0.0043039189938499185,
    0.011617292514632052,
    0.0026300823877946082,
    0.00620087277625144,
    0.0074459041779612175,
    -0.0016441535836157458,
    -0.0017030186295422256,
    0.007465455304371931,
    0.0009692929629731726,
    -0.0012308620990093173,
    0.012552750308839044,
    0.008504787409811268,
    0.007854561673925689,
    0.0014538329240492045,
    0.0034277831549498457,
    -0.0009897280311430708,
    0.007830203095540254,
    -0.007580431350175849,
    0.00549120049966086,
    -0.011981785367938499,
    0.0001535446290088956,
    0.006681493246081945,
    -0.0005146739608132771,
    -0.008210321839326564,
    0.007218126145687274,
    -0.0030998028779418312,
    0.006637823396753933,
    -0.0008978943229774223,
    -0.006273658003208469,
    0.0014434758053871591,
    0.004206255163003917,
    -0.00683737937423786,
    0.003816996800144189,
    -0.003166753266630696,
    -0.007407135208781759,
    -0.0044143162059655985,
    0.005713126595061793,
    0.0018001080253814891,
    -0.0016794358226335428,
    -0.00782707463177535,
    -0.0014867910843039665,
    -0.006250251365953286,
    0.0008415420968267816,
    -0.006021826145815645,
    0.010055664891092117,
    -0.0007861965225854073,
    0.007175289513412147,
    0.0056269787367851445,
    -0.0008745722742071635,
    0.007469560664784865,
    0.004292344045097434,
    -0.0030101458971925287,
    0.006529226759246863,
    -0.013021834398022531,
    0.007820890955976606,
    0.0034084780836827425,
    -0.0031870050958991655,
    -0.002060958692599868,
    -0.00045725486603675087,
    6.373665379506786e-05,
    0.0010911732508847337,
    0.006650157399476752,
    0.0029767036705686443,
    -0.001511916163357223,
    0.0068592033172943405,
    -0.008146269263773329,
    0.003686493775939932,
    -0.00916884951054527,
    0.0027081994129437457,
    0.007838265256808983,
    -0.0006791464678995497,
    3.53745331821211e-05,
    0.0036508021274132586,
    -0.0007478170870201373,
    -0.000336988922457637,
    0.0013017467102508,
    0.008184242629918894,
    0.0036231971128437334,
    0.012803644705069657,
    0.00945879408928763,
    0.007770480026860991,
    0.0028491004015410303,
    0.0036224673636670833,
    0.0030035786285901663,
    -0.001890657476972463,
    -0.0021003861223417575,
    -0.005858837691218317,
    -0.003703890370801609,
    0.0021375037879708863,
    -0.0058533197445577185,
    -0.005625500124210712,
    -0.00529898439014232,
    -0.0038301278750028306,
    0.0013675017128741158,
    -0.0020050237326965253,
    -0.0037255028176579903,
    0.0007462188313283326,
    0.0022189892837315116,
    -0.0037196871909824457,
    0.0030899362154142304,
    0.00027094694161415627,
    -0.0017415570952403676,
    -0.0028784505497931987,
    0.0012157123124292668,
    -0.0054720640158512236,
    0.0020423072203223816,
    -0.0030257401081234692,
    0.0005535807621536158,
    -0.004396669811764629,
    0.0004926974635818775,
    0.004017390355776904,
    0.0015743934733709619,
    -0.005990117691631145,
    0.004381020435026666,
    -0.005835070515484314,
    -0.0023518863139481132,
    -0.0007300968360847041,
    0.005890310113080759,
    0.0060108981727824634,
    0.0044039357192143715,
    0.009017078691731038,
    -0.00559971699329332,
    0.0027744024548292255,
    0.011163098889269533,
    -0.005926671015743781,
    -0.01102147480010503,
    0.009741358070256808,
    0.0016085802442201724,
    -0.003360038247281842,
    0.00335540101183238,
    0.006724830170178036,
    0.00852089211963916,
    0.009637216914342913,
    0.003703400205286732,
    0.008469826025924746,
    0.003877777593617222,
    0.0019013027375207516,
    0.003564555192897065,
    0.0018174448426072423,
    0.0008552560022229573,
    0.0015687913278061,
    -6.978394321472402e-05,
    0.007051408314673324,
    -0.0010389405884869416,
    -0.004361077291465898,
    0.003582899563750358,
    0.004749430069231015,
    -7.06848849039097e-05,
    0.0025109191629961026,
    0.004152774062177681,
    0.003579598159686761,
    0.0013736600966731904,
    -0.0010741067891499188,
    -0.0032981210817164216,
    -0.0015218989864530718,
    -0.001224177146630362,
    -0.002162349823992491,
    -0.00541797184691878,
    0.004831534277667345,
    0.011818841957374464,
    -0.0015609603512938203,
    -0.003110060649059977,
    0.009894085852246402,
    0.0004295101078176297,
    0.003198966222599128,
    -0.003835677836784843,
    -6.52068079777684e-05,
    0.006231565549061789,
    -0.0013788781528672371,
    -0.011967186113227684,
    0.0011630453767047303,
    0.0030287252395514402,
    -0.004052440369110444,
    -0.0001183210892309748,
    0.012639855647712805,
    0.0022732458979192187,
    0.00022860509832475635,
    0.0040005840589375,
    0.0007369946606199523,
    -0.005129357984431206,
    -0.005796480065753304,
    -0.009917299742144005,
    -0.009402240463075997,
    -0.008244083067953557,
    -0.01125474545295509,
    -0.003341051716712246,
    0.005400547239901224,
    -0.0003918492487881914,
    -0.0040137052208897555,
    -0.0044036412755081005,
    0.012707363435994216,
    -0.006323154499854604,
    -0.005729620217257285,
    -0.0029693482800165713,
    0.008871162198226314,
    -0.005201088310094394,
    -0.009474435663804607,
    0.0040670590006608035,
    0.0021505947964287203,
    0.002929208834536896,
    -0.00044982501612507106,
    0.0001601789095836128,
    0.00016182922176340346,
    0.007543112016126747,
    -0.002492516729390008,
    -0.005223095297614903,
    0.0019282596465260054,
    -0.0033767595613907637,
    0.0006936744618264625,
    0.0037443444839086438,
    0.002397360274563208,
    0.0049163890511364355,
    -0.0006963715108929342,
    -0.001822241796312225,
    -0.0013768938217062546,
    -0.001076999057785342,
    0.003843932682439986,
    -0.010811704393708804,
    -0.006202502353487281,
    -0.0016044069276082652,
    0.0014256061781426116,
    -0.0013804487568369545,
    0.004815017010964675,
    -0.0033480826180782163,
    0.004684621614245189,
    -0.00026267711588596527,
    0.000645192313468365,
    0.0018942673819567861,
    0.0007334700185057786,
    0.00017239074242733106,
    -0.004911961507452524,
    0.0005251804868465775,
    -0.006068108855324718,
    -0.0002556576125061605,
    -0.007094536383329721,
    0.0037135293565200805,
    -0.008397203816608858,
    -0.0040946106872955254,
    0.0005351527139431526,
    -0.0023662757744400543,
    -0.009596949759074247,
    -0.008311863956078068,
    0.005831648824149846,
    0.0045905875421646996,
    0.008417766344528215,
    0.0005288433871146446,
    -0.004294420184212509,
    -0.0012582801630436553,
    0.0021454038127248086,
    -0.0024828256820839723,
    -0.0013381374077891166,
    -0.005614647153633609,
    0.0061481782687858935,
    0.003828239643903923,
    -0.005036512531197942,
    0.007612205422944007,
    -0.001691469201881507,
    0.002208991522012398,
    -0.001479047526234148,
    -0.007855846582979577,
    0.002263591362801794,
    0.0027488937983076406,
    -0.0016199079136459014,
    -0.006402042940064998,
    0.007619370644351312,
    0.0027202048630363455,
    0.0033203673503738275,
    0.009312187613885857,
    -0.012720074947253614,
    -0.0011438867551657355,
    0.0043573142909697354,
    0.007346090451745152,
    -0.0015584661101534576,
    0.008175521855482303,
    0.0070504729374421884,
    -0.011673079485505876,
    -0.001294736471662366,
    0.0007532975821732157,
    0.0030491869667648884,
    0.0019295440368481455,
    -0.0009014227283599208,
    0.006968254903566395,
    0.0036967687402399566,
    -0.002282263354855855,
    -0.006563967876483884,
    -0.0043779465124157,
    0.003238814598922505,
    -0.00022352200356352388,
    -0.002372029212162975,
    -0.0004460977764925085,
    0.005233763346027937,
    0.005705861592282606,
    -0.0008507172842015186,
    -0.001683513475931413,
    -0.009345178222447572,
    0.002035413589621762,
    -0.006671047750077391,
    -0.005485125371508366,
    -0.001122493880474516,
    -0.009467378749155759,
    -0.007412846376655796,
    -0.010706025526908644,
    -0.006425640651429902,
    -0.005246058768414254,
    0.00022929322795206818,
    -0.003911416758956194,
    -0.005211756802525064,
    -0.0035430921468595955,
    -0.0019585878703854993,
    -0.0010335387481922671,
    -0.0037388056241963864,
    0.002662061659227252,
    0.0017331550478179858,
    0.0032420098500002773,
    -0.009730411466373469,
    0.0004418021055006828,
    -0.005260949766431459,
    -0.002396647361766442,
    -0.0058903579035156405,
    -0.0056634995077452606,
    -0.0027307409296467703,
    0.0008329195084016577,
    0.005112580547545679,
    0.012050006642305893,
    -0.0022390629936112614,
    -0.004645052413049357,
    0.0003844610634443649,
    0.0077107674860988785,
    -0.004713105408831566,
    -0.001969325931402628,
    0.01016867358872852,
    0.008116640190660294,
    -0.003195548003785232,
    0.004941022473207165,
    0.000633694711761943,
    0.0029387966060378857,
    0.006293736016372508,
    0.007321575019719737,
    -0.003133091008032574,
    0.00897289774782332,
    0.009440391098272017,
    -0.001865668781610688,
    0.00921242606156594,
    0.003687001573248647,
    -0.006498618913324728,
    -0.0024485950385526854,
    0.001968304142922018,
    0.0017090585870647166,
    -0.005842936061054637,
    0.0023467203798874276,
    0.008427189400690031,
    0.007906872260424025,
    0.007563360366960358,
    0.0028236358688551594,
    0.002418916275317028,
    0.004981097846975526,
    -0.004477632729056265,
    -0.0029118859538464917,
    0.0010390702342965407,
    -0.007478218202434999,
    0.0010347054538262846,
    0.006083204391626015,
    -0.006666647968672847,
    0.0018100351425868262,
    -0.007129030228386375,
    0.010027128582722164,
    0.0016035640666451848,
    0.0009600685612910208,
    -0.0031326044617138965,
    0.004811510855351016,
    0.00015240542808172227,
    0.008200525985266714,
    -3.632856554201436e-05,
    0.00014939991682630719,
    -0.004327672475240216,
    -0.005385250349119417,
    -0.007266742787516209,
    0.006275483259504618,
    -0.0035963256247671218,
    -0.0030847764855487353,
    -0.005573875059976718,
    0.004417474554016308,
    -0.005729093221599823,
    -0.004575779007531429,
    0.010128973630354785,
    0.0014533952305837046,
    -0.0026048841007914815,
    0.0013992685921739997,
    0.004554183130402112,
    -0.0020651303106571403,
    0.00017210181319985869,
    -0.0014035066226335132,
    -0.007297072591396056,
    -0.009663803157966165,
    -0.0022716328736710656,
    0.001448692933727392,
    -0.0072257719452487375,
    -0.00020953660733044935,
    -0.010121143924719226,
    -0.00024285239859561666,
    -0.005834888481208758,
    -0.00287985771290659,
    -0.010145677350908135,
    -0.0033899591462706116,
    -0.0030575514860939224,
    -0.009940174336253098,
    0.002823680651524927,
    -0.00015983064705320964,
    0.005517511979464386,
    0.00041819388222283534,
    0.001240754169080763,
    -0.002053662449527857,
    -0.009677115270852502,
    -0.006501809951858805,
    0.0014760322840042923,
    -0.004399160913171841,
    -0.004462944424021992,
    -0.0010091252698766343,
    0.00278357927453378,
    -0.00024671402074789205,
    -0.004796324656002142,
    0.003325104746988231,
    0.0009219463429234205,
    0.002413099946510956,
    -0.006136423057224074,
    -0.0014067405254580682,
    -0.001259235282690665,
    0.008302354388557667,
    -0.012076411953380748,
    -0.005681062254681048,
    0.006785615267902925,
    0.007332736924376494,
    -0.009801616806260537,
    -0.0028121099901018197,
    0.005663992877494465,
    0.003624492577186407,
    0.005516007412794715,
    0.007112288843930167,
    0.0042040836401440644,
    0.007793272110637081,
    -0.006961986046230545,
    -0.0013493691265255132,
    0.008315807840063907,
    0.0012014096061030214,
    -0.0018484771047049642,
    0.002460198770950275,
    0.003267913901015291,
    0.0044485332220448445,
    0.0017011088312628253,
    -7.666434340756738e-06,
    0.006074683419637437,
    0.009928705805732815,
    -0.007103438945005594,
    -0.002742729086757417,
    -0.000457061440357375,
    -0.007080185590994023,
    0.0033625935359924888,
    -0.0012080319178647168,
    0.0061966997266623925,
    0.0027903266773272417,
    0.0056945738408626856,
    -0.0100013577714367,
    0.0058955247093344055,
    0.0030843372245717916,
    0.0018093476828481604,
    -0.005232577442339558,
    0.0017981121291762837,
    0.0066659855892701875,
    0.0035335436297243028,
    0.0026627822751597685,
    0.0073251065352923465,
    -3.1360583792450645e-05,
    0.0008055763147904417,
    -0.0009742468920499911,
    0.006200460427092517,
    0.005378483467657874,
    0.0052196543421188825,
    0.00681227350887333,
    0.001201827677633894,
    0.002022171360446116,
    0.005557080418654168,
    0.0018555321701735725,
    0.0054466774079255115,
    -0.001497661572337461,
    -2.3975587817147222e-05,
    0.003308345148778391,
    0.006468376113606257,
    0.005705283622729678,
    0.0007587331896435466,
    0.00027871292080304267,
    -5.9510060773035e-05,
    0.0005218249680302168,
    -0.004089187342587667,
    0.01059673728063295,
    0.005222297331000791,
    -0.002183876272754169,
    2.4323578468245046e-05,
    0.005581485099482992,
    -0.006478843986487677,
    -0.007502437354160287,
    0.00898269213506785,
    0.005597430234963102,
    0.001641576373395366,
    0.0058923070243460775,
    0.002699348608899074,
    0.006477250824566361,
    0.005106652591114332,
    0.009180635741582524,
    -0.00039409239934856265,
    0.006101617121112387,
    -0.003716322186131584,
    0.00572256763266733,
    -0.0020993376895076963,
    0.000700793173222159,
    0.011096794708019274,
    0.008460822806581248,
    0.005739613846467012,
    0.003875437642499726,
    -0.0005334321413028508,
    -0.004135591351433264,
    0.0070355350428152,
    0.004009590044656057,
    0.004093383482843619,
    0.0016328754268783046,
    0.00493265928369418,
    0.0007151682511372147,
    -0.0037345004636695476,
    -0.004629340090681546,
    0.002588216787247362,
    -0.003816477529224556,
    -0.003966098703213885,
    -0.006895769481406979,
    -0.0008060965638692191,
    0.005451285986197585,
    -0.007397034639274767,
    -0.004851957532247721,
    0.0028631271160672865,
    -0.00733519469867359,
    -0.0030085405553923294,
    0.003356834573783221,
    -0.008685218208834118,
    -0.007669532874511306,
    0.004060869357524662,
    -0.0007022180130037629,
    -0.002858943834740633,
    0.00438798919144212,
    -0.005316932128087276,
    -0.0016502440986038182,
    0.0010041129840557468,
    -0.009180960545293453,
    0.0029991897720176145,
    0.0008337362396027617,
    -0.0009741461081725861,
    -0.0075352891692080015,
    -0.00683031843835223,
    -0.0031867274129842842,
    5.903701243087905e-05,
    -0.0017664410157358433,
    -0.006296184926937842,
    9.596669496121246e-05,
    -0.005260655617588836,
    0.00014273694327346113,
    0.006743375075486817,
    0.005349922623368569,
    -0.006163091978707549,
    -0.005466321015702382,
    0.008619569487368839,
    0.004860898192821675,
    -0.004156145247037629,
    -0.0018842865771232576,
    0.010229043699282944,
    -0.007891063164543407,
    -0.0006940914411118331,
    0.0056328026651880645,
    0.0006728608883250533,
    0.005740289391216873,
    -0.012844775942016419,
    0.006587778420480488,
    -0.006297575990751321,
    0.004768593187159195,
    0.0011931587977651356,
    -0.0011056694212502347,
    -0.006578810538191571,
    -0.0027485295142360873,
    0.0018377050590143856,
    1.7069919695757704e-05,
    0.002326523639465027,
    -0.004791363941306465,
    -0.0009442174071029433,
    7.083290676635755e-05,
    -0.004662745705967742,
    -0.006657593431538324,
    -0.005689270028538261,
    0.005006106613486855,
    0.0031995309686134736,
    0.005544888690506342,
    0.0028846035654001437,
    -0.007878709646946072,
    0.0026145112543003095,
    0.009462371094083431,
    -0.008287226677924432,
    -0.005338562034579164,
    0.009358220835320903,
    0.01084334971102161,
    -0.00314555387789365,
    0.010144602207883656,
    0.006985588960155826,
    0.0027305242329265615,
    0.00604609487295578,
    0.008042069059007532,
    -0.003018288762283257,
    0.0013048803923241155,
    0.002310030194630655,
    0.005867598064144459,
    0.0074141724540993485,
    0.005818780790362106,
    -0.0008975242391464321,
    0.0013095947773396268,
    0.003200269541850302,
    0.0064915095163888105,
    -0.0019793587421127372,
    -0.002572524176234993,
    0.009514296632019326,
    0.004125986021027061,
    -0.0008797910684325448,
    0.006554914539988917,
    0.0029444718218389326,
    0.005635344001014079,
    0.006758583216862943,
    0.004598224827154675,
    -0.003655169868288827,
    -0.007216418239766939,
    0.008887679282901495,
    0.0024188181976581946,
    -0.0076813305963735505,
    -0.00313637357517198,
    0.010220280186165371,
    0.010033713539028875,
    -0.0018358354796946153,
    0.00898358891367968,
    0.010622381449728859,
    0.002698821314563427,
    0.010111213914107485,
    0.005504940907768533,
    0.009108092509063968,
    -0.0024242711204911028,
    0.007658546794739951,
    -0.004322547902974234,
    0.0016539085618450448,
    0.01122037166983832,
    -0.004312311745622614,
    0.003769221566171593,
    -0.002695282910854515,
    0.0028222594565774865,
    -0.000424649706177602,
    -0.002508869865658154,
    0.009580232969353508,
    0.008656993390743292,
    0.006580524557236523,
    -0.0034367217887767225,
    0.0016244078481982677,
    -0.0025116495168420487,
    -0.004611944501768084,
    0.005052490814004761,
    0.008039128668663765,
    -0.0007915420153564068,
    0.002683278613562106,
    -0.00461893627136656,
    0.0014623130774432283,
    0.007484069435449556,
    0.005670882148204664,
    0.002000739320676183,
    -0.0012996714250457467,
    -0.0007866491566492425,
    0.0006667881910404853,
    0.0023428597607711124,
    0.0024395406976853366,
    -0.004866710557139763,
    -0.010610603014514396,
    0.001960001947960282,
    0.006323694338453011,
    -0.0023457719553512096,
    -0.0024386453360886262,
    -0.00787953708062097,
    -0.00221175750586372,
    -0.0026686142053291956,
    0.003556331861912148,
    0.006117679230898891,
    -0.0017436439590200737,
    0.001330035089609443,
    -0.0035801385137755807,
    -0.0017952815526133482,
    0.0008815825766467718,
    -0.00875332246746182,
    0.004356521539091799,
    0.004801121391088614,
    -0.0001556324395452507,
    0.0008742531087585645,
    -0.0024939942593519685,
    -0.0018591888421726815,
    -0.00029989173359458926,
    -0.002049648469456964,
    0.004369012967885126,
    0.001963000929809115,
    -0.005932750682213645,
    0.0017557342113174491,
    0.004587527689869701,
    -0.002606571253047827,
    -0.0008484794771628886,
    0.0008367139275670695,
    0.0034677568218612186,
    -0.008828669750047789,
    -0.010456598334053761,
    0.005816181130336204,
    0.004329469454404835,
    0.012921057902666329,
    -0.004911564284894997,
    0.006401324618939396,
    0.001442996744133757,
    -0.0005774655526158283,
    0.0035465585647647376,
    -0.005289331874296654,
    0.004331876203271475,
    -0.0014006261587432363,
    -0.0039978266853386525,
    -0.010567320249743727,
    -0.008429389379386585,
    -0.00019394300258778694,
    6.897609164672863e-05,
    -0.0018705362824471786,
    0.0007636095605646954,
    -0.006583769045501366,
    0.0034038864449238582,
    0.0115859394740859,
    0.00033009373784738193,
    0.0036266626995070505,
    3.5582175421427194e-05,
    0.00372021644572165,
    -0.0010038211279100385,
    -0.004656333873017313,
    0.0031723325400767996,
    -0.012179124148113294,
    0.00375277463527553,
    0.0017092587706367156,
    -0.0030358640320988345,
    -0.004374767874237737,
    0.002856895197430926,
    -0.007181924413714942,
    -0.0014470605693560695,
    0.002024514698273337,
    -0.0031698793959907905,
    -0.0070346993346813705,
    0.005244897444741215,
    0.002735466510372516,
    -0.00032745486527263373,
    0.008753415550028032,
    -0.0018764621454001444,
    0.000719216529589507,
    -0.0033967711263857277,
    -0.003871511529325637,
    -0.007919217255112285,
    0.008425390088268262,
    -0.009342227220968138,
    -0.006253060108244351,
    -0.00519204342421947,
    -0.004579474754646018,
    0.00488141301247129,
    0.0035423350134444506,
    -9.279019221282549e-05,
    -0.002024997283973801,
    -0.0011586894905922921,
    0.0010763584390554239,
    -0.009481572361039942,
    -0.0026174365043820946,
    0.008883241858915581,
    -0.00864462228787548,
    -0.004277252281877099,
    -0.005240048948012059,
    -0.0022631124781032166,
    0.0007014973068142416,
    -0.003912843188527542,
    -0.005657240568131492,
    -0.008232013943922398,
    0.0033830401188547216,
    -0.0007210552902197731,
    -0.004076173877262242,
    -0.009651915551906066,
    -0.00969450338410256,
    0.0021772331672735897,
    0.004456463447499283,
    -0.002697064166041807,
    -0.0014930079973186872,
    -0.003671976136524619,
    -0.00017511225211461873,
    0.0018563100810108759,
    -0.0052803577383769154,
    -0.0018453399049099572,
    -0.0030995717710379494,
    -0.006838754664609693,
    -0.004329797248684535,
    0.004657233227176067,
    -0.0004052291519547184,
    -0.00031921762893018127,
    -0.004074316712436159,
    -0.005877506086329099,
    0.0011510915643010739,
    -0.004201254095778141,
    -8.300247613189337e-05,
    -0.0024767006571181425,
    -0.00015367356115933618,
    -0.009585990042947759,
    -0.007206891399582551,
    -0.010178025367336741,
    -0.00576260362277964,
    -0.008161660994823145,
    -0.007955154088012301,
    -0.0013844751219991686,
    -0.002553888639215425,
    -0.00027120798412705343,
    -0.001544125993815126,
    9.503851685259789e-05,
    -0.001024749055901901,
    0.0033141035531200117,
    -0.006190796798287382,
    -0.009783537242106774,
    -0.001985757778794708,
    -0.0050663403855414945,
    -0.003964906049202606,
    -0.004682444660964425,
    -0.0029500326980548518,
    0.003978134017215366,
    -0.00708587667036469,
    0.001360787163093393,
    -0.009935996234756642,
    0.0015961554972371112,
    -0.0007084723981467357,
    -0.0010703977050204683,
    -0.007187008816167755,
    0.00020134990827487518,
    -0.004350679305051551,
    -0.005497426279801776,
    0.005592207364855124,
    -0.00811358621986902,
    -0.0016591053455933876,
    -0.0019859411184159556,
    -0.00788914233854429,
    -0.002475686776945958,
    0.0005895735358308796,
    0.000221127138909747,
    -0.00020831054465011422,
    -0.00020190603506632375,
    0.002003800809014579,
    -0.00033552756344791453,
    0.0023948554140143688,
    -0.00347526984742721,
    -0.005059210508809195,
    -0.0036839671575083213,
    -0.004633706840542022,
    0.0074096014868107185,
    0.006187993436943723,
    -0.002847910450112874,
    0.0029559536373222474,
    -0.003787994534149258,
    0.005564396647163343,
    0.00026814718713841717,
    -0.0030056936084111815,
    0.007569392441984142,
    0.00616201677526552,
    0.0017188246755102002,
    -0.006735911479692796,
    0.007264135765443516,
    0.0060402590991807835,
    -0.008230128228760512,
    -0.006215071385281169,
    0.005688622539852513,
    0.005036828888155315,
    0.0013613886294528278,
    0.006647551497520056,
    6.638176977230508e-05,
    0.00272125098941038,
    0.0069805461122389246,
    0.010866193159710163,
    -0.0010517631856401175,
    -0.005459026083793812,
    0.004681498144885973,
    -0.0010129127914029206,
    4.7211087873513e-05,
    0.0034874313855942814,
    0.00825492845181998,
    0.003012495538206984,
    0.00045047377716049775,
    0.0005353867493732319,
    0.0011920045866433782,
    0.0024808610139464998,
    0.00907946410520541,
    0.004535778886636689,
    0.0051064616381419885,
    -0.002347136851889115,
    0.004093497476918651,
    -0.0021780779720801317,
    -0.008815136104002568,
    0.007346504791342975,
    0.004104001092159095,
    0.004609925104848029,
    -0.0021693706519213566,
    -0.008057118714743816,
    0.005152359222760598,
    -2.1870835543856965e-05,
    -0.004550180380225865,
    -0.009586696373796291,
    0.00810509179407561,
    0.0010084098277037545,
    0.007672917155774682,
    0.009629087286045997,
    -0.002713024654146337,
    0.0027344338277491688,
    -0.007988803612892267,
    0.00996321812727024,
    -0.005876516061265051,
    -0.009219333398287184,
    -0.002586076186895024,
    -0.005992777287767579,
    0.01143326293004604,
    -0.004042285952192605,
    0.0026967268355128633,
    0.00236219241215279,
    0.00959688906494746,
    -0.0004376585895163244,
    -0.006659744372640358,
    5.364058234362089e-06,
    0.0023739266950763296,
    -0.00791414252218613,
    -0.0026576310822769866,
    -0.003297706191356773,
    -0.0016224626713936285,
    -0.00830538526817557,
    -0.004659322762860168,
    -0.005202927718473125,
    -0.003425608974819547,
    -0.004369433297146139,
    -0.0001788112769482389,
    -0.0048812707341788575,
    -0.0004499226471100323,
    -0.005363482809730152,
    -0.005591353268736537,
    -0.005187526797623698,
    -0.005822050976685724,
    -0.0060985677464611785,
    -0.004254435947948217,
    -0.002247463981937661,
    0.00037489165596891013,
    -0.0008673756840373052,
    0.0038009492711284626,
    0.0015438607572157098,
    -0.0044775979101562505,
    -0.0035248896688089794,
    -0.0050125583961420014,
    0.0014244965948432115,
    -0.006970573374823919,
    -0.0004257222321896151,
    0.0023460033725328654,
    0.001057940281467937,
    -0.0033551716266103926,
    -0.002553339997981924,
    0.0025240934414788576,
    -0.004214175970282348,
    -0.0012070703493122362,
    -0.008387889983697182,
    -0.007130444094790943,
    0.005722432136783213,
    0.0059513344502495945,
    0.009809369795960924,
    -0.004495509380288243,
    0.0008803683388610331,
    0.010828793831478029,
    0.01076135142473304,
    -0.0032944541711903163,
    -0.0016231394883978528,
    0.00019403489059764673,
    -0.001212237029999734,
    -0.003613796187615044,
    0.0019344627809911698,
    0.0019614589779028704,
    0.004024542873902912,
    0.005323561916003561,
    -0.0009975213050947647,
    -0.0034333404831544336,
    -0.0024936575087304565,
    0.0038437124366239154,
    -0.009131281252925144,
    0.005095008761552786,
    0.001979711173629984,
    -6.547731019846636e-05,
    0.0005468396729262125,
    -0.004869856531358754,
    -0.0015758789658178514,
    -0.008744330062226262,
    -0.004945120585512424,
    -0.0007515455069813238,
    -0.006998373457980435,
    -0.004722134138108427,
    -0.0030691791435877927,
    -0.0010291472204965052,
    -2.849832384384963e-05,
    -9.883529478300378e-05,
    0.00173612885952265,
    -0.004651866771979656,
    0.0014358153288688232,
    -0.001432959257144104,
    0.005516273800724764,
    -0.00296469740016763,
    -0.0016602497932935898,
    -0.008916626065385042,
    -0.0035849948012951446,
    -0.0072206218966866425,
    0.0012275989751452368,
    -0.0019411787033900767,
    -0.006298804637045176,
    0.0006936215230666486,
    0.002132374559748753,
    -0.001882072356906174,
    -0.002218372548880449,
    -0.00620805472170999,
    -0.0013033783974681994,
    -0.00488137782790695,
    0.008046769649028507,
    0.002373443477371452,
    -0.003412923129496477,
    -0.007702429583833644,
    -0.0021041348326559235,
    -0.0006007908011983995,
    -0.0010418879540095602,
    -0.010123466745276586,
    -0.0034907277238343344,
    -0.00696717623477364,
    -0.00030760542537653165,
    -0.0014875725466100055,
    0.004134507692724273,
    0.005006190759108636,
    0.010673085590225131,
    -0.0037620982024901854,
    -0.008801081180138772,
    0.0013536295438043107,
    0.008373300061659535,
    -0.004479815807933885,
    -0.008882354393563137,
    0.004383361000762301,
    -0.0005064775079091976,
    0.003948080398102924,
    0.005976560005129328,
    -0.00502810154605018,
    0.006541993140648448,
    0.0011964044641686494,
    -0.00033826088040479464,
    0.0007066388895586106,
    0.007407025459633219,
    -0.007486388616812686,
    0.005639860409649943,
    0.008619470833139353,
    0.0019933509599605785,
    0.004445240896118412,
    -0.0008137760241642016,
    0.009337205406993721,
    -0.0006998922257429706,
    -0.0004509974889120949,
    -0.005895286856366744,
    0.004756750222792306,
    0.005614472024090413,
    -0.001457229765259423,
    -0.0045012760732043855,
    0.000691655252025007,
    0.011125421069670103,
    0.0072575833581600135,
    0.011408283984619462,
    -0.00539981860383289,
    -0.005503063326764377,
    0.011205734031237462,
    0.004186847053841639,
    -0.004510230756017823,
    -0.0012075060137936844,
    0.0040179155364495536,
    0.004051925952870907,
    -0.0008257165379590751,
    0.0039021991982255266,
    -0.0012987705994399056,
    0.007472492545631709,
    -0.007068998724143471,
    -0.004429108772965824,
    0.0005497093795856615,
    0.00026244274944829096,
    -0.0015235945279396341,
    0.0028706039857700786,
    0.010292844373566739,
    0.0015170471633785625,
    -0.0002753009390437003,
    0.0036887801139928998,
    0.010301919339146006,
    -0.0008079698966123185,
    -0.00034430015122446266,
    -0.005343235995234122,
    0.0024621763906635167,
    -0.0036637677851044225,
    -0.0038394493086752702,
    -0.0026365775811507557,
    -0.004279360598017439,
    0.0007194535307159171,
    0.004984690255663512,
    -0.007684024708000585,
    -5.495205470931902e-05,
    -0.005845675992588594,
    0.005459418556427423,
    -0.009405672885203728,
    0.0005048429762307719,
    -0.00680761661423417,
    0.009055787372214932,
    -0.002229916085062347,
    -0.005026313847151195,
    0.007761045950380937,
    -0.004900193662100286,
    -0.0036889257253646703,
    -0.011148237297418238,
    0.011929398546530556,
    0.0019188194094513784,
    -0.005006911922220923,
    -0.0029426416273033006,
    6.6793508621434186e-06,
    -0.0016466442285052493,
    0.0010416615059521753,
    0.00239094831190481,
    -0.003893221356184017,
    0.002249592453109557,
    0.0014010664560999816,
    -0.002428665112715258,
    0.0017725453424138518,
    -0.0052878160185579485,
    -0.008401611423940514,
    0.002092521767057547,
    -0.0004464808062573234,
    -0.008371149458432894,
    -0.007186761218749421,
    0.0031457846248048676,
    -0.0010376608608508129,
    0.006105556913913481,
    0.0038578213693339423,
    -0.0008822401845907945,
    -0.009686726058829852,
    -0.0053087502668647014,
    -0.001372464176449885,
    -0.0063199628276460066,
    -0.006523903189532899,
    -0.004226880331190729,
    0.0008461382629102652,
    -0.0005684244262358243,
    -0.004920034576635602,
    0.0040058698302925235,
    -0.007999514445829123,
    0.0014854572160418974,
    -0.0002233315692440614,
    -0.0003482281551876585,
    -0.005976187170702094,
    0.0031889864160097926,
    -0.005315637161581759,
    -0.002966406519798345,
    0.00032073793631192364,
    0.00047445608776490553,
    -0.004328198718804172,
    0.002804664300855798,
    0.003249451938356989,
    -0.008035470221648201,
    0.005975941532017354,
    0.004363156732954365,
    -0.00505026472157019,
    -0.00916579110861804,
    -0.008571524081009642,
    -0.00024027407483658892,
    0.005220063097114519,
    -0.002694897578461089,
    -0.005658320928466466,
    -0.0009371335306279988,
    0.01062546524051965,
    -0.0024040474732257033,
    -0.0005556898984568757,
    0.0011756103955005966,
    -0.003913502951742733,
    -0.0034316703681799374,
    0.0024470714356884067,
    -0.00022451633153181376,
    -0.00042426198450104893,
    0.010513654884031604,
    -0.0033390280431637416,
    -0.005222973313254067,
    -0.002400588132416854,
    -0.009561717385622183,
    0.0060762398719441035,
    0.01088372968999215,
    -0.008393936154865417,
    0.0030052150763814896,
    0.0013769616128431754,
    0.012178441656617063,
    -0.005493514801243443,
    -0.0047894604839449064,
    -0.007859338849343448,
    -7.410704091371008e-05,
    0.0035652968827512357,
    -0.0021600341276074722,
    -0.0009697681862729194,
    0.007201142767665341,
    -0.002307801792011491,
    0.004552375681132974,
    -0.009856608413366845,
    0.0025120210088747726,
    0.005502500206780625,
    -0.0024589202575488697,
    -0.0010684472724000608,
    -0.0021175225615684863,
    0.008218682964290798,
    -0.000604349792499921,
    0.0014319159047270931,
    0.00805016942545236,
    0.006660109545269413,
    0.006293189271229091,
    -0.0023577578240603814,
    0.006229140578104967,
    0.011464264503443927,
    -0.002658013555569267,
    0.004535009636522786,
    -0.0012379692692953267,
    0.004578133578361393,
    0.0032888631046631674,
    -0.002609083704749831,
    0.005034412370604451,
    0.006904513851213448,
    0.0008805600886843593,
    -0.0008040553442902712,
    0.003338900358720692,
    0.005603969196947708,
    0.008170252510882181,
    0.004828876522911565,
    0.0006374342243190319,
    0.0005505216305513007,
    0.008876611302369074,
    -0.00029580235931572947,
    0.002730785511075886,
    -0.00623718712963669,
    0.0019990949669919573,
    0.009961049873612302,
    -0.010664978364506916,
    -0.005583668157760568,
    -0.00010028540259027785,
    0.007621272427654199,
    -0.004719700761387322,
    0.006317032046552739,
    0.011047275781477926,
    -0.0005049901059173228,
    0.005579536082709519,
    -0.0027255888212774464,
    0.009831546113117717,
    0.0027679840075540622,
    0.004253571944869449,
    -0.006301817463641986,
    -0.0040882831748538856,
    0.005276732591504545,
    -0.004167788961967889,
    0.005507294304818298,
    0.003247728581442358,
    -0.0027360421158070546,
    0.001549443457903883,
    -0.005912135242121239,
    0.006898012446224491,
    0.003953305474138498,
    0.00525626093045285,
    0.006056870066496188,
    0.004726904880993357,
    -0.003660889009769317,
    -0.001154394378072589,
    0.006988105524660353,
    -0.0035223730181248697,
    0.014968752489986373,
    -0.00570561746161111,
    -0.008279500870766999,
    0.008756401365540036,
    0.0010738853265144879,
    -0.0008054134283949712,
    -0.0047506464351855645,
    0.009491305472388125,
    -0.0033052015849118206,
    0.001687424075014196,
    0.00882057727518205,
    0.011899433932330443,
    0.007712710783146183,
    -0.0005682368810033644,
    0.008500142732353555,
    -0.00467193391654947,
    0.010547542957358136,
    -0.002306145195627767,
    0.008544580889362358,
    0.002649113415950804,
    0.008860245635558015,
    -0.0051185097985393235,
    -0.0045524998326673715,
    0.010309321491776692,
    0.0025726924296556506,
    0.0008646061264971693,
    2.837246549968654e-05,
    0.001856262927573709,
    -0.004497478554225584,
    -0.002017706690321263,
    0.0029075726116875728,
    -0.00515499885029832,
    0.003457386304878199,
    0.008619796112252734,
    0.00903228075345535,
    -0.007456891111328357,
    -0.00798079137532586,
    0.003452829118204283,
    0.002812577461620503,
    -0.0043625980495197204,
    -0.006500867891247723,
    0.010708646976292762,
    -0.006153090549613787,
    -0.005465157533283583,
    0.0024206741111812784,
    -0.005590558225348521,
    0.00020135466557696192,
    -0.004663543382228787,
    0.001541307520496726,
    0.006173226705427142,
    -0.0043109531467023275,
    -0.00574900535181041,
    -0.0027925176000768008,
    0.0028763674938861615,
    -0.0004387198499749422,
    0.006728345823269616,
    -0.004310518492806154,
    -0.0016432446594705108,
    0.0078975949444692,
    -0.0037013851928076767,
    -0.0012474922293082755,
    -0.010668597891747842,
    -0.0005518687000370361,
    -0.006741826847243725,
    0.0027784749608639092,
    0.0026849934903212737,
    -0.007773474666072103,
    -0.006402736709135298,
    -0.0062072971976545235,
    0.004944467820286257,
    -0.007583312517327718,
    -0.007857279618444162,
    -0.008360306002474557,
    0.011050083979447189,
    -0.0007131221847015057,
    -0.0021213536821519164,
    0.0047430801918384325,
    0.00382148647604235,
    -0.0023548288021146436,
    -0.0005432576618010072,
    -0.004374894944171321,
    -0.01184526547489791,
    -0.0022585982983304225,
    0.0030795009301868674,
    0.004120331916039468,
    0.007427543161025076,
    0.00281184285649668,
    0.0014201001184418235,
    0.003989067109998467,
    0.0018740000179761223,
    0.0007309464540291206,
    0.007107854645698469,
    0.00789711968929065,
    -0.007613164177129822,
    -0.0017382790844902114,
    0.002845826750766599,
    0.010879205342271277,
    0.0030727990471737117,
    -0.005056830534106886,
    -0.00043694783424936043,
    -0.006919196483814839,
    0.003180765466312629,
    -0.001641680077165565,
    -0.011002274691214757,
    0.005130631038538778,
    -0.007041868379086819,
    -0.0018815200645660507,
    -0.005004375448972319,
    0.00837235119505807,
    -0.006872375889875063,
    -0.0011336843933244776,
    -0.0037395960821720383,
    -0.007784210928104504,
    0.001627512397445373,
    0.005185961074278439,
    0.0001192889062935589,
    0.004784661645070498,
    -0.008193787112407014,
    0.005187528630018215,
    -0.00053495792816133,
    -0.010961259336519766,
    -0.004933454898762556,
    0.00949535527179103,
    0.003735752983929959,
    -5.167253710588231e-05,
    -0.0046335114940530475,
    -0.0056319336308106125,
    -0.004629145370824106,
    0.0017371440856360967,
    -0.0100341374456546,
    -0.002084387708818069,
    -0.0018693703962813341,
    0.0007211557275845986,
    0.0055219160314658395,
    -0.0015464971384438618,
    0.010291044838366426,
    -0.00826167683950754,
    0.008079006781031175,
    0.0026037273951326845,
    -0.0014402695849046261,
    -0.0012110489269600735,
    0.009033395535352559,
    0.0010251344627042942,
    -2.1185662153295398e-05,
    0.005579127942677689,
    -0.002230039668454023,
    0.003143513148475255,
    0.009750708642066822,
    -0.005046243630180054,
    0.004193527685794746,
    -0.002335046014198412,
    0.003968572593142791,
    0.004872968270677982,
    0.00248169840802675,
    0.0035968338122753306,
    -0.005923845775762214,
    -0.0003886068062551228,
    0.0007739115351329147,
    0.00063666588476462,
    0.004458042065642619,
    -0.005056919980515984,
    0.004898594856200772,
    0.009286702497020221,
    0.008192907873144948,
    -0.001708075178803244,
    0.004683033447073072,
    -0.006873072651220029,
    -0.00047364201494527904,
    -0.006610596856699553,
    -0.006730381189125539,
    -0.005776479637885557,
    -0.0074184601086946,
    0.00046201271062756404,
    0.005336943865976652,
    -0.004590778280072084,
    -0.0021596922976742476,
    0.001057822621800315,
    0.004140991350158493,
    -0.005723793327539467,
    -0.007643344315840868,
    -0.0024129423821451297,
    0.0028668940345749267,
    -0.004088219993292108,
    -0.008909975018798985,
    -0.0065565637975068015,
    0.0034573955598044557,
    0.00793604745963815,
    -0.0016031745217363145,
    0.00488779006393903,
    -0.004990545417586568,
    -0.005951095894640026,
    -0.008607066278103476,
    -0.006898353835317647,
    -0.007154473348035649,
    -0.0022155361100593485,
    0.00125063024197752,
    -0.009790222481167059,
    0.0001221273100740403,
    0.0021894973983305195,
    -0.0035413852134984223,
    0.004823438265366672,
    0.0036719588399951974,
    -0.008568581346828833,
    2.53809090497324e-05,
    0.01279239008054094,
    -0.0008918626000833073,
    -0.010066763196162253,
    -0.008336343369476563,
    0.006442433064236597,
    -0.00010424316634589164,
    -0.005883845321968779,
    -0.006371783648940314,
    -0.0022273065770453825,
    0.0033578473357280636,
    -0.0019805850708566747,
    -0.0036588707859017055,
    0.00307207847113258,
    -0.010893302118379319,
    -0.00789980348188502,
    -0.005822111861154522,
    0.009490688796479943,
    -0.00028536267292712277,
    -0.004460908922278786,
    -0.00016934377147629804,
    0.0012403191159344256,
    -0.0016104499583429344,
    0.0011640612579176363,
    0.007532223613708619,
    0.007847215047164298,
    0.0074061457724463485,
    -0.00355080307230676,
    -0.005001780741880914,
    0.004786073217701607,
    -0.010891473723582252,
    0.0012801337515960416,
    -0.002407048153279039,
    0.0037560896595535804,
    0.0037026128010997565,
    -0.0027531659115303778,
    -0.006713411348945604,
    -0.008342077402440898,
    0.006475293392620098,
    -0.0029034451643608484,
    -0.0077446877323673205,
    0.00027980299076498785,
    0.008956527386819846,
    -0.006286176689343953,
    -0.0029414735389354115,
    -0.005209333902927459,
    -0.00972791085676683,
    -0.006799215729654081,
    -0.005460401481576463,
    0.0012608691344627935,
    0.005348766374148779,
    -0.00650117266038453,
    -0.0002549530150712985,
    -0.00608742447190212,
    0.0040629114739799705,
    -0.00014245899545557207,
    0.004107921125667671,
    -0.0016894587625908993,
    -0.0019201550709849265,
    0.0003910744610568988,
    -0.0028997455916672248,
    -0.0069148022994035985,
    -0.0031001926546297296,
    -0.0035960217384276177,
    -0.004923919185818964,
    -0.0043437347240793366,
    0.002629465037468146,
    -0.006618196352166294,
    -0.002354392358760311,
    0.005553770121142023,
    -0.008371570228466095,
    0.0011805506879449907,
    -0.0016391637983487028,
    -0.006127238041028769,
    -0.000184054779368372,
    0.0063795338076302515,
    0.0025269641359765773,
    -0.004379799896510681,
    0.0037148198305566125,
    -0.0072004350410521945,
    -0.007053451939153987,
    -0.004744207474978718,
    0.005632109841674019,
    -0.0014998629252367063,
    0.005463467397220282,
    -0.004370607933782158,
    7.976075932302758e-06,
    -0.004565237068349548,
    -0.0027451661111383245,
    0.007886650453847493,
    -0.0080785876136842,
    0.0036497978490537654,
    0.004422385352079468,
    0.0047747384346280486,
    0.0019570392416428093,
    0.009568599339091233,
    -0.008416782874041495,
    0.008418930123841383,
    0.005361824516369621
  ],
  "w2" : [
    -0.42697516231118077,
    -0.043358647050439895,
    0.5990662353555878,
    -0.6021500513088963,
    0.49893648144278124,
    -0.41113726568344416,
    -0.2992570582183508,
    0.5811979081022352,
    -0.34887350476441004,
    0.28712219494630126,
    0.2466695750314983,
    -0.06412083627280259,
    -0.006583792827089092,
    0.8331649029679923,
    0.4595709742013688,
    0.6071194224521169,
    -0.06191804393765796,
    0.14575492202185744,
    0.5791548282604531,
    -0.40083728780964617,
    -0.40489852586366426,
    -0.19341348941723174,
    -0.46357634210651977,
    -0.11507232470768035,
    0.5245313939460123,
    0.30796081557650684,
    -0.7550690619802575,
    -0.08825202382963493,
    -0.3766659019755606,
    -0.4579748237426804,
    0.047274707023000205,
    -0.4618366921146302,
    0.14142225148514945,
    -0.5929230877452665,
    0.7601077553431826,
    -0.007028222032534052,
    0.09566873245207227,
    -0.5455995368427132,
    -0.721757011101439,
    0.2769642727531321,
    0.30746120927351506,
    0.4133243216594276,
    -0.4670038073245069,
    -0.5889066736327115,
    0.27845491710548015,
    0.29897712337004795,
    0.6721451115487218,
    -0.049505587534717156,
    0.011802691715023461,
    -0.011422769091275523,
    -0.011162166346399584,
    -0.012349385532743146,
    0.005905304508858386,
    -0.006700530953403547,
    -0.0005293476198645357,
    -0.0051898229797881935,
    -0.004108429117095587,
    -0.002707135251989369,
    -0.0010604978099004432,
    -0.007452016348582664,
    -0.00925836744290619,
    0.00019962647940395377,
    0.010745948323343387,
    -0.004158656668659072,
    -0.004685480232951483,
    -3.428998254991748e-05,
    0.005167016137572202,
    -0.008308188472733584,
    -0.008277062530853935,
    -0.001813145637748745,
    0.009126472653854942,
    0.005668537553558588,
    -0.00327554942882876,
    -0.0008479954305230394,
    0.0005492571551994927,
    -0.00792114760847702,
    0.00328419610401521,
    0.0010395871273936033,
    0.0022643189631025764,
    -0.0010027294657508417,
    0.005974279444300744,
    0.00961899238814252,
    0.0030955286760047654,
    0.0007380963530893276,
    0.0023796582052629973,
    -0.0016072881798971175,
    -0.008158340470278674,
    0.008789288608804405,
    0.0009903869872429165,
    -0.009570040999362244,
    -0.0034842500077050275,
    -0.00542360719835314,
    0.002737602044603566,
    0.005927888503942307,
    0.0020125533373590103,
    -0.004296771176591954
  ]
}