{
  "b1" : [
    0.030440776349014043,
    -0.1626775988785767,
    0.09650470635705714,
    0.025129639081245294,
    -0.042264690425841196,
    0.19218763670542535,
    0.25372322789644136,
    -0.18690224871074052,
    -0.05830941262766544,
    0.12623874536164353,
    -0.06162256810441721,
    0.046683482537691716,
    0.09682171273782489,
    0.10317135212972946,
    0.10256512784413417,
    0.25673702870439885,
    -0.13576119660184413,
    -0.012578915873308543,
    0.15533361854504146,
    0.13625312932498865,
    0.25675238882098944,
    0.13315305734244043,
    0.08077421118956,
    0.1837737179726673,
    0.10908038022800967,
    0.22023881601929277,
    -0.0636357503075818,
    0.056916096356323,
    0.020966836975838243,
    0.14015406511594009,
    0.13242204729819765,
    0.06356430099714132,
    -0.005526199979552701,
    0.17794655847123553,
    0.1601862400012603,
    -0.03812632354870447,
    0.055260528186913065,
    0.157611013867012,
    -0.07112497553688431,
    -0.1726699248043919,
    0.12117386068421496,
    0.06299187527233613,
    0.25267007898615684,
    0.024783279491146695,
    0.13749551888958236,
    0.24299317215839264,
    0.11587843420023014,
    -0.12468169691842494,
    0.0049552593851608555,
    0.004329619867078839,
    0.006104721735708825,
    0.005714684065821766,
    -0.003820912046735215,
    0.01071413164563192,
    -0.009751845561292804,
    -0.0013643768226870511,
    -0.004763111368571537,
    -0.0035284311828200515,
    -0.011418211039805365,
    0.004617113691018356,
    0.011112338186110713,
    -0.007595735162512091,
    0.010319249715923523,
    0.006681643022188134,
    0.006642577398940239,
    -0.007768388428286788,
    -0.0027957449669371416,
    0.0026574437765805735,
    0.007206612876625374,
    0.004973213705579318,
    0.002727257475433593,
    0.004518207966696468,
    -0.009098374425969377,
    -0.008511487498723526,
    -0.010945766238026266,
    0.010599944442742782,
    0.005932000982023021,
    -0.007517260505734416,
    0.0026321770265787777,
    -0.012682723016718018,
    0.008034563601802313,
    0.008922984799208925,
    -0.0005993052722228738,
    -0.01017243854789158,
    -0.001100238271117826,
    0.006751854358076867,
    0.006120775825878626,
    0.002147080943211654,
    0.004334097416128878,
    -0.00014994631086763245,
    -0.004090742481393931,
    0.008195777518499732,
    -0.0067396216712761,
    -0.004608865175216064,
    -0.01227234822594255,
    0.0010200210181260875
  ],
  "b2" : 0.02257201203071057,
  "feature_version" : 1,
  "hidden_size" : 96,
  "input_size" : 34,
  "version" : 1,
  "w1" : [
    0.2569284258042432,
    0.12693399204275221,
    0.23064296534935172,
    -0.4569258810534978,
    0.23599188282834296,
    -0.13484937718256826,
    -0.0009345449485409258,
    -0.23409450120388567,
    0.3032061634467668,
    -0.08857045636005866,
    0.4296797801875919,
    -0.1263941719217479,
    0.6786807840803867,
    -0.2075804445964151,
    -0.3462430818913381,
    0.002639406431889548,
    -0.24758206856611453,
    0.04255671389988584,
    -0.060174342352512074,
    -0.03166837428812937,
    -0.0029108881324080406,
    0.020380680209072338,
    0.048311188687819695,
    -0.3237247144652179,
    0.1188126966642312,
    0.38396641251283575,
    0.02751627379666593,
    0.0923368547381517,
    0.2032819506173171,
    -0.10793774873533603,
    -0.4573026291590203,
    0.15025263611299358,
    -0.014153645653828392,
    1.1623449569683149,
    0.06759694541878147,
    -0.1712229434754766,
    -0.021447191418757276,
    -0.09109366975891904,
    0.044957816743855995,
    -0.07858736070882644,
    -0.30121038406266726,
    0.1426494026256304,
    0.03404635411680812,
    -0.1765523272455664,
    -0.17081162596656044,
    -0.13451109831300126,
    0.01214454235184672,
    -0.09027873149042162,
    -0.24394047863405682,
    0.0565374949752226,
    -0.2664171264359946,
    0.18412536805446827,
    0.17819344592937528,
    -0.2307942365421811,
    -0.16723208104970053,
    0.19325695662750064,
    -0.22668740139279503,
    -0.011153330292169068,
    0.03286214547910235,
    0.12883821071168353,
    -0.08641692433170685,
    -0.06969904670073282,
    -0.02652280929888338,
    -0.004830580246025026,
    0.1100639944354158,
    0.011300102461083868,
    -0.033175331625153,
    -0.06512466699952861,
    -0.0714360145056659,
    0.19906522726145925,
    0.007346717269759355,
    -0.039029060566504646,
    -0.3101832977002984,
    0.15292402952651296,
    0.13093524171207988,
    0.0810430390240577,
    -0.25633700062205406,
    0.2781408699756322,
    -0.20639425850619214,
    0.17295206597597143,
    -0.5796113107558604,
    0.27394234358671354,
    0.007945536084248144,
    0.2595783948237366,
    0.21055881703458731,
    0.30056809731791695,
    0.22184784875731228,
    0.1947506108861995,
    -0.1199552949959085,
    -0.17649590503218146,
    0.11144735076592502,
    0.09760706381974021,
    -0.14288905207530603,
    -0.2639274892545028,
    0.07905489828208194,
    0.395442509600951,
    0.35125225425086615,
    0.38442172685537684,
    0.022951755698787057,
    -0.014315423552779514,
    0.30430421177345024,
    -1.2877709578513405,
    -0.2627156487772949,
    0.285102880214979,
    0.258610483993292,
    -0.4220471858756264,
    0.012204973779643243,
    -0.09644008793176946,
    0.24299554803409404,
    -0.252916299054151,
    0.2315205823332735,
    0.00022891223000855794,
    0.2506535093973781,
    -0.07161931718350523,
    0.34876060419397015,
    -0.028310388693211824,
    0.029320739856937558,
    -0.18643279583054406,
    -0.17957478024151388,
    0.27247535624538716,
    -0.058016865460978284,
    0.03082875108849768,
    0.0816076582208181,
    -0.007469025510511773,
    0.16119383155245123,
    -0.16741976061442151,
    0.1087493559452506,
    0.6473223404088214,
    0.21034642747585278,
    0.2711961985294114,
    0.216311667880454,
    -0.5654463585320451,
    -0.285562942325449,
    0.2224536215433331,
    -0.13538722249920832,
    0.8424675751403576,
    0.16494411376275445,
    0.04982673964505984,
    -0.36971594177920913,
    0.2435856088318279,
    0.044360033714910437,
    -0.08146283951218847,
    0.33009179302004393,
    -0.1545022116465057,
    0.10463893260200136,
    -0.40188184105641456,
    -0.07022648757659068,
    -0.17211756544812065,
    -0.38346349546955444,
    0.10250765386333903,
    -0.2353058009140528,
    0.025343280446744484,
    -0.11274163523580873,
    -0.18841760090782989,
    -0.1437694416491933,
    0.1205452624326797,
    -0.22197643336597137,
    0.11115146151499042,
    0.008896552987173284,
    0.053486871922243336,
    -0.1493104486329098,
    -0.04220906615139086,
    0.29243018165006024,
    0.3170786735694156,
    0.4605941352669798,
    0.23051193376003093,
    0.1378639628944268,
    -0.03495352656055681,
    0.304957819536349,
    -0.9153521913406921,
    0.22512791525156908,
    -0.05397934859072996,
    0.11394108899221085,
    0.07336928267009409,
    0.15861638499290098,
    -0.04031630046548541,
    -0.0356647202243501,
    -0.006811665668031931,
    0.26478875663557316,
    -0.23430907382819585,
    0.2632876202108019,
    -0.3074039286927928,
    0.6611285757110048,
    0.059514454967660765,
    0.16123953878364308,
    0.16023095039773289,
    0.08071847139231891,
    0.11707021553237026,
    0.1440222978815657,
    -0.031041387510019818,
    -0.2495061709952973,
    -0.13820485322137827,
    0.2766237594860362,
    -0.16447746054601847,
    0.1442454846395166,
    0.13076827286274262,
    -0.13863545433274013,
    -0.19320288731685684,
    -0.03327190633531473,
    -0.17634798318908787,
    -0.17976699648322542,
    0.01906375901898861,
    -0.07955873506699708,
    0.7628596785281813,
    0.05168868426994125,
    0.1274680034835872,
    0.10275720135943334,
    0.04863345971424756,
    0.2410998637027518,
    -0.112664181205199,
    -0.08143645391814787,
    -0.006129693060082132,
    0.28651637922207507,
    -0.043455926481207524,
    0.0577787942895097,
    -0.18556772241510205,
    0.6010453764421335,
    0.11632734093066982,
    -0.03844777773156142,
    0.1194430291421567,
    -0.11659036755034208,
    -0.10770165770243219,
    0.2271484483741828,
    0.08695782489443404,
    0.21930759490893154,
    -0.12091370822940956,
    -0.09230700827405862,
    0.10694416071291289,
    0.1716689025888017,
    0.09366667921850184,
    -0.09307596534347538,
    -0.3062520221433081,
    -0.26022940990583054,
    0.08707631662054598,
    -0.1197291561462672,
    -0.05015636715252263,
    0.15631325387679815,
    0.8244031834861598,
    -0.15121862669876196,
    -0.14394779598582816,
    -0.3704335774866663,
    0.39506138483550546,
    0.03138599491316477,
    -0.16667731949958395,
    0.0821715861035778,
    0.08668453051321605,
    0.01934461907534681,
    -0.061208427558564635,
    -0.14666879679172365,
    0.187116421036051,
    -0.08111390255164261,
    -0.23873795378168672,
    0.17038765227656463,
    -0.23644845965201883,
    -0.021454425164481983,
    0.1719539225094103,
    -0.1703049890884591,
    -0.041223947245128824,
    0.0880201955024073,
    -0.0421127197890387,
    -0.2749450787297919,
    0.010991177431274854,
    0.22900472855577414,
    0.07698440672444531,
    0.5930771778781133,
    0.34942949566861553,
    0.3923089859891543,
    0.1719553758053326,
    0.46242566448168076,
    -0.08466163976614034,
    0.02970466336710762,
    -0.34990286943924315,
    0.17088751127680013,
    0.055726908187375364,
    -0.12040007659866739,
    -0.18215099628516962,
    0.2387034757634594,
    0.10755435101387954,
    -0.06473788773383946,
    -0.16207840889019814,
    0.1259896487460369,
    0.06857991599652807,
    0.09743863516610352,
    -0.11006542308119231,
    0.46322694524937974,
    0.06626734888157537,
    -0.2419075590584682,
    -0.1113228381933733,
    -0.35452541271526516,
    0.04681850635114106,
    0.14597378090721683,
    0.1687242319093672,
    -0.18778795695806455,
    -0.44027754122363977,
    0.24305759556953585,
    -0.26146251566228257,
    0.15146793828221455,
    0.5613549524780896,
    0.18306839080279733,
    0.19678831034376235,
    0.08825829312770371,
    -0.1071732173262957,
    -0.06698383392884869,
    0.07607527227119765,
    0.19717420736878036,
    1.0211107523225007,
    -0.057279307471090994,
    0.22312717169516177,
    0.11591982350143906,
    0.07875836387374321,
    -0.15796742065343794,
    0.03476306961797107,
    0.14515646884226785,
    -0.08038646164353994,
    -0.19175252705857207,
    0.1957410840494688,
    -0.18087264157786917,
    0.17853264109976805,
    -0.30274358763285636,
    0.07291732402010472,
    -0.0022316332794110106,
    0.23963077839730412,
    0.018548353234220126,
    0.31965062498850494,
    -0.07497497442166837,
    0.073682348223923,
    0.08898222829283431,
    0.019520503284624558,
    -0.2045241237780718,
    0.05353732027465389,
    -0.03304900546179617,
    -0.12327965923399385,
    0.09286031106581484,
    0.1720583711498665,
    0.26193319007673443,
    0.10585183325541504,
    0.2975879306573362,
    -0.16119537757458102,
    0.1169361861386004,
    -1.1442853827705801,
    -0.02556277417766483,
    0.1549064117194936,
    -0.09017470091899152,
    -0.1556986259896334,
    0.07268812079094546,
    -0.2838872483704446,
    0.053086447404100706,
    -0.06312010195699073,
    0.136049301536673,
    -0.4722506875185298,
    0.10516184198005754,
    -0.148072108588601,
    -0.19123537712805538,
    0.009693124923466972,
    -0.10828295660783277,
    -0.18835432864032486,
    -0.09945477179714331,
    0.005242296510981169,
    -0.46798343226694833,
    -0.08897859873668344,
    -0.20595104953245488,
    -0.07615463668906919,
    -0.0662127552069649,
    -0.241529614720516,
    0.23621843802623962,
    -0.16461733226855094,
    -0.14019378559217713,
    0.2514207989922626,
    0.030267951460048223,
    0.012795744704876695,
    0.29902517114454596,
    -0.029527966946430225,
    0.40090491095678504,
    -1.1145061577522943,
    0.09798678923621205,
    0.014343085650208474,
    0.2293107359140219,
    0.14837543219165433,
    0.14953430326874506,
    0.28997856375209624,
    -0.12104390380301816,
    0.13614692244771248,
    0.18400461544831082,
    0.17631093346761667,
    0.015407460368440054,
    -0.1661055444104492,
    0.4162572001217466,
    0.2014178538578854,
    0.28781561259755206,
    0.18180633238287836,
    0.050994258257260124,
    -0.055817853430835604,
    -0.09199430873554941,
    -0.06951027489378965,
    0.13196441943879908,
    -0.24341605252503942,
    0.2276659589713945,
    0.09633722330064981,
    0.09034481263159799,
    0.11016603142968501,
    -0.0802335404484047,
    -0.0821967884593781,
    -0.26630756120342014,
    0.211879402956328,
    -0.08758359264415776,
    -0.15563082959600644,
    0.15600570125203334,
    0.5838412675474541,
    0.02523575964725501,
    -0.22315248783328168,
    0.17045129224589636,
    0.03741443715433165,
    -0.1326285628919661,
    -0.1635151636232983,
    -0.15147775118318788,
    -0.06626030016076111,
    -0.06701298048452459,
    -0.13267841517895768,
    0.09815581136395492,
    -0.015116766145956985,
    -0.15633446915187663,
    -0.1258839812045127,
    -0.2030700076872046,
    -0.15910446460318914,
    -0.08845270816371294,
    -0.11675105493667354,
    0.22678670642982654,
    0.10764687694779697,
    -0.08546108250826999,
    0.14942520729552103,
    0.13060499397121433,
    0.11203374800626488,
    -0.16926009595515362,
    -0.03149923576160189,
    -0.1705393356099429,
    0.04025667827022362,
    -0.1527640398182757,
    -0.10620865018469357,
    -0.1310226846946118,
    0.0030673623951818062,
    0.025008994306838558,
    0.011367623171003519,
    -0.08332616611030422,
    0.20112461185610422,
    -0.1632119351402552,
    0.29643561615636543,
    -0.10005351886737275,
    -0.24208891541041574,
    0.1345703079143588,
    -0.12008254954568494,
    0.012424925168000058,
    0.06458749270099426,
    0.13257251853550714,
    0.22522745378843945,
    -0.7610948133830541,
    0.3398091054919188,
    0.19609446599145366,
    0.04179124653640245,
    -0.17987248688665922,
    -0.23519901717229735,
    -0.15720052422603603,
    0.41586562382344094,
    0.3169490981899029,
    -0.07013167450784256,
    -0.0011370236044981386,
    -0.02678534240960601,
    0.04955510482488691,
    0.015628596870656625,
    0.5421794430157507,
    0.6855247385659431,
    0.5203949231100441,
    0.04072180616272931,
    0.08126943267022263,
    -0.02631755971900034,
    0.4571042433223185,
    -1.161822520531131,
    -0.5228695997012164,
    0.0055005827021163975,
    0.3315657068670044,
    -0.6522778616186933,
    -0.29243749659393126,
    -0.030257718878546894,
    0.062305204805036464,
    0.17737988638330834,
    -0.07845645084858793,
    0.207175748841555,
    -0.09911575798704443,
    0.029860188243387636,
    -0.41579356771541437,
    0.21670727502523252,
    0.06577776180457996,
    0.11387694270265684,
    -0.382718437767071,
    0.07299555716163508,
    -0.08808867046293545,
    -0.26459322936358054,
    -0.06973236851980416,
    0.2069071636802711,
    -0.16285211055926288,
    0.21871142162318705,
    -0.1318637513257916,
    -0.31972571979552844,
    0.07167206576975191,
    0.23655844524483244,
    -0.015536209902745646,
    0.12225413797116767,
    0.2684410726375302,
    -0.08450751221511431,
    0.14630521035268299,
    -1.160218373071415,
    0.04448756969132036,
    0.2262676468057039,
    -0.10404841925331984,
    0.25822213481523193,
    -0.05080415430742741,
    -0.026581874278333206,
    0.13709762187411573,
    0.07222453273670544,
    -0.05877355618551329,
    0.307625128086136,
    -0.10569426186865016,
    0.25747527582115354,
    -0.6078101198362305,
    0.23730359056438832,
    -0.1084915133340181,
    0.1685865314663947,
    -0.07105681417648509,
    0.38770491560118464,
    -0.1836185176152963,
    0.10030501903219466,
    0.168629739777707,
    -0.134814598353179,
    0.1326036833444425,
    0.1904011834016823,
    -0.09543444864894923,
    -0.27537812306860443,
    0.368861362377621,
    0.4343429875300067,
    0.19774838513473988,
    0.10577080839341972,
    0.17210838045920693,
    -0.0394653355437165,
    0.05851443242210203,
    -1.277860278067287,
    -0.03360014742021711,
    0.07923135249957917,
    -0.16423198893430227,
    -0.03167059684708913,
    -0.17596032273893872,
    0.0712320553600692,
    -0.08937395312142059,
    -0.22974738361889674,
    -0.001888771312638144,
    0.04753697345487493,
    -0.0002267751047287206,
    -0.12897207955835602,
    -0.11190656978101883,
    -0.10663839181539614,
    -0.01458618915764763,
    -0.13304196350717212,
    0.06148108236972561,
    -0.043010022430483456,
    0.14026865322772072,
    0.027479332831278052,
    0.021285109706138814,
    -0.04806940687447678,
    0.001183002576690971,
    -0.07082789208810227,
    0.04583280877905604,
    -0.012608079539107513,
    -0.15128070479103256,
    0.006009799605665639,
    -0.13189366484359494,
    -0.2156349088004466,
    0.0791133728092502,
    0.13775490029438225,
    -0.17767308800100665,
    0.20275867713947796,
    0.3394112393358742,
    0.1072414500600766,
    0.14731422883212184,
    -0.20196966175492131,
    -0.0977189870913547,
    0.20943630970030364,
    0.027391159716414263,
    0.2829136692185441,
    -0.012300517663767734,
    0.2410576101721987,
    -0.2025004954757218,
    0.17648288552728236,
    -0.06375736077199641,
    0.05720747540843426,
    0.17340467879877067,
    0.028724205027034242,
    -0.06455083457166111,
    0.21642938275784848,
    0.09231172215090346,
    0.16902143445219103,
    0.1689638266992135,
    0.40674068934555396,
    -0.05757388331587688,
    0.3530860865016923,
    -0.09770659368239454,
    -0.0030630912642904597,
    0.007174812473556477,
    0.22265875219919354,
    0.42879304840829763,
    0.2657007686748346,
    0.13834477392600147,
    0.011698756674709217,
    0.20561164619598316,
    -0.6254558019452053,
    -0.06068055661126628,
    0.06920741839711068,
    0.04422896377276545,
    0.28305255697329984,
    -0.2909575785990929,
    0.06443598278367912,
    0.10335120563290096,
    0.2611332648947441,
    -0.04566436422467773,
    0.3238400621237791,
    -0.03439866029311952,
    0.06755554657833546,
    -0.5477989396057394,
    0.3011635433655687,
    0.1874884814603476,
    0.2657373352009755,
    0.16833706721884711,
    0.020325038301438423,
    0.009438374331732304,
    0.2580502593251373,
    -0.1589641379686658,
    -0.0579722595379078,
    0.016637303449815302,
    0.11645382187386279,
    -0.10844293721190548,
    -0.3018558601457958,
    0.1904023881129659,
    0.43298183654351285,
    0.30046964657291647,
    0.3737434425690295,
    -0.03700685534016513,
    -0.20043940363025703,
    0.17867729070619084,
    -0.9008984831817652,
    -0.02257705913949454,
    0.12192341712994542,
    -0.14375179398029161,
    0.35051575077618174,
    0.40545761823524723,
    0.09585932428588784,
    -0.2912198967226763,
    -0.04540538876988427,
    0.3688956476471153,
    0.051147618261916494,
    0.08043538364839262,
    -0.24688832026642193,
    0.41325184749207444,
    0.07181729862279765,
    0.11670328203248762,
    0.25073025777574975,
    0.3202329079606349,
    -0.20084138918131056,
    0.3226873428094632,
    0.05481595631031617,
    -0.03355259689882232,
    -0.017075674764740093,
    -0.10127650600619763,
    0.16162244364893996,
    0.22503770843458457,
    -0.09251984798423586,
    -0.287075142641551,
    -0.2803565569922272,
    -0.3949295114376049,
    0.061686948876634055,
    0.14398710449878355,
    0.01184251167396515,
    0.06480475871723973,
    0.52305275302656,
    0.42351924616916553,
    0.06619376701985465,
    -0.07310144488642076,
    0.06058528253568315,
    0.11732548826271526,
    -0.07900901192486867,
    -0.06831223643598439,
    -0.17001354617577974,
    0.133265914435921,
    -0.10134538234004817,
    0.13512247190588583,
    -0.13607476096835405,
    0.7670355337578393,
    0.14834060103931507,
    0.003213192085620539,
    0.19161998230293475,
    0.07066320484331304,
    0.0990745087124534,
    0.003934592197227156,
    0.08534895873110625,
    -0.01965847576123548,
    0.04541665779063473,
    0.059294713277473765,
    0.014087999846125318,
    0.08213593294576967,
    0.3807466584201772,
    -0.12332801561742031,
    -0.16544307405157965,
    -0.06255641558126626,
    -0.04299161750228323,
    -0.26234439236644325,
    0.13440689437185485,
    0.09197512017863943,
    1.0319233344790193,
    -0.18253258106939843,
    0.08522362137682653,
    0.13286656342127298,
    -0.07905992247029608,
    0.08673950408198805,
    0.0386216944403465,
    0.016265135767932745,
    -0.14338975967102643,
    0.09048625587141075,
    -0.25901479114986975,
    0.30114506751341835,
    -0.14621343552481134,
    0.5057530253218324,
    0.0897510713855371,
    -0.000706820669461048,
    0.12685200223609758,
    0.25451555895693356,
    0.06379628899020118,
    0.03467648185155553,
    0.07774588154422957,
    -0.05448691835691133,
    0.08504125485542366,
    0.03691083973994628,
    -0.014195902233418002,
    0.01445502297589757,
    0.1087309925087127,
    0.012776032569741105,
    -0.27572860391129106,
    -0.17002443822533134,
    0.03957226513012913,
    -0.07732611746155169,
    -0.019005566237740756,
    0.2795101076872018,
    0.6643214600565249,
    -0.37698973851165424,
    0.32327879773332996,
    0.012330291064208332,
    0.3015250012411705,
    0.3246838548320846,
    -0.1814326389818971,
    0.031228696823987885,
    -0.1594092075101837,
    0.06315459343732135,
    0.07284788965784873,
    0.18018131337221324,
    -0.3143120542137978,
    0.5692214351205976,
    0.32346302734142407,
    -0.18653331399477802,
    0.013805732817409815,
    -0.024080847677198366,
    -0.24667753537164047,
    -0.023946495679746205,
    0.38435165969151575,
    -0.2850033236960964,
    -0.18614536860626388,
    -0.07604368142016431,
    0.14579378055786368,
    0.2740324529026425,
    -0.3387628483088502,
    -0.5724784722821723,
    -0.14997056671134706,
    -0.12222473571086731,
    0.14932652307909722,
    0.10062468403535083,
    0.053167221290338344,
    0.08717652257000981,
    0.8615586245056873,
    0.3657264198092609,
    -0.1751701061907991,
    0.10987375340642042,
    0.0697831045977492,
    0.1593906040299288,
    -0.15919213985070332,
    0.10292451761043933,
    -0.11886181203326618,
    0.22160978173463897,
    -0.2575636644328742,
    -0.028551112767660255,
    -0.36395005118081775,
    0.27992730958576784,
    -0.2109316030358921,
    0.15304898003452053,
    0.13555634646406017,
    -0.12232113189333024,
    0.07789772952745834,
    0.06483312967173652,
    0.0786111080668732,
    0.16517455498626601,
    0.014663947954977006,
    -0.08290657161471233,
    0.21268236909472238,
    0.36683183561716676,
    -0.051168985203645684,
    -0.08712239778186545,
    -0.22289483538010718,
    -0.0773391875171255,
    -0.07799085819863402,
    -0.15144636489451593,
    0.1652567691527279,
    -0.04461222730144575,
    0.482978365937193,
    -0.029549259463788606,
    0.1796070782079616,
    -0.4238718142325853,
    0.05476436835830453,
    0.12888885787431276,
    0.19639518019589775,
    0.18719710273141527,
    0.02494842503180524,
    0.133915297341182,
    0.08531233599514407,
    0.007934904441400829,
    -0.12933021269696923,
    -0.243609565720463,
    -0.10176935361992695,
    -0.31751672442138734,
    0.21667886038485693,
    0.21857445929258024,
    -0.14450540308120932,
    -0.23685314420295994,
    0.4491341594725714,
    -0.4448336198055086,
    0.10144885213274367,
    -0.07073949391003588,
    0.16718548673295489,
    -0.17450430122003877,
    -0.08888549209911538,
    0.4065692543306522,
    0.3086343156237511,
    0.4449225590808471,
    0.24448124207596306,
    -0.013209198903240018,
    -0.04479142694721607,
    0.1324355587759391,
    -1.1160346527774256,
    0.15296150713821535,
    0.15142335575323315,
    -0.24808357763767672,
    0.09896911508785747,
    -0.018859742142286584,
    0.05842610934872616,
    0.12425262649216673,
    -0.004606684546947892,
    -0.10490451356264366,
    0.1018457180433318,
    0.009095719587188576,
    -0.09280777324776589,
    0.0008327750528368244,
    -0.18284570125258848,
    0.27028241356036337,
    -0.039084557466254694,
    -0.15461941511108743,
    -0.02549698449193251,
    -0.1731400298346735,
    0.2770727698470886,
    -0.10398943312935642,
    0.03759733222545988,
    -0.08725057624570878,
    0.4505563130914289,
    -0.025381728721476943,
    0.017018208567204575,
    0.1875559162394608,
    0.09854397382238855,
    0.261447234913498,
    0.1342251830182559,
    0.4040607101234259,
    0.005939925143234939,
    0.17311494350481615,
    -0.9298145151726457,
    -0.028119917736890675,
    0.1947405211168088,
    -0.525045888900771,
    0.6733407508026216,
    0.09457744184526315,
    0.05331185987306841,
    -0.12758731112829624,
    0.2581559751280585,
    -0.15678766821286713,
    -0.1923388761831241,
    0.07796097332116006,
    -0.06850562910494425,
    0.2045426980761568,
    0.13074305426881297,
    0.10240504388229243,
    0.05449663812945114,
    0.021767444076665043,
    -0.187457417013191,
    -0.22876600704801026,
    -0.22541720571555998,
    -0.21892129811212296,
    -0.04010643046968164,
    -0.1340468331726788,
    -0.10616143566701751,
    0.25468764204047656,
    -0.556849473829094,
    -0.6724549365038506,
    -0.37803593463469787,
    -0.2611618677917859,
    -0.012174990790605645,
    -0.1351751055238718,
    0.08953961724652046,
    0.16735975211155624,
    1.0031162804370375,
    -0.24059318331579863,
    -0.0741287066133784,
    -0.11011011660055074,
    -0.1085451513041959,
    -0.04993553514151259,
    -0.14546682434488065,
    -0.14148404841493264,
    0.06860230192080256,
    0.12125241513050217,
    -0.10520458450988499,
    -0.09319053362333343,
    0.17162468566658265,
    -0.05179296337349256,
    -0.01883038620601089,
    0.008272159752324978,
    0.06623855517758583,
    -0.17630242151308587,
    0.06531382244180137,
    -0.23885965215938962,
    0.10614263347435174,
    -0.20889411316272055,
    0.041265026286084985,
    -0.10052448006353788,
    -0.19679729633663515,
    -0.1875599700190548,
    0.10167702680587623,
    -0.055856366812242604,
    0.03454568288101482,
    -0.11982579613169689,
    -0.21438493553629764,
    0.06824879250127536,
    0.03517009449230251,
    -0.17070414742241563,
    0.24541631927878385,
    0.23190581422730278,
    0.029932342754084573,
    0.23042776434821216,
    -0.3698090573550655,
    0.3175523942472792,
    -0.23022343291869296,
    0.0003022670722234179,
    0.059577693273978466,
    0.08796077361335082,
    0.0940306639141061,
    0.019990727760539853,
    -0.08269909682575766,
    0.4869734450526008,
    0.0054322715824371,
    -0.17056419036999543,
    0.19199748570705455,
    -0.33174180069565923,
    0.14394857258761168,
    0.08466528445736278,
    0.18978703863757868,
    -0.11198617356549613,
    0.043285807212418356,
    -0.0651537667847829,
    -0.13082724783761385,
    0.02353364197061062,
    0.4099991126960116,
    0.175223782236689,
    0.19445672962322028,
    0.24382596427965753,
    -0.1571070451218425,
    -0.07526936033837255,
    0.06870886567233946,
    0.18326849511374588,
    0.8845831322887067,
    0.15026716962600345,
    -0.1549576951789928,
    -0.34543165572511436,
    0.4362326332139096,
    -0.062010137202516545,
    -0.02621583756534628,
    -0.11870506219786688,
    0.11051339452788154,
    -0.39173943524399935,
    -0.2549431634842491,
    0.10079613384537328,
    -0.17797520404170894,
    -0.30846313701430556,
    -0.20525973944375622,
    0.2995111347668582,
    -0.001207287301987324,
    0.16760541784957617,
    -0.08917593443716078,
    -0.061878699981646815,
    0.06512424805724519,
    0.006708042395129666,
    -0.08437292025002122,
    0.00046688809696968607,
    -0.12003623415956219,
    0.19303576320412355,
    -0.56461668687846,
    -0.6210506197115327,
    -0.36679101074452003,
    -0.3328961259513108,
    0.04864595153560807,
    -0.12893325561628907,
    0.02136667325191464,
    -0.1763970747515296,
    0.07344268958170112,
    -0.13121558939808506,
    0.11741430896573028,
    0.21774979815322917,
    0.22485339179871502,
    0.005932860976591968,
    0.08649944970779477,
    -0.08837152288181077,
    0.22909377189590846,
    -0.060706537458355206,
    0.07985547552295547,
    -0.1207481448393877,
    0.1402068990370656,
    0.011998753448896383,
    0.16049840081395983,
    0.051448421582413965,
    -0.11139134833601033,
    0.12510372754745286,
    -0.08438483602041788,
    0.14280535064765587,
    -0.1988738046725904,
    0.12965602221134004,
    0.011058445044356236,
    -0.2226902579056424,
    0.11217987710926522,
    0.0024785763353030368,
    0.156931031167342,
    0.06173040102376988,
    0.03458484493115799,
    -0.036773125741513375,
    0.022130743602630173,
    -0.04882005205318184,
    -0.009847353651724781,
    -0.1649230570228118,
    0.11316521326245717,
    -0.022234670939898605,
    0.015826339653095833,
    -0.24122728618396974,
    0.5392465849687436,
    -0.01624756966237793,
    -0.12443472813129862,
    -0.020799622429490967,
    0.2078739551906487,
    0.14702574808235064,
    -0.24472519786149075,
    0.2160156246620207,
    -0.048332761665369074,
    -0.1324379931979805,
    0.1872141245043731,
    0.1521931554465331,
    0.03725867667714821,
    0.3427507921346801,
    -0.09198707061524156,
    0.025980514282573905,
    -0.1889559764155337,
    0.35591767003217795,
    0.24906734232325017,
    0.13446885810295497,
    -0.17677897482472824,
    0.2283531155136033,
    -0.5658570008662706,
    -0.907303192243365,
    -0.5804914735928364,
    -0.38683595773547685,
    0.05738226771197563,
    -0.15000800879643414,
    -0.0782587368872556,
    0.07107969203498753,
    0.5771494511008346,
    0.39433381074425944,
    -0.0857270440140351,
    -0.030889632388569455,
    0.12328348185212185,
    -0.04369313101407342,
    -0.03286493408173308,
    0.09138995988310122,
    -0.1969060156762581,
    -0.01733902288125277,
    -0.16960979358855752,
    -0.22408817190290364,
    -0.08030469550725816,
    -0.40014105610069195,
    -0.01846065210683284,
    -0.028798716107377602,
    -0.1426066097476736,
    -0.2182939863703649,
    -0.07997011449809874,
    0.004765819899706534,
    0.020560522290168373,
    -0.17249205862820297,
    0.0348740226075745,
    -0.06612653293574747,
    -0.14209190348512948,
    0.03498531385435596,
    0.012378851471378688,
    0.22025116189856558,
    0.1668580846238192,
    0.16195770506778392,
    0.17899630222615948,
    -0.04901305282881291,
    0.056128433881334656,
    -0.14535881837589387,
    0.041291889037657015,
    0.19656033725393574,
    -0.12884187351652668,
    -0.31571508029593864,
    0.5846001941977055,
    0.1361289274964201,
    -0.0595666133201472,
    -0.1619865216880522,
    0.001837748526197116,
    -0.1411548411106857,
    -0.2354530993944363,
    -0.2144300986377163,
    -0.09654416008128851,
    -0.5006462938076458,
    0.12848807471404375,
    -0.04156152102104527,
    -0.0893124141459571,
    0.08559964489407143,
    -0.20065487161542273,
    -0.025492471533564934,
    -0.1181647806560661,
    -0.004053981027792486,
    0.1426062633961315,
    -0.1332346560058948,
    -0.05393084033811049,
    0.1743054910289259,
    -0.5847965188447284,
    -0.5696667868619744,
    -0.6053562757626222,
    -0.7168983461555869,
    0.08413121587016763,
    -0.01631833705978289,
    -0.07614085887708931,
    -0.10890672203661272,
    0.19362922897112603,
    0.09341826036725864,
    0.2516131121026676,
    -0.5339974412119066,
    0.38172877934335836,
    -0.02969301751081061,
    0.07419460963712952,
    0.3024151681874269,
    -0.2120426891004924,
    -0.017060699632933506,
    -0.15666134833185585,
    -0.005015445947021357,
    -0.08011666311000902,
    -0.25925549358986677,
    -0.014721423858506685,
    -0.28242351129760823,
    0.17947573097015304,
    -0.05211921674601138,
    -0.22621071301079712,
    -0.42179327439618175,
    -0.03618604794880053,
    -0.13696233672711988,
    0.009890485773844434,
    0.04754441748255809,
    -0.010286168033002566,
    -0.3262305703442342,
    -0.13292194506872343,
    0.5402540289874974,
    0.8244833543986094,
    0.6297258254659603,
    0.024257630657039682,
    -0.040560272763540704,
    0.14760693282620796,
    0.28248332999968434,
    -1.2369865303554026,
    -0.11894863577052438,
    0.009140833932025423,
    -0.07744984365917947,
    -0.15455519749873625,
    0.03293478234223145,
    -0.11352814990453808,
    -0.12675307833164315,
    0.06820899678476398,
    0.0713245317420797,
    0.1378312163902072,
    -0.12784632926674191,
    -0.1859365374068828,
    -0.011646043647509083,
    -0.20458273346868744,
    -0.038876140480388406,
    -0.2511516542818974,
    -0.14747518064447881,
    0.03858239861154328,
    -0.0005474802450497394,
    -0.05962120946329414,
    0.09450113732732981,
    -0.1144326110196601,
    0.09251129400745543,
    -0.17677328348786117,
    0.025473789666306028,
    -0.09684998975945884,
    -0.12604077469104732,
    0.020998138209834784,
    -0.22325249661494745,
    0.03495077734747558,
    -0.13277475758978152,
    0.09071325540612936,
    0.05717732702945092,
    0.028619645604487345,
    0.030593236100947538,
    -0.16887257475704806,
    0.2914146189021316,
    0.09984916060015224,
    -0.11991130932645906,
    0.006099527631491265,
    0.20401603906511784,
    0.08791608890178207,
    -0.12277675599987321,
    -0.019133175907034134,
    -0.18718210201964067,
    0.17942415384772775,
    -0.363893467202008,
    -0.0012899107229497433,
    0.027446696844031494,
    0.10364008041256068,
    -0.11054953621215688,
    0.14124001851275522,
    0.09554541006620942,
    -0.09402035527491567,
    0.19771265806501304,
    0.24313722805403012,
    -0.09397536081934627,
    -0.15248458181060967,
    -0.09068634773497065,
    -0.1821531322365637,
    0.23019572182192033,
    0.24821227781723443,
    -0.09431298944864992,
    0.2523665924486733,
    -0.026613871812899145,
    -0.07700643868031305,
    0.0036652236877260363,
    -0.6268049158011479,
    0.4375505639497462,
    0.08415343166451529,
    -0.43153507133339075,
    0.33342279666927116,
    0.35666692249345316,
    0.040710036609873566,
    -0.0959356611117407,
    -0.11968420285699333,
    -0.033413401984196275,
    -0.17960555223695018,
    0.12873921882178122,
    -0.05696890349416458,
    0.5018579472333292,
    0.23766273359983517,
    -0.20253063903961502,
    0.263976468929334,
    0.1404586598749689,
    -0.26514067771952005,
    -0.23189440060503272,
    0.037229368831375446,
    -0.4009790675248906,
    -0.2347998672876832,
    -0.16906890488052964,
    -0.15618061310529335,
    0.0649448691835314,
    -0.3412868446866159,
    -0.499042238964659,
    -0.23123648800468435,
    0.07503968768489756,
    0.15120260122830037,
    0.20667492921735175,
    -0.04712973945027962,
    -0.04389427746645151,
    1.121412925459676,
    -0.1956464987496488,
    0.23785212878271622,
    0.2930790262766609,
    -0.24433429337284876,
    -0.07725672349655673,
    -0.11142952557741864,
    0.0038470558219939025,
    -0.20824571085201252,
    0.023949339008373524,
    0.06012022810716626,
    0.2254441477671448,
    -0.1544117587874053,
    0.7326611100210991,
    0.0002801365140639904,
    -0.15290801124950948,
    -0.0015316599085160119,
    -0.39217111876781885,
    0.20173942705353415,
    -0.05271350256203849,
    -0.01206960347143198,
    -0.0299583644186757,
    0.03294476358352399,
    0.09299147682265865,
    -0.3121514387878548,
    0.027707370305281556,
    0.6837660108055541,
    0.22821064153870366,
    0.2570145478454168,
    0.11970231383621775,
    -0.47463127097461866,
    -0.24764333917449577,
    -0.008546335079941736,
    0.00038242237575115105,
    0.910510051327253,
    -0.09519533661694188,
    0.30044417030848086,
    -0.1446617740805564,
    0.3026180372751552,
    0.1735217649092373,
    -0.26595572536456175,
    0.158833784640569,
    -0.09482975350323494,
    0.14288378829290174,
    -0.4986246970594786,
    0.133945187526767,
    0.013100840388030775,
    -0.21743945994581426,
    -0.09474451237557369,
    -0.06779980271613727,
    0.06891187690149438,
    0.1391752555835307,
    -0.1766313697006286,
    -0.18822587123215992,
    -0.10807960204226916,
    -0.106089337698524,
    0.06632631466882151,
    -0.131395088249942,
    -0.2049581818213034,
    -0.00341329581813914,
    0.02448388651501195,
    0.25351376805841225,
    0.18922996736012623,
    0.28403806486891087,
    0.0543687612489853,
    0.13749755980846412,
    0.19412019279363008,
    0.41124700584933155,
    -0.8429652492830924,
    -0.2191233598082694,
    0.13472363797654904,
    -0.2997150396807582,
    0.11051783129620742,
    0.22840353523968435,
    -0.2791449492147803,
    0.2775563639034458,
    -0.06358776468663918,
    0.0374643597144048,
    -0.023715407533696675,
    0.08379571206404156,
    -0.16890450104498672,
    -0.14834245877890137,
    -0.13924536617941125,
    0.020091299648979214,
    -0.1788464356603172,
    -0.1810296883630827,
    -0.0935741679263898,
    -0.3545919156704847,
    0.1433228218201117,
    -0.11850436060038695,
    0.1207708762789414,
    0.16315733970334342,
    -0.18763173331983388,
    -0.09651463574719674,
    -0.03638936954380823,
    0.18020496770477448,
    0.24723567462121346,
    0.06763272694472293,
    0.023935538921627714,
    0.20140068642346767,
    -0.08561582541246257,
    0.331491274539701,
    -0.8822067426473127,
    0.09641352019744033,
    0.24214301976885633,
    -0.061810227732080315,
    -0.24745571734628602,
    -0.11674363774856791,
    0.3156518262690588,
    0.15908920757708367,
    -0.18189645363554435,
    -0.08970008471126589,
    0.13682963329581588,
    -0.06025171951710702,
    -0.20490572982803046,
    -0.22788308054139889,
    -0.01956345387739387,
    -0.045854400857267226,
    -0.08087382060970393,
    -0.21921627162805735,
    0.32440177887426674,
    -0.09406721187558628,
    0.017384396151896714,
    0.04376757561981094,
    0.034604808642508644,
    0.20311292663798056,
    0.1002414690540976,
    -0.3995850449326011,
    -0.2168510152244919,
    -0.11372961184592004,
    0.15321661177960616,
    0.16335435982181512,
    -0.1360609763886001,
    0.14747277156829577,
    0.023461268423540287,
    0.1506171691273737,
    -1.1360071741659763,
    0.0930272995153315,
    0.17627839283285546,
    0.22292344260802266,
    -0.2502248382212368,
    0.16048951298870814,
    0.06560197107030431,
    -0.07139760038816849,
    -0.04603085222330719,
    0.11428675103289837,
    -0.015334247002486184,
    0.3169495081192125,
    -0.07491098629852415,
    0.6477574600769496,
    0.01309050841183992,
    -0.20252324990293435,
    0.06245144425475344,
    -0.031276962087672174,
    0.05346120304366437,
    0.09611634770863418,
    -0.0524348693525346,
    0.10087345032640772,
    -0.14839456573708232,
    0.005270185038501981,
    -0.07105306488194733,
    0.5266561532654028,
    0.38511441417134196,
    0.17118496294297086,
    -0.020133737513466428,
    -0.15017812613798912,
    -0.1795866817640096,
    -0.0049501268864589765,
    0.07811736400326467,
    0.19821120712501095,
    0.8583905826386077,
    0.06903636949022268,
    -0.23120735171829238,
    -0.5605611706363499,
    0.3219915741367007,
    0.1170016809771005,
    -0.04668861982571674,
    -0.37012742715204255,
    0.23071726467217982,
    -0.127643114395641,
    -0.3804204502806418,
    -0.07653826698311585,
    -0.47561747321529957,
    -0.8153535640720989,
    0.10090003145540472,
    0.1055922035719451,
    0.15589764768051412,
    0.356906619116038,
    -0.3468483616812947,
    -0.3720772825449115,
    -0.24284593269064936,
    -0.43323215793698516,
    -0.01599176973874026,
    0.28666110721269056,
    0.010402120707321202,
    0.19945887718249983,
    -0.8333068988334486,
    -0.36876630903062274,
    -0.41907145693845504,
    -0.6070340897563111,
    0.3337195157638364,
    -0.22227074348524184,
    -0.1517197366759511,
    -0.33501275511367795,
    0.3042350130804024,
    -0.11660760921837088,
    0.09231044688327111,
    0.07301390372881718,
    0.15454173285887884,
    -0.16905969249476452,
    0.025151343617365318,
    0.10578985067909263,
    0.1342508313390747,
    -0.1311095029394465,
    0.13350317596324146,
    -0.113218506897268,
    0.17817881647462552,
    -0.49009849777613523,
    0.11154196566642949,
    -0.06675899786096641,
    0.200775526466815,
    0.07898556980057712,
    0.1587015575294886,
    -0.12871681813238953,
    -0.15798658033434035,
    -0.11694351983572429,
    0.25253263609452814,
    0.17231838990113113,
    0.1163749844489824,
    -0.21215894731285354,
    -0.3034736982175971,
    0.31928266066128663,
    0.3158959798094948,
    0.32075515833868967,
    0.197747488917312,
    0.33253639516742345,
    0.07505972774571135,
    0.16238993635800064,
    -1.1492320755113847,
    0.08614802318609961,
    -0.004825814112386463,
    0.17310067739721974,
    -0.027793720519033442,
    -0.12849530514895677,
    0.2784331785619235,
    0.04491787177002067,
    0.2735173760187448,
    -0.23139496380615898,
    0.10436943129686578,
    -0.10544698045777857,
    0.2592397061525266,
    -0.19510232207623082,
    0.09241452441076693,
    0.3627958152949797,
    0.21594474295114358,
    0.03484610137598561,
    0.034047330223053604,
    0.050966020622940464,
    0.05379942509148081,
    0.044340134223669676,
    0.2083914624017614,
    0.037158497638270366,
    0.34001589201850496,
    0.06355809891703,
    -0.17742602830736018,
    0.1477850480351294,
    0.15066318219319613,
    0.2840562439530986,
    0.1809881653674282,
    0.38977436816023003,
    -0.02331529121797827,
    0.09028894633481958,
    -0.8233543684837181,
    0.04224291617433073,
    0.24282844783934363,
    -0.1540303304296458,
    -0.2824550133622473,
    -0.07016472569967755,
    0.09178155138905891,
    0.12227649651802913,
    -0.08132455196538506,
    -0.04716575925432554,
    -0.005945056122762347,
    0.15498348257180358,
    -0.11469831162350291,
    -0.48498507379148165,
    0.23347938864475545,
    -0.23661760508368285,
    0.12062969495556448,
    -0.48611395190632867,
    -0.1907221833380737,
    -0.1549441625104487,
    0.23386852933057842,
    0.4381794809478038,
    0.19017382053428614,
    -0.15269193484000473,
    0.2116756292901383,
    -0.08205241577801005,
    -0.28623523815781743,
    -0.1943184357784551,
    0.36369801048683714,
    0.24864503278525343,
    -0.015356274861837466,
    -0.20841114038097747,
    -0.036746907092857405,
    0.30369892537852733,
    -1.027411520113357,
    -0.08953691928947582,
    -0.06636358483904832,
    0.041383105921888395,
    -0.1403002248971157,
    -0.07776938157813576,
    0.038841826398188305,
    0.0714870207850673,
    -0.17541177125235347,
    -0.05589098537022167,
    0.09971956010888992,
    0.07219795540337755,
    -0.03729923349247802,
    -0.036322642710372756,
    -0.07283345143969464,
    0.1891548312550109,
    0.010626336184236185,
    -0.08049465251097046,
    0.30200183007709963,
    -0.2665574084100884,
    0.015467982607826709,
    -8.377007442897811e-05,
    -0.06849832483080723,
    -0.10566672734154663,
    -0.09790388511384084,
    0.17105356189647347,
    0.2358903975987147,
    0.16673928415755565,
    -0.190068308183377,
    -0.009710191641998033,
    -0.14216642060806442,
    -0.1590600559145486,
    0.03740782513622885,
    -0.1267703087758705,
    0.10130154719791606,
    0.004105262944781173,
    -0.005830927429214631,
    0.01147117632738391,
    -0.013922098983000931,
    0.020336217355240077,
    -0.004772214465881178,
    -0.0128098002588239,
    0.01161762386148122,
    0.012523508280280331,
    -0.0071361413050160015,
    -0.007087178581006562,
    0.005533870326485703,
    -0.010588843877253177,
    0.008002464323771486,
    -0.005471928746997399,
    0.005997831499058062,
    -0.0023827734627821103,
    0.007560287934791977,
    0.012197369893415978,
    0.006398224789084292,
    0.007905321335333825,
    -0.002320313986477957,
    -0.001250963182361301,
    -0.005376467737078682,
    0.011506147640352567,
    0.0002754437873166996,
    -0.00761449269339836,
    0.004944356314244461,
    0.0025761783763848757,
    0.00018690822683075178,
    -0.01461125578359965,
    -0.005036424819098807,
    -0.005840855561995567,
    -0.011359849608580195,
    0.003939073548707926,
    0.010642085877557717,
    0.004882760397846415,
    0.009069221912080972,
    -0.013274393082479454,
    0.011387178226028655,
    0.006820592079113729,
    -0.0024987840305103694,
    -0.01168512264167051,
    0.0030487320331360653,
    0.0028287146443807245,
    -0.002535226609960979,
    0.015185690026142258,
    0.0063183261008383645,
    0.005043712610760886,
    0.009531011022599734,
    -1.897880667736092e-05,
    0.005250375139248311,
    -0.005072636120037159,
    0.005740926132636412,
    0.01272292823535285,
    0.004496310136537352,
    0.010058408480704408,
    0.010987139232914741,
    -0.009093861372019136,
    0.003093509933537453,
    0.008616334688628102,
    0.0011061575662427794,
    -0.0034318796718225022,
    0.01657544815684472,
    0.015553441071503653,
    0.008901369310404542,
    0.003307495312063196,
    0.009295232071871837,
    -0.0002176000732113558,
    0.009179473945760528,
    -0.006917662793868094,
    0.00876878239670493,
    -0.02117202170485595,
    0.005873522006705926,
    0.007760788533180732,
    -9.16754079134797e-05,
    -0.014478830695650475,
    0.012962569575207248,
    -0.001738915895792233,
    0.004475852833253846,
    0.010323603043504648,
    -0.0021983212945326062,
    0.0030163216680845965,
    0.006907873334800753,
    -0.010119119820836457,
    0.008360746831410932,
    2.1885024364435834e-05,
    -0.0010140258991149379,
    -0.0046637211416866945,
    0.010318216947872261,
    0.004003060163837766,
    0.004230828398027994,
    -0.017593348030882604,
    0.0008142143249143456,
    -0.005895752519924571,
    0.005701117025567246,
    -0.0033952106109550496,
    0.01349947406883896,
    0.01118752474763212,
    0.00829224734600683,
    0.0067415721518584186,
    0.00859720868480765,
    0.00856340278243913,
    0.0062871163839124805,
    0.004220644468867207,
    0.007965951613116173,
    -0.021379966231478458,
    0.013211845686755775,
    0.0065469878482923155,
    -0.003701629241757058,
    -0.006523912143077061,
    0.0048306096158288936,
    0.0042156961575242095,
    -0.0017571457942259362,
    0.01845292602176445,
    0.0066279451651643515,
    0.0021654313734183416,
    0.011820820030032516,
    -0.0017645056236202138,
    0.005343452231057808,
    -0.008633102180767547,
    0.006089186951107209,
    0.01015575969467032,
    0.001758990351717846,
    0.004751389898009922,
    0.009329959731978093,
    -0.0032201480112877593,
    0.005052245927956676,
    0.0047071288108443835,
    0.010804136580728744,
    0.004099873833799375,
    0.018291515864586817,
    0.017421717553518856,
    0.008829423659355282,
    0.004976169492409156,
    0.009931023894745022,
    0.0030035779437743142,
    -0.001890657045902606,
    -0.002100385643453775,
    -0.005858836355403471,
    -0.003703889526314698,
    0.0021375033006200772,
    -0.005853318410000964,
    -0.005625498841596826,
    -0.005298983181974013,
    -0.003830127001733771,
    0.0013675014010837597,
    -0.0020050232755511647,
    -0.003725501968243442,
    0.0007462186611904578,
    0.002218988777802011,
    -0.003719686342893859,
    0.003089935510908851,
    0.0002709468798382604,
    -0.001741556698165394,
    -0.0028784498935065456,
    0.0012157120352468901,
    -0.005472062768220765,
    0.0020423067546763863,
    -0.0030257394182548005,
    0.000553580635937216,
    -0.004396668809324023,
    0.0004926973512468681,
    0.004017389439812003,
    0.0015743931144092894,
    -0.005990116325884461,
    0.004381019436154118,
    -0.005835069185088384,
    -0.002351885777718093,
    -0.0007300966696226439,
    0.005890308770084482,
    0.007972179615716576,
    0.00406677642998081,
    0.00974715453326542,
    -0.01662744866879157,
    0.008734693959655954,
    0.014122158276442155,
    -0.006678396144844395,
    -0.019473409299619417,
    0.015291303739784242,
    0.005970751737794124,
    -0.006352899123649208,
    0.014061176006492022,
    0.008396204379768612,
    0.009556457678892547,
    0.011751313950709733,
    0.005565254922937538,
    0.00830512558130579,
    0.004819754631128675,
    0.003264170274537656,
    0.003729754586697567,
    0.0040933686317252225,
    0.00440979947990913,
    0.0044599561502121415,
    -0.006207938059149386,
    0.012140125203343842,
    0.00038751003426109915,
    -0.004002064863794294,
    0.0014617094913252247,
    0.008663487283836814,
    0.007740655280976887,
    0.003451998835229366,
    0.006648618928042606,
    0.010316150251743704,
    0.0008712684140638373,
    -0.0031383612442988217,
    -0.0031668590822945485,
    -0.007648054356284849,
    -0.004366879973761234,
    -0.002848227978236016,
    -0.007012432558317183,
    0.0072266490294713645,
    0.011727694354634778,
    -0.0012920793069862383,
    -0.0034516015725116543,
    0.011675909030771201,
    -0.002577084667119939,
    0.0022910338677793276,
    -0.00526262285363697,
    -0.001758480017525858,
    0.0013379024450367624,
    -0.0005109986742492012,
    -0.012306359314549598,
    0.004949717294738182,
    0.0027260348721862464,
    -0.006251692355021541,
    -0.000997269251643085,
    0.013411700142269528,
    0.002893272576101392,
    -0.0020945815310310857,
    0.0008337580621146875,
    -0.00040109269022023923,
    -0.005463716834812374,
    -0.006195021673347257,
    -0.012794866140482341,
    -0.011185286590528988,
    -0.006747894563890936,
    -0.019776035449613087,
    -0.0028926863251221677,
    0.008717477166731135,
    0.0006498886551393024,
    -0.0024101167017769928,
    -0.010482032267355276,
    0.019213475296022003,
    -0.010161058665492283,
    -0.005585262867648224,
    -0.00888604566567168,
    0.01427430536663511,
    -0.008534461825310721,
    -0.00783292529207991,
    0.012446497835138097,
    0.004520729550770969,
    0.007175312557865915,
    0.0037346301496653275,
    0.0027898206612489967,
    -0.002037125193837137,
    0.013796339554313343,
    0.0009104116942177089,
    -0.0052407992260884145,
    0.003508193994818487,
    -0.0009497723808248911,
    0.0031878318591685266,
    0.0055949736222676155,
    0.0073655203364227165,
    0.010700335182604881,
    0.00134679392946938,
    0.0020894260585873907,
    0.0025643521559180656,
    0.002813342000437031,
    0.007736165112829997,
    -0.01188653141542694,
    0.0017502608554408557,
    -0.0036696791180421103,
    -7.744896466313652e-05,
    -0.0007207995220878748,
    0.012944190216802353,
    -0.005590988792006048,
    0.011190592245276658,
    -0.005768480604970719,
    0.0036333655881915826,
    -0.0021666814791179646,
    0.0038812702455769663,
    -0.00019421823063340895,
    -0.012397875978716867,
    -0.0006919943768915252,
    -0.003358556456619833,
    0.004104062952984709,
    -0.00402627738410777,
    0.013317290365162816,
    -0.007691594249639598,
    -0.007923980713071514,
    -0.0028583345759338363,
    -0.0024478869598257994,
    -0.010712695752910756,
    -0.004301647612907123,
    0.005614253868185321,
    0.007100798680963677,
    0.01092641382035803,
    0.005590659203617121,
    -0.004946174463660795,
    -0.0026131096900059384,
    0.00831067453064813,
    -0.0015740875464851276,
    -0.00299318957174057,
    -0.005679213392707692,
    0.006989114970770607,
    0.003308609922685234,
    -0.007957896578510731,
    0.007467968134464516,
    0.0020385813195712716,
    -0.000953565428968981,
    -0.004840142078169696,
    -0.001424836016998557,
    0.0037668555932224897,
    -0.0006491745522860731,
    -0.004816831723161703,
    -0.0028014297246747775,
    0.008734339015779373,
    0.0033486057262091837,
    0.004989594696355948,
    0.015867525795273597,
    -0.014092556800189848,
    0.005479089732045093,
    0.0028889863365967336,
    0.007263170614225284,
    -0.002270926448870098,
    0.01073112792315288,
    0.009914518096756662,
    -0.007350453198969532,
    -0.0024412058997237904,
    0.0035261843248564307,
    0.002156525565677163,
    0.0004641791710307814,
    0.0020492662185210373,
    0.011508105792479972,
    0.0030542112220443033,
    -0.003491538756756831,
    -0.009699325669812079,
    -0.005255053961728219,
    0.0026510661334624144,
    -0.00022352195260051268,
    -0.0023720286713403743,
    -0.0016362504772800166,
    0.005999797907408029,
    0.006208086024650399,
    -0.0019016266900070767,
    -0.0025906673672777968,
    -0.010075981781059878,
    0.002507682703228726,
    -0.007745710601230009,
    -0.006413246383832396,
    -0.001853299313858644,
    -0.010661563699293627,
    -0.008541778891133991,
    -0.011870190614541766,
    -0.00754024624145236,
    -0.006070171097562212,
    -6.898955916166475e-05,
    -0.005007731756194355,
    -0.005985249049747974,
    -0.004622032745588686,
    -0.002935837081522156,
    -0.0019608826428707377,
    -0.0047277918842723,
    0.0022866261122022184,
    0.0016761046796906914,
    0.0029276562913358667,
    -0.010577018481271246,
    -0.00012204620417474724,
    -0.006330462144389605,
    -0.0035602519482458113,
    -0.0058903565605141865,
    -0.005663498216467515,
    -0.002730740307037907,
    0.0002159789707121862,
    0.006624878997863424,
    0.012789012483568096,
    -0.005410990520726142,
    -0.016492696595064225,
    0.005965763571253158,
    0.010686981920716808,
    -0.005101756725747673,
    -0.010667511263085886,
    0.015596020637942316,
    0.012471347648616248,
    -0.00620632245155728,
    0.016287593418452744,
    0.0016008185321905823,
    0.0028935676445152976,
    0.007385413909284801,
    0.005580833841185275,
    -0.007167058668133495,
    0.01014862290934566,
    0.010434619106763606,
    0.00042266234339816616,
    0.011508474307196048,
    0.007824915635958926,
    -0.004227093631812831,
    -0.010964471692575008,
    0.007204798510196114,
    0.0032175238906298896,
    -0.005479955526385137,
    0.0002134652507449191,
    0.01140061864710987,
    0.015424031183471168,
    0.008176073636603396,
    0.005263363999413316,
    0.009430942118879343,
    0.005867043643481867,
    -0.002550063588392943,
    0.0038239109719975135,
    0.0018065686092285157,
    -0.016114178827486392,
    0.006350885661730261,
    0.009471000690874415,
    -0.005273709700544459,
    -0.0034142068742877806,
    -0.0024363535369442122,
    0.014577875361792173,
    0.0011477101312479517,
    0.011400724116659152,
    0.0022606205509678574,
    0.008825376468282823,
    0.004898394199325235,
    0.011117508326243131,
    0.004333416363513456,
    0.003939352577133168,
    0.0005385036260859519,
    -0.0035978240907242193,
    -0.006332278977126631,
    0.013184865184739769,
    0.0008154050758576792,
    -0.007437207729178653,
    0.0035891840733102694,
    0.010520035621191116,
    -0.004190048121111686,
    -0.004804940055606985,
    0.013353190873392321,
    0.012424821456199822,
    -0.00191454547679909,
    0.003945152773658926,
    0.0072908234845971715,
    -0.002448926868409541,
    -0.0005325785037488782,
    -0.0019969532594219393,
    -0.00791610909202345,
    -0.010728751840889813,
    -0.0032995409545731303,
    0.0011628244982319694,
    -0.007955702747961688,
    -0.0012744874458266355,
    -0.011128128985404885,
    -0.0004503582430184051,
    -0.006564819601043099,
    -0.0037430567656575936,
    -0.010906236572421997,
    -0.004337740566742876,
    -0.003490615226074317,
    -0.010966035180147536,
    0.0024843740834477475,
    -0.0012819404144395832,
    0.006849410644123861,
    6.159568808535006e-05,
    0.0010730183755272118,
    -0.0027325545949083846,
    -0.01040813179540292,
    -0.007660928400051822,
    0.0006545694775373912,
    -0.0054316539194506535,
    -0.005075053713469238,
    -0.0016940169416386755,
    0.002364533399415564,
    0.0006617870190517559,
    -0.005643709248870909,
    0.003643844763582497,
    -6.566253413707646e-05,
    0.003967735161703751,
    -0.001286543781314962,
    0.0008768525513476772,
    0.0009543670629241894,
    0.018974878165854237,
    -0.015064135046548221,
    -0.007117927940280228,
    0.007705114919900648,
    0.015570531058274533,
    -0.013451210842563758,
    -0.005112160682575391,
    0.008765240477147348,
    0.002281739262190551,
    0.009938582183681767,
    0.011290336764245715,
    0.00838183466220238,
    0.007613506969064001,
    -0.00611813031658249,
    0.006229601718048686,
    0.013125227856373923,
    -4.162875816127118e-05,
    -0.0007483509024751307,
    -0.0001679810962907382,
    0.00808586357661643,
    0.008198151533426318,
    -0.0012197107837587083,
    0.002217156349292473,
    0.008454297026426218,
    0.015790753185582544,
    -0.006294531467007558,
    -0.007225544414931608,
    0.0063299662244321155,
    -0.010499882330776028,
    -0.0033175271817052756,
    -0.0025135621178939234,
    0.007439410981415024,
    0.0057763957286437444,
    0.00785855075982556,
    -0.020237158682034455,
    0.012197670294391465,
    0.006543728355442764,
    0.0012348675439485394,
    -0.012219623021581364,
    0.007431620148569705,
    0.0108638016265746,
    0.0003256725372168906,
    0.01455099342296009,
    0.009266321058493818,
    0.0036995297012285323,
    0.0032778299687458443,
    0.002880671552357768,
    0.005516864889806248,
    0.0031402778816992925,
    0.005524983534346242,
    0.007607409193341669,
    0.0031020518392815537,
    0.007592895730817997,
    0.00783359101806497,
    -0.006833422543608026,
    0.010885745858508983,
    0.00031815438179885497,
    0.001644738054501986,
    0.0018448348998278165,
    0.010220464957792856,
    0.01399282636987465,
    0.0011136240173266441,
    0.002789515582933588,
    0.00812183109771559,
    0.0007179512467694586,
    -0.0020701329093986676,
    0.012123602742514,
    0.006872199877207774,
    -0.013324535964304187,
    0.0061056733519330875,
    0.008347312970172258,
    -0.005996336768225057,
    -0.01577746989513045,
    0.014490568045211354,
    0.009737112725578657,
    -0.0006308601258864005,
    0.017480420933957172,
    0.005144853994993231,
    0.008294024797811085,
    0.007732919458227348,
    0.011445983142686713,
    -0.000675069622303595,
    0.007678624628535811,
    -0.0033662862407636616,
    0.006378460678493892,
    0.0021923273873686294,
    0.0033177027076430796,
    0.014751877223339755,
    0.0014977605871788536,
    0.01073400616149433,
    0.004995302621486924,
    0.0005826446433906381,
    -0.005679170674595572,
    0.011188955178926789,
    0.01197337309915903,
    0.00505662054592793,
    0.004254682200603076,
    0.012545724801342745,
    -0.0002896067795166024,
    -0.004865861024649046,
    -0.0055955919359538435,
    0.0018320925571471186,
    -0.0036661876586768618,
    -0.0050482316277874395,
    -0.007955492300026248,
    -0.0006811227127892222,
    0.005786784869626909,
    -0.00847766325443091,
    -0.005898158431538503,
    0.0036208677563322514,
    -0.008487485153474807,
    -0.00425259071770984,
    0.002815429592588059,
    -0.009856694896344347,
    -0.008760939066046143,
    0.004654732404611436,
    -0.001281528109363219,
    -0.003935128492488719,
    0.004288295269841566,
    -0.005660396880615004,
    -0.0029873095280382456,
    0.0016650877834627383,
    -0.010197957905729877,
    0.0030880792141642606,
    0.0005460891373523752,
    -0.0017483613879816368,
    -0.008424697851033546,
    -0.007976624600367238,
    -0.003866364692885877,
    -0.0010670100311253037,
    -0.0011963755002908944,
    -0.0069601495376063185,
    0.00294743788232129,
    -0.008764588029222153,
    0.0010743175607253205,
    0.009030836994091145,
    0.011809330036466616,
    -0.007525183394871561,
    -0.004530047572937807,
    0.007308718769893853,
    0.00811230381926277,
    -0.004442135702365031,
    -0.004012365970356881,
    0.010543857001292662,
    -0.009961943677799307,
    0.0002246742395151493,
    0.006288862997913876,
    0.002384292428094796,
    0.00944111005796036,
    -0.014804389263478912,
    0.01590784306901931,
    -0.00990419948955262,
    0.005255776267713804,
    0.004830102135489624,
    -0.006532533876284549,
    -0.005826604420214052,
    -0.002061892829536863,
    -0.0007703931651109802,
    0.0025575535777310164,
    0.0006687803830250291,
    -0.005764468368438066,
    -0.0012486957812822062,
    0.0010552581606806772,
    -0.010022694928477752,
    -0.008538320044221327,
    -0.006745783853069992,
    0.005637353993733456,
    0.004621239751595417,
    0.008629698671151653,
    0.003082478084846535,
    -0.019020593940789903,
    0.008368149490588677,
    0.012707086539448862,
    -0.008955666399555478,
    -0.013972452923650657,
    0.014756491341165488,
    0.015268721668463384,
    -0.006195021372431229,
    0.021680592274096758,
    0.008167712428602118,
    0.0028377100296277063,
    0.00787527549311652,
    0.008955387759996743,
    0.0017693799306618002,
    0.0009815580150812553,
    0.0030061011299344757,
    0.005264080137685083,
    0.009791386012962245,
    0.00998994691599743,
    0.0020442033342720784,
    -0.007443635856816995,
    0.008294159303745474,
    0.0075824820275913266,
    -0.002126731616420587,
    -0.005080578512648522,
    0.013052414595174849,
    0.011874286331007079,
    -0.0001726771915736531,
    0.008349642373951834,
    0.010330239855106385,
    0.005635342716156367,
    0.008538790486738427,
    0.005570969000887187,
    -0.003162526089603885,
    -0.018242927908754033,
    0.014384533520643969,
    0.005675165945365365,
    -0.008274277026287765,
    -0.011640179593140041,
    0.015518154282202129,
    0.01445543200165092,
    -0.004716589778168725,
    0.020413811327208767,
    0.01232263421378694,
    0.0025096349014957506,
    0.012202436324999311,
    0.006482181818791889,
    0.010003787970582805,
    -0.0016109259767178427,
    0.00841954758005091,
    -0.004892195413945708,
    0.0040558830791623795,
    0.015417768863276483,
    -0.0018375336580400453,
    -0.004061649005083246,
    0.002457362775297781,
    0.004083561419049825,
    -0.00020276411195368444,
    -0.004640378392863523,
    0.013349673321693971,
    0.01610598042739621,
    0.007583469425587374,
    -0.0016125587762819062,
    0.008245822512084198,
    -0.005325414765100262,
    -0.0009632012354444593,
    0.00627937085230405,
    0.008974966937891066,
    -0.005378748500707183,
    0.0046165404308112805,
    0.0007477560695762454,
    0.002305015740603948,
    0.004183035761552547,
    0.008225833941373455,
    0.008381441032222289,
    -0.0024656970172712,
    0.004706446660358996,
    0.003331918469314637,
    0.0055522964016028065,
    0.004937287500970618,
    -0.003239917446153383,
    -0.011187426367783707,
    0.002742685756363814,
    0.009116102675271378,
    -0.0029830039164056204,
    -0.00010208444316973052,
    -0.010727122618256011,
    -0.0024745809232658215,
    -6.533148956979742e-05,
    0.006451649566337622,
    0.006280822904976501,
    -0.0006674591188325956,
    0.003134187179918598,
    0.0009282367528544681,
    -0.0006697163716675471,
    0.004760258263696276,
    -0.012630872053074473,
    0.0037613877487798057,
    0.0045365175127591115,
    -0.0018671977367412157,
    0.004886915630419835,
    -0.007047457514956521,
    -0.0032655427700075458,
    0.004267100450095331,
    -0.0023952547072660204,
    0.007199346044819039,
    0.0012388469990693384,
    0.002606322814440552,
    0.001083801785219714,
    0.006299966059012973,
    -0.0033688700964024936,
    0.0005632711347559206,
    -0.0016172879057006527,
    0.0068060533756059746,
    -0.009541207265878428,
    -0.012082549474180181,
    0.016525313987212218,
    0.002121141263421416,
    0.019527974762457566,
    -0.0038810992342554213,
    0.007039297689956005,
    0.004899065696257196,
    -0.00019938055046197104,
    0.0029146823949822475,
    -0.005258949958469095,
    0.0037841793813946792,
    -0.0028402837985194995,
    -0.004700243123449547,
    -0.010710434259840808,
    -0.00961665153807112,
    -0.0014573636084425697,
    -0.004084466359557921,
    -0.004021255406713178,
    0.0060096433721408314,
    0.0022455649261629183,
    0.008772833072276462,
    0.022934640700997922,
    -0.006040752792802052,
    0.006795479866588991,
    -0.0003281708951818223,
    0.01321756340926045,
    -0.003981719191680867,
    -0.0025550892307602065,
    0.006994582717743157,
    -0.012131704508226053,
    0.013189994094754284,
    0.00938351218152334,
    0.004618371589322264,
    0.0048895133909456654,
    0.006152108365517752,
    -0.001159059995080397,
    0.008257980768112554,
    -0.001257917682804238,
    0.001105242599840999,
    -0.010510309143612022,
    0.012495594529251535,
    0.010982399584290595,
    -0.004140193440684703,
    0.0097550276628653,
    0.003113277236707089,
    0.008097815638565938,
    0.0020699809358612985,
    -0.0054278078075023295,
    -0.003903719786948726,
    0.006100052859549277,
    -0.021653219328484775,
    -0.0069456075566189344,
    -0.005397972151643238,
    -0.005314979573621103,
    0.005151524690577316,
    0.0031411588805788874,
    -0.0013008888260050433,
    -0.0027010536055409747,
    -0.000436062782932722,
    0.0005886604948440085,
    -0.01021197529698545,
    -0.003324235258578032,
    0.009613874865640177,
    -0.00964993141338459,
    -0.005253714376997707,
    -0.005777644136257986,
    -0.003306573111816412,
    -8.729990818457113e-05,
    -0.004285913071362158,
    -0.005657239278280785,
    -0.008941871103813146,
    0.004012555237696847,
    -0.0010047334572916946,
    -0.0046308036030627605,
    -0.010731417273119923,
    -0.010394780658144217,
    0.0030802359602769155,
    0.005487674631753141,
    -0.0037580251622609437,
    -0.0024302200919345163,
    -0.004636976463527635,
    0.0005501747922123273,
    0.0017905318890187028,
    -0.00621011151543272,
    -0.0012743564316862622,
    -0.0030995710643356633,
    -0.007530155491174034,
    -0.0053979039122230895,
    0.005861761345674078,
    -0.0005757698747700851,
    -0.0013178605391686393,
    -0.005191343640218185,
    -0.006601005054408381,
    0.0009811715251705634,
    -0.005237963047159576,
    -0.0012008216851565976,
    -0.0032001987878697985,
    -0.0011953539017693154,
    -0.010512209715982265,
    -0.00850191052204854,
    -0.011103070240924209,
    -0.006912329041585594,
    -0.008893158231354373,
    -0.00902966920973526,
    -0.0022608009645300052,
    -0.003926969485396919,
    0.0004492731974547562,
    -0.0027768720634572764,
    -0.0007948986658457782,
    -0.001841245698567397,
    0.0027424824210897426,
    -0.006808959697521047,
    -0.010924442628969671,
    -0.003038542147186987,
    -0.005865297901927341,
    -0.005264450631621976,
    -0.005373845979167391,
    -0.002950032025447471,
    0.004445341945664561,
    -0.007375184793277138,
    0.0008034513255613686,
    -0.010949638957515936,
    0.0012008990191036335,
    -2.5737336443216468e-05,
    -0.0005026740653088639,
    -0.00799294865109572,
    -0.0005245294284639056,
    -0.0043671390337257825,
    -0.005472155488787649,
    0.005498547792980616,
    -0.008861210655062934,
    -0.0024246002469478873,
    -0.003135745208173407,
    -0.008402377534549239,
    -0.003664423240999051,
    0.00011452421229153071,
    0.0002211270884927649,
    -0.0009167234494513323,
    -0.000921065767557536,
    0.001225706494868136,
    0.0006377293237208877,
    0.0018543045196050458,
    -0.004209314411995744,
    -0.00579938342225754,
    -0.0044074064114191375,
    -0.005292114948344134,
    0.0076409032696975795,
    0.00671983789146493,
    -0.00388737045692637,
    0.003682129636839664,
    -0.0037109781884793096,
    0.005005662653905019,
    3.806534630019428e-05,
    -0.0031139509506508106,
    0.009454869066019061,
    0.007133635316508025,
    0.0028598952222237753,
    -0.01784811722909779,
    0.01294546894695867,
    0.0092256270123563,
    -0.008767340181694358,
    -0.01466337305114642,
    0.011042264474621392,
    0.009383381994343146,
    -0.00156000398217666,
    0.01818131176957086,
    0.0019408897985020654,
    0.0031810192400606387,
    0.009057998286802278,
    0.012052970831140819,
    -0.0009319769103146985,
    -0.008101757037136597,
    0.006079891495507101,
    0.0007756398134668948,
    0.0021428558270835713,
    0.007656787145905563,
    0.01200908832873171,
    -0.0037933434261680217,
    0.005505137664981293,
    0.001600165179475139,
    0.0013189862397120946,
    0.0002880849284022434,
    0.01291548937068405,
    0.0121920498104184,
    0.0060711271703094444,
    -0.00014070794715018086,
    0.010684034633001807,
    -0.0032032932706848923,
    -0.006565488663952661,
    0.006548557721352292,
    0.008098192275150377,
    0.016207916938031777,
    -0.005146703116557703,
    -0.010477652085587819,
    0.004081089271206552,
    0.008966020080861354,
    -0.006853959978953765,
    -0.018264486811329406,
    0.010392079156077884,
    -0.005525765589344725,
    0.01336471176196561,
    0.0100852027759534,
    -0.0007380275376058716,
    0.00420289504138839,
    -0.009893544639632103,
    0.017838710153052537,
    -0.005833740624079227,
    -0.011056577676976981,
    -0.0008703766115963719,
    -0.00992337558323408,
    0.010118128512311335,
    -0.00455130853292779,
    -0.0016592708069428474,
    0.002164065252207226,
    0.012206484478199019,
    0.006327709796475641,
    -0.006127190045808775,
    -0.010377036070873124,
    0.006493594082086131,
    -0.008674843231908869,
    -0.010598335807548006,
    -0.0032977054394798446,
    -0.0016224623014721802,
    -0.009035410005336784,
    -0.005384273359832436,
    -0.005202926532205736,
    -0.0034256081937807875,
    -0.004369432300915458,
    -0.0009098087909351198,
    -0.004881269621249252,
    -0.00044992254452768017,
    -0.005363481586856207,
    -0.006321378624696976,
    -0.005915902342123438,
    -0.006551516491972447,
    -0.006815882895173709,
    -0.0049850050460984886,
    -0.0029754305487976604,
    -0.00034777433307771663,
    -0.0015663053146558943,
    0.004495916740394419,
    0.0008154573943543544,
    -0.00520638170193649,
    -0.0035248888651342233,
    -0.005619143187276957,
    0.0006989195245408487,
    -0.007693523547518835,
    -0.0011490618214646266,
    0.0023460028376441552,
    0.0010579400402575794,
    -0.004084952087808905,
    -0.0032814409904640468,
    0.0025240928659856165,
    -0.004214175009450332,
    -0.0012070700741002268,
    -0.008792187012101634,
    -0.005009596619651965,
    0.007509580609953774,
    0.0052336052699839255,
    0.02064305008238861,
    -0.011663156887505128,
    0.0019208415897563323,
    0.010366349303848551,
    0.018991160973676674,
    -0.007965881318347941,
    -0.004635617957321957,
    0.0027887790056430636,
    -0.002020695149081519,
    -0.0002962213712716511,
    0.002724906540192432,
    0.004909484265487181,
    0.006339272388518627,
    0.0017898685204341042,
    0.00557046707779264,
    -0.0010484691149016327,
    -0.002189453327856849,
    0.003007664250200262,
    -0.012758500223406768,
    0.006672266274293727,
    0.007469174258210056,
    -0.004173791694334458,
    0.0020446918622167697,
    -0.002291516809293183,
    0.0031264226757312967,
    -0.009658340299147533,
    -0.004802415815117695,
    0.0015095931596417298,
    -0.004561319663190359,
    -0.010198621180717368,
    -0.0037195032648644944,
    -0.002254309327228509,
    0.0005964817210346476,
    -0.00041535810169741617,
    0.0016900018599172262,
    -0.0057239546423919815,
    0.0021407494227684153,
    -0.0024291082213402527,
    0.00602226698380579,
    -0.0034632535386194827,
    -0.0009553149934912281,
    -0.010188597376883109,
    -0.005131770821431246,
    -0.008493503577848324,
    0.002315104906292333,
    -0.0032677317254223843,
    -0.006617261887633403,
    0.0010451058513074789,
    0.002756277300172676,
    -0.002045117139261315,
    -0.002506650642876919,
    -0.0072904048635348,
    -0.0021919659691156147,
    -0.00618919678272251,
    0.008462170857814633,
    0.0033099379888998906,
    -0.002279615530860227,
    -0.008864527181084403,
    -0.003048460688236623,
    -0.0018567742719130793,
    -0.0018133097294787469,
    -0.01120668708631345,
    -0.004375365618899873,
    -0.0077109663351752795,
    0.0026078761027546,
    0.0024485912060002455,
    0.008347590798325366,
    0.005613160715697057,
    0.02147154198919719,
    -0.007508209172083071,
    -0.007621460543247555,
    0.0015284353514368292,
    0.01669299561379081,
    -0.00786342328072995,
    -0.008234101025906737,
    0.007546737516953659,
    -0.0020196453245744594,
    0.01052459509583222,
    0.0086900425979632,
    -0.00025340145453657515,
    0.00941526621456339,
    0.0017031133277053063,
    0.00838012608226466,
    0.0023309544585929476,
    0.00625695594340675,
    -0.002888400486655211,
    0.0037158911702013867,
    0.01365270117041464,
    0.0049256762415096165,
    -0.00010640696487424797,
    0.000719198518018071,
    0.01317073478666649,
    0.006496857956038944,
    0.0016627504313018492,
    -0.010099425345824746,
    0.010968967800732594,
    0.0015894534647594807,
    -0.010520168442928093,
    -0.004825119099854367,
    0.0004313774922373515,
    0.015725741143902496,
    0.007989876940251394,
    0.02199482904346204,
    -0.007938710786117345,
    -0.007826676488605723,
    0.012188955399811947,
    0.012356777835791206,
    -0.006747323729642085,
    -0.005608194190584943,
    0.007196894672724135,
    -0.0015479571057958326,
    0.002037675809925223,
    0.007605763362191517,
    0.00118437783006365,
    0.00901845732917969,
    -0.007968085688575755,
    -0.00020411059234625253,
    0.004646708647878017,
    0.0023228323135334665,
    -0.00176993902773698,
    0.0036177808080013665,
    0.008410332253672622,
    0.004503633660376776,
    -0.00507042946689562,
    0.0023079348257911666,
    0.011007279831483903,
    0.002901473703925748,
    -0.0031440626020299307,
    -0.011567821231385616,
    0.0020685441141132478,
    -0.0035937246602680195,
    -0.010854114219274734,
    -0.00295363625212093,
    -0.004861833517453202,
    0.0003235198790694786,
    0.0021615859175530177,
    -0.009785776624532413,
    -0.0005727338587093495,
    -0.0015668486672607016,
    0.0034969550019866803,
    -0.010830886268572825,
    -0.0006744977175998007,
    -0.004121972954878802,
    0.008788284555288595,
    -0.004193036685498529,
    -0.006184656867694547,
    0.008036596508941438,
    -0.006789107793646576,
    -0.004367674753667586,
    -0.013737134856594375,
    0.015253625978670315,
    0.0021055404756500297,
    -0.004846383438362783,
    -0.0003960953286711274,
    0.0006197081380993368,
    -0.005451914569113806,
    0.001630335978696233,
    0.0030553412394709384,
    -0.003253944552394129,
    0.001942821997027654,
    -0.002522602451293878,
    -0.0029503296495461827,
    -0.0023764553949908035,
    -0.0057716937455863605,
    -0.009719084985792473,
    0.001802626268645985,
    -0.004750357452551202,
    -0.009445476419690086,
    -0.00820655634332633,
    0.002574555969094611,
    -0.0022744070335982587,
    0.005359736982128614,
    0.00437350597406041,
    -0.0017971503856607075,
    -0.010766413356666199,
    -0.005461901827296227,
    -0.0011249681767437276,
    -0.00694659051842598,
    -0.007612426191825702,
    -0.005455722905695568,
    -3.904327119134591e-05,
    -0.002358374924655273,
    -0.005731350297367556,
    0.004498846020109033,
    -0.008804265911427621,
    0.0010431594834737045,
    -0.0010123504911614869,
    -0.001070095587559435,
    -0.007296201717833397,
    0.0021778642298831952,
    -0.005707327163532086,
    -0.0037387131565246924,
    -0.00041311641359856587,
    -0.00048724319484782293,
    -0.005035590664847047,
    0.0021465072618735656,
    0.004412232932644225,
    -0.009122943611857578,
    0.005960831704469948,
    0.005738533724540723,
    -0.011565763606157036,
    -0.011874538151293045,
    -0.0019230261295870002,
    -0.0009578590466811024,
    0.012896861715352101,
    -0.008687789852173472,
    -0.002374397804032859,
    -0.0013499011818554245,
    0.011104123501954636,
    -0.0022307782589534855,
    -0.0019254273573087466,
    0.008744866262491829,
    -0.0006132726399828098,
    -0.00014000783031167994,
    0.005531512036747592,
    0.003151146822170412,
    -0.001478956183621496,
    0.01890136359766621,
    0.0016862091016997933,
    0.007350008553939321,
    -0.0036966858242415733,
    -0.0077901041367709955,
    0.0009016565947479206,
    0.017754495303940417,
    -0.004846741392796287,
    0.004339923706446053,
    0.0037955794040631205,
    0.01840054306824729,
    0.00016916414882110634,
    -0.005406648845475921,
    -0.01338182535693537,
    -0.0020337007283563486,
    0.0033290100339464566,
    0.0037336656878037547,
    -0.002101014407885542,
    0.0086766244431391,
    0.00032534066015334055,
    0.005451826781931502,
    -0.019890523282011883,
    0.009511082453219754,
    0.007218471569186695,
    -0.0025707767435881376,
    -0.00805647328897239,
    0.0036415407218899115,
    0.011604358820996679,
    -0.0028945393851261213,
    0.011745355434460905,
    0.009974125353585332,
    0.0100169006557862,
    0.008236195532884806,
    0.0017441901258042495,
    0.004839647552079189,
    0.012763938907214868,
    -0.001790864715740108,
    0.005238858931503641,
    0.0001466823751979538,
    0.008340081565256898,
    0.0051013810918963615,
    -0.005299827710304198,
    0.010037715718749658,
    0.008014093827983208,
    0.0024569010032716556,
    -0.0012080666871010387,
    0.0071476547353363715,
    0.014903489987676464,
    0.008794084897602503,
    0.007814072864631571,
    0.010093289112324795,
    -0.00020750493639342112,
    0.010695788929053908,
    0.00022896181824767938,
    -0.0023302072927912573,
    -0.01686321890404275,
    0.0076690485531338655,
    0.013069602531327985,
    -0.01255838775462561,
    -0.015352672587675874,
    0.005280614725855682,
    0.011992914381229333,
    -0.007239376284349159,
    0.01543306705465871,
    0.013111454833675642,
    -0.006080685679140775,
    0.008307030651145325,
    -0.005513754056615765,
    0.007809089674450195,
    0.005575342999872785,
    0.0034659700886611167,
    -0.00814400311699709,
    -0.0034834172917510876,
    0.00872072563578115,
    -0.006216007070703908,
    0.0008457275361158506,
    0.010152833683308734,
    -0.0012605257809860974,
    0.0016761721041288803,
    -0.0075893360498957285,
    0.009023200832276389,
    0.01231858514743293,
    0.006243056272519793,
    0.008028196619268973,
    0.011687252538459056,
    -0.004023035102505194,
    -0.0023502889392903654,
    0.009659008726337046,
    -0.0036981087983994103,
    0.025769507396888377,
    -0.010062535681074765,
    -0.011830996856861006,
    0.009516617878259538,
    0.009522913196095401,
    -0.005230445905267975,
    -0.008827405929572476,
    0.012614278248956275,
    -0.011203153864745777,
    0.0031073102082571917,
    0.011660679757330332,
    0.012501636487070004,
    0.010257483704439322,
    0.00017727489502025254,
    0.010188649488691226,
    -0.006573124171676392,
    0.012203129942854234,
    -0.002995031201128121,
    0.006449150531624719,
    0.00045928879421721464,
    0.016963694082136653,
    -0.00902632371169586,
    -0.0028465959464501834,
    0.011953910897745782,
    0.0053108787776152975,
    -0.00028824890717113043,
    -0.006656461110109399,
    0.0021139421076398785,
    -0.00620574359294816,
    -0.010924661027828322,
    0.00260297462843861,
    -0.009862622294857402,
    0.00776243596678904,
    0.011904360787420807,
    0.014560204646561384,
    -0.010902591040668578,
    -0.006947235337708466,
    0.005354558961172836,
    0.004570860121111454,
    -0.006058611113270845,
    -0.008141282383051604,
    0.015404525032294402,
    -0.0060359684778525,
    -0.0009400118815666458,
    0.006410702557437812,
    -0.0009322640781765692,
    0.0026995293432255808,
    -0.0013167572615638869,
    0.006990080957861228,
    0.012959247751413614,
    -0.003320053922481139,
    0.0008640169384095154,
    -0.00046919508054697946,
    0.004948577021882026,
    -0.004465383440063121,
    0.006332809756917953,
    -0.0033859578011833525,
    0.0009811820559110058,
    0.014543062634319117,
    -0.00044626309757690925,
    -0.0054677755471533454,
    -0.013968549867039153,
    -0.0037463868753069016,
    -0.003856153971274363,
    0.0019582835969895757,
    0.008497944624673869,
    -0.006655070377624712,
    -0.008307553575561196,
    -0.00832038011837233,
    0.011379803324999415,
    -0.013461554755899476,
    -0.004535070423543782,
    -0.010482296125465298,
    0.017956162778872044,
    -0.006538216196997345,
    0.0009744675096469884,
    0.013984143792310434,
    0.008459556204210373,
    -4.319431015709462e-05,
    0.005051521328645067,
    -0.001851702345799183,
    -0.0158983437131555,
    0.0032903841386673753,
    0.006214054457770427,
    0.004059992227100614,
    0.0075438889586869435,
    0.0063260834657272655,
    0.00391295502398251,
    0.003288774053798955,
    0.005668852646230176,
    0.005092794623377515,
    0.008209666227329571,
    0.008911684665818114,
    -0.003164417394995404,
    0.007454222734448128,
    0.008721871165552708,
    0.012551366693745795,
    0.00817688385898307,
    -0.005755005638783596,
    -0.0011037702896753733,
    -0.005396976044980857,
    0.0029518473870697244,
    -0.00388157380030625,
    -0.011723330403209638,
    0.006974555904136946,
    -0.009844125132036087,
    -0.005765766907897198,
    -0.005792419715775037,
    0.00977609132067034,
    -0.007788920359583185,
    0.0014210945510258921,
    -0.001525276184140025,
    -0.007363031140065655,
    0.0010775635354159931,
    0.006480749598586784,
    0.0008580415277403884,
    0.006461725566022394,
    -0.004818702724926761,
    0.005815903001060554,
    0.0027935919516820997,
    -0.011102449890303989,
    -0.00912313383664975,
    0.009696208382406996,
    0.008260093335968699,
    0.0028950633023682223,
    -0.004662759242383854,
    -0.007590348767742214,
    -0.0008346235929759728,
    0.0005505619754233139,
    -0.01405047631634558,
    0.0010987353834302366,
    -0.0014706102107912647,
    0.0007211555631615618,
    0.007261328348882139,
    0.0019601013486133753,
    0.011277441367708226,
    -0.018099750156851977,
    0.013767475627953418,
    0.0058173592066315455,
    -0.0020982305186995186,
    -0.008280092783592553,
    0.014413931769394038,
    0.005273087281681816,
    -0.0031516838806158773,
    0.017500616294550967,
    0.00010300055807137834,
    0.0060136223460152995,
    0.012336846531347298,
    -0.0007332401335732281,
    0.001765515189220034,
    0.0002739973450618329,
    0.004853217652681826,
    0.008238788277249998,
    0.004584180896213262,
    0.007624889292537162,
    -0.0025931002769116872,
    -0.007113729951630209,
    0.006192317732277566,
    0.0017773374671707014,
    0.006015508352795129,
    -0.00629589708518631,
    0.008973409634704579,
    0.016996550872891918,
    0.009116731622788197,
    0.0003331884130811425,
    0.01197436989488238,
    -0.007865013978862497,
    0.0012425647549892493,
    -0.007649281075423404,
    -0.008720113203275119,
    -0.007529377259710155,
    -0.009735397791112951,
    0.0018175486631481518,
    0.005778456862000237,
    -0.006343676172236561,
    -0.00447337435851992,
    0.003041957700054101,
    0.004434778325606438,
    -0.006905264645719386,
    -0.008415407800268443,
    -0.0028178240793535142,
    0.001272260727265689,
    -0.0047180614380201965,
    -0.009635142646482289,
    -0.006935915683037652,
    0.0035521456011712613,
    0.008567004781466958,
    -0.0009431491253942356,
    0.007238986575298952,
    -0.011322482977279641,
    -0.007066992576026432,
    -0.009398594429905578,
    -0.007615062891027783,
    -0.006970964955731653,
    -0.002136955652774518,
    0.0006351731102711468,
    -0.008153700971831133,
    0.0010996571766074712,
    0.0024922689443240055,
    -0.008334117866765363,
    0.00022246497307474314,
    0.0031043008969274485,
    -0.005778624720403096,
    0.0015800676487030916,
    0.023287963000005355,
    -0.0057752834743007506,
    -0.01435929310205966,
    -0.01810412262124307,
    0.01440663692235274,
    -0.005384572652031101,
    -0.01087383931502162,
    -0.009787867553601153,
    -0.0008941374099883947,
    0.007273705902609366,
    -0.001120963233872302,
    -0.0045447594171429025,
    0.00592864911800538,
    -0.0057103918472781534,
    -0.00531227360492398,
    -0.0052210297867371505,
    0.010774476547016416,
    0.004135862008620718,
    -0.00621460964251019,
    0.00022443305799395012,
    -0.0008899987634061519,
    -0.005366578841907568,
    0.0017653870526520975,
    0.01450698756606083,
    0.016290266873893424,
    0.006458396066420709,
    -3.160960984094711e-05,
    -0.002925127266329099,
    0.0019722712266929884,
    -0.010786251357070223,
    0.0007743887679330314,
    -0.004202288462695097,
    0.0029744964665753006,
    0.003158345643711958,
    -0.0027001701447933357,
    -0.008173861980521694,
    -0.009441873836554477,
    0.006637539582984532,
    -0.0026900423319483184,
    -0.009077382066421039,
    -0.0009140079842711166,
    0.009038389240896508,
    -0.008242557021972546,
    -0.005821797207668638,
    -0.007387574366010761,
    -0.011478605298789265,
    -0.008267599013408717,
    -0.006815923332885212,
    0.00047174111298268904,
    0.004976908805439887,
    -0.007327991481547585,
    -0.0018994260886946266,
    -0.007167450908283289,
    0.003677778639492898,
    0.0013952316525234429,
    0.003896113054222237,
    -0.0018755812268798412,
    -0.0035479123179603033,
    -0.0009030923479321188,
    -0.005118343594223153,
    -0.008086606487249574,
    -0.004535770887139856,
    -0.0057324119935044425,
    -0.005870152288216004,
    -0.002253716430063291,
    -0.0016021601348453647,
    -0.002700541100232353,
    -0.004938933357782144,
    0.0012152255488867044,
    -0.009166543829093925,
    0.005199515499818292,
    -0.00305845343940181,
    -0.008904261838555283,
    -0.0008420751705661383,
    0.009477904048546834,
    0.002203972832502547,
    -0.001151653974201597,
    0.0034533379603751135,
    -0.00819678491588959,
    -0.0057183321740171085,
    -0.008388511238286123,
    0.011024087587595618,
    0.005667960299595829,
    0.00017057470658289538,
    -0.005004919485836238,
    0.004291162039885477,
    -0.008818199853852555,
    0.00047373168615027383,
    0.0038454222975741036,
    -0.005692261035761513,
    0.004959815464611672,
    0.005645107473050759,
    0.0036114792444028147,
    0.0037257262005568957,
    0.01945359479715881,
    -0.014141275453606203,
    0.010524284753593476,
    0.007958565971536099
  ],
  "w2" : [
    -0.42757186981450485,
    -0.03544125532984339,
    0.5977646492110037,
    -0.6036755491012036,
    0.5013691322070948,
    -0.4135708388648881,
    -0.3011340276442066,
    0.5792907589640123,
    -0.352430581724664,
    0.28349005530782034,
    0.2497397566808861,
    -0.07029804807279512,
    -0.0015763658399576964,
    0.8368413026784133,
    0.4615664569256096,
    0.6094834508338264,
    -0.06191802982034549,
    0.14146293441352947,
    0.577071057426249,
    -0.4014171745942524,
    -0.41088025311015297,
    -0.200764571663772,
    -0.4669560129967834,
    -0.11038097047873614,
    0.524124637688491,
    0.30113537270935237,
    -0.7546425564821386,
    -0.08387499347280525,
    -0.3778659919468721,
    -0.45500328300361403,
    0.04627048024575689,
    -0.4568413387477393,
    0.13997306293193015,
    -0.5867845942404984,
    0.7603630557645931,
    -0.007028220430099606,
    0.09768648499184775,
    -0.545730120329657,
    -0.7286015333742529,
    0.2828595498098561,
    0.3095298059658367,
    0.409332250898483,
    -0.47473359722943287,
    -0.5869101446535555,
    0.27758994444576074,
    0.29449910882127806,
    0.6736858248998855,
    -0.054302666382093384,
    0.02027031245487244,
    -0.018682855023599666,
    -0.018607432119521407,
    -0.02168365289520705,
    0.005905303162449107,
    -0.015038562872963223,
    0.0012759627942045607,
    -0.012227144151734594,
    -0.009550313997448689,
    0.0008399022504849251,
    -0.002176359985659153,
    -0.01504807868822587,
    -0.015399845751916198,
    -0.00048806444619389376,
    0.01771665765306852,
    -0.013959499577198149,
    -0.01278111941588616,
    -0.00040324701283691726,
    0.005419327414160058,
    -0.017078129971884033,
    -0.015648280756758975,
    -0.003358316262661624,
    0.012128375439755212,
    0.014355949328095582,
    -0.004454726462374032,
    -0.0020352276140883164,
    0.00038614061699502304,
    -0.0159014453291173,
    0.008464666452547584,
    0.0017682324720353611,
    0.008487148825688651,
    -0.0017222746130453688,
    0.013179689047041023,
    0.015702447662221588,
    0.0010830723313400073,
    0.0009128789399337092,
    0.007783399415199756,
    -0.009280979982787816,
    -0.015145011309878253,
    0.016755883018839794,
    0.005554870010295101,
    -0.018739659322458305,
    -0.003358198094816093,
    -0.01369284231805676,
    0.0028769279507296825,
    0.013246954832147367,
    0.0008613851654982768,
    -0.004412400052361019
  ]
}