{
  "b1" : [
    0.031060930488913955,
    -0.1616117795715355,
    0.09692187012342204,
    0.02453581033652346,
    -0.043089840475123674,
    0.1938084187652683,
    0.2544294189593255,
    -0.18717121592406666,
    -0.05851170568956181,
    0.1235151683674223,
    -0.06243252815928049,
    0.04711735920891255,
    0.09543711708664761,
    0.10222066984961663,
    0.10243850684769354,
    0.2537241773540156,
    -0.13576119334357548,
    -0.01298054765391061,
    0.1546012278249234,
    0.13620829933331235,
    0.2565501366074283,
    0.1343550819769042,
    0.08037511594578517,
    0.1828568372588026,
    0.10870898964272521,
    0.2198628874575235,
    -0.06324653374939468,
    0.05485319274323686,
    0.020038862073730606,
    0.13908681760301037,
    0.1330009698732545,
    0.06369009299880206,
    -0.0076308229751750134,
    0.1772943186256227,
    0.15893704465767897,
    -0.038126322633672716,
    0.056965343494416586,
    0.1579070280868147,
    -0.07176773510601399,
    -0.16994694272057337,
    0.12111815046682335,
    0.06394624306708041,
    0.2546807941688404,
    0.024510798382253753,
    0.13705397574681585,
    0.2420486739123783,
    0.117006125631778,
    -0.12396444335799692,
    0.006175288400937644,
    0.005607896535892764,
    0.008187563922568999,
    0.006549762131774764,
    -0.0038209119550333273,
    0.011580422651992132,
    -0.009755524719439215,
    -0.0010255924282753905,
    -0.005693799536590824,
    -0.00534589104510142,
    -0.011418210765768304,
    0.00544852444481337,
    0.011874820154740496,
    -0.0075957349802144485,
    0.007891735706001012,
    0.008116486867812349,
    0.0076075523478424225,
    -0.007768388241845468,
    -0.0029344853203142132,
    0.003871175858245708,
    0.008250865637016108,
    0.0070963150216138094,
    0.0015885955000747862,
    0.004580605198307274,
    -0.008536802329756331,
    -0.008511487294447825,
    -0.010945765975327879,
    0.011482177383041425,
    0.005309803930600092,
    -0.007517260325320165,
    0.0028998565349993865,
    -0.012715100724854574,
    0.0073535653923207656,
    0.008480111164678375,
    -0.0008200202615851512,
    -0.010172438303753056,
    -0.002367833527927205,
    0.007759257729297255,
    0.007932967643015435,
    0.001862348401420155,
    0.004502511386383453,
    0.0002310974878065072,
    -0.0049341138949760156,
    0.009279508157210816,
    -0.005606276943723661,
    -0.00366868137703339,
    -0.012272347931406195,
    0.003179953029153557
  ],
  "b2" : 0.02162642016190284,
  "feature_version" : 1,
  "hidden_size" : 96,
  "input_size" : 34,
  "version" : 1,
  "w1" : [
    0.259201958917576,
    0.1266780264833705,
    0.23079040463990622,
    -0.4559864714532143,
    0.23614129005159107,
    -0.1354654762787356,
    -2.593147112004117e-05,
    -0.23401831954336946,
    0.30329090449460955,
    -0.08898424688147336,
    0.42971852797059795,
    -0.12631799284603953,
    0.6795273517767502,
    -0.20597049423785713,
    -0.34529976581086497,
    0.003164817501715969,
    -0.24676726086224102,
    0.0412377584290233,
    -0.06237576557928974,
    -0.030947215423218166,
    -0.0034684554893726132,
    0.01945152277833554,
    0.048365357662746945,
    -0.3242754683678933,
    0.12016042318654507,
    0.38619479008650065,
    0.0282144064761971,
    0.09348067167935396,
    0.20485182918949488,
    -0.10798674387356216,
    -0.4558644554776182,
    0.15069188005289616,
    -0.014511582911653914,
    1.1622905126849763,
    0.06470306944662874,
    -0.17122293936612598,
    -0.01929832471305283,
    -0.09109366757267098,
    0.04706611773539933,
    -0.07678732082377908,
    -0.3012103768336181,
    0.14258694167252245,
    0.036154655370226545,
    -0.17475228500935983,
    -0.17081162186708146,
    -0.1331429302290711,
    0.014916305766108355,
    -0.08802446936087831,
    -0.24195052748801982,
    0.05757562827533334,
    -0.2656525068661885,
    0.18671144540914825,
    0.17797086973859474,
    -0.23025479402883262,
    -0.16744149005052564,
    0.19625051205626895,
    -0.22791190485481577,
    -0.013141915168751617,
    0.03536083047145274,
    0.12749132341953937,
    -0.08806560434587148,
    -0.06913318521484844,
    -0.025548522662256642,
    -0.0026675196379969505,
    0.11182256762115153,
    0.011300102189881412,
    -0.03317533082894505,
    -0.0651246654365366,
    -0.07143601279090951,
    0.197932863342949,
    0.008539346279304468,
    -0.03615964318875457,
    -0.30919436999620187,
    0.15318026861861925,
    0.13067062187796905,
    0.08086651857231662,
    -0.25478171457404536,
    0.27853757884368585,
    -0.20661357023442906,
    0.17193956414774764,
    -0.5809689708890228,
    0.27403875329570476,
    0.00847860415502844,
    0.2596274919963224,
    0.21048355264042784,
    0.30359512719504533,
    0.22044631739142118,
    0.1975149034990466,
    -0.12038823682770367,
    -0.175417119503444,
    0.11076870807806145,
    0.09905267449162884,
    -0.14620692331525015,
    -0.26446178346158217,
    0.07854295078369965,
    0.3937572965824513,
    0.3515336141705815,
    0.38611014632462776,
    0.02139060102281274,
    -0.015704469527057757,
    0.3035607414948857,
    -1.2847387230267637,
    -0.2627156424721195,
    0.28628853172679847,
    0.2566489874578133,
    -0.42351393583823005,
    0.01242055378536685,
    -0.09508344158243495,
    0.2425006827446096,
    -0.253510470120194,
    0.23138904788443837,
    0.0020658819069525095,
    0.25024268429190594,
    -0.07228922256603279,
    0.34888174935441046,
    -0.02824067879585237,
    0.026790000665969115,
    -0.18619368789723473,
    -0.18109068432433933,
    0.271147464286697,
    -0.05784152352034413,
    0.031036022032869412,
    0.07965669661505456,
    -0.008512660474374684,
    0.16227606133753622,
    -0.16916267488342906,
    0.10948759870849348,
    0.6489083353576947,
    0.21068916371601568,
    0.2719874766990377,
    0.21790278697633858,
    -0.5668230553168849,
    -0.28425817160658085,
    0.22498726378320966,
    -0.13693496683619635,
    0.8398539897606492,
    0.164944109804403,
    0.049082715027167025,
    -0.3693386999539523,
    0.2429051689814142,
    0.0430798841766216,
    -0.08175876066477007,
    0.3299302192110126,
    -0.15334704167049762,
    0.10535865912593803,
    -0.4033201281323944,
    -0.06995779494919514,
    -0.17172046577141722,
    -0.38403295114104435,
    0.10143774508000654,
    -0.23588395684412308,
    0.02421361174155319,
    -0.113694462035335,
    -0.18651126390148506,
    -0.14595463188701446,
    0.12146477619429541,
    -0.22158479485861662,
    0.11355310249683628,
    0.008026316463867816,
    0.0524893940443622,
    -0.15083342718405787,
    -0.04413334673541514,
    0.28972166080097733,
    0.31794402219908735,
    0.46402593870345266,
    0.23240420517850982,
    0.13674862520771147,
    -0.0356104418339822,
    0.3037086632610984,
    -0.9131963049479985,
    0.22512790984837522,
    -0.052667241788867496,
    0.11330548748096421,
    0.07336928090942707,
    0.15940399094543392,
    -0.04034956008019843,
    -0.03533365819306144,
    -0.006839294789594973,
    0.2649652506901801,
    -0.23396211146527482,
    0.2634164283327235,
    -0.3064154569745737,
    0.662377034930999,
    0.0615502018082673,
    0.16138847343725551,
    0.16182825479973328,
    0.08194311082119955,
    0.11707021272254126,
    0.14402229442500292,
    -0.032404206337520995,
    -0.25026538485401023,
    -0.13677684722052638,
    0.27799165239204604,
    -0.16512617706867644,
    0.14436447845846154,
    0.13211489320220748,
    -0.13787571161069992,
    -0.1914940416693672,
    -0.032236364295916115,
    -0.17819491627724138,
    -0.17834755192827964,
    0.02041439594214131,
    -0.0784410831509117,
    0.7597937171944161,
    0.05168868302935457,
    0.12755767633754872,
    0.1027571988925965,
    0.049736705018030805,
    0.2419187150929601,
    -0.11278496593421974,
    -0.0810635446320845,
    -0.006241797012563352,
    0.28674487186762876,
    -0.04387551178970703,
    0.057841585064465253,
    -0.18481012480539613,
    0.6022954576251659,
    0.11724042898346645,
    -0.037246814408952784,
    0.11971649671670301,
    -0.11548711828118705,
    -0.10770165511773432,
    0.22714844292247366,
    0.08695782280741035,
    0.21930758964533478,
    -0.12079365083383006,
    -0.09146174411136727,
    0.10625604490080943,
    0.17178908490003636,
    0.09522065451195766,
    -0.09221609580563175,
    -0.3050494657456146,
    -0.2601175541139824,
    0.08493286863384553,
    -0.11805860381704389,
    -0.04890063278314333,
    0.15460333587249622,
    0.8251736060002806,
    -0.151218623069515,
    -0.14425811822054316,
    -0.3718624403969153,
    0.39684948722354574,
    0.0292594413237731,
    -0.16614240137424258,
    0.08230480664274077,
    0.08693726512428246,
    0.016748613992926726,
    -0.0633093441715494,
    -0.14688023046955936,
    0.18680238431033125,
    -0.08278237861482726,
    -0.23788554171826923,
    0.16982197470956287,
    -0.236579169776923,
    -0.019855825825317672,
    0.17079946726148004,
    -0.16928801438129032,
    -0.04433015896095158,
    0.08846123197480231,
    -0.04479076472687652,
    -0.27457946975592695,
    0.01309874457982665,
    0.22886969004107183,
    0.07571452998366728,
    0.5920866696734067,
    0.34911083460645104,
    0.392672471614748,
    0.1733564570585885,
    0.4598706064687206,
    -0.08537114089666664,
    0.029482026361589173,
    -0.3502291030028069,
    0.16974199098056647,
    0.05562696026838016,
    -0.12076040091394175,
    -0.18057286654257187,
    0.23959813912660105,
    0.10841646921002468,
    -0.06562915476524502,
    -0.16330305116453686,
    0.12650577378408817,
    0.07006741852122945,
    0.09620582835601803,
    -0.11132449331962099,
    0.4632832100478174,
    0.06586938077625466,
    -0.24254671476927345,
    -0.11139675954353766,
    -0.35412499086592497,
    0.04577586607346385,
    0.1453577516253774,
    0.16859151665441538,
    -0.18805197062676962,
    -0.44023426519928943,
    0.24440469423992128,
    -0.26180269752786994,
    0.15129455824400664,
    0.5632660859729621,
    0.18361612112483805,
    0.19714144491316804,
    0.08783636301875276,
    -0.10933328771681551,
    -0.06572889948349461,
    0.07632783133543436,
    0.19785566001643456,
    1.021577711683557,
    -0.05727930609633282,
    0.22212296087934963,
    0.11397210708132167,
    0.07876234489227538,
    -0.1605858782725981,
    0.034916976428053234,
    0.14509717373916747,
    -0.08031665322919962,
    -0.19426598094162983,
    0.19582496124700963,
    -0.180741317064051,
    0.17780313724888547,
    -0.30481097943162566,
    0.06970309400672602,
    -0.005098492143335424,
    0.23775461294279937,
    0.01793466294161306,
    0.3175044544589829,
    -0.07725150165293268,
    0.07210582739200792,
    0.08782510789446045,
    0.01861866331605365,
    -0.20511896544470037,
    0.053236703596422186,
    -0.03534215948884115,
    -0.12469458771949266,
    0.09199604056984405,
    0.170062171491546,
    0.2596993069084191,
    0.10705989256460326,
    0.2959169016770027,
    -0.16249625131674839,
    0.11619183478881688,
    -1.1413457724771119,
    -0.025562773564158255,
    0.15516054622165035,
    -0.09262528844256786,
    -0.1556986222528664,
    0.07109701470560634,
    -0.2833160090159558,
    0.05264232063110926,
    -0.06295742847237279,
    0.13445819393066555,
    -0.47167944364331843,
    0.10471771395725668,
    -0.14790943306513496,
    -0.19193355375183116,
    0.00859512272616131,
    -0.11095486669727095,
    -0.18845729865534178,
    -0.10178909062367962,
    0.0032794241254215607,
    -0.46798342103534607,
    -0.09149038271593425,
    -0.20595104458962976,
    -0.07633501700591201,
    -0.06520175919813952,
    -0.23851109409754245,
    0.23377999636096647,
    -0.16381339104285328,
    -0.14230305399275978,
    0.2511111903574801,
    0.02980724050366554,
    0.011988299335431569,
    0.2962253527798916,
    -0.028608517209645027,
    0.4008974387807647,
    -1.113159094457753,
    0.09798678688451076,
    0.014776963097598827,
    0.22931073041040195,
    0.14837542863064485,
    0.15034809001698127,
    0.28995888292397554,
    -0.12082163233982314,
    0.1360250402583727,
    0.18422147781214843,
    0.1762321928568979,
    0.015327191930685198,
    -0.1654410412900481,
    0.4174844252318745,
    0.20227816583790895,
    0.2878156056899271,
    0.18227459890089195,
    0.05099425703335603,
    -0.05581785209124668,
    -0.09199430652772832,
    -0.06951027322554285,
    0.13196441627160738,
    -0.24403708261079135,
    0.22780136790778802,
    0.09619126519732624,
    0.09046682213889118,
    0.11154150172373821,
    -0.0794303783329523,
    -0.08081609169178762,
    -0.2662941501916913,
    0.20982054560899988,
    -0.08591607119097214,
    -0.1543932601956689,
    0.15484594271145408,
    0.5834143355773901,
    0.02523575904159679,
    -0.22315248247762204,
    0.1690666948276092,
    0.03741443625638517,
    -0.13250551740366043,
    -0.16474807206229142,
    -0.15232568356541934,
    -0.06596317668936907,
    -0.06688993657099278,
    -0.1339113243580328,
    0.09730787299051796,
    -0.014819643902009755,
    -0.1569088182201658,
    -0.12685244872374568,
    -0.2036257171234867,
    -0.16046912734317256,
    -0.09002694178831852,
    -0.11675105213464824,
    0.22536813953091575,
    0.10766793693386927,
    -0.085461080457204,
    0.14642469546547776,
    0.1301952127880403,
    0.1133729067714354,
    -0.16926009189291139,
    -0.030397462533475222,
    -0.1693815733809549,
    0.03980585156694743,
    -0.15291508974289633,
    -0.10668620526536941,
    -0.13066267745604085,
    0.0030673623215651097,
    0.0250089937066227,
    0.011367622898180565,
    -0.08212826934750449,
    0.20005571471034503,
    -0.16568063505570454,
    0.2964356090418858,
    -0.10168879559625518,
    -0.2428248213245981,
    0.13440903035155918,
    -0.11899472793704417,
    0.011208217102714628,
    0.0626541677715914,
    0.1325984313448445,
    0.22521831601539516,
    -0.7615303742937948,
    0.33941583426129285,
    0.19547994624958293,
    0.040997711498798335,
    -0.18103280157635449,
    -0.23224048083261506,
    -0.15624257700689834,
    0.41278999134671257,
    0.3137951195437981,
    -0.0723237844606031,
    -0.0028597092993626317,
    -0.02551499889754386,
    0.048743011264192115,
    0.014206663007429869,
    0.5413684676043006,
    0.6849754393104833,
    0.5203245331476972,
    0.04288692337212725,
    0.07923704137613842,
    -0.026477892828942397,
    0.4561793258690854,
    -1.1591202168508008,
    -0.5208277830628529,
    0.0033162697114006217,
    0.3323593653842868,
    -0.6522778459640247,
    -0.29270776153973377,
    -0.029803122541414012,
    0.06237983441695489,
    0.17652720914963305,
    -0.07872672092993557,
    0.20762203407420718,
    -0.09931918735543302,
    0.028497489785677312,
    -0.41851840580692146,
    0.21725323823104994,
    0.0654672086234277,
    0.11371104186673339,
    -0.3812618989808958,
    0.0706886774425002,
    -0.08965578586402875,
    -0.2649846360032102,
    -0.06778567730167595,
    0.20675393048232246,
    -0.1643277479464424,
    0.21719739981115996,
    -0.13235358364278874,
    -0.321544340007602,
    0.07139615027871224,
    0.23394423453019772,
    -0.018910417548497288,
    0.1231114491881707,
    0.26661035595996785,
    -0.08691683147831672,
    0.14569315630145008,
    -1.1571299525214445,
    0.04448756862369498,
    0.22532222375893235,
    -0.10631717883356911,
    0.2582221286175668,
    -0.0534221390171679,
    -0.02671742276026479,
    0.1371098533580542,
    0.07245569241483758,
    -0.06178362174194051,
    0.30767251637290327,
    -0.10552743697617771,
    0.2570643462199229,
    -0.6099598186441161,
    0.23365898764454646,
    -0.11157962578910029,
    0.16671212558938828,
    -0.07370960814765708,
    0.3860422405922588,
    -0.18405881425050077,
    0.10204297782987604,
    0.16704492121027395,
    -0.13717310397999546,
    0.13180806570373776,
    0.1870097406186033,
    -0.09513946131339979,
    -0.27678864943957465,
    0.3666408061834607,
    0.4322544845386001,
    0.19548811258458262,
    0.1064347821496638,
    0.17026485883350728,
    -0.0407089303871833,
    0.057770233294036424,
    -1.2749256183737518,
    -0.033600146613813574,
    0.07923135059802673,
    -0.16423198499273461,
    -0.03167059608699481,
    -0.17596031851589106,
    0.07123205365049988,
    -0.08937395097644574,
    -0.2297473781049596,
    -0.001888771267307633,
    0.04753697231398759,
    -0.00022677509928611811,
    -0.12897207646302614,
    -0.11190656709526117,
    -0.10663838925607476,
    -0.014586188807579094,
    -0.13304196031416504,
    0.06148108089417965,
    -0.043010021398242934,
    0.14026864986127305,
    0.02747933217177407,
    0.02128510919529619,
    -0.04806940572081103,
    0.0011830025482989094,
    -0.0708278903882329,
    0.04583280767906864,
    -0.012608079236513609,
    -0.15128070116029568,
    0.006009799461430451,
    -0.13189366167814706,
    -0.21563490362520885,
    0.07911337091052927,
    0.13775489698826462,
    -0.1776730837368526,
    0.20275867227326977,
    0.3394112311899937,
    0.10630086780411216,
    0.14607325880452227,
    -0.20103824858927755,
    -0.09815844322754702,
    0.20953241641296388,
    0.026740299149417078,
    0.2830064604341244,
    -0.012441914948612874,
    0.24114158642649547,
    -0.20287883583500885,
    0.17577326131588977,
    -0.06525838321642659,
    0.05548912344448192,
    0.17454900109894386,
    0.02796179914899238,
    -0.06334477161210696,
    0.21642937756355235,
    0.09273211820181546,
    0.16902143039564424,
    0.16896382264407447,
    0.40610525977192374,
    -0.05711767031885183,
    0.35322347328962583,
    -0.09806229523873514,
    -0.0045012188724123684,
    0.006433747094810969,
    0.22115818327666134,
    0.4271914559694375,
    0.26782530720615155,
    0.13667297105378362,
    0.010459906915756224,
    0.20486659690387385,
    -0.6225223237192042,
    -0.0606805551548953,
    0.06825783458930212,
    0.0450811672904074,
    0.2830525501798183,
    -0.29211519801695424,
    0.06448376037445248,
    0.10325009273349307,
    0.26122667463862936,
    -0.04568442538641746,
    0.3239301745845191,
    -0.034205149911908865,
    0.06684795606898927,
    -0.5488973133718896,
    0.2998970358424279,
    0.18675317789472334,
    0.26497768342981115,
    0.16884376026117653,
    0.022481873799523416,
    0.009998931330870382,
    0.2594813540429541,
    -0.1625266487395197,
    -0.05802315684949757,
    0.016394538769056263,
    0.1161762802077692,
    -0.10830173403749348,
    -0.3029559415207783,
    0.18950999838736074,
    0.4314201926107036,
    0.2991607292374307,
    0.3754907104601863,
    -0.03846899879776699,
    -0.20168626275099444,
    0.1779331619619765,
    -0.8979639252026949,
    -0.023186010111200608,
    0.12316306345591133,
    -0.1455709142468441,
    0.35051574236407573,
    0.40627562807327866,
    0.0958399148636613,
    -0.29094707051052837,
    -0.04574728897816309,
    0.3691222172876573,
    0.051051877627797414,
    0.08040908531476852,
    -0.24656692690169654,
    0.4135140683110299,
    0.07158959107847039,
    0.11569984006153185,
    0.25095960661391964,
    0.32137137390230275,
    -0.20239877536761355,
    0.3231682417975335,
    0.05422603978367243,
    -0.03563239969732472,
    -0.016902430611686867,
    -0.10054445241622717,
    0.16123516298217536,
    0.2250932347989025,
    -0.09137476315025428,
    -0.28687335229314115,
    -0.28086592895698065,
    -0.39622019675197157,
    0.0599619591903011,
    0.14572471694551517,
    0.013096990014019885,
    0.0660345631793224,
    0.5198235162611734,
    0.4235192360047004,
    0.06599151937970038,
    -0.07310144313191212,
    0.0605852810818957,
    0.11792067661271873,
    -0.07915016494505167,
    -0.06809461397943126,
    -0.17015158230751753,
    0.13249873920358776,
    -0.10146898524456092,
    0.13510245901664655,
    -0.13549973468872556,
    0.7682527780548611,
    0.14885762975360278,
    0.0032131920085329735,
    0.19136583628539466,
    0.07066320314780244,
    0.09907450633466477,
    0.00393459210274002,
    0.08534895668282208,
    -0.019658475289444203,
    0.04503766118224259,
    0.05895229416930577,
    0.01282026683728927,
    0.0822763341530997,
    0.38211260094907096,
    -0.12252341839865574,
    -0.1642295409262551,
    -0.06118598380823916,
    -0.04526353908698763,
    -0.26067396718852137,
    0.13566885257282552,
    0.09029945137432457,
    1.0332010385573387,
    -0.18114463815536289,
    0.08591295798252194,
    0.13286656023218824,
    -0.07905992057276778,
    0.087556718323217,
    0.038425645417382075,
    0.016659212583694745,
    -0.14299511159228437,
    0.0907115140335388,
    -0.2594337915641444,
    0.3013118933453681,
    -0.14516252147859193,
    0.5070725523445003,
    0.09168261534957971,
    -0.0007068206524978376,
    0.12808321496627753,
    0.254515552848594,
    0.06379628745898107,
    0.03467648101925331,
    0.07774587967837014,
    -0.054486917049284225,
    0.08572670429128404,
    0.037136706375343026,
    -0.01415387168610504,
    0.014884846067444021,
    0.11009890796997195,
    0.013580230105381643,
    -0.2738028008620541,
    -0.16823499149526427,
    0.03785173773224976,
    -0.07565607351680448,
    -0.017656454106840334,
    0.2800093193454908,
    0.6625929432630314,
    -0.375671405993539,
    0.3244151784709538,
    0.010054445488623847,
    0.3007279901817253,
    0.32558685212744043,
    -0.18206040183770467,
    0.030584135207973307,
    -0.1585128995085487,
    0.06432061438933574,
    0.07177467867040326,
    0.17950637344090342,
    -0.31366895063747774,
    0.5685271780811025,
    0.3243772566367007,
    -0.1877806926051633,
    0.013499734489697738,
    -0.024206831017732272,
    -0.24792559735801875,
    -0.025519733539774832,
    0.3840001043984625,
    -0.28655226648964804,
    -0.18906408360573174,
    -0.07434588376465562,
    0.1461202846568769,
    0.27268502169158476,
    -0.3401005666252147,
    -0.5726973368617891,
    -0.14682539804996544,
    -0.12011944178609761,
    0.14785150483550807,
    0.10210394427295398,
    0.05440461343317896,
    0.08850784272516415,
    0.8579301500439619,
    0.365726411031771,
    -0.17676767620031164,
    0.10947309489490252,
    0.06890065775656093,
    0.16010601298726138,
    -0.1613391457084706,
    0.10291723961119853,
    -0.11902768602101867,
    0.22176804498108002,
    -0.25939782902025926,
    -0.02880676849343273,
    -0.36258442347250636,
    0.278570875198895,
    -0.21114003065762546,
    0.15309435259063026,
    0.13408662882898373,
    -0.12216659192595426,
    0.07847579095948985,
    0.06327716754976394,
    0.07572302318507439,
    0.16326039687304733,
    0.012254521734151546,
    -0.08310240593496446,
    0.21265153048144758,
    0.3660388316012483,
    -0.049613238449485966,
    -0.08644906266294679,
    -0.22425350549101183,
    -0.07872401561635625,
    -0.08073229598089557,
    -0.14969270175962524,
    0.16408400766752987,
    -0.046558493155156325,
    0.4837401985217933,
    -0.029549258754585327,
    0.17865543519777569,
    -0.42453575867586757,
    0.054764367043859286,
    0.12730759269203007,
    0.19644813006008233,
    0.1871582057693255,
    0.02557846029692051,
    0.13336400171601773,
    0.08569971117445066,
    0.00826772888161137,
    -0.12994845150425569,
    -0.24538036969404714,
    -0.10238095440545092,
    -0.31962297345847307,
    0.21700939320457188,
    0.21872413182240158,
    -0.1441064947477814,
    -0.23624709332107074,
    0.4478551037157555,
    -0.44335259893937445,
    0.10379538189963562,
    -0.07226952045294868,
    0.16503595562363566,
    -0.1753048151038564,
    -0.08880774047384941,
    0.4060357986256936,
    0.30713591254877365,
    0.4450424886299777,
    0.24569502094151396,
    -0.014032600081671847,
    -0.04604044086621471,
    0.13168907785471246,
    -1.1131021635561662,
    0.1529615034671614,
    0.15044153024628146,
    -0.24764660051200674,
    0.09995201576176345,
    -0.020286358088912767,
    0.058176510580026985,
    0.12385869763575189,
    -0.0035968372982681726,
    -0.10591636274048014,
    0.1012231568304348,
    0.008890058459030655,
    -0.0928844540823716,
    0.00032654940708864603,
    -0.1834006490578007,
    0.27095001696116455,
    -0.039521405703903764,
    -0.15479826413833778,
    -0.024818767280207075,
    -0.17391690797067322,
    0.2770588923145516,
    -0.10335862658587239,
    0.040492685667295,
    -0.08923215344313157,
    0.45068722252060744,
    -0.02564796661132959,
    0.0157955195265685,
    0.18679121344971333,
    0.0969045503266609,
    0.2604580465237913,
    0.13567740229049477,
    0.40238654367949644,
    0.004662194446366823,
    0.1723695441823772,
    -0.9268875668437236,
    -0.028109442139359363,
    0.19633928753684948,
    -0.5244266622340729,
    0.6720209021633288,
    0.0957469117950046,
    0.05425607464421467,
    -0.12904770581768307,
    0.2576183184616521,
    -0.15434576169886186,
    -0.19066956286052486,
    0.07759290873250059,
    -0.06855169233163107,
    0.20637039789437434,
    0.13155025489145233,
    0.10129659285279072,
    0.054423480053211154,
    0.020542200709852826,
    -0.18745741251421305,
    -0.2287660015576261,
    -0.22541720030554713,
    -0.21892129285801187,
    -0.04050051259005864,
    -0.1342112013187682,
    -0.10718602354168973,
    0.2540938701585084,
    -0.5582552679976869,
    -0.6734187458858634,
    -0.37756546604334273,
    -0.26144307747592466,
    -0.013715252856520706,
    -0.13517510227966928,
    0.09093999620353972,
    0.1673607250253277,
    1.0018772577816335,
    -0.2405931775415623,
    -0.07569115208637041,
    -0.11161543624290123,
    -0.10909067283617352,
    -0.052726424023767024,
    -0.1454668208536769,
    -0.14148404501931555,
    0.06868132179331224,
    0.11846152213973696,
    -0.10520458198497498,
    -0.09319053138676066,
    0.17170400436369684,
    -0.05378538228860843,
    -0.02067983594106094,
    0.007378930732513997,
    0.06466125934097891,
    -0.1766505280870872,
    0.06534214698904002,
    -0.23984110873257417,
    0.10600384846220824,
    -0.20980293855379445,
    0.04198850851201398,
    -0.10187424489536129,
    -0.1972621115352871,
    -0.18934541697236232,
    0.10122394085242803,
    -0.05513376237107962,
    0.034510599175396235,
    -0.11974825193808133,
    -0.21508249443164382,
    0.06600881741992128,
    0.0336332282270404,
    -0.17091096027001645,
    0.2438886251754396,
    0.23190580866146557,
    0.02942141400411723,
    0.22691028713343758,
    -0.36709503575809166,
    0.3173966892920574,
    -0.23170519768924766,
    0.00031464071405792703,
    0.059957071034251234,
    0.08724138084040653,
    0.09329273875446728,
    0.019143750265265984,
    -0.08181571877140095,
    0.48732977847276004,
    0.005147888313660213,
    -0.17159706388055984,
    0.19098967168040024,
    -0.3355537690449289,
    0.14376849395161675,
    0.08389376739416826,
    0.1894666258951109,
    -0.11482858072478652,
    0.043375587571585265,
    -0.06601258663329942,
    -0.13211246674027008,
    0.023863914687855103,
    0.41209247577982366,
    0.17629846430234863,
    0.19404977398805556,
    0.2441799108393368,
    -0.15975802086924867,
    -0.07372807877400542,
    0.06963812325486901,
    0.18168798068498454,
    0.8855915154473799,
    0.14918666738872471,
    -0.15495769146000812,
    -0.34469618050640416,
    0.4354372676427782,
    -0.061161047953270826,
    -0.026754509579324112,
    -0.11912649813401048,
    0.11020020938795261,
    -0.391739425842253,
    -0.2549431573656133,
    0.10149444011043404,
    -0.17876586836424252,
    -0.30689995978336015,
    -0.20535531202792107,
    0.2988874846498773,
    -0.002926497559735517,
    0.1666575850158979,
    -0.08917593229693838,
    -0.06204716124432415,
    0.06768117212662135,
    0.00775681758965167,
    -0.08497208280743812,
    -0.002586454679426855,
    -0.12085766859719023,
    0.19414745412574574,
    -0.5647279556705695,
    -0.6215935614096688,
    -0.36876281077119494,
    -0.3358197372356108,
    0.046141689961208786,
    -0.12893325252189103,
    0.021366672739114488,
    -0.17639707051799985,
    0.0734426878190766,
    -0.1293299068601547,
    0.11535635556781114,
    0.219675049723849,
    0.2248533864022156,
    0.005149181736552681,
    0.08655088258882326,
    -0.08803721693358306,
    0.22917909988956833,
    -0.06088448172681813,
    0.08000324605941651,
    -0.12071746591344484,
    0.13949111191448635,
    0.010826919651891215,
    0.16140247686298048,
    0.05328177156298913,
    -0.11087051304265441,
    0.1248845891027127,
    -0.08582869475280337,
    0.1428053472203347,
    -0.1981867308558957,
    0.12980336432396605,
    0.010099306306467703,
    -0.22260150020808256,
    0.11210284286197589,
    0.0023707568394047665,
    0.15556369860496183,
    0.06093307719647173,
    0.03322419455764276,
    -0.03773927632243001,
    0.024479083676218805,
    -0.05029985392461766,
    -0.01157388655770133,
    -0.16548753758852053,
    0.11383433507816443,
    -0.018489324315264684,
    0.015167584516465065,
    -0.2420019386335523,
    0.539066204291546,
    -0.01673441541480848,
    -0.1232847843584311,
    -0.02057376149373155,
    0.20750027513598762,
    0.146432330084851,
    -0.24599778032565192,
    0.21579738055228592,
    -0.04818044799307505,
    -0.13290886488908843,
    0.1883544997205618,
    0.15160925511743403,
    0.038024814921139606,
    0.3413636713287348,
    -0.09345055647750217,
    0.027771839701446366,
    -0.18955839091833887,
    0.35702825160614576,
    0.2480906958037131,
    0.13364068316489583,
    -0.17624609620565834,
    0.2276582126264564,
    -0.5685452401478349,
    -0.9076642631579022,
    -0.5797843724840919,
    -0.38697689181791095,
    0.0549446255504742,
    -0.1520138673686187,
    -0.07906415142716312,
    0.07089944665018856,
    0.5768300244056271,
    0.39433380128027823,
    -0.08572704195658606,
    -0.03185474670349217,
    0.12097298629928326,
    -0.043726270211244575,
    -0.03359502327852686,
    0.08970267858831349,
    -0.1939504072817607,
    -0.01793155109642304,
    -0.1696097895179225,
    -0.22524334106929333,
    -0.08030469357994549,
    -0.4005967310367348,
    -0.020493789764680952,
    -0.03074300934114903,
    -0.14516261856562676,
    -0.2206044737253444,
    -0.08087208084551736,
    0.004439542348026633,
    0.019137427863027755,
    -0.1724920544883936,
    0.03439852624010911,
    -0.06760055898877643,
    -0.14495445048713892,
    0.033947248958579916,
    0.011378657852479443,
    0.21784864406630597,
    0.17003286906591691,
    0.16526055437395057,
    0.17834469333549383,
    -0.04901305165249965,
    0.05612843253425225,
    -0.14535881488728222,
    0.041291888046651695,
    0.1970882820544748,
    -0.1292792649443141,
    -0.31735932332800854,
    0.5839281042837552,
    0.13653997291297168,
    -0.06021722203119665,
    -0.16189115761376768,
    0.001551790905819859,
    -0.1427991572521994,
    -0.23545309374356196,
    -0.21443009349139402,
    -0.0965441577642287,
    -0.5022888411816073,
    0.12897725188406417,
    -0.041972856895813544,
    -0.09026190781989256,
    0.08483005235787697,
    -0.2006548667997059,
    -0.025492470921745624,
    -0.11816477782011138,
    -0.004053980930496942,
    0.1419226322308605,
    -0.13636902433923112,
    -0.05490530301139748,
    0.17413038493311292,
    -0.5850633978680881,
    -0.5696902302905047,
    -0.607473507107903,
    -0.7199346562891771,
    0.08168606638901588,
    -0.0163183366681428,
    -0.07614085704970869,
    -0.1093441139428437,
    0.19384643789687622,
    0.09341825812530996,
    0.25066116105854025,
    -0.535018192720087,
    0.3839941397137042,
    -0.03126772643612455,
    0.0732782581871831,
    0.3018298404264466,
    -0.21096454729992872,
    -0.016939912653822504,
    -0.15935263264888833,
    -0.005826172093117954,
    -0.08072730212536866,
    -0.2602043442645542,
    -0.016247269017226486,
    -0.28171295523627754,
    0.1779620622101741,
    -0.05120076733047651,
    -0.22735566634675866,
    -0.4230288124108651,
    -0.03631243511811365,
    -0.138922442299024,
    0.01088003504849681,
    0.04578948028147774,
    -0.0097728299847016,
    -0.325362321450644,
    -0.13226071932665287,
    0.5395447749335797,
    0.8226553034378662,
    0.6299549338087138,
    0.025213678233217237,
    -0.04323667737400782,
    0.14635855708751647,
    0.2817382405540086,
    -1.234054660296723,
    -0.11894863291575716,
    0.009140833712645409,
    -0.07744984180038322,
    -0.15455519378941157,
    0.032934781551796695,
    -0.11352814717986252,
    -0.12675307528956933,
    0.06820899514774806,
    0.07132453003029096,
    0.13783121308225807,
    -0.1278463261984301,
    -0.1859365329444059,
    -0.011646043368004037,
    -0.20458272855870185,
    -0.03887613954736105,
    -0.2511516482542577,
    -0.14747517710507446,
    0.03858239768556572,
    -0.0005474802319102135,
    -0.05962120803238513,
    0.09450113505930255,
    -0.11443260827327745,
    0.0925112917871844,
    -0.17677327924530245,
    0.02547378905493508,
    -0.09684998743505911,
    -0.12604077166606883,
    0.020998137705879473,
    -0.22325249125688754,
    0.03495077650865694,
    -0.13277475440318737,
    0.09071325322901125,
    0.057177325657195084,
    0.028619644917615858,
    0.030593235366713337,
    -0.1705319680598616,
    0.29401768735997913,
    0.09904941798202758,
    -0.11925260029411419,
    0.0068947002646703595,
    0.20356607520828196,
    0.08801814977671688,
    -0.12059253714717733,
    -0.017720979130295,
    -0.1874144059997479,
    0.17896806526148568,
    -0.36250073632232777,
    -0.0007353349748218907,
    0.028876934239667508,
    0.10529052017240216,
    -0.10988606813697928,
    0.14296204734889534,
    0.09700772099375783,
    -0.09372059405025385,
    0.19862746123532116,
    0.24255151642710754,
    -0.09465890942949616,
    -0.15044948539641584,
    -0.0901405528455848,
    -0.1829264620603337,
    0.23007974280965113,
    0.2476552995365492,
    -0.0943504342726775,
    0.254984063787339,
    -0.02758220304224383,
    -0.07743164231230251,
    0.00340805529971925,
    -0.6243863770796039,
    0.4375505534483705,
    0.08511860267499564,
    -0.4315807259612073,
    0.3329594069573481,
    0.35830220778861616,
    0.04188324742652243,
    -0.09540565823823809,
    -0.12103691565548762,
    -0.03190182764296179,
    -0.1778579406800789,
    0.13007729416529837,
    -0.05823395631461296,
    0.502258510932641,
    0.23883451519275636,
    -0.20282133924159781,
    0.2645816167526504,
    0.13991460665720432,
    -0.26586394512295464,
    -0.23126956265816848,
    0.035010752603003036,
    -0.403145541117351,
    -0.23635456265586588,
    -0.16884573494708624,
    -0.15489112595299356,
    0.06626311302745538,
    -0.3403132046806626,
    -0.4964743973686619,
    -0.2293981367272298,
    0.07605037912574501,
    0.15011770881441266,
    0.20742011080641765,
    -0.04587259457006087,
    -0.04259241150549049,
    1.1184623269928782,
    -0.19564649405413287,
    0.2369219592692219,
    0.29173883502506254,
    -0.24431279456773214,
    -0.07567741731933034,
    -0.1123048517629533,
    0.003314437851011635,
    -0.20850787144061642,
    0.0253763979514575,
    0.059436931671231354,
    0.22492761787526747,
    -0.15472712158297267,
    0.732577223632712,
    -0.00017399070937647234,
    -0.15238687663365016,
    -0.0025598040491090937,
    -0.3939701907107554,
    0.19983013520027412,
    -0.05199186167020735,
    -0.010526766062616847,
    -0.030147563223834634,
    0.03325596106497565,
    0.09328142042762656,
    -0.3121552051117455,
    0.026646702914348043,
    0.6854045846626784,
    0.22911684040218444,
    0.25886666378085066,
    0.12201143745205283,
    -0.4763124437686071,
    -0.24602997857070646,
    -0.006398640060084834,
    -0.0016152104550030734,
    0.9099253938420437,
    -0.09420047972157383,
    0.3005735319752685,
    -0.14389814879033608,
    0.305079122650344,
    0.17309925164338327,
    -0.2647930850748928,
    0.16004136143496764,
    -0.09401864422466279,
    0.14281300926435167,
    -0.4978720815805036,
    0.1352728788254768,
    0.013214121356247078,
    -0.21646017572931875,
    -0.09256760515746759,
    -0.06637146100329472,
    0.07117915287823015,
    0.14139046537425673,
    -0.176744226949312,
    -0.1862190264939405,
    -0.10907747299738985,
    -0.107606697830784,
    0.06842012005850383,
    -0.1300486585355111,
    -0.20305453341357135,
    -0.00372867362369749,
    0.02470563804826336,
    0.2523487899300953,
    0.18902129950938076,
    0.28563506815898854,
    0.05759104342903208,
    0.1356493549892542,
    0.19474175509318967,
    0.4116813096849821,
    -0.8407761934066528,
    -0.2210364440349177,
    0.1341348881192421,
    -0.29943731219350633,
    0.11010025713202196,
    0.22922950049938165,
    -0.28008023533771487,
    0.27818772029948563,
    -0.06324233844852364,
    0.039788609212053974,
    -0.025430648832531676,
    0.08344002183780058,
    -0.16789606979755775,
    -0.14869849469233626,
    -0.1384128283877828,
    0.01909423312672089,
    -0.177847871728979,
    -0.18166376708096849,
    -0.09321636010501964,
    -0.35479238147715175,
    0.14630009979812747,
    -0.12100501114979358,
    0.12039018277809692,
    0.16267301251934552,
    -0.1885707348474679,
    -0.09689513596216581,
    -0.038169782765265614,
    0.1775667512089058,
    0.24556564584626947,
    0.06749518514192762,
    0.026039438191071254,
    0.2011131725076813,
    -0.0858834797851066,
    0.32989952007470175,
    -0.88027653337685,
    0.09393623129489914,
    0.24029476658897805,
    -0.05890592653379069,
    -0.24829773854212162,
    -0.11727368869593602,
    0.31705239423071485,
    0.15965608123079333,
    -0.17938789209931988,
    -0.09021976818543179,
    0.13774354009206044,
    -0.0582942730844265,
    -0.2023971677395833,
    -0.22698508235051104,
    -0.018905863740711664,
    -0.04424990674181651,
    -0.08003398711243168,
    -0.21993560947153948,
    0.32517127598567097,
    -0.0908815108572757,
    0.019923388026230705,
    0.04406140116079734,
    0.03580321567943793,
    0.2044364460141139,
    0.10163871033741809,
    -0.39989597758788437,
    -0.21672012952161965,
    -0.11365209329746959,
    0.15297392642865248,
    0.16305307044615827,
    -0.13421320413288357,
    0.145339868720804,
    0.021317202352261422,
    0.15079683807226935,
    -1.1340719610934136,
    0.09302729728273594,
    0.17703550308148838,
    0.22292343725812544,
    -0.24886226138782064,
    0.1620579690431852,
    0.06435639630451376,
    -0.07012617398307462,
    -0.045670433485660335,
    0.11443970320600345,
    -0.015855721283444573,
    0.3171181025976427,
    -0.07389917936877692,
    0.6490336733169791,
    0.014473959737784358,
    -0.20128596261593196,
    0.06397166158182313,
    -0.029914390509005004,
    0.053461201760639364,
    0.09611634540179329,
    -0.05243486809379165,
    0.10087344790536042,
    -0.14789661864832504,
    0.006978917419127057,
    -0.06970122971917252,
    0.5271769784961553,
    0.38659399743911593,
    0.17202953893694267,
    -0.018300823212909254,
    -0.14929335497194332,
    -0.17995800308704418,
    -0.0032793297405405344,
    0.07936140223439705,
    0.19906775562070922,
    0.8572119660505227,
    0.06957665654334651,
    -0.23098511887353296,
    -0.5603020040891213,
    0.3212362747236615,
    0.11848142061711851,
    -0.04693652138852616,
    -0.3698875231003448,
    0.22986807115767866,
    -0.12713200324728516,
    -0.379413958709313,
    -0.07653826514619745,
    -0.4774540645913376,
    -0.814660456236458,
    0.1009032881362657,
    0.1050638203776149,
    0.15604645823737012,
    0.35613036150412974,
    -0.3468483533569341,
    -0.3720772736150568,
    -0.24284592686234704,
    -0.43323214753941347,
    -0.017604467882052142,
    0.2874280141403589,
    0.010351706021645826,
    0.19767448157997244,
    -0.8323257575153856,
    -0.36828650790894807,
    -0.42118102699919324,
    -0.6101020292934876,
    0.33139148343432834,
    -0.22227073815074402,
    -0.15171973303467745,
    -0.33479051977758895,
    0.30397899741878354,
    -0.11660760641973106,
    0.09136514249648282,
    0.07384671542825438,
    0.15628984017442937,
    -0.16982301993311988,
    0.02594251411623598,
    0.1052560440748697,
    0.13421196703413882,
    -0.1314554881004972,
    0.13470613853171295,
    -0.11361384661796835,
    0.17721651964116722,
    -0.49103195125238025,
    0.11084290239737568,
    -0.06636571187739185,
    0.20020450735251555,
    0.07789690808104699,
    0.15997744494647345,
    -0.1286957981785572,
    -0.1575403372192705,
    -0.11525026058786642,
    0.2518797264746633,
    0.17218948123099637,
    0.11635684658069434,
    -0.21091873660943963,
    -0.30423504054061534,
    0.318592370748164,
    0.31457322072570854,
    0.3210257635535491,
    0.19933647405596377,
    0.33123658681561785,
    0.07381684349534119,
    0.16164532565676126,
    -1.1462978606628127,
    0.08614802111861777,
    -0.005770306410745159,
    0.17310067324347456,
    -0.027793719852020067,
    -0.12931462983906922,
    0.2784561959214387,
    0.04452306506811721,
    0.27360982632126546,
    -0.23162249925394215,
    0.10445369771249088,
    -0.10561244265025539,
    0.25853011669048875,
    -0.19643253834875546,
    0.09110015690416262,
    0.3627958065880231,
    0.21497041098514014,
    0.03484610053987248,
    0.03404732940612076,
    0.05096601939991021,
    0.053799423800340085,
    0.04434013315964999,
    0.2077561734516127,
    0.03701458179807365,
    0.34015331051727915,
    0.0630397632941241,
    -0.17879218136197814,
    0.1469819910424852,
    0.1490415376245206,
    0.28258189128339395,
    0.18293254045609322,
    0.38810312598511204,
    -0.024557550847362913,
    0.08954457216626929,
    -0.8204198421936238,
    0.04224291516053648,
    0.24174789615537387,
    -0.15203154276313782,
    -0.28269820303178145,
    -0.07177545874951045,
    0.09290923740303074,
    0.12220713372100746,
    -0.08151568934523538,
    -0.048866584714851155,
    -0.005139653389206746,
    0.1558221656977702,
    -0.11578246323622546,
    -0.4839904019501611,
    0.23409017432147008,
    -0.235089913070076,
    0.12177439911938932,
    -0.485893000721471,
    -0.18870498629537005,
    -0.15236492193665507,
    0.23500608932167974,
    0.43696243707765364,
    0.19210564514454645,
    -0.15532046755155543,
    0.21290890227343037,
    -0.08165806628973245,
    -0.28562869896278453,
    -0.19360916335335854,
    0.3627303439069129,
    0.24776393949756256,
    -0.013437782406665153,
    -0.20829506861971137,
    -0.038158791898332815,
    0.3029475994871091,
    -1.0244996228742278,
    -0.0895369171405898,
    -0.06544153349383197,
    0.04147984786652779,
    -0.13936675436410623,
    -0.0764901770023677,
    0.039665593592726756,
    0.07001773156428616,
    -0.17575812912239966,
    -0.05489652723963035,
    0.10057314994282555,
    0.07086042684139814,
    -0.037494338972168986,
    -0.03721968534520298,
    -0.0748187688735572,
    0.18952828032760824,
    0.011287035871574971,
    -0.08003685638143816,
    0.3009574302731935,
    -0.26385436681019714,
    0.01568384539414037,
    -0.00013914369873870242,
    -0.06986657449489798,
    -0.10593250527048367,
    -0.0963949003855284,
    0.16965685209324793,
    0.23751728103487174,
    0.1674203560955367,
    -0.19170554319602845,
    -0.00829133419164882,
    -0.14238530992010534,
    -0.15655526220080004,
    0.03832987399093138,
    -0.12677030573338313,
    0.09975787643923985,
    0.004105262846255953,
    -0.004489176600167019,
    0.012221946509908828,
    -0.013262348858287892,
    0.019811311062357246,
    -0.002968545590946289,
    -0.012289950776735135,
    0.011912367892180089,
    0.012306246013891818,
    -0.00647758998630547,
    -0.005413319951420702,
    0.0048230017433107085,
    -0.01020045893502067,
    0.008373157425141234,
    -0.003912861998966598,
    0.006896580635813992,
    -0.0004327007356546261,
    0.006780884913464624,
    0.012695507048899898,
    0.006668996670921186,
    0.01069091839960729,
    -0.0012245673492594902,
    0.00026689023294338847,
    -0.004832845363715589,
    0.010920555685139024,
    -0.00012371342657142918,
    -0.006438453680228273,
    0.00440912289844072,
    0.0025853171602896107,
    0.0024084791071627195,
    -0.01641255462829118,
    -0.004156583030844321,
    -0.006034167852820073,
    -0.010375077228081243,
    0.003939073454166185,
    0.01149221413642383,
    0.0073881391710743155,
    0.00906922169442065,
    -0.012106187816566975,
    0.011389712592661135,
    0.007204167906610664,
    -0.0026030890207683925,
    -0.010999076483657796,
    0.0029876529710764015,
    0.002998363380479746,
    -0.0018358962838802904,
    0.01663119111166897,
    0.007935305244428216,
    0.008095328396501145,
    0.010606627385336215,
    0.0022450581768287846,
    0.005877677507639648,
    -0.003589958960774305,
    0.005740925994849888,
    0.012722927929990533,
    0.00511693387739949,
    0.01018211824372109,
    0.010843176372748415,
    -0.007634717902983491,
    0.0044725597214950235,
    0.009423344851325921,
    0.002806452889212244,
    -0.001773805233436561,
    0.01474963057175425,
    0.01721788680237745,
    0.010133312046217506,
    0.0038839325069259683,
    0.006430955431777455,
    0.0004564570939410036,
    0.009895143093209989,
    -0.004743097353220959,
    0.006971804823536884,
    -0.01987409365349418,
    0.0057351427458085255,
    0.008506453814485655,
    -0.0001297890321945735,
    -0.012737102089072147,
    0.01286077472563182,
    -0.001061233377995359,
    0.005188285796173806,
    0.011591406983276523,
    -0.0008194752061515973,
    0.003928080605063802,
    0.009445664866201811,
    -0.01000903647991222,
    0.010702882872194081,
    0.0016798994390682484,
    -0.0009387678474227905,
    -0.0028615122257417474,
    0.013070514190560956,
    0.004257863336929716,
    0.0048963871357397765,
    -0.017278144615724897,
    0.0020811902709159382,
    -0.004100310946976263,
    0.006505565707220162,
    -0.002804318302111476,
    0.012415329027311958,
    0.012713871977951591,
    0.009272854127510652,
    0.00747092147542627,
    0.005582166728208402,
    0.008563402576918032,
    0.007226116967141715,
    0.00399331868434142,
    0.007452903790782221,
    -0.02063121479095715,
    0.013209162386802394,
    0.006931802382950018,
    -0.003803681992418081,
    -0.006433337646480881,
    0.004764833670081756,
    0.0043831994268034155,
    -0.0010555526079855512,
    0.019750010645639166,
    0.007906715747964541,
    0.001869498042091168,
    0.012745856791809661,
    -0.002837595499600182,
    0.005974302885725574,
    -0.005739105763598937,
    0.006089186804966006,
    0.010155759450925325,
    0.0019196317665937399,
    0.00508262818313179,
    0.009186205988306401,
    -0.0026585186875308516,
    0.006429650562377641,
    0.005454267497726014,
    0.012428524460320712,
    0.005570839765662752,
    0.016352195139995356,
    0.01908724642682374,
    0.010062128188569094,
    0.005729276830462835,
    0.0069957826408334305,
    0.003003577871688445,
    -0.0018906570005268373,
    -0.0021003855930445195,
    -0.005858836214791398,
    -0.0037038894374213497,
    0.0021375032493199985,
    -0.005853318269521323,
    -0.005625498706584855,
    -0.005298983054798419,
    -0.003830126909810724,
    0.001367501368263726,
    -0.0020050232274306068,
    -0.0037255018788313957,
    0.0007462186432812102,
    0.0022189887245462813,
    -0.003719686253621388,
    0.003089935436750399,
    0.0002709468733355354,
    -0.0017415566563680337,
    -0.002878449824423749,
    0.0012157120060698014,
    -0.00547206263689126,
    0.0020423067056610246,
    -0.003025739345637056,
    0.0005535806226512809,
    -0.004396668703803972,
    0.000492697339422132,
    0.004017389343394658,
    0.0015743930766238552,
    -0.00599011618212167,
    0.004381019331009653,
    -0.005835069045046725,
    -0.002351885721272834,
    -0.0007300966521003241,
    0.005890308628716745,
    0.008787535798888305,
    0.005953403369777025,
    0.009747154299342928,
    -0.01582436962389185,
    0.00873436068594067,
    0.014503878320310625,
    -0.00677939713408063,
    -0.019233196675955317,
    0.015229046823538461,
    0.006139162899972425,
    -0.005652247598738536,
    0.015395522520719749,
    0.009629792764676565,
    0.010160279679781512,
    0.012660547974292714,
    0.00494830234140173,
    0.008927276980469962,
    0.004819754515457159,
    0.0033411926939121684,
    0.005336918049209106,
    0.004713391949910514,
    0.004529964494123974,
    0.004312888392516624,
    -0.00552747732927395,
    0.013521233587652004,
    0.0012415800051621421,
    -0.002426234012627745,
    0.002917452305018533,
    0.006719678792594778,
    0.009405527624862815,
    0.00468131368009386,
    0.007202195706600091,
    0.007529671409468536,
    0.0008712683931533956,
    -0.0015510022638410654,
    -0.004017512015329968,
    -0.006792938601187715,
    -0.005662874319253536,
    -0.000399150024974086,
    -0.007655905758010692,
    0.006717436235396774,
    0.010431699622872697,
    0.001154659288053363,
    -0.004095074857665106,
    0.011286558037155557,
    -0.001758145418705626,
    0.0011267705011759914,
    -0.0036264263207271903,
    -0.0019504583712375134,
    0.0031086101343718417,
    2.747447856291356e-06,
    -0.011588476901988538,
    0.0033612222045025586,
    0.0019566211711821335,
    -0.0052567906811980415,
    -0.002469235050577301,
    0.01380671748020983,
    0.00128134735197058,
    0.0008413390504850566,
    0.002652887910183804,
    -0.0009295765701505085,
    -0.006722723169937348,
    -0.008115743259477068,
    -0.009687436746181385,
    -0.008536496429261816,
    -0.00719008421449837,
    -0.021448392031728276,
    -0.004325827208824369,
    0.009555393931629358,
    -0.0004897849870053847,
    -0.001215627235661659,
    -0.009105133974952372,
    0.019208025843257585,
    -0.01104877161250851,
    -0.005664409247917587,
    -0.008609511005873965,
    0.014212584508752155,
    -0.009177885428781766,
    -0.007429358168975245,
    0.013333492491458356,
    0.003529629280623608,
    0.00822712025842851,
    0.0037603634757940084,
    0.003365635740139491,
    -0.002360306455271807,
    0.012944583157401062,
    0.0010916868463456018,
    -0.0069027925305876715,
    0.003938825194083133,
    -2.855196238512884e-05,
    0.0037619867523474835,
    0.006625817495305992,
    0.00877934229950368,
    0.011729114631345279,
    0.0021267500792741265,
    5.657247998298068e-05,
    0.0012992914223480577,
    0.00339650799112444,
    0.009083836867073824,
    -0.011269569094208402,
    -0.0006643295390568899,
    -0.004868331379179837,
    -0.0002448061222736284,
    -0.0021499330260160757,
    0.013187039106374709,
    -0.004619652516133286,
    0.011440596173785546,
    -0.00679139858643568,
    0.0032115623407287415,
    -0.0011588554450452865,
    0.003849924269888305,
    -0.0010325565296646158,
    -0.013520123811351712,
    -0.0018480787800595954,
    -0.004430531424070633,
    0.0034719670592977597,
    -0.005005451925311911,
    0.01263123083311118,
    -0.007132230966922511,
    -0.007258411484169022,
    -0.002896783024835386,
    -0.0030802615865915322,
    -0.013335811089223985,
    -0.005427242355973993,
    0.005214785065114976,
    0.00726786616394905,
    0.012332238399513706,
    0.005543921390271265,
    -0.006269093920193952,
    -0.0036183256765508565,
    0.006388548799171179,
    -0.0009452697564277682,
    -0.0026501703588503404,
    -0.007322194757786265,
    0.00856222808955956,
    0.0033086098432785964,
    -0.007992981619205116,
    0.005712435186437434,
    0.002910036392655512,
    -0.0022311666626713793,
    -0.0036886519472214578,
    -0.0004206684401785189,
    0.0015140409028413127,
    -0.0022715708589067037,
    -0.00580254098490339,
    -0.00025779389720744736,
    0.006082173585156656,
    0.0023709332968133404,
    0.0032308350338379646,
    0.01428348659407928,
    -0.01576129762733625,
    0.004426034563303481,
    -0.0003004640807627703,
    0.005314836432273949,
    -0.003597744991564715,
    0.013412333255217608,
    0.00846716336318686,
    -0.007931661307788117,
    -0.0038735393166413326,
    0.0015999182406827132,
    0.0005069818409857273,
    -0.0010630845779386613,
    0.0013367922593165524,
    0.01001980599005634,
    0.003315835406210439,
    -0.0048811771686864455,
    -0.009675796915806886,
    -0.00530043802068312,
    0.002566084589423667,
    -0.0002235219472359859,
    -0.002372028614411687,
    -0.0016362504380100056,
    0.005999797763412881,
    0.006208085875656336,
    -0.0019016266443680366,
    -0.0025906673051017803,
    -0.01007598153923632,
    0.0025076826430443415,
    -0.007745710415332957,
    -0.006413246229914485,
    -0.0018532992693794613,
    -0.010661563443416101,
    -0.0085417786861313,
    -0.011870190329657195,
    -0.007540246060486452,
    -0.006070170951878107,
    -6.898955750591536e-05,
    -0.005007731636008794,
    -0.005985248906101998,
    -0.004622032634659902,
    -0.002935837011062067,
    -0.001960882595809555,
    -0.004727791770805297,
    0.0022866260573231917,
    0.0016761046394641796,
    0.002927656221072116,
    -0.010577018227422807,
    -0.00012204620124563835,
    -0.006330461992458515,
    -0.003560251862799765,
    -0.005890356419145632,
    -0.005663498080543559,
    -0.0027307402415001404,
    0.0008304775972050642,
    0.007560752373262822,
    0.013513467930592646,
    -0.005825304363318122,
    -0.016084154317340706,
    0.005974946839311396,
    0.011069598296998754,
    -0.0052432995065169186,
    -0.010818369404868435,
    0.0155398831463087,
    0.012641725077405044,
    -0.005510011575020686,
    0.017695686877571795,
    0.002687308813534667,
    0.0031435476935584225,
    0.008294578829140985,
    0.0049178226886221615,
    -0.0046218256177888075,
    0.010148622665781556,
    0.010434618856338597,
    -0.0008425522866963329,
    0.012126396825898077,
    0.008093622130530784,
    -0.003951793330019704,
    -0.010195531791014458,
    0.008617094226677132,
    0.004212609530080256,
    -0.003920706564526817,
    0.0010270115529424349,
    0.010033198041362129,
    0.017088101160167436,
    0.00940222107525071,
    0.005887419263780496,
    0.006555676349029259,
    0.005867043502674011,
    -0.001705276159104157,
    0.003929449251510131,
    0.0018065685658769188,
    -0.015522678109864642,
    0.00635542188746638,
    0.009854282697604879,
    -0.005382232387412087,
    -0.004218116647949126,
    -0.002495751348973517,
    0.014742827602018749,
    0.0018487568162623717,
    0.012760827189748912,
    0.003154668111073843,
    0.008261850713803276,
    0.00579563072773932,
    0.011117508059424328,
    0.0043334162595079955,
    0.003939352482590375,
    0.0005385036131639494,
    -0.0032046997033749174,
    -0.00621277413913674,
    0.013305513489597324,
    0.0007795128301809372,
    -0.006824347551312807,
    0.0049694334226179524,
    0.011324292347612305,
    -0.0025961886974214285,
    -0.004691694884398242,
    0.011438188903053013,
    0.014089091273683638,
    -0.000846330341889772,
    0.004659028460562699,
    0.004165076812117763,
    -0.002448926809635297,
    -0.0005325784909669942,
    -0.001996953211495061,
    -0.007916108902036832,
    -0.010728751583399773,
    -0.003299540875384148,
    0.001162824470324182,
    -0.007955702557024826,
    -0.0012744874152389371,
    -0.011128128718329793,
    -0.00045035823220980736,
    -0.006564819443487431,
    -0.003743056675824232,
    -0.010906236310672321,
    -0.0043377404626371045,
    -0.0034906151422995526,
    -0.010966034916962695,
    0.0024843740238227703,
    -0.0012819403836730136,
    0.006849410479738007,
    6.159568660705354e-05,
    0.001073018349774771,
    -0.002732554529327075,
    -0.01040813154560776,
    -0.007660928216189543,
    0.0006545694618277239,
    -0.005431653789090961,
    -0.00507505359166795,
    -0.0016940169009822695,
    0.0023645333426667624,
    0.0006617870031688677,
    -0.005643709113421888,
    0.0036438446761302237,
    -6.566253256117567e-05,
    0.0036563592346068423,
    -0.0023690507344622416,
    -0.00040345722069710157,
    0.0009543670400124867,
    0.018153885939635652,
    -0.01579201444720977,
    -0.007598374989318549,
    0.0077843988734878945,
    0.015352009664881337,
    -0.014969219265340008,
    -0.005447049082185981,
    0.00803563721909152,
    -0.0006883274462490505,
    0.006720240210243107,
    0.008551736596262719,
    0.006172928388792034,
    0.007613054973725757,
    -0.008097737857938216,
    0.006223882799004844,
    0.012408478277029221,
    -0.0024213823789787305,
    -0.0020789314431293436,
    -0.003013385466322281,
    0.007702914620570057,
    0.009500965629123618,
    -0.0026938469486511214,
    0.0009892078031264377,
    0.006926398797366896,
    0.014601699059562856,
    -0.004664987636929805,
    -0.009837066475342906,
    0.005421141723532157,
    -0.010606126077297827,
    -0.0002669913022654824,
    -0.000185288183969398,
    0.008469553251936839,
    0.008633992115492138,
    0.007665604100215768,
    -0.019086569620713686,
    0.012209878991262026,
    0.006924720249885184,
    0.0011239535129284207,
    -0.011408112080586025,
    0.007376685114581437,
    0.011034705740357996,
    0.0010206879173779648,
    0.016010289706555218,
    0.010887055310271747,
    0.006308189491519401,
    0.00465083326586449,
    0.004486627377673719,
    0.006798928577925302,
    0.004716012954768459,
    0.006046476096465033,
    0.008207125066749909,
    0.003740840147049447,
    0.007717935808288639,
    0.007686542571531309,
    -0.004894781822133519,
    0.012264949942469522,
    0.0010975053062411827,
    0.0033735648473906784,
    0.0034133522700009623,
    0.008427660192991224,
    0.015656654557768275,
    0.0023297961088929696,
    0.0036128587645250254,
    0.005103407532252458,
    0.0007179512295386406,
    -0.0011051577513914413,
    0.012123602451546095,
    0.006872199712278187,
    -0.012548821018455251,
    0.006117202555511275,
    0.008728496862064334,
    -0.006106308385380148,
    -0.015667632542159894,
    0.014436500430684627,
    0.009908689898151052,
    6.537732164933818e-05,
    0.018784115242452357,
    0.006444916757435732,
    0.008294024598750336,
    0.00873729074067013,
    0.011445982867987302,
    -0.0006750696061049553,
    0.007678624444247603,
    -0.0033662861599679556,
    0.006378460525409815,
    0.002829636976254958,
    0.00343209169191573,
    0.014598425648385314,
    0.001909534853566708,
    0.0121156759977805,
    0.005803913079898783,
    0.0021832284389158977,
    -0.004209271618403269,
    0.009252658278016445,
    0.01363669180266987,
    0.006263005218265672,
    0.005028055138397386,
    0.00948662556307207,
    -0.00028960677256603977,
    -0.004865860907868383,
    -0.005595591801659638,
    0.001832092513176898,
    -0.0036661875706883586,
    -0.0050482315066298815,
    -0.007955492109094433,
    -0.0006811226964422773,
    0.005786784730744074,
    -0.008477663050966996,
    -0.0058981582899827025,
    0.0036208676694314255,
    -0.008487484949775168,
    -0.004252590615647664,
    0.002815429525017749,
    -0.009856694659783671,
    -0.008760938855783608,
    0.004654732292897859,
    -0.0012815280786065448,
    -0.003935128398045634,
    0.004288295166922481,
    -0.00566039674476548,
    -0.0029873094563428178,
    0.001665087743500632,
    -0.01019795766097889,
    0.0030880791400503607,
    0.0005460891242462361,
    -0.0017483613460209638,
    -0.008424697648840799,
    -0.00797662440892825,
    -0.0038663646000931255,
    -0.0010670100055170635,
    -0.0011963754715778826,
    -0.006960149370562732,
    0.005373356864940671,
    -0.008597344775447699,
    0.0006204771395742542,
    0.008503555219307601,
    0.011082659715617511,
    -0.008301839204510813,
    -0.0038944913938999946,
    0.007733483313529357,
    0.00800001100532983,
    -0.005048038250430922,
    -0.005857502862746296,
    0.010524008937702842,
    -0.010512047227365234,
    -4.5742726301567917e-05,
    0.006408929706393465,
    0.0021906718120200713,
    0.010128549602397221,
    -0.014406284550229628,
    0.016459522595360477,
    -0.011481248835566758,
    0.005116008567644593,
    0.00200937843170177,
    -0.004974292843270671,
    -0.00729833915780319,
    -0.0025909244884369928,
    -0.0014087125623850432,
    0.001685450478652129,
    0.0007404314382655851,
    -0.004845045518409371,
    1.0126961535757434e-05,
    -7.680832779949046e-05,
    -0.007754454607911841,
    -0.008579048057848612,
    -0.007013114982809337,
    0.006325421568298505,
    0.005424630915871772,
    0.011222826318768201,
    0.004108131864658711,
    -0.018074396062515156,
    0.008369183998049095,
    0.013091355152811839,
    -0.009060840995143413,
    -0.013540278630566832,
    0.01469461946800172,
    0.01543602715032757,
    -0.005494210252473911,
    0.023008847015471418,
    0.009601157300402861,
    0.005221354434805068,
    0.008968661344619305,
    0.009981041398857225,
    0.002274398686320101,
    0.002464823153698116,
    0.0030920933305753125,
    0.005867596585520872,
    0.010411196910772668,
    0.010133512354879888,
    0.0014545339871755998,
    -0.0052732705714382795,
    0.009674664590449517,
    0.008388447603938348,
    -0.000506766557133701,
    -0.003548504677073433,
    0.011157557126837522,
    0.013539154290415353,
    0.001009447049094976,
    0.008926629456060431,
    0.007847474033021938,
    0.0056353425809034345,
    0.009468842467853032,
    0.00632910553586923,
    -0.0031625260137002607,
    -0.017380064775219577,
    0.014388818916206286,
    0.006057146077301936,
    -0.008379877086455169,
    -0.011363560598093722,
    0.015459994891136117,
    0.014624644794546972,
    -0.004017876470822226,
    0.021785249909780976,
    0.013667274297607734,
    0.003271895447320868,
    0.013230567826333806,
    0.006482181663213167,
    0.010003787730485228,
    -0.001610925938064426,
    0.008419547377981283,
    -0.0041151903157914714,
    0.004672333149682092,
    0.015534601605908714,
    -0.0018778774672374265,
    -0.0035420260799755355,
    0.003842540770822738,
    0.004890914083754579,
    0.0014217185265983571,
    -0.003176437778609312,
    0.011423145427330528,
    0.017768772202336476,
    0.008810626207725625,
    -0.0008698703991029331,
    0.005327702987256246,
    -0.0029450160683704156,
    -0.00021700381388776785,
    0.006621866137442621,
    0.009308446975859612,
    -0.004378977850670948,
    0.004704222746644939,
    0.0012894755134989606,
    0.0015322429957301301,
    0.004724271314106671,
    0.00829626509418305,
    0.008737036868546665,
    -0.0025064729565557452,
    0.005845043487307734,
    0.005472068129251574,
    0.0060425125337814625,
    0.007111783182144481,
    -0.0016831279913697937,
    -0.010790101928842423,
    0.002268516336523794,
    0.008684191712688416,
    -0.00489530541933732,
    0.0009846633656793652,
    -0.009855859638230314,
    -0.0005307640890732338,
    -0.0008277460030847349,
    0.007921118439236076,
    0.008302777900938358,
    0.0010435611212594002,
    0.0047389524271338815,
    0.0004435396886919125,
    0.0006349214845648729,
    0.00613942512174639,
    -0.013328070716315185,
    0.0004537929993676656,
    0.0045012112623723415,
    -0.0027474818585702023,
    0.0039039164660787107,
    -0.006186981087653067,
    -0.003096465138105027,
    0.0032583795764602234,
    -0.004674415697127075,
    0.007973000824649964,
    0.0015102694535486865,
    0.000510157867140931,
    5.783059327379558e-05,
    0.006433745290262015,
    -0.005004225406884366,
    5.290827374508858e-05,
    -0.0016743915952314992,
    0.004641757117494834,
    -0.009318107985619705,
    -0.014553525984137894,
    0.01607043708898495,
    0.0019550944196250657,
    0.019552266072371337,
    -0.007238741479270514,
    0.005858358116006763,
    0.005083721674897956,
    -0.0016214058247165598,
    0.0008730240772937447,
    -0.005162745743529285,
    0.0029202145340691847,
    -0.004252717388400354,
    -0.004668233000755784,
    -0.012366122790619239,
    -0.012192761068158864,
    -0.0007760533814653575,
    -0.002878828576961415,
    -0.004164019912765558,
    0.005757116019707522,
    0.0037324397396819647,
    0.00877283286172035,
    0.022107254984022103,
    -0.0059014198264375145,
    0.006393579466352218,
    -8.346600125435029e-05,
    0.012999369924797988,
    -0.0036638272912506453,
    -0.0027034834570538076,
    0.006410445559416421,
    -0.011512415263490701,
    0.012866678584623984,
    0.010213775121117258,
    0.004782428206154401,
    0.005324248886088553,
    0.006411875187516465,
    0.0004914383903401628,
    0.008602546614007,
    -0.00046021577502336085,
    0.0012164149262443602,
    -0.00887259503702535,
    0.013090285981954643,
    0.010528831797360517,
    -0.005402029098176815,
    0.009053918893654474,
    0.002178713872453879,
    0.008689730300104384,
    0.004228085153242915,
    -0.007298412032135139,
    -0.004565291284337971,
    0.005354498311888876,
    -0.019125158743934403,
    -0.006945607389924354,
    -0.005397972022091907,
    -0.005314979446061594,
    0.005713096444792785,
    0.003892309149292333,
    -0.0014539085981536495,
    -0.0027010535407156885,
    -0.0004360627724672154,
    0.0005886604807161568,
    -0.010211975051898046,
    -0.0033242351787963857,
    0.009613874634907182,
    -0.009649931181786238,
    -0.005016084524398124,
    -0.005170423478304481,
    -0.0031382712061920727,
    0.0004742719717626876,
    -0.004285912968500244,
    -0.005657239142507044,
    -0.008941870889208243,
    0.004012555141395524,
    -0.0004431615553260311,
    -0.004630803491923474,
    -0.01073141701556591,
    -0.010394780408669483,
    0.0036789997550642655,
    0.006049246377901013,
    -0.0037580250720683404,
    -0.002430220033609234,
    -0.0046369763522402015,
    0.0005501747790081324,
    0.0017905318460459379,
    -0.006210111366390045,
    -0.0012743564011017082,
    -0.003099570989945959,
    -0.0075301553104503045,
    -0.005397903782673397,
    0.0058617612049918074,
    -0.0005757698609516082,
    -0.0013178605075399867,
    -0.005191343515625939,
    -0.006601004895984261,
    0.0009811715016224472,
    -0.005237962921448463,
    -0.0012008216563368776,
    -0.0032001987110650285,
    -0.001195353873080822,
    -0.010512209463689236,
    -0.00850191031800269,
    -0.011103069974450526,
    -0.006912328875689699,
    -0.008893158017918576,
    -0.009029668993023201,
    -0.0022608009102707835,
    -0.0039269693911496515,
    0.0004492731866721996,
    -0.0027768719968123477,
    -0.0007948986467682104,
    -0.0018412456543775008,
    0.0027424823552701654,
    -0.006808959534106015,
    -0.01092444236678305,
    -0.0030385420742619763,
    -0.005865297761160194,
    -0.005264450505275162,
    -0.005373845850195089,
    -0.0029500319546467034,
    0.004445341838976357,
    -0.0073751846162727055,
    0.0008034513062785371,
    -0.010949638694724602,
    0.0012008989902820577,
    -2.57373358255204e-05,
    -0.0005026740532446865,
    -0.007992948459264959,
    -0.0005245294158751995,
    -0.004367138928914446,
    -0.005472155357455918,
    0.005498547661015469,
    -0.00886121044239388,
    -0.0024246001887574817,
    -0.0031357451329155225,
    -0.00840237733289218,
    -0.003664423153052894,
    0.00011452420954294966,
    0.00022112708318571485,
    -0.0009167234274499699,
    -0.0009210657454519579,
    0.0012257064654511807,
    0.0006377293084153841,
    0.001854304475101738,
    -0.004209314310972197,
    -0.00579938328307234,
    -0.004407406305641385,
    -0.005292114821333375,
    0.007640903086315903,
    0.006719837730188823,
    -0.00388737036362948,
    0.0036821295484685533,
    -0.0037109780994158347,
    0.005005662533769118,
    3.806534538662597e-05,
    -0.002836540374072134,
    0.010035467926729703,
    0.009313210878650491,
    0.002859895153587754,
    -0.017089889928755014,
    0.012940162258796467,
    0.009606547762222927,
    -0.008864679736599643,
    -0.014539891407424888,
    0.01097702590654788,
    0.009548451845253006,
    -0.0008563920905287547,
    0.019580107115232014,
    0.0031631390513748117,
    0.0047906464323023085,
    0.009832679914820484,
    0.012052970541861866,
    -0.0016388313323901723,
    -0.00529401189003545,
    0.0060798913495903285,
    6.265779416621029e-05,
    0.002866906395096722,
    0.007400185289951188,
    0.011859763177292402,
    -0.0031670303810917163,
    0.006888324587740599,
    0.002409333167695468,
    0.002791744046040896,
    0.001698736351314269,
    0.010943600912123881,
    0.013856806965641184,
    0.007296253308154205,
    0.00023759152094305586,
    0.009189202364812262,
    -0.0024059411750368674,
    -0.0070131840509203,
    0.006094643306220592,
    0.00557862236874081,
    0.015272258079464966,
    -0.004972465968388391,
    -0.010329290535493188,
    0.004071043142882537,
    0.008551251260725335,
    -0.005873827161350659,
    -0.019388825657730518,
    0.009523382468199074,
    -0.0066939949337725775,
    0.012599882865114537,
    0.009997280979384968,
    -0.0014945364595083113,
    0.0053494422357697816,
    -0.012675724401311554,
    0.018456198725309785,
    -0.005266082941645102,
    -0.011479173999253548,
    -0.002859683125920613,
    -0.008498080034033581,
    0.009816582950339665,
    -0.0053620062227074695,
    -0.0023896715610878644,
    0.0010768982182546433,
    0.011906303480471789,
    0.006258060979814536,
    -0.006693591947050518,
    -0.01176638091765719,
    0.006284024079686755,
    -0.007543180249005487,
    -0.012236593389486367,
    -0.003297705360334915,
    -0.0016224622625330854,
    -0.009035409788486947,
    -0.005384273230609877,
    -0.005202926407335501,
    -0.0034256081115661917,
    -0.004369432196049082,
    -0.0009098087690997091,
    -0.004881269504098782,
    -0.00044992253372953914,
    -0.00536348145813265,
    -0.0063213784729838915,
    -0.005915902200141783,
    -0.0065515163347360525,
    -0.0068158827315925215,
    -0.004985004926458369,
    -0.002975430477387328,
    -0.00034777432473113274,
    -0.0015663052770645673,
    0.004495916632492417,
    0.0008154573747833771,
    -0.005206381576983331,
    -0.003524888780536891,
    -0.005619143052417523,
    0.0006989195077667803,
    -0.007693523362874272,
    -0.0011490617938871436,
    0.002346002781340087,
    0.0010579400148670187,
    -0.004084951989770054,
    -0.0032814409117094636,
    0.0025240928054073887,
    -0.004214174908310134,
    -0.0012070700451305451,
    -0.00927340030172096,
    -0.005610947111257188,
    0.008975745785617247,
    0.005793430306382062,
    0.019824451525834015,
    -0.010078746104338433,
    0.0013858754499202876,
    0.010365462672987769,
    0.018781392249347308,
    -0.005532074959363439,
    -0.005088861778841076,
    0.001977485722880688,
    -0.003130626185435535,
    -0.000811998648071059,
    0.0020004473910779992,
    0.005143842382779223,
    0.007538938492108769,
    0.0018222712869287764,
    0.00653576432190169,
    -0.001432954160880141,
    -0.004360964387108473,
    0.002437714287398012,
    -0.013049997922364762,
    0.007280469864391818,
    0.005874944788877295,
    -0.005615190143701502,
    0.0009196731864456,
    -0.003316425959847892,
    0.0016963419355375698,
    -0.007604001469670668,
    -0.006771552335269895,
    0.0021128926094700308,
    -0.0048184013092397214,
    -0.007865465304312515,
    -0.0037195031755964166,
    -0.0022543092731250854,
    0.000564103694197183,
    -0.0004153580917288218,
    0.0016576238068352783,
    -0.005723954505017071,
    0.0021407493713904305,
    -0.0024291081630416554,
    0.00598988882674948,
    -0.0034632534555013987,
    -0.0009553149705636686,
    -0.010188597132356774,
    -0.005157271652954007,
    -0.008500548654081778,
    0.0022901918398458916,
    -0.0032815189712379345,
    -0.006617261728819119,
    0.001045105826224939,
    0.002723899221500118,
    -0.002045117090178504,
    -0.0025066505827173037,
    -0.007290404688565086,
    -0.002191965916508432,
    -0.006189196634181789,
    0.008429792642200628,
    0.0032835010966151133,
    -0.002311993488671358,
    -0.008864526968335751,
    -0.003048460615073567,
    -0.0018891522398724007,
    -0.001813309685959314,
    -0.011206686817352962,
    -0.004375365513891097,
    -0.007710966150112088,
    0.002607876040168571,
    0.001534461004806572,
    0.00988725964181359,
    0.005613160580974857,
    0.020646442777883443,
    -0.007458614286261193,
    -0.007945163356428172,
    0.0016144937338867958,
    0.016464461127377993,
    -0.007757643554960695,
    -0.008264734711940218,
    0.006812567474321492,
    -0.003166287239512695,
    0.009302577547716046,
    0.010314506535177308,
    -0.001017002075233131,
    0.009415265988599814,
    0.002093790049052141,
    0.008213778244779417,
    0.003950989787135575,
    0.006256955793247431,
    -0.003101512231410685,
    0.0036745591009145666,
    0.013807031163365981,
    0.004439116618169541,
    -0.0014791734927892273,
    -6.281884721953858e-05,
    0.01155112747966912,
    0.005029576712079159,
    0.0037303578521890083,
    -0.011621694677695053,
    0.00976200879024383,
    0.0008512210043737664,
    -0.007599424007330111,
    -0.0023278481928792646,
    0.00012202321847801283,
    0.015157503443727422,
    0.007989876748495443,
    0.02117575463067334,
    -0.008120852458246753,
    -0.007976733075541288,
    0.01227801037964063,
    0.012136154114393782,
    -0.006820682595500518,
    -0.006291834810846714,
    0.006474544727404681,
    -0.0018305809724665268,
    0.0018798232893109984,
    0.0080313350282226,
    0.0008389781497305125,
    0.009546507356738782,
    -0.010761612809762433,
    0.00031087458543596315,
    0.0049600269185173075,
    0.001864877596256253,
    -0.003082700612178278,
    0.0016780992310088773,
    0.009199283845780183,
    0.003975799295778287,
    -0.006456800011235079,
    0.001590757017903721,
    0.009484673017507095,
    0.0014704562651533762,
    -0.001425556605825317,
    -0.013760426127552006,
    0.0015735127831014173,
    -0.0031628189465607113,
    -0.009124980020800061,
    -0.0029536361812336604,
    -0.0048618334007691985,
    0.0004514837296009145,
    0.0019003852653777253,
    -0.009895271079444604,
    0.0012372088216959032,
    -0.003700666831088443,
    0.002925431004864086,
    -0.010830816115807117,
    0.0012306113610451273,
    -0.006034886820654633,
    0.009317708329186844,
    -0.004611736790134989,
    -0.006870535863322831,
    0.006868806013534184,
    -0.006363757848206095,
    -0.005413998713461737,
    -0.013418736552202305,
    0.013975173775136825,
    0.002861895753352566,
    -0.005238380189064563,
    -0.0018161857639568714,
    -0.00013440201609028494,
    -0.0019209908378470088,
    -0.0007252443917374958,
    0.0034888141934738036,
    -0.0026138233448075865,
    0.0029308421753065986,
    -0.0020204955589977805,
    -0.003584804361680172,
    -0.0023675495351708434,
    -0.005771693607065712,
    -0.009719084752534435,
    0.0018026262253829548,
    -0.0047503573385426255,
    -0.009445476192998653,
    -0.008206556146368978,
    0.0025745559073052687,
    -0.00227440697901249,
    0.005359736853494928,
    0.004373505869096266,
    -0.0017971503425290988,
    -0.010766413098272282,
    -0.005461901696210586,
    -0.0011249681497444914,
    -0.0069465903517078095,
    -0.007612426009127476,
    -0.005455722774758219,
    -3.9043270254307416e-05,
    -0.002358374868054276,
    -0.005731350159815151,
    0.004498845912136732,
    -0.008804265700125243,
    0.001043159458437877,
    -0.0010123504668650756,
    -0.001070095561877141,
    -0.007296201542724558,
    0.0021778641776144547,
    -0.005707327026556235,
    -0.003738713066795578,
    -0.0004131164036837721,
    -0.0004872431831539865,
    -0.005035590543992873,
    0.002146507210357392,
    0.0044122328267506335,
    -0.009122943392906936,
    0.005960831561409989,
    0.005738533586815915,
    -0.008610213045354406,
    -0.010637803681669354,
    -0.0026397795981829932,
    -0.000870166714448278,
    0.011833405873631546,
    -0.0082027503036795,
    -0.0012963256031012626,
    -0.0020444544383103327,
    0.010437860461487146,
    -0.001329417605071371,
    -0.000509912077560789,
    0.006962093537329766,
    -0.0014920541325340116,
    -0.0023332613830461474,
    0.005011309640415488,
    0.0017417864972662262,
    -0.0006019537670494035,
    0.016113699575944582,
    0.0032633669302550724,
    0.006813416132312066,
    -0.004837495555581219,
    -0.008729630661139125,
    0.001824510032542737,
    0.01801868970324554,
    -0.005487973120665595,
    0.003828992333365635,
    0.0029235369678759526,
    0.017555476377230317,
    -0.0007249659797985472,
    -0.007350926187707033,
    -0.01619489115070338,
    -0.001240335108300601,
    0.003716696170815134,
    0.003286786838293337,
    0.0002880897013148527,
    0.009608961940793775,
    0.002823509155012277,
    0.005451826651092222,
    -0.019049159840435956,
    0.009554289247198979,
    0.0075950823259100545,
    -0.0026984843541389726,
    -0.007807342165051088,
    0.0036131586058168346,
    0.011788992899127456,
    -0.0022140417953433306,
    0.013081121894702192,
    0.011345292528835886,
    0.01067832236170938,
    0.009265342674655026,
    0.001508904553693764,
    0.005441794592619833,
    0.012763938600877852,
    -0.0004951820735744167,
    0.005828096704422467,
    0.0006941017273323722,
    0.008442888696571567,
    0.004961304523696719,
    -0.004655763844160758,
    0.011427207724174127,
    0.008830689131081036,
    0.00409753818434089,
    0.0002572987098988827,
    0.005264785730581701,
    0.01656072290991044,
    0.010019047525540968,
    0.0085728518054369,
    0.007170072053045999,
    -0.0007091370154594717,
    0.011423635232796846,
    0.001983757541392835,
    -0.003312384692407261,
    -0.015308833396041817,
    0.007671107839098784,
    0.013451139372609847,
    -0.012235315411722602,
    -0.013930688659537838,
    0.005220765927716232,
    0.012160153600774933,
    -0.005878139327851445,
    0.017156371841232004,
    0.014240435536784697,
    -0.005305900961198225,
    0.009792790635361731,
    -0.005107083516233147,
    0.007558500412218749,
    0.007064909711782368,
    0.00553051617770175,
    -0.006409103721554069,
    -0.001008346905171355,
    0.00879238095387843,
    -0.0047203919882608985,
    0.0010749371885004813,
    0.011581838923621478,
    -0.0006904557348837278,
    0.0035560740798022687,
    -0.0058952592783763835,
    0.008029146942873249,
    0.01396424604605581,
    0.007465580372274408,
    0.008386577370123365,
    0.009368922840838609,
    -0.0031130952929803593,
    -0.002145874902396662,
    0.009886298569527356,
    -0.004790393021304641,
    0.02495103372369351,
    -0.00952918098201781,
    -0.012112340968034947,
    0.009607313254034555,
    0.009304158957325094,
    -0.004022950182097006,
    -0.0086682846769455,
    0.01189163425634374,
    -0.011391535662340005,
    0.0032900467372450008,
    0.01400083166287731,
    0.010856137191475603,
    0.010299150553868083,
    0.0007286784815493679,
    0.010371672892368265,
    -0.006030084081008676,
    0.013580170363225097,
    -0.003172722975302873,
    0.006984734934080026,
    -0.0005254383625889355,
    0.016722207130423956,
    -0.009648218926557612,
    -0.00247943351696904,
    0.01079609927587361,
    0.004558838068833093,
    0.002008827029064203,
    -0.007819964686585407,
    0.001992118691753202,
    -0.005858347136841438,
    -0.0095828842740751,
    0.005700429574122048,
    -0.009858340739558866,
    0.007116442462144728,
    0.011904360501713864,
    0.013884893247260612,
    -0.01115436595770136,
    -0.0053747000237572,
    0.005350253120245989,
    0.004752348827654066,
    -0.005884902102700225,
    -0.00824973705256195,
    0.014720126282643763,
    -0.006890061732888461,
    -0.0014880207852124437,
    0.00644789214401572,
    -0.0009870259403170093,
    0.0029373784593757345,
    -0.0030750684392745506,
    0.009264521483897696,
    0.013520616554602318,
    -0.0031926208318769555,
    -0.0013412234625915557,
    0.0001391576806646797,
    0.005477541744734017,
    -0.0055289052712058735,
    0.005312195092036837,
    -0.004350081827575116,
    0.0010333597944418725,
    0.015022292721865527,
    0.0002892922076386976,
    -0.007065067369150986,
    -0.012945821233535913,
    -0.003649215889377155,
    -0.005649260668395933,
    0.00015669178928590677,
    0.009441450885213807,
    -0.006865592743094797,
    -0.007654633512582472,
    -0.009503700232435517,
    0.01140666533287699,
    -0.012302192746979248,
    -0.004718612901911955,
    -0.012470860200122474,
    0.017878922737450797,
    -0.005361773908893445,
    0.0009115514602827233,
    0.014517086802406064,
    0.007941836289694883,
    0.0015113399612940463,
    0.004952782672191157,
    -0.0007309383864664553,
    -0.01598194722487199,
    0.002144671823552105,
    0.008530663688892213,
    0.006087756762084942,
    0.007798603060671529,
    0.004817146640091116,
    0.005790295554675338,
    0.005702098785528026,
    0.006894431107518495,
    0.00630146361572158,
    0.008114265616409667,
    0.00679348535619542,
    -0.0023264143797103896,
    0.007702911813575942,
    0.009948859796857038,
    0.013316131071421867,
    0.005251977191655994,
    -0.005755005500663462,
    -0.001154003903728644,
    -0.00623264942123947,
    0.001863677401167084,
    -0.0031448351378322455,
    -0.010180247864123346,
    0.006195114191701149,
    -0.0119412252969359,
    -0.006270575477628706,
    -0.005782205306345718,
    0.009207691970587384,
    -0.007788920172649098,
    0.0004015910253724384,
    -0.0021121684929122676,
    -0.008414900763414118,
    0.00039322631227731695,
    0.00609868027255247,
    -0.0017991029090298808,
    0.009005943191613214,
    -0.0036904877832010384,
    0.005568784332261312,
    0.002350416621676336,
    -0.00885544266837775,
    -0.009436839200394268,
    0.007297253174622868,
    0.007836317445109497,
    0.0014973979838986073,
    -0.0034273437268876853,
    -0.006126132525740006,
    -0.003141481207127499,
    0.0019523166392203218,
    -0.013617625939105786,
    0.0006580711870172067,
    -0.004227552491583764,
    0.0007211555458515823,
    0.008146440392903883,
    0.003403853214468726,
    0.011277441097051024,
    -0.01715564636680104,
    0.013785276422342563,
    0.00619842667749899,
    -0.0022127468713939473,
    -0.007915884343510685,
    0.014363333695139455,
    0.005451033160609057,
    -0.0024609764059097395,
    0.01883304627030225,
    0.0015250691002214813,
    0.007268174511079972,
    0.013390815426225682,
    -0.0004239345389067478,
    0.00238388784157329,
    0.001699370864374221,
    0.0048532175362006325,
    0.008238788079507032,
    0.005199228872238585,
    0.007739337815820503,
    -0.002780609238731865,
    -0.00580176991107666,
    0.007575539079887456,
    0.002579000002632979,
    0.007615251035646957,
    -0.004853565816065473,
    0.007100599730133426,
    0.01865869082783184,
    0.010344815824830834,
    0.0010012518482702146,
    0.009214527196937768,
    -0.007865013790102165,
    0.0017602329649291893,
    -0.005308697120592246,
    -0.007758319065318668,
    -0.005775637041115286,
    -0.008869662550292359,
    0.001866844836224923,
    0.006235088266344338,
    -0.004589935982098517,
    -0.0036076392439878917,
    0.003091253843745056,
    0.0048468639482287,
    -0.005483033043822526,
    -0.007873721208748711,
    -0.0021262100559849284,
    0.0028320582683887675,
    -0.0025168699565780166,
    -0.00946714650634994,
    -0.007087074437055352,
    0.004688415526516825,
    0.008048737235698936,
    -0.0009438596853900195,
    0.01121350857343569,
    -0.012328953255058525,
    -0.008953376450544002,
    -0.009398594204339313,
    -0.007315531788722562,
    -0.007335128125778264,
    -0.0030876103586305504,
    0.004004533260446134,
    -0.00920964450102816,
    0.003203615386106197,
    0.0024984593892390973,
    -0.00915865451951226,
    0.003211297601899469,
    0.00252988522722937,
    -0.004345087035999892,
    -0.0002950044168807729,
    0.02245591338016733,
    -0.004897498282205991,
    -0.01404787748190341,
    -0.01694565495993576,
    0.014164472055249606,
    -0.004049069426519189,
    -0.011595919922228842,
    -0.008900202044519348,
    -0.0011617309995563495,
    0.007807378182936262,
    9.714023104768722e-05,
    -0.004365717656712505,
    0.006081589450414791,
    -0.0058418532590194736,
    -0.0033861174239805513,
    -0.005567044190180138,
    0.01161273211669179,
    0.005902398522652571,
    -0.00667977952241185,
    -0.0004297595624908702,
    -0.0010112187503308198,
    -0.005989709954847561,
    0.0009753265298705995,
    0.014088746789886624,
    0.017889441028608614,
    0.00803094883128997,
    -0.0019490470738196322,
    -0.003159530023563187,
    0.0006420661059585474,
    -0.011262861839341994,
    0.0007743887493477012,
    -0.004202288361840175,
    0.0029744963951873864,
    0.0031583455679116638,
    -0.0027001700799892526,
    -0.008173861784349012,
    -0.009441873609949506,
    0.0066375394236835835,
    -0.0026900422673873025,
    -0.009077381848563871,
    -0.0009140079623349254,
    0.009038389023975168,
    -0.008242556824151183,
    -0.005821797067945507,
    -0.007387574188708978,
    -0.011478605023302743,
    -0.008267598814986347,
    -0.006815923169303054,
    0.00047174110166090243,
    0.004976908685994078,
    -0.007327991305675792,
    -0.001899426043108401,
    -0.007167450736264469,
    0.0036777785512262114,
    0.001395231619037884,
    0.0038961129607155247,
    -0.001875581181865892,
    -0.003547912232810409,
    -0.0009030923262579027,
    -0.005118343471382908,
    -0.008086606293171022,
    -0.004535770778281357,
    -0.005732411855926556,
    -0.00587015214733235,
    -0.0008115446028308717,
    -0.0006234219343505545,
    -0.0016442385243550259,
    -0.003594011737626432,
    0.001140513864877854,
    -0.009389943527710267,
    0.006307156912123428,
    -0.0015940082803074641,
    -0.009361322886963801,
    -0.0010654750689697314,
    0.009360678840123546,
    0.003934144865167878,
    2.7191813986031554e-05,
    0.005237507115504129,
    -0.00974381495100897,
    -0.0032665453592053053,
    -0.00900416059411821,
    0.008837634182344166,
    0.006568633251948111,
    0.002245509583219404,
    -0.004563157888632725,
    0.006282855224706659,
    -0.007405045592525745,
    0.0019234150632547239,
    0.0010673878858687075,
    -0.007029950967250112,
    0.002915405486781668,
    0.007199227839783494,
    0.0054862924671394255,
    0.004901429143314453,
    0.021196644854110935,
    -0.013662374578362876,
    0.011686024665227248,
    0.006045561183854468
  ],
  "w2" : [
    -0.4273927293605015,
    -0.038066948858020616,
    0.5977359056928362,
    -0.6051185449090379,
    0.5014342360756886,
    -0.4142964080816945,
    -0.30181140141413765,
    0.5778547976506241,
    -0.355041273823064,
    0.28212623221913685,
    0.24691806713155892,
    -0.06923796369359905,
    -0.001136389904695302,
    0.8340486815907792,
    0.4587096119025668,
    0.6083728443791778,
    -0.0619180283343128,
    0.14056794839422307,
    0.5775720558717612,
    -0.40175538210212147,
    -0.4120479264200486,
    -0.20049916503200244,
    -0.4673650487650722,
    -0.10900977456863149,
    0.5233105677049322,
    0.29943758609406235,
    -0.7548153762782642,
    -0.08555212104575279,
    -0.38009997020378794,
    -0.454846288929218,
    0.045183376307014425,
    -0.45640624410981573,
    0.1384889065054923,
    -0.5870199198827107,
    0.7585975307210355,
    -0.007028220261422318,
    0.0983188647348619,
    -0.5465054579667302,
    -0.7299061963535787,
    0.28198685483347236,
    0.3080475474971764,
    0.40640400950561845,
    -0.47677913741791567,
    -0.5853472602267856,
    0.27577891561455925,
    0.2926897123592227,
    0.6727258403915892,
    -0.0543051281603498,
    0.020138805430507303,
    -0.019396251848476445,
    -0.019247361871409956,
    -0.02236280933858191,
    0.005905303020721833,
    -0.015984264357219023,
    0.0016364254392326196,
    -0.012967948515145794,
    -0.01063795911660109,
    -0.0002891148139102337,
    -0.0021763599334265133,
    -0.015867470599729008,
    -0.01576234167386301,
    -0.0004880644344803472,
    0.01679616759108975,
    -0.014935243552337468,
    -0.013703735631966526,
    -0.00040324700315898904,
    0.00538086134514873,
    -0.017768062625915414,
    -0.016391933710452538,
    -0.0050155745525063055,
    0.013163607138572243,
    0.012606472774979888,
    -0.004812201559415957,
    -0.002035227565242853,
    0.00038614060772764836,
    -0.01663578195210389,
    0.008172031747620845,
    0.0017682324295977823,
    0.007685369314202053,
    -0.0017193926131574295,
    0.012127942198458183,
    0.01520468478827195,
    0.0005265450363071102,
    0.0009128789180246149,
    0.0072576971962302625,
    -0.010404193916639543,
    -0.015943620505166123,
    0.01610637206236219,
    0.005406471482951192,
    -0.019634019755592164,
    -0.0020169578083858355,
    -0.014720235763240967,
    0.006306524907820255,
    0.012259718560587739,
    0.000861385144825033,
    -0.0054385320208131475
  ]
}