{
  "b1" : [
    0.030014850895691496,
    -0.16336189612343904,
    0.097882831608173,
    0.024807846367973674,
    -0.04031057341679506,
    0.194299802813141,
    0.25359598714795684,
    -0.18763727421944348,
    -0.05918934200770775,
    0.12511995291998268,
    -0.0597281355263351,
    0.044902380628412036,
    0.0943416793293342,
    0.10177365633622915,
    0.10405582006009677,
    0.25606293886283643,
    -0.13576118476346832,
    -0.012338930981877914,
    0.15669240126232378,
    0.1361358255218333,
    0.2561554765469458,
    0.1342078112808746,
    0.0800648764192187,
    0.18190337796216047,
    0.10943036342591289,
    0.21945717694993883,
    -0.06386950616619805,
    0.05402201003742438,
    0.018412706928943888,
    0.1390172770523586,
    0.13457978298004497,
    0.062097293783137754,
    -0.007378391395284735,
    0.17727466540350867,
    0.1612564871811764,
    -0.03812632022408923,
    0.056630141543465476,
    0.15786808832222965,
    -0.0693740453190514,
    -0.16717426103037417,
    0.12341251628147319,
    0.06547680587003578,
    0.254592622859751,
    0.02330248066570072,
    0.14041636599951737,
    0.24433602674042218,
    0.11882411250346189,
    -0.12212949054722205,
    0.009676904384623737,
    0.003336216098187766,
    0.007842593158022335,
    0.004226075379343024,
    -0.0038209117135516993,
    0.009316877455986444,
    -0.008189810200972758,
    -0.0014852805576241331,
    -0.007872405952797933,
    -0.007982980999390465,
    -0.01141821004413741,
    0.004291546960037614,
    0.010335122790682657,
    -0.007595734500164011,
    0.0100083574347783,
    0.006079524224112242,
    0.006013066744086923,
    -0.007768387750883348,
    0.0006574681293201178,
    0.0018485081709168232,
    0.006104473981097717,
    0.005142151270331065,
    0.0025652638560700295,
    0.007303752384404548,
    -0.009554319521040366,
    -0.008511486756521844,
    -0.010945765283555498,
    0.00946462418277839,
    0.007952550144671354,
    -0.007517259850229327,
    0.004151823724679625,
    -0.013388374318082206,
    0.009317525204361151,
    0.010972922165682093,
    0.000591300017859182,
    -0.01017243766085497,
    0.0005467553510709378,
    0.005433855813038818,
    0.007873360089252532,
    0.004963018630418752,
    0.0073602830762275325,
    -0.000635505339781675,
    -0.0029923374483612148,
    0.00763214392377875,
    -0.0036541804474817287,
    -0.002241505929518624,
    -0.012272347155793827,
    0.0037934785099236973
  ],
  "b2" : 0.02391481269579457,
  "feature_version" : 1,
  "hidden_size" : 96,
  "input_size" : 34,
  "version" : 1,
  "w1" : [
    0.25993911122812946,
    0.12618864429646665,
    0.22900592011223775,
    -0.4542983612261186,
    0.23351170409715488,
    -0.13421476239060498,
    0.000840512444575266,
    -0.23565718036725283,
    0.3000077103412665,
    -0.08783824340432698,
    0.43102370334047657,
    -0.12796285849157313,
    0.6785092340626313,
    -0.2066913262547781,
    -0.34561883043640035,
    0.00208310542969785,
    -0.24743969374589614,
    0.04070492320988189,
    -0.06359246483592479,
    -0.028758244006167517,
    -0.0037378719516122693,
    0.01847833188905382,
    0.04677289550305621,
    -0.32499777688345105,
    0.11919970268302749,
    0.386917928894381,
    0.029726141373231613,
    0.09300890437693611,
    0.20369081427160265,
    -0.10792511338124672,
    -0.45517562564829,
    0.14887219071054644,
    -0.012313365750941812,
    1.1635118127727293,
    0.06501006205763067,
    -0.17051131181247212,
    -0.022097863225944456,
    -0.09109366181555137,
    0.04521790351013365,
    -0.07703270642734483,
    -0.30121035779712263,
    0.14163305406097262,
    0.034306441834565236,
    -0.17499766442154005,
    -0.17081161107178738,
    -0.1349219409362127,
    0.01323434883322759,
    -0.08966971818042742,
    -0.2432547901066256,
    0.05629870233615977,
    -0.2662836622366981,
    0.18406432207359893,
    0.17706446083415864,
    -0.22891223381348677,
    -0.16863575175701137,
    0.19451665980255367,
    -0.22925162468543583,
    -0.014307464510745682,
    0.03334391757399967,
    0.12685728861203788,
    -0.0886256208735424,
    -0.06944004889470544,
    -0.025802194873991886,
    -0.004143612353081063,
    0.11224552469930102,
    0.012011718208079319,
    -0.03317532873226422,
    -0.0658353857136546,
    -0.07143600827601501,
    0.20022654687586566,
    0.006458703234398113,
    -0.036054248542278254,
    -0.307584356306191,
    0.1521335146133104,
    0.12866281772216223,
    0.08307108595947073,
    -0.2538874597852457,
    0.2773985199061626,
    -0.20852560937063716,
    0.17447586801165635,
    -0.579982998778344,
    0.2755584704406912,
    0.007732517492476878,
    0.26179158908553324,
    0.20946333154343674,
    0.3023809039702411,
    0.2202649114910986,
    0.19715831911410298,
    -0.12011007689041585,
    -0.17568095336256592,
    0.11258124894811723,
    0.09847750475997402,
    -0.1444356613007001,
    -0.2648988196611525,
    0.07865765164625492,
    0.39511120468522604,
    0.3536435378764521,
    0.38690179913882894,
    0.017445581352926027,
    -0.013447053774554319,
    0.3013909955430474,
    -1.2872962310266542,
    -0.26271562586849123,
    0.28522491408970474,
    0.2579614106964816,
    -0.42336861886741867,
    0.009034592697967418,
    -0.0929022614485507,
    0.24498816090721884,
    -0.25276951039747636,
    0.22815863943689696,
    0.0034219268724662885,
    0.25203521631849546,
    -0.07207092102059312,
    0.349852197561975,
    -0.02785801384312876,
    0.026466855910131107,
    -0.18590727415029587,
    -0.1807580403344312,
    0.27188037539794274,
    -0.05596777030651474,
    0.0290670870070489,
    0.07949724992902327,
    -0.007783001632953499,
    0.16234209645734776,
    -0.17050641066590266,
    0.1093387675484072,
    0.6500796595493002,
    0.21240050423342346,
    0.271077595141617,
    0.21618712037756088,
    -0.5661092056861037,
    -0.28283623038614636,
    0.22251233737548118,
    -0.13425654334036752,
    0.8415310282976536,
    0.16494409937991716,
    0.0525040646445084,
    -0.3720524992211688,
    0.24334633156728946,
    0.04474166301755466,
    -0.08161423683114022,
    0.3282174784887935,
    -0.1519389707829973,
    0.10691630004002656,
    -0.40324359835473433,
    -0.0716102443310519,
    -0.16958586175524243,
    -0.3807901235012532,
    0.10380227221438747,
    -0.23675830219202845,
    0.02693770300174882,
    -0.11388350123983859,
    -0.18580494347983678,
    -0.1482787576632707,
    0.11931264615574909,
    -0.22254184848657158,
    0.11579403265326126,
    0.009699703559085395,
    0.053697603091187665,
    -0.14924606179593225,
    -0.0441128500754481,
    0.290687186230635,
    0.3208305329428751,
    0.4676185744898793,
    0.2349267630137412,
    0.13425173389075074,
    -0.03260463311550451,
    0.3035003960040685,
    -0.9156261183819239,
    0.22512789562024843,
    -0.05240037823527284,
    0.11505731510395951,
    0.07336927627304186,
    0.15710900889116158,
    -0.03862323007335775,
    -0.03289634324093424,
    -0.008052232760301078,
    0.2617490140720758,
    -0.23158692620115032,
    0.26613280102790055,
    -0.3079420891413211,
    0.6621467828661588,
    0.06277300685517412,
    0.16342480599623296,
    0.16203090347623658,
    0.08338197487033272,
    0.1170702053235784,
    0.1440222853229271,
    -0.03307495738219737,
    -0.24859759790478697,
    -0.1375458493047588,
    0.27797033532775367,
    -0.16404659038709346,
    0.144201157896073,
    0.13288041937266676,
    -0.137628837752125,
    -0.1919589302238204,
    -0.03383085455702046,
    -0.17855650694223194,
    -0.1756444614964317,
    0.01826582035441951,
    -0.07553303113029787,
    0.7598079634794023,
    0.05168867976261747,
    0.12696603408569873,
    0.10275719239808967,
    0.05003773993565082,
    0.23960649100226047,
    -0.11066201949507325,
    -0.0787036724646432,
    -0.008091991481902499,
    0.28433683212907906,
    -0.042555753864419996,
    0.06026165145807419,
    -0.1866228572225758,
    0.6014095026045834,
    0.11727517351745581,
    -0.0369358741851344,
    0.11880115270031634,
    -0.11518607292142173,
    -0.1077016483111034,
    0.2271484285666544,
    0.08695781731168525,
    0.21930757578500645,
    -0.1210745366663228,
    -0.09156983981670437,
    0.10503825944761504,
    0.17091431076151462,
    0.09610801756484882,
    -0.09201212939125789,
    -0.3060473837800044,
    -0.2619693682436276,
    0.0842047439494956,
    -0.11544625179120367,
    -0.051062922635657065,
    0.1579248357698989,
    0.8269055278634089,
    -0.15121861351249824,
    -0.14519116446455854,
    -0.37103808979362474,
    0.3963160431177007,
    0.029934967296784114,
    -0.16677676799479502,
    0.0805877175848042,
    0.08834926070243969,
    0.016238847177438825,
    -0.06290227329014739,
    -0.14755146620124285,
    0.18818883004421683,
    -0.08158632182688398,
    -0.23957627221615777,
    0.17152967882779474,
    -0.23729764554965033,
    -0.018899326159951452,
    0.17067493421577942,
    -0.16912626614728926,
    -0.04378878256320711,
    0.08895539718996903,
    -0.04368375377041185,
    -0.2737072586553913,
    0.015349190449150325,
    0.228445344630388,
    0.07579509073750047,
    0.5942450805715447,
    0.34803340760778173,
    0.39249248940180165,
    0.17366422572620888,
    0.45945463797397246,
    -0.08526352598891235,
    0.02853712645052113,
    -0.34994311275928613,
    0.17018068455812535,
    0.05522740111111872,
    -0.12061221715125706,
    -0.1822089934822981,
    0.23749124390562149,
    0.10923994375721906,
    -0.06456503227657366,
    -0.161238141115413,
    0.12372153384233442,
    0.07187669383299373,
    0.09725241379945544,
    -0.10927102215601014,
    0.46343627203002935,
    0.06530065171474532,
    -0.24400912916767298,
    -0.11179005126085291,
    -0.35559922807925376,
    0.04824474743015845,
    0.14557318872140487,
    0.16820287841416773,
    -0.18871961524811043,
    -0.44049027525307577,
    0.24343920554931728,
    -0.26257689591584116,
    0.14961753986809456,
    0.5632660934877066,
    0.18298591828759522,
    0.19634634009856808,
    0.08693084465231206,
    -0.1102394995100806,
    -0.06348065613328112,
    0.07517052688777608,
    0.19790938161447405,
    1.0239231188019358,
    -0.05727930247627018,
    0.2244343855175744,
    0.11369011420972297,
    0.07780856146691052,
    -0.15908287203134192,
    0.033801493742505746,
    0.14289127278167826,
    -0.07811115238291942,
    -0.19281191895898497,
    0.19453651995060117,
    -0.182798401863925,
    0.1802489647770922,
    -0.3037580083665108,
    0.07168692314050448,
    -0.006506626986861258,
    0.2399545530587434,
    0.01694785253500776,
    0.3156083241808462,
    -0.07736795174197264,
    0.07222607645158916,
    0.08910598892186851,
    0.019869006379142965,
    -0.20382967713815325,
    0.05449956817555981,
    -0.035184352234942116,
    -0.12556796374257023,
    0.09216732684809956,
    0.17130285728044656,
    0.2616425794865751,
    0.10802366929479601,
    0.2933001543435172,
    -0.16023799408977446,
    0.11402296628646708,
    -1.1438993229677616,
    -0.025562771948591016,
    0.1585411236324944,
    -0.093956577095197,
    -0.15569861241271385,
    0.07178121079857794,
    -0.27968833780629027,
    0.052092234936371044,
    -0.06273877171497706,
    0.13514238601921097,
    -0.46805176052908426,
    0.1041676249713537,
    -0.14769077093877273,
    -0.18907610267698247,
    0.01130913163249379,
    -0.1107298395758509,
    -0.18561000732274222,
    -0.10024833570028636,
    0.0010007097806720635,
    -0.46798339145879464,
    -0.09104268266602544,
    -0.20595103157352407,
    -0.07461356455228839,
    -0.06405198373385973,
    -0.2361984855548352,
    0.23523263764193703,
    -0.16452549381520482,
    -0.14287002682795213,
    0.25389727341349405,
    0.03241248113672281,
    0.013813260441225706,
    0.29520384596158333,
    -0.02629950005262997,
    0.4027277256639545,
    -1.1157512680900314,
    0.09798678069173355,
    0.012561986561011288,
    0.2293107159179129,
    0.14837541925347042,
    0.14803078134571054,
    0.2910916731338998,
    -0.11855800080782448,
    0.13382505138136003,
    0.1818105920223684,
    0.17751081544280534,
    0.01744501465850997,
    -0.16778531319000237,
    0.4162424097413996,
    0.20030116893064484,
    0.2878155875001165,
    0.17998472634363544,
    0.05099425381063894,
    -0.05581784856357781,
    -0.09199430071368887,
    -0.06951026883250251,
    0.13196440793143982,
    -0.24463788141031154,
    0.2254855676043507,
    0.09485794398840966,
    0.08960770217036033,
    0.11231074286082876,
    -0.07940851591026189,
    -0.08208208087429145,
    -0.26830357634399915,
    0.20851233158959442,
    -0.08330311927683404,
    -0.15656621660196748,
    0.15671348434367446,
    0.5858876671243205,
    0.025235757446696868,
    -0.2231524683743856,
    0.16797125241690664,
    0.03741443389179289,
    -0.13142040855027529,
    -0.16440217079888336,
    -0.15347642655711746,
    -0.06624242728703685,
    -0.06580483186451223,
    -0.13356542504350707,
    0.09615711422197945,
    -0.015098897731948686,
    -0.15799116368118252,
    -0.12841643349004464,
    -0.20637417622770282,
    -0.16028138497361893,
    -0.09125527609365523,
    -0.11675104475598197,
    0.22330299316206126,
    0.10728784734492194,
    -0.08546107505606391,
    0.14619512748990884,
    0.1291724015826332,
    0.11287980378647816,
    -0.16926008119567384,
    -0.030601357408394918,
    -0.17037543502516106,
    0.03962270669189866,
    -0.15385102012600385,
    -0.10847973028335822,
    -0.12990453416815445,
    0.003067362127707817,
    0.025008992126054345,
    0.01136762217974682,
    -0.08339061636785246,
    0.20237920670751428,
    -0.16916500188557318,
    0.2964355903071922,
    -0.10008257710420987,
    -0.24354907962202638,
    0.13217500047444847,
    -0.11890504966384652,
    0.012625320248323059,
    0.06157885455918715,
    0.13047029906490212,
    0.2247045748680421,
    -0.761912824340448,
    0.3394714083646422,
    0.19346976457009274,
    0.040991600638851954,
    -0.18268034904369684,
    -0.23231504480567958,
    -0.15894838108318005,
    0.4111217325319279,
    0.3120629325728465,
    -0.07257941548648092,
    -0.001767761110932117,
    -0.026632633780335622,
    0.0485979108356011,
    0.013549460061980347,
    0.5407195812779766,
    0.6863591965370972,
    0.5222597745306559,
    0.042183879118812016,
    0.07616410146494833,
    -0.024116752458677736,
    0.45425901505899763,
    -1.1615947224513543,
    -0.5198905334736937,
    0.005175287245310194,
    0.3302946663473174,
    -0.6522778047400657,
    -0.29157408513035044,
    -0.031328945801442326,
    0.06073067230013802,
    0.17870753152861732,
    -0.07759305804415353,
    0.20606888476337307,
    -0.10130489985153165,
    0.030938236822496492,
    -0.4181834514235383,
    0.21936665681184953,
    0.06267332980528725,
    0.11567530790569083,
    -0.3830929113947001,
    0.07078321329378155,
    -0.09161744001209268,
    -0.2667820674014492,
    -0.06659163741518945,
    0.2070920375108387,
    -0.16460709626308842,
    0.21781721204521465,
    -0.1309986095809307,
    -0.32260002913095814,
    0.06890844157319401,
    0.2351560919168796,
    -0.017817538483872842,
    0.12296874515318505,
    0.2625506366541531,
    -0.08486928211239401,
    0.14347818923696143,
    -1.1594238075339565,
    0.04448756581201881,
    0.22760989890076433,
    -0.10568867076671477,
    0.2582221122979207,
    -0.05261346093772189,
    -0.02761044632627017,
    0.13565612032419183,
    0.07454555944095022,
    -0.06145828523201612,
    0.30670511237070947,
    -0.10630404641252636,
    0.2594056969787713,
    -0.6083955014600702,
    0.23589277566028413,
    -0.11099397618361714,
    0.16913724577399905,
    -0.07259526281363657,
    0.38561841583942785,
    -0.18426001715008247,
    0.10135146740918836,
    0.16802348245651896,
    -0.1374595940069888,
    0.13401569492259205,
    0.188127968610751,
    -0.09263831344660432,
    -0.2769908942022617,
    0.36775200158390137,
    0.4335276682141363,
    0.19719831512356056,
    0.10759188872038236,
    0.16722250630387528,
    -0.03845838003442704,
    0.05560107563282111,
    -1.2774784702947857,
    -0.03360014449028433,
    0.07923134559060552,
    -0.16423197461327355,
    -0.031670594085413215,
    -0.17596030739519933,
    0.07123204914863429,
    -0.08937394532801222,
    -0.22974736358492567,
    -0.0018887711479372929,
    0.04753696930965101,
    -0.00022677508495393226,
    -0.12897206831199107,
    -0.1119065600227663,
    -0.10663838251652873,
    -0.01458618788573199,
    -0.13304195190591345,
    0.06148107700857544,
    -0.04301001868000967,
    0.14026864099629474,
    0.027479330435080333,
    0.021285107850077332,
    -0.048069402682824676,
    0.0011830024735331511,
    -0.07082788591191029,
    0.045832804782435274,
    -0.012608078439683023,
    -0.1512806915993557,
    0.006009799081611134,
    -0.1318936533424679,
    -0.21563488999708327,
    0.07911336591056432,
    0.13775488828215535,
    -0.17767307250791392,
    0.20275865945892205,
    0.33941120973922545,
    0.10858931381319623,
    0.1489624607642819,
    -0.20189072616859524,
    -0.09569032300258337,
    0.20836628913587954,
    0.02447278496670866,
    0.2852488341637734,
    -0.009915373568453267,
    0.23985326870605128,
    -0.20515723676394262,
    0.17833123004858076,
    -0.06389569181887986,
    0.05674161797893782,
    0.17420078463281258,
    0.030117082943391466,
    -0.0636810633257551,
    0.21642936388526088,
    0.09270790764146958,
    0.16902141971352544,
    0.16896381196560337,
    0.4074230530799309,
    -0.05587083414345046,
    0.3545721476883986,
    -0.09903959148919986,
    -0.005287968756103801,
    0.005622517537883744,
    0.22294714055649992,
    0.4294931879410168,
    0.26869224721266877,
    0.1340626045171996,
    0.01271093032509037,
    0.2026981247577638,
    -0.625072890147584,
    -0.060680551319861754,
    0.07054452731967029,
    0.04348292914911253,
    0.28305253229155936,
    -0.2904852269451303,
    0.06336236259520966,
    0.10109940840402656,
    0.26347038871959855,
    -0.044300455412919416,
    0.3226497609657265,
    -0.03622401327871577,
    0.06940761080935927,
    -0.5476297100658366,
    0.3019970371767497,
    0.18621614923240398,
    0.26716663479863156,
    0.1683277574272277,
    0.021504630172866534,
    0.008710040520812338,
    0.25948108742804166,
    -0.16403614936182306,
    -0.057375064514604085,
    0.018182603120371246,
    0.1175595784252457,
    -0.10716216247879372,
    -0.30339903385895706,
    0.18979156816036208,
    0.43287281389717647,
    0.3013111650827069,
    0.3765031224678824,
    -0.041461926011143735,
    -0.19943644904320562,
    0.17576301929278165,
    -0.9005173443114438,
    -0.02422220431192935,
    0.12253515756370052,
    -0.14448326721628146,
    0.3505157202118978,
    0.4039642047691018,
    0.09696409015322675,
    -0.2885138156883968,
    -0.046735158647016314,
    0.3667146824460848,
    0.05232052652786409,
    0.08311628064913956,
    -0.2479770924549672,
    0.41296819056072814,
    0.0717886214089551,
    0.11663582732152215,
    0.2507178313779171,
    0.3227415694510937,
    -0.20195951076622973,
    0.3229494962721425,
    0.05509355367616346,
    -0.03633010424015079,
    -0.016794096603162813,
    -0.09929471638949416,
    0.16002858239953083,
    0.22413191888481182,
    -0.09072094182218797,
    -0.2868258378010432,
    -0.2818032361751825,
    -0.3982350146085505,
    0.059409081645269424,
    0.14820393580890265,
    0.010850188491803168,
    0.0695512311726953,
    0.521512710716576,
    0.42351920923831193,
    0.06559687136252222,
    -0.07310143851218555,
    0.060585277253185375,
    0.11558758960197311,
    -0.07768967720487273,
    -0.06588935999364992,
    -0.17148001361212195,
    0.13007012821452715,
    -0.10047283709552711,
    0.13703361506880812,
    -0.13691145971270974,
    0.7675127086823259,
    0.1481985434697487,
    0.0032131918055031145,
    0.19092404544287328,
    0.07066319868203327,
    0.09907450007304884,
    0.003934591854081505,
    0.08534895128876101,
    -0.019658474047051858,
    0.043404301887492974,
    0.058244386359892916,
    0.013582716628177005,
    0.08390795995310868,
    0.38288158656119453,
    -0.12249419647359908,
    -0.16482277825812489,
    -0.0631478109876332,
    -0.04642374590722991,
    -0.2580616068944295,
    0.13344269044242996,
    0.09204025522999938,
    1.0351060856472092,
    -0.18177788071721018,
    0.08595433624853586,
    0.13286655183481527,
    -0.07905991557647539,
    0.08524382653912481,
    0.039158313969360405,
    0.019068410089269867,
    -0.14411391283664346,
    0.0883027758533599,
    -0.2585645279416179,
    0.303724048656451,
    -0.14613674908718696,
    0.5064390786780663,
    0.09164629207906502,
    -0.0007068206078980082,
    0.12789453911691737,
    0.2545155367629048,
    0.06379628342695672,
    0.034676478827658425,
    0.07774587476482857,
    -0.05448691360572875,
    0.08678931729328339,
    0.03681304248164868,
    -0.014353513231399554,
    0.015797536680208585,
    0.11086955287424141,
    0.013608284742098499,
    -0.27417748540043535,
    -0.17006619645203552,
    0.03728211021617422,
    -0.07304344817728095,
    -0.01973975401213222,
    0.28221826804944633,
    0.6632870085534539,
    -0.3751134901212519,
    0.3248037438406581,
    0.010442991560384288,
    0.29973622473098793,
    0.32347149214719134,
    -0.18098166301809976,
    0.031604817084657205,
    -0.15824580756682452,
    0.06218218500068528,
    0.07269809686797256,
    0.1811667335476302,
    -0.3140155456794005,
    0.5675285201024667,
    0.3240599311311479,
    -0.1881974767545558,
    0.01328237231887574,
    -0.024936598392663507,
    -0.24777300316834952,
    -0.025134371851032317,
    0.38549374444282125,
    -0.28682973489545605,
    -0.19027339118025255,
    -0.0721566091285488,
    0.147039413108788,
    0.27142660584901146,
    -0.3403993029683161,
    -0.5738086282717693,
    -0.14738339781240864,
    -0.12123629490480137,
    0.14794798350391308,
    0.1050425368563552,
    0.052149243068677874,
    0.09170377699959568,
    0.858398613279515,
    0.36572638791785045,
    -0.17922392143371424,
    0.11077600246711079,
    0.07016664613281202,
    0.15777251625607006,
    -0.16030589362013192,
    0.10468582031572074,
    -0.12092295616609895,
    0.218748559901227,
    -0.25868651196358955,
    -0.027050444675161787,
    -0.3645043740597713,
    0.2767473616939682,
    -0.21260142930289302,
    0.1554675092705207,
    0.13144488979300187,
    -0.12068247111329351,
    0.07715643567083667,
    0.06511818544682378,
    0.07660094342330999,
    0.1639939817142036,
    0.01246078393781583,
    -0.08283542928889252,
    0.2127247393001991,
    0.36514103922215696,
    -0.0476384298076078,
    -0.08444529748503053,
    -0.22642147730023943,
    -0.08155376319991046,
    -0.0818530803536774,
    -0.14776732888698352,
    0.16127376715511174,
    -0.04562247939610833,
    0.48650061429885627,
    -0.029549256887073664,
    0.180943018460526,
    -0.42589451930520866,
    0.055170390849705715,
    0.1286683395099974,
    0.1954382283343794,
    0.185537289275548,
    0.02665824189418331,
    0.1344819920953711,
    0.08454145121832086,
    0.007305230814715154,
    -0.12915442008670514,
    -0.24477631128719404,
    -0.10140686801955676,
    -0.32024153804438277,
    0.2179932579968539,
    0.21862685654145964,
    -0.1453659841858301,
    -0.23790581040795347,
    0.4495482458937853,
    -0.443287221392976,
    0.10306289906620938,
    -0.07078593091344518,
    0.1642962053459296,
    -0.17330697963605063,
    -0.08940870167993853,
    0.4062760355308068,
    0.30842833926030006,
    0.4468673521378058,
    0.2463628815973489,
    -0.016307298593621507,
    -0.04379118525610976,
    0.12952131698580743,
    -1.1156562591290065,
    0.15296149380000837,
    0.15272715319619046,
    -0.2513752472835205,
    0.09803855993768058,
    -0.01862717459997889,
    0.05675508908232006,
    0.12165151139688571,
    -0.0027256782614439724,
    -0.10432389779168562,
    0.09943997183680055,
    0.006667355120393544,
    -0.09202392839593614,
    -0.00011941210433878406,
    -0.18361658428626598,
    0.27023193629893694,
    -0.03949691956388757,
    -0.1537015721820018,
    -0.02768042389899526,
    -0.17618887913121545,
    0.2750111183359526,
    -0.1063611320799677,
    0.03883771825664804,
    -0.0885756943403227,
    0.45203517410907407,
    -0.024720723249125314,
    0.015019302283355901,
    0.18741206931002757,
    0.0981202330132016,
    0.26220661950119967,
    0.13583836415426703,
    0.3990842212117481,
    0.006908690017519029,
    0.17020177057797034,
    -0.9294417028959038,
    -0.027797755538971878,
    0.19582510841601458,
    -0.5261454116997283,
    0.6718957418994993,
    0.09404738046019781,
    0.056100134753534835,
    -0.1299441969161691,
    0.2567208669768524,
    -0.15582199097390684,
    -0.18961021816679624,
    0.07654736568556761,
    -0.06887278683870929,
    0.2051091409000999,
    0.1312323526056801,
    0.10116278969847295,
    0.05360130617541575,
    0.02000171863490224,
    -0.18745740066690497,
    -0.22876598709961524,
    -0.2254171860591805,
    -0.2189212790221866,
    -0.04123761809462406,
    -0.13357752409950183,
    -0.10790020903099246,
    0.25277925753803787,
    -0.5585002586753472,
    -0.6739411503739481,
    -0.37795729796827354,
    -0.26315000836803615,
    -0.014627988295101545,
    -0.1351750937366031,
    0.08891097838765247,
    0.1681928539284274,
    1.003449328358984,
    -0.240593162336074,
    -0.07500179766033062,
    -0.11314592586943935,
    -0.10928190878577934,
    -0.05512800381723934,
    -0.14546681166017403,
    -0.14148403607752424,
    0.06815986996536938,
    0.11605993152718677,
    -0.10520457533604564,
    -0.09319052549711926,
    0.17118220396131112,
    -0.053650383470356396,
    -0.020525592822707935,
    0.006856780515283543,
    0.06365600264911424,
    -0.17692446693356753,
    0.0643393821264068,
    -0.24135439764061847,
    0.10538589451617436,
    -0.2092028101785212,
    0.039810083285889676,
    -0.10145051988302228,
    -0.1976170120132244,
    -0.18836887713584102,
    0.10135285655043624,
    -0.054650485884855535,
    0.035787053437941765,
    -0.11965788745487985,
    -0.21516030317090468,
    0.06693150423369978,
    0.03428382601993615,
    -0.16904765520945814,
    0.24590613763044739,
    0.23190579400506078,
    0.028116872630426927,
    0.22577160621862222,
    -0.3673045746472316,
    0.31541797338407157,
    -0.23001122212526917,
    0.00014569354880299476,
    0.05918866998047196,
    0.08449357992636886,
    0.09514341357777044,
    0.019435101354161335,
    -0.08279345601623679,
    0.48590020789703914,
    0.003681365356025004,
    -0.1732980966611509,
    0.18926772959867963,
    -0.33746335237126845,
    0.143385217372181,
    0.08376755200665043,
    0.18784427685063107,
    -0.1158851849503637,
    0.04203337419232861,
    -0.06755985786187722,
    -0.13317204894672824,
    0.024158712910845516,
    0.4127435814797031,
    0.17731470262727478,
    0.19313043899850255,
    0.2431172651634913,
    -0.16100831339910568,
    -0.07128319126119392,
    0.06735545604178662,
    0.18167727300718803,
    0.8880393883682262,
    0.14742709782478894,
    -0.1549576816666822,
    -0.34342701356225935,
    0.4353845759213024,
    -0.06165664700984614,
    -0.025923497255620757,
    -0.1188609471576346,
    0.10961939702915441,
    -0.39173940108432204,
    -0.2549431412532065,
    0.10274403381303647,
    -0.17936373721518398,
    -0.3054093284880813,
    -0.20525310059253685,
    0.29895124388282956,
    -0.0034949001649455563,
    0.1668311162863058,
    -0.08884085443880839,
    -0.06294217752948024,
    0.06962286542860731,
    0.007767767246812007,
    -0.08540409641707902,
    -0.00274188236920836,
    -0.12178464060286054,
    0.19522000945257625,
    -0.5648335629334629,
    -0.6221365806716546,
    -0.36949749446027325,
    -0.3371395535821291,
    0.04470277846119731,
    -0.12893324437330966,
    0.021366671388740818,
    -0.17639705936970523,
    0.07344268317749884,
    -0.12939044197660035,
    0.11691250827387126,
    0.21991737475553427,
    0.2248533721914017,
    0.007849381548769963,
    0.08527482920974433,
    -0.09035879069759654,
    0.23141723257785005,
    -0.05773486561475905,
    0.07858274683633747,
    -0.12257858183816361,
    0.1420440086714821,
    0.012027356268313975,
    0.16304698465727346,
    0.05566727088705427,
    -0.10941850554211684,
    0.12488458120993447,
    -0.0862656441542408,
    0.14243973503980342,
    -0.1963753603895104,
    0.1296249212635538,
    0.010368585777508002,
    -0.22302163383115345,
    0.11408291070432465,
    0.0031709227657707845,
    0.15479092680758663,
    0.06085016924804136,
    0.03495811501229786,
    -0.035809362439277286,
    0.025867660259654767,
    -0.05257953717086063,
    -0.009853736429744608,
    -0.16656343857253716,
    0.11046895389192452,
    -0.018671713464309365,
    0.01433126451383044,
    -0.243570305278214,
    0.5388137131870001,
    -0.01944836881454271,
    -0.12212037412612821,
    -0.019598340893469672,
    0.20589874627958524,
    0.14308005654158856,
    -0.24566144173198556,
    0.2174613028039952,
    -0.04948952678113439,
    -0.13387375213101882,
    0.1880302938217934,
    0.1510951630118547,
    0.03623746636452477,
    0.3411686054352928,
    -0.09623964602076791,
    0.02579361444866624,
    -0.1921691052761347,
    0.3589938172186608,
    0.245519647792959,
    0.13368837142369397,
    -0.17591522681708277,
    0.22591299933863127,
    -0.5700181575677027,
    -0.9087905608550713,
    -0.5804978645225224,
    -0.3892962942584421,
    0.05289456275140994,
    -0.15179063981522228,
    -0.08087878473604418,
    0.07212052441716357,
    0.5781104336933602,
    0.39433377635837596,
    -0.0857270365386372,
    -0.033705694741828884,
    0.12123606214457162,
    -0.043573120789223395,
    -0.03346422194621151,
    0.08831298259347484,
    -0.19306216773376936,
    -0.01955757897334603,
    -0.1696097787985842,
    -0.22589177071876695,
    -0.08030468850468904,
    -0.4017829632635385,
    -0.020047672285683858,
    -0.030430711985222472,
    -0.14499205770725618,
    -0.22034137629236122,
    -0.08087207573440205,
    0.002804887622218763,
    0.017374600561408465,
    -0.17249204358689613,
    0.035267718854067966,
    -0.0665307081537345,
    -0.14685192623915344,
    0.033972615891337835,
    0.011754602531538214,
    0.21822145274240068,
    0.17099150147241618,
    0.16664633393909892,
    0.17943133390506066,
    -0.04901304855487486,
    0.05612842898693544,
    -0.14535880570060536,
    0.041291885437004454,
    0.19711210665563472,
    -0.12936500497933393,
    -0.317641095642937,
    0.583726798438711,
    0.13499172921998837,
    -0.059043439773516754,
    -0.160966168117073,
    0.0015537291243496827,
    -0.14308095994509532,
    -0.23545307886292685,
    -0.2144300799394125,
    -0.09654415166263806,
    -0.5025400309358439,
    0.12894486881754474,
    -0.04210289483374357,
    -0.09028761083487863,
    0.08461791657765465,
    -0.20065485411831863,
    -0.02549246931062152,
    -0.11816477035209769,
    -0.004053980674285355,
    0.14263198368574134,
    -0.13589737982182118,
    -0.05604393568156348,
    0.1745219210433913,
    -0.5870319555439719,
    -0.5706768133822073,
    -0.6071688690081747,
    -0.7213618976941274,
    0.08005387445316249,
    -0.016318335636823965,
    -0.07614085223760664,
    -0.10942985523776483,
    0.1938854230525107,
    0.09341825222122863,
    0.2529501212747889,
    -0.5361048827713367,
    0.3855297024887023,
    -0.029801444052486976,
    0.07248095933661189,
    0.3004116539513539,
    -0.21052428114548652,
    -0.01580469171052996,
    -0.16067161360291568,
    -0.006458017404998745,
    -0.08037073026880706,
    -0.25935954764420316,
    -0.013967890224302646,
    -0.2827168559063936,
    0.18048172871241314,
    -0.052592259410000786,
    -0.22675633789284427,
    -0.42278438226569065,
    -0.037435936893800356,
    -0.1401819637907889,
    0.011484509784571965,
    0.04737249982402039,
    -0.008924940419016923,
    -0.32418948501808365,
    -0.1326110336583733,
    0.5398680229589237,
    0.8242742888835484,
    0.6323988455282384,
    0.0262491242222751,
    -0.045817930939870015,
    0.14860991660703435,
    0.2795678517802952,
    -1.236608170137752,
    -0.11894862539820382,
    0.009140833134944732,
    -0.07744983690555335,
    -0.15455518402152363,
    0.032934779470318566,
    -0.11352814000488384,
    -0.12675306727877528,
    0.06820899083693968,
    0.07132452552258084,
    0.13783120437132554,
    -0.12784631811854255,
    -0.1859365211932174,
    -0.011646042631974116,
    -0.20458271562907385,
    -0.03887613709038913,
    -0.2511516323814741,
    -0.1474751677846435,
    0.03858239524715828,
    -0.000547480197309464,
    -0.059621204264324885,
    0.09450112908683103,
    -0.1144326010411368,
    0.09251128594047088,
    -0.1767732680732316,
    0.025473787444991652,
    -0.09684998131414006,
    -0.12604076370029219,
    0.0209981363787972,
    -0.22325247714733057,
    0.034950774299767916,
    -0.1327747460118231,
    0.09071324749593379,
    0.05717732204358821,
    0.02861964310885436,
    0.030593233433207214,
    -0.17014840463516304,
    0.29297081850904455,
    0.09815104385236953,
    -0.11773642022263475,
    0.006377990340029319,
    0.20074837647797963,
    0.09008071484221335,
    -0.11951425036517226,
    -0.01811447188846302,
    -0.19095273843327953,
    0.1817904743249576,
    -0.36260277190647683,
    -0.0014734163417663875,
    0.028086007099084778,
    0.10540315036742143,
    -0.1111268491289079,
    0.14256366869585502,
    0.0978943760364414,
    -0.09310682273606653,
    0.1994125469070313,
    0.24264803423960157,
    -0.09582201983855484,
    -0.15025714386044065,
    -0.08947518842922544,
    -0.1837707914320563,
    0.2295705177942645,
    0.24781991427203487,
    -0.09280627604686063,
    0.25599754975585726,
    -0.030670002195100535,
    -0.0764543305795185,
    0.0029049051958847847,
    -0.6261952572572702,
    0.43755052579530546,
    0.08461693422793713,
    -0.43116977254823935,
    0.3337796253564923,
    0.3562930688687398,
    0.04503535936259511,
    -0.09494204206767151,
    -0.12081983144297453,
    -0.03422560998998699,
    -0.1753054426264183,
    0.1312712439399579,
    -0.05861271239146224,
    0.5017400702723112,
    0.2390733435022653,
    -0.20139352966868937,
    0.2639396191545498,
    0.14082450078304254,
    -0.26610239022787785,
    -0.22935161056710737,
    0.03364978078078379,
    -0.402301586829789,
    -0.2374901797277452,
    -0.1679094156243567,
    -0.15516196436174784,
    0.06715677560258103,
    -0.3411129674515269,
    -0.49585144202757675,
    -0.2302979898126226,
    0.07462227798957764,
    0.14963541886750578,
    0.2100609971156904,
    -0.04813754997176716,
    -0.040603982417911834,
    1.1195048290591376,
    -0.19564648168927481,
    0.23686534060989914,
    0.2941049319448297,
    -0.2431990385380989,
    -0.07809796755334475,
    -0.10961482729227978,
    0.005151517228780493,
    -0.20782923637614945,
    0.022804672246200773,
    0.06157627572304566,
    0.22614060642798528,
    -0.1544729508790025,
    0.7342955488023579,
    0.002282687038767618,
    -0.15053510250248184,
    -0.001671026804953849,
    -0.39330874781393976,
    0.20170784145421847,
    -0.049923168774010915,
    -0.011330313825741956,
    -0.029746570121988603,
    0.0326087924309855,
    0.09351590866958269,
    -0.3110446938272728,
    0.027432317412835618,
    0.6870433067846817,
    0.23142486430100834,
    0.25861406285513855,
    0.12181792341756385,
    -0.47392193103445995,
    -0.24322460952183203,
    -0.007639436959464993,
    0.00037151646018755523,
    0.9113934214242783,
    -0.09482702683596864,
    0.3035391980507274,
    -0.1454240388828399,
    0.305926815350853,
    0.17444622560006603,
    -0.2644901147524963,
    0.15841571843135072,
    -0.09259963475776595,
    0.14385913227197505,
    -0.49712316936025913,
    0.1346134433717573,
    0.013803939182295758,
    -0.21440555542855302,
    -0.08996085028029478,
    -0.06705640788931744,
    0.07376565980080282,
    0.14034345820648772,
    -0.1771446900021275,
    -0.18718382471803788,
    -0.10991526515216488,
    -0.10792401382914608,
    0.07071050875202127,
    -0.1289048791819331,
    -0.20173763515762916,
    -0.0029382205082957584,
    0.024625671751291968,
    0.25217779581127575,
    0.19157774976414355,
    0.2888530763690336,
    0.05931532075941984,
    0.1355304725788673,
    0.19763341897831885,
    0.4115624173676339,
    -0.8431284627903775,
    -0.22031895283172276,
    0.13757297369365132,
    -0.3009148598944312,
    0.11153239382666517,
    0.23135418801846708,
    -0.2788405492823631,
    0.27664681498331095,
    -0.06170228585047833,
    0.04154474150083872,
    -0.02493681355651854,
    0.08229442696920514,
    -0.16610558312883378,
    -0.14584850607274719,
    -0.1354124575763706,
    0.019667641930913842,
    -0.17448475576404224,
    -0.18063411618905903,
    -0.09209439503684955,
    -0.3548836843707746,
    0.14452631617789846,
    -0.12126591667787007,
    0.12151257974205319,
    0.16527612733283142,
    -0.18928120752782412,
    -0.09445676984565497,
    -0.038233595689590415,
    0.17837079985048715,
    0.2484721960082394,
    0.07091940671707204,
    0.028201842927723143,
    0.20001772445363816,
    -0.08264217354131231,
    0.3294522266053704,
    -0.8828175421634409,
    0.09527114109860338,
    0.24262904298521304,
    -0.05972874056209969,
    -0.24817060251982376,
    -0.11609912623834952,
    0.3155005153885799,
    0.16046656983729804,
    -0.1759583316564702,
    -0.08901892209898653,
    0.13605570942346565,
    -0.05775633462643967,
    -0.19896760584254752,
    -0.22658835455035306,
    -0.01732218396627905,
    -0.04311412989990998,
    -0.07842298609619894,
    -0.21998652482811504,
    0.3242292830830495,
    -0.09083856348470336,
    0.01986342193990996,
    0.04485033810123981,
    0.03499160835832219,
    0.2065238395599781,
    0.10271763151795169,
    -0.3989225997243652,
    -0.21592089952363974,
    -0.11261255074788398,
    0.1550540132618321,
    0.16511071567613378,
    -0.1330712856070379,
    0.1413693624181709,
    0.02384906763657622,
    0.14954571889376325,
    -1.136606469308663,
    0.09302729140343019,
    0.17609686582162032,
    0.22292342316928238,
    -0.24874392838534157,
    0.16042680956418875,
    0.06544983382041011,
    -0.06724648891630625,
    -0.04819465789558072,
    0.11176717612862042,
    -0.015182609221038252,
    0.3196891840894405,
    -0.07567958154058091,
    0.6479670330387829,
    0.014564334726615648,
    -0.20101903437098606,
    0.06297390798123301,
    -0.029796071344031057,
    0.053461198381821944,
    0.09611633932727555,
    -0.05243486477978826,
    0.10087344152999718,
    -0.148084184229753,
    0.0059608736564426695,
    -0.06902284166158874,
    0.5263725084282813,
    0.38735945838288177,
    0.17310252542384014,
    -0.01910404093642724,
    -0.15075317297541302,
    -0.1798874607417386,
    -0.0006667930727698298,
    0.07713542096420745,
    0.20120937151728813,
    0.859638611059421,
    0.06977550116276116,
    -0.23061903428728306,
    -0.5599354518210211,
    0.31978020909525623,
    0.11793779761857354,
    -0.04680301382768111,
    -0.3691298428555394,
    0.2289622914016435,
    -0.12652511017917248,
    -0.378992583938609,
    -0.07653826030897923,
    -0.47789023609449044,
    -0.8134659168794331,
    0.09999594634041283,
    0.10379331324753044,
    0.15498036720970268,
    0.3547447751873719,
    -0.34684833143611904,
    -0.37207725009977377,
    -0.2428459115144849,
    -0.4332321201591425,
    -0.0170795951432566,
    0.28641648044839896,
    0.008752771696220333,
    0.1978115324243376,
    -0.8334789903430307,
    -0.3701822299760082,
    -0.4215555052450432,
    -0.6119611129691955,
    0.329180002956336,
    -0.22227072410323387,
    -0.15171972344599072,
    -0.33442442863083793,
    0.30364384329740246,
    -0.11660759905012257,
    0.09365230777129979,
    0.07492124982952249,
    0.15753341374894556,
    -0.16788873879847993,
    0.024809705719945504,
    0.10335927581505334,
    0.13648279168673086,
    -0.12960501850322917,
    0.13345399187353849,
    -0.11513823555407014,
    0.17981135051064498,
    -0.4889048812029506,
    0.11407554331129431,
    -0.0647128709509128,
    0.20310337049796615,
    0.07965833295092499,
    0.16099422409681796,
    -0.1287892689891371,
    -0.15464766972820126,
    -0.11521859071626256,
    0.2535916621634995,
    0.17456922020929275,
    0.11770882817956266,
    -0.20811007709161825,
    -0.3038337482659678,
    0.32023606743044924,
    0.3162571477190804,
    0.3231862002169684,
    0.20060354133580238,
    0.3288080657560992,
    0.07606670032377486,
    0.15947616213535956,
    -1.1488495473000742,
    0.0861480156740823,
    -0.003482937920542238,
    0.17310066230360016,
    -0.02779371809507431,
    -0.12700937160050046,
    0.27731704520727013,
    0.04211507515629008,
    0.27585249263931944,
    -0.22921844591848461,
    0.10316716676971033,
    -0.10801933660522939,
    0.26108771365695116,
    -0.19529236286233,
    0.09330468098128568,
    0.3627957836593786,
    0.2173437034733354,
    0.03484609833798519,
    0.034047327254421514,
    0.05096601617883818,
    0.05379942040015847,
    0.04434013035744861,
    0.20907499880116928,
    0.039323133119540575,
    0.3415020721011534,
    0.06384921061560994,
    -0.1795603522311996,
    0.14695263515283716,
    0.15050067987969154,
    0.284659659126969,
    0.18409676521863866,
    0.3854926983213508,
    -0.02230758455966952,
    0.08737551696628332,
    -0.8229711934488592,
    0.042242912490688775,
    0.24401612722321994,
    -0.1522124882827857,
    -0.2826803531768855,
    -0.07093385649319946,
    0.09258790910371908,
    0.12140053191299109,
    -0.08155385953941247,
    -0.047339420410644234,
    -0.005631674224292446,
    0.15489269536132844,
    -0.11552207875658806,
    -0.4827925454181346,
    0.23619804524587992,
    -0.23359270739535176,
    0.12338509165149907,
    -0.48518197254293804,
    -0.18910525027227473,
    -0.15121572623853882,
    0.23628571140067833,
    0.4364659158889511,
    0.1924595056790982,
    -0.1533837286499777,
    0.21307579539155183,
    -0.08015600068633752,
    -0.286305322389087,
    -0.1938435249486745,
    0.36446894307257655,
    0.2497365895901022,
    -0.012485001996675417,
    -0.2106309910106206,
    -0.03595400396289638,
    0.3007790211319263,
    -1.0270489243430456,
    -0.0895369114818568,
    -0.06434153097678529,
    0.04373055063220389,
    -0.13881078077550524,
    -0.07778683288768033,
    0.040103951990440645,
    0.07183085714183447,
    -0.17660606028262732,
    -0.05411418583384371,
    0.10190912479858832,
    0.07264434242453735,
    -0.038074548746065806,
    -0.03590225116073725,
    -0.07351659592903809,
    0.19052870794259308,
    0.013701517616574043,
    -0.079124714618942,
    0.30293294693418976,
    -0.26338810709528926,
    0.016881168210751554,
    0.0012471088905892788,
    -0.068457096633502,
    -0.10697021195631964,
    -0.09424781148696286,
    0.17009636357666771,
    0.2384024501408532,
    0.1688995765125336,
    -0.1920955612212575,
    -0.008731192143547737,
    -0.1417948951004736,
    -0.15822027978984116,
    0.039429869949625315,
    -0.1267702977215001,
    0.09897253405386038,
    0.004105262586805443,
    -0.002534056831158913,
    0.01476258625203912,
    -0.01111612363746288,
    0.0221367851188296,
    -0.003224529903971754,
    -0.012721958851061374,
    0.014611699686394917,
    0.014708456058973942,
    -0.00693457609317506,
    -0.005905643652881017,
    0.007375327146679039,
    -0.007919764393583337,
    0.010965530113131108,
    -0.0011855587822122485,
    0.009994376270785353,
    0.0022716522923620554,
    0.0063880633497479045,
    0.01313817599811784,
    0.009110745663538354,
    0.010617870599215226,
    0.0012439994824865056,
    0.0016357405774261183,
    -0.0019384176207845826,
    0.012481060415941873,
    0.00022235427309837212,
    -0.00478619729355213,
    0.005870544419455036,
    0.004073555961042773,
    0.005319487408280162,
    -0.01879336002904197,
    -0.0029705297843789654,
    -0.0040236327243613305,
    -0.012431646612597774,
    0.003939073205214586,
    0.0091794577282821,
    0.007992951461248027,
    0.009069221121252621,
    -0.014418491639490853,
    0.012521524367092914,
    0.00961513468931767,
    -0.004851973627690405,
    -0.013357862518005333,
    0.00424948223425197,
    0.005436965238022654,
    -0.004400129458315863,
    0.01550084584405264,
    0.0057402574751780336,
    0.008610641995419051,
    0.00822493086806622,
    0.002601584048201562,
    0.005877677136160498,
    -0.003083509203830598,
    0.005740925632019866,
    0.01272292712589289,
    0.0037724854140528453,
    0.007812585592435538,
    0.009478062766779512,
    -0.008391113268968166,
    0.005263599736586092,
    0.009433488023266351,
    0.0013823107778479708,
    -0.003845443250853271,
    0.013586439617759129,
    0.01984117169603641,
    0.007834225344502295,
    0.006072682333434545,
    0.009024530680643178,
    -0.0006269571063395988,
    0.007445601492190875,
    -0.003465133776151593,
    0.008004883422562038,
    -0.02135484130663024,
    0.006887783831094188,
    0.010951619619146976,
    -0.002432350836879047,
    -0.014232901979829774,
    0.01412656443166444,
    0.0014526716657233753,
    0.0027092134666660975,
    0.010716061313166315,
    -0.0013960877211128607,
    0.00581289993855896,
    0.007485515772676965,
    -0.008539356660180785,
    0.010183395513903818,
    0.0010688882555939005,
    -0.0003575278162498235,
    -0.0013688391836693711,
    0.012411931418336151,
    0.0021374559550984985,
    0.004672942269260125,
    -0.016809834901556762,
    0.0034645151216810685,
    -0.0023479487085140706,
    0.005230950821891664,
    -0.004725526321903225,
    0.0115850401992523,
    0.015409909680132838,
    0.007019286634221185,
    0.009483464265040657,
    0.008165980127359494,
    0.008563402035716882,
    0.0049152166745810065,
    0.0036107388228069077,
    0.00770841507356729,
    -0.022976906195683888,
    0.014341726589242473,
    0.009341056215431878,
    -0.0060513388356655835,
    -0.008857733059916549,
    0.0060286042373653625,
    0.006814840495465029,
    -0.003617222764584474,
    0.018598311763157575,
    0.005666511227175471,
    0.001583548179683996,
    0.010342621923900477,
    -0.0024253814386622184,
    0.005974302508155068,
    -0.00672118675716899,
    0.006089186420136743,
    0.01015575880908238,
    0.0005824313434785144,
    0.0027172454775035043,
    0.00782334720419161,
    -0.0033963813207074024,
    0.007219407768658453,
    0.00545908600452069,
    0.010977244118578967,
    0.0034769980264269065,
    0.015171293154053361,
    0.021708931356382882,
    0.007769030568769914,
    0.007911899257317207,
    0.009583898646178354,
    0.003003577681862331,
    -0.001890656881037319,
    -0.0021003854603001554,
    -0.005858835844512959,
    -0.003703889203335544,
    0.0021375031142297956,
    -0.005853317899591618,
    -0.0056254983510533475,
    -0.005298982719902696,
    -0.0038301266677467113,
    0.0013675012818376417,
    -0.0020050231007131417,
    -0.0037255016433796837,
    0.0007462185961201936,
    0.002218988584306196,
    -0.0037196860185372232,
    0.0030899352414664846,
    0.00027094685621169377,
    -0.001741556546301656,
    -0.002878449642505724,
    0.0012157119292368049,
    -0.005472062291056913,
    0.0020423065765872443,
    -0.003025739154410336,
    0.0005535805876649864,
    -0.00439666842593452,
    0.000492697308283661,
    0.004017389089495655,
    0.0015743929771222152,
    -0.005990115803546337,
    0.004381019054129237,
    -0.005835068676270369,
    -0.0023518855726336603,
    -0.0007300966059582173,
    0.005890308256447741,
    0.006512990746841256,
    0.006125858871548117,
    0.009747153683302482,
    -0.018142140354285973,
    0.009865613369191109,
    0.016906455339787733,
    -0.009027264276058026,
    -0.021617656609286093,
    0.016480025207634603,
    0.00858144387041785,
    -0.008214014699477775,
    0.014274566915508087,
    0.007444144064790265,
    0.010872156250598139,
    0.010306611969098415,
    0.005192833981756756,
    0.008927276416262042,
    0.0048197542108502555,
    0.0037180121444310914,
    0.005757852018037667,
    0.0033615216839868963,
    0.002139985907164049,
    0.003000950828511025,
    -0.006126495496535767,
    0.014326894397249698,
    0.0012667461378561271,
    -0.003847072673613933,
    0.0008490971426999846,
    0.005537422433764279,
    0.012033087262090285,
    0.002415284393492808,
    0.009287354337627618,
    0.010139815597755394,
    0.0009408316121288146,
    -0.0005850373250323064,
    -0.0021156726906958975,
    -0.0072551310662121934,
    -0.005884093275743012,
    -0.00031585162090299115,
    -0.0071162430065584495,
    0.00880010245697262,
    0.010211631983101436,
    0.0025364201772732522,
    -0.003609054818404156,
    0.013816602380849622,
    0.000977958635713093,
    0.0025100661680249373,
    -0.0019893004113946135,
    -0.00031705453644301836,
    0.004856107939956071,
    0.0015971089989222991,
    -0.010684523470649228,
    0.0024303087198647468,
    0.0010879138396277708,
    -0.005696364121081375,
    0.0004432608738061293,
    0.014963833235426256,
    0.0028683869431721807,
    0.0006725287058226965,
    0.004424015971354533,
    -0.00020014753106734783,
    -0.0068691634018953765,
    -0.006923980132690189,
    -0.008601493035151038,
    -0.007628721470005152,
    -0.006711015036388476,
    -0.022190446092533192,
    -0.00556882897407516,
    0.007709720443451281,
    0.0009203062350553032,
    -0.001565099911615376,
    -0.011692656864028742,
    0.020321425739785983,
    -0.008459159470003936,
    -0.007650429595763657,
    -0.011009710788929773,
    0.015456790786121945,
    -0.007550708618457058,
    -0.009474666617753043,
    0.012847350083215232,
    0.00322073729177506,
    0.009498899577682168,
    0.003043580765889315,
    0.0029877079682441407,
    0.0010142995469907014,
    0.013140259838689442,
    0.0009761706245534257,
    -0.006925086096238096,
    0.004580204326292918,
    -0.0005223740438941856,
    0.002797123459396788,
    0.00495014421862284,
    0.009564821556499965,
    0.01174741881375145,
    0.00020582294583667765,
    -0.002769315206243318,
    0.0007321951987780918,
    0.005559804187963322,
    0.0067800059665514825,
    -0.00958984963358943,
    0.0026922831577158497,
    -0.005623801115984016,
    -0.0007566707313458578,
    -0.0035240581341441893,
    0.011245273226716456,
    -0.005887826512965015,
    0.010960599793826012,
    -0.005409157185854571,
    0.0020318079346422686,
    -0.001305530676061543,
    0.002514041190457007,
    -0.0004953015555220311,
    -0.013728624006108666,
    -0.003736030903914657,
    -0.006254156807082648,
    0.0015677442289974107,
    -0.007079399031759305,
    0.010723537967213152,
    -0.007391145474273111,
    -0.006660287376897189,
    -0.0013174444446625696,
    -0.003186075710772052,
    -0.014436791033167924,
    -0.007210256104485828,
    0.005547745910604381,
    0.006988191798706825,
    0.012753932658949628,
    0.004061172354099108,
    -0.0084201357500976,
    -0.006246674660894561,
    0.0036688482873123394,
    -0.0025862270253293514,
    -0.003024905232349268,
    -0.007472155163632497,
    0.009853552083105404,
    0.00330860963417446,
    -0.007992981114048692,
    0.005621716862755596,
    0.0005313039063057879,
    -0.0046935178309344995,
    -0.002641852997414072,
    0.0003846001424182637,
    -0.0008935317057932184,
    -0.004154030993450392,
    -0.005449012807685887,
    0.0013610436935593882,
    0.004991089544138599,
    0.0025198464536409157,
    0.0009164701724582354,
    0.01187500581643576,
    -0.01686333617291502,
    0.0019480234455074986,
    -0.001492751479302732,
    0.004567707638738657,
    -0.0022141485645487727,
    0.014229955643599378,
    0.0072133934409691755,
    -0.01003991810438817,
    -0.004948892114073721,
    0.0010122886550541902,
    -0.0004143011739480492,
    -0.0037653583947946166,
    -0.0005111031950987881,
    0.008237061395868384,
    0.0015428355319022104,
    -0.005492327483172221,
    -0.009675796304296543,
    -0.005300437685695451,
    0.002566084427247126,
    -0.00022352193310939923,
    -0.002372028464499482,
    -0.0016362503345989812,
    0.005999797384225678,
    0.006208085483305318,
    -0.001901626524185237,
    -0.002590667141371612,
    -0.010075980902434301,
    0.0025076824845588026,
    -0.007745709925804073,
    -0.006413245824597337,
    -0.0018532991522509507,
    -0.010661562769605303,
    -0.008541778146290901,
    -0.011870189579461182,
    -0.007540245583942918,
    -0.0060701705682433115,
    -6.898955314577548e-05,
    -0.00500773131952016,
    -0.005985248527834281,
    -0.004622032342547451,
    -0.0029358368255171722,
    -0.0019608824718817773,
    -0.004727791472008863,
    0.0022866259128084304,
    0.0016761045335343693,
    0.0029276560360442473,
    -0.01057701755895528,
    -0.00012204619353231867,
    -0.006330461592373327,
    -0.0035602516377918553,
    -0.0058903560468751195,
    -0.005663497722610491,
    -0.002730740068917361,
    -0.0004259661551529399,
    0.00595626904476163,
    0.015397515398815297,
    -0.004546012612369483,
    -0.017967938453241242,
    0.007107907258262381,
    0.013473629516593366,
    -0.007391593282452825,
    -0.013185064877634099,
    0.016792125287123802,
    0.015084228231324182,
    -0.008072416446941916,
    0.016747353194174232,
    0.0013230069262142904,
    0.005096323319419995,
    0.006780418843059312,
    0.006190910866150792,
    -0.0027708932944337044,
    0.010148622024393221,
    0.010434618196874792,
    0.00015686126845027777,
    0.010777243956379502,
    0.0058857202992517515,
    -0.0036250591490145723,
    -0.009724547319031945,
    0.009447134122321696,
    0.005005772119296564,
    -0.004753016015113756,
    -0.0008541432743617313,
    0.00909706874224787,
    0.019716138894583922,
    0.007161102978128786,
    0.007995849033935085,
    0.009576076559134216,
    0.005867043131877956,
    -0.0034262654250552796,
    0.005137036530358175,
    0.0018065684517129274,
    -0.017604925255768938,
    0.0074883653576289805,
    0.012252993429825837,
    -0.007629212534553383,
    -0.006395539316287263,
    -0.0012229872727645035,
    0.01716462795403617,
    -0.0007149021322798837,
    0.011848719768567769,
    0.0014321248536304447,
    0.009016612088920644,
    0.00410237376065173,
    0.011117507356800367,
    0.004333415985633069,
    0.003939352233632079,
    0.0008115109983483953,
    -0.002062845717785491,
    -0.006177209825432226,
    0.010918433105463319,
    -0.00013735578516858014,
    -0.006961472458750449,
    0.0057808111567964554,
    0.011334021895775856,
    -0.0038587762966300516,
    -0.006612954210103906,
    0.010381623163657693,
    0.016714732468212933,
    -0.002959296268985644,
    0.006870967055463148,
    0.007098831185493164,
    -0.0024489266548631283,
    -0.0005325784573080347,
    -0.001996953085287621,
    -0.007916108401738765,
    -0.010728750905342688,
    -0.0032995406668531718,
    0.001162824396833678,
    -0.007955702054224441,
    -0.0012744873346913356,
    -0.01112812801503208,
    -0.0004503582037471679,
    -0.006564819028590854,
    -0.003743056439263057,
    -0.010906235621398211,
    -0.004337740188491913,
    -0.0034906149216926826,
    -0.010966034223909307,
    0.002484373866810335,
    -0.001281940302654383,
    0.006849410046855278,
    6.15956827142063e-05,
    0.001073018281960012,
    -0.0027325543566296354,
    -0.010408130887813866,
    -0.007660927732018893,
    0.0006545694204589355,
    -0.0054316534458104535,
    -0.005075053270924574,
    -0.001694016793920405,
    0.0023645331932282613,
    0.0006617869613439303,
    -0.005643708756739487,
    0.0036438444458392473,
    -6.566252841130371e-05,
    0.004798145238470078,
    -8.225340778363206e-05,
    -0.00018113352612994076,
    0.0012115003616209859,
    0.020423659389919756,
    -0.01619677799183087,
    -0.009797134436853384,
    0.010015011146758101,
    0.017734880287180073,
    -0.01483897028526407,
    -0.0072420034397274145,
    0.01057339959459143,
    0.001212859389387462,
    0.008860905853634448,
    0.006781365293790812,
    0.008450952069722698,
    0.005597062522177341,
    -0.007404259758945575,
    0.007996146936263694,
    0.012369150420231621,
    -0.003091915414753315,
    0.0002793095412838254,
    -0.002650436653780998,
    0.009638771825212512,
    0.010411449472593063,
    -0.003453529795454698,
    0.00022182052530424296,
    0.008652398453104872,
    0.016952448835575038,
    -0.0023477688401662977,
    -0.01120897349185984,
    0.007964839820398825,
    -0.010598027911506845,
    -0.002284355758472132,
    -0.0009698785966391078,
    0.006441269752744243,
    0.008879107958762613,
    0.007665603615764354,
    -0.021809834117294025,
    0.013341825433673217,
    0.009331645061849874,
    -0.0011278034498392547,
    -0.014248842403415491,
    0.0086263871498133,
    0.013482773316434195,
    -0.001543730838445608,
    0.01491533155322266,
    0.008947570010697669,
    0.007196507458104602,
    0.002484919892464331,
    0.0051954564953556335,
    0.007221292447557637,
    0.004763033883454815,
    0.006416607756687603,
    0.008207124548053352,
    0.0027016812571368145,
    0.005671831997346899,
    0.0065184884707070005,
    -0.005756396926963163,
    0.013070971447849876,
    0.0011034093623032853,
    0.0018531970518357286,
    0.0014022338840456888,
    0.007051720176166473,
    0.01828629523881509,
    7.34161817696233e-05,
    0.005249307916622792,
    0.008147655415242186,
    0.0007179511841649948,
    -0.0026996428045036763,
    0.012123601685332103,
    0.006872199277964009,
    -0.015099028337112384,
    0.0072476621300328085,
    0.011133105293788446,
    -0.008355750084968906,
    -0.018744781237033492,
    0.015681965658755168,
    0.012360717102165325,
    -0.0024985247226147695,
    0.01770653124698532,
    0.004825584987513658,
    0.008294024074575112,
    0.0070328973001387305,
    0.01144598214461054,
    -0.0006750695634447191,
    0.007678623958958761,
    -0.003366285947215639,
    0.006378460122288304,
    0.0024215141650390615,
    0.0013545565180386086,
    0.013227226269118274,
    0.0015332920111445943,
    0.012924881633149966,
    0.005808274688198094,
    0.0007085305907216288,
    -0.006125902154934334,
    0.008038035344749991,
    0.016267753393390212,
    0.004043901450015809,
    0.006712720914439146,
    0.01289438213349206,
    -0.00028960675426289214,
    -0.004865860600345982,
    -0.005595591448018251,
    0.001832092397388655,
    -0.0036661873389853103,
    -0.005048231187581657,
    -0.007955491606307357,
    -0.0006811226533953241,
    0.005786784365019292,
    -0.008477662515178702,
    -0.005898157917219112,
    0.003620867440592596,
    -0.00848748441336613,
    -0.004252590346883944,
    0.0028154293470826087,
    -0.009856694036840594,
    -0.008760938302092281,
    0.004654731998718786,
    -0.0012815279976139717,
    -0.003935128149345524,
    0.004288294895902233,
    -0.0056603963870284196,
    -0.002987309267544865,
    0.0016650876382670902,
    -0.010197957016467982,
    0.0030880789448837634,
    0.0005460890897334044,
    -0.0017483612355245304,
    -0.00842469711639993,
    -0.0079766239048056,
    -0.0038663643557388895,
    -0.001067009938082032,
    -0.0011963753959669554,
    -0.006960148930681308,
    0.004432110831873636,
    -0.007286238996216114,
    0.0035260510179326654,
    0.008503554681879336,
    0.01313022123240171,
    -0.009084056161261244,
    -0.0050618638412969885,
    0.010279306652586634,
    0.009906103809371545,
    -0.005149901352125934,
    -0.007519017374342809,
    0.013899111878151977,
    -0.007356549364195248,
    0.003111636664308543,
    0.006657592864590246,
    0.00569993619835932,
    0.010141682003179995,
    -0.014488850269215944,
    0.01817769567132248,
    -0.01136930847196851,
    0.006658293475929532,
    0.003991185863713751,
    -0.004899794524278754,
    -0.0047695547365593565,
    -5.4356574089628543e-05,
    -0.0015834994452651487,
    0.002130837486491933,
    0.002753741629242384,
    -0.0025547968084951656,
    0.002756611046273348,
    -0.0009544020482411594,
    -0.005458629960368069,
    -0.008190564356093149,
    -0.007794222274262505,
    0.006419373744395281,
    0.003336210776762182,
    0.012795924832450553,
    0.004450465675349252,
    -0.02044588831896297,
    0.009498788880776349,
    0.015491961870217622,
    -0.011307045653442227,
    -0.016034921254119344,
    0.01596272689237698,
    0.01786638302506376,
    -0.008059182741621778,
    0.022022660036673292,
    0.0075482965464687525,
    0.006640931973504273,
    0.006842738611712129,
    0.010323374838383905,
    0.003575294381357764,
    0.0026877285154009536,
    0.0034025431902075195,
    0.005867596214685247,
    0.009423484254063693,
    0.007757970079935809,
    0.00011939547704619635,
    -0.005305167025682672,
    0.010485677047936955,
    0.00839879350826398,
    -0.002024070205880156,
    -0.005523025638787433,
    0.009905961759849346,
    0.01616679350860009,
    -0.0011977107617538814,
    0.01081438415420062,
    0.010825964672207852,
    0.005635342224749634,
    0.007147282776478052,
    0.0071130299230410645,
    -0.003162525813826607,
    -0.01968896851812955,
    0.015519338521233406,
    0.008464035994408795,
    -0.010628064081461497,
    -0.013729336970972231,
    0.016713887040707233,
    0.01706389914557992,
    -0.006579349800840583,
    0.020664997498113343,
    0.011532401358501525,
    0.004048118873957496,
    0.010940336659907778,
    0.006482181253538287,
    0.010003787098241327,
    -0.0016109258362556264,
    0.008419546845864444,
    -0.0033312652685308706,
    0.0033242152305712072,
    0.013149544913161287,
    -0.003246999906388463,
    -0.003923595456307054,
    0.004643957682893649,
    0.004898711540341437,
    1.029117135295588e-05,
    -0.005274513534897403,
    0.01024324130261634,
    0.020395615961448794,
    0.006497126479263664,
    0.001320747933947827,
    0.007930668352021058,
    -0.002717064585781997,
    -0.0022167673536213827,
    0.0066984335033876685,
    0.00966413294122545,
    -0.0070842110879365035,
    0.00579144404728602,
    0.003747751509894726,
    -0.0005326483888167605,
    0.0018406785111230867,
    0.009468308014957348,
    0.011383707999312686,
    -0.004849213966136416,
    0.004749517695185501,
    0.003857389019007738,
    0.0058008257056084275,
    0.0049599217574198395,
    -0.0008326915756825785,
    -0.010758813319089544,
    0.0022685161931548323,
    0.00868419116384744,
    -0.005399138200811088,
    -0.00013758544964271726,
    -0.012273184089258739,
    -0.001960077246093089,
    -0.0013560678756167227,
    0.008731549688543895,
    0.008280632994231004,
    -0.00017131924125115573,
    0.002762711526042932,
    -0.0006855646076502,
    0.003286763147534221,
    0.0036498044228907896,
    -0.010969069580669998,
    0.0029304854032308906,
    0.0045012109778986235,
    -0.002384751834975987,
    0.004994110183409485,
    -0.007960688118989442,
    -0.00346697985230383,
    0.0027519817990894267,
    -0.0052718297333695634,
    0.010387212316362726,
    0.0019303045978504448,
    -0.0002540808847872394,
    -0.0009797219790978215,
    0.009196310594826246,
    -0.004144880944398395,
    0.0010721357218927171,
    -0.0020320195246819168,
    0.005782926777710498,
    -0.009032060814211446,
    -0.013885285443278104,
    0.01686324402183977,
    0.001892792988430723,
    0.018678524839467064,
    -0.008524167756931425,
    0.006242525660831388,
    0.005348103514627878,
    -0.000813308161521843,
    -0.00041680763774338273,
    -0.006786740768932811,
    0.0029660191168429132,
    -0.003965865216858309,
    -0.0036717648807324805,
    -0.015277144689320591,
    -0.009970036371961258,
    -0.000951738585418722,
    -0.004904161171046178,
    -0.0041640196495992795,
    0.007947110228005363,
    0.004886021767161074,
    0.008772832307259393,
    0.0243284845859111,
    -0.006633970127937145,
    0.004022834659906619,
    0.0021848180936882913,
    0.015347921810748394,
    -0.004492387585399517,
    -0.0050328033296084445,
    0.008985425041630612,
    -0.01009347919265556,
    0.015469227325602195,
    0.01128182441806237,
    0.0076024864703161535,
    0.006099749554579564,
    0.00644283248148696,
    0.002550496806066808,
    0.00837019328790512,
    -0.000826298152904971,
    0.002074123952862077,
    -0.006144499796201546,
    0.014536540512715199,
    0.011426417987359718,
    -0.0063050489598677996,
    0.008827971556207369,
    0.0036865281247541373,
    0.010781099188078694,
    0.005799642429960107,
    -0.009664998773237924,
    -0.002456717902545702,
    0.003211720832147332,
    -0.021587467621763307,
    -0.006945606950961981,
    -0.005397971680940085,
    -0.005314979110154905,
    0.0046955783529151664,
    0.002930733911313751,
    -0.0018043583834283301,
    -0.0027010533700091107,
    -0.0004360627449080489,
    0.0005886604435128152,
    -0.010211974406501236,
    -0.0033242349687047294,
    0.009613874027310319,
    -0.009649930571910601,
    -0.0058718535715312666,
    -0.006172030053876296,
    -0.004073335038626226,
    -0.0005432457890212353,
    -0.004285912697630556,
    -0.005657238784969544,
    -0.008941870324082028,
    0.004012554887802045,
    -0.0014606792581281574,
    -0.004630803199256702,
    -0.010731416337340377,
    -0.010394779751719378,
    0.0026464734522994443,
    0.005031728264778722,
    -0.0038736058536908437,
    -0.0025458008991490148,
    -0.005549912555042389,
    0.0005501747442370878,
    0.0017905317328843282,
    -0.00621011097391102,
    -0.001274356320562386,
    -0.003099570794053079,
    -0.007530154834544502,
    -0.005397903441525889,
    0.005861760834528509,
    -0.0005757698245629537,
    -0.0013178604242512046,
    -0.005191343187533038,
    -0.006601004478800766,
    0.0009811714396124112,
    -0.005237962590409215,
    -0.001200821580444951,
    -0.003200198508812477,
    -0.0011953537975344607,
    -0.01051220879931762,
    -0.008501909780681983,
    -0.01110306927273653,
    -0.006912328438830526,
    -0.008893157455871001,
    -0.009029668422348138,
    -0.0022608007673881685,
    -0.003926969142965192,
    0.00044927315827813494,
    -0.0027768718213140435,
    -0.0007948985965306177,
    -0.0018412455380107794,
    0.0027424821819452844,
    -0.006808959103779788,
    -0.010924441676358315,
    -0.0030385418822261234,
    -0.005865297390473384,
    -0.005264450172561902,
    -0.00537384551056804,
    -0.0029500317682046888,
    0.004445341558030761,
    -0.007375184150161049,
    0.0008034512555004159,
    -0.010949638002707453,
    0.001200898914385244,
    -2.5737334198920824e-05,
    -0.0005026740214756876,
    -0.007992947954110628,
    -0.0005245293827249416,
    -0.004367138652911274,
    -0.005472155011615709,
    0.0054985473135072665,
    -0.008861209882365393,
    -0.002424600035522752,
    -0.003135744934736436,
    -0.008402376801861955,
    -0.0036644229214613587,
    0.00011452420230501984,
    0.0002211270692104836,
    -0.0009167233695130507,
    -0.0009210656872406043,
    0.0012257063879865338,
    0.0006377292681108927,
    0.0018543043579096993,
    -0.004209314044943547,
    -0.005799382916551327,
    -0.004407406027093318,
    -0.005292114486871729,
    0.007640902603410843,
    0.006719837305495093,
    -0.003887370117947679,
    0.0036821293157579733,
    -0.0037109778648820257,
    0.005005662217411252,
    3.806534298089622e-05,
    -0.0030421625239987157,
    0.007994205796118755,
    0.008950378952964603,
    0.0028598949728572682,
    -0.01972451408093033,
    0.01407087723401086,
    0.0120109227823556,
    -0.011111140852099816,
    -0.01755724817902521,
    0.012231502113934548,
    0.01198311178600645,
    -0.0034159313248945376,
    0.018437800547970826,
    0.001247645072287985,
    0.004213751170900702,
    0.0076883588736698484,
    0.012052969780122403,
    -0.000528717405047596,
    -0.0063042463548779034,
    0.006079890965343638,
    -0.0003921957241343566,
    0.0018030705527972816,
    0.005224831453415679,
    0.010491513096306642,
    -0.004024135586138504,
    0.0076896374103923755,
    0.00240987995688129,
    0.001182354796528913,
    -0.0003962259146105634,
    0.00964286585771728,
    0.01648205285363843,
    0.004984722378279334,
    0.0017706832692924027,
    0.01248207899699522,
    -0.005387912220685615,
    -0.004957091152433064,
    0.008421185380252704,
    0.00576454293804806,
    0.01727234881764977,
    -0.005344102078558061,
    -0.011943109994295556,
    0.00647062973161186,
    0.010541132507468158,
    -0.004857623899372323,
    -0.021400197962833722,
    0.012096643517995935,
    -0.004012774272218994,
    0.015201211580432444,
    0.010926236916290863,
    0.0009907619621139473,
    0.005542787904334992,
    -0.012331325219913284,
    0.019937181268736514,
    -0.005022008570940452,
    -0.01033297627008552,
    -0.0006544336246631302,
    -0.008224745786834796,
    0.01228168589553662,
    -0.0026511318626303987,
    -0.002821301205720372,
    0.0016106215844633577,
    0.013717334969575418,
    0.00807774542564644,
    -0.004286963725453723,
    -0.013946797208128078,
    0.008128274745497259,
    -0.005855471825408646,
    -0.01414970898970056,
    -0.003297705151919943,
    -0.0016224621599934732,
    -0.009035409217449062,
    -0.005384272890323821,
    -0.005202926078510562,
    -0.0034256078950677666,
    -0.004369431919900971,
    -0.0009098087115997965,
    -0.004881269195602554,
    -0.0004499225052944359,
    -0.005363481119160634,
    -0.006321378073472785,
    -0.005915901826256778,
    -0.006551515920680235,
    -0.006815882300828746,
    -0.004985004611406068,
    -0.0029754302893401276,
    -0.00034777430275179615,
    -0.0015663051780740777,
    0.004495916348350499,
    0.0008154573232464728,
    -0.005206381247940025,
    -0.003524888557763927,
    -0.005619142697287695,
    0.0006989194635950686,
    -0.007693522876643609,
    -0.0011490617212664412,
    0.002346002633072716,
    0.0010579399480052127,
    -0.0040849517316011025,
    -0.0032814407043224043,
    0.0025240926458847297,
    -0.004214174641974285,
    -0.001207069968843721,
    -0.01059024734194629,
    -0.0038791500651809323,
    0.009719241928230867,
    0.006652783944029688,
    0.022079564420861376,
    -0.010493936098514584,
    -0.001357633818455168,
    0.013035130927985429,
    0.021150505425424043,
    -0.005784037057043828,
    -0.007923271302681553,
    0.005307268594695731,
    -0.0014804256929543405,
    0.0006176908666770701,
    0.0005156839436955151,
    0.007183644881794639,
    0.007361947889818427,
    0.003220066430420821,
    0.0063551550253695185,
    -0.0016795608249489471,
    -0.004574516741761518,
    0.0037738034907548856,
    -0.012296298030727584,
    0.008768337628672218,
    0.005772834818798679,
    -0.00710632128374664,
    -0.0002594560958445205,
    -0.0022719259350883984,
    0.003357252305548089,
    -0.005277967689701819,
    -0.007633569116881374,
    0.004012559638483253,
    -0.00377793112512691,
    -0.009318767065560223,
    -0.0037195029405238233,
    -0.0022543091306527424,
    -0.00010917073827613878,
    -0.00041535806547819123,
    0.0009843493052514873,
    -0.0057239541432631555,
    0.0021407492360950727,
    -0.0024291080095220244,
    0.005316614051366546,
    -0.0034632532366237873,
    -0.0009553149101877642,
    -0.010188596488437457,
    -0.0066350057893180036,
    -0.009269589789401338,
    0.0015720186386335479,
    -0.003904197450943672,
    -0.0066172613106081895,
    0.001372890325161247,
    0.002606308609020609,
    -0.0026386690798237225,
    -0.002506650424296993,
    -0.007290404227811522,
    -0.0021919657779761906,
    -0.006189196243024572,
    0.007756517712615781,
    0.0032474693239413783,
    -0.0029852677393753424,
    -0.008580995063356557,
    -0.003048319124077966,
    -0.00195848677103217,
    -0.0018133095713581452,
    -0.01120668610909037,
    -0.004375365237368008,
    -0.0077109656627790445,
    0.002607875875351749,
    0.0038378010481310877,
    0.010660620394839967,
    0.005613160226249956,
    0.022885819638487095,
    -0.008499495561199312,
    -0.010257568661316734,
    0.0038401756262620036,
    0.018822969781907863,
    -0.009104604149834085,
    -0.010438381624810988,
    0.009336469576287292,
    -0.001810466209713076,
    0.011294153638208454,
    0.01089410438294264,
    0.0011109344556261072,
    0.009415265393583755,
    0.0027071580341756713,
    0.007632390546419178,
    0.004911918334482844,
    0.0054910164757823185,
    -0.0016350009478411918,
    0.005626825076939271,
    0.015152835721657442,
    0.005234427657373928,
    -0.002381399558051297,
    -0.0004202593528951994,
    0.013064034564954136,
    0.007069767093647019,
    0.005171893507464994,
    -0.014114361970429513,
    0.012005135107249666,
    -0.0006638483820901952,
    -0.009525506791735163,
    -0.004717871804208169,
    0.002473013600446838,
    0.01658193442794758,
    0.007989876243503986,
    0.02345606587808172,
    -0.008202954983959444,
    -0.010398577832899823,
    0.014510151757792787,
    0.014523817747472231,
    -0.005839900715638746,
    -0.00827143144893854,
    0.009015346525116959,
    0.000769177119606048,
    0.004515913276815566,
    0.008625587601521106,
    0.003133071685994379,
    0.0101036570137875,
    -0.010006120667091053,
    0.0008364248916478717,
    0.005299110896083016,
    0.002624488413623537,
    -0.00130393956239413,
    0.004294081261139232,
    0.010964976298071381,
    0.005374504232763624,
    -0.007135152191767713,
    0.0017872324874332124,
    0.011349810141931791,
    0.0037725823755012855,
    0.000818164510569403,
    -0.016114855243166033,
    0.003935511175643425,
    -0.0023289754498300487,
    -0.011574286382856246,
    -0.002953635994563861,
    -0.004861833093501336,
    0.002417159645387722,
    0.0009310551061982455,
    -0.009895270454063495,
    0.002127968323537215,
    -0.00498196894621969,
    0.004955667043964708,
    -0.010830815431299568,
    0.002612302050078227,
    -0.007535441381272472,
    0.011960738481161163,
    -0.0030892919569824265,
    -0.005240322930826013,
    0.0070418346203582945,
    -0.004544619981888057,
    -0.005473272596927051,
    -0.013793842923152267,
    0.014619649548406685,
    0.0031424361854441056,
    -0.003832596429692654,
    -0.0008745006499622422,
    0.0007206278701961469,
    -0.00040077853659947543,
    -0.0006046952218843546,
    0.003301119814899126,
    -0.002663274087844691,
    0.005221461369299599,
    -0.001219154181817315,
    -0.0021555513345132616,
    -0.0025657171977108316,
    -0.005771693242294686,
    -0.009719084138288299,
    0.0018026261114569805,
    -0.004750357038320049,
    -0.00944547559604458,
    -0.00820655562771465,
    0.0025745557445933415,
    -0.002274406835269973,
    0.005359736514759573,
    0.004373505592690708,
    -0.0017971502289492007,
    -0.010766412417834992,
    -0.0054619013510184096,
    -0.0011249680786465076,
    -0.00694658991268331,
    -0.007612425528022168,
    -0.005455722429956549,
    -3.9043267786772776e-05,
    -0.0023583747190049904,
    -0.005731349797593832,
    0.0044988456278096806,
    -0.008804265143695669,
    0.0010431593925102017,
    -0.0010123504028845282,
    -0.0010700954942471036,
    -0.007296201081604635,
    0.0021778640399734415,
    -0.005707326665853178,
    -0.0037387128305089194,
    -0.0004131163775748161,
    -0.0004872431523602181,
    -0.005035590225743557,
    0.0021465070746981402,
    0.0044122325478975315,
    -0.009122942816336925,
    0.005960831184685446,
    0.005738533224140602,
    -0.01077198515220032,
    -0.009355948968509772,
    -0.0013389065474158385,
    0.0011915860659253107,
    0.014459019583442895,
    -0.008393845831924346,
    -0.0028833257387798276,
    -0.0005521616237596098,
    0.012668879741369267,
    -0.0020801114472453544,
    -0.0014976765353036082,
    0.008624831187035808,
    0.001010864395748523,
    0.00011184403796399768,
    0.006585062553641935,
    0.00432413003949607,
    0.0006441212016595323,
    0.017431405270995973,
    0.004820442861931458,
    0.0069192342381794334,
    -0.005418702037162294,
    -0.007403339818143059,
    0.003458412729403933,
    0.0185012902934491,
    -0.005243140266096392,
    0.0027554328645881475,
    0.0033071224975983454,
    0.019845121020722438,
    0.0019435570004669874,
    -0.0056012083592458265,
    -0.017688160773113595,
    0.00039622202901497424,
    0.004002530021223068,
    0.0014065354638676173,
    -1.698613458562656e-05,
    0.007256527997243308,
    0.004330873998980255,
    0.0054518263065264335,
    -0.021432513879790695,
    0.010683989289132228,
    0.010003496472933651,
    -0.004957124704055085,
    -0.010234357014446102,
    0.004847111031294438,
    0.014271664378796834,
    -0.004788209240092079,
    0.011931410901568292,
    0.009092900998493818,
    0.011973287844809874,
    0.006839977455247961,
    0.0023365567094308505,
    0.005441794248697783,
    0.012763937794201194,
    0.0007115296968347016,
    0.005828096336086408,
    -0.0006840352324915003,
    0.005989703618249393,
    0.003577979459187212,
    -0.005282441801013829,
    0.012250990062069853,
    0.008827343329292234,
    0.002668441828266127,
    -0.0018572958397409455,
    0.004072763083579536,
    0.019199938726606178,
    0.007653831300333352,
    0.010776155295062331,
    0.009817810584588417,
    -0.0007091369706404923,
    0.00908929194232065,
    0.0038478850835443825,
    -0.0018331774243370705,
    -0.01728656166756058,
    0.008803881212795135,
    0.01585243325324604,
    -0.014611607979632886,
    -0.0160143111858931,
    0.006474105420523591,
    0.014597516308217819,
    -0.008309068167887604,
    0.01618548500417325,
    0.013446811718908987,
    -0.003933473936441807,
    0.008202933575959703,
    -0.003555970170863659,
    0.007477889263101601,
    0.008723742717918252,
    0.005520108045354397,
    -0.005206935077697554,
    -0.0006395966991594702,
    0.007699831261505105,
    -0.004601936714101128,
    0.0017123904279032498,
    0.01233569840973365,
    0.0008080597987532588,
    0.0024108052659004816,
    -0.007784369224553557,
    0.007573629873795289,
    0.016585575856171708,
    0.0051483810074132936,
    0.010549033506901886,
    0.01201275927840018,
    -0.003167451669735706,
    0.0003438418642084227,
    0.012656230431371089,
    -0.0059698697994484805,
    0.027231503807531688,
    -0.008996530990590465,
    -0.014342901773578897,
    0.011839483998272463,
    0.011691504378301756,
    -0.0033950748988737394,
    -0.010832906388627083,
    0.0144311088634421,
    -0.008690235589419707,
    0.006202171861034274,
    0.015316856934675934,
    0.01370143956683638,
    0.010951978938204248,
    0.0009350167705304454,
    0.011251832623685286,
    -0.0032778373343161243,
    0.013634844594603754,
    -0.0007795460112140519,
    0.009942143954757506,
    0.0013798085164636621,
    0.017819016330773475,
    -0.009600440654605495,
    -0.0010837313673841818,
    0.01283041943762757,
    0.006885180547681846,
    0.004632945362632325,
    -0.009721917699932149,
    0.003862794289745608,
    -0.003764273138432918,
    -0.012197722319722085,
    0.007155610751680751,
    -0.007516072902308968,
    0.008715361235381346,
    0.01190435974934292,
    0.016585689744195487,
    -0.012112138071321766,
    -0.006758077383912553,
    0.007091794600772752,
    0.007541545799342861,
    -0.006542842306604804,
    -0.009870897948700719,
    0.017214728951821176,
    -0.0039067589205962865,
    0.0011404121596616207,
    0.006335958277851735,
    0.0022235313688937558,
    0.002236487432662935,
    -0.0017103546271770272,
    0.010446209754105212,
    0.013336173359882905,
    -0.0022158276509603113,
    -0.0003513641549314577,
    0.0017640811186684577,
    0.0073224583014149846,
    -0.0034444160450755766,
    0.004553599713525419,
    -0.0053894622946956084,
    0.0036331966266870967,
    0.018066077410791685,
    0.0030095614494597763,
    -0.008156432996432957,
    -0.010248301529626611,
    -0.00298653611445753,
    -0.008355365862107274,
    0.0005225448365011694,
    0.007138737577306283,
    -0.005267267882728312,
    -0.007604644813434351,
    -0.011588857111290594,
    0.012525777242337336,
    -0.008985705301275682,
    -0.005834619371644512,
    -0.014634763467793093,
    0.019135828969568,
    -0.0029567688446627614,
    -0.0007678919521673126,
    0.01350726273809058,
    0.00687829942261239,
    0.0014186289223337633,
    0.003825645148435583,
    -0.0013320453482220844,
    -0.014178363429631163,
    0.0006499119251917521,
    0.009164594583895116,
    0.008021713562950266,
    0.007746451341526143,
    0.0024440535043312073,
    0.005284815304531294,
    0.004551297257789007,
    0.00796206357246224,
    0.005677511318682228,
    0.0066341961231976675,
    0.004944557830439098,
    -0.00230446346626762,
    0.009887959323501717,
    0.007667180185583853,
    0.015502427320514614,
    0.007831968118430014,
    -0.005531656757742735,
    0.0003649486316826679,
    -0.004492537594548165,
    0.0018828922877940585,
    -0.0039038716385812904,
    -0.010615693182360946,
    0.008288399376243791,
    -0.013050843518856449,
    -0.006452394961921806,
    -0.007524851464262127,
    0.011397072801428258,
    -0.008031120164892018,
    0.0022281204526059016,
    0.00033758743370421065,
    -0.007762401470222218,
    0.0022668932125414543,
    0.006514493241622963,
    -0.0023103456867062076,
    0.011112562335378908,
    -0.0032157056197257283,
    0.006991980624553887,
    0.0038588231347338312,
    -0.008862126064925141,
    -0.010134002034863854,
    0.00610078321192554,
    0.008758440743265563,
    0.0019809095779330745,
    -0.00030971776868413716,
    -0.003968751514362767,
    -0.0021633486436504383,
    0.003336045665582827,
    -0.013180074993838718,
    0.0023787938510354562,
    -0.005319195544033482,
    0.000721155500274337,
    0.0064982145895994175,
    0.003402987045296321,
    0.011277440384292443,
    -0.019369768992992368,
    0.014915246894482386,
    0.008607881953405023,
    -0.004465246537164418,
    -0.010072640393853693,
    0.01561202538646377,
    0.007909296544514968,
    -0.005029209216885007,
    0.017718719976204285,
    -0.00010667102425442831,
    0.007608094387903978,
    0.011680357401215983,
    -0.0008230222162719967,
    0.0032270731505931456,
    0.0019005438313132604,
    0.004853217229477723,
    0.008238787558812145,
    0.0038426273293823052,
    0.005335200666727969,
    -0.004153897370403166,
    -0.00516222969257124,
    0.008381196171291612,
    0.0025843358887025526,
    0.006285039076538721,
    -0.006994144724644595,
    0.0059515566353296094,
    0.021288942724340537,
    0.008018738776676883,
    0.0036272803758719704,
    0.011508520341299634,
    -0.008471079524759994,
    0.00393315382469502,
    -0.0036400457833806834,
    -0.008916501884891037,
    -0.005669245177250915,
    -0.009747835887658249,
    0.0034272917963072518,
    0.007402382354196095,
    -0.00448354419317045,
    -0.0044858129139136406,
    0.004773737326109775,
    0.006383722878353,
    -0.003456550419497021,
    -0.00630857927737737,
    -0.00398268123847268,
    0.00532320926316746,
    -0.0029870824904922443,
    -0.0074048867077657,
    -0.007078785619783203,
    0.006264548280989872,
    0.007936904841669604,
    -8.431824018453514e-05,
    0.013194406360965529,
    -0.013318127103900521,
    -0.006423562426548956,
    -0.011072558736367534,
    -0.006827068456244645,
    -0.004769682831630284,
    0.00018036505992496003,
    0.005353085339247317,
    -0.009644835910782199,
    0.007204957604078456,
    0.001232787351120204,
    -0.01122113548792132,
    0.004185230262420758,
    0.0029720229749887017,
    -0.0021365912735623977,
    -4.00697083626379e-05,
    0.024683307514438514,
    -0.005082868958674771,
    -0.01540885099003553,
    -0.01680735601035325,
    0.01651446623815815,
    -0.004092206472243985,
    -0.012685076482915336,
    -0.006706722390234798,
    0.0007178489601042205,
    0.009542516510349444,
    0.0011063725064359912,
    -0.0031412905968243635,
    0.006629664832106247,
    -0.00652192767685528,
    -0.0036667908306588248,
    -0.005195228024400273,
    0.013972196324570826,
    0.007352941042838803,
    -0.006593530894866553,
    7.76517343520364e-05,
    -0.0013893124599071314,
    -0.004337671317514678,
    0.0019381466161189668,
    0.015176857616239875,
    0.019606244945782576,
    0.009468808055136694,
    -0.0019049393022569725,
    -0.0031044682168080385,
    0.0011929393264205898,
    -0.012332879891358681,
    0.0007743887004063338,
    -0.004202288096255558,
    0.00297449620719922,
    0.0031583453683042316,
    -0.002700169909338507,
    -0.008173861267760953,
    -0.009441873013223115,
    0.0066375390041911045,
    -0.002690042097376634,
    -0.00907738127487336,
    -0.0009140079045696242,
    0.009038388452748994,
    -0.008242556303221599,
    -0.005821796700007945,
    -0.007387573721814305,
    -0.011478604297854928,
    -0.008267598292474122,
    -0.006815922738536722,
    0.0004717410718468658,
    0.004976908371453458,
    -0.007327990842546756,
    -0.0018994259230646787,
    -0.007167450283281596,
    0.0036777783187906146,
    0.0013952315308592479,
    0.0038961127144811923,
    -0.0018755810633291647,
    -0.0035479120085823634,
    -0.0009030922691824695,
    -0.005118343147903609,
    -0.008086605782097519,
    -0.004535770491620654,
    -0.005732411493638139,
    -0.005870151776338745,
    -0.0002831990788590488,
    0.00010654602119425016,
    -0.0008616300859169725,
    -0.003708363361520805,
    -1.1186489394838754e-05,
    -0.006711480824635293,
    0.008135103029366274,
    -0.004049309822080509,
    -0.011191794421762347,
    0.0014900858866476957,
    0.011557722396927681,
    0.0018658130383279558,
    0.001386951579123997,
    0.006142316473657997,
    -0.00923328185139966,
    -0.0028261552993471923,
    -0.0090854325845055,
    0.007794926243561582,
    0.0058834653877142375,
    0.0009928749189874562,
    -0.002887744383039185,
    0.007168660789780121,
    -0.010590149867541846,
    0.0020231307471824094,
    0.002094650874867664,
    -0.006077244652043136,
    0.00315461216003452,
    0.008389021661500785,
    0.0069670154329377655,
    0.005375509588514354,
    0.023933893605389275,
    -0.014956043623906195,
    0.013450715814791936,
    0.00826801334882165
  ],
  "w2" : [
    -0.425792513472705,
    -0.03807562733757038,
    0.5986983931376575,
    -0.6058422921827864,
    0.5034846518333199,
    -0.41297867662512433,
    -0.300838037158295,
    0.5795491801149282,
    -0.3564901901763563,
    0.2825986891851306,
    0.24695800878211915,
    -0.06860026008191854,
    0.0011046360037500753,
    0.8354030644465038,
    0.4601345958287527,
    0.6104550425150383,
    -0.06191802442109354,
    0.1430444650404989,
    0.5782571537655542,
    -0.4002865398387482,
    -0.4120153907256393,
    -0.20211232503396756,
    -0.46715275102339837,
    -0.10773007063588974,
    0.5254760678760232,
    0.3009801807574293,
    -0.7574050137402685,
    -0.08478236267765385,
    -0.3788695680006158,
    -0.4560653095565934,
    0.047802288283283936,
    -0.45729744419779933,
    0.13889900583148718,
    -0.5880885394402033,
    0.7611605799763728,
    -0.007028219817238811,
    0.09971544156596386,
    -0.5462179165566388,
    -0.7315371460692679,
    0.28434507556724675,
    0.3096791944362805,
    0.40711660980533415,
    -0.4771500712499911,
    -0.5852486494523217,
    0.2772757863590711,
    0.29393913965106944,
    0.6748799230375396,
    -0.05591820064850917,
    0.023846091252501842,
    -0.020412191005737764,
    -0.020241899947688113,
    -0.023680126448005313,
    0.005905302647506695,
    -0.018412779844272927,
    0.0032072321920152756,
    -0.013067228433591779,
    -0.009801002406424333,
    -0.00045108628633928075,
    -0.00217635979588057,
    -0.018162126027636488,
    -0.018560593694068574,
    -0.00048806440363467583,
    0.020283727614969077,
    -0.017094243653881708,
    -0.016102980138151597,
    -0.00040324697767377913,
    0.008084433531337398,
    -0.020892664378680145,
    -0.018079471002251234,
    -0.005552554276677404,
    0.016782317291514234,
    0.015615419087452665,
    -0.004262815130991781,
    -0.002035227436616476,
    0.0003861405833235626,
    -0.01859797671773809,
    0.011731312385216408,
    0.0017682323178454965,
    0.011041695067961847,
    -0.001848976082437724,
    0.015626117250728343,
    0.0190976353981977,
    0.0019354206852426699,
    0.0009128788603306692,
    0.009470428076597513,
    -0.012583275089541606,
    -0.018280072912898106,
    0.02002904513206082,
    0.008857812951492869,
    -0.019558063151991826,
    -0.004629884354199531,
    -0.01647116258407926,
    0.008389311951322219,
    0.014480827079505617,
    0.0008613850903854934,
    -0.008256437478364102
  ]
}