{
  "b1" : [
    0.02932105299209893,
    -0.16382029753194166,
    0.09906598844110186,
    0.024863433561891322,
    -0.03906736541698402,
    0.1939671655128225,
    0.25381557459002774,
    -0.18791481922327932,
    -0.058934307182626426,
    0.126253233313224,
    -0.05842159599865055,
    0.043730581490285955,
    0.0946607526564669,
    0.10312533072853666,
    0.10517513800771798,
    0.257075906672911,
    -0.13576118237407142,
    -0.011600365079340449,
    0.15795871999967462,
    0.1357304276115181,
    0.2557253620607587,
    0.13369243335863754,
    0.07945124280992512,
    0.18053114237639073,
    0.11006534736301682,
    0.220025344527508,
    -0.06412432759782441,
    0.05389734108549512,
    0.01831272676099424,
    0.13866503458452098,
    0.13552852736824636,
    0.06135583469394798,
    -0.0071859629534670654,
    0.17693369743555581,
    0.16276477947633758,
    -0.038126319553065995,
    0.056269922466700185,
    0.15781616582215485,
    -0.06870350921963798,
    -0.1659185058161877,
    0.12470485557485105,
    0.06643181905040733,
    0.25445627559363304,
    0.022623585376886794,
    0.14178183315743256,
    0.2456995710609453,
    0.12010704552653188,
    -0.12192017285991066,
    0.010595447433022476,
    0.002222784303671198,
    0.00786128593131697,
    0.0034355302569021202,
    -0.0038209116463036536,
    0.008414444760474883,
    -0.007539337815418024,
    -0.001778124697330214,
    -0.007308413493394391,
    -0.008639257121825814,
    -0.011418209843176912,
    0.003966077900081233,
    0.010304648155256845,
    -0.0075957343664790865,
    0.011231972590881323,
    0.005749651976325768,
    0.005624951406237509,
    -0.007768387614159723,
    0.0020689849299273303,
    0.0016521013404132865,
    0.005055641821315372,
    0.004180532072421532,
    0.003049953120626169,
    0.008683835433903327,
    -0.009554319352884349,
    -0.008511486606719673,
    -0.01094576509091003,
    0.00867983141322558,
    0.00914374527117825,
    -0.007517259717925555,
    0.005499855274129451,
    -0.013654930841563717,
    0.010629019615885464,
    0.012144704042867525,
    0.00104949592846507,
    -0.010172437481820071,
    0.0017639851426909257,
    0.004449420168801527,
    0.007453427738883558,
    0.006189880531152269,
    0.008649617096871209,
    -0.0004633006251524342,
    -0.0029615700398761663,
    0.00681317743447601,
    -0.0034491626309321502,
    -0.0015507823039271993,
    -0.01227234693980052,
    0.0034056971843392544
  ],
  "b2" : 0.025277047470761035,
  "feature_version" : 1,
  "hidden_size" : 96,
  "input_size" : 34,
  "version" : 1,
  "w1" : [
    0.2602087238572934,
    0.12534947832833745,
    0.22881807477818475,
    -0.45359995797902913,
    0.23207095704057817,
    -0.13321729346831726,
    0.0007689980827648277,
    -0.2357286205870067,
    0.29855421170389546,
    -0.08698196824119225,
    0.43108280753804984,
    -0.12804126027205745,
    0.6778362747699936,
    -0.207173205894387,
    -0.345547859216141,
    0.0013151685787072926,
    -0.24713851406931217,
    0.04084720264443661,
    -0.06393563899530039,
    -0.02882508025388128,
    -0.003998410269414226,
    0.018648516525775555,
    0.046385560016920666,
    -0.3254366099073418,
    0.11814797005282163,
    0.3870855264216637,
    0.029826201532551166,
    0.09213347450888568,
    0.20246392309259395,
    -0.10813142707403177,
    -0.4549083217646136,
    0.14754900598423962,
    -0.01156266914344656,
    1.1647924429472973,
    0.06465426578305068,
    -0.1705113088114731,
    -0.02249831101408476,
    -0.09109366021230295,
    0.04478217583661006,
    -0.07719044536083897,
    -0.3012103524958205,
    0.14130189124633472,
    0.033870714353083385,
    -0.17515540163085092,
    -0.17081160806550305,
    -0.1351646402862711,
    0.0129697813549175,
    -0.09036378890698755,
    -0.24423755084465273,
    0.05597922864090933,
    -0.2662477852114146,
    0.18331379887078236,
    0.1772428013779243,
    -0.22885129647418764,
    -0.1689665103870229,
    0.19419873165413204,
    -0.2295441181089251,
    -0.014218911080206327,
    0.03289616506969733,
    0.12636714784460887,
    -0.08916166856082795,
    -0.0696152515884028,
    -0.02604585643762064,
    -0.004766915089392469,
    0.11223768789685983,
    0.012011717996673079,
    -0.033175328148378445,
    -0.0658353845549518,
    -0.0714360070187322,
    0.20158449210507048,
    0.00626201790655343,
    -0.035903247840438676,
    -0.3065808750318344,
    0.1513324265432035,
    0.12858043816968598,
    0.08347854198711856,
    -0.25281768123595616,
    0.2766514267994089,
    -0.20871236819775565,
    0.1751082762179629,
    -0.5794000565830437,
    0.27670754590030316,
    0.007812271077808888,
    0.26304580005598355,
    0.20945890035969128,
    0.30209238878694555,
    0.22003782346000042,
    0.19747908597834157,
    -0.1199907512848741,
    -0.17564468673815936,
    0.11362719552526275,
    0.0985511566336929,
    -0.14328644376503288,
    -0.2656537204213546,
    0.07857601672913815,
    0.3957646974735174,
    0.35436693308188094,
    0.3877183501653487,
    0.016494265790165708,
    -0.012134294807771739,
    0.3007844900516207,
    -1.2887451034919983,
    -0.2627156212446961,
    0.2840143341364897,
    0.25832721103292383,
    -0.42283696271539295,
    0.007794590626217033,
    -0.09229182968262739,
    0.24545109738537438,
    -0.2522527282159762,
    0.22692003066389413,
    0.004129315948033843,
    0.2520708553987145,
    -0.07210217896891397,
    0.34879223337701254,
    -0.028009763666992767,
    0.027050499210504588,
    -0.18658890775391432,
    -0.18015100165216483,
    0.2725059069533516,
    -0.05575973329201514,
    0.02892211658798079,
    0.07912642139200902,
    -0.00715362034850178,
    0.16268188078829923,
    -0.1706505970173979,
    0.10902938291779664,
    0.6508292087400263,
    0.2129588548331153,
    0.27046038176352893,
    0.21523283364521975,
    -0.566314573258738,
    -0.2825627659795641,
    0.22102195996832966,
    -0.13354225212554244,
    0.8427322447034178,
    0.1649440964769005,
    0.05374605965267889,
    -0.3722459077080766,
    0.24362621639544385,
    0.0456389588336661,
    -0.08185350590132608,
    0.32807295877393405,
    -0.15159477698438173,
    0.10798265955040433,
    -0.4031156314429962,
    -0.07191878723562908,
    -0.16904522269868127,
    -0.37962629047657975,
    0.10489099663902655,
    -0.236486057273395,
    0.02822371043280431,
    -0.11370231397931556,
    -0.18563970226023974,
    -0.14845272266034504,
    0.1189671696650155,
    -0.22309357159512402,
    0.1169428939076644,
    0.010218815420343152,
    0.054897794144946374,
    -0.14842231641541248,
    -0.04455082812502028,
    0.29119283138317087,
    0.32151547582870593,
    0.4683212663305802,
    0.2359812085234014,
    0.13399828064512426,
    -0.031450076336058605,
    0.30358278805119693,
    -0.9169236696844149,
    0.22512789165800437,
    -0.052894045303040156,
    0.11611768675398658,
    0.07336927498184512,
    0.1561921686668828,
    -0.03767070006744647,
    -0.032828487324135534,
    -0.008128216817102652,
    0.2604856293235928,
    -0.23047950280032778,
    0.2662684139508412,
    -0.3081374223928913,
    0.6617363570372716,
    0.06257045284231003,
    0.16458056561059933,
    0.16163034288383812,
    0.08350083489757466,
    0.11707020326312133,
    0.14402228278816456,
    -0.033692862104868736,
    -0.247630288403394,
    -0.13745270665588621,
    0.27744597886095834,
    -0.1636230069309142,
    0.1430603913031244,
    0.13348747726692817,
    -0.13757944465598274,
    -0.19237397443446214,
    -0.03444672651153237,
    -0.1790880620528571,
    -0.17485716016127212,
    0.016998698300555396,
    -0.07507761537014168,
    0.7606955362513789,
    0.051688678852905214,
    0.1270724085349292,
    0.10275719058966219,
    0.05030454076314785,
    0.23862533651384274,
    -0.10975327901333502,
    -0.07840524683098353,
    -0.007910005054741714,
    0.2831684024231373,
    -0.041884099254798184,
    0.060715226940516474,
    -0.18637307797899785,
    0.6008371556964702,
    0.11784898333913037,
    -0.036663142680233726,
    0.118835860048198,
    -0.11491926918598562,
    -0.10770164641556643,
    0.22714842456885212,
    0.08695781578126974,
    0.21930757192519762,
    -0.1211179723025696,
    -0.09155075579318557,
    0.10480701843929624,
    0.17025209876183336,
    0.09671332368764658,
    -0.09192752047835352,
    -0.3059928544733247,
    -0.2624058857666334,
    0.08374678773674328,
    -0.11452826598999279,
    -0.05236320784317974,
    0.1592273647214857,
    0.827299970207718,
    -0.15121861085105073,
    -0.14540860674372819,
    -0.37077389703383334,
    0.3958624166502383,
    0.030256776392444836,
    -0.1670860707541535,
    0.08053497879031336,
    0.08830911202973499,
    0.016050114575247933,
    -0.06313824507824327,
    -0.14747061403294726,
    0.1883098726575241,
    -0.08138484297030271,
    -0.23984946765804152,
    0.17162129193606146,
    -0.23759616980974343,
    -0.01924562488075992,
    0.17105009182064784,
    -0.16929015860611907,
    -0.04320986076898931,
    0.08895398371327326,
    -0.043284364862054246,
    -0.2734340394511774,
    0.01557646535975576,
    0.2279829366327479,
    0.07522830159961373,
    0.5945308265007379,
    0.3479956410471311,
    0.3926233523122225,
    0.17436242079246334,
    0.45962926422444456,
    -0.08460056164016692,
    0.028248957744176142,
    -0.3498735506093889,
    0.17108996301072915,
    0.05505529260418454,
    -0.11980483172243118,
    -0.18219542009453082,
    0.23677206395176412,
    0.11032040306937715,
    -0.06441586883806656,
    -0.16022960513523454,
    0.1228573524715582,
    0.07317435676225992,
    0.09701314169013174,
    -0.10859306353563032,
    0.4637035441388937,
    0.06557985906471683,
    -0.24384826148399016,
    -0.11152186331970697,
    -0.3554214383690923,
    0.048802395874036314,
    0.14574004285304207,
    0.1687593972662056,
    -0.18851515411990016,
    -0.44038778097396114,
    0.2435176900168646,
    -0.2619728853503581,
    0.1490718487782143,
    0.5637515451572244,
    0.18311609808589493,
    0.19614671030231481,
    0.08653077061543986,
    -0.10995647457799158,
    -0.06297888180075788,
    0.07404152040717357,
    0.19868422015931747,
    1.0246089761357935,
    -0.05727930146816648,
    0.2258030237879066,
    0.11330004027924227,
    0.07813473963168953,
    -0.15805605886278082,
    0.033056324906370095,
    0.14275455472734774,
    -0.07772444260892412,
    -0.1916444062396367,
    0.19379287410410884,
    -0.18304885641983373,
    0.18087192530780463,
    -0.3031942347624191,
    0.0727690545758854,
    -0.006474237205895936,
    0.24121431814040797,
    0.01680916803880274,
    0.31539688673679683,
    -0.07733710961782204,
    0.07220670551430336,
    0.08883542949373982,
    0.020202794237694145,
    -0.20259199107003337,
    0.054750710630947746,
    -0.034241952788760334,
    -0.126137626631451,
    0.0922792146794549,
    0.17196434993302262,
    0.2623607182905342,
    0.1088265585373953,
    0.2923829752440991,
    -0.15891736581962265,
    0.11341583783032048,
    -1.1453505508555772,
    -0.025562771498686236,
    0.15984532697796483,
    -0.09437915199844885,
    -0.1556986096724183,
    0.07283204154968273,
    -0.27920751400977906,
    0.051781288498366766,
    -0.06238947700060712,
    0.13619321565515913,
    -0.46757093341737693,
    0.10385667761682257,
    -0.14734147472924755,
    -0.18785832413502965,
    0.012462132647153835,
    -0.11029163201531939,
    -0.1842653821279082,
    -0.0996618657974464,
    0.0009658814101808555,
    -0.46798338322228716,
    -0.09107055853779449,
    -0.205951027948786,
    -0.07327025884343147,
    -0.06316615376724627,
    -0.23526113596704615,
    0.23622511173786928,
    -0.1642143035468557,
    -0.14229111095050856,
    0.25487100251977035,
    0.03317357096550082,
    0.015051567989677687,
    0.2952722012500628,
    -0.025076738556734996,
    0.40319901784486584,
    -1.1170743126229674,
    0.09798677896716612,
    0.011390187992076143,
    0.22931071188207028,
    0.1483754166421286,
    0.14705322549684718,
    0.29184089484192804,
    -0.11841481695778112,
    0.13352455122534235,
    0.1806462599022081,
    0.17825016093518586,
    0.017707192875900654,
    -0.16827448412944376,
    0.41556536502362373,
    0.1991978428667315,
    0.28781558243461935,
    0.17881512090661927,
    0.050994252913209075,
    -0.05581784758118159,
    -0.09199429909458542,
    -0.06951026760911568,
    0.1319644056088721,
    -0.24425970864949464,
    0.22436077168342772,
    0.09437638106071686,
    0.08846452891138074,
    0.11291518635976895,
    -0.07943351103848757,
    -0.0826068224644726,
    -0.2689376123967198,
    0.20765327641124817,
    -0.08238671279392744,
    -0.1578101267825983,
    0.15729651686691837,
    0.5872358276500645,
    0.02523575700254754,
    -0.22315246444690215,
    0.16829032444815886,
    0.037414433233298856,
    -0.13154468629895025,
    -0.16391495431499245,
    -0.15326126321022554,
    -0.06598906969952255,
    -0.06592911076802137,
    -0.13307820910234291,
    0.0963722731753211,
    -0.014845541044560493,
    -0.1575780386915782,
    -0.12850799020807335,
    -0.20666871201195874,
    -0.1598452231204874,
    -0.09099593109458726,
    -0.1167510427011636,
    0.22317482736164712,
    0.1074184883208338,
    -0.08546107355194897,
    0.14621107592864088,
    0.1294187076541272,
    0.11338217385426068,
    -0.16926007821669642,
    -0.031031344794917464,
    -0.17081105080185233,
    0.040354081733657836,
    -0.15360983875538595,
    -0.10824516385487072,
    -0.12968910269429168,
    0.003067362073722244,
    0.025008991685896084,
    0.01136762197967667,
    -0.08302658508021368,
    0.20386896256637746,
    -0.16945028057657968,
    0.2964355850901552,
    -0.09923384620519193,
    -0.2437589285801127,
    0.13205569836275663,
    -0.11867579487119174,
    0.013589511608040696,
    0.0616904111747752,
    0.1302510728778556,
    0.2251055678016727,
    -0.7608585551025059,
    0.34077914597072495,
    0.19298706538038665,
    0.04244514843720379,
    -0.18343257485637193,
    -0.2321057173994416,
    -0.1599171144147683,
    0.41114837116249364,
    0.3122994513737186,
    -0.07166436446391648,
    -0.0008456731293378077,
    -0.026090641951437617,
    0.04938368058403247,
    0.012900403150529507,
    0.5405437111101692,
    0.6870699549736085,
    0.5230427183612036,
    0.04317222138742944,
    0.07533499257827114,
    -0.022678633403855723,
    0.4537546530017994,
    -1.1629937998767448,
    -0.519460856357689,
    0.006458249383832557,
    0.3298460195181635,
    -0.6522777932599766,
    -0.29079865218510365,
    -0.031880578330082364,
    0.06051753725584595,
    0.17927753882087372,
    -0.07681762886497272,
    0.20550617832471146,
    -0.10156636329597893,
    0.03148481298370324,
    -0.417643865109072,
    0.22053498155388226,
    0.06225403158554991,
    0.1168750310094589,
    -0.38345276130166217,
    0.07058071309016493,
    -0.09222279860155233,
    -0.2666694423686028,
    -0.0666369371968786,
    0.20702471078853105,
    -0.1640461616617518,
    0.2179550054265801,
    -0.13000259792796146,
    -0.32293038374833516,
    0.0685769566432176,
    0.23609781251115364,
    -0.01708718263068878,
    0.12368534006409176,
    0.26159912352543735,
    -0.08364962076468833,
    0.14285098206497537,
    -1.1607346786865191,
    0.04448756502906247,
    0.22897295488101937,
    -0.10652510903707957,
    0.2582221077536017,
    -0.05175374257395008,
    -0.02836731667544041,
    0.13555001804959324,
    0.07490761446920823,
    -0.060491508966508054,
    0.3059376477662618,
    -0.1064958077753214,
    0.2599958437010616,
    -0.6079331252179256,
    0.23689620078923146,
    -0.11189107765460114,
    0.17034737156822727,
    -0.07338921365366546,
    0.3850925520421565,
    -0.1846066314123707,
    0.10105536288431283,
    0.1676890237841593,
    -0.13808466497859775,
    0.13487858752917467,
    0.1884295839774272,
    -0.09165929478661695,
    -0.2775871330720882,
    0.3677898823794938,
    0.4341322552110208,
    0.1978406057756052,
    0.10837795898149143,
    0.1664143557992593,
    -0.03714196356028153,
    0.05499436989145925,
    -1.2789287258087354,
    -0.03360014389892181,
    0.07923134419613387,
    -0.1642319717227908,
    -0.03167059352801076,
    -0.17596030429829793,
    0.07123204789495025,
    -0.08937394375503081,
    -0.22974735954137218,
    -0.0018887711146949205,
    0.047536968473000374,
    -0.0002267750809626908,
    -0.12897206604208264,
    -0.1119065580532109,
    -0.10663838063969322,
    -0.014586187629015085,
    -0.13304194956437515,
    0.061481075926508505,
    -0.043010017923033356,
    0.14026863852756663,
    0.027479329951444118,
    0.02128510747545944,
    -0.0480694018368032,
    0.0011830024527123078,
    -0.07082788466533954,
    0.04583280397577792,
    -0.012608078217780845,
    -0.1512806889368155,
    0.006009798975838673,
    -0.13189365102113965,
    -0.2156348862019093,
    0.07911336451816912,
    0.1377548858576694,
    -0.1776730693808679,
    0.2027586558903697,
    0.339411203765588,
    0.10995540875704496,
    0.1495017430244402,
    -0.20208372216081635,
    -0.0947798156435226,
    0.2076149566247157,
    0.024497699346251723,
    0.28564384144288946,
    -0.008738173444547338,
    0.23910769040929933,
    -0.20542836800438063,
    0.17897063502431906,
    -0.06313465744939635,
    0.05757618240121482,
    0.17411566261664893,
    0.03131887768760629,
    -0.06383047123866803,
    0.21642936007611505,
    0.09285900929211462,
    0.16902141673875,
    0.1689638089918481,
    0.40779251583089465,
    -0.054864147965152404,
    0.3550724104521517,
    -0.09914847638842259,
    -0.005828164580094864,
    0.005578241012320771,
    0.22368169753993997,
    0.43021252069406174,
    0.26931469513430767,
    0.13314177525861756,
    0.014032261258045015,
    0.20208840916787302,
    -0.6265270632289894,
    -0.06068055025191115,
    0.0719065762138156,
    0.043079850417579425,
    0.2830525273096769,
    -0.2895839246148074,
    0.06261565499901782,
    0.10094542338900614,
    0.26386701861648315,
    -0.04326766678593564,
    0.3219147374493161,
    -0.03651154412603712,
    0.07004776228950943,
    -0.5469654486372059,
    0.3032783668178026,
    0.1857563907488544,
    0.26845588521324004,
    0.1683631124554751,
    0.020927912199536207,
    0.00883284155942814,
    0.2592528051518574,
    -0.16451987066816742,
    -0.05721761237507604,
    0.019134028121493448,
    0.11809758409716237,
    -0.10622133956605631,
    -0.3039929518078284,
    0.18969549009474185,
    0.433545083423187,
    0.30203915173937823,
    0.37729603321107347,
    -0.04254387613112903,
    -0.19812091735123122,
    0.17515655962392937,
    -0.9019671499131757,
    -0.024587090587523126,
    0.1219841930255117,
    -0.14408904401789735,
    0.35051571404289583,
    0.40298243521956456,
    0.09770925869071924,
    -0.2883368807079939,
    -0.04682680292754487,
    0.36554572539018826,
    0.053056666146724794,
    0.08351847381593949,
    -0.248217715451323,
    0.4124265204443833,
    0.07160266838535514,
    0.11698127277862982,
    0.25024496659658374,
    0.3229066537229183,
    -0.20168487808663405,
    0.32272649230336814,
    0.05539451782583531,
    -0.03574140906828111,
    -0.016478841194740294,
    -0.0993428386677295,
    0.15956900272528132,
    0.22300447372876805,
    -0.09013237743945851,
    -0.28669496318650883,
    -0.282163699315341,
    -0.3990043957738944,
    0.058885838033142734,
    0.1490289104852827,
    0.009542910057262571,
    0.07043091245020158,
    0.5222684491018954,
    0.4235192017843833,
    0.06516458042501656,
    -0.07251537835561031,
    0.06058527618675378,
    0.11460871598992999,
    -0.07705847172370255,
    -0.0657413720677094,
    -0.1714104485850737,
    0.1289066550441944,
    -0.10006088427233772,
    0.13731064787589653,
    -0.13686354822413402,
    0.7669010081638664,
    0.14785521784539898,
    0.00379808279866186,
    0.19048361170081626,
    0.07066319743825884,
    0.09966055719931531,
    0.0039345917848519945,
    0.08534894978663994,
    -0.019658473701049076,
    0.043154714429872135,
    0.05777618084371488,
    0.014107632852119488,
    0.08305501910723383,
    0.38348840483694013,
    -0.12251370185465235,
    -0.16524020383011376,
    -0.06397208294365585,
    -0.04703640378050172,
    -0.25713703983096853,
    0.1321616568710924,
    0.09267122553412799,
    1.0358282122338518,
    -0.1813102388777443,
    0.08539171068044084,
    0.13286654949645424,
    -0.0790599141848619,
    0.08427261906257744,
    0.039788913479176735,
    0.019236451226670306,
    -0.1440786534466636,
    0.08715699218220654,
    -0.258219488673008,
    0.30403983362059156,
    -0.14617560458338336,
    0.5058071707810271,
    0.09131742125404622,
    -0.0007068205952834401,
    0.1273453786244693,
    0.25451553228361207,
    0.06379628230413613,
    0.034676478217375586,
    0.07774587339653335,
    -0.05448691264675022,
    0.08723275703949313,
    0.036170130088953506,
    -0.014525697690061293,
    0.01496590682625624,
    0.1114772725802802,
    0.013584801825336642,
    -0.2746306597451412,
    -0.1708141259365257,
    0.036597085807286114,
    -0.07212454059258254,
    -0.021112444008296597,
    0.28312390823669065,
    0.6641922044245746,
    -0.37494555459380563,
    0.32454013381786184,
    0.010611853565043534,
    0.2990413668547768,
    0.3223652644954821,
    -0.1805692713943964,
    0.03149295332426209,
    -0.15762720477338507,
    0.061005775502088695,
    0.07303384437890159,
    0.18142248942074718,
    -0.31347049729817544,
    0.5670926781315694,
    0.32359782107481205,
    -0.18884831269427504,
    0.012979006230203283,
    -0.025700749794076695,
    -0.24738588908818618,
    -0.0254852035650892,
    0.3860732451039368,
    -0.2868412900918083,
    -0.19077306563481497,
    -0.07158377061869949,
    0.14735756144703885,
    0.27062344308832365,
    -0.34061841947568544,
    -0.5744959962528583,
    -0.14782485727203176,
    -0.1218654216409346,
    0.14735477509039357,
    0.10580154950862776,
    0.05087729022816882,
    0.09259276668168712,
    0.8588657198445592,
    0.3657263814810636,
    -0.18070620546579602,
    0.1106054354719284,
    0.07074448099997117,
    0.15663999825093491,
    -0.1596326500546447,
    0.10449129643175122,
    -0.12095896149676104,
    0.21738008531879607,
    -0.257978650821483,
    -0.02755746359008135,
    -0.3650406865051913,
    0.2754538765639031,
    -0.21396938355168482,
    0.15621113501663794,
    0.12984704526168897,
    -0.1200915845891233,
    0.07679412595037903,
    0.0649752424247335,
    0.07617598525867662,
    0.1637031759907785,
    0.012533532722773208,
    -0.08255392850398834,
    0.21179382018025375,
    0.3639644339286707,
    -0.04687613555415933,
    -0.08401093373982446,
    -0.22760948936707276,
    -0.08282192258869489,
    -0.08303256800547049,
    -0.1470942190817753,
    0.15998868459737517,
    -0.046106337755197464,
    0.4879752538296218,
    -0.029549256367014606,
    0.18230647656113114,
    -0.42662961162469026,
    0.05543488114422703,
    0.12960834403148813,
    0.1947829229629872,
    0.18536572400993398,
    0.026738463031556005,
    0.13559583471844655,
    0.0838861334173495,
    0.00696240582584607,
    -0.1289937332312548,
    -0.24449709719667725,
    -0.10086925002482904,
    -0.3207730387693315,
    0.21882819038697124,
    0.21800064291065352,
    -0.1453032986510907,
    -0.23797018746883639,
    0.4491054526626933,
    -0.44405304318392114,
    0.10324206650520967,
    -0.07052520809985457,
    0.16431466525980148,
    -0.17243790576484652,
    -0.09001305957111622,
    0.406238666142536,
    0.308949009088596,
    0.4474436044338422,
    0.24699947910886183,
    -0.016710711075834345,
    -0.0424742191358655,
    0.1289145203015281,
    -1.1171065986962325,
    0.15296149110788904,
    0.15409195898216177,
    -0.2524592975253923,
    0.09781759064655018,
    -0.0177159054083811,
    0.055999431957994075,
    0.1214923867805025,
    -0.002614495208927283,
    -0.10324997970117128,
    0.09862589370638074,
    0.006357425369307546,
    -0.09181393504081833,
    -1.3577739424768299e-05,
    -0.18309531268673526,
    0.26930359579940716,
    -0.03868139169192639,
    -0.15434613654208865,
    -0.02780911580401134,
    -0.1773624352907803,
    0.2743602502148772,
    -0.10699330396949971,
    0.03855696887838066,
    -0.08817415856036767,
    0.45250576609913984,
    -0.024012689504095845,
    0.014286733124483907,
    0.18717603617097414,
    0.09858649423811962,
    0.26273707491729137,
    0.1365008802988772,
    0.39816063123111617,
    0.008227178023714393,
    0.16959417786059325,
    -0.9308930486896999,
    -0.027618279490777286,
    0.19597527950245688,
    -0.5265789022396763,
    0.6714762790213146,
    0.09281713220848875,
    0.05648018514419922,
    -0.12997484142314922,
    0.2570630404745434,
    -0.15686971555698448,
    -0.18953629836672617,
    0.07678179727572058,
    -0.06808264884850757,
    0.2051199031974532,
    0.13096313677460605,
    0.1007000900250944,
    0.053628583975612175,
    0.019548945222780164,
    -0.18745739736765477,
    -0.22876598307333393,
    -0.22541718209183806,
    -0.2189212751691721,
    -0.04116025693236346,
    -0.13380247151987174,
    -0.10773562692672813,
    0.2522710272829446,
    -0.5589158793321981,
    -0.6744573363325685,
    -0.37833025379253526,
    -0.26390881747349276,
    -0.014846708743509638,
    -0.1351750913575215,
    0.08805814976943474,
    0.16895541456454571,
    1.003972262204979,
    -0.2405931581016343,
    -0.07431620062661626,
    -0.1136475552418132,
    -0.10894432623221971,
    -0.0556127090339946,
    -0.1454668090999582,
    -0.14148403358740524,
    0.06815937176642278,
    0.11557522329752389,
    -0.1052045734844451,
    -0.09319052385696602,
    0.17118134239983301,
    -0.053711405184254844,
    -0.02053994437664176,
    0.006328875304904266,
    0.06359085577494299,
    -0.17708511741855867,
    0.064120637868235,
    -0.24167506924744034,
    0.10476047608519558,
    -0.2092980154598212,
    0.039523355916032066,
    -0.10180869516845187,
    -0.19802655200415475,
    -0.1888698374273351,
    0.10093360709364983,
    -0.05519535321784917,
    0.03618218766056605,
    -0.11916676841064534,
    -0.21511362000355813,
    0.0665173188657852,
    0.03497231431418464,
    -0.16899800822823846,
    0.24605911298398275,
    0.2319057899235132,
    0.027747482787021546,
    0.2255179515908992,
    -0.3668095190827266,
    0.3143589369838812,
    -0.22877501876964004,
    -0.00017212295099917852,
    0.05947190446904054,
    0.08335952742456268,
    0.09625674645120227,
    0.01899674723520345,
    -0.08266336066810545,
    0.4854197625836251,
    0.003585493723956728,
    -0.17279731176914317,
    0.18890851538093356,
    -0.33700695651553153,
    0.14274877073163073,
    0.08319281859058554,
    0.18768551059652908,
    -0.115732465599172,
    0.04186166666655861,
    -0.06773445179484484,
    -0.13291628329509317,
    0.024150340617557813,
    0.4133854289876522,
    0.17787925257983178,
    0.19255648939824432,
    0.24222742818781481,
    -0.16140749698945195,
    -0.07037392549840607,
    0.0659665319257406,
    0.18252240280962692,
    0.8887749963542934,
    0.14717589459069136,
    -0.1549576789394271,
    -0.3429216342056267,
    0.43500732393774466,
    -0.06231766538419203,
    -0.02527553904938328,
    -0.11939612820622945,
    0.10952164689874416,
    -0.3917393941897087,
    -0.2549431367662073,
    0.10314491403912822,
    -0.17904581338320896,
    -0.3048274401346371,
    -0.20555057761440437,
    0.2985318298584016,
    -0.003737127352107139,
    0.16649596104005424,
    -0.08884085287520936,
    -0.06294217642169793,
    0.06995126615527644,
    0.007951769940527487,
    -0.0855852685306977,
    -0.0029242464767823525,
    -0.12200206956713043,
    0.19507997142991584,
    -0.5653603401225131,
    -0.6226288939661538,
    -0.36953965806321554,
    -0.33719212612958716,
    0.04412995688790858,
    -0.12893324210408463,
    0.021366671012687407,
    -0.1763970562651171,
    0.07344268188490759,
    -0.12974157980568968,
    0.11789294865226342,
    0.22054628122322117,
    0.224853368233983,
    0.00891310506500187,
    0.08451945476356411,
    -0.0903550356580214,
    0.23180931065468433,
    -0.05627625540695364,
    0.0779264154664059,
    -0.12236099702764709,
    0.14268268310023682,
    0.012818017974784957,
    0.16400597940420986,
    0.05629025308211146,
    -0.10850563693925278,
    0.1254062781707271,
    -0.08660782617172269,
    0.1421343069524799,
    -0.19521551613528618,
    0.13002037759417998,
    0.010610745538189232,
    -0.22247677458380385,
    0.11480348377641858,
    0.00359981377255172,
    0.15418138222941677,
    0.06086758618630634,
    0.03605387954352697,
    -0.034812550180429336,
    0.02683587786760388,
    -0.053412209375100925,
    -0.00871758243291494,
    -0.16618064603806007,
    0.10910304291369574,
    -0.01937796676210424,
    0.014089098193323307,
    -0.24431949221025723,
    0.5381739917584341,
    -0.020359154888116064,
    -0.12186518134843236,
    -0.019969542859139253,
    0.20553592956489022,
    0.1421762367706492,
    -0.24606682166519292,
    0.217646292420758,
    -0.04982293763207995,
    -0.1344958930762302,
    0.1874508375609748,
    0.15034394092523046,
    0.03555184749047757,
    0.3404066936994479,
    -0.09680972126703964,
    0.0255158850313167,
    -0.1925417534237671,
    0.3592920158432637,
    0.24513713541417523,
    0.13307702534675772,
    -0.1761119594424752,
    0.224995750512917,
    -0.5704466355486325,
    -0.9095324383177633,
    -0.5811710050088672,
    -0.39021389737026313,
    0.0520883816459244,
    -0.15122809152935662,
    -0.08186050070854893,
    0.07239474206093144,
    0.5788102168687124,
    0.3943337694181015,
    -0.08572703502984133,
    -0.034037611542241275,
    0.12143491560627737,
    -0.04327334747418406,
    -0.033659551975685785,
    0.08842180278367177,
    -0.19319572062890686,
    -0.01990721577218021,
    -0.16960977581345205,
    -0.22558164485660429,
    -0.0803046870913265,
    -0.402008511292589,
    -0.019772055312802125,
    -0.030234112494647587,
    -0.14490750981088085,
    -0.22014251681889263,
    -0.0802861129244641,
    0.0026131345567385164,
    0.01676460640766969,
    -0.17249204055103612,
    0.03581109172290214,
    -0.06678967219534998,
    -0.1470686663460032,
    0.034946036637048185,
    0.011359269178438445,
    0.2182332263352013,
    0.17117069233063878,
    0.1667302639489891,
    0.17990632022517675,
    -0.04947871310832991,
    0.05612842799907509,
    -0.14535880314229047,
    0.04129188471026728,
    0.19702059284972834,
    -0.12936500270250986,
    -0.31764109005245383,
    0.5833861728880533,
    0.13443174354693768,
    -0.058343928994487294,
    -0.16157340473910473,
    0.0014482896887396178,
    -0.14308095742687035,
    -0.23545307471895272,
    -0.21443007616544313,
    -0.09654414996346104,
    -0.5025400220911393,
    0.12849183067227601,
    -0.04246724046528132,
    -0.09055312389792432,
    0.08427729981131313,
    -0.20065485058679322,
    -0.025492468861954054,
    -0.11816476827239772,
    -0.004053980602935298,
    0.14279657021418418,
    -0.13597256373962074,
    -0.05635112386968891,
    0.1742545618508517,
    -0.5871899298511049,
    -0.5711194086355609,
    -0.6073360752925004,
    -0.7216588809584005,
    0.07947710558961317,
    -0.01631833534962126,
    -0.07614085089752766,
    -0.1094298533117994,
    0.1938854196401272,
    0.09341825057705004,
    0.25431351280619696,
    -0.5356468371822605,
    0.38612913602882626,
    -0.028908560383599513,
    0.07219511997577842,
    0.3003660524688599,
    -0.2104273809120219,
    -0.014754852826271887,
    -0.16064795601803497,
    -0.006535286444837215,
    -0.08023146253576069,
    -0.2583193978870297,
    -0.012595084418153995,
    -0.28224959391568577,
    0.18198484972901638,
    -0.05268095355999746,
    -0.22629396165946755,
    -0.42269964036737895,
    -0.03746651680403671,
    -0.13949665240131334,
    0.011600922609190979,
    0.04841459260889958,
    -0.008077426935770873,
    -0.3229993131026115,
    -0.13312609471716788,
    0.5403948780278138,
    0.824871145473338,
    0.6331224899796272,
    0.02717477243380154,
    -0.04562209213023648,
    0.1499261200040545,
    0.27896108899827116,
    -1.2380578403392362,
    -0.118948623304708,
    0.009140832974066074,
    -0.07744983554243623,
    -0.15455518130135243,
    0.03293477889066646,
    -0.1135281380067886,
    -0.12675306504792133,
    0.06820898963646141,
    0.07132452426726921,
    0.13783120194549645,
    -0.12784631586844733,
    -0.18593651792073468,
    -0.01164604242700377,
    -0.20458271202841807,
    -0.03887613640616912,
    -0.2511516279612055,
    -0.14747516518908063,
    0.03858239456810813,
    -0.0005474801876738124,
    -0.05962120321499171,
    0.09450112742361114,
    -0.11443259902712306,
    0.09251128431227229,
    -0.1767732649620221,
    0.025473786996653,
    -0.09684997960958042,
    -0.12604076148197474,
    0.02099813600923,
    -0.22325247321808697,
    0.034950773684634305,
    -0.13277474367498754,
    0.09071324589938068,
    0.05717732103726735,
    0.028619642605148644,
    0.030593232894769805,
    -0.1705415311739399,
    0.2930180618440091,
    0.09808518500914473,
    -0.117262727017068,
    0.005487639616931801,
    0.20033430491734894,
    0.09060609406014739,
    -0.11916017003886716,
    -0.01898425150659518,
    -0.1917425136783436,
    0.1825178939331439,
    -0.36292676680253716,
    -0.002138882619120532,
    0.02781753193566578,
    0.10521459702245745,
    -0.11133813851745344,
    0.14337186087845216,
    0.09763211361421659,
    -0.09319338869468433,
    0.19985266112982564,
    0.24292766494571005,
    -0.09511046631166029,
    -0.1504999762042126,
    -0.08906402250461024,
    -0.18450031555153537,
    0.22928851219558685,
    0.24750115978328005,
    -0.09330575897289063,
    0.2566214129768443,
    -0.031346199966015995,
    -0.07699165230774628,
    0.0029614396044570215,
    -0.6268142768225545,
    0.4375505180944489,
    0.0844686242794691,
    -0.43106505161978487,
    0.33382832750962665,
    0.35529472286780767,
    0.04620220556775596,
    -0.09530628111818473,
    -0.1204728698153262,
    -0.03534517328687598,
    -0.1744613611127069,
    0.13132717611673794,
    -0.058390696260201116,
    0.5013588920527005,
    0.2390678813477648,
    -0.20139297336599296,
    0.2638331813293072,
    0.14072126442626615,
    -0.2659711718989054,
    -0.22933646645541717,
    0.033418054225180516,
    -0.40177250985662993,
    -0.23746522424495176,
    -0.16781098085984802,
    -0.15496842777355144,
    0.06640082918996486,
    -0.34093029396023633,
    -0.4959788076522966,
    -0.23074826294800166,
    0.07389499881256138,
    0.14958794188132404,
    0.21082517467848802,
    -0.04938166031542458,
    -0.039628552358393104,
    1.120091966387322,
    -0.1956464782458968,
    0.23667592049188504,
    0.29477388245408687,
    -0.2424153713281069,
    -0.07918140300662206,
    -0.10863217037579359,
    0.005533328414685427,
    -0.2072755839957055,
    0.021788021559726846,
    0.062452761770561624,
    0.22609052591905238,
    -0.15420273736013906,
    0.7344514480821318,
    0.0028195616744876974,
    -0.14957841451748455,
    -0.0014212101898611559,
    -0.3924130930749135,
    0.2024621790838462,
    -0.04988191203735668,
    -0.01147638059815844,
    -0.029582227931046277,
    0.03320593092763141,
    0.09384803661910289,
    -0.3104187420687101,
    0.027476383035679064,
    0.6879348040769002,
    0.23225382884620943,
    0.2582224228024165,
    0.12114956997787832,
    -0.4734363709396458,
    -0.24250767949216315,
    -0.008527566452851966,
    0.0009961064195028642,
    0.9122331698214952,
    -0.0946946729721936,
    0.30451269722454527,
    -0.14547423410678,
    0.30605485039651553,
    0.17540238883847742,
    -0.26478431344103176,
    0.15817858551250932,
    -0.09250279088374802,
    0.14498030951522448,
    -0.4973073171404719,
    0.13419304653324834,
    0.014059229237085795,
    -0.21337629393483995,
    -0.08892895651393376,
    -0.0671178405698317,
    0.0749933524178579,
    0.1403978932547137,
    -0.17703127872934948,
    -0.1873880578359518,
    -0.11017465181801367,
    -0.10799661898482357,
    0.07165289180189513,
    -0.12819367925376243,
    -0.20125605942324928,
    -0.002094004240715452,
    0.024140646177662595,
    0.2523600003846574,
    0.19212665304553556,
    0.28960852968545303,
    0.06037852821941557,
    0.13573285282041073,
    0.1988498835815664,
    0.4110290710813118,
    -0.844296022555543,
    -0.21972136522676752,
    0.1390064455266244,
    -0.3007608877262859,
    0.11220502158800005,
    0.23225087912233036,
    -0.27847004405733444,
    0.27655121017396583,
    -0.06135603056698396,
    0.04259749213284363,
    -0.024969736519665945,
    0.08213119915633596,
    -0.16555787689102558,
    -0.1444185139782332,
    -0.13403589349119763,
    0.020269604250837635,
    -0.172946318384566,
    -0.18001115838051593,
    -0.09166797608434271,
    -0.3553757785212038,
    0.14436296382725153,
    -0.1210538413004437,
    0.1223797406138717,
    0.16594779989358804,
    -0.18886964399861061,
    -0.09337734817275045,
    -0.03840279656377527,
    0.1788981980785786,
    0.249580027518935,
    0.07186368098237914,
    0.02944769788543918,
    0.19997524107999912,
    -0.0812794655348144,
    0.32941905952484724,
    -0.8841567717645026,
    0.09508045872550108,
    0.24421089175279428,
    -0.060379494080582435,
    -0.2492306860642845,
    -0.1149873339522503,
    0.31478945066561537,
    0.16039670747929294,
    -0.175406300353452,
    -0.08790492775508452,
    0.13549418311252784,
    -0.057944132695892936,
    -0.1984155741345661,
    -0.22569745099307148,
    -0.01642001841595348,
    -0.04345989863615982,
    -0.07735775131331663,
    -0.22040210355114825,
    0.32390888407386836,
    -0.09134898698950723,
    0.019453462801684824,
    0.044774222565259286,
    0.03516932473858387,
    0.20682715089556725,
    0.10326810578359784,
    -0.3980144188141272,
    -0.21592378838468657,
    -0.1124255900459757,
    0.15605570607214284,
    0.1658494918393743,
    -0.13221856473425087,
    0.14078404282734924,
    0.025330383918601724,
    0.14953860836408334,
    -1.138042150702625,
    0.09302728976616377,
    0.17494737718009598,
    0.2229234192460049,
    -0.24809799009286715,
    0.159481374611653,
    0.06574736503068193,
    -0.06680882741916208,
    -0.04799101711878578,
    0.11035167383873318,
    -0.014991334566665597,
    0.31993249177276784,
    -0.07589626152536151,
    0.6472479596087444,
    0.01462145549738533,
    -0.20032041465122963,
    0.061900875264782364,
    -0.029150136905038877,
    0.05346119744093217,
    0.0961163376356502,
    -0.05243486385686925,
    0.10087343975463431,
    -0.14815765212695722,
    0.00568358564717742,
    -0.06862894039999273,
    0.5252274121901556,
    0.3880321782068884,
    0.1738079262545337,
    -0.019877002472146122,
    -0.15139447388758578,
    -0.18028549733635962,
    0.0002515389821031087,
    0.07585440149111121,
    0.2015364515228988,
    0.8611244218672338,
    0.07035211534008992,
    -0.23003434708755682,
    -0.5601016749067785,
    0.31905549174927,
    0.11763478782074105,
    -0.04664344382354314,
    -0.36983306529523624,
    0.22874277898898615,
    -0.12683800676752288,
    -0.3789925772683396,
    -0.07653825896190589,
    -0.4778258752654451,
    -0.8135242269887315,
    0.09940359908246635,
    0.10309672661674335,
    0.15435747724628834,
    0.35401269948015524,
    -0.3468483253315884,
    -0.3720772435512143,
    -0.24284590724039692,
    -0.4332321125342573,
    -0.01714881550387673,
    0.2853728156086105,
    0.008203658138565908,
    0.1975359940117903,
    -0.8338452004421717,
    -0.3709567292503605,
    -0.42181898632404646,
    -0.6122524799362923,
    0.3284715140849463,
    -0.22227072019126912,
    -0.15113503763489236,
    -0.3344244227449679,
    0.3030606600991566,
    -0.11660759699782203,
    0.09501602255874608,
    0.07473719071667993,
    0.15816388571398687,
    -0.1669287908543995,
    0.024069578275018145,
    0.1032468868902202,
    0.1368804334609215,
    -0.1284981829486573,
    0.1327142499692994,
    -0.11538381901453429,
    0.18045303434118062,
    -0.4881910149112267,
    0.11535635637399498,
    -0.0645580017352209,
    0.2044647353331113,
    0.07979051679956846,
    0.16102046655017369,
    -0.12978735749903506,
    -0.15430139941434376,
    -0.11494077320324912,
    0.254163312453623,
    0.17550292496912684,
    0.11814067893831787,
    -0.2069498656690123,
    -0.30439520458390873,
    0.3203566475254249,
    0.31692331334912793,
    0.32388427127202507,
    0.20145544458780223,
    0.3279141003493866,
    0.07738416455308048,
    0.15886862920798947,
    -1.150300996176541,
    0.08614801415788359,
    -0.002119389238405392,
    0.17310065925702667,
    -0.02779371760605105,
    -0.1260235246186013,
    0.27656528047646545,
    0.041947231875329276,
    0.2762486172052523,
    -0.22804479830242813,
    0.10242361156515141,
    -0.1083351646971982,
    0.261727608464846,
    -0.1945435918276925,
    0.09459728217611955,
    0.36279577727393325,
    0.2187143671238321,
    0.03484609772454446,
    0.03404732665520267,
    0.050966015281827724,
    0.05379941945325681,
    0.04434012957709125,
    0.20944401741223753,
    0.04045145145078773,
    0.3420010971873703,
    0.06499554382436182,
    -0.18016874864807148,
    0.1469757295855572,
    0.15116143736940624,
    0.2853644291667965,
    0.18494283416049068,
    0.3845731429092697,
    -0.020990342580874257,
    0.08676806379538127,
    -0.8244223911717737,
    0.042242911747175475,
    0.24542809130715548,
    -0.1523818341586599,
    -0.28217994988600037,
    -0.06985937554646157,
    0.09236004628821885,
    0.12120241735992121,
    -0.0813321878813643,
    -0.0462529910565152,
    -0.005737253354204225,
    0.15459587779552694,
    -0.11535400495009922,
    -0.48196801907688147,
    0.23730978924034657,
    -0.23349700353463124,
    0.12467422464218754,
    -0.48544664024666195,
    -0.18887757509853134,
    -0.15106377804800142,
    0.23597943130337581,
    0.43672311583250784,
    0.1927432723212802,
    -0.15225189761789787,
    0.21339817654273374,
    -0.0792100472799039,
    -0.2868451265432383,
    -0.19397949916620222,
    0.365437207507229,
    0.25047977885091205,
    -0.011641096710591128,
    -0.21131866272274358,
    -0.03459688428403462,
    0.30017412442474106,
    -1.028475773577297,
    -0.08953690990600713,
    -0.06496115469385241,
    0.04434517701461231,
    -0.13870059325810521,
    -0.07850733118250137,
    0.040320988958912306,
    0.07213154263725546,
    -0.17602472161613794,
    -0.05425269367233566,
    0.10254682839552698,
    0.07250733697744102,
    -0.038301188390997463,
    -0.035677092069044535,
    -0.07309620096623064,
    0.1906878212553978,
    0.013953025560997185,
    -0.07887505451010832,
    0.3033061679193244,
    -0.26263845161339583,
    0.016804857639982736,
    0.0018378036772473214,
    -0.06835208646466039,
    -0.1065009507030543,
    -0.09400928968416067,
    0.16979340974339147,
    0.23893694067111762,
    0.1691086696829903,
    -0.19188167052869906,
    -0.008579882357110264,
    -0.14222288648939252,
    -0.15858525549895636,
    0.03881024440618154,
    -0.12677029549034285,
    0.09958748786026313,
    0.0041052625145530115,
    -0.0013859218257736578,
    0.01510114382465869,
    -0.010833472518647136,
    0.023158054159162455,
    -0.004001198950859808,
    -0.01259633018768746,
    0.015002675939590806,
    0.015923624590217355,
    -0.007675793237893499,
    -0.006126980978149222,
    0.00800904643342905,
    -0.00715014721629096,
    0.011520720144054749,
    -0.0008828581242530611,
    0.01117293650682494,
    0.0025367558679125703,
    0.006488921938685764,
    0.013193927827384272,
    0.009509324637633364,
    0.010523684185772274,
    0.0019803417764823286,
    0.0022130874242588063,
    -0.0014521876194300105,
    0.013579713856762446,
    -6.00530389549507e-05,
    -0.004571621590132284,
    0.006592776302358182,
    0.004659971487316328,
    0.006300006741262159,
    -0.019550576642831594,
    -0.001716727435571402,
    -0.00418809908574099,
    -0.013773479711699134,
    0.003939073135887518,
    0.00806948004075243,
    0.007611841200985311,
    0.009069220961655045,
    -0.015330492573923764,
    0.01327099784961389,
    0.009783801794567934,
    -0.005250681942245756,
    -0.014430326984626013,
    0.004990422001144544,
    0.0057516394053152686,
    -0.005040889053275236,
    0.014804003566841155,
    0.004690605311199883,
    0.00864453108912313,
    0.007116299119237957,
    0.002580403085726075,
    0.005567049831076286,
    -0.002647295401560348,
    0.005652475213541274,
    0.012722926901970116,
    0.0034052090253302264,
    0.0066856573216840225,
    0.008980427823645639,
    -0.008988545804231723,
    0.005871118998188987,
    0.0094100878895595,
    0.0008428972186002473,
    -0.004478444835580481,
    0.012771722609698307,
    0.020756873327165783,
    0.006525296063212916,
    0.006904535012685068,
    0.010351161697977786,
    -0.000551596768144256,
    0.00648291092176476,
    -0.002601827014263822,
    0.008573583816915527,
    -0.021840136410194187,
    0.0076386785977626895,
    0.011118530496398295,
    -0.002898034706755429,
    -0.014983597734094125,
    0.014869232520359118,
    0.0017678250828360327,
    0.002077984111580461,
    0.01041006032928531,
    -0.0015556282667179878,
    0.006441610418461458,
    0.006964959894657945,
    -0.007802420187635726,
    0.01104058023683759,
    0.0012011434387973238,
    -0.00017707739091146784,
    -0.0007803461544586301,
    0.012236182035516305,
    0.0012642127853556531,
    0.0046197540121050255,
    -0.0165898154433605,
    0.004183961018296438,
    -0.0017741149702128782,
    0.00492438976243653,
    -0.005147416459852435,
    0.011172109935404084,
    0.016400837967584497,
    0.005783369305508645,
    0.01035287874775992,
    0.009403485724562463,
    0.008563401885001619,
    0.0037992984171357222,
    0.003915941223865202,
    0.008539126063973251,
    -0.023798880645893458,
    0.015092279345447655,
    0.009509095579229396,
    -0.006448896788187316,
    -0.009906321676755519,
    0.006771413908205299,
    0.007129627503817734,
    -0.004257445179189819,
    0.017934989022162895,
    0.004843030275511623,
    0.0024555339828233025,
    0.009318807999563142,
    -0.0015051675868687185,
    0.00566349075203786,
    -0.006833627327602482,
    0.006762440556519709,
    0.010155758630342902,
    0.00016248686080681647,
    0.0015530675068121272,
    0.0073239885610388,
    -0.0034475463173490677,
    0.007829274387733495,
    0.0056923265568153145,
    0.010408864883139605,
    0.0028242500948327974,
    0.014372708597791635,
    0.022625961778831225,
    0.006453622266541273,
    0.008742347253000602,
    0.010922977592814862,
    0.0030035776289993633,
    -0.0018906568477617578,
    -0.0021003854233333716,
    -0.00585883574139745,
    -0.0037038891381470955,
    0.0021375030766097414,
    -0.005853317796573225,
    -0.005625498252044577,
    -0.005298982626640604,
    -0.0038301266003364816,
    0.0013675012577696198,
    -0.002005023065424734,
    -0.0037255015778108556,
    0.0007462185829867461,
    0.002218988545251999,
    -0.0037196859530707507,
    0.0030899351870836253,
    0.00027094685144302914,
    -0.0017415565156502614,
    -0.002878449591845011,
    0.0012157119078402745,
    -0.005472062194748618,
    0.00204230654064265,
    -0.0030257391011573264,
    0.0005535805779219683,
    -0.0043966683485531545,
    0.0004926972996121886,
    0.00401738901878961,
    0.0015743929494128994,
    -0.005990115698120301,
    0.004381018977023304,
    -0.005835068573573163,
    -0.0023518855312404745,
    -0.0007300965931085168,
    0.005890308152778836,
    0.005680525216311568,
    0.005342842988960802,
    0.009747153511752036,
    -0.01902397693155349,
    0.01062254814027401,
    0.01706974953129572,
    -0.009417360350045659,
    -0.02253380214634165,
    0.017234177305918665,
    0.008896562622430113,
    -0.00885040411265942,
    0.013699390047160379,
    0.006658272558796636,
    0.010544012558439482,
    0.009387299495076435,
    0.005572612380047307,
    0.008451555304408907,
    0.004400697030891468,
    0.003665634863253004,
    0.00533864669738988,
    0.0029159251772515648,
    0.0011773919728681784,
    0.002728537721165119,
    -0.006982429430209027,
    0.014946993646883244,
    0.0012303804627807997,
    -0.004333125051022935,
    0.0002831281023957619,
    0.00478663843675028,
    0.012957673756743332,
    0.0013024238203646643,
    0.009615510409462942,
    0.011334588085702558,
    0.0017018435550252202,
    -0.00022654470678725133,
    -0.0012885629847198025,
    -0.007280185599860861,
    -0.005301959792550985,
    -0.0006223577675013222,
    -0.007869076017440855,
    0.009235171118545962,
    0.010779890314842212,
    0.0019119290821246128,
    -0.004147536694742008,
    0.014469904098141006,
    0.0017456820018610791,
    0.002794369407365533,
    -0.0018328238437680697,
    0.0004895944611505662,
    0.005060174694577886,
    0.0017450519765740788,
    -0.010511961263129933,
    0.0028113047910137915,
    0.0015815802198697608,
    -0.005985819944573912,
    0.0013337710977329115,
    0.015661553382480035,
    0.002654420709432568,
    0.0001713293198518536,
    0.0042930017084408835,
    -0.0001119070514386003,
    -0.006544450866407284,
    -0.0059266727535083295,
    -0.009438213230926997,
    -0.006673114941958859,
    -0.006691097401679654,
    -0.022984651399105768,
    -0.004849454077552741,
    0.006763724218591916,
    0.0017576172730166706,
    -0.0007997853734351087,
    -0.012663050722195635,
    0.02107065247172324,
    -0.008456222671785247,
    -0.007754041975392227,
    -0.012260262793543341,
    0.01619904799916554,
    -0.0077926914107804375,
    -0.009776574718543127,
    0.01232878739066887,
    0.0029684309203592777,
    0.010165376923442722,
    0.0026643993057464525,
    0.0037456555625022207,
    0.001617514808764259,
    0.012596932993116556,
    0.001472558603233409,
    -0.00662825148844589,
    0.0042240935423140365,
    -0.00019560128723151068,
    0.0025273478493841725,
    0.0038810195792286705,
    0.010168334659247692,
    0.011700971458886452,
    -0.0003905878615370067,
    -0.00351453186942765,
    0.00021839673591653289,
    0.006265012918448596,
    0.005592734094877651,
    -0.00948159166016658,
    0.0037653776007309653,
    -0.005623801017005115,
    -0.0008773417380887512,
    -0.0025475012882072256,
    0.011569028508499175,
    -0.006188228650053437,
    0.011327779097367794,
    -0.0052855457126566,
    0.0021100305247528043,
    -0.0016294126952910968,
    0.003091285110802511,
    -0.00038984281070474026,
    -0.013498188181093076,
    -0.002849040669545816,
    -0.005754176366926184,
    0.0019028626426262725,
    -0.006282570680445353,
    0.011199232258891238,
    -0.00761704354038622,
    -0.006409236391833319,
    -0.0007239727451987373,
    -0.0026986160625184475,
    -0.014044291960265043,
    -0.007375130371644985,
    0.005787508154400023,
    0.007818942125430436,
    0.013394509230502458,
    0.0040951315937141726,
    -0.008476848543252254,
    -0.006389042509512326,
    0.003320968450783969,
    -0.003340552580883937,
    -0.003145576199174834,
    -0.007472155029755418,
    0.009978623935711464,
    0.0033086095759429306,
    -0.007992980973372222,
    0.00545610613207906,
    -0.0001323457391633276,
    -0.005018554135786115,
    -0.0025800244871207736,
    5.0088730402646506e-05,
    -0.0009248142318613723,
    -0.004803465307466612,
    -0.005115238486955703,
    0.0016479492329705314,
    0.004662597184772846,
    0.002403608685973907,
    3.908457942483802e-05,
    0.011284733937156554,
    -0.017384791117634357,
    0.0013146054838553778,
    -0.0020044701685712814,
    0.004434167201605171,
    -0.0019162879566244034,
    0.013691883456640921,
    0.0066113599617126,
    -0.010467967410856606,
    -0.005343020656944319,
    0.001264601629079887,
    -0.00040578652759916796,
    -0.004286814174794623,
    -0.0009334815631309537,
    0.00807349672332251,
    0.0008845678304908204,
    -0.005327835919199643,
    -0.009675796134002528,
    -0.005300437592407747,
    0.0025660843820840408,
    -0.00022352192917541328,
    -0.0023720284227517815,
    -0.0016362503058009756,
    0.005999797278629243,
    0.006208085374043016,
    -0.0019016264907166097,
    -0.0025906670957758695,
    -0.01007598072509704,
    0.00250768244042359,
    -0.00774570978947958,
    -0.00641324571172421,
    -0.0018532991196328862,
    -0.010661562581961805,
    -0.008541777995955601,
    -0.01187018937054585,
    -0.007540245451234595,
    -0.006070170461408312,
    -6.898955193155936e-05,
    -0.005007731231384092,
    -0.005985248422493906,
    -0.004622032261199682,
    -0.0029358367738464455,
    -0.001960882437370245,
    -0.004727791388799736,
    0.0022866258725638138,
    0.00167610450403493,
    0.0029276559845175026,
    -0.010577017372799773,
    -0.00012204619138430568,
    -0.006330461480957204,
    -0.0035602515751314264,
    -0.005890355943204853,
    -0.0056634976229329335,
    -0.0027307400208563372,
    -0.0004057957180792523,
    0.005371227540536226,
    0.015634292764422228,
    -0.003932835980257673,
    -0.018725832984771797,
    0.007864008039271746,
    0.01363756516517728,
    -0.007765354454762728,
    -0.014350128080172915,
    0.017544864038672704,
    0.01539907830124752,
    -0.008686661145625526,
    0.01634692950588673,
    0.0010572645908461479,
    0.005801258985860066,
    0.006245176633919724,
    0.006804031167941577,
    -0.0025066961430703955,
    0.010148621845777927,
    0.010348215970184033,
    0.00028543857182075253,
    0.01040728369897224,
    0.004935842877184282,
    -0.0035537767091097855,
    -0.009590866689266203,
    0.010125452900904991,
    0.005314831986913269,
    -0.005095865651753174,
    -0.001299173992857674,
    0.008374447903950765,
    0.020639653894468424,
    0.006029307359760325,
    0.0086633693466151,
    0.01091168236096071,
    0.00586704302861806,
    -0.0034385537291705564,
    0.004946531156963832,
    0.0018065684199274352,
    -0.018126777954071645,
    0.008244162275141147,
    0.01241586713118525,
    -0.008019125136728453,
    -0.006737857397431065,
    -0.0004691217946087064,
    0.017479043670587627,
    -0.0013491038206418712,
    0.011865724162212096,
    0.0015813628337929826,
    0.009078249082108312,
    0.004030269622771118,
    0.011117507161142763,
    0.0036980790237227446,
    0.003939352164300713,
    0.0009909200753564329,
    -0.00197487576888533,
    -0.005702877670758441,
    0.009796253989128551,
    0.0002685215236869582,
    -0.007563635789141708,
    0.00640180299298452,
    0.011316122764684052,
    -0.003911111400753836,
    -0.0066900235103222435,
    0.009849956771618481,
    0.017637939151607697,
    -0.003548933212722398,
    0.007642494603344637,
    0.008315709376487844,
    -0.002448926611762019,
    -0.0005325784479346541,
    -0.0019969530501412454,
    -0.007916108262415254,
    -0.010728750716516678,
    -0.0032995406087812564,
    0.001162824376367969,
    -0.007955701914204085,
    -0.0012744873122603583,
    -0.011128127819177026,
    -0.00045035819582086363,
    -0.006564818913050041,
    -0.0037430563733852644,
    -0.010906235429448463,
    -0.004337740112147683,
    -0.00349061486025786,
    -0.01096603403090711,
    0.0024843738230853566,
    -0.001281940280092234,
    0.0068494099263056605,
    6.159568163012231e-05,
    0.001073018263074891,
    -0.0027325543085366787,
    -0.010408130704630758,
    -0.007660927597186567,
    0.0006545694089385137,
    -0.005431653350213354,
    -0.005075053181603634,
    -0.001694016764105709,
    0.0023645331516124776,
    0.0006617869496964799,
    -0.005643708657410213,
    0.0036438443817075855,
    -6.566252725564318e-05,
    0.004899262141348774,
    0.001128460912819759,
    0.00036610202494613797,
    0.0013063692404567241,
    0.021458531215982405,
    -0.016669821878108886,
    -0.009882919398414286,
    0.010394994506919249,
    0.018965277222743816,
    -0.015242512825643944,
    -0.007413859915260691,
    0.011204705175841871,
    0.0022576990776737482,
    0.010056513719682875,
    0.007012820570459516,
    0.009705356332587735,
    0.0054919204279138215,
    -0.0069787256491877,
    0.00831173443543564,
    0.01232416543647062,
    -0.002666028059428544,
    0.0005695796913035968,
    -0.0017890371287918037,
    0.010267845781031378,
    0.011508941537153622,
    -0.004038884049209912,
    0.00025056516761603727,
    0.009433832003243431,
    0.017834528819965202,
    -0.0012200506409206495,
    -0.011710270800107583,
    0.009377686575586214,
    -0.010822370052334733,
    -0.003534021755414616,
    -0.0014621950802439483,
    0.0061103315043410135,
    0.009138677445366943,
    0.00801151672654583,
    -0.022573262439361183,
    0.014096391516048754,
    0.009497173968187516,
    -0.0015206938781674552,
    -0.015005868831917122,
    0.009377423227532608,
    0.01379703622244431,
    -0.0021811427259496702,
    0.014663924510218551,
    0.008704331726629698,
    0.007858796786776697,
    0.002129885397232576,
    0.00569531804996125,
    0.0074386868960065865,
    0.005036149334026329,
    0.006500598599332152,
    0.008008980833940756,
    0.00308028420630097,
    0.005154790766125501,
    0.0068034783951638434,
    -0.006338173306428779,
    0.013687677121990678,
    0.001066545001296767,
    0.0016041962262869553,
    0.0010795716197419159,
    0.00643522985548211,
    0.01920732281617119,
    -0.0008532926625498305,
    0.005693119320819792,
    0.009320598445188776,
    0.0007179511715290354,
    -0.003096505049056289,
    0.01246378453413824,
    0.0068721991570136,
    -0.015872585793221747,
    0.008005436265956364,
    0.011296494226867806,
    -0.00874435846844159,
    -0.01966803275544863,
    0.016438173006907923,
    0.012675412156692704,
    -0.003133808571190519,
    0.017525540820987305,
    0.004604089491650818,
    0.008603311032047855,
    0.006606646722344087,
    0.011445981943162528,
    -0.0006750695515632668,
    0.007678623823815291,
    -0.003026102825788904,
    0.006378460010027736,
    0.0025938184353104226,
    0.000726242765260264,
    0.012721713213176233,
    0.0010478746429969747,
    0.013546127736553532,
    0.005791754328606794,
    0.0004466844426352465,
    -0.0063015246419197415,
    0.007393236687396966,
    0.017193253246367963,
    0.003226624178328113,
    0.0068850161904103315,
    0.014178889724078917,
    -0.00028960674916581313,
    -0.004865860514706833,
    -0.005595591349535842,
    0.0018320923651438286,
    -0.0036661872744604145,
    -0.005048231098732791,
    -0.007955491466290706,
    -0.0006811226414075652,
    0.005786784263171887,
    -0.008477662365971847,
    -0.005898157813411531,
    0.0036208673768653296,
    -0.008487484263986402,
    -0.004252590272038356,
    0.0028154292975310514,
    -0.009856693863362779,
    -0.008760938147899768,
    0.0046547319167955055,
    -0.0012815279750590797,
    -0.003935128080087271,
    0.004288294820428245,
    -0.005660396287405443,
    -0.002987309214968222,
    0.0016650876089615478,
    -0.010197956836983943,
    0.003088078890533575,
    0.0005460890801222367,
    -0.0017483612047533724,
    -0.00842469696812526,
    -0.007976623764417025,
    -0.003866364287690878,
    -0.0010670099193026573,
    -0.0011963753749107482,
    -0.006960148808182686,
    0.00425159585034333,
    -0.006226765286274258,
    0.00466399739658483,
    0.008503554532221156,
    0.014231775826656539,
    -0.009468728410921489,
    -0.005094636813703337,
    0.010654813770169882,
    0.01119380771516621,
    -0.005205748297956918,
    -0.0077810928225803,
    0.014544436625402585,
    -0.006035233933856051,
    0.0043330013210551716,
    0.007460631677561804,
    0.0071058243806951405,
    0.010674155955356004,
    -0.01429554955030418,
    0.018681305748651733,
    -0.010868925883366295,
    0.007444703200343078,
    0.004579972016343135,
    -0.003937501965507584,
    -0.003689040543751719,
    0.0007441039709258534,
    -0.002166090363516108,
    0.002359695062275814,
    0.0038059824994767714,
    -0.0016106558065395844,
    0.004024412339557343,
    -0.001530613724415007,
    -0.00424355295005702,
    -0.00787103452093745,
    -0.009031480062202937,
    0.006292396011278189,
    0.0031795578050309464,
    0.01191293828113945,
    0.0044504655970131635,
    -0.02118308407319491,
    0.010255873199584724,
    0.01565478331389167,
    -0.011603026123676006,
    -0.016685478252768282,
    0.016718593694083177,
    0.018181243049297226,
    -0.0085497482009945,
    0.021880391736253352,
    0.0073747095740481095,
    0.00691801115583159,
    0.006653049083979762,
    0.010323374656685438,
    0.0026584402993527732,
    0.003139966165794651,
    0.0036272676713630992,
    0.005617376545736771,
    0.009766400191163748,
    0.006752700368601663,
    0.00027492140053027476,
    -0.005409712623275652,
    0.01110787640078752,
    0.008381552054155913,
    -0.002163427267773033,
    -0.005725175563786656,
    0.009307286853965322,
    0.01709193079548577,
    -0.0019581088656053145,
    0.01137915555942591,
    0.011777537073707057,
    0.005635342125567455,
    0.006066655002738479,
    0.007383680731008128,
    -0.0030703969807091627,
    -0.020593191664313223,
    0.01627166365408968,
    0.008630694949222202,
    -0.011023535323569448,
    -0.014787257872731432,
    0.017460460736314642,
    0.017378313714952097,
    -0.007218346836922699,
    0.019993925641312714,
    0.010477711270798494,
    0.004216960926921238,
    0.009890709390242957,
    0.006574309916908901,
    0.010003786922174759,
    -0.0016439306959895811,
    0.008419546697681968,
    -0.0030610239164320045,
    0.0029560207503285924,
    0.012017836720974126,
    -0.003716300462434067,
    -0.004419184794664575,
    0.005256818480934674,
    0.004877922781689698,
    -0.0005386179265969939,
    -0.005929083171505245,
    0.009427086101471015,
    0.021314456691280216,
    0.005175535999216296,
    0.002167983433832035,
    0.009245161172799788,
    -0.003387784330570656,
    -0.0031697285299802586,
    0.006530462300723731,
    0.010009380722917275,
    -0.0080977634942156,
    0.006509709583322069,
    0.003924995178945186,
    -0.0007964220331254301,
    0.0005751438393449684,
    0.010074829684526174,
    0.011690699450353746,
    -0.005406484465188431,
    0.003937371385410396,
    0.0032543041860461815,
    0.0064673061134096115,
    0.00389323109590696,
    -4.136684981655702e-05,
    -0.011505856479484143,
    0.0023822660237225496,
    0.008684191011006233,
    -0.004933810254065874,
    -0.00038936272381321393,
    -0.01302512845525498,
    -0.002641019546492149,
    -0.0024038322029624882,
    0.009325939093175766,
    0.008239407469310137,
    -0.0006344225283694395,
    0.0021369872427685105,
    -0.0015378185907491786,
    0.004217343924085753,
    0.0024104943770358427,
    -0.010501759571500588,
    0.003987712961030751,
    0.004501210898677514,
    -0.0020197162871439874,
    0.005166462048192235,
    -0.007650865577484847,
    -0.003408603835107984,
    0.0019809969336997218,
    -0.00477653675441038,
    0.011126633044260044,
    0.0020189909968171046,
    -0.0009420826865634068,
    -0.0007635087806853532,
    0.009860870511325712,
    -0.004071818220996677,
    0.0015700351286211834,
    -0.0015824392160898504,
    0.00619510048758012,
    -0.008509085342145156,
    -0.014130395384779419,
    0.016913900719508938,
    0.001784734180320258,
    0.0184991864661511,
    -0.008641014055900306,
    0.007502250322303198,
    0.004767100087065586,
    -0.0004962578577244114,
    -0.0007244627620328784,
    -0.007256886302325159,
    0.003530754938312322,
    -0.003756927078591148,
    -0.0031283616774888034,
    -0.016370747839841802,
    -0.009619672333666309,
    -0.0007393083745230864,
    -0.006020862177017636,
    -0.004164019576313134,
    0.009334649060849876,
    0.005323136531651085,
    0.00877283215285506,
    0.025373772626700205,
    -0.007377503452125945,
    0.0038663765547784887,
    0.002561083661434112,
    0.016590160146395527,
    -0.00522314866345024,
    -0.005347267969164996,
    0.009614306876243442,
    -0.0092998637272324,
    0.016780942600481626,
    0.011465826386098641,
    0.008989310516235303,
    0.006308450299046258,
    0.006094989696797816,
    0.0033186101038051763,
    0.008358102492610648,
    -0.0009642616337286738,
    0.002518031645075746,
    -0.005087692280384255,
    0.01505315473801536,
    0.0125935341505952,
    -0.006952129374542833,
    0.008833415103496585,
    0.004373447391347613,
    0.011508801570250672,
    0.006715950312892293,
    -0.010496520429812962,
    -0.0010977092671032777,
    0.0025679668972450123,
    -0.02308311573239136,
    -0.0069456068287193,
    -0.005397971585935782,
    -0.005314979016611274,
    0.004695578270272989,
    0.0029307338597328344,
    -0.0018043583516716233,
    -0.0027010533224705716,
    -0.0004360627372333447,
    0.0005886604331523917,
    -0.010211974226770492,
    -0.003324234910198194,
    0.00961387385810614,
    -0.00964993040207182,
    -0.005871853468186642,
    -0.0061720299452485685,
    -0.004073334966935531,
    -0.0005432457794601093,
    -0.004285912622198493,
    -0.0056572386854021415,
    -0.00894187016670511,
    0.004012554817181078,
    -0.0014606792324202025,
    -0.004630803117754563,
    -0.010731416148467446,
    -0.010394779568771254,
    0.002646473405721512,
    0.005031728176220304,
    -0.003873605785515382,
    -0.0025458008543429184,
    -0.005549912457363927,
    0.0005501747345540123,
    0.0017905317013709704,
    -0.006210110864613067,
    -0.0012743562981337145,
    -0.0030995707395006333,
    -0.007530154702013779,
    -0.005397903346522787,
    0.0058617607313615205,
    -0.0005757698144294052,
    -0.0013178604010568608,
    -0.005191343096165398,
    -0.0066010043626230875,
    0.0009811714223437941,
    -0.005237962498221076,
    -0.0012008215593104913,
    -0.0032001984524889825,
    -0.001195353776496234,
    -0.010512208614302741,
    -0.008501909631048372,
    -0.011103069077322511,
    -0.006912328317173547,
    -0.008893157299351426,
    -0.009029668263425971,
    -0.002260800727598075,
    -0.003926969073850534,
    0.0004492731503709275,
    -0.0027768717724410996,
    -0.0007948985825404025,
    -0.0018412455056048577,
    0.0027424821336775995,
    -0.006808958983942107,
    -0.010924441484088143,
    -0.003038541828747787,
    -0.005865297287244153,
    -0.00526445007990758,
    -0.005373845415988361,
    -0.0029500317162841306,
    0.004445341479792747,
    -0.007375184020357812,
    0.0008034512413596738,
    -0.01094963780999383,
    0.0012008988932494234,
    -2.5737333745943748e-05,
    -0.0005026740126286248,
    -0.00799294781343474,
    -0.0005245293734932247,
    -0.004367138576049632,
    -0.005472154915305783,
    0.005498547216732835,
    -0.008861209726408104,
    -0.002424599992849793,
    -0.003135744879547326,
    -0.008402376653980123,
    -0.003664422856967515,
    0.00011452420028939389,
    0.00022112706531864722,
    -0.0009167233533787198,
    -0.0009210656710298484,
    0.0012257063664141013,
    0.000637729256886858,
    0.0018543043252739423,
    -0.00420931397085962,
    -0.005799382814482189,
    -0.004407405949522972,
    -0.005292114393730512,
    0.007640902468930957,
    0.006719837187225955,
    -0.0038873700495299667,
    0.003682129250952497,
    -0.003710977799568816,
    0.0050056621293116,
    3.806534231094618e-05,
    -0.0030747999283818844,
    0.007228037685641097,
    0.008788099522037907,
    0.002859894922533756,
    -0.02076725453820144,
    0.014825221438620738,
    0.012176321799651115,
    -0.011504230117619235,
    -0.018856048143955417,
    0.012981495017388708,
    0.012297742108749662,
    -0.004053729017015651,
    0.017786217637499557,
    0.0005493489311249569,
    0.003989174238347932,
    0.006886769825552434,
    0.01205296956800193,
    -7.595623021349516e-05,
    -0.006690393987644821,
    0.005993029444791039,
    -0.0012766226667833673,
    0.0019877972395511427,
    0.004447988343488176,
    0.010102908232369296,
    -0.00483335216438488,
    0.008306255816822056,
    0.0023486464780898657,
    0.0006643534789999214,
    -0.0009790526511828505,
    0.008852137248932603,
    0.017403407130523272,
    0.0037138838124456254,
    0.002113172643917126,
    0.013870294835999842,
    -0.006010915727892807,
    -0.0037607117455283443,
    0.008762889501313573,
    0.005904903942530378,
    0.01833361718888489,
    -0.005930807799928321,
    -0.012005722505670597,
    0.006842802226577776,
    0.011791960717675508,
    -0.005455439564570216,
    -0.021504649240545556,
    0.012724486408004975,
    -0.003109039275787295,
    0.01618026337831602,
    0.010850006612179885,
    0.0022616353571243736,
    0.005832213830513339,
    -0.012432487720080388,
    0.020449344877434907,
    -0.005420764437841855,
    -0.010239693427958557,
    -0.00010899043594549689,
    -0.007952506684821182,
    0.013092880452155205,
    -0.0012819394363515748,
    -0.0034950820203576358,
    0.0014205470239641502,
    0.014545079943116337,
    0.008849961510400964,
    -0.0031890326596357935,
    -0.01472533030482982,
    0.009476586241246572,
    -0.005557857997502867,
    -0.015691479519008768,
    -0.0032977050938803316,
    -0.0016224621314381397,
    -0.009035409058425864,
    -0.005384272795560616,
    -0.0052029259869390615,
    -0.003425607834777067,
    -0.004369431842998973,
    -0.0009098086955871634,
    -0.004881269109692219,
    -0.00044992249737579984,
    -0.0053634810247633665,
    -0.006321377962216531,
    -0.005915901722136905,
    -0.006551515805373554,
    -0.006815882180869218,
    -0.004985004523669985,
    -0.0029754302369725556,
    -0.00034777429663096834,
    -0.0015663051505071064,
    0.004495916269222371,
    0.0008154573088944237,
    -0.005206381156307716,
    -0.003524888495725889,
    -0.005619142598390784,
    0.0006989194512940863,
    -0.007693522741237609,
    -0.001149061701042955,
    0.0023460025917830707,
    0.0010579399293854698,
    -0.004084951659705953,
    -0.0032814406465690484,
    0.0025240926014606993,
    -0.0042141745678048095,
    -0.0012070699475992895,
    -0.010459454687932287,
    -0.0026022341069701464,
    0.010811963960319184,
    0.006940383352922383,
    0.023145594291400038,
    -0.010886684295167252,
    -0.0012264722985737653,
    0.013432342030659057,
    0.02241590602202804,
    -0.006037480161095544,
    -0.007782559272732938,
    0.005976266760459666,
    -0.00013307178016750396,
    0.001955155879723715,
    0.0007607771546320425,
    0.008664915845422685,
    0.007655435456760154,
    0.003443710569821313,
    0.00680900177840179,
    -0.0012516655607983339,
    -0.004034794419218859,
    0.004172387218430039,
    -0.01160075071850977,
    0.009392086945113651,
    0.006863808219237549,
    -0.007688083720479504,
    -5.249555850341127e-05,
    -0.0011015509261495522,
    0.004457719422935829,
    -0.0039767431436969975,
    -0.008177624085089532,
    0.005215277170555932,
    -0.0032862802294822873,
    -0.010643029669800467,
    -0.0037195028750605717,
    -0.0022543090909769034,
    -0.00037572749547163216,
    -0.0004153580581678893,
    0.0007177925288100409,
    -0.005723954042521563,
    0.0021407491984178854,
    -0.0024291079667697227,
    0.005050057198677241,
    -0.003463253175670531,
    -0.000955314893374222,
    -0.010188596309118161,
    -0.006896495228571824,
    -0.00953075389342662,
    0.0013081870457909465,
    -0.004158915601853531,
    -0.0066172611941443926,
    0.0013728903009983774,
    0.0026065635705237915,
    -0.0029052336803233308,
    -0.002506650380179946,
    -0.00729040409950041,
    -0.002191965739397592,
    -0.006189196134094721,
    0.007489960816984172,
    0.002975792173353094,
    -0.003251824445951529,
    -0.008580963004387588,
    -0.0030482871624840932,
    -0.001958486736562802,
    -0.0018133095394438968,
    -0.0112066859118527,
    -0.004375365160361579,
    -0.007710965527066048,
    0.0026078758294532886,
    0.005201317456372351,
    0.010861471113357248,
    0.005613160127464009,
    0.023930314969840244,
    -0.009246270785745539,
    -0.01039394609103201,
    0.004216806806732983,
    0.02006493090881902,
    -0.00988641148888592,
    -0.010708295324136747,
    0.00996576442604322,
    -0.001045260479384342,
    0.012559189930695484,
    0.011372272482576246,
    0.0024267511157715286,
    0.009415265227879997,
    0.002475977044797375,
    0.00787090883900535,
    0.005022656851894513,
    0.005371946883010062,
    -0.001174392029874867,
    0.006697735556714368,
    0.01566942313777784,
    0.0063711873658895335,
    -0.0030259599303142444,
    -0.00042212865791662506,
    0.013754420084003405,
    0.007797487548601022,
    0.006059544654207659,
    -0.015015789756287758,
    0.013377739685215726,
    -0.0012760967976473282,
    -0.010995277447466954,
    -0.004946119343310807,
    0.0036749376938009343,
    0.016581343535434688,
    0.007989876102878204,
    0.024492667733014124,
    -0.008878355860142812,
    -0.010515854421863919,
    0.014889591753336727,
    0.015756723056368608,
    -0.006544286829397372,
    -0.008490971307421684,
    0.009646492486801201,
    0.0015555393079904399,
    0.005603289736263474,
    0.008644817838028599,
    0.004322350974345047,
    0.010103656835958656,
    -0.010107641372150896,
    0.0009329991521095217,
    0.005285154610674351,
    0.0027735345999565396,
    -0.0009817230881203954,
    0.005274649310674855,
    0.01150426800672072,
    0.00654585872997755,
    -0.007781110818132171,
    0.0017833942555710558,
    0.012045257605945239,
    0.004495572665051298,
    0.001760792581165114,
    -0.01697348535469522,
    0.005344690730623448,
    -0.002693179131918263,
    -0.012970752212560978,
    -0.0029536359425798675,
    -0.004967040164628664,
    0.0031889142544412946,
    0.0009746144670109886,
    -0.009932269808536301,
    0.0023438065347600617,
    -0.00595102659545282,
    0.005596422292538659,
    -0.010867814769306781,
    0.0026372817701785026,
    -0.00838757208420575,
    0.012783710687633334,
    -0.002519083679475716,
    -0.00471862826181413,
    0.007064997136167276,
    -0.00367199478347043,
    -0.005263292822854168,
    -0.014249678905521318,
    0.01451000931896036,
    0.0037105663689613235,
    -0.003468153098698897,
    -0.0007700205886931815,
    0.001902012175193692,
    -0.00011044215246829118,
    -0.0011991520438445352,
    0.0029682374578833175,
    -0.0026478695935928122,
    0.006253739643177082,
    -0.00041354759377209546,
    -0.0010160861178368239,
    -0.003310638446068699,
    -0.005876900297408475,
    -0.00971908396723242,
    0.001990716910113763,
    -0.004750356954713767,
    -0.009445475429804211,
    -0.00820655548327927,
    0.0025745556992811604,
    -0.0022744067952404135,
    0.005359736420428211,
    0.00437350551571701,
    -0.0017971501973193568,
    -0.010766412228346137,
    -0.005461901254888944,
    -0.0011249680588470694,
    -0.0069465897904233305,
    -0.007612425394043478,
    -0.005455722333935837,
    -3.9043267099611274e-05,
    -0.0023583746774975957,
    -0.005731349696722077,
    0.004498845548629997,
    -0.008804264988740606,
    0.0010431593741505962,
    -0.0010123503850671609,
    -0.0010700954754134225,
    -0.007296200953191496,
    0.0021778640016430336,
    -0.00570732656540423,
    -0.003738712764707574,
    -0.00041311637030396793,
    -0.0004872431437847388,
    -0.00503559013711717,
    0.002146507036919617,
    0.0044122324702422396,
    -0.009122942655773129,
    0.005960831079774818,
    0.0057385331231424195,
    -0.011325674407870237,
    -0.008337126526344107,
    -0.0007979963835954257,
    0.0018566904277615643,
    0.015429515409173863,
    -0.00889429932202092,
    -0.002971488861257344,
    5.454871891145128e-05,
    0.013834109682297898,
    -0.003100460098179841,
    -0.0015497513026551642,
    0.0093213881924547,
    0.002165287254491022,
    0.0012224866058055924,
    0.0071171716974556,
    0.005585633828554085,
    0.0012727040545003482,
    0.017714738614331836,
    0.005209030364668629,
    0.006925094287196318,
    -0.005105129479211617,
    -0.0068429328243946866,
    0.004406704757654516,
    0.01892443296523879,
    -0.004566028346146104,
    0.0019869715692636997,
    0.003517250869410894,
    0.02096563148011189,
    0.0030026714826465184,
    -0.0043661454884234155,
    -0.018245337585749144,
    0.0015415947508606988,
    0.004411121073908309,
    0.0001761773464015436,
    -0.0006489345322476441,
    0.00616169633067746,
    0.00557839193479763,
    0.005653786728195789,
    -0.022305669750355663,
    0.011439751898058998,
    0.010167527107385927,
    -0.005348702940674951,
    -0.011230749965506335,
    0.00560071544990725,
    0.014585504868200684,
    -0.005424813076121288,
    0.011311907414111895,
    0.008083124365074723,
    0.012995576499004001,
    0.0057993395806445296,
    0.0033794017364842245,
    0.00574810880980942,
    0.012763937569556683,
    0.001474978076694389,
    0.005578384450911892,
    -0.001077403670570701,
    0.004896317858584688,
    0.003197498625172793,
    -0.0058048407088011475,
    0.012870790736114949,
    0.008809852042992535,
    0.0021232291022400744,
    -0.002508673297117121,
    0.003287127469245474,
    0.02012185651971261,
    0.006306216152360536,
    0.01168006995610573,
    0.011121982111597066,
    -0.0007091369581599569,
    0.007813171925942565,
    0.004469040539700794,
    -0.0015852116320506514,
    -0.018139084378698232,
    0.009559708298356345,
    0.016015575449564157,
    -0.015132925507995313,
    -0.01709314844314713,
    0.007225989845116172,
    0.0149126356979234,
    -0.008932559523134449,
    0.015573376279916692,
    0.012795825378012568,
    -0.003624444815431682,
    0.007088374136504521,
    -0.0032773804442025934,
    0.007902364236749495,
    0.008950780146297813,
    0.0059922154667899135,
    -0.004889236214086266,
    -0.0004745483339257198,
    0.007212948041537947,
    -0.0043842033529770145,
    0.0011550855010560449,
    0.012881684768141142,
    0.0009416143626236553,
    0.0017893890643357487,
    -0.00849747306707343,
    0.006869461088022606,
    0.017508841665231548,
    0.0038238709591443786,
    0.01133091133309294,
    0.013437139762795635,
    -0.0030650475792935766,
    0.0016410801596578868,
    0.01316712717186774,
    -0.006270884813514578,
    0.02826461226182472,
    -0.00973622067074193,
    -0.014361896418364413,
    0.012220132554488668,
    0.012920477500931234,
    -0.004080751974519219,
    -0.010936091050622121,
    0.015062872709824288,
    -0.007770742515270702,
    0.007429485634956512,
    0.015198817352835669,
    0.014941386101824895,
    0.010595665837829659,
    0.0009488047839839998,
    0.011349774025053237,
    -0.0026883102339517375,
    0.013475862533637679,
    -0.0008256125263921401,
    0.01108522844801951,
    0.002008474466021602,
    0.01898369930459499,
    -0.010266261763222106,
    -0.0010811429732629251,
    0.013579976874380593,
    0.007575908232178738,
    0.005594787183636226,
    -0.010548794493437414,
    0.00517601629492094,
    -0.0038004670938564583,
    -0.01345826316192718,
    0.007380257265897883,
    -0.006424353697639109,
    0.009241246301617139,
    0.011904359539826813,
    0.01766560009218184,
    -0.012731655681189159,
    -0.00668045527273993,
    0.007455723143309372,
    0.008822010501606317,
    -0.00759134979782589,
    -0.009686806648960511,
    0.017835754143663025,
    -0.0028356633895633312,
    0.00226551890726251,
    0.0067655364736381365,
    0.0035256961687689155,
    0.002451281302939664,
    -0.001275606457310336,
    0.010736947650167458,
    0.013132885224867198,
    -0.001473940563507436,
    0.000202825633268634,
    0.0027233332552981738,
    0.008457705684340197,
    -0.002618756740495202,
    0.003918597401133609,
    -0.005288203956912756,
    0.004637547763826864,
    0.01896589074038235,
    0.004145690592395173,
    -0.00888079049350971,
    -0.009034608379337769,
    -0.0026158725299029414,
    -0.009629854562950398,
    0.001183154831536298,
    0.0060575983975755705,
    -0.004825843465244024,
    -0.007004435599418936,
    -0.012256206813132756,
    0.013273029492015117,
    -0.008509113846587854,
    -0.006367337170116159,
    -0.015564217196310907,
    0.019873945248923622,
    -0.002653167072205007,
    -0.0013504910607964938,
    0.013049610890808645,
    0.007116026001022658,
    0.0020492554658317484,
    0.00328555951359503,
    -0.0007686089480087427,
    -0.01387086417040889,
    0.0008767919394225709,
    0.010494785526481653,
    0.008247645272726943,
    0.008056678054149525,
    0.001735552993159519,
    0.0056547442708342185,
    0.004088020068665948,
    0.008678070477536501,
    0.006113602088698514,
    0.006287202247123184,
    0.004528435338817494,
    -0.0025744023343252103,
    0.010590770631406695,
    0.0064830426213542,
    0.01621344879580213,
    0.009124469095275567,
    -0.006129265638195841,
    0.0006219566026237732,
    -0.004451923390800706,
    0.0018124502753898268,
    -0.004666616885279238,
    -0.010575333363974074,
    0.008556182714290221,
    -0.012221304889388466,
    -0.007041633157292415,
    -0.007354298209532114,
    0.011841971030537466,
    -0.007819823126947784,
    0.0024910048632796732,
    0.00033096373819620515,
    -0.007816143838270527,
    0.0023912130723064734,
    0.006532338585024053,
    -0.0026760279854103077,
    0.011663045407199642,
    -0.003824767095856712,
    0.0067760959465037445,
    0.004292746298678895,
    -0.007984594375475688,
    -0.009880429849036537,
    0.005097952399717283,
    0.009370139005536503,
    0.0019187098997564844,
    -0.00017242283889539023,
    -0.00393682097810499,
    -0.0025942150783310213,
    0.003923577176794572,
    -0.013557407400932081,
    0.0028894720105462368,
    -0.005444149679780786,
    0.0011769859669882362,
    0.005628135026989851,
    0.0038894095281853964,
    0.011277440185815182,
    -0.020187957217683798,
    0.015668158882818167,
    0.008774472149825694,
    -0.00485974867206905,
    -0.010924308216585734,
    0.016359877438726765,
    0.0082238246741875,
    -0.005667518204854137,
    0.01711180505981644,
    -0.000891778643915522,
    0.008562962730356508,
    0.010827202075644358,
    2.745983879313747e-06,
    0.0026056023598681356,
    0.002363566554146305,
    0.0050750266884837456,
    0.008238787413809671,
    0.003473996651395334,
    0.004393643827333586,
    -0.004376730684092641,
    -0.005589049113393208,
    0.009000013326373166,
    0.0026028429428766936,
    0.005812898174494208,
    -0.007624678457334285,
    0.005182751638807343,
    0.022208228590798736,
    0.006707474804917111,
    0.004418647520486167,
    0.012672632401119242,
    -0.008283266022935476,
    0.0038351434882028888,
    -0.003027568065199868,
    -0.009102815395094535,
    -0.0051342664396399704,
    -0.010567772805308797,
    0.0032525142358486633,
    0.007736345224766272,
    -0.00394856547642784,
    -0.005305749924175793,
    0.004603310474854295,
    0.006732556456919043,
    -0.003252829411042413,
    -0.006220966209987884,
    -0.003913282454659671,
    0.005556698000252555,
    -0.003325464174054515,
    -0.007367594144793458,
    -0.007407189038138534,
    0.006491934785182921,
    0.008748283176465733,
    -0.0002879790516213913,
    0.013956304626606485,
    -0.01365757248925367,
    -0.006070213705993756,
    -0.011091906743872481,
    -0.007029449734945558,
    -0.004745540613505425,
    0.0004496932638026709,
    0.005798588623077503,
    -0.009623862858961748,
    0.007969115183448028,
    0.0002060882606499625,
    -0.011790769333719043,
    0.0036625211183517322,
    0.0038258969151701173,
    -0.0021188696970929556,
    0.0004159011537066208,
    0.02569592089414372,
    -0.005388745066639953,
    -0.015127743652712232,
    -0.016670160241434317,
    0.017725606547665702,
    -0.004216920362546827,
    -0.01290095097699242,
    -0.006264245483483104,
    0.0016857347902731706,
    0.010141762130790887,
    0.0014947541841807191,
    -0.002422185611121395,
    0.007053188973394429,
    -0.006516571216433132,
    -0.0035624400911293368,
    -0.005009912261534952,
    0.014415331664486698,
    0.008406030633435538,
    -0.006910830855112575,
    8.940560163521654e-05,
    -0.0004118813998890327,
    -0.004032473269416907,
    0.00236772232170725,
    0.015622356827747992,
    0.020218341400228764,
    0.010278025782421202,
    -0.0021014561941993344,
    -0.002039505480809356,
    0.0012155436330715543,
    -0.012951954555683492,
    0.0007743886867770929,
    -0.00420228802229529,
    0.0029744961548480863,
    0.003158345312717353,
    -0.002700169861815518,
    -0.008173861123901002,
    -0.009441872847046154,
    0.0066375388873704195,
    -0.0026900420500318946,
    -0.009077381115111447,
    -0.000914007888483085,
    0.009038388293673354,
    -0.008242556158152614,
    -0.005821796597544324,
    -0.0073875735917930075,
    -0.01147860409583149,
    -0.008267598146964393,
    -0.006815922618576483,
    0.0004717410635442229,
    0.004976908283859873,
    -0.007327990713574118,
    -0.0018994258896347827,
    -0.007167450157134472,
    0.003677778254061716,
    0.0013952315063031737,
    0.00389611264590961,
    -0.0018755810303189382,
    -0.0035479119461391114,
    -0.0009030922532880457,
    -0.005118343057820772,
    -0.008086605639773255,
    -0.004535770411791094,
    -0.005732411392747697,
    -0.005870151673024075,
    -0.0005318273584734764,
    0.00014035976659645477,
    -0.000559473523692914,
    -0.004587511169792883,
    -0.00031014693916517095,
    -0.005999194403296157,
    0.007959444318938573,
    -0.0045376632160792395,
    -0.011403356084789568,
    0.0021407327966150077,
    0.011855238287228708,
    0.0014284531205038425,
    0.0019573897258548067,
    0.00568711724804808,
    -0.009989572346365883,
    -0.0029353168880498076,
    -0.00978297930792257,
    0.00794247022528258,
    0.006016901067606072,
    0.000862905483312291,
    -0.002276499386250994,
    0.007125766673277369,
    -0.011123899317006105,
    0.0018494884978271092,
    0.0018040154258250952,
    -0.006084822221031642,
    0.00240179164841364,
    0.008082654372013684,
    0.006966585393995654,
    0.004748374219508937,
    0.024870811706520474,
    -0.015378797773552727,
    0.013759917600866032,
    0.009602653334967886
  ],
  "w2" : [
    -0.4245694270473985,
    -0.03809760321497334,
    0.5996977122962777,
    -0.6059848628128013,
    0.50442524810244,
    -0.4118527565383244,
    -0.29997404930285065,
    0.5801012362507688,
    -0.35706660154580366,
    0.2837773837029423,
    0.2475553568568707,
    -0.06865691933715411,
    0.0012339176943739674,
    0.8366437883237046,
    0.46137236694310946,
    0.611907438502666,
    -0.06191802333133631,
    0.1439228601133942,
    0.5790981069859468,
    -0.3994307464437164,
    -0.4117638668466779,
    -0.20229750519822037,
    -0.46634041051882735,
    -0.1061494558914969,
    0.5270040364577412,
    0.30245542910335194,
    -0.7582592442695696,
    -0.08480574393290369,
    -0.37812763407479927,
    -0.45615103901152965,
    0.04798178426092298,
    -0.457263090699678,
    0.13975240494880717,
    -0.5879592942989754,
    0.7625345456886438,
    -0.007028219693542143,
    0.10065327942435845,
    -0.5455737609850828,
    -0.7321047153931055,
    0.28538771454564915,
    0.31035998351194116,
    0.40779776608356677,
    -0.4771696713070935,
    -0.5848682941005316,
    0.27849282172295603,
    0.2947354978956567,
    0.6761119985719286,
    -0.05657138116583908,
    0.025284321175119473,
    -0.020854962535278094,
    -0.02067398451923209,
    -0.0242263292934554,
    0.005905302543573368,
    -0.019372372081351355,
    0.00414993751686073,
    -0.013780643665362111,
    -0.010368087421097422,
    4.7233767935251156e-05,
    -0.002176359757576637,
    -0.019026865212186328,
    -0.0192976669022894,
    -0.0004880643950447424,
    0.021829612003679267,
    -0.01801881557602103,
    -0.017127204446977264,
    -0.00040324697057663247,
    0.009367862851474555,
    -0.021888011905611807,
    -0.018755062832671695,
    -0.006151712665638198,
    0.01762738023804592,
    0.01722832484990765,
    -0.004262815055966233,
    -0.002035227400796473,
    0.0003861405765274885,
    -0.01942158818894177,
    0.01317366927521439,
    0.0017682322867246076,
    0.012533425653802237,
    -0.0016352454804933654,
    0.01715612321171749,
    0.02057136514836504,
    0.0024135049118979516,
    0.0009128788442640013,
    0.010544978286028439,
    -0.013437033873544365,
    -0.019046318786812493,
    0.02148346778097355,
    0.010242443661910872,
    -0.020287168441214472,
    -0.005087555575943851,
    -0.01726619027513166,
    0.00926596075072892,
    0.015531847400756166,
    0.0008613850752251161,
    -0.00891473182426674
  ]
}