{
  "b1" : [
    0.028833637419296287,
    -0.16406285260049264,
    0.09992571971992091,
    0.026931698531536784,
    -0.03731398873505097,
    0.1929364082816222,
    0.253521773818431,
    -0.19147324104077332,
    -0.058509210208531975,
    0.12516921116066124,
    -0.056441121571992436,
    0.04347567372892369,
    0.09429148987231513,
    0.10477480482491193,
    0.10431047868215884,
    0.2566311893264617,
    -0.13576113984566837,
    -0.010052364222360628,
    0.15806573108192776,
    0.1342400704448047,
    0.25327506037362413,
    0.13175911942555346,
    0.07944414852069483,
    0.1811785467492401,
    0.11148783022340439,
    0.21907054504236928,
    -0.0628443109574184,
    0.052834314742602896,
    0.019605981760423153,
    0.1378061705345248,
    0.1333343536244247,
    0.06209991555346615,
    -0.005128967068758249,
    0.17633031352096654,
    0.16354952268834314,
    -0.03812631760099854,
    0.05828769529135643,
    0.15753056937110035,
    -0.0691145362364107,
    -0.16411133703061098,
    0.12326217714779002,
    0.06553026397270577,
    0.2545729255001841,
    0.02172116240429806,
    0.141267853460985,
    0.24616759978568215,
    0.12046836980046464,
    -0.12182986804723468,
    0.0105080546813049,
    0.0015332847966361737,
    0.00802481968236372,
    0.003450394196573854,
    -0.0038209114506729813,
    0.009322926301912067,
    -0.009617605715346393,
    -0.0021417811672590683,
    -0.007251603692492643,
    -0.007908198614842364,
    -0.011418209258564571,
    0.004586683777881493,
    0.011512332894105352,
    -0.007595733977577492,
    0.012631601828056744,
    0.006326717513466908,
    0.006273510337479453,
    -0.007768387216418283,
    0.002572283879821302,
    0.0029627976763146394,
    0.005213854602399417,
    0.004614291406896737,
    0.0016358642998189283,
    0.009162972579453303,
    -0.009554318863703216,
    -0.008511486170931582,
    -0.010945764530486884,
    0.008824331207300017,
    0.0073587920037032,
    -0.007517259333041866,
    0.005101255016739261,
    -0.012800348850618759,
    0.010544809433700073,
    0.012329147357447296,
    -0.0010971928066928133,
    -0.010172436960991266,
    0.00047335644786758094,
    0.005008873723933853,
    0.007001171868634214,
    0.007355798604821524,
    0.008801600107437711,
    8.961988819388577e-05,
    -0.0033500628731080342,
    0.006932402876713647,
    -0.003726764660049446,
    0.0007180946831112983,
    -0.01227234631145638,
    0.005564613350477148
  ],
  "b2" : 0.0257455091834187,
  "feature_version" : 1,
  "hidden_size" : 96,
  "input_size" : 34,
  "version" : 1,
  "w1" : [
    0.2594894467353336,
    0.12479138528111038,
    0.22885915610669078,
    -0.4538068629728354,
    0.23212592545650165,
    -0.13276800311118203,
    -0.0006081706799957082,
    -0.23468026520400911,
    0.29864834786830313,
    -0.0864121387126306,
    0.4296375420745296,
    -0.1269799527231215,
    0.6794521449409212,
    -0.20766955191173767,
    -0.34584919652625484,
    0.0007779629100489177,
    -0.2471609872830739,
    0.041081885864588656,
    -0.06346292193448626,
    -0.029465235920817096,
    -0.0030625195430964403,
    0.01887049462921304,
    0.04929002967078031,
    -0.3257603733447904,
    0.11905414094489132,
    0.38631043770471135,
    0.030059347197827862,
    0.09205885298615393,
    0.20292832399312272,
    -0.1095749570536289,
    -0.45194430379303785,
    0.14871789057204707,
    -0.014321857260181035,
    1.166823136990937,
    0.06520148868658879,
    -0.17116328379436493,
    -0.02166141560691391,
    -0.09109365554830753,
    0.04572780468353552,
    -0.07612925930194024,
    -0.30121033707385064,
    0.141141639408939,
    0.034816343758675664,
    -0.17409421055614652,
    -0.1708115993199489,
    -0.13528840754449345,
    0.012768788277643404,
    -0.09070915713777819,
    -0.24115456366449964,
    0.05518520558496645,
    -0.26662045126543676,
    0.18696680072509078,
    0.1772027343865586,
    -0.22921043536661828,
    -0.16883216493323405,
    0.19362859562303078,
    -0.22859800706516156,
    -0.01497161317450368,
    0.0346205112404267,
    0.12555494305318246,
    -0.0870944761415708,
    -0.07092443064574884,
    -0.02792773936191785,
    -0.0042477726044392585,
    0.11460749046973656,
    0.011144648568642265,
    -0.033469567461920424,
    -0.06504107940843348,
    -0.0714360033612394,
    0.20205663907911317,
    0.008641488757848191,
    -0.03450659035740671,
    -0.305856497217395,
    0.15263746362912134,
    0.12942946177178452,
    0.08095691163715528,
    -0.251034999157276,
    0.27571576345013343,
    -0.206461917543648,
    0.17352905981586314,
    -0.5817150701291647,
    0.2770131040034644,
    0.009555341653864137,
    0.26390018432468887,
    0.2122668606118605,
    0.30549007821459717,
    0.22093301294189296,
    0.19589346276384717,
    -0.11902463724484795,
    -0.17511384432195265,
    0.1117065553173299,
    0.09880125739024964,
    -0.14174885783272181,
    -0.26480023739648445,
    0.07999392478117691,
    0.3957019120825415,
    0.35398361442659104,
    0.3897485986405979,
    0.01672363937157272,
    -0.013434926410206997,
    0.30299349165358763,
    -1.292405134201683,
    -0.26271560779365716,
    0.28589606414760416,
    0.25948275353537803,
    -0.4207520667373287,
    0.0081337382101147,
    -0.09116370952905446,
    0.2448877603259098,
    -0.25093895490396634,
    0.226956069724569,
    0.005016464948354823,
    0.25140324460164004,
    -0.06965249320346857,
    0.35256564227975135,
    -0.025917494391597178,
    0.02941902376150953,
    -0.18430017266932802,
    -0.17775494108635165,
    0.2712207819086699,
    -0.05428084450715511,
    0.02975948749447516,
    0.08044065129716235,
    -0.0044020419075606445,
    0.16336277881764175,
    -0.17018868800456663,
    0.11088196309212174,
    0.6515546242947331,
    0.21454669082545344,
    0.2727875319998399,
    0.21680514900262832,
    -0.5654902002595795,
    -0.27958777798358847,
    0.22369799705445156,
    -0.13563391394553967,
    0.8425688882990362,
    0.1649440880318018,
    0.05545632103118327,
    -0.37024416042463026,
    0.24565152824206504,
    0.04664209961313582,
    -0.07940195726732513,
    0.32809710623667826,
    -0.15349242255975976,
    0.10992027735396226,
    -0.4039560574414356,
    -0.06992981147413897,
    -0.1702689815696316,
    -0.3797814591352338,
    0.10662340858874587,
    -0.23427495506177157,
    0.029798081561429608,
    -0.111881592009018,
    -0.18690888750708015,
    -0.14608162374876207,
    0.12155839213711403,
    -0.22259037925052533,
    0.1148938651279901,
    0.012518051212930238,
    0.05580377498202263,
    -0.1460005365198736,
    -0.04346784084699221,
    0.2926748676525263,
    0.3227215211136695,
    0.4685621217086065,
    0.23805952943809552,
    0.13391497208566933,
    -0.03144553761957375,
    0.3063923980919398,
    -0.9206509399969958,
    0.22512788013145793,
    -0.05362763982876379,
    0.11345968686421046,
    0.0733692712255554,
    0.15565772440318998,
    -0.03898829700257248,
    -0.033430899270019104,
    -0.006120468280976436,
    0.2601960141808605,
    -0.23014089009194874,
    0.26417400485916076,
    -0.3066341411705588,
    0.6644408992073285,
    0.06176213381083317,
    0.1617338671850037,
    0.1606746521008278,
    0.08424824061837294,
    0.11707019726911862,
    0.14402227541412782,
    -0.03271279759366903,
    -0.25003991928391817,
    -0.1363321157400423,
    0.27824821868411376,
    -0.16505501336876857,
    0.14339201304621063,
    0.13351148021863693,
    -0.13761228473472642,
    -0.1926721923135174,
    -0.03441866071788466,
    -0.1814468843146162,
    -0.17383297551983218,
    0.01885077197284407,
    -0.07672615464508716,
    0.7633114856120806,
    0.051688676206424894,
    0.12531890510355706,
    0.10275718532809748,
    0.0527863199139055,
    0.23793702209219045,
    -0.11107461313471255,
    -0.07910699695576767,
    -0.00596301880473055,
    0.28215477814399753,
    -0.0405836694079718,
    0.05845956470940349,
    -0.18571000599989584,
    0.6046545783363315,
    0.11553432202635229,
    -0.03388875771836293,
    0.11762433806852181,
    -0.11370072241608456,
    -0.1077016409010929,
    0.2271484129386914,
    0.08695781132905182,
    0.21930756069666793,
    -0.11942757736647908,
    -0.09024231284168982,
    0.10236325193110372,
    0.16947423072331078,
    0.09716268555935133,
    -0.09082925937557339,
    -0.3061970858125488,
    -0.262370395308309,
    0.08196821396408097,
    -0.11362979701222584,
    -0.050713175475883665,
    0.15574491597350715,
    0.8319668724395785,
    -0.15121860310865806,
    -0.14384347827400995,
    -0.37560402084308186,
    0.3953330076080882,
    0.027670874099053257,
    -0.1641873928481893,
    0.07885484993804268,
    0.08485538941001249,
    0.013763447077646098,
    -0.06346743327599479,
    -0.1486703884035771,
    0.1850509310664761,
    -0.08644378546440577,
    -0.2437388255142507,
    0.16715283712418597,
    -0.24100415220746413,
    -0.022967669185947337,
    0.16791046991006298,
    -0.17098632600986233,
    -0.04573612513110168,
    0.08626884443900638,
    -0.046653676355552266,
    -0.27505232313567013,
    0.011241651009209729,
    0.22587362633351674,
    0.07213001748700333,
    0.5895639692258328,
    0.3472207260004675,
    0.3933709106014703,
    0.17377891748839933,
    0.4559771901777925,
    -0.085951527580473,
    0.029929652118770043,
    -0.35216966355534,
    0.1701792894892676,
    0.05551412458652963,
    -0.12153786653206865,
    -0.17940430482045386,
    0.2362471813885474,
    0.11095154565088518,
    -0.0651354518441966,
    -0.1609788014178786,
    0.12179577803048508,
    0.07301177866857607,
    0.09705252138838599,
    -0.10947747526033705,
    0.46494519082993035,
    0.06508948661850009,
    -0.24169481039493415,
    -0.11108820791540377,
    -0.3543776804253247,
    0.04874607361731497,
    0.14501867092763093,
    0.16762912124702323,
    -0.19000614376385758,
    -0.4389219508846145,
    0.24472280851747913,
    -0.2621379090019364,
    0.1504972378879188,
    0.5636944734637442,
    0.18513017686365296,
    0.19718634844004818,
    0.08631640162886679,
    -0.11061717805102278,
    -0.06094265303870051,
    0.07586698154500329,
    0.19861013706807104,
    1.0259000836673082,
    -0.057279298535444306,
    0.22625992223235644,
    0.11243749362437179,
    0.07970335299062944,
    -0.15789142107691093,
    0.03415677684381881,
    0.14326225808548926,
    -0.08019406988110597,
    -0.19093490386357248,
    0.1926362018385335,
    -0.18119900700127037,
    0.1791888745043347,
    -0.30709082488384937,
    0.07161077760976048,
    -0.007981079407001332,
    0.24074634728594566,
    0.01681072028181435,
    0.3157113257838338,
    -0.07744383087924632,
    0.0703855338981528,
    0.08867642442232576,
    0.018459922267650464,
    -0.20443538172539488,
    0.05387627456770439,
    -0.033353039445748196,
    -0.1272297939179401,
    0.09088875003065622,
    0.17188747114829114,
    0.2620915038207932,
    0.11037765582885196,
    0.2914797578923734,
    -0.16023244914138948,
    0.11562626786111291,
    -1.1490082487279,
    -0.025562770189872373,
    0.16177472964855977,
    -0.09313016052581231,
    -0.15569860170064964,
    0.07463654388942377,
    -0.2801015353182208,
    0.05287630169500856,
    -0.06208922634607426,
    0.13799771475080808,
    -0.4684649450816119,
    0.10495168814720449,
    -0.14704121972517267,
    -0.18651780323143533,
    0.014217652068355305,
    -0.11123197285965629,
    -0.18235085708921084,
    -0.09985111443812501,
    0.0013410518769440892,
    -0.46798335926153845,
    -0.09067473453649001,
    -0.2059510174040935,
    -0.07439310430403201,
    -0.060930717597994705,
    -0.2320154954361666,
    0.23650258856973969,
    -0.16076875269370097,
    -0.14222844219138953,
    0.2565870278989832,
    0.03430119922964289,
    0.01668172665754002,
    0.29524146273324636,
    -0.025279526073754888,
    0.4055604080097838,
    -1.1200160742591991,
    0.09798677395024319,
    0.011135281886541946,
    0.22931070014126945,
    0.14837540904531288,
    0.14635966012464968,
    0.2907124782288548,
    -0.11901122022343362,
    0.13607127946249103,
    0.179626088405807,
    0.17940976345137163,
    0.015831661694672306,
    -0.16672834322553315,
    0.4198384800013819,
    0.19847954530733078,
    0.28781556769842936,
    0.17861761108958443,
    0.0498294409772336,
    -0.05581784472330315,
    -0.0919942943845181,
    -0.06951026405016736,
    0.1319643988522976,
    -0.24403904573404997,
    0.22471832736121022,
    0.09229848895611321,
    0.08822790874809598,
    0.11305990355754382,
    -0.07934356884065265,
    -0.08250623969568847,
    -0.26878217670872423,
    0.20630344137560203,
    -0.0814860016568116,
    -0.1566957976212791,
    0.15513470115857356,
    0.5911027956254848,
    0.025235755710476825,
    -0.22315245302149628,
    0.1679210578941731,
    0.03741443131767992,
    -0.13160038481391612,
    -0.16492301188429,
    -0.15276795401294424,
    -0.06681768171386165,
    -0.06598481264250457,
    -0.1340862682504818,
    0.09686556959136564,
    -0.01567415567744826,
    -0.15815885175295719,
    -0.127539713697378,
    -0.20519405447449465,
    -0.16054720281974966,
    -0.09189675716122833,
    -0.11675103672351038,
    0.22455598768775023,
    0.10661617730730687,
    -0.08546106917634215,
    0.14603043222113488,
    0.12863221404999808,
    0.11228705110773735,
    -0.1692600695505807,
    -0.028498507157838585,
    -0.16863265559865825,
    0.038434649083319485,
    -0.15440481829917665,
    -0.10935971672348876,
    -0.13063246143608717,
    0.0030673619166733056,
    0.02500899040543573,
    0.011367621397654444,
    -0.08294790609812924,
    0.20428627530252205,
    -0.16574396085917223,
    0.2964355699092552,
    -0.09771406290633257,
    -0.24266766899206005,
    0.13259360818979596,
    -0.12039132077860194,
    0.01602707240997664,
    0.05896077062432372,
    0.13188071490478198,
    0.2247098252120609,
    -0.7614977945891436,
    0.34169152378916207,
    0.19702247024504205,
    0.04411514251804474,
    -0.18121973207876257,
    -0.23033528249326474,
    -0.1576685019907835,
    0.4126720495748343,
    0.31257771401087303,
    -0.07165671567087145,
    -0.0012849653054339424,
    -0.02378461309302334,
    0.0500576246453155,
    0.01373445168443828,
    0.5422641111172708,
    0.6880313800038577,
    0.5229675516388202,
    0.04479290007357758,
    0.07498057571295821,
    -0.024152288276020742,
    0.45578126422196236,
    -1.1667763190968052,
    -0.5203127918902961,
    0.006865944277297031,
    0.33039723032713686,
    -0.6522777598633545,
    -0.28913283824276925,
    -0.03353708510475424,
    0.06262368690698675,
    0.1782874549216453,
    -0.07515182587846644,
    0.20386751701469882,
    -0.09930476547949056,
    0.03054924658113382,
    -0.42041863515428557,
    0.2196393569075086,
    0.06390313346292019,
    0.11586785077549278,
    -0.38079811830812355,
    0.07127422376656654,
    -0.09147302938636837,
    -0.266547849622807,
    -0.06655505291992976,
    0.2068276369791656,
    -0.164171943127894,
    0.21951680803582843,
    -0.12919147045414991,
    -0.323136721312962,
    0.06857399199817146,
    0.2356636179077597,
    -0.017946941067387357,
    0.12477180946139499,
    0.2616459328943594,
    -0.085147809573411,
    0.14565541830822318,
    -1.164426512223903,
    0.044487562751292106,
    0.2294400492496035,
    -0.105757755552634,
    0.25844102153096254,
    -0.05147903000285661,
    -0.027017962019403288,
    0.13595522458131593,
    0.07252894465523035,
    -0.05958910536089145,
    0.3052526718767515,
    -0.10487619464703375,
    0.2589856073325443,
    -0.6117900790783343,
    0.23620460492410544,
    -0.11222702217199755,
    0.17024727915303542,
    -0.07303122985457666,
    0.38813166979539643,
    -0.18530766865638465,
    0.10040393711428097,
    0.16856355033949932,
    -0.1356397317851417,
    0.13245473188848486,
    0.18784802077248028,
    -0.0930196077373313,
    -0.27793765305710044,
    0.3666099673788092,
    0.4342054271764571,
    0.19742544958911792,
    0.10954943487449084,
    0.16496583462364328,
    -0.03844768997071837,
    0.0572035809815747,
    -1.2825882559545159,
    -0.03360014217859444,
    0.0792313757169197,
    -0.16423196331411402,
    -0.031670591906476434,
    -0.17596029528913054,
    0.07123207982530003,
    -0.08937393917908495,
    -0.2297473477783075,
    -0.0018887710179898427,
    0.04753700161653807,
    -0.00022677506935180704,
    -0.1289720594387134,
    -0.11190651674616477,
    -0.10663836094848354,
    -0.014586186882202297,
    -0.13304190717519665,
    0.061481108356108045,
    -0.04301001572092047,
    0.14026863134581258,
    0.027479328544502437,
    0.021285106385661955,
    -0.04806939937564983,
    0.001183037969573089,
    -0.07082788103895195,
    0.04583280162913834,
    -0.012608057114865647,
    -0.15128068119124455,
    0.006009803115476499,
    -0.13189363982084548,
    -0.21563486804568255,
    0.07911336046756481,
    0.13775491438205004,
    -0.177673060284007,
    0.20275866192984443,
    0.3394111863877295,
    0.11042094747752898,
    0.14802038232319298,
    -0.19993564256167887,
    -0.09394176950702558,
    0.20878933881048561,
    0.025205397742931405,
    0.2829344037335335,
    -0.0077323922878832765,
    0.2379530409807999,
    -0.20326912637230085,
    0.1771046308426747,
    -0.06667325897157285,
    0.05927749955946917,
    0.17590540613435263,
    0.032308896761602285,
    -0.06183417068840261,
    0.21642934899495567,
    0.09237526824454259,
    0.16902140808481625,
    0.16896380034086614,
    0.40862328503123085,
    -0.0552725360793705,
    0.3571237060312344,
    -0.09722320584732873,
    -0.005508836192691314,
    0.0063432210190762775,
    0.22274701731754407,
    0.4298732725707594,
    0.27114557314369075,
    0.13224233753848894,
    0.012719227741425133,
    0.20429977411597341,
    -0.6301816188849568,
    -0.06068054714501899,
    0.07237688539939531,
    0.04500449290805307,
    0.2832709668843616,
    -0.2888477767579964,
    0.063735601708623,
    0.101771591634528,
    0.2612878519109692,
    -0.04186299777859256,
    0.3207457783354724,
    -0.0342780476015098,
    0.06837959430130398,
    -0.5508982958866141,
    0.3030129581324227,
    0.18764749170526088,
    0.26883962550552926,
    0.17007299507264867,
    0.02459908145511287,
    0.00874912749019217,
    0.25869580139626747,
    -0.16479112113607258,
    -0.05610870456985658,
    0.019319108405098442,
    0.12039136598705627,
    -0.10495181777712764,
    -0.30396934459638014,
    0.18998522675998233,
    0.432945129685155,
    0.3014511472938578,
    0.37887459545125307,
    -0.042501316657095264,
    -0.19942387981272877,
    0.1773655183035234,
    -0.905626175029174,
    -0.024109364285017865,
    0.1199409878021355,
    -0.14494217200117454,
    0.3505156960970925,
    0.4022943404008991,
    0.09634634093530925,
    -0.28880002239776886,
    -0.044771429870796034,
    0.36453198959583666,
    0.05393458777445793,
    0.08129204084755033,
    -0.24729702001261808,
    0.4159918591346155,
    0.06972716386768585,
    0.11615385019183362,
    0.248706987591918,
    0.321174726709194,
    -0.20406009361253216,
    0.3240224496837385,
    0.05576658536362896,
    -0.036438298478348535,
    -0.016885052064084947,
    -0.09814703402569616,
    0.16141624038077607,
    0.22226228387513902,
    -0.09060130164835106,
    -0.2868159604095023,
    -0.2821388303927187,
    -0.39843553755786293,
    0.057059786653295294,
    0.14985536938183724,
    0.010976234966876905,
    0.06720674188539419,
    0.5272515534564691,
    0.42351918010016454,
    0.06271646829963229,
    -0.07310143348319964,
    0.06058527308546515,
    0.11391588876718196,
    -0.07774508835480166,
    -0.06635036779561741,
    -0.1695863840740002,
    0.12788399445347673,
    -0.09815772780007272,
    0.13526347775016487,
    -0.13648395919572445,
    0.770901231619986,
    0.14558852391720284,
    0.003213191584771863,
    0.1880576989974783,
    0.06924335799589065,
    0.09907449325688789,
    0.003934591583224071,
    0.08534894541679586,
    -0.019658472694558744,
    0.04228361106716108,
    0.05626692154311804,
    0.009966012882978326,
    0.08184892447438405,
    0.3836452749973135,
    -0.12243171569414688,
    -0.16542290332867368,
    -0.06357893509881445,
    -0.048832542776583915,
    -0.25624396375581165,
    0.13340305229538668,
    0.0902630696034059,
    1.040991279718506,
    -0.18150910652785282,
    0.08348474214729397,
    0.1328665426933317,
    -0.07905991013661846,
    0.08357580767596491,
    0.03885823598459432,
    0.018516887180855236,
    -0.1421058571280775,
    0.08612302626453533,
    -0.256474345026707,
    0.30186345951836957,
    -0.14547710599349523,
    0.5098483728621623,
    0.08920250871464697,
    -0.0007068205590522994,
    0.125469999013622,
    0.2530958347146302,
    0.06379627903778033,
    0.03467647644184147,
    0.07774586941603626,
    -0.054486909857092584,
    0.08475470797157876,
    0.035348459932400676,
    -0.016698628772435352,
    0.014253677856647533,
    0.11166899812258631,
    0.013670449458429865,
    -0.2749055419221152,
    -0.17053135048653678,
    0.03491990517981515,
    -0.07122761469276032,
    -0.019612680225493652,
    0.2801353908959105,
    0.6691050027177566,
    -0.3756196126166382,
    0.3233328690895004,
    0.010623825763854589,
    0.2997638071011993,
    0.32153064142268895,
    -0.1785114931517836,
    0.030468211018384095,
    -0.15867734638496178,
    0.060268727722082555,
    0.07512456007631019,
    0.1804347538889007,
    -0.3149420797976881,
    0.5689919184753588,
    0.3235710033421068,
    -0.1884825346721471,
    0.012776819618923374,
    -0.02610394366439052,
    -0.24897262839489956,
    -0.02460118021118305,
    0.38426122955830533,
    -0.28485939778374836,
    -0.19118442555033907,
    -0.07044807467068454,
    0.14710650772262363,
    0.26956824168744353,
    -0.3405643375766085,
    -0.5735513951322555,
    -0.14767471559385023,
    -0.12010141857036027,
    0.14693939335821524,
    0.10546566228137594,
    0.05223919999896616,
    0.09005463837405175,
    0.8634050217648693,
    0.3657263627558687,
    -0.18104277962315557,
    0.11022186420896513,
    0.07006933385586303,
    0.15653567401221974,
    -0.1624618870807572,
    0.1054914796625073,
    -0.11911487024245825,
    0.21709221138708756,
    -0.25972026458635566,
    -0.02788720940337221,
    -0.36241105628427395,
    0.2774706841973469,
    -0.21284429134198762,
    0.15420436826876308,
    0.13098103457708757,
    -0.12031328047755925,
    0.07727971197357587,
    0.06490464744268926,
    0.07630463974719547,
    0.16408216223107222,
    0.012563824183970491,
    -0.08265944198883553,
    0.21265308140919592,
    0.3640246296183692,
    -0.04820322501073495,
    -0.08460433895976091,
    -0.22760953711137985,
    -0.08319992310871106,
    -0.08352410985007015,
    -0.1458061613755376,
    0.16006056185835046,
    -0.046374636174075265,
    0.4891343190958956,
    -0.02954925485407469,
    0.18277439600019996,
    -0.4239194742928085,
    0.05476435981410337,
    0.13024511834443075,
    0.19582982855729045,
    0.1863191919141201,
    0.02485082050621917,
    0.13693634961051726,
    0.08261265866592815,
    0.009372123717353954,
    -0.1298242949205181,
    -0.24545705922333733,
    -0.09991266476002658,
    -0.3187893639028947,
    0.21912638489353503,
    0.22085386803397697,
    -0.14424671749770482,
    -0.23897713161495174,
    0.4502895743220285,
    -0.44396619899352074,
    0.10324048762049448,
    -0.07108975249894033,
    0.16473121433623691,
    -0.1723472225671085,
    -0.08998799732519307,
    0.40752067598263964,
    0.3087629172438823,
    0.44697622268483234,
    0.248889128228905,
    -0.01797190033955648,
    -0.04378113712682812,
    0.13112400688402603,
    -1.1207662845052155,
    0.15296148327625236,
    0.1545897691290639,
    -0.2516444603398951,
    0.09850200846322114,
    -0.017320585542221205,
    0.05665528284226612,
    0.12220340515326047,
    -0.00541174101742492,
    -0.10242062902323508,
    0.09716130675077173,
    0.008591293412768845,
    -0.09388863205294719,
    -0.0037793674325619017,
    -0.1841525251962295,
    0.2697828948404761,
    -0.040160141214666656,
    -0.15339763110299484,
    -0.026393369055377907,
    -0.1767039798867643,
    0.2749901293064584,
    -0.10670754258329512,
    0.03882246344245089,
    -0.09029390257686594,
    0.4545930037763248,
    -0.02502888784943023,
    0.012896219756238735,
    0.1864687178141534,
    0.09858551928283915,
    0.2627315495931018,
    0.13737644091302537,
    0.3972956016917372,
    0.0069242838016089795,
    0.17181413745738586,
    -0.9345531839284598,
    -0.027610183500706723,
    0.19840282620052818,
    -0.5244366121570679,
    0.6714287784000607,
    0.09467766136541708,
    0.057341827235995776,
    -0.13020021545487098,
    0.2587235943576106,
    -0.1536561426659231,
    -0.18582693324930757,
    0.07645883798697284,
    -0.06767712077488647,
    0.20871203157212534,
    0.13255345520485176,
    0.10048216352678813,
    0.056060184231617446,
    0.020960810909232113,
    -0.18745738776983614,
    -0.22876597136051574,
    -0.2254171705504784,
    -0.21892126396040307,
    -0.04108530518658033,
    -0.13110675335912003,
    -0.107707959810343,
    0.2516701187671597,
    -0.5583641738840539,
    -0.6745752855252232,
    -0.37609328329186226,
    -0.2617999604915537,
    -0.014153102953747032,
    -0.13517508443655685,
    0.09050141460738344,
    0.17014635652759244,
    1.0037510560263951,
    -0.24059314578326496,
    -0.07706556008430504,
    -0.11304865539278294,
    -0.11025120615724938,
    -0.055810565531187524,
    -0.14546680165205758,
    -0.14148402634342316,
    0.0682351825440871,
    0.11537735803550903,
    -0.10520456809797117,
    -0.0931905190856113,
    0.17126221928787605,
    -0.05406176619007617,
    -0.021578825643889132,
    0.009732128687784683,
    0.0622176069112323,
    -0.17553639362455623,
    0.06612189744650279,
    -0.24148907113940563,
    0.10671662976683013,
    -0.20987937701520948,
    0.03870119860680586,
    -0.10116700790655064,
    -0.19926788035068962,
    -0.18635296944671872,
    0.10121569979500868,
    -0.05191529413650145,
    0.03391968657915643,
    -0.12116474086149602,
    -0.2161710034116911,
    0.06852733641909298,
    0.03288752745064305,
    -0.1705657080828139,
    0.24713855999437234,
    0.23190577804993456,
    0.028406290317669666,
    0.22483770045162924,
    -0.36589417307170136,
    0.31387308855308027,
    -0.2287026035949012,
    -0.001070856287279643,
    0.060390204431806205,
    0.082646570930817,
    0.09644413133126399,
    0.018221204191724242,
    -0.08153844760146085,
    0.4893686868206332,
    0.005358914057184964,
    -0.1722588631130025,
    0.19004307079042462,
    -0.33524624469020653,
    0.1433852075073011,
    0.08300378507191114,
    0.18819729045912048,
    -0.11636567258787485,
    0.04183894863499692,
    -0.06557790193823586,
    -0.13191592451988657,
    0.024041906260669526,
    0.4127930308449202,
    0.1783549907502137,
    0.1936685842653986,
    0.2437451740315637,
    -0.1621446395431037,
    -0.06943678181800617,
    0.06887905251044504,
    0.1811542255966823,
    0.89152913288098,
    0.14799345064622468,
    -0.15495767100559388,
    -0.34416034290585895,
    0.4342118328505252,
    -0.06076003765630107,
    -0.029184251183914305,
    -0.11778130307667427,
    0.11151690631575549,
    -0.3917393741326525,
    -0.25494312371311934,
    0.10223759395090067,
    -0.17993109745764105,
    -0.30617569046208276,
    -0.20644611986264094,
    0.29737650368141905,
    -0.003897323367313757,
    0.1655725696767498,
    -0.08884084832655778,
    -0.06294217319905875,
    0.06921277610719132,
    0.008034943019537047,
    -0.08489053756025253,
    -0.004577626946248418,
    -0.12242110851557113,
    0.19469407975813868,
    -0.5659958077840738,
    -0.6233767785098404,
    -0.3716854203400977,
    -0.3379557500468274,
    0.04351923812112629,
    -0.12893323550270303,
    0.021366669918713867,
    -0.176397047233588,
    0.07344267812464257,
    -0.12973402548689023,
    0.11569128074487159,
    0.21931136745617175,
    0.22485335672152917,
    0.009331586379705286,
    0.08569984518153385,
    -0.09120726048511396,
    0.2290981488875814,
    -0.05592849298293577,
    0.07672956821740129,
    -0.12232361824688126,
    0.14080844447512106,
    0.008201632353426224,
    0.16199537347025614,
    0.055982388324504834,
    -0.11077696467604077,
    0.12390945687797261,
    -0.08466838418147049,
    0.14280532837004048,
    -0.19716399277861918,
    0.12968845529108072,
    0.008708781081157297,
    -0.22323583912690642,
    0.1124203559944193,
    0.0036785202484033506,
    0.15378204754439956,
    0.0608085199196124,
    0.03387856651547911,
    -0.03557503487070529,
    0.027155938498629052,
    -0.05464981567810919,
    -0.009826711529319826,
    -0.167814385747258,
    0.10797720954752615,
    -0.018801017352717386,
    0.01532937252357884,
    -0.2426828184565461,
    0.5387781488167869,
    -0.01917551401648878,
    -0.12393422902038288,
    -0.01978244734927921,
    0.20770188724773628,
    0.1438291227753091,
    -0.2447750207994415,
    0.21748227545541707,
    -0.04921710850039264,
    -0.133284988018413,
    0.18806474649424287,
    0.15039177022213632,
    0.03664995289899062,
    0.3417846188760208,
    -0.09644849359441425,
    0.026466851837413225,
    -0.1927261404393006,
    0.35822095709112145,
    0.24645821156778072,
    0.13429662890219105,
    -0.17556527746769468,
    0.22566809222890621,
    -0.5693240446470338,
    -0.908844166996528,
    -0.5797800828746139,
    -0.38695091239669493,
    0.05143267499209686,
    -0.1533775527317086,
    -0.0791030197583954,
    0.07275526981766647,
    0.5783342019324252,
    0.39433374922821884,
    -0.08572703064061735,
    -0.03412577308198766,
    0.12350333942062941,
    -0.04352240820677163,
    -0.031817784504279564,
    0.0871007673330179,
    -0.19205534249675402,
    -0.019755201531021643,
    -0.16960976712943204,
    -0.2260702954276647,
    -0.08030468297972666,
    -0.4027118659758665,
    -0.017726027211728303,
    -0.028540649388055513,
    -0.14268012091085708,
    -0.21807407551577643,
    -0.08087207017040342,
    0.0032022426619579157,
    0.016946197254623298,
    -0.17249203171944416,
    0.03578276463270184,
    -0.06384624292647204,
    -0.14717239165071244,
    0.0359143139932872,
    0.011174924694059762,
    0.22036476111726644,
    0.17201436669635084,
    0.16697326966386022,
    0.18193685221450012,
    -0.04901304518277723,
    0.05612842512529961,
    -0.14535879569992008,
    0.04129188259612276,
    0.19710719228820775,
    -0.12936499607902152,
    -0.31764107378922973,
    0.5827827255571237,
    0.13664694861129123,
    -0.06152742032565496,
    -0.16082991633042437,
    0.001860285730925481,
    -0.14308095010112565,
    -0.23545306266375549,
    -0.21443006518662325,
    -0.09654414502040067,
    -0.5025399963610907,
    0.12805014868202236,
    -0.042903064866990484,
    -0.09096953374098284,
    0.08367387803475711,
    -0.20065484031326533,
    -0.0254924675567397,
    -0.11816476222236166,
    -0.004053980395371492,
    0.1434647739352248,
    -0.13697663421981746,
    -0.05652876002651744,
    0.17298479896783522,
    -0.5877163562876754,
    -0.5716892274779032,
    -0.6077525366783384,
    -0.7205376729013001,
    0.07973625913043461,
    -0.016318334514122478,
    -0.07614084699911608,
    -0.10942984770899117,
    0.1938854097131942,
    0.09341824579411426,
    0.25478431100392046,
    -0.5336516584806722,
    0.38592813769983336,
    -0.02734518936156731,
    0.07335510877981392,
    0.30098714695191503,
    -0.2124542347819211,
    -0.011992482549989561,
    -0.16372613096677735,
    -0.0044533964719877155,
    -0.08117940831805213,
    -0.2585379814353983,
    -0.011127233309847388,
    -0.2801111950047306,
    0.18257391525600178,
    -0.05024493055025002,
    -0.22807317085772016,
    -0.42238433859126934,
    -0.03600245415301307,
    -0.13907143587831622,
    0.012052516091180885,
    0.04613058466257534,
    -0.007469179276673431,
    -0.32268477784442723,
    -0.13204808442930183,
    0.541995792945993,
    0.826100544136859,
    0.632937907635779,
    0.029340715265173706,
    -0.047318785834892824,
    0.1486207434339644,
    0.2811738002511443,
    -1.2417167640697064,
    -0.11894861721453871,
    0.009140832506055433,
    -0.07744983157700464,
    -0.15455517338812746,
    0.03293477720440586,
    -0.11352813219414795,
    -0.12675305855816438,
    0.06820898614416136,
    0.07132452061545363,
    0.13783119488853915,
    -0.12784630932271626,
    -0.1859365084007851,
    -0.011646041830726414,
    -0.20458270155378336,
    -0.03887613441571104,
    -0.2511516151022418,
    -0.14747515763835245,
    0.03858239259268958,
    -0.0005474801596428283,
    -0.059621200162386194,
    0.09450112258515361,
    -0.11443259316817406,
    0.09251127957569473,
    -0.17677325591123114,
    0.025473785692395143,
    -0.0968499746508615,
    -0.12604075502868797,
    0.020998134934125504,
    -0.22325246178756059,
    0.034950771895154796,
    -0.13277473687692065,
    0.09071324125486259,
    0.05717731810978857,
    0.028619641139822974,
    0.0305932313283964,
    -0.1676473091562416,
    0.2926351512635376,
    0.09990449472880006,
    -0.1174110004845793,
    0.008396822859111336,
    0.2015381200164833,
    0.08783627389874742,
    -0.1187213912489724,
    -0.01862665555238527,
    -0.1884144344354406,
    0.18056249527108356,
    -0.36411057733388325,
    0.00015755528561886732,
    0.02757223481738373,
    0.10734404739513266,
    -0.10985055583964334,
    0.14445624494965267,
    0.097986822930764,
    -0.09386249121429335,
    0.197440957151214,
    0.24424816624889215,
    -0.09350758213284296,
    -0.14798010891436283,
    -0.0896229785630017,
    -0.18478331449077012,
    0.22890141748273138,
    0.24903692224297078,
    -0.0921988580796269,
    0.2584503742632388,
    -0.03194103643199867,
    -0.07600348624587504,
    0.004544376129143296,
    -0.6304019165334753,
    0.43755049569176285,
    0.08498343804825677,
    -0.42979944146830523,
    0.3308998378821583,
    0.3551683557698681,
    0.04518544356690807,
    -0.0957953797176996,
    -0.11979587434450704,
    -0.035484743400527125,
    -0.17283192522560548,
    0.13053812558509442,
    -0.058181629929096264,
    0.5042581605680496,
    0.23876066571787294,
    -0.20342161337345227,
    0.2648175830301926,
    0.1391831029197037,
    -0.26448154545507413,
    -0.23071297511500302,
    0.03525747652377613,
    -0.4024411969779807,
    -0.23680132086617642,
    -0.16636989926925103,
    -0.15627386861560083,
    0.06527373340307278,
    -0.34326450164646743,
    -0.4976766969647937,
    -0.22976320322218172,
    0.07572092107726487,
    0.14730907747909666,
    0.2093565355912332,
    -0.047042737239409105,
    -0.04114905605278737,
    1.122943966900555,
    -0.19564646822879742,
    0.2373984267526688,
    0.2932625582397371,
    -0.24190758215009814,
    -0.07902991388129459,
    -0.10925532830753287,
    0.004080963360061223,
    -0.20608333456384603,
    0.02189653467394258,
    0.062233567023164536,
    0.22526217687318548,
    -0.1527232762513217,
    0.7359474408341019,
    0.0018534982887276094,
    -0.14974151678832584,
    -0.0010741440010506977,
    -0.39379355864766696,
    0.20069034955012535,
    -0.05184968952107858,
    -0.009129335773929178,
    -0.030763760109693807,
    0.03394353124912372,
    0.09327906946734824,
    -0.3115323245548329,
    0.02905198087885547,
    0.6871268706037322,
    0.2319372887824468,
    0.2591075723998276,
    0.12087591584383388,
    -0.475233817757801,
    -0.24035961396753522,
    -0.006344737470225644,
    4.5542074156231095e-05,
    0.9125877865801055,
    -0.09518080771676357,
    0.30745358632265246,
    -0.14542080032274748,
    0.3053704865231,
    0.1757888426120605,
    -0.26175081923589,
    0.1586520369466203,
    -0.0946554623117343,
    0.14570367378733795,
    -0.4948591441100624,
    0.13599020720018815,
    0.01279596508394826,
    -0.2132097216791274,
    -0.08709416504273527,
    -0.06572645580608227,
    0.0765714868951192,
    0.1413846382427502,
    -0.17777827394921264,
    -0.18852104448850188,
    -0.11021941576897251,
    -0.10633884845842557,
    0.07082917277620275,
    -0.1273134373470402,
    -0.19955083231457402,
    -0.0030478678474782426,
    0.023954802897782193,
    0.25264328066809766,
    0.1938013089542784,
    0.2898445167342302,
    0.06232077254908467,
    0.13266671309442415,
    0.19861437562545084,
    0.4155957398115622,
    -0.848550865951963,
    -0.22101653991758474,
    0.14058410544021863,
    -0.30096747210416613,
    0.10945958332995613,
    0.23286807131759543,
    -0.27825217581701384,
    0.27608599870716866,
    -0.06308091653074219,
    0.044328564810499724,
    -0.02540473795697723,
    0.08305963574799492,
    -0.16649057290514235,
    -0.14459626946540213,
    -0.13519021803554304,
    0.017693503837253793,
    -0.17404751874704852,
    -0.18209093254053318,
    -0.09528063685853608,
    -0.354066542632692,
    0.14438096333945794,
    -0.11983039848752143,
    0.1201366202543277,
    0.16559136219847637,
    -0.19022095261965688,
    -0.09316541112752029,
    -0.03900688957361133,
    0.17651437264807607,
    0.24897090827194499,
    0.07135169349705496,
    0.028755622992445714,
    0.19853486053574132,
    -0.082975376865272,
    0.3330581179656301,
    -0.8865420700220762,
    0.09530159642926193,
    0.2445201469513591,
    -0.06031231398709774,
    -0.2477460662041225,
    -0.11257520245833591,
    0.31308355157606654,
    0.16084289022894954,
    -0.1757389619675323,
    -0.08550131883320106,
    0.13365675371693778,
    -0.057519933589762776,
    -0.19874823457057167,
    -0.22777889370618884,
    -0.017808674055199883,
    -0.0459834599916145,
    -0.07839125112232934,
    -0.21937001751162782,
    0.32355390870317446,
    -0.0905797748087295,
    0.018665687945412908,
    0.04175503830278482,
    0.03474000324550994,
    0.20717372497589373,
    0.10139448494467303,
    -0.39664713519578754,
    -0.21711536109949992,
    -0.11576626145263647,
    0.1552440327657354,
    0.1645670086919371,
    -0.13216190189565066,
    0.13989047544254865,
    0.023902730868334665,
    0.15148432583776567,
    -1.1414391351858146,
    0.0930272850031348,
    0.17380450246967144,
    0.22292340783207734,
    -0.24801754393771933,
    0.15862021906219312,
    0.06755845452420615,
    -0.06877396839209597,
    -0.046381609188597885,
    0.10982292016531885,
    -0.012824671096926135,
    0.31772186296076466,
    -0.07480620538860477,
    0.651518748256457,
    0.014480301908180544,
    -0.1999810092465666,
    0.062350122695475255,
    -0.029270754161142748,
    0.05346119470372386,
    0.0961163327143686,
    -0.05243486117217022,
    0.10087343459007395,
    -0.14726812846561887,
    0.006435991255124634,
    -0.06900176870508953,
    0.52498568758512,
    0.38826294858999916,
    0.17452766561564678,
    -0.019650705973246602,
    -0.15054823185994098,
    -0.18150417480600525,
    0.0011508740982812213,
    0.07709609589773267,
    0.19957480796898291,
    0.8649687337637831,
    0.06967161892624638,
    -0.22968738224860366,
    -0.5615168432422953,
    0.31831920943798897,
    0.11858577939062212,
    -0.04996327887638793,
    -0.3698668470687266,
    0.23177369927870028,
    -0.1281521787524856,
    -0.37899255786391994,
    -0.07653825504314717,
    -0.47780053518260873,
    -0.8152135664249421,
    0.09888438574823669,
    0.10229201884111808,
    0.15309534997176122,
    0.3531897023213855,
    -0.3468483075729551,
    -0.37207722450085934,
    -0.24284589480668675,
    -0.43323209035277366,
    -0.017090589977783528,
    0.28689162188281137,
    0.007272236091497201,
    0.19594243136164566,
    -0.8332185797293176,
    -0.37191505330030655,
    -0.4234560551700602,
    -0.6126875236805315,
    0.3267012999770354,
    -0.2222707088110084,
    -0.1509478129520326,
    -0.33387799471760693,
    0.3042405958751671,
    -0.1166075910275239,
    0.09548600426335936,
    0.0748753443088753,
    0.1589419766587151,
    -0.16647813183550197,
    0.025125217528258553,
    0.10400505067973029,
    0.13413925620438408,
    -0.12779830684964216,
    0.13152308820502853,
    -0.1132792986232342,
    0.17855295535325913,
    -0.49259283365674755,
    0.11429746854634061,
    -0.06399550359140296,
    0.20424900677464766,
    0.08138351879000971,
    0.1605804648881356,
    -0.12933365017710327,
    -0.15805418122499337,
    -0.11434587010931163,
    0.25450218405646413,
    0.17500975665895946,
    0.11900135179367013,
    -0.20717531179550455,
    -0.30445718461482635,
    0.3209614172788015,
    0.3169744018626643,
    0.32339460239701157,
    0.2026905645932564,
    0.3271583972945605,
    0.07607781457121963,
    0.16107808435258783,
    -1.153961097626549,
    0.08614800974710324,
    -0.0016513478253381638,
    0.1731006503945177,
    -0.027793716183332942,
    -0.1253365219463839,
    0.27769435597975745,
    0.04266672381096181,
    0.27353955503383376,
    -0.22703290514664495,
    0.10126703074206507,
    -0.10615684007565754,
    0.2598629949129632,
    -0.19889666328065186,
    0.09508530719918425,
    0.36279575869881575,
    0.21913362125502786,
    0.036265422220577076,
    0.0340473249119061,
    0.05096601267246816,
    0.053799416698667356,
    0.04434012730684043,
    0.210277557924358,
    0.04009276169428721,
    0.344059748539263,
    0.0652351244125744,
    -0.180326404440948,
    0.1468903371234462,
    0.15074438265084852,
    0.28502914462683315,
    0.1863595408742277,
    0.38367340541026146,
    -0.02229714266693722,
    0.0889776737178952,
    -0.8280792279309207,
    0.04224290958441348,
    0.24605726555744067,
    -0.15130151947256193,
    -0.2828774070091675,
    -0.06776025275225182,
    0.089798113617324,
    0.12363731057978537,
    -0.08152266293363217,
    -0.04419341193336158,
    -0.00837292861293652,
    0.15701605751440975,
    -0.11544854667099616,
    -0.48224171635211527,
    0.2360396437155008,
    -0.2311970176507372,
    0.1249106302795771,
    -0.48420222070489966,
    -0.18858281490946485,
    -0.1524369833915543,
    0.23817216222972598,
    0.4378428590066638,
    0.19243466594510528,
    -0.15229720653974965,
    0.2136230683615005,
    -0.07785804579701369,
    -0.28523371848774537,
    -0.19128177716988917,
    0.3649439119239314,
    0.249577913776147,
    -0.010831228118451998,
    -0.2092544710595149,
    -0.035656675415432576,
    0.3024128113166528,
    -1.032130763759714,
    -0.0895369053217174,
    -0.06347776517492018,
    0.04272508929416137,
    -0.13813540149962936,
    -0.07869492166864804,
    0.03989164058946635,
    0.07174220677123357,
    -0.17450545780916124,
    -0.05529997856437694,
    0.10062140248412997,
    0.07188002948871774,
    -0.03506685585448185,
    -0.03474427641100065,
    -0.07319514093897833,
    0.19136705722786249,
    0.013315845167588906,
    -0.0785988388173662,
    0.3019716072906328,
    -0.2641724214351657,
    0.01886680763164268,
    -8.109493364687032e-06,
    -0.06899971165389779,
    -0.10766463899333475,
    -0.0938047933664879,
    0.1702138815446409,
    0.23961666438944157,
    0.16944897500157471,
    -0.19372952094758814,
    -0.0120567155871354,
    -0.14237500688676602,
    -0.15246881723781336,
    0.040182383648434156,
    -0.1264646455161998,
    0.09801270566248471,
    0.0041052623043636265,
    -0.0005844867686276434,
    0.015131552227272202,
    -0.011418022275017363,
    0.02383710366491976,
    -0.0045677817896215825,
    -0.01140799061501758,
    0.012267145751365704,
    0.01691947288991368,
    -0.008962025988072766,
    -0.004496029778170353,
    0.006134734210355687,
    -0.010309671827042524,
    0.011899941730702562,
    -0.001354441653307286,
    0.01118477844357333,
    0.002091670316651788,
    0.008516571801306634,
    0.01165490696286401,
    0.009301058489458407,
    0.012541755440024803,
    0.0005275565020318985,
    0.0020094454846261945,
    -0.0026120967080131047,
    0.013767739410574855,
    0.000718321467567443,
    -0.004756802984465397,
    0.006475986596680774,
    0.004567766606103066,
    0.006644107723490591,
    -0.020442502798269795,
    -0.0028334998111429264,
    -0.002930474490245452,
    -0.017097079577400354,
    0.003939072934206687,
    0.007366290700681215,
    0.007955187591181365,
    0.009069220497308102,
    -0.016089789216398673,
    0.012144135987893063,
    0.009058176457501526,
    -0.002539805243711315,
    -0.015538752572917407,
    0.006148479975396121,
    0.0035795508407264116,
    -0.0031774085717618805,
    0.019106998759179032,
    0.003972001144265034,
    0.008592085907864944,
    0.006468839009022032,
    0.0011902357575096969,
    0.005877676731772325,
    -0.0031619579981263537,
    0.005740925237048187,
    0.012722926250556347,
    0.002597233904606983,
    0.007065670605110665,
    0.006985579437244016,
    -0.009676953099809094,
    0.00602018752684262,
    0.009484962072374805,
    0.0011413128039614656,
    -0.004208024911233217,
    0.011341779843578047,
    0.021666374766581474,
    0.00783019698654008,
    0.004458630309999511,
    0.014139592763573716,
    -0.0002385403567920559,
    0.007189746376825392,
    -0.0029744903190840857,
    0.007065982637234408,
    -0.021920210781648904,
    0.006516717938340328,
    0.010399481242299197,
    -0.0005794346818340564,
    -0.015194880394874058,
    0.016033721929307045,
    -0.00039894976596710897,
    0.0036221732090121264,
    0.013851902747396672,
    -0.00036501547875208144,
    0.006145488766851282,
    0.007479060120880699,
    -0.00996726433806602,
    0.012418933144360695,
    0.0021336229010236354,
    -0.0005300048504089854,
    -0.0037199443679108843,
    0.014547608866514416,
    0.002514394992574756,
    0.0030005341634295342,
    -0.018936690171119507,
    0.00462192248199035,
    -0.0018220974313649164,
    0.005261021099183457,
    -0.0044680669694076285,
    0.009498100077744232,
    0.017146497325133563,
    0.007629796708965782,
    0.0077923580659408805,
    0.012868994252198932,
    0.008563401446552207,
    0.003144745392595184,
    0.0043597286426512154,
    0.006863839435783722,
    -0.024385970808788147,
    0.01396461919980585,
    0.00878593018697523,
    -0.0037395164293620455,
    -0.011094893418488723,
    0.007928731062439477,
    0.004957987308525265,
    -0.0023948653144298076,
    0.022318926016845004,
    0.004301526491753714,
    0.0018149519134474169,
    0.009178791253448532,
    -0.0035993949716061043,
    0.005974302097125226,
    -0.004973236980362583,
    0.006089186001207083,
    0.010155758110371756,
    -0.00044332784599847975,
    0.0019732082178495073,
    0.0049484131091960554,
    -0.0036319905246208566,
    0.007985203124489875,
    0.005925174241128821,
    0.010830492370117734,
    0.0030986558772769356,
    0.01301797235596885,
    0.02353398100231227,
    0.007727041173015762,
    0.006318358347296281,
    0.014773932717921068,
    0.003003577475216196,
    -0.0018906567509601288,
    -0.002100385315793642,
    -0.005858835441425059,
    -0.0037038889485079747,
    0.0021375029671695826,
    -0.00585331749688336,
    -0.005625497964019076,
    -0.005298982355332693,
    -0.0038301264042340066,
    0.001367501187753555,
    -0.002005022962767563,
    -0.00372550138706518,
    0.000746218544780356,
    0.002218988431639788,
    -0.0037196857626228363,
    0.0030899350288789438,
    0.0002709468375705509,
    -0.001741556426482571,
    -0.0028784494444683995,
    0.001215711845595827,
    -0.005472061914579037,
    0.0020423064360765553,
    -0.0030257389462394896,
    0.0005535805495786443,
    -0.004396668123443745,
    0.000492697274386087,
    0.004017388813099289,
    0.0015743928688039823,
    -0.005990115391426376,
    0.004381018752715126,
    -0.0058350682748176605,
    -0.002351885410823935,
    -0.0007300965557275725,
    0.005890307851193929,
    0.0062447803214770855,
    0.0057542847740676695,
    0.00974715301273738,
    -0.019397470289854092,
    0.009492614257804694,
    0.016353413535623272,
    -0.006708993642722156,
    -0.02314310730130882,
    0.018386342862652637,
    0.006720122469326383,
    -0.006984332414995535,
    0.018209471935638863,
    0.00728976524977208,
    0.010876332731063884,
    0.010364097739685852,
    0.0035177041594437134,
    0.008927275802064327,
    0.004819753879244817,
    0.0033781361466169364,
    0.006062565837854854,
    0.0027199481380475116,
    0.0030664746707804377,
    0.001784865602777194,
    -0.006983112787092413,
    0.015115617939573703,
    0.0013295558905800405,
    -0.0036736500612886322,
    0.0009522502297764547,
    0.0035790245953403444,
    0.01386820763585464,
    0.0032556964851448516,
    0.007698007305355049,
    0.014588489691831463,
    0.0008712682781459758,
    -0.0019110339338433242,
    -0.004520809290033847,
    -0.005501304100552621,
    -0.0059202555046936715,
    0.0014900647904996854,
    -0.00786669844480163,
    0.00662793301729139,
    0.010362507333965093,
    0.0017699903349755882,
    -0.0022338638928615503,
    0.011388475840127333,
    -0.0034079664117006446,
    0.0013774378266860493,
    -0.0016855397547568792,
    -0.0022454847314662373,
    0.004069774178328874,
    0.0005098119867421781,
    -0.011176463467541477,
    0.003829475272894978,
    0.0014478024901091481,
    -0.00813812424517795,
    0.001097326493910753,
    0.014723185919773396,
    0.0014182510308028055,
    -0.00037684833945809764,
    0.004973792286092187,
    -0.0005121698738925593,
    -0.006599377622314055,
    -0.006913545997597221,
    -0.009688333079557894,
    -0.008897725593183161,
    -0.00734185995209559,
    -0.02237880438199869,
    -0.0052151506264362215,
    0.00976294164709841,
    -0.002110875641927948,
    -0.002966529351323227,
    -0.012477150011426345,
    0.019959436975456765,
    -0.008046251113738195,
    -0.006908107204076198,
    -0.012034028199610018,
    0.017373765057077804,
    -0.007798895291943616,
    -0.009709130986870533,
    0.015451451402742993,
    0.003321269205602518,
    0.010055165595854416,
    0.0022720511316728213,
    0.00038713072468618055,
    -0.0006430373432701976,
    0.01314025893463282,
    0.00231020220313547,
    -0.006286903597509962,
    0.0032749228648762244,
    -0.0002457953243503067,
    0.0039389944807036,
    0.0035779820531008782,
    0.01035311638363047,
    0.012220427952189108,
    0.000977763989024323,
    -0.003439258987595365,
    -0.0017084202219167224,
    0.007725419763572746,
    0.006809044899107145,
    -0.00829282137070207,
    0.0045132666230638194,
    -0.005623800729066511,
    0.0018075345348487926,
    -0.0023890502869905504,
    0.009523930555265282,
    -0.004884686681666119,
    0.009359737144211117,
    -0.004704584881394763,
    0.005372220957808666,
    0.0012167697480386058,
    0.002328777869082364,
    -0.0028191287194829617,
    -0.010769705685392818,
    -0.0008582224317718649,
    -0.0064088210553851525,
    0.0019166331507609387,
    -0.006875401906777926,
    0.010803186114048062,
    -0.007359106929540149,
    -0.005409508277606725,
    0.0015478728546584662,
    -0.004699805735617006,
    -0.015565203608188131,
    -0.006040116516243832,
    0.006472821231224214,
    0.007264298659487999,
    0.01491319424953934,
    0.004086180305137861,
    -0.009228785758409864,
    -0.008115924749587276,
    0.002109025280453702,
    0.00023826627191229772,
    -0.0015638465758068332,
    -0.005429291564587986,
    0.009740537835812642,
    0.003308609406542123,
    -0.007992980564131594,
    0.005771893068407464,
    -0.0023013158511573685,
    -0.00471751457749786,
    -0.0031935218214145353,
    0.0004875351641401117,
    -0.00032494670999513793,
    -0.002265475546805414,
    -0.005688489441226966,
    0.00048668798795384257,
    0.006391360103748453,
    0.0021446729643690736,
    0.0014398909331167335,
    0.012025677440092485,
    -0.016758443962187522,
    0.0019255723307621652,
    -0.0013580001423883629,
    0.005061938415007343,
    -0.004164503608582918,
    0.014937888442724062,
    0.006276944003740354,
    -0.009830724123221017,
    -0.004829858674145786,
    -6.338558141640136e-05,
    0.000758330262911072,
    -0.0026415516809854614,
    -0.0008087293884193994,
    0.007469633127851487,
    0.0007582773141425575,
    -0.004812844437424401,
    -0.00967579563860178,
    -0.005300437321025357,
    0.0025660842507005187,
    -0.00022352191773109074,
    -0.0023720283013039345,
    -0.0016362502220249617,
    0.00599979697143963,
    0.006208085056189058,
    -0.001901626393353336,
    -0.0025906669631337188,
    -0.010075980209206858,
    0.0025076823120302504,
    -0.007745709392899248,
    -0.006413245383366036,
    -0.001853299024743973,
    -0.010661562036089815,
    -0.008541777558616574,
    -0.011870188762792173,
    -0.007540245065174034,
    -0.00607017015061559,
    -6.898954839929432e-05,
    -0.005007730974988251,
    -0.0059852481160491975,
    -0.004622032024551634,
    -0.002935836623531603,
    -0.0019608823369730672,
    -0.0047277911467368235,
    0.002286625755488573,
    0.0016761044182183797,
    0.002927655834621523,
    -0.01057701683125648,
    -0.00012204618513554085,
    -0.006330461156837591,
    -0.003560251392846548,
    -0.005890355641618636,
    -0.00566349733296186,
    -0.0027307398810424493,
    4.3150801933695486e-05,
    0.00544412080625392,
    0.015096066955523344,
    -0.00370429672727883,
    -0.01893037868212316,
    0.00673506107739036,
    0.012917984511857704,
    -0.005072082631766862,
    -0.014858771513071595,
    0.018697305115755885,
    0.013218884358765625,
    -0.006840192309348574,
    0.020432017480251658,
    0.001220837424900309,
    0.00605765911616895,
    0.006499972714608455,
    0.0063042810509338154,
    -0.0033598964684285987,
    0.01014862132615583,
    0.010434617478975025,
    -0.00023241742466210687,
    0.009606119908957753,
    0.005140484173186376,
    -0.005728770282975629,
    -0.009249818150206342,
    0.010312911835594922,
    0.005548631492776928,
    -0.004337114069983851,
    -0.0008542207298384199,
    0.007244379091703206,
    0.021550771608583742,
    0.007715867812026796,
    0.006623435002316728,
    0.013582180225261946,
    0.005867042728224823,
    -0.002187420058364174,
    0.003840202696217511,
    0.0018065683274350287,
    -0.018520377127560352,
    0.007107251371858569,
    0.011699729564864139,
    -0.0053078052531719926,
    -0.007502569447426993,
    0.0006701232949221418,
    0.01530335724714337,
    0.0005189782944244179,
    0.015829844556440795,
    0.002546277607087821,
    0.00865480132690241,
    0.005303698460552888,
    0.009975978947467523,
    0.00433341568749239,
    0.0039393519625956445,
    0.0005385035420880428,
    -0.0024296699341762686,
    -0.006460153400375869,
    0.01018703680239639,
    -0.0006620942259208678,
    -0.007988371308028068,
    0.006880347527335809,
    0.011381387215623822,
    -0.0032681013635916254,
    -0.005797764840722217,
    0.008709784738920458,
    0.018534196965671393,
    -0.0011992635032211769,
    0.0054379916124301176,
    0.010359592670513283,
    -0.00244892648637698,
    -0.0005325784206666379,
    -0.0019969529478972552,
    -0.007916107857110536,
    -0.010728750167204652,
    -0.003299540439844781,
    0.0011628243168313596,
    -0.007955701506872139,
    -0.001274487247006608,
    -0.011128127249416898,
    -0.00045035817276252443,
    -0.006564818576931317,
    -0.003743056181740782,
    -0.01090623487104922,
    -0.004337739890055401,
    -0.003490614681538381,
    -0.010966033469446176,
    0.0024843736958854194,
    -0.0012819402144568937,
    0.006849409575615885,
    6.159567847642349e-05,
    0.0010730182081363565,
    -0.0027325541686299016,
    -0.010408130171734475,
    -0.007660927204947084,
    0.0006545693754245608,
    -0.0054316530721127,
    -0.005075052921760923,
    -0.0016940166773720526,
    0.0023645330305483814,
    0.0006617869158129893,
    -0.005643708368452334,
    0.0036438441951427594,
    -6.566252389372187e-05,
    0.004574412300379642,
    0.002902746828115413,
    0.0015490241485109676,
    0.0010017314666076968,
    0.022125974016974973,
    -0.014521945814583012,
    -0.009176010414187365,
    0.007690855424598623,
    0.019945302427646982,
    -0.0151330576002478,
    -0.005802289168363308,
    0.009330911569067664,
    0.0003414636676563123,
    0.011735844282006214,
    0.007044702289315927,
    0.011141905857568904,
    0.006698146887161075,
    -0.007612691208258013,
    0.006949425054403795,
    0.01344332075942052,
    -0.002954120505776157,
    1.9228720283711486e-05,
    -0.0020461401829250836,
    0.009651120608789705,
    0.011090243830136305,
    -0.0032199383035042377,
    0.0013453190893788854,
    0.010367139304518021,
    0.017992953817158413,
    0.0003453153283877842,
    -0.013460292021585869,
    0.008215425115185216,
    -0.007644557166092182,
    -0.007958541156697021,
    -0.0007056625235362786,
    0.006529971441411883,
    0.008173304548980975,
    0.0076656030884001865,
    -0.022799329179330637,
    0.012968456708149499,
    0.00877832071537832,
    0.001186961734142309,
    -0.0151060023158504,
    0.010532381613008299,
    0.011627691552778943,
    -0.0003192420525450156,
    0.018789176203338788,
    0.00867451294384328,
    0.006836297254785461,
    0.002814362984746149,
    0.0028791543628905163,
    0.007221291950732568,
    0.0049159853596413014,
    0.006081011017600401,
    0.008207123983403355,
    0.0028073536090652534,
    0.006172033662126614,
    0.005138380042871066,
    -0.006455555375880446,
    0.013982911741141628,
    0.0011499640387570452,
    0.0023028077827389384,
    0.0017596433735634115,
    0.005281435287229735,
    0.020120234871646,
    0.001406803135019437,
    0.004146209146141206,
    0.011844821493028708,
    0.0007179511347691794,
    -0.0024391986116767466,
    0.01212360085119255,
    0.006872198805171303,
    -0.01599637347619628,
    0.006875769675821981,
    0.01057872918521601,
    -0.006036673718690586,
    -0.01941182117410168,
    0.017589194003660828,
    0.01049795469204907,
    -0.001267272064704987,
    0.021559640399473626,
    0.004833508605024709,
    0.008294023503944249,
    0.007299422857611661,
    0.01001259682966151,
    -0.0006750695169968041,
    0.007678623430658814,
    -0.003366285715617696,
    0.006378459683451561,
    0.0028629358978600654,
    0.0025051718834130246,
    0.010900990917447359,
    -3.462828396183137e-05,
    0.013922529091244105,
    0.005853490268463728,
    0.0012037318232903777,
    -0.005697474901041352,
    0.006211840542079735,
    0.018105689170787743,
    0.005574926852815734,
    0.005745742485907595,
    0.01623489111750634,
    -0.00028960673433794807,
    -0.004865860265574789,
    -0.0055955910630415655,
    0.001832092271340702,
    -0.003666187086751628,
    -0.005048230840263358,
    -0.00795549105896954,
    -0.0006811226065340867,
    0.005786783966888541,
    -0.008477661931915558,
    -0.005898157511425867,
    0.0036208671914769244,
    -0.008487483829427218,
    -0.004252590054305739,
    0.0028154291533810764,
    -0.009856693358700064,
    -0.00876093769933975,
    0.004654731678473236,
    -0.001281527909444849,
    -0.003935127878608716,
    0.004288294600867563,
    -0.00566039599759316,
    -0.0029873090620179954,
    0.0016650875237090635,
    -0.010197956314848577,
    0.003088078732423943,
    0.0005460890521624763,
    -0.0017483611152372825,
    -0.008424696536780785,
    -0.007976623356013898,
    -0.003866364089733029,
    -0.0010670098646717514,
    -0.001196375313656329,
    -0.0069601484518230835,
    0.004831431013866827,
    -0.005114878006816718,
    0.004466553542799769,
    0.008503554096828582,
    0.0149353553595136,
    -0.006614493832530502,
    -0.005133770438987769,
    0.007877903018776061,
    0.012313964929771716,
    -0.00462848511508491,
    -0.004969715638036697,
    0.012530937100338915,
    -0.007154549022857506,
    0.0050206155538032845,
    0.007397795068912151,
    0.007679443993715611,
    0.011451381780963131,
    -0.01560603045017435,
    0.017203520597602783,
    -0.008864233758943546,
    0.0075953969483352115,
    0.004583274962976362,
    -0.004514336441110944,
    -0.004804134228335663,
    1.678816005500272e-05,
    -0.0009289018415223274,
    0.0030730314751171114,
    0.004510309023974618,
    -0.0002849877263229708,
    0.004455724986390178,
    -0.002705497675421573,
    -0.0042208001593885955,
    -0.0069577719666851865,
    -0.011508439651460318,
    0.006523520638326128,
    0.004445690893979308,
    0.012534825778780222,
    0.00445046536915929,
    -0.021229438300376425,
    0.009124649467852393,
    0.014939412455226304,
    -0.00898899425353241,
    -0.016981210773718853,
    0.017863660861942535,
    0.016003277130688442,
    -0.006827537745890389,
    0.02603320135630078,
    0.008454265705959503,
    0.006275085760350373,
    0.008017931405134975,
    0.008810443784254237,
    0.003272259236647176,
    0.002687728330478263,
    0.0031249889794184487,
    0.005867595810998943,
    0.009660404978230317,
    0.008683788788599303,
    -0.0013650860119403749,
    -0.0062763799681727316,
    0.011519282684368031,
    0.00844859290084653,
    -0.001314172596814595,
    -0.004714012695077906,
    0.00811826012049365,
    0.017997639788209816,
    0.000566907909322467,
    0.009632599251400711,
    0.01422241645639758,
    0.005635341837038008,
    0.005792955123295488,
    0.006369853669340594,
    -0.0024232095582488954,
    -0.02108347220706436,
    0.015143758308533916,
    0.007906918193111503,
    -0.008310786130975191,
    -0.015908169681320642,
    0.01861554857143336,
    0.015202568496383498,
    -0.00535030607998567,
    0.02422600745408414,
    0.010265743883553006,
    0.00426267972581274,
    0.010019687373735023,
    0.0056075687761834355,
    0.010003786409981535,
    -0.0016109257254294702,
    0.008419546266606386,
    -0.0040764982466144385,
    0.0021513015209337827,
    0.012404827262276145,
    -0.005518100630156731,
    -0.004521481410259616,
    0.005424178606342617,
    0.00524972377007555,
    -0.0002206995989095354,
    -0.0055902293407279376,
    0.00805956777336408,
    0.022226563226178962,
    0.006610475265108978,
    -0.0002877179570375227,
    0.012894435022587336,
    -0.002717064398847679,
    -0.002709185686473365,
    0.0066178897434996,
    0.008661760743251559,
    -0.008324892916340757,
    0.005451626731727432,
    0.0030952341763730543,
    0.0016150812241309106,
    0.00015306302582250412,
    0.011403158855841979,
    0.009451041698970394,
    -0.003586546953360589,
    0.007539235256480274,
    0.0027668751984737004,
    0.005569412181949614,
    0.004657596452590716,
    -0.002793595261598271,
    -0.00968901214232678,
    0.0015071552791079193,
    0.008684190566377759,
    -0.006049999041797828,
    -0.0003554117773833819,
    -0.010906213291804032,
    -0.0009501759303951954,
    -0.0031653851956834522,
    0.009550178819914344,
    0.008406799839276816,
    -0.0008059753143425311,
    0.0023059660081918643,
    -0.0031429152092883853,
    0.005138986947662319,
    0.004056548835607021,
    -0.01244419175717493,
    0.006353268335585104,
    0.004501210668214626,
    -0.0038971895599767934,
    0.004745395924743475,
    -0.00909030833510648,
    -0.002443853456562456,
    0.0016062088212335259,
    -0.0034651595217400663,
    0.00936602766476029,
    0.0029143396956073926,
    -0.0013256567059321733,
    0.0007249327337414632,
    0.008215463877425262,
    -0.006009256385911742,
    -0.0009795423922059092,
    -0.0033056036452128582,
    0.005092298390232854,
    -0.0109292400739811,
    -0.014150980276521851,
    0.016271763181939358,
    0.002906108839732765,
    0.019892581064260628,
    -0.007072906237943298,
    0.008464525127889819,
    0.0035312197485455215,
    -0.0011662224451972451,
    -7.324033698167242e-05,
    -0.006440691447727734,
    0.0019845763968666026,
    -0.004188772093916373,
    -0.0036987299263694,
    -0.015145885119945766,
    -0.01202425480656363,
    -0.0019477932120708598,
    -0.004710541976168006,
    -0.004164019363113796,
    0.009804875530980297,
    0.005730032759774438,
    0.008772831703674714,
    0.02607129626279041,
    -0.006214638263885477,
    0.0045691764433969774,
    -0.00014472600674746052,
    0.017602727536658123,
    -0.00643050113209559,
    -0.0031621543493267406,
    0.007736784908717036,
    -0.013653932956287616,
    0.017286401378338978,
    0.012886323186155835,
    0.009397667216672182,
    0.006661256683464711,
    0.007199912617435364,
    0.0013447749506396507,
    0.008453947529136571,
    0.0012355755026474634,
    0.0013565218620016685,
    -0.004773048736352079,
    0.017017847674088652,
    0.012775005386849966,
    -0.0068024914189947164,
    0.009213476268991905,
    0.003991704327787762,
    0.01115312502945268,
    0.008044144222355588,
    -0.011315963643638505,
    -0.0024718559441521317,
    0.0048201892395375945,
    -0.0267624595057582,
    -0.006945606473104239,
    -0.005397971309559642,
    -0.005314978744484353,
    0.004695578029859377,
    0.0029307337096792607,
    -0.0018043582592884796,
    -0.002701053184176644,
    -0.0004360627149069327,
    0.0005886604030129773,
    -0.010211973703917425,
    -0.0033242347399973725,
    0.00961387336587579,
    -0.009649929907995415,
    -0.00587185316754776,
    -0.006172029629240646,
    -0.0040733347583807745,
    -0.000543245751645927,
    -0.004285912402759765,
    -0.005657238395751522,
    -0.008941869708881374,
    0.0040125546117382865,
    -0.001460679157633429,
    -0.004630802880657454,
    -0.01073141559901896,
    -0.01039477903655856,
    0.0026464732702220738,
    0.00503172791859582,
    -0.0038736055871867684,
    -0.0025458007239979184,
    -0.005549912173208419,
    0.0005501747063850679,
    0.001790531609695748,
    -0.006210110546655398,
    -0.0012743562328866738,
    -0.0030995705808026146,
    -0.007530154316469868,
    -0.005397903070150139,
    0.005861760431239372,
    -0.0005757697849499914,
    -0.0013178603335824127,
    -0.005191342830368636,
    -0.006601004024651666,
    0.000981171372107819,
    -0.005237962230037409,
    -0.0012008214978284277,
    -0.0032001982886388303,
    -0.001195353715294124,
    -0.010512208076077681,
    -0.008501909195750616,
    -0.011103068508845387,
    -0.006912327963262353,
    -0.008893156844021805,
    -0.009029667801106969,
    -0.0022608006118450806,
    -0.003926968872789722,
    0.0004492731273681425,
    -0.0027768716302652677,
    -0.0007948985418415953,
    -0.0018412454113330909,
    0.002742481993262513,
    -0.006808958635323424,
    -0.010924440924756765,
    -0.003038541673174448,
    -0.0058652969869409455,
    -0.005264449810367732,
    -0.0053738451408474825,
    -0.002950031565242508,
    0.0044453412521912655,
    -0.007375183642748402,
    0.0008034512002229724,
    -0.010949637249372373,
    0.001200898831763399,
    -2.5737332428192288e-05,
    -0.0005026739868917165,
    -0.007992947404195852,
    -0.0005245293466373225,
    -0.004367138352452149,
    -0.0054721546351314656,
    0.005498546935207222,
    -0.00886120927271419,
    -0.002424599868710277,
    -0.0031357447189971875,
    -0.008402376223778447,
    -0.003664422669349072,
    0.00011452419442575488,
    0.00022112705399694163,
    -0.0009167233064424857,
    -0.0009210656238712869,
    0.0012257063036579397,
    0.0006377292242351199,
    0.001854304230333564,
    -0.004209313755342743,
    -0.005799382517553786,
    -0.004407405723863785,
    -0.005292114122774266,
    0.007640902077716764,
    0.006719836843170302,
    -0.0038873698504966257,
    0.003682129062427488,
    -0.0037109776095667537,
    0.005005661873021696,
    3.806534036200072e-05,
    -0.0028365399996499586,
    0.006910342333726184,
    0.009849672320536873,
    0.0028598947761075506,
    -0.020746945350331142,
    0.013696001645061101,
    0.011455578167497949,
    -0.008793886881046925,
    -0.018667054789879258,
    0.014134966455073521,
    0.010122299045023625,
    -0.002187327456686126,
    0.02219454819274565,
    0.0006671372887234371,
    0.006005027266046065,
    0.006963829736643626,
    0.01065849882459586,
    -0.0007235332917168201,
    -0.004772675866028892,
    0.006079890547050708,
    0.0003673973370083013,
    2.4817212910715e-05,
    0.004134503502412799,
    0.00800472401387613,
    -0.004058513282702321,
    0.008471181408493114,
    0.0025158597903878715,
    0.0014741443884301517,
    -0.0003652587398376463,
    0.0078055021336275515,
    0.018314133966551568,
    0.005440140319346586,
    0.0006087436943796698,
    0.01688611120419757,
    -0.004671047736988904,
    -0.0042441709882805895,
    0.007288866315671956,
    0.00618723778304151,
    0.019005013800465455,
    -0.004734627062796828,
    -0.013037831781707976,
    0.004128910587187646,
    0.012795818724129437,
    -0.006583310246394475,
    -0.019814153693527303,
    0.010830031789007835,
    -0.006979689792742025,
    0.015226122376086618,
    0.009479867485226312,
    0.0005099315532564796,
    0.005919288344969503,
    -0.013749841734268315,
    0.020341986662538135,
    -0.003234266571459405,
    -0.011148763598514171,
    -0.001223473870302058,
    -0.0076612765166129545,
    0.010518198198995287,
    -0.004570709401068895,
    -0.003003132669766383,
    0.0015156426711399823,
    0.014079786741797778,
    0.009914613800156381,
    -0.0034474474985849,
    -0.0150601156434183,
    0.008733633306716414,
    -0.00571241412451056,
    -0.017293397381316446,
    -0.0032977049250378357,
    -0.0016224620483680805,
    -0.00903540859581291,
    -0.0053842725198858625,
    -0.0052029257205492615,
    -0.0034256076593859527,
    -0.0043694316192840615,
    -0.0009098086490049598,
    -0.004881268859771249,
    -0.0004499224743397689,
    -0.005363480750153145,
    -0.0063213776385619876,
    -0.005915901419242745,
    -0.006551515469935952,
    -0.00681588183189606,
    -0.004985004268437761,
    -0.002975430084630532,
    -0.0003477742788249249,
    -0.001566305070312284,
    0.004495916039031467,
    0.0008154572671430113,
    -0.005206380889741001,
    -0.0035248883152516025,
    -0.00561914231069069,
    0.0006989194155094119,
    -0.007693522347329248,
    -0.0011490616422109995,
    0.002346002471667739,
    0.0010579398752189476,
    -0.004084951450556425,
    -0.003281440478559292,
    0.0025240924722271614,
    -0.004214174352039082,
    -0.001207069885797308,
    -0.01079726755826612,
    -0.0005061926884439898,
    0.009063202145615715,
    0.005519729242703649,
    0.02379418661691996,
    -0.00892731066929452,
    -0.0013754160448965057,
    0.010984297650594178,
    0.02336912027996881,
    -0.006054089014070484,
    -0.005589963632421046,
    0.004007916362513254,
    -0.0025387399895253626,
    0.001867008660354566,
    -0.0009253397241778721,
    0.00857379412705376,
    0.005975825229251397,
    0.0018697763511582018,
    0.006684805554051355,
    -0.0013747396349605254,
    -0.00640336776333371,
    0.003603741401683535,
    -0.013159927870151732,
    0.009994147748285788,
    0.005979514864781345,
    -0.007450779949038855,
    -0.0010249906728332452,
    -0.0009142309519200446,
    0.0043502344750195494,
    -0.0028574988604431572,
    -0.009681153016037803,
    0.004168101662443378,
    -0.0007428112163796061,
    -0.013933576482636177,
    -0.0037195026846220326,
    -0.002254308975556286,
    0.00047885381557813915,
    -0.00041535803690155744,
    0.001572373783871589,
    -0.0057239537494551285,
    0.0021407490888115297,
    -0.0024291078423993996,
    0.005904638231926849,
    -0.0034632529983519714,
    -0.0009553148444621005,
    -0.010188595787462036,
    -0.005173040970840327,
    -0.008689819307843153,
    0.002156691977006775,
    -0.0033335119524641518,
    -0.006617260855340628,
    0.0013728902307063955,
    0.002600061667949971,
    -0.0020451168202230653,
    -0.002506650251839448,
    -0.007290403726231728,
    -0.002191965627168949,
    -0.0061891958172078905,
    0.008344541725310722,
    0.003836877594890625,
    -0.0023972429876455976,
    -0.00858178567188853,
    -0.0030484111351986327,
    -0.0019584866362882905,
    -0.0018133094466024511,
    -0.011206685338070392,
    -0.004375364936342889,
    -0.007710965132264621,
    0.002607875695929853,
    0.006150516483515001,
    0.010824433198264476,
    0.005613159840015412,
    0.024607703432443218,
    -0.008249115646096875,
    -0.009556174100680739,
    0.0015121127979385804,
    0.021053155058825115,
    -0.010909602404985917,
    -0.008929365123959863,
    0.008089690803744278,
    -0.0050011494498347344,
    0.012511222763907629,
    0.01215696278002429,
    0.0021742071722749283,
    0.010822949029285007,
    0.002995255052019347,
    0.008096399256992128,
    0.004559817691427143,
    0.007219242706691738,
    -0.0025844936487328606,
    0.0069923651343137385,
    0.01762830427214106,
    0.006603024511056913,
    -0.0027843340749988538,
    0.00011728331586655216,
    0.013497283149124512,
    0.007596753963461929,
    0.007311888015638982,
    -0.015694128649446193,
    0.011971971863167728,
    0.0010944030797356062,
    -0.014729813723220771,
    -0.0045260513116074565,
    0.003590714003426589,
    0.017674414266518064,
    0.007989875693799393,
    0.025165625957446133,
    -0.007806034361175199,
    -0.009786945014017376,
    0.012182830280751152,
    0.0167414968452625,
    -0.007857518861923861,
    -0.006687981261305516,
    0.007770676794610909,
    -0.002482171951773607,
    0.00623409424907361,
    0.01006386540061212,
    0.00432618081137223,
    0.01153795227446911,
    -0.008679686617048616,
    0.0008501566008831246,
    0.00409697226099022,
    0.0031945415135953706,
    -0.002778631176194282,
    0.0045896975405578825,
    0.012971948570670801,
    0.005654672572346769,
    -0.007522054607171693,
    0.0022839817813458847,
    0.011511286814869464,
    0.004257017350509857,
    0.0029703433187254747,
    -0.017917027084550865,
    0.003271993536193988,
    -0.0012700915809575274,
    -0.016005869590120608,
    -0.002953635791353714,
    -0.004861832759007237,
    0.0006666823135581256,
    4.629244446896329e-05,
    -0.009895269773268907,
    0.0009080286543759462,
    -0.004449055015591382,
    0.0036552883866788756,
    -0.010830814686139474,
    0.001971574596132645,
    -0.006989612724853584,
    0.010362570238297284,
    -0.004604947106475165,
    -0.0057260376688979195,
    0.004439611261829216,
    -0.005649451075355403,
    -0.008452514284088268,
    -0.0139006286914231,
    0.015028220935153085,
    0.0021656053402818454,
    -0.0031461115848179237,
    -0.002312775457601689,
    -8.996025126171598e-05,
    -0.0018307968210371814,
    -0.0015766340796257872,
    0.0022150356250277433,
    -0.004592577864047108,
    0.004787053200044942,
    -0.00041027622139382574,
    -0.0028907838236625523,
    -0.0016967987839828797,
    -0.0057716928452022035,
    -0.009719083469615324,
    0.0018026259874363074,
    -0.0047503567114954865,
    -0.009445474946195877,
    -0.00820655506310364,
    0.0025745555674639123,
    -0.0022744066787907893,
    0.005359736146009705,
    0.0043735052917935335,
    -0.0017971501053052688,
    -0.010766411677105852,
    -0.00546190097523961,
    -0.0011249680012487076,
    -0.006946589434757944,
    -0.007612425004287301,
    -0.005455722054602866,
    -3.9043265100596056e-05,
    -0.0023583745567488192,
    -0.005731349403276984,
    0.004498845318289113,
    -0.008804264537962223,
    0.001043159320740839,
    -0.0010123503332348203,
    -0.0010700954206245338,
    -0.007296200579626018,
    0.002177863890136402,
    -0.00570732627318912,
    -0.003738712573285485,
    -0.00041311634915241064,
    -0.0004872431188378906,
    -0.005035589879294964,
    0.002146506927018456,
    0.004412232244335932,
    -0.0091229421886785,
    0.0059608307745802735,
    0.00573853282932953,
    -0.010010061849522935,
    -0.007047516554302048,
    -0.0023368317812361337,
    -0.0005738897814800257,
    0.01647117876729949,
    -0.007924276035528666,
    -0.0022619586767578877,
    -0.0030679361522355617,
    0.015278918340857879,
    -0.0027916788009794595,
    -2.8384951140559466e-05,
    0.006659653520101714,
    -0.001508042867763363,
    0.0007358769847710154,
    0.00528423557814721,
    0.004625167657304189,
    -0.0013960918451995181,
    0.01663386100992469,
    0.0016807723158608864,
    0.009607615132525803,
    -0.0044999500842419745,
    -0.007751815552273919,
    0.0033614805412399123,
    0.017232774490343168,
    -0.007761838374312306,
    0.002547454151350246,
    0.002007172107517639,
    0.020498124834693893,
    0.0033595689735353086,
    -0.004097213695699043,
    -0.020081023216899713,
    0.0014496646988230552,
    0.0055498324795960965,
    -0.003019716579610965,
    0.0005979466670178181,
    0.0060747530776601435,
    0.0037319411034776083,
    0.0058383016505157434,
    -0.022810300862368016,
    0.01031076125651944,
    0.009448154694189788,
    -0.0026392285120027947,
    -0.0119727364190098,
    0.0067536879832966025,
    0.012416547707744875,
    -0.003562097950501951,
    0.015529214439902942,
    0.008431093910283249,
    0.012666503260788307,
    0.006316824991396621,
    -2.010388657367143e-05,
    0.005779987985702336,
    0.012763936916033048,
    0.001407700879112951,
    0.0058280959351149015,
    -0.0008424069637859151,
    0.005252365785622237,
    0.002884218454519768,
    -0.005824954844524366,
    0.01295291185926458,
    0.008867295286682097,
    0.0026035382875388207,
    -0.0023352812017022684,
    0.0020995821547383675,
    0.021036428484838346,
    0.007930736739868641,
    0.009127160525431331,
    0.014624712039643188,
    -0.000709136921851476,
    0.00788104730274703,
    0.0030950165446455894,
    -0.0018554029296973921,
    -0.019027041287024767,
    0.008427377237866969,
    0.015297953620041778,
    -0.012209249603483177,
    -0.01840457298474537,
    0.008375988084066607,
    0.012734058209896107,
    -0.007063090834695219,
    0.01976834190290437,
    0.011629746159074016,
    -0.0032342743905353277,
    0.006585052716248964,
    -0.004302947769531145,
    0.009695042469410813,
    0.007778460404930646,
    0.007346974240152011,
    -0.00693772385120096,
    -0.00019508039167611516,
    0.007420996512941978,
    -0.005101851631241639,
    0.0016172775896837173,
    0.013553318826303468,
    0.0012250777326327732,
    0.0026709829809455714,
    -0.008594078440449274,
    0.005353989369556472,
    0.018414409543224073,
    0.005309253173814558,
    0.008955275692875768,
    0.016975722217002946,
    -0.0033939108873667773,
    0.001907067461158046,
    0.015057969903286766,
    -0.005348191099153874,
    0.028938706649201965,
    -0.00868621459146278,
    -0.013405536089767967,
    0.009513537030612439,
    0.013906466423038624,
    -0.005395555897103219,
    -0.008571525723049428,
    0.013188995368678971,
    -0.010861853156172146,
    0.00827070026784051,
    0.018490777978075846,
    0.01571841328275829,
    0.013581794203741306,
    0.0018684528693234592,
    0.01090551033308975,
    -0.001569784507953273,
    0.0138087107082758,
    0.0003007068303633312,
    0.009735863182979185,
    0.0006500390687241456,
    0.01915955315426944,
    -0.009780086241489391,
    -0.00024235250774683791,
    0.013157774274411903,
    0.007652266309198224,
    0.006661887555480414,
    -0.011464936957429242,
    0.004036458297422475,
    -0.002765041285367982,
    -0.01717564015149392,
    0.006658688675433789,
    -0.005768635956472058,
    0.008983358652995278,
    0.011904358930326691,
    0.018302855159435083,
    -0.010394056676579484,
    -0.007136160994965561,
    0.004749318581173933,
    0.009766016444191556,
    -0.0063861231390788436,
    -0.008379308100449224,
    0.015947159302788835,
    -0.004607718233449205,
    0.002474671163635045,
    0.005135674587127511,
    0.004002156355313547,
    0.00367970240775181,
    -0.003588442666304144,
    0.00907709548216355,
    0.01369478898837452,
    -0.0034347525846402794,
    7.51568791751067e-05,
    0.0012651931216971224,
    0.008621669520883442,
    -0.003475803843667579,
    0.004543424509281024,
    -0.004657343052127858,
    0.005016232632792957,
    0.02002036916544054,
    0.0049198939167030865,
    -0.00993464438181175,
    -0.009111526353178037,
    -0.002131701372455397,
    -0.011484846027376823,
    0.0007649370804203252,
    0.006106118807716921,
    -0.004566788443500894,
    -0.006962711644433729,
    -0.01311186178570538,
    0.012159609008752896,
    -0.009006331875862882,
    -0.00400607379349509,
    -0.016632759633278295,
    0.02104718813910632,
    -0.004113651944910293,
    0.00013533360417628817,
    0.016576294518431945,
    0.008202337143048763,
    0.002854257025390027,
    0.003918936996482667,
    -0.00046836005229183565,
    -0.014353964533857747,
    0.0005624981485197848,
    0.010640127116677141,
    0.007185300212562525,
    0.008502105340178555,
    0.0030931924538569523,
    0.004912838082065235,
    0.004208995495911883,
    0.008962101358614537,
    0.007431311733004454,
    0.0062226472647832045,
    0.003870431656950946,
    -0.0033746561233020875,
    0.011596753134889792,
    0.007981033940250659,
    0.013888819037320246,
    0.012678650912382525,
    -0.005755004741002783,
    -0.00035952382749126165,
    -0.0061290564157326045,
    0.0040291650022501275,
    -0.0036984093146584813,
    -0.010801785903804232,
    0.008226827721056698,
    -0.012633777708595655,
    -0.00583663053796647,
    -0.008462914566666554,
    0.00985821650454727,
    -0.008653585102478299,
    0.0005948529095995751,
    -5.7134312382415534e-05,
    -0.0069715902107847436,
    0.0010363229404735726,
    0.006920565318375592,
    -0.00210809910210464,
    0.010874589610691574,
    -0.0029674998513414294,
    0.004989766346046946,
    0.004732193309847841,
    -0.009488512692464778,
    -0.008883533219324157,
    0.005083336125630785,
    0.00902929553979294,
    0.002331733478117513,
    -0.0013369243290604713,
    -0.004560184709710201,
    -0.002887834799806062,
    0.004981493347248556,
    -0.012259167503481024,
    1.3615190872454883e-06,
    -0.004006612648660827,
    0.000721155450659209,
    0.005413017652177958,
    0.004373030312408742,
    0.01127743960843625,
    -0.02069027114258009,
    0.014546131820723814,
    0.008052000656342855,
    -0.0021474245812401344,
    -0.012037507006219667,
    0.01752106299544241,
    0.006050482102000429,
    -0.0038000930040868186,
    0.021372103225883475,
    -0.000870128522252008,
    0.0072134149386584075,
    0.011049095062233978,
    -0.0019461184291781563,
    0.0032961442481972392,
    0.0016788822009266232,
    0.004853216895576039,
    0.008238786991986933,
    0.0027454927921583177,
    0.004677913548772365,
    -0.005104380973087043,
    -0.006173189641646498,
    0.009240756700053879,
    0.0026773854536700802,
    0.006309337572736195,
    -0.0071393107069836195,
    0.00402150813050178,
    0.023130352518475845,
    0.00817844319768187,
    0.00210757963303609,
    0.016340564510617744,
    -0.008048472355572267,
    0.0036701334613844956,
    -0.0037289504192349896,
    -0.008484543477144533,
    -0.004916071819530902,
    -0.009895602713115818,
    0.0034558176215241185,
    0.007195513010594895,
    -0.0037303709170266592,
    -0.004633580101398374,
    0.004722932104532385,
    0.0061038051911621516,
    -0.004275998165045369,
    -0.006130374726206451,
    -0.003291904430468514,
    0.00512481238105835,
    -0.0041066858899703115,
    -0.007168642841015368,
    -0.007970600251390417,
    0.00511514174413774,
    0.008389350985879545,
    -0.0011997838512406887,
    0.014344636718558932,
    -0.012386297396095177,
    -0.00659236210854015,
    -0.009800956672455044,
    -0.006856532481467011,
    -0.00442122646073159,
    -0.0012241593541303245,
    0.005904572888327361,
    -0.009084883542855594,
    0.004349155450382198,
    0.004501076323539069,
    -0.013199830432024528,
    0.003722622274394647,
    0.005070644016908033,
    -0.0021519949665164705,
    0.0026993393820531693,
    0.026403358767679064,
    -0.0040023201035943555,
    -0.014887310559293277,
    -0.017569960068830267,
    0.01874309005208895,
    -0.005854142389840712,
    -0.010871149865107814,
    -0.00803256245918302,
    -0.00031016428723885876,
    0.012283038754130554,
    0.0035763785717231834,
    -0.0014876059924872939,
    0.008645074090716295,
    -0.00650011029921909,
    -0.0038443340533364178,
    -0.004096263337005181,
    0.014564916729072211,
    0.005081538215536331,
    -0.00582260427778748,
    0.0012657681506709649,
    -0.0005211307677485698,
    -0.003011470163745406,
    0.005514600938782005,
    0.015919603418190487,
    0.01989746271989034,
    0.011602868764884061,
    -0.004127405433853479,
    -0.0025979938237731858,
    0.0024545149067693147,
    -0.017245173949317426,
    0.000774388647128393,
    -0.004202287807138141,
    0.0029744960025538873,
    0.0031583451510100798,
    -0.002700169723566823,
    -0.00817386070539933,
    -0.00944187236362227,
    0.0066375385475284324,
    -0.0026900419123017452,
    -0.009077380650349565,
    -0.0009140078416858824,
    0.009038387830907902,
    -0.008242555736133758,
    -0.005821796299468342,
    -0.007387573213549248,
    -0.01147860350812698,
    -0.008267597723663377,
    -0.006815922269601256,
    0.00047174103939108075,
    0.0049769080290421736,
    -0.007327990338381,
    -0.0018994257923841786,
    -0.007167449790161038,
    0.0036777780657594756,
    0.0013952314348673238,
    0.0038961124464286494,
    -0.0018755809342891926,
    -0.0035479117644860243,
    -0.000903092207049723,
    -0.005118342795761608,
    -0.00808660522573906,
    -0.0045357701795596585,
    -0.00573241109924824,
    -0.005870151372472321,
    -0.0002326410443380304,
    0.0007205969746949963,
    -0.00041135404229551193,
    -0.0021102011224993357,
    -0.0006183017975814345,
    -0.005044523835174124,
    0.007701345664829949,
    -0.002696950017485184,
    -0.012242270245909482,
    0.0034663698325243853,
    0.009704624404425167,
    0.0024966882920535853,
    0.0038971862065333798,
    0.007537075310604966,
    -0.007774925877340855,
    -0.001446087954772476,
    -0.007779166356069376,
    0.008345246671011433,
    0.0054349276530326375,
    0.0027647744007107075,
    -0.002754671050122444,
    0.010172615173249973,
    -0.01114213256652817,
    0.003016134058043048,
    0.0017304352487258986,
    -0.005168157613028573,
    0.0044763581591364815,
    0.009189662159090995,
    0.008481423203265049,
    0.005290675706444351,
    0.025720960640637437,
    -0.012237654876938791,
    0.011818817966487209,
    0.009216100180936122
  ],
  "w2" : [
    -0.4241666750012024,
    -0.038984124715599575,
    0.6012903748963969,
    -0.6062452516992743,
    0.5075911634302782,
    -0.4131839294914295,
    -0.3001724936959592,
    0.5753083365865304,
    -0.3571353885676211,
    0.2851341585403022,
    0.25215887014947413,
    -0.06870588351380304,
    0.001638556691868702,
    0.8391873915465393,
    0.46088550672879636,
    0.6144809147278885,
    -0.061918021610935306,
    0.14259528315518308,
    0.5807496750117959,
    -0.3990157883429461,
    -0.41291208309681354,
    -0.2007683108219402,
    -0.4666211111574126,
    -0.10708027902417654,
    0.5302276507482255,
    0.30348916939524917,
    -0.7589782457916758,
    -0.08558929446358617,
    -0.37970245098988076,
    -0.45618187820369593,
    0.04538542242424671,
    -0.4582667420398064,
    0.14063880722844624,
    -0.5890608895517508,
    0.7651180663828728,
    -0.0070282193336973,
    0.10215392881684225,
    -0.5458540138467504,
    -0.7321082587561155,
    0.28763767900355086,
    0.31320987217572765,
    0.4078318349559323,
    -0.47824681322965396,
    -0.5841894027232138,
    0.28032153241097146,
    0.29376948053285534,
    0.6786093098737629,
    -0.05604377318590611,
    0.024941010132244194,
    -0.021746567576482717,
    -0.02213191433550883,
    -0.024906133794339917,
    0.0059053022412218865,
    -0.01929713917627029,
    0.0008649660954293717,
    -0.014642869995287694,
    -0.0081981489051293,
    -0.0006599962596584091,
    -0.002176359646147025,
    -0.019162583639752664,
    -0.018871461731233528,
    -0.0004880643700558455,
    0.020714898882712086,
    -0.01844169408803721,
    -0.01720047454303858,
    -0.000403246949930388,
    0.008007976548988913,
    -0.021512438521287595,
    -0.019143624451186753,
    -0.006297669202083176,
    0.016650816104188094,
    0.017889389264318375,
    -0.0042628148377101115,
    -0.0020352272965928316,
    0.00038614055675709164,
    -0.019656197953165512,
    0.012441186941021174,
    0.0017682321961911154,
    0.011603696864276272,
    -0.0014509765817769344,
    0.016854742341381786,
    0.019894305921941247,
    0.001558513347713768,
    0.0009128787975246051,
    0.011100750800894437,
    -0.01364957976561845,
    -0.018890376526935062,
    0.020844118441274633,
    0.008990411797733994,
    -0.02173542391044798,
    -0.0036757321445934493,
    -0.018096979247392543,
    0.007759855895481204,
    0.01691336684243144,
    0.0008613850311222014,
    -0.007422810076670498
  ]
}