{
  "b1" : [
    0.05192602652216801,
    -0.1867776608063651,
    0.08892676477034908,
    0.06974668166007825,
    -0.03915941838766768,
    0.21431167320460554,
    0.2610240865600051,
    -0.17294162321098944,
    -0.018986817206600642,
    0.13370330349333912,
    -0.047420231423828424,
    0.056026109135071646,
    0.09654132507327956,
    0.11500745579781853,
    0.11817233776686498,
    0.26775585317612005,
    -0.1231210546274339,
    -0.007681591918106049,
    0.15090093072534916,
    0.11759331974238403,
    0.259114079513961,
    0.15106192227405546,
    0.08240169380472111,
    0.204329876071181,
    0.0945882778595124,
    0.2034312783051004,
    -0.06423800043760312,
    0.0330337408116976,
    0.02800404800373657,
    0.15363189625465298,
    0.11022900615858928,
    0.02678734155529393,
    -0.038539889897645715,
    0.16924493885525482,
    0.15116812840426597,
    -0.023494737367100522,
    0.053467648585305824,
    0.1348243835284194,
    -0.06766587480764422,
    -0.19774492604012162,
    0.09346593458997758,
    0.049824585721594726,
    0.2837878189119667,
    -0.0037122412784865847,
    0.15534681659001612,
    0.23689493001121636,
    0.1323237681866091,
    -0.10052750003191002
  ],
  "b2" : 0.017907816712865725,
  "feature_version" : 1,
  "hidden_size" : 48,
  "input_size" : 34,
  "version" : 1,
  "w1" : [
    0.2363805850705393,
    0.12047618606074417,
    0.2779681678150276,
    -0.43140853621641256,
    0.23647217647749452,
    -0.1144729622517751,
    -0.009107251402790806,
    -0.20934565518296275,
    0.3021731699582859,
    -0.06427752971497877,
    0.41738604984672817,
    -0.1052949447767981,
    0.701732252881463,
    -0.1824069420551876,
    -0.32138654898921515,
    0.0215610627306054,
    -0.22664940929473457,
    0.021752459109232455,
    -0.013870301336503636,
    -0.04377842320550338,
    0.03845986186872718,
    0.07687766066875357,
    0.0698008174065249,
    -0.33059063438293185,
    0.14360478784498068,
    0.3848043353788699,
    0.04688682969358543,
    0.1081811132441265,
    0.2160329150705533,
    -0.09007935720973452,
    -0.4723563690013295,
    0.15858750838026067,
    -0.035473461378986965,
    1.1485506800024583,
    0.050996233391954755,
    -0.16674636523201417,
    -0.03353428977426495,
    -0.09109213393233379,
    0.03472573709834062,
    -0.07671031592111072,
    -0.3012053056975424,
    0.11610420176616396,
    0.021256094782106313,
    -0.17467363078215853,
    -0.17080874610633603,
    -0.14456942729886774,
    0.02073487734425305,
    -0.11506348567354406,
    -0.24256775303876588,
    0.031863125598396436,
    -0.264787447760179,
    0.17353418195301154,
    0.17235873936356322,
    -0.2315802664784999,
    -0.1486480603600324,
    0.1532353841630497,
    -0.23549354919662865,
    0.010890948547130826,
    0.03653472429047917,
    0.09067517019500876,
    -0.10416785298935755,
    -0.07030806716517386,
    -0.06270560179567243,
    -0.017041150130103246,
    0.10366249878152378,
    0.005906479649018043,
    -0.016306005264332124,
    -0.0746412772612104,
    -0.07143481010274019,
    0.19358913457053278,
    -0.012838783416283415,
    -0.03892464162506617,
    -0.35174108408129545,
    0.1434650607176455,
    0.1116493324502135,
    0.12668950808899998,
    -0.26300939186262146,
    0.26006340825451146,
    -0.21537508079691542,
    0.19538507317703258,
    -0.5903858101855157,
    0.2595020458490774,
    0.004035728468352519,
    0.25319503880471567,
    0.22621321615346285,
    0.29887457147049074,
    0.21656554339421116,
    0.1703227649088136,
    -0.15938682571826002,
    -0.21319906475056527,
    0.10482746076736664,
    0.10294034634866009,
    -0.14321260810701153,
    -0.2806319353595007,
    0.0490638765764804,
    0.3506427902894983,
    0.3209008870831711,
    0.3737606902927109,
    0.07834606989799853,
    -0.03154649919761466,
    0.3280533145127531,
    -1.2471978715126504,
    -0.2627112194280456,
    0.29439850521057537,
    0.31114504104947754,
    -0.4170437892039203,
    0.03650194974613298,
    -0.07964005153243364,
    0.24039888400210388,
    -0.2332771741787355,
    0.23825634074613725,
    0.025110375012046753,
    0.25127997537980645,
    -0.0511857083113765,
    0.37506001498674085,
    0.0034108613521069008,
    0.05143850222313162,
    -0.1357778195031481,
    -0.1400178513357947,
    0.2661870464938208,
    -0.0767772530470009,
    0.03981168258375487,
    0.13732143453397946,
    0.010531707182432258,
    0.19168164481442418,
    -0.15726499691206802,
    0.1343497307876036,
    0.6462570443662283,
    0.22861512620579658,
    0.3043554988141631,
    0.23669196968308187,
    -0.5284828551077787,
    -0.30757029360483773,
    0.24315957933679,
    -0.1586878359439941,
    0.8006838082940027,
    0.16494133282659634,
    0.053154364794995135,
    -0.3271046296386561,
    0.19920023667601916,
    -0.016136112919573214,
    -0.0835872483389165,
    0.3294575753317847,
    -0.1141566368242112,
    0.07062573783391608,
    -0.3750401577028303,
    -0.05147616154411411,
    -0.11327263946530801,
    -0.34547770131733857,
    0.10619191179442544,
    -0.24812758665700246,
    0.030531053636015184,
    -0.13592156538769568,
    -0.1736258045357771,
    -0.11645946798285288,
    0.1310583048343143,
    -0.23638616595781006,
    0.11783649526170348,
    0.030218154657585473,
    0.061512781845306445,
    -0.17522356488491378,
    -0.033488081394746544,
    0.3113432395276017,
    0.28530385591724433,
    0.4222945425992028,
    0.2220156499027968,
    0.16088157162186476,
    -0.0634094745912686,
    0.34646605871689923,
    -0.8784157042000504,
    0.22512411962378565,
    -0.04411928163878526,
    0.14846485098604376,
    0.056299756580721255,
    0.19671592193664708,
    -0.03298007877783093,
    -0.026422544387480457,
    -0.0385465630436947,
    0.27047370950336413,
    -0.21740600959598416,
    0.2618789788137986,
    -0.3079846311850506,
    0.6729893977349762,
    0.07785695296025794,
    0.1671577073461992,
    0.18050083771884987,
    0.061797918725187716,
    0.12254928193856787,
    0.12282298866273672,
    0.01511183294397248,
    -0.22344249579481512,
    -0.09944750335691563,
    0.264883725066927,
    -0.15721877777940563,
    0.1618220090998156,
    0.14185301533166197,
    -0.11776394943619986,
    -0.14254000950062573,
    0.009686718263939176,
    -0.1604541636980346,
    -0.23453043871241894,
    0.040606678055531274,
    -0.10492928511433272,
    0.729142009187661,
    0.05168781280682938,
    0.12857785463139462,
    0.12893038798630693,
    0.05687648859071435,
    0.2814207634074937,
    -0.1077149642748961,
    -0.07163227213448847,
    -0.045217014031953384,
    0.296694152752199,
    -0.03181842632886043,
    0.05498107302366129,
    -0.20269308219174356,
    0.598034259037133,
    0.13150229461000312,
    -0.038244424742603735,
    0.12389210579980428,
    -0.10812862743172297,
    -0.08152492277194082,
    0.227144618683067,
    0.08695635879773521,
    0.21930389741547004,
    -0.09146555036880859,
    -0.10481276750279792,
    0.08562301979042623,
    0.1812967662623638,
    0.1047351373615583,
    -0.07417203113244425,
    -0.25667694965054383,
    -0.21763361764226952,
    0.09368337096861232,
    -0.1835220752869614,
    -0.03446347249971362,
    0.1415910704066732,
    0.79379256240357,
    -0.15121607717377644,
    -0.1322978992936553,
    -0.35368682344483815,
    0.38786951271132314,
    -0.014424864134604478,
    -0.1370472316710311,
    0.06789116342798045,
    0.13708365098032674,
    0.0030495255327464606,
    -0.03331777883937916,
    -0.1445386157305742,
    0.19590933355185916,
    -0.06969822591906259,
    -0.22297208994126275,
    0.15996250028478853,
    -0.2179247431315085,
    -0.044972014524714235,
    0.17688237838423096,
    -0.11974702047221945,
    -0.015222523632478708,
    0.11345517747038897,
    0.002228878186489266,
    -0.26113770381603546,
    -0.0030282156841576727,
    0.22401014021691815,
    0.08187831580215614,
    0.5853237292067607,
    0.3207221398290916,
    0.35062236602899194,
    0.16904544069160782,
    0.5046411645509445,
    -0.0885236334590564,
    0.029864199296252503,
    -0.37074016495653705,
    0.19917212655472355,
    0.05466690969532801,
    -0.08757162138081964,
    -0.17127975556184236,
    0.2806997531894113,
    0.11210488917995104,
    -0.06715691568444414,
    -0.13313298681462146,
    0.14632155541582686,
    0.06442918087824386,
    0.08726067923438267,
    -0.08011740492956507,
    0.48310917902837475,
    0.09294573127193999,
    -0.2250612501244277,
    -0.07150475244793672,
    -0.3133085236858151,
    0.06157945970556057,
    0.15808856182182066,
    0.18100476913744812,
    -0.23276241956077232,
    -0.46138092249703677,
    0.27001155912553726,
    -0.2459096072022663,
    0.17446553256407013,
    0.5546629278103423,
    0.21718194625829573,
    0.2212949868390476,
    0.11318256174198803,
    -0.07656646550086549,
    -0.09343622389104224,
    0.07836244221343715,
    0.19475189984913086,
    1.0157144549960542,
    -0.05727834175078635,
    0.21776289079255917,
    0.15008670367855806,
    0.04930260297638208,
    -0.18453825111664304,
    0.027516892902980344,
    0.1351530473184085,
    -0.03800939035532144,
    -0.18157038349053567,
    0.18136956570619261,
    -0.18045216271956904,
    0.19777805532750045,
    -0.291002827036166,
    0.07241144745456526,
    0.04141036135783474,
    0.2391324285440514,
    0.06780628568345821,
    0.33130283825667606,
    -0.0369869360458382,
    0.09437616983269935,
    0.0681808093680451,
    -0.017815805284297135,
    -0.17440594394637987,
    0.10392690652229364,
    -0.06073954465689378,
    -0.13445747316947357,
    0.08408125725191183,
    0.12771686636591886,
    0.2252334607365634,
    0.10857867819797973,
    0.36315909519120393,
    -0.17827762888439713,
    0.14052214636828456,
    -1.101883658735282,
    -0.02556234319285239,
    0.1412227788757993,
    -0.04887669476912132,
    -0.18158723450226597,
    0.08077250925509238,
    -0.27424718260803893,
    0.03569875168557047,
    -0.01976465927647395,
    0.14416912424304898,
    -0.46260744597477305,
    0.08777326827762717,
    -0.10471523362908391,
    -0.17390710810936538,
    0.0027669107424261527,
    -0.08136327747744986,
    -0.17843826225328566,
    -0.10232643298594608,
    0.044163052091087354,
    -0.4679755421314575,
    -0.06898262756755547,
    -0.16632339216085326,
    -0.0795187487552131,
    -0.043160765400312696,
    -0.22168318223375008,
    0.23722745960628064,
    -0.14809152757613692,
    -0.1268916502559108,
    0.22194952238313692,
    -0.014322237199041032,
    0.020750434122922146,
    0.3264405474460164,
    -0.07407167866674158,
    0.4358246075730177,
    -1.067861557842913,
    0.09798513719262339,
    0.023686257502175845,
    0.22930686976711945,
    0.14837293060229195,
    0.1884301848601145,
    0.2996933267488806,
    -0.11569272594816585,
    0.09772815902189567,
    0.19512507894134404,
    0.19257613093993253,
    0.012132339418663762,
    -0.18338290716207778,
    0.4126455981029138,
    0.21696036571219285,
    0.2878107600665643,
    0.1892854331294897,
    0.05099339850046807,
    -0.055816912349385725,
    -0.09199275772390575,
    -0.06950910296037155,
    0.13196219453735986,
    -0.22797042260325528,
    0.20919354846501179,
    0.06097776780321075,
    0.1106138118004032,
    0.12186367229956706,
    -0.05957783008186965,
    -0.03849469584459238,
    -0.22850899486245793,
    0.21917179091341665,
    -0.15297466683011754,
    -0.1373886347536429,
    0.1328920271532183,
    0.5477661165822209,
    0.025235334175862004,
    -0.22314872551341572,
    0.17016966319689517,
    0.03741380635213203,
    -0.15146710245991998,
    -0.16191846612640207,
    -0.17948841349924768,
    -0.04202190717712642,
    -0.08585262632205905,
    -0.1310822375853455,
    0.07014094026079803,
    0.00912076456481712,
    -0.16371723503926605,
    -0.11986374677018023,
    -0.21412407849588805,
    -0.1605464263754722,
    -0.07654385347282057,
    -0.09587345967864085,
    0.1957613586036953,
    0.11504351947792671,
    -0.1005172428973904,
    0.1464321915847551,
    0.12397702475684474,
    0.12385548969666572,
    -0.1883575663083421,
    -0.03227085939876079,
    -0.15898650018734292,
    0.015702791073283755,
    -0.11128901441698967,
    -0.12129569860532308,
    -0.15300134258011244,
    0.0030673106798790213,
    0.025008572658677612,
    0.01136743151446006,
    -0.05077890785392379,
    0.18691390361671706,
    -0.14764640385299618,
    0.2964306182910897,
    -0.1433954074018708,
    -0.24536238042802178,
    0.12253870341358673,
    -0.06250567301216811,
    -0.0010899852315464792,
    0.05157065698691541,
    0.1301947838756855,
    0.25111555332033964,
    -0.7479161013716934,
    0.3406260676065678,
    0.1885363194465511,
    0.058913214173824766,
    -0.2023199193375507,
    -0.22840871504726618,
    -0.11435651136460397,
    0.42413299956879846,
    0.31852465162407967,
    -0.04154451849733228,
    0.004947719362238272,
    -0.0007153318301816215,
    0.024163284537920753,
    -0.001945270286837714,
    0.5109179572221689,
    0.651916805488466,
    0.48705928718336605,
    0.044949795763320886,
    0.1382210291838556,
    -0.05106986080693844,
    0.48043164143202427,
    -1.1309630643712094,
    -0.5141472170896156,
    -0.017437076118274705,
    0.34856690959274994,
    -0.6100158241946148,
    -0.28266500085506835,
    -0.04931753836208767,
    0.05993982781844409,
    0.2050245968045809,
    -0.06868756280035362,
    0.188627353796297,
    -0.10258822487702957,
    0.05077814417335976,
    -0.41080801280922796,
    0.2113181115825794,
    0.11277289393535712,
    0.11864219811988484,
    -0.3510221848615911,
    0.06339549504517997,
    -0.07282929509394714,
    -0.2408265987843893,
    -0.06801482665060597,
    0.19267605145941688,
    -0.1675736127966685,
    0.2652304026860331,
    -0.13247599340083743,
    -0.33504510170326296,
    0.07183252217389643,
    0.20379566465905133,
    -0.04868487255321333,
    0.13705094862731013,
    0.32825814630856553,
    -0.12092350924390315,
    0.17230765395075798,
    -1.1076853240496103,
    0.04448681963399779,
    0.221297039518923,
    -0.08601119525293688,
    0.25208123315330505,
    -0.0807297186612867,
    -0.036992200237803,
    0.12791080563207763,
    0.119392522574602,
    -0.048462292429053797,
    0.28790973129981584,
    -0.10111893169523337,
    0.28178352638001775,
    -0.5977551765782648,
    0.24016656130923691,
    -0.07845227532614185,
    0.16913121895470248,
    -0.055960528313529094,
    0.4158231401696327,
    -0.1575918181232573,
    0.13177116032210898,
    0.15314047501914171,
    -0.15686916297330197,
    0.16724460438436367,
    0.22134087432100816,
    -0.11035824626451554,
    -0.2664709365830423,
    0.35754842178308416,
    0.3881225232203881,
    0.16034673504427085,
    0.10981217356288135,
    0.23380577265206895,
    -0.05627887917649799,
    0.08212575563012056,
    -1.236509440101802,
    -0.03359958092641117,
    0.09186786972955399,
    -0.16422922000584184,
    -0.031670062885237146,
    -0.1759573560724039,
    0.0838687074570798,
    -0.08937244628901833,
    -0.2297435101100065,
    -0.001888739468216867,
    0.0601740250476664,
    -0.00022677128133203844,
    -0.1289699051070569,
    -0.09894323000218452,
    -0.09423173206408961,
    -0.014585943236529892,
    -0.1206806849530443,
    0.06148004580723949,
    -0.0430092972874954,
    0.1402662883177629,
    0.027478869533553624,
    0.0212847508421536,
    -0.036667730711818954,
    0.01115375186883466,
    -0.07082669793970602,
    0.056814110801660204,
    -0.012607866968642446,
    -0.1512781542194191,
    0.017578351027659617,
    -0.12044165533765923,
    -0.20475580220131034,
    0.07911203896880296,
    0.15039043082549203,
    -0.17767009245748788,
    0.19116664452610171,
    0.33940551690843007,
    0.10083014851594221,
    0.14368302274876069,
    -0.17754619566845867,
    -0.1384192466235565,
    0.20208877161485234,
    0.022942754070897135,
    0.3242610730551551,
    -0.022194489981890678,
    0.22703451950125894,
    -0.2032846769240176,
    0.19445013572426423,
    -0.06255920849588573,
    0.04737183827270554,
    0.21560623951083466,
    0.027311351782332814,
    -0.038101337107264724,
    0.21642573378751404,
    0.07391974674873979,
    0.16901858477426224,
    0.16896097799114781,
    0.3669232701224576,
    -0.02581595299116111,
    0.39118191333086366,
    -0.10732702400796258,
    -0.007303610269955815,
    -0.007867266055041705,
    0.17264144282314076,
    0.3927510746814638,
    0.26225658959545844,
    0.20486677881694762,
    -0.006606974637598064,
    0.22973809877214701,
    -0.5842117404952779,
    -0.06067953354498831,
    0.0637548222306768,
    0.04721492595280418,
    0.2830477847479358,
    -0.3244947753071559,
    0.057365002772447084,
    0.0896306375031646,
    0.3042645186065038,
    -0.04630665341283652,
    0.3091406487820289,
    -0.03814468518623673,
    0.08709578035051371,
    -0.5437642221812125,
    0.2967865919489654,
    0.19151922089587328,
    0.2612231300656347,
    0.13381394570356506,
    0.009339420598915439,
    0.04131982207683345,
    0.2598947935889499,
    -0.1470235179428758,
    -0.09279610114930477,
    0.022187121324385675,
    0.15131392326645418,
    -0.12069488475704156,
    -0.31560709717177543,
    0.17672096878873675,
    0.3854794503683645,
    0.2625866391641871,
    0.3712657516940858,
    0.025676046284067833,
    -0.2176445901176945,
    0.2023912436546318,
    -0.8606124499732973,
    -0.024220956970830123,
    0.1246197614164291,
    -0.17637385164244032,
    0.3774019735532789,
    0.4456630953803202,
    0.1013937570474902,
    -0.29071130198509226,
    -0.08976637122303353,
    0.3785148321555893,
    0.06286936714135226,
    0.06819499426773595,
    -0.2698712058405899,
    0.3818628542999362,
    0.061579831452173724,
    0.08076173960203138,
    0.2400723917830382,
    0.3123001621313851,
    -0.22888924395041507,
    0.3107512312547987,
    0.06770141945459379,
    -0.05765339558165275,
    0.02026928594968429,
    -0.15117886259223698,
    0.14934084083837595,
    0.2329405802146204,
    -0.09375844432600874,
    -0.2816306845954792,
    -0.24939063254558497,
    -0.36842384142626433,
    0.05808657654836474,
    0.07058802485003784,
    0.024889275020516768,
    0.04817702732937029,
    0.49476556478681794,
    0.42351210569570136,
    0.06841826043539068,
    -0.06074621868625387,
    0.0605842610748544,
    0.15612134790097548,
    -0.07217725655231105,
    -0.05824906278728455,
    -0.20889849181835657,
    0.14145703802494697,
    -0.08731746145356707,
    0.13437080996382555,
    -0.14771907866744574,
    0.7660808475470566,
    0.16080826111629237,
    0.019863926325384838,
    0.19264028866795976,
    0.07066201346816434,
    0.11279611530743616,
    0.007622868611109544,
    0.08734659036514113,
    -0.020241132665349007,
    0.06481116645036407,
    0.03502852539060282,
    -0.011664245669333115,
    0.11110879266486653,
    0.3925751594927753,
    -0.10243816514592823,
    -0.12435430589230179,
    -0.024987215957636748,
    -0.03664563525828111,
    -0.32471694023580894,
    0.15092177038200455,
    0.08193449367061119,
    0.9965592226970132,
    -0.1353913475466968,
    0.08380105562048831,
    0.13286432331731632,
    -0.07905858952983984,
    0.12752351579731436,
    0.041898275204079884,
    0.025640413932485298,
    -0.17354664860860564,
    0.10125492881880281,
    -0.25061280815877446,
    0.2997454056799239,
    -0.16104023462262448,
    0.5039560256020019,
    0.10468157721337826,
    -0.0007068087494929334,
    0.14488138232944364,
    0.2545112678636764,
    0.06379521339672796,
    0.03467589721100072,
    0.07774457076052797,
    -0.05448599971293573,
    0.12068880568457076,
    0.012280947715539753,
    -0.05188284612167702,
    0.03233284298594533,
    0.12093384978243188,
    0.03437075497988311,
    -0.2347731386529234,
    -0.1330783244037824,
    0.05776980709732881,
    -0.1420382224511739,
    -0.0008601897597458886,
    0.25863363865219535,
    0.6542501747514318,
    -0.3795307099428383,
    0.331409948496694,
    -0.002435900365476587,
    0.32307843468302055,
    0.3558947066604873,
    -0.17005066115696624,
    0.02799610830437987,
    -0.1926608491913365,
    0.07949579035036863,
    0.08801394441297695,
    0.16205052109624174,
    -0.32774943387511035,
    0.5597296766885552,
    0.32873398516402313,
    -0.18786394309578872,
    0.010822067523994307,
    -0.027752973889973876,
    -0.22910400344236612,
    0.00293395015888794,
    0.3698827023558315,
    -0.2989578689335604,
    -0.16256887605471654,
    -0.12551473175930192,
    0.12830816263380312,
    0.2827627834870867,
    -0.3486652322454531,
    -0.5493301332160143,
    -0.12589512865616395,
    -0.09360441461838571,
    0.13416930526007914,
    0.04528895442364113,
    0.0657524207320303,
    0.07323840758056772,
    0.8230504656533738,
    0.36572025371263545,
    -0.1473165342135503,
    0.11011671889520648,
    0.08895655426872649,
    0.2002300716815568,
    -0.14807283723531509,
    0.11075851464398177,
    -0.14742838085688975,
    0.2316057800380226,
    -0.2410756029975602,
    -0.03361587945171484,
    -0.37266738022321505,
    0.29169998020186905,
    -0.18648514747017947,
    0.1631316676489438,
    0.1484828809041739,
    -0.10874847539996202,
    0.08044933074830479,
    0.062398574874205116,
    0.06433608220693625,
    0.19200553427781683,
    0.05399814363805294,
    -0.09063015591953022,
    0.17639516855672815,
    0.38158418199081817,
    -0.029489113787144486,
    -0.07105391523890146,
    -0.18373929236326103,
    -0.039780043571029745,
    -0.043489110902982554,
    -0.18616822535500632,
    0.1934118851593942,
    -0.045697455180333205,
    0.4410351478746634,
    -0.029548761268553096,
    0.17785145157993898,
    -0.44519463176488017,
    0.058092720691503424,
    0.07395910065647547,
    0.1832116350153551,
    0.1741318452663281,
    0.06532674427098857,
    0.10856072885402931,
    0.06101844754385132,
    0.003233162673041802,
    -0.1220329394736969,
    -0.25691258109162873,
    -0.12117354741422427,
    -0.3280903438588484,
    0.20360888090602894,
    0.20097672763613939,
    -0.14433129611457463,
    -0.2727120504490454,
    0.42965074966138106,
    -0.45994308516687205,
    0.06485171280020076,
    -0.08318564330502573,
    0.1648871440818215,
    -0.18553774136293869,
    -0.11633664431387035,
    0.3677276633463189,
    0.2610819985239584,
    0.4034943643052923,
    0.23005826554069325,
    0.00486498811665814,
    -0.06166174148113992,
    0.16180074858725418,
    -1.0710860569184504,
    0.1529589282274257,
    0.1456438163533002,
    -0.26653762562470784,
    0.0787031081103742,
    -0.06788151404122535,
    0.05350737358945334,
    0.10298138825247519,
    0.03501844147998829,
    -0.11997167156285529,
    0.09101025737712755,
    -0.005726685381691808,
    -0.07675907782181525,
    -0.013253632573978887,
    -0.20986103187549793,
    0.23981256999083922,
    -0.05132795221686535,
    -0.1849607184812223,
    -0.02461564113310656,
    -0.1872640303686271,
    0.251504473027954,
    -0.09844745748649805,
    0.016070818556277365,
    -0.07227762355424945,
    0.48958587090317823,
    -0.05846609293257879,
    -0.014823015062863942,
    0.1389133884674184,
    0.06149805135799269,
    0.22499150986821315,
    0.11674881204125452,
    0.47213686506489977,
    -0.011512960786136547,
    0.1965389909541292,
    -0.8881792168600716,
    -0.02032827863442777,
    0.1810345224291188,
    -0.49082247154657094,
    0.6523624351088654,
    0.13807910590934658,
    0.050270767842559544,
    -0.08533799403281307,
    0.21474542225226312,
    -0.13784898795655054,
    -0.21534576002339298,
    0.09890012689571547,
    -0.06675041763630593,
    0.20889141625678523,
    0.13763468096162657,
    0.09255309492519055,
    0.05536723950416735,
    0.02109765129859734,
    -0.18645841997582902,
    -0.22484749977853644,
    -0.22541340521286615,
    -0.21891760712952651,
    -0.021251415484520437,
    -0.14047880514495723,
    -0.12383155017524777,
    0.2733417991060694,
    -0.5731942792059033,
    -0.6959534405604924,
    -0.35663735305059036,
    -0.240240322516605,
    -0.006928719656694765,
    -0.13517282649041887,
    0.08913788980092895,
    0.14269861821241606,
    1.0044473113645382,
    -0.24058912694823606,
    -0.10592647738204397,
    -0.12923601708171864,
    -0.09447391733672546,
    -0.08360752867861447,
    -0.14253767341100568,
    -0.14115357582612545,
    0.05017206053095081,
    0.08563984413184501,
    -0.10227611239176623,
    -0.09286087525645956,
    0.15310349105804985,
    -0.06891130026727987,
    -0.045642047846826225,
    -0.0162676270848532,
    0.042746440739933014,
    -0.18533204792657906,
    0.05555388527338798,
    -0.24203576350588676,
    0.09219795136268037,
    -0.18471625436243386,
    0.009509348268487892,
    -0.08120570856867564,
    -0.22477424402802737,
    -0.20308129585079213,
    0.08186931796357362,
    -0.07390353579541664,
    0.022701767888192354,
    -0.1401373421015469,
    -0.2284502292593234,
    0.021933451349802166,
    0.005562352489013524,
    -0.19547748754500466,
    0.20833301783766506,
    0.22840410024953395,
    0.043265682237242475,
    0.19680630694803447,
    -0.3537743320232249,
    0.33559852902360726,
    -0.2085692760479595,
    -0.004865844822746727,
    0.042039956427790605,
    0.09467140495894695,
    0.11340299973582225,
    0.013760826345066039,
    -0.09742197358939908,
    0.4873197984216129,
    0.020897099516016485,
    -0.16401179773356475,
    0.19809612686456773,
    -0.3375089970375627,
    0.11957774163953168,
    0.07306659260340773,
    0.18432623388716485,
    -0.10725012840152526,
    0.07039877604471642,
    -0.07579328892881738,
    -0.16223353455099213,
    0.05043759571720806,
    0.41757080160041926,
    0.20594002216411877,
    0.2219383581039646,
    0.2651751650692754,
    -0.14970963633588208,
    -0.14248431299193456,
    0.08963677295057969,
    0.18531714005565833,
    0.8460953494913928,
    0.14487526309229218,
    -0.1465252899345953,
    -0.31612689874436756,
    0.4222622936783192,
    -0.017343267363555792,
    -0.020382873764560598,
    -0.10169902370444331,
    0.06495832447098533,
    -0.3917328305716798,
    -0.24591340657754093,
    0.1199014842879596,
    -0.16029062987924603,
    -0.2862878957655564,
    -0.1904628837072222,
    0.29904501507026754,
    0.023297500909240154,
    0.17871827075605495,
    -0.11416246268506504,
    -0.07267306986234229,
    0.07694647662363681,
    0.0334477589491536,
    -0.07596477000790414,
    0.006139321021212514,
    -0.1350800197200106,
    0.20833994604682363,
    -0.5305727696276998,
    -0.6297724533898614,
    -0.31740089935969296,
    -0.29533873009641115,
    0.0494142807129525,
    -0.15424771609249377,
    0.02979610569201764,
    -0.1763941007214165,
    0.07343965552394713,
    -0.1418379279075295,
    0.10294679191323156,
    0.19408993267565874,
    0.22484960080192473,
    -0.034231161530069915,
    0.0717907180445322,
    -0.10127900899868388,
    0.26969998073533685,
    -0.07214321167950788,
    0.06121569934698788,
    -0.12567232458526137,
    0.15871288286887528,
    0.012847112124341753,
    0.13524444904097352,
    0.051655408459210225,
    -0.13484555448466004,
    0.14437256771274773,
    -0.11041529484493139,
    0.12049748661574487,
    -0.20139136258639795,
    0.1447831513983135,
    0.0017321241114739065,
    -0.25548649740738544,
    0.15506682649024311,
    -0.017793647699334968,
    0.1439787424879381,
    0.04247620562139259,
    -0.021736576247261868,
    -0.08658561362758173,
    0.011044583459859368,
    0.022161253111299958,
    -0.034390822500833765,
    -0.15417192654842704,
    0.15557981254503178,
    -0.0428707959472236,
    0.015138981018252418,
    -0.2781919219017727,
    0.5002754550954925,
    -0.011248420061013292,
    -0.14072171233980038,
    -0.002211504052181177,
    0.1552340705748839,
    0.12755338795724208,
    -0.2961961999565809,
    0.22203517630715736,
    -0.0723700644991297,
    -0.1543804996225836,
    0.1724426158589127,
    0.13233184413632176,
    0.0035097996059950433,
    0.3019722601170096,
    -0.13153173514042293,
    0.012377803997164056,
    -0.17658845930415526,
    0.3646697190350666,
    0.22313946484410513,
    0.08618471628703928,
    -0.17509217242520012,
    0.21120983647045774,
    -0.5808652040031773,
    -0.9438796588224585,
    -0.5630956840922539,
    -0.37449205470381797,
    0.0407496305484507,
    -0.204631326890639,
    -0.06836625210050873,
    0.05823903178014141,
    0.5814203003555634,
    0.39432716233084014,
    -0.08572559866801245,
    -0.02003310341076748,
    0.08814616180893342,
    -0.06427979627838416,
    -0.06946818642665305,
    0.0907857989954144,
    -0.18543470657969371,
    -0.01887241464617547,
    -0.16673282033655348,
    -0.20682612812466622,
    -0.08030334158127611,
    -0.39462762357624087,
    -0.04685761081562824,
    -0.06499462354126352,
    -0.16902300460556266,
    -0.25342554746501145,
    -0.07734951876002905,
    0.022515347062250318,
    0.022027697298696903,
    -0.17639888390232183,
    0.013932249296582409,
    -0.03594459764705651,
    -0.13998868069402942,
    -0.016978597894877958,
    -0.0035651915916948946,
    0.18084253140435208,
    0.14697595722367127,
    0.13395525903111705,
    0.13134146289379356,
    -0.04850432279775452,
    0.05612748756375652,
    -0.14535636764646043,
    0.04129119286215869,
    0.20123334520593653,
    -0.12883970126048333,
    -0.3245023948900709,
    0.5777091681989085,
    0.1827066480637641,
    -0.053530207210637996,
    -0.14990937354929224,
    -0.04815663051731938,
    -0.1501114337084499,
    -0.2354491296879727,
    -0.2144264833761176,
    -0.09670852707023561,
    -0.4954760025557142,
    0.12693941667763461,
    -0.04783739472899905,
    -0.10873154310565107,
    0.0791924764478499,
    -0.20065148860223309,
    -0.03971215830407666,
    -0.12206314088861776,
    0.0038909712187629644,
    0.1367232858955496,
    -0.15469588746579765,
    -0.06761288140548216,
    0.16462974426265742,
    -0.551922100352548,
    -0.5768590138987953,
    -0.55915703082344,
    -0.6806965995777302,
    0.05386812290576449,
    -0.016318061934892762,
    -0.07613957515281297,
    -0.10890488588444691,
    0.19362596440929267,
    0.09341668534791286,
    0.2468398712967677,
    -0.5272195878718986,
    0.35529863663807804,
    -0.09818305342514784,
    0.07519221580936639,
    0.29143703809651145,
    -0.1700018086207211,
    -0.05840345116902533,
    -0.1511702947719384,
    -0.008304304954838661,
    -0.06261588647475429,
    -0.2577238335574131,
    -0.031952081488194735,
    -0.2907916241954185,
    0.17379945054709045,
    -0.052567520724839535,
    -0.21258795562455501,
    -0.4087533043307673,
    -0.029841296679623163,
    -0.17498019760809044,
    -0.0034857270278421722,
    0.06321962292371802,
    0.02294067643304092,
    -0.35556226565067683,
    -0.14872638453345333,
    0.5231597706082742,
    0.7967357494354813,
    0.6057533392759494,
    0.017676790585945727,
    -0.03141976069755042,
    0.13123681480602897,
    0.30583227701704485,
    -1.196267179760039,
    -0.1189466303130916,
    0.021104634045504667,
    -0.07141080094893693,
    -0.15455259171963173,
    0.04756517044348697,
    -0.11352623583574202,
    -0.1267509412923955,
    0.06820784679057784,
    0.085954272597507,
    0.13782889257509495,
    -0.12784417379543603,
    -0.185933402542758,
    0.011453833516074806,
    -0.1895102809484247,
    -0.03317140171110709,
    -0.23575841958332067,
    -0.14747269423347245,
    0.03858192977995708,
    -0.0005478007773345178,
    -0.05962020425800621,
    0.10053742906842558,
    -0.1144306817017757,
    0.09998760190353138,
    -0.17677030311492126,
    0.03766396790780253,
    -0.09684835688212012,
    -0.1260386496611401,
    0.03194339323428742,
    -0.2123126728322659,
    0.053675742206183624,
    -0.1327725190258606,
    0.10261300008830307,
    0.05739473248045084,
    0.01609341056729813,
    0.030592720302875465,
    -0.18178923090221671,
    0.2840279298916781,
    0.13238228179102232,
    -0.13036135620082862,
    -0.01449292819446257,
    0.19505787159659965,
    0.13073723505394622,
    -0.11189727274632437,
    -0.04814058287372768,
    -0.18252799699869468,
    0.19387334564336484,
    -0.36376776421621826,
    -0.010069671588659873,
    0.0317210155991446,
    0.09983428808927874,
    -0.10151571349571355,
    0.14023097731152442,
    0.09486182553926513,
    -0.08499731256183131,
    0.19474739530321225,
    0.23114868790797038,
    -0.10859637839381067,
    -0.12624722985811362,
    -0.09404435010932734,
    -0.21041813647945048,
    0.20271677759340492,
    0.19328180229930247,
    -0.150130405986703,
    0.23799930211764017,
    0.043784749891966276,
    -0.12935103968548223,
    0.02633518997597319,
    -0.6007904393220213,
    0.4375431869089559,
    0.07103924152725019,
    -0.45837966297678123,
    0.3561299118290617,
    0.38756432907317095,
    0.039656190915775366,
    -0.09234535646136542,
    -0.17159989099363115,
    -0.03383853832484091,
    -0.18251502168434477,
    0.10562729361556208,
    -0.08351436289750555,
    0.4768976242937896,
    0.23920076269150115,
    -0.19747665564037012,
    0.22547273239935897,
    0.15739959244716298,
    -0.25742841166837477,
    -0.2404312778394108,
    0.004852812035706231,
    -0.44905951261893934,
    -0.20827408407961798,
    -0.2094107034918023,
    -0.17898198758940914,
    0.06250941318872318,
    -0.29544306106940527,
    -0.4640714433637505,
    -0.21440160693083485,
    0.10197514640375686,
    0.1374331848004335,
    0.16310296982051695,
    -0.03641797431953795,
    -0.06594037477145503,
    1.1188015563811273,
    -0.19564320017692785,
    0.23030659699063719,
    0.3200635802624064,
    -0.28293981607645335,
    -0.045579583044607394,
    -0.10090942038226597,
    -0.016345895350680657,
    -0.18211995811423926,
    0.053144069102045347,
    0.07402286214580672,
    0.21022053170255828,
    -0.12782386483697167,
    0.7417258002100211,
    0.0016246414377741245,
    -0.17106754921798484,
    0.011663955148289544,
    -0.3836026080988382,
    0.17637734235491345,
    -0.024379945258942753,
    -0.012270840510349868,
    -0.012374778881722842,
    0.04411776773393331,
    0.10300824723571086,
    -0.31033395473275,
    0.038169226852459395,
    0.6706040315906309,
    0.24240626039962523,
    0.2670408256335229,
    0.14095267163844816,
    -0.45615123676198044,
    -0.28370692199910635,
    -0.001434670617561593,
    -0.029468601111459294,
    0.8981902648584158,
    -0.09123769313069204,
    0.26900503228012607,
    -0.12704290737078194,
    0.29419501026632033,
    0.10795189023653272,
    -0.25245650334830977,
    0.13508494348829045,
    -0.03652402187790735,
    0.11435787723152703,
    -0.5106648549174085,
    0.12131292660166325,
    0.028458526566659707,
    -0.23671157150687258,
    -0.12971509742498394,
    -0.07161577177405253,
    0.048447010745984204,
    0.13557811428166594,
    -0.17795266850273378,
    -0.22058581266710198,
    -0.1096551903031532,
    -0.09940331005866103,
    0.05045658283873341,
    -0.10484733889758806,
    -0.21430719124455733,
    -0.011247582473465322,
    0.03766045590107429,
    0.26169092620299966,
    0.14603072814688456,
    0.23182060428519727,
    0.027817920264019323,
    0.10633217261631732,
    0.14464815951386273,
    0.4364347509850809,
    -0.7885357398906849,
    -0.20193855168849947,
    0.12240793026120357,
    -0.3049724109328381,
    0.07558075901253074,
    0.1715510676401577,
    -0.27136615183925133,
    0.2776767016400973,
    -0.034492335516765615,
    0.010322517969063682,
    -0.014106850621121837,
    0.04979123061116343,
    -0.1299622421483177,
    -0.15604719829609476,
    -0.16900493288173868,
    -0.029191202203033912,
    -0.18404341201242677,
    -0.21048617383433627,
    -0.07190851958459976,
    -0.3565326423452688,
    0.12736874391862818,
    -0.14923952079514863,
    0.12403693136957332,
    0.15935963789737276,
    -0.19854974435162193,
    -0.1377197124214572,
    -0.08092833535253094,
    0.12101344002723136,
    0.20899291961284056,
    0.011722222241436674,
    -0.005609199957150018,
    0.21578366624653655,
    -0.12098029788709136,
    0.3503837978529769,
    -0.8361484655351115,
    0.08690418887390092,
    0.23975459151465436,
    -0.08407599761965666,
    -0.2761099075022999,
    -0.14515249519643525,
    0.29760501535443185,
    0.15379605044207476,
    -0.15085873527321705,
    -0.1181073472968598,
    0.12834836662786725,
    -0.06770403271898652,
    -0.17386762353251126,
    -0.2313243832527466,
    -0.03286980686613774,
    -0.04456984586259245,
    -0.10122636950136447,
    -0.22569553279463034,
    0.32560484121883615,
    -0.09400580540245534,
    -0.007940693593430035,
    0.049257587616636477,
    -0.0014087514585400078,
    0.20420089258468666,
    0.0926956175632662,
    -0.4315849314957369,
    -0.21793005131013382,
    -0.11959199572050182,
    0.14878800638140358,
    0.15302027629100645,
    -0.12725030045593225,
    0.17398290668150315,
    0.014197134378360766,
    0.17115519289094983,
    -1.1002561729858538,
    0.09302573108806488,
    0.18646147676957292,
    0.2229196841623419,
    -0.20904885197085088,
    0.1921062183185158,
    0.07227049764396062,
    -0.06260917406364279,
    -0.07121395978253467,
    0.12326500650861345,
    -0.0024722270615598323,
    0.3185175210040138,
    -0.09144289902194543,
    0.6473931011486835,
    0.03463389454418326,
    -0.15737728517152846,
    0.08630431697912276,
    0.00989533273201559,
    0.053460301701041366,
    0.09611472719772952,
    -0.052433985302830596,
    0.10087174961675784,
    -0.10317498828147668,
    0.021278215967265243,
    -0.072679209925737,
    0.5483956684174895,
    0.39604567710826,
    0.20912563977469972,
    0.01876314577755246,
    -0.11708431019228538,
    -0.15871435273182685,
    -0.0672141129498336,
    0.0953365168788546,
    0.18362040608636634,
    0.8172134112162863,
    0.05814201690375342,
    -0.22591143716114145,
    -0.5962344148694909,
    0.2993795070187323,
    0.16083692605818578,
    -0.04438295658086321,
    -0.364330231981793,
    0.18236778723098632,
    -0.1584380173900581,
    -0.38041403644483196,
    -0.09634434223249444,
    -0.4770458240083322,
    -0.8523963329626054,
    0.08643486767414428,
    0.07913441024110153,
    0.13430420750734604,
    0.32691697224269817,
    -0.3468425138662233,
    -0.3759533998818659,
    -0.2504707167713676,
    -0.43322485370313996,
    -0.03139947416918177,
    0.27985349097942347,
    0.0014828336900688226,
    0.17519531245470554,
    -0.8187240657610051,
    -0.389364911145255,
    -0.3722665047903859,
    -0.5636773301955683,
    0.30063775947554594,
    -0.22226699603146327,
    -0.15171717870232115,
    -0.32971509041188274,
    0.29888601429087147,
    -0.11660564323228352,
    0.08656195076639622,
    0.10923876645119561,
    0.16512603006077003,
    -0.18999974302109512,
    0.017204155942891278,
    0.09935816789492048,
    0.17681477221326683,
    -0.12118677991042535,
    0.11764902816768742,
    -0.10601043211099964,
    0.19724444549432074,
    -0.4760345848562049,
    0.13015418030417633,
    -0.04798691020460166,
    0.21091382110273937,
    0.10580774121341281,
    0.14362184166684952,
    -0.07077697037984798,
    -0.163961230017447,
    -0.10623228002111243,
    0.21028532942170863,
    0.17833304242921555,
    0.14449405692128292,
    -0.20790503549537936,
    -0.3099419378923334,
    0.30304987270467726,
    0.2723617895567167,
    0.2818182503652961,
    0.20272916395385346,
    0.39714815506147755,
    0.05750047798808936,
    0.18595413517492831,
    -1.1085203703145732,
    0.08614657074073784,
    -0.010919878065968208,
    0.17309775893481533,
    -0.027793251921511015,
    -0.16934422121492446,
    0.27108729006227616,
    0.03471937665907038,
    0.31531804521647244,
    -0.24125266707130275,
    0.08982725973912255,
    -0.10458760614055793,
    0.2779119933643598,
    -0.19397964323002773,
    0.07974396555027138,
    0.3627896986078482,
    0.21155508432620485,
    0.03484551387219866,
    0.034046756187989816,
    0.05096516134216445,
    0.05379851803871202,
    0.044339386650596474,
    0.1691518094828025,
    0.05769524933899837,
    0.37865048620665476,
    0.041706206389469265,
    -0.18965053939781218,
    0.1263741600520302,
    0.10126477475251461,
    0.2446555671865967,
    0.17576980699490985,
    0.4540834532689953,
    -0.04138370850240696,
    0.11412330449693645,
    -0.7825489978286375,
    0.04224220396286186,
    0.23706670948791417,
    -0.13629929568535323,
    -0.2631148877829128,
    -0.09125016215976156,
    0.07796176132083878,
    0.1399718620324926,
    -0.06639614829294396,
    -0.07040159849102498,
    -0.010845171580981772,
    0.1759103527601511,
    -0.09480342449377656,
    -0.45631172267230774,
    0.2405507699551564,
    -0.2546421327396358,
    0.14169912869686033,
    -0.4697892702466593,
    -0.19385904092102327,
    -0.12790858325536902,
    0.25183780375795983,
    0.41699491113537124,
    0.16543195141095654,
    -0.1250918404352162,
    0.19880464118423072,
    -0.07037931953997405,
    -0.3011718687690758,
    -0.20174325320246736,
    0.35352432121647714,
    0.22395828869496281,
    0.001938034083492472,
    -0.1737014479830333,
    -0.05933136629103781,
    0.33037884716680604,
    -0.9880662176374225,
    -0.08953540970948665,
    -0.022787877613188557,
    0.04668774817216592,
    -0.10860348314022994,
    -0.07258782075440673,
    0.05305345389647654,
    0.07890664133398283,
    -0.15335297445439416,
    -0.09295458906869634,
    0.12580396503558763,
    0.07543026982637734,
    -0.02224310001471061,
    -0.02083757197596696,
    -0.03921498662349461,
    0.18997000228094166,
    0.04805424713710333,
    -0.05484536256872197,
    0.2846744901202264,
    -0.2660232156179726,
    0.03214367793105252,
    -0.002935040923586667,
    -0.04345529166812809,
    -0.11434039519293951,
    -0.06543073205372842,
    0.16718359070023037,
    0.2549555532680813,
    0.19317418231915584,
    -0.1398948294819751,
    0.03959334838769194,
    -0.10382373921648094,
    -0.1619783563068112,
    0.07817589409462601,
    -0.11220574809833264,
    0.045176290878062415
  ],
  "w2" : [
    -0.44749666179587627,
    -0.011100506718872217,
    0.6068251173012277,
    -0.6096960011825204,
    0.46247806926079976,
    -0.44067484585177125,
    -0.3271740150100392,
    0.5584540903858085,
    -0.3717895942546489,
    0.29883546215553886,
    0.210968880283474,
    -0.08235703010718502,
    0.019742872066974063,
    0.8048018623767046,
    0.490756437680236,
    0.6179602417133737,
    -0.07378892419176039,
    0.16413069369292393,
    0.601093549142324,
    -0.4097463269116642,
    -0.4412903105092664,
    -0.22234379333502974,
    -0.47695206942755686,
    -0.147214199963,
    0.48603197847708196,
    0.32158053749981136,
    -0.7222370684366256,
    -0.0676158917388203,
    -0.40297224528621384,
    -0.4091331806069931,
    0.08187836516712912,
    -0.43375531308414234,
    0.12991180635862717,
    -0.5591301432404631,
    0.7297169990395069,
    0.0019722969493033418,
    0.12221896969548662,
    -0.5683939458122804,
    -0.7379858026481302,
    0.23007694864153425,
    0.2702357724486544,
    0.38631723958439884,
    -0.4894083090216246,
    -0.539187254991424,
    0.3086192087157918,
    0.335785403052351,
    0.6269051152823807,
    -0.05229846962121216
  ]
}