{
  "b1" : [
    0.008350341307463474,
    -0.14433432138436345,
    0.10822717967763196,
    0.027946868596980274,
    -0.042467851983870424,
    0.1808724149622693,
    0.24246993805261105,
    -0.1918785802928209,
    -0.056866228130677744,
    0.1291303552076446,
    -0.055694241277596375,
    0.04225697152252317,
    0.10176598473087095,
    0.10352393853730012,
    0.10247412957502575,
    0.2562572911611957,
    -0.13591718187789356,
    -0.019855648703941978,
    0.16509202375407825,
    0.1305624985666599,
    0.2478506951274207,
    0.12090915130662314,
    0.07791028368268614,
    0.17693495412008617,
    0.11472291499661913,
    0.22101839935913725,
    -0.05358843409963385,
    0.0722898428696101,
    0.01009858543057422,
    0.1389769339081418,
    0.12552526429063432,
    0.053785419269676615,
    0.008205601267268993,
    0.17923042068984488,
    0.1634596401386148,
    -0.038126310585756655,
    0.0692256456952676,
    0.14891649896825332,
    -0.0845082207571045,
    -0.17481057331129854,
    0.11927258139291107,
    0.06159395739549668,
    0.2496080969078668,
    0.026566991284526872,
    0.1450047379688757,
    0.24728187845343247,
    0.12649044975960644,
    -0.1308233796343487
  ],
  "b2" : 0.02688317563456618,
  "feature_version" : 1,
  "hidden_size" : 48,
  "input_size" : 34,
  "version" : 1,
  "w1" : [
    0.24560154651633206,
    0.12147389782704236,
    0.21205810069467831,
    -0.4541777291012669,
    0.2493110907427991,
    -0.1417855852294344,
    -0.021040283766863333,
    -0.2331571052425737,
    0.3175385242749208,
    -0.09982867259842464,
    0.4103380946099083,
    -0.12545681257854152,
    0.6520900379429061,
    -0.22448942849029074,
    -0.36512571503821506,
    -0.018806660163713004,
    -0.26742931266028885,
    0.04137432660481079,
    -0.06856405156559837,
    -0.0460194008656491,
    -0.010411692522177617,
    0.012199649229567042,
    0.03723415294475464,
    -0.34066229563759826,
    0.11729498414645177,
    0.37768426972863445,
    0.02044877461485348,
    0.09116284522192308,
    0.2090257045855725,
    -0.13336548652004024,
    -0.45957599532603527,
    0.15629055450537455,
    -0.029964605986416187,
    1.1613546972374929,
    0.0758278489027971,
    -0.17599710986634493,
    -0.003846916818502621,
    -0.09109363878707656,
    0.055440002810721145,
    -0.08352436745454392,
    -0.30121028165115393,
    0.1578794403512945,
    0.046614230005460694,
    -0.18148930068320093,
    -0.1708115678906174,
    -0.12451832876295905,
    0.016147346199967116,
    -0.0758839438567443,
    -0.22359147765208215,
    0.07293165351942854,
    -0.2571764546317976,
    0.18811878976857194,
    0.1975322396856035,
    -0.2217829544869863,
    -0.15298507594298685,
    0.2031583058805591,
    -0.2249973392103168,
    -0.0026085035448953084,
    0.037388389912787555,
    0.14203640392621666,
    -0.07439538623521338,
    -0.0646015756213284,
    -0.029039591136710625,
    0.006822304361282593,
    0.12665873095649455,
    0.0033763931146673217,
    -0.021379288294382116,
    -0.0673844614605859,
    -0.07143599021810425,
    0.20369640855186164,
    0.01775095874254666,
    -0.03767937428736957,
    -0.3143061353904937,
    0.1513764338023903,
    0.14828940820898448,
    0.07364405752308915,
    -0.2626165816227193,
    0.2777592400283849,
    -0.18530498028410103,
    0.1650739613739388,
    -0.5571624976572812,
    0.2873021221225592,
    0.015372074092303182,
    0.27252444416189564,
    0.21470314865896317,
    0.29828817169468025,
    0.22898053776764607,
    0.19294159175071066,
    -0.10442073712002337,
    -0.156768348126414,
    0.11852241163526869,
    0.08905721822284686,
    -0.1334479750658368,
    -0.269092464313075,
    0.08308910811537935,
    0.39726629656197227,
    0.3457053353513841,
    0.41199634558408693,
    0.024957986767086902,
    -0.01903825325821635,
    0.319592594784021,
    -1.2803258117269614,
    -0.26271555945398933,
    0.2785222084590017,
    0.2613013679044621,
    -0.4053189467743612,
    0.02945471672231166,
    -0.10325045091984267,
    0.2299436665438056,
    -0.23841660768132403,
    0.24728763277629118,
    -0.00611911918885541,
    0.23449851332080113,
    -0.05834581332538565,
    0.3342747659189782,
    -0.02901536121338985,
    0.050272977230965604,
    -0.1889952528082901,
    -0.17362592628379295,
    0.2680192553073064,
    -0.06252900598873168,
    0.04542030478265615,
    0.08755831592816372,
    -0.017671721332272135,
    0.16440825846014917,
    -0.15630250191796502,
    0.10095219702770453,
    0.6528750970207359,
    0.21795602413091508,
    0.2732344797275884,
    0.21864377977128593,
    -0.5795309832489747,
    -0.28388478630154734,
    0.2208409202653145,
    -0.15433119915117172,
    0.8450742085161778,
    0.16494405768043144,
    0.04834617119793585,
    -0.3772176164882062,
    0.25961349854953986,
    0.040238003714593774,
    -0.08673195677328824,
    0.33040877567372895,
    -0.1521732715787852,
    0.09429412431210993,
    -0.415974100609208,
    -0.06761114876175264,
    -0.1674762926387077,
    -0.3815437993425491,
    0.10251942060626014,
    -0.2240395494996519,
    0.022614529180758184,
    -0.10765400515479011,
    -0.18835183942460634,
    -0.1379255632144607,
    0.12232411750355293,
    -0.22895262668550964,
    0.11062892620786735,
    0.007835399286944267,
    0.039272622300584356,
    -0.13939073416407827,
    -0.04222493613223984,
    0.2993093946679092,
    0.3138212103545763,
    0.4507465744224442,
    0.24145005866941682,
    0.14622341289872506,
    -0.04231465025225962,
    0.31877711419492744,
    -0.9095406296900402,
    0.22512783870878486,
    -0.0621790473344789,
    0.10453280908266531,
    0.06812972822445694,
    0.1704657216081461,
    -0.040981420887316,
    -0.052228504459272684,
    -0.002369359913322074,
    0.28179516334535604,
    -0.23581693622404434,
    0.24264876681164618,
    -0.3030304396185895,
    0.6392255073406814,
    0.0493129197282757,
    0.16045883744723952,
    0.14778302318163158,
    0.07508948580811577,
    0.12681376284439178,
    0.14658386886500055,
    -0.028807124062914927,
    -0.2604517604413456,
    -0.15610726930703625,
    0.2710151764987757,
    -0.16453970002057994,
    0.13825893262620864,
    0.1326108139377139,
    -0.14395807458717802,
    -0.1969059620984244,
    -0.02848489002724415,
    -0.20052121539797046,
    -0.18073306546120227,
    0.024418375757401512,
    -0.1030285467872053,
    0.7702907392186432,
    0.05168866669665838,
    0.11894308214311584,
    0.10449745054522588,
    0.03654993144542356,
    0.25381869606603163,
    -0.11319402493199422,
    -0.09694893359256497,
    -2.4549817049583994e-05,
    0.30481980696934013,
    -0.045851540006739785,
    0.03868107517320708,
    -0.17942369843422126,
    0.5805843543606156,
    0.10787343469498323,
    -0.051560468877789686,
    0.10916091488720928,
    -0.12852027704444652,
    -0.107534791765741,
    0.2271483711446202,
    0.08695779532911721,
    0.21930752034592152,
    -0.1346906472144096,
    -0.10380585190185021,
    0.11662010441346285,
    0.16945771409174337,
    0.09319163411931178,
    -0.09982194364431014,
    -0.3067736239180698,
    -0.25525314235034546,
    0.06287170741303107,
    -0.11878141547569267,
    -0.0448986122180933,
    0.1400668120339272,
    0.8243538301674296,
    -0.1512185752844376,
    -0.14719889105238831,
    -0.3733078101474596,
    0.39178012298100373,
    0.0280753323242703,
    -0.1608279954236743,
    0.08517665284665428,
    0.08358730733651472,
    0.011080218135715959,
    -0.05113920028556608,
    -0.13241924662719812,
    0.17705510984496065,
    -0.08164190911445067,
    -0.24020616693647423,
    0.16800103512016967,
    -0.2429405822876488,
    -0.024124139323594248,
    0.16780198243000755,
    -0.16191265445628417,
    -0.0505918918842004,
    0.09929651221111882,
    -0.05219917984221425,
    -0.2733717128475832,
    0.002681267429226545,
    0.2356008905785801,
    0.07375117661905176,
    0.5948408039544656,
    0.35667453411298194,
    0.3969323645420912,
    0.18246540386582685,
    0.46435376722714294,
    -0.08952822528720332,
    0.03169983304704108,
    -0.347083467609164,
    0.17476151622790723,
    0.05791910821413799,
    -0.12251844904906702,
    -0.17691019275024586,
    0.240902157138485,
    0.11042207381084547,
    -0.07589344926533584,
    -0.15351621804788101,
    0.1278167066660923,
    0.0655449619983068,
    0.08547566852487704,
    -0.10124939080012027,
    0.46025078336345965,
    0.06849574867847372,
    -0.25086991745237897,
    -0.10791781367370228,
    -0.3652112225377041,
    0.04901037345070508,
    0.1512972987615008,
    0.17948397604138006,
    -0.20490246126908038,
    -0.45432112749804177,
    0.24677139053481142,
    -0.25801812841188837,
    0.14136026234138588,
    0.5560970365246539,
    0.1661654619813438,
    0.20886511443571593,
    0.10016886757915928,
    -0.10353970897084672,
    -0.06237775725471266,
    0.08343947339752726,
    0.19576658713998013,
    1.0119476260453446,
    -0.05727928799675276,
    0.22809180513430774,
    0.11471106541351185,
    0.07629862325340721,
    -0.1684766124427447,
    0.03394516958694526,
    0.16152800456732483,
    -0.08601053263948345,
    -0.2083098490008905,
    0.1960619695820029,
    -0.16092535513395198,
    0.17209256469157208,
    -0.2866996338557739,
    0.07711677609351622,
    -0.005573027116819651,
    0.2432140423401407,
    0.022315572191434898,
    0.3212903508518529,
    -0.09175679990712778,
    0.08041476983468122,
    0.11030732309963685,
    0.0325319062367144,
    -0.19996503593964265,
    0.048213659201320994,
    -0.034706803110087225,
    -0.12474109255732604,
    0.09645297391135708,
    0.17375981392459544,
    0.25752174780222625,
    0.12709978598104116,
    0.29666550098287797,
    -0.16602677732192214,
    0.1321692734266011,
    -1.1357720281471246,
    -0.025562765486323077,
    0.16163794011493213,
    -0.092069167525261,
    -0.15569857305210952,
    0.07284862774308876,
    -0.2965984905261106,
    0.06650692126253567,
    -0.06279237196681524,
    0.13620978694601896,
    -0.4849618656306373,
    0.11858229813286128,
    -0.14774434971474795,
    -0.18552631847922996,
    0.010985202378990236,
    -0.11133850535892806,
    -0.18263276511907806,
    -0.10314133875161216,
    -0.0061843084852063095,
    -0.4679832731526083,
    -0.07876223044996579,
    -0.20595097950910987,
    -0.07028063273577732,
    -0.06442743428655401,
    -0.23734594588373958,
    0.2383607558646245,
    -0.1635487951691651,
    -0.1375320643430837,
    0.2536202694663589,
    0.028300541819991153,
    0.015791137512170875,
    0.2940236159596924,
    -0.03167810178088352,
    0.4090157105358989,
    -1.1108899796387866,
    0.09798675592081306,
    0.009916585630773047,
    0.22931065794952388,
    0.14837538174399015,
    0.16231979188168794,
    0.2909767621820184,
    -0.1369994099999889,
    0.14132551751827227,
    0.2023753939127985,
    0.17594182202717829,
    -0.004623762170953037,
    -0.15983845871068905,
    0.3957513773519449,
    0.19823995235267128,
    0.2878155147405054,
    0.1766464968161322,
    0.05099424091925363,
    -0.055817834452628445,
    -0.09199427745725283,
    -0.06951025126009938,
    0.13196437457136695,
    -0.2526346215800521,
    0.22347103204813565,
    0.10369245213004429,
    0.08659893994220763,
    0.11170532411025351,
    -0.08493256911337473,
    -0.08246189457453484,
    -0.26069809641559116,
    0.18906639248429902,
    -0.08643756113552864,
    -0.15167413643791972,
    0.14478282906472062,
    0.5718705528742741,
    0.02523575106709819,
    -0.22315241196144875,
    0.17539553920488954,
    0.037414424433425165,
    -0.13826478432448927,
    -0.17284084752845594,
    -0.14482995689659187,
    -0.05607608361794278,
    -0.07264922422634172,
    -0.14200410956860832,
    0.1048035207751538,
    -0.004932566991937375,
    -0.16219733855216378,
    -0.1162519403614354,
    -0.20101530542312393,
    -0.15442057931309083,
    -0.08222166861397368,
    -0.12062744275637309,
    0.23065282947012197,
    0.10690888270471129,
    -0.08352527415418058,
    0.15118284342670976,
    0.14216724212535714,
    0.1088923934800083,
    -0.18033092875844478,
    -0.03194714192744923,
    -0.16895789999000232,
    0.052376564611995274,
    -0.14817864338707185,
    -0.10410279387540977,
    -0.13086400331025086,
    0.0030673613522787676,
    0.02500898580378193,
    0.011367619306012294,
    -0.07403260692919655,
    0.19975190161704234,
    -0.16360996875280373,
    0.2964355153694084,
    -0.10799571484737364,
    -0.2351653257940804,
    0.14330884934823004,
    -0.1256847868868359,
    -0.00220936745063365,
    0.06882285569430531,
    0.1443733246657144,
    0.21794903801932075,
    -0.7524471411577474,
    0.33546266973079353,
    0.19603133955640162,
    0.04392826108321034,
    -0.18269857722558686,
    -0.24214616774698994,
    -0.14465039535775184,
    0.4130588958673951,
    0.31611020010833696,
    -0.0632100763542219,
    -0.00905814494121437,
    -0.026830677289906138,
    0.05409814283414796,
    0.02027029761745159,
    0.5542847266861872,
    0.6848363623477873,
    0.5132015342999876,
    0.05904085060533335,
    0.08109138732350442,
    -0.03716231444441802,
    0.4721454794154136,
    -1.1591401749975883,
    -0.531390606764397,
    0.011358474237747329,
    0.3315356671665787,
    -0.6522776398442577,
    -0.3054288867556686,
    -0.03227133304255259,
    0.07957697656820524,
    0.17324766591366436,
    -0.09144791376386828,
    0.20522837012080228,
    -0.08139467670820824,
    0.027020561745707997,
    -0.3984646310889155,
    0.21876000972187765,
    0.06144215226795235,
    0.1181546662239619,
    -0.37974386540172317,
    0.06738411182852246,
    -0.0997616267883537,
    -0.2634742106695049,
    -0.053530573890497646,
    0.22371368400878247,
    -0.1590734138180289,
    0.21593731254037393,
    -0.13466303561976992,
    -0.3162797268815658,
    0.0762306089616267,
    0.2379984778506577,
    -0.018996435700082033,
    0.13667318726293753,
    0.265087529512433,
    -0.08977597840817071,
    0.16160598640330015,
    -1.155962230643294,
    0.04448755456514225,
    0.23170552549048315,
    -0.11129654387292927,
    0.2537400503706445,
    -0.05850329947913258,
    -0.030481178381721288,
    0.15210174294845905,
    0.06516529154674286,
    -0.0695256984719542,
    0.30630060767760897,
    -0.08755970130249512,
    0.2504552395465623,
    -0.5946077216319694,
    0.23690467310938132,
    -0.11346241870737021,
    0.1698760332042113,
    -0.07515089817117168,
    0.3880481944189485,
    -0.19321561186723402,
    0.11487584522099344,
    0.17695733384443404,
    -0.1351175970403628,
    0.13601445190686448,
    0.1917780483639819,
    -0.09292001661517667,
    -0.2758635361559705,
    0.3744016945900179,
    0.4349212748417068,
    0.19086926443661614,
    0.12563241038136372,
    0.1721804391254421,
    -0.04342529584523501,
    0.07378939216103987,
    -1.2694118111738502,
    -0.03360013599616891,
    0.07907529412607553,
    -0.16423193309543543,
    -0.031670586079088014,
    -0.17596026291243907,
    0.07107599970632608,
    -0.08937392273428167,
    -0.22974730550479947,
    -0.0018887706704560057,
    0.047380925857458296,
    -0.00022677502762519805,
    -0.1289720357078564,
    -0.1120555533260088,
    -0.10670172084884354,
    -0.014586184198344152,
    -0.1331979497077605,
    0.06148106146616113,
    -0.043010007807078296,
    0.14026860553638665,
    0.02747932348830646,
    0.021285102469202736,
    -0.0480693905308812,
    0.0011830021744701634,
    -0.07082786800662305,
    0.045676761761055264,
    -0.012608075252361193,
    -0.15128065335560165,
    0.005989856378145853,
    -0.1319135611839447,
    -0.21566668018013357,
    0.07911334591070798,
    0.13759882202287527,
    -0.1776730275921669,
    0.2026807397884202,
    0.33941112393581346,
    0.11150956093792003,
    0.1299491365078896,
    -0.21573677578142417,
    -0.1167546772334499,
    0.20751014742298798,
    0.04524956424414341,
    0.27696416986168215,
    -0.030742373417044753,
    0.24140341107477953,
    -0.18317351021702447,
    0.16950034227838215,
    -0.04522587396638652,
    0.053133099649768645,
    0.162573369174593,
    0.024620645392145757,
    -0.0816217594180387,
    0.21642930917153164,
    0.08125756329530724,
    0.16902137698479663,
    0.16896376925060666,
    0.41759635363269854,
    -0.05761491694102308,
    0.34541881412695213,
    -0.11770154559975571,
    -0.003934913301285588,
    0.011354652904038146,
    0.22037708368241468,
    0.4218132124523648,
    0.2836883172509754,
    0.1374832245181294,
    0.006612189882311264,
    0.2207892142734419,
    -0.6187635871826976,
    -0.06068053598042667,
    0.07350325159587033,
    0.055914993808643454,
    0.28305246073615126,
    -0.29852669635062595,
    0.06340901377227,
    0.12007936910249083,
    0.25526657214635995,
    -0.05747550656361937,
    0.32423628072376465,
    -0.013592181159283874,
    0.060550062615800655,
    -0.5271318854703547,
    0.308137152484429,
    0.19872568192367812,
    0.27464787775313615,
    0.17180651814849124,
    0.024611891826251692,
    0.02430146394196174,
    0.253724933375345,
    -0.14587091578633757,
    -0.04964485706625557,
    0.021369493719786,
    0.11504624474981047,
    -0.09800659924345588,
    -0.30121219495924434,
    0.1963701819199685,
    0.4344797569872118,
    0.2948374496965946,
    0.3975362809443229,
    -0.036962016495907996,
    -0.20555231983299288,
    0.19398200655447567,
    -0.8939639292804198,
    -0.02046832009955356,
    0.12166766793186316,
    -0.1468447607004878,
    0.354320846676744,
    0.41817063523948605,
    0.0981619043483086,
    -0.30686642884647747,
    -0.04028992003757396,
    0.387209500618029,
    0.050301304541669346,
    0.06039430974568185,
    -0.24154203542612868,
    0.3963861422115927,
    0.06713245711232402,
    0.11242631781192694,
    0.2464355570016236,
    0.3192036152425989,
    -0.1925751616037454,
    0.3081030857248862,
    0.05347288477694838,
    -0.023860326768726167,
    -0.015974423607082386,
    -0.10790987037737385,
    0.16444947592848944,
    0.22021510104734213,
    -0.09231006296966193,
    -0.29160338196520075,
    -0.28097855350531203,
    -0.39375340449582413,
    0.04071451853143976,
    0.1449109276609109,
    0.01665756401635007,
    0.053256610174469345,
    0.5107394245257,
    0.4235191021734633,
    0.05731115405793008,
    -0.07136941092223183,
    0.060585261936898734,
    0.1292447854466548,
    -0.08029786477576842,
    -0.08274931099162708,
    -0.1643224911100555,
    0.15111298822791924,
    -0.10569514317161396,
    0.1168186090958938,
    -0.12928363134463935,
    0.746164831758888,
    0.1426984527066295,
    0.0029016487886622576,
    0.18158501208549596,
    0.07066318081856396,
    0.09907447502817476,
    0.002826683700340434,
    0.08534892971363346,
    -0.017538156494286597,
    0.03429325393295739,
    0.048181678076450234,
    0.01912079612854024,
    0.072679500943853,
    0.3824012815701843,
    -0.12788033137391483,
    -0.16831511815979797,
    -0.05658060032652026,
    -0.06641101147595024,
    -0.2613926293174465,
    0.13937901748252557,
    0.07326497390080462,
    1.039508062942906,
    -0.1935119982521796,
    0.07577294955594466,
    0.13286651824835252,
    -0.07905989558998366,
    0.09959911893164076,
    0.03863602073425185,
    -0.0004077547480638391,
    -0.14119434262381142,
    0.10884894325762096,
    -0.26056320274395184,
    0.2805423135833715,
    -0.14170640300324552,
    0.48558779585550904,
    0.08005175634808735,
    -0.0007068204284142064,
    0.11366975608819453,
    0.2545154724214465,
    0.06379626729995787,
    0.03467647006188352,
    0.07774585511095364,
    -0.05448689983097628,
    0.06766017645726935,
    0.031291797715294535,
    -0.010944918197306894,
    0.011559257866261564,
    0.11021071752429658,
    0.008127400901300898,
    -0.2816422822605985,
    -0.1664257492615652,
    0.013429240313675038,
    -0.07648052133991401,
    -0.014857464853424025,
    0.2577126414932816,
    0.6717871988991723,
    -0.378302513267894,
    0.3213797352624712,
    0.005244322375390603,
    0.30308971653253985,
    0.3319559468898355,
    -0.17732685863980802,
    0.019416236879970034,
    -0.15854547120289164,
    0.07341559517707931,
    0.07699292163610626,
    0.16653459873595605,
    -0.31739588082308473,
    0.5532832441586346,
    0.32249306114863363,
    -0.18977756587774494,
    0.009995288670186198,
    -0.026701434201074306,
    -0.2544865892373695,
    -0.031103575254357453,
    0.3827996133599267,
    -0.2696689129360367,
    -0.1945233400896638,
    -0.0895057705246331,
    0.14468303499700313,
    0.27562934074117823,
    -0.34657407994853007,
    -0.5791595620735379,
    -0.1484722383941985,
    -0.1154226838523923,
    0.13545110657806983,
    0.09647956384243692,
    0.05807030883104964,
    0.07452762839912348,
    0.8556789973606393,
    0.3657262954625404,
    -0.18276763338627294,
    0.10080113633316945,
    0.06797259136865717,
    0.1719448257782054,
    -0.16317729515143956,
    0.08787777032347957,
    -0.10946923865042228,
    0.23925765785411213,
    -0.2673503406822391,
    -0.04560262929004731,
    -0.3546446205026188,
    0.2626749497731917,
    -0.21826794365526098,
    0.14474345468865915,
    0.12988764142556436,
    -0.12701467129497512,
    0.08080821352353156,
    0.054900501542227274,
    0.066878035641403,
    0.15731634252203222,
    0.009290936513104866,
    -0.09021375923222165,
    0.2139055047829793,
    0.3637812715956002,
    -0.05986489630922808,
    -0.09759214366553405,
    -0.22026880331202833,
    -0.07008186144818367,
    -0.09711795890217877,
    -0.15352947656014018,
    0.16535507573457775,
    -0.06476057582944553,
    0.4812589281880474,
    -0.029549249417613145,
    0.1845304963845785,
    -0.41532081544215255,
    0.05150732734949832,
    0.11816956343411338,
    0.19362505703622532,
    0.19905456350251932,
    0.02776801625999477,
    0.11631935868629324,
    0.08265646024413816,
    0.02681373267239794,
    -0.12016538412238081,
    -0.23386954614604563,
    -0.09672933010788642,
    -0.3150980103508942,
    0.22238728671561991,
    0.21717685871138315,
    -0.1407980922698854,
    -0.22840755643338137,
    0.4434973060865706,
    -0.4386454140899412,
    0.11266421294330212,
    -0.07595073337074339,
    0.1741895684526099,
    -0.17329019894795653,
    -0.08975775234328884,
    0.4138880264671459,
    0.30988384981431044,
    0.4392931205862735,
    0.25911995222208,
    -0.00993169826454259,
    -0.049311128747508495,
    0.14773310319558436,
    -1.1080383701692198,
    0.15296145513090878,
    0.15548434389972546,
    -0.2480200750243101,
    0.10135424157423932,
    -0.03257891225594542,
    0.0586100989283422,
    0.1396232155793598,
    -0.011684263351655736,
    -0.12335293685050863,
    0.10529175015445286,
    0.02696231333315743,
    -0.09294090096374522,
    0.006238465166744188,
    -0.1850137618895972,
    0.26962464763816596,
    -0.03610129711314533,
    -0.14936921549224944,
    -0.03430655754085024,
    -0.17041219185132028,
    0.28314724683066866,
    -0.102274687042653,
    0.042704796817031355,
    -0.08446387839130517,
    0.44297815168052307,
    -0.016636607391148642,
    0.019551442438299933,
    0.19490871362239073,
    0.10217680213025702,
    0.2549419895076119,
    0.14695742451786573,
    0.4040124842647463,
    0.0005480489071224382,
    0.18840212676523066,
    -0.9225713242163917,
    -0.01811559206990058,
    0.1933212401692702,
    -0.5124507247596565,
    0.6754648947963889,
    0.09973092282914557,
    0.05977136351674741,
    -0.13098676756307137,
    0.2604951410358265,
    -0.142447044013301,
    -0.1918385678232876,
    0.07345309167203963,
    -0.07111813744398562,
    0.20630173859788734,
    0.13914649656759903,
    0.10729797807846235,
    0.0624739620612482,
    0.02647146296916759,
    -0.1793960100345631,
    -0.22485121429055674,
    -0.22856104640527497,
    -0.2151883859903413,
    -0.04926802556835573,
    -0.14138195994632485,
    -0.09824134035451106,
    0.2667790056434141,
    -0.5426272481880672,
    -0.6773343461130164,
    -0.375595584671399,
    -0.2480255477467736,
    -0.008326657876750252,
    -0.1351750595643437,
    0.10205298807765295,
    0.1469895648269024,
    1.0003991936576941,
    -0.24059310151413013,
    -0.06559481497904164,
    -0.10159825830683011,
    -0.10208465552768986,
    -0.03891647109438085,
    -0.142116819460587,
    -0.1467757718070562,
    0.08210364404900014,
    0.13239983020440915,
    -0.10185459331475072,
    -0.09848227343524923,
    0.1850142423769296,
    -0.03660529190622976,
    -0.0043999752304252435,
    0.015366475831538998,
    0.08127645682736168,
    -0.16648932357790985,
    0.06334719146058278,
    -0.24437096043709786,
    0.11139732866371149,
    -0.20278768390050256,
    0.039929694068787144,
    -0.09355519993296062,
    -0.1923809589984371,
    -0.18405149551805436,
    0.11535711753587355,
    -0.04655320049636176,
    0.04301218020439231,
    -0.09942282374309158,
    -0.20506497340494936,
    0.06913639848648197,
    0.0488022739857591,
    -0.18404781485886298,
    0.23750714995289174,
    0.2308690121506805,
    0.026857334172539743,
    0.22410843615604345,
    -0.3723401148906593,
    0.3337460333342848,
    -0.23535726592766548,
    -0.014885870106212755,
    0.06669683233749367,
    0.10490606996884552,
    0.08661846970249934,
    0.004342005416897333,
    -0.07699755251681585,
    0.4665595127432238,
    -0.0035809310194162753,
    -0.17102863063714463,
    0.18052499385032295,
    -0.3379156061423412,
    0.13825748631673723,
    0.08808692811214626,
    0.1923541169231176,
    -0.10515603856052776,
    0.03247966795188439,
    -0.07191419517037606,
    -0.13475318353661253,
    0.0226859366564305,
    0.4090026011499664,
    0.17707984926237888,
    0.1982514604534034,
    0.25128927399974055,
    -0.17589418975328536,
    -0.07431017231875418,
    0.07247229428770856,
    0.1733132272682898,
    0.8829571832849564,
    0.14739920814110685,
    -0.1549576424933854,
    -0.34868417850146866,
    0.4364600383872084,
    -0.06879208883956016,
    -0.02142034385970879,
    -0.1227886427228518,
    0.11171192883333737,
    -0.39173930205261387,
    -0.25494307680358824,
    0.09725665585145754,
    -0.17876585285328722,
    -0.3097085133921455,
    -0.20681062449626048,
    0.29856836866859215,
    -0.0021787465193664466,
    0.1681269704043703,
    -0.09668008531314097,
    -0.054015181144895875,
    0.061350906023366195,
    0.010493501008342508,
    -0.08197778679804187,
    -0.008776738890049646,
    -0.11764064100785432,
    0.19587711695279153,
    -0.5576710421100189,
    -0.628045630034172,
    -0.37755577096598814,
    -0.3384878791221773,
    0.03541738313100681,
    -0.13697303449244566,
    0.02136666598724697,
    -0.17639701477653427,
    0.07344266461119085,
    -0.13922931624769283,
    0.11719735602779041,
    0.21275656127998985,
    0.22485331534854794,
    -0.007326633476984419,
    0.08556199400689433,
    -0.07661161814640192,
    0.22317709263308969,
    -0.07935276676191985,
    0.07961142843208772,
    -0.1026374123360513,
    0.1332335639637588,
    0.028807576322198197,
    0.15610679407727704,
    0.06155103899210013,
    -0.11795719172279391,
    0.1270850561793978,
    -0.08608945575187085,
    0.13623681040347138,
    -0.20693226792447955,
    0.13064696896902855,
    0.02005216633064885,
    -0.2227804363709845,
    0.10419732799849996,
    0.003817706331281385,
    0.15622699465843376,
    0.06587672393763276,
    0.0338234165060219,
    -0.043106888201424005,
    0.03553509260267144,
    -0.048019333012286995,
    -0.014095238200135586,
    -0.16368232697627996,
    0.12392665157316954,
    -0.03686797822371899,
    0.011036499160007427,
    -0.24420086500168728,
    0.535065661387172,
    -0.018336352314726842,
    -0.11838262382766274,
    -0.03238117262062306,
    0.20737154751752268,
    0.15073206550468413,
    -0.2324770783066274,
    0.20358056759065699,
    -0.05291217445070949,
    -0.14653082833168096,
    0.17913417573190143,
    0.14735580863470185,
    0.028676855598951088,
    0.33123828446668946,
    -0.10450593892906973,
    0.02685646978707167,
    -0.17938884289877138,
    0.37218848849862457,
    0.24791767520042907,
    0.12670316284703337,
    -0.186074344469111,
    0.23235402217038295,
    -0.5634044440646552,
    -0.9245063242931745,
    -0.5859574539499377,
    -0.38276786067022095,
    0.03876346897688798,
    -0.14627465352671043,
    -0.06910833006551176,
    0.04837537597460646,
    0.5777901452559843,
    0.3943336766705953,
    -0.08560924392447519,
    -0.027043147576237807,
    0.13663651164972326,
    -0.02692331035459366,
    -0.0362602009366494,
    0.09194302062181942,
    -0.18952937552443536,
    -0.01747518177266775,
    -0.15597189716351642,
    -0.22188916813081666,
    -0.08030466820366632,
    -0.3949915924154177,
    -0.003456752384469938,
    -0.018936693040412917,
    -0.12761367018444592,
    -0.20500415326147747,
    -0.08719186160634876,
    0.002861589289703388,
    0.025111315020762654,
    -0.1757151829345373,
    0.04034837798968208,
    -0.06609324426306667,
    -0.13833678577409492,
    0.045267583258770096,
    0.01210576714487784,
    0.22973828209709743,
    0.18223842655616634,
    0.17129723434440555,
    0.19902531051847064,
    -0.04564462446512591,
    0.05624618574004008,
    -0.14535876895390384,
    0.043743562765628984,
    0.1943965907734512,
    -0.12884182971029706,
    -0.315102920707757,
    0.5864538092305082,
    0.13136932869629012,
    -0.05467327447341218,
    -0.1648314052112707,
    0.002676356010792922,
    -0.1417158677491193,
    -0.23545301934039597,
    -0.21443002573149517,
    -0.09724942115534306,
    -0.49768521600114163,
    0.13078383162121374,
    -0.04056916168185854,
    -0.08627513228129136,
    0.08698553048597296,
    -0.20065480339277791,
    -0.02838258035039329,
    -0.12206515738871017,
    -0.0038976229619366526,
    0.14739818309949668,
    -0.1398330197616317,
    -0.050810112944861305,
    0.1701814017699754,
    -0.5890101353317113,
    -0.5756531430366046,
    -0.613127446893602,
    -0.7217947003432549,
    0.06995132062778589,
    -0.020317497123178277,
    -0.07614083298920166,
    -0.1089066850083335,
    0.1936291631371993,
    0.09341822860478288,
    0.2566829233444275,
    -0.5363135467692245,
    0.3846810504610985,
    -0.03378715542312052,
    0.07424737709548336,
    0.30484008038594623,
    -0.21299632488361175,
    -0.02806443427254718,
    -0.15452706214490744,
    -0.0006127408212761204,
    -0.07466117771933986,
    -0.250515630091901,
    -0.010876683841549897,
    -0.2758870134939175,
    0.1817064016235219,
    -0.04415520902790351,
    -0.2154246622693946,
    -0.41963318472577543,
    -0.05569785841368128,
    -0.12507272494576727,
    0.009955817294065795,
    0.05484034807426704,
    -0.014231483709404922,
    -0.3169173993292541,
    -0.12988700133696074,
    0.5512895197018524,
    0.8258299531320993,
    0.6219992708181942,
    0.038099386426093805,
    -0.05098077573745584,
    0.1432430226519536,
    0.29777306575572227,
    -1.2288560735059653,
    -0.11894859532799505,
    0.009140830824142413,
    -0.07744981732623707,
    -0.15455514494997805,
    0.03293477114440733,
    -0.1135281113049736,
    -0.1267530352356038,
    0.06820897359370899,
    0.07132450749174304,
    0.13783116952760152,
    -0.1278462857989973,
    -0.18593647418847067,
    -0.011646039687854907,
    -0.20458266391056978,
    -0.03887612726250287,
    -0.2511515688903493,
    -0.14747513050292585,
    0.03858238549352997,
    -0.0005474800589064878,
    -0.05962118919208634,
    0.09450110519694853,
    -0.11443257211257891,
    0.09251126255362063,
    -0.17677322338495494,
    0.025473781005218996,
    -0.09684995683046786,
    -0.1260407318371911,
    0.020998131070468995,
    -0.22325242070911147,
    0.034950765464213294,
    -0.13277471244637157,
    0.09071322456362772,
    0.05717730758916302,
    0.028619635873809484,
    0.030593225698953515,
    -0.1579757894731797,
    0.30217522988119494,
    0.10810872592264995,
    -0.12058517214993482,
    0.006583196258853,
    0.22383679232998893,
    0.07784121451543188,
    -0.12940005754755318,
    -0.01615320965268331,
    -0.1631424868059753,
    0.1683391262106609,
    -0.34167924720802234,
    0.007009502576401627,
    0.029740458072660438,
    0.1206300084204478,
    -0.11084460728772415,
    0.15138810470580855,
    0.10006370687535134,
    -0.08829990258380366,
    0.1909392521722378,
    0.25430289648420357,
    -0.10368361516406473,
    -0.1419476454032468,
    -0.06538679677988644,
    -0.18522134379032035,
    0.23356856781791552,
    0.25554306525168263,
    -0.09217160986615643,
    0.28114883568025695,
    -0.025744699456025578,
    -0.07748113930188824,
    0.0168431999325139,
    -0.6234418499973936,
    0.4375504151832522,
    0.07808539970393814,
    -0.4388159418148202,
    0.33455438095516016,
    0.36454758675783744,
    0.04095171797592445,
    -0.1078492681852724,
    -0.12130839155585987,
    -0.02073705448800769,
    -0.18181338420606397,
    0.11355445969355286,
    -0.05892298102259648,
    0.4925528786665661,
    0.22917894414689974,
    -0.20623490315606569,
    0.253435011876731,
    0.14388979707091504,
    -0.27206230467534115,
    -0.24682971439412255,
    0.03485037279404178,
    -0.3895138553994092,
    -0.2342001356281291,
    -0.17740979937971801,
    -0.15191619101031378,
    0.06070221245280282,
    -0.35355676175712847,
    -0.4979840466209638,
    -0.232596171999189,
    0.08185695244114191,
    0.14032940757781712,
    0.20298899843731616,
    -0.04280983999892707,
    -0.05795974551438386,
    1.121506485189911,
    -0.19564643222985048,
    0.2217580487428087,
    0.28550672910906955,
    -0.23994533519205624,
    -0.0763100794915304,
    -0.117979184808457,
    -0.01363204577907956,
    -0.2011871739298527,
    0.025583478964341905,
    0.054024387075661554,
    0.20617942036928977,
    -0.14941852453086663,
    0.7091697476985791,
    -0.012024588557156046,
    -0.15651771906766618,
    -0.0157928963143456,
    -0.39733033099028886,
    0.2003147677828771,
    -0.05443421959940571,
    -0.009388381611111687,
    -0.036757056449380036,
    0.028003544139839583,
    0.0802984078233688,
    -0.3080812962782619,
    0.022734736277630466,
    0.684984899750864,
    0.22928906892818146,
    0.24849173115137044,
    0.11946504607338142,
    -0.4947979698040159,
    -0.2520834833981109,
    -0.013011362913197223,
    -0.017879168199225876,
    0.9190279513863764,
    -0.10108698866613303,
    0.3046469363288827,
    -0.15956474367797965,
    0.3049002586633998,
    0.16627089601201328,
    -0.26821559116389054,
    0.15344298605504023,
    -0.08653351505738376,
    0.13353338781648988,
    -0.5125315191032747,
    0.1325765154956728,
    0.018262962366116624,
    -0.22029584177782985,
    -0.09507127736146362,
    -0.06694579842656177,
    0.0654565570712884,
    0.13660805309380553,
    -0.1904699345941839,
    -0.18887576959933744,
    -0.1160244828125169,
    -0.11644964247297945,
    0.06250653802491642,
    -0.12190545183951468,
    -0.2115498818245709,
    -0.0045628653504224004,
    0.017486154873234606,
    0.2533089418037329,
    0.1843207188709259,
    0.2679575660924866,
    0.06369310146465777,
    0.1266216591363122,
    0.18210480573320909,
    0.43498929912376894,
    -0.8326140488252013,
    -0.20167676533121387,
    0.13319774974462864,
    -0.3170438692536928,
    0.11380196725833144,
    0.23279180522253048,
    -0.2958657708583275,
    0.2736483351626144,
    -0.050188450003196515,
    0.03456039130142587,
    -0.03875804140653177,
    0.07628102167361593,
    -0.16767154162633188,
    -0.15433958030378897,
    -0.13363922359363495,
    0.020509526018685793,
    -0.18148883746125669,
    -0.1756221588837885,
    -0.09005786381029936,
    -0.3458109018023777,
    0.12254098084276314,
    -0.1330081078537382,
    0.11889435137966557,
    0.162509244105046,
    -0.1995025043068905,
    -0.09196445665294596,
    -0.03981753676355427,
    0.18872829023743024,
    0.24548569764307532,
    0.056543623219747735,
    0.034651752683129845,
    0.20257592728025117,
    -0.09096598345753577,
    0.3343641502933907,
    -0.8763690471651395,
    0.10464583112905096,
    0.24595767485637546,
    -0.06909468388968759,
    -0.25411620149332087,
    -0.12048444730215022,
    0.3125680809057279,
    0.16190188806004918,
    -0.180078090894077,
    -0.09339432141458472,
    0.13837915091653974,
    -0.06297534884558213,
    -0.20308735926341057,
    -0.22509435974711395,
    -0.024112924181866814,
    -0.05178599713182552,
    -0.08014562547509982,
    -0.22447452523067465,
    0.3193660590816889,
    -0.09725994850915287,
    0.010936901624577135,
    0.041817918378103024,
    0.04234138385148233,
    0.19680406202806547,
    0.09438253327318123,
    -0.39616004014183864,
    -0.21434734135258618,
    -0.11601306684586246,
    0.15007974897025875,
    0.15763514838249507,
    -0.12767310502666673,
    0.14404477452248318,
    0.026311914498415127,
    0.15221480210066118,
    -1.1336642776069161,
    0.09302726788664556,
    0.1726687131735327,
    0.22292336682017672,
    -0.2463758473958154,
    0.16939055634517003,
    0.061117429096185186,
    -0.08805155692968415,
    -0.036246278163503995,
    0.1323071039209405,
    -0.016167271468125174,
    0.2978025168797389,
    -0.0694334168712655,
    0.6281250894819871,
    0.008426013429500997,
    -0.20082025461352943,
    0.05855706045314278,
    -0.027428045704515933,
    0.05346118486821792,
    0.09611631503020424,
    -0.05243485152402699,
    0.10087341603111334,
    -0.15817471336412767,
    0.005127437984581754,
    -0.06749347947889395,
    0.52299288782448,
    0.3863428904568251,
    0.1677807852194721,
    -0.016087699253299795,
    -0.14374319685623546,
    -0.19772405011902577,
    -0.003996386982929788,
    0.08321381891564526,
    0.1894909566282774,
    0.8510359624443325,
    0.07100616925765683,
    -0.2333340620062636,
    -0.5595316572321876,
    0.31774182493500625,
    0.11670553195758751,
    -0.0445449865099616,
    -0.3730164622925839,
    0.2319964160040612,
    -0.1219212188143036,
    -0.37167480028339434,
    -0.07948753109459711,
    -0.475724845572137,
    -0.8129171864519279,
    0.09615920333053132,
    0.10302253552872323,
    0.1591103110281636,
    0.3551511858180272,
    -0.34684824375287143,
    -0.37595961068440686,
    -0.24196988767296224,
    -0.4332320106380765,
    -0.018122529412943008,
    0.28612136350986395,
    0.01048808118212752,
    0.2037585714383873,
    -0.8370685439525744,
    -0.3812462129755955,
    -0.42775266994193956,
    -0.6107834324442983,
    0.31857384053367616,
    -0.22227066791320182,
    -0.159135954865141,
    -0.3279979133374168,
    0.3055807866534771,
    -0.11660756957246797,
    0.09716790209231041,
    0.08237304282322627,
    0.15017127519207632,
    -0.1821410524453948,
    0.02403666598803669,
    0.12456343958635799,
    0.12904016816598313,
    -0.14801503410735434,
    0.13536113672889302,
    -0.09020435294938561,
    0.17174596287714514,
    -0.4698153968857614,
    0.11697227823431748,
    -0.06425509703329808,
    0.20894996360989737,
    0.08088815695110481,
    0.15877383403574472,
    -0.12631290590028255,
    -0.14619371380766796,
    -0.1139493371239451,
    0.2631812594071579,
    0.17417525765069722,
    0.11271057239809189,
    -0.19730270891465246,
    -0.3079941233978892,
    0.3220031320155177,
    0.31733671266812263,
    0.3138633478572135,
    0.21817297907229105,
    0.3322035391420912,
    0.0705438500493852,
    0.17763790018457404,
    -1.1423638760082042,
    0.0861479938956587,
    -0.0005370235589054234,
    0.17310061854254863,
    -0.02779371106808637,
    -0.14124766466429278,
    0.27732205548811095,
    0.061589490750355656,
    0.2676546875902856,
    -0.24971479322991572,
    0.10472391686124378,
    -0.08488478377383922,
    0.25225848837146975,
    -0.17536104862600965,
    0.09566468816734097,
    0.36279569194417866,
    0.22128617493211755,
    0.03484608953020831,
    0.034047318646849595,
    0.05096600329402702,
    0.05379940680036524,
    0.044340119147155965,
    0.2193042479633107,
    0.041369766231562945,
    0.3324038115418612,
    0.06731252698443893,
    -0.17901665343055123,
    0.15239187302948115,
    0.15094941204582374,
    0.27803142085129273,
    0.20397870219468558,
    0.38887149988956515,
    -0.02841504626788751,
    0.10551436862362622,
    -0.8166733761893946,
    0.04224290181131039,
    0.24710170505475013,
    -0.1421834518573122,
    -0.28554103682886756,
    -0.0816859503879046,
    0.09364483544923115,
    0.1314090836002663,
    -0.07485537817246153,
    -0.06033738060858208,
    0.00251411043518261,
    0.1636503759073994,
    -0.10037538934526824,
    -0.46884998613828255,
    0.24031510296836733,
    -0.2190040715952604,
    0.12917796515430552,
    -0.4729828968867946,
    -0.20020071613077928,
    -0.1466501054637312,
    0.2423926201295792,
    0.44610682078766184,
    0.200074718956158,
    -0.15018878345999456,
    0.21453552656049166,
    -0.06734739152632556,
    -0.2788286721979427,
    -0.18481379564130232,
    0.36444958010176276,
    0.2452681178310667,
    0.005997409582004015,
    -0.22062547619360956,
    -0.041814527055631434,
    0.31902091361654167,
    -1.0201908840876386,
    -0.08953688884692841,
    -0.06450925939707307,
    0.03202339320426947,
    -0.13227122466507263,
    -0.0881542002698216,
    0.02995097306653674,
    0.0695427307552473,
    -0.15840109519551926,
    -0.06425859815605066,
    0.0937656665525437,
    0.06403379570737824,
    -0.024153864729423765,
    -0.04771117528262506,
    -0.07443260970664237,
    0.18690001341161971,
    0.00160214417525182,
    -0.08752070913976338,
    0.29841337113717253,
    -0.26787365677401237,
    0.02346014534921227,
    -0.01746682502043943,
    -0.07102206873211125,
    -0.09905419429717803,
    -0.10110732088308542,
    0.15743572707859832,
    0.2334464611576812,
    0.16190488057488242,
    -0.18769799079219224,
    -0.007767711031388297,
    -0.16216828008196876,
    -0.16536891175756,
    0.03926211529593079,
    -0.12677026567397276,
    0.09698158414096629
  ],
  "w2" : [
    -0.4123003036863822,
    -0.05532454208593935,
    0.6001875834603071,
    -0.5993013960178846,
    0.5149725379464303,
    -0.4011727414311694,
    -0.2912453974096816,
    0.5850522759570712,
    -0.3480412502888472,
    0.28417674990566905,
    0.26226319003713594,
    -0.06239592889883578,
    -0.016002637860441347,
    0.838534738208885,
    0.45744304223329924,
    0.6051281791868424,
    -0.061907182753948485,
    0.1448142201683529,
    0.5845707781809267,
    -0.4019284340558043,
    -0.39482186873169745,
    -0.17534621200256809,
    -0.45952929316167385,
    -0.11041180261544452,
    0.5283500096754622,
    0.3130752223283532,
    -0.7529506153361445,
    -0.09197918147329125,
    -0.3742223600640217,
    -0.4636251054184225,
    0.036504679652573035,
    -0.4515258083758919,
    0.15028483028862924,
    -0.5956191556370478,
    0.7660441071428341,
    -0.007028218040505062,
    0.10584495621831562,
    -0.5430322705572233,
    -0.7185678687096483,
    0.286615781850754,
    0.31811627666450953,
    0.40921862847613133,
    -0.45949385505729085,
    -0.5874779477156218,
    0.27819305279206213,
    0.2935758746530342,
    0.6770053734664179,
    -0.046230777360601154
  ]
}