{
  "b1" : [
    0.02988534477375192,
    -0.16286365077629988,
    0.09705669272690069,
    0.02511395823835843,
    -0.040603281440468375,
    0.1943780073837849,
    0.2539010381631759,
    -0.18858658841680548,
    -0.05878992171081661,
    0.12310056394128129,
    -0.05992345101254657,
    0.046423751277420613,
    0.09381435913075045,
    0.10106930461335954,
    0.10320101590957935,
    0.25485464198325636,
    -0.13576118519790414,
    -0.012310421885459452,
    0.15529885314747943,
    0.13615430130899994,
    0.2562458413460384,
    0.13418898815874813,
    0.08036553221347967,
    0.18257915091082277,
    0.10833054740931972,
    0.21813564782920497,
    -0.06226412161922545,
    0.05342711536097514,
    0.018969430906202546,
    0.13910027496078578,
    0.13375440990427231,
    0.06342997243315741,
    -0.007242651458883847,
    0.1780491648906653,
    0.1605504477720626,
    -0.03812632034609347,
    0.05677400091110939,
    0.15797043734018715,
    -0.06957058667010234,
    -0.16713948333971523,
    0.12176713221350682,
    0.06549186841155644,
    0.2538175605059043,
    0.02401284274646858,
    0.13901331729223412,
    0.24319469869014165,
    0.118182030832108,
    -0.12288297982624359,
    0.00803242548609718,
    0.00447653939986017,
    0.008721971539956309,
    0.0053703976884576935,
    -0.0038209117257786166,
    0.010406639747814861,
    -0.008697496557501065,
    -0.0009347782098570265,
    -0.007747493294856207,
    -0.007231752675708431,
    -0.011418210080675683,
    0.005107752413198163,
    0.011223048755170507,
    -0.007595734524470365,
    0.009638096153649557,
    0.00687612479690935,
    0.006780638894728306,
    -0.007768387775742189,
    0.0006235539533499681,
    0.00281637991995507,
    0.0071814862994619135,
    0.0057445099361471685,
    0.002545190940668524,
    0.0060482677204675836,
    -0.009554319551614194,
    -0.008511486783758598,
    -0.010945765318581945,
    0.010303666839915368,
    0.006892562238513606,
    -0.007517259874284558,
    0.0032419419211379584,
    -0.012794839803729561,
    0.007626170164857411,
    0.009401844049074862,
    -0.0002295933237145266,
    -0.010172437693406769,
    -0.0008003530507380012,
    0.006561546105339052,
    0.0070254606881633,
    0.00461547605565557,
    0.006852866653341877,
    -0.00021322595370183947,
    -0.003505948429468288,
    0.008576475744590167,
    -0.0037317178112808666,
    -0.001820025430836064,
    -0.012272347195065331,
    0.005038784349649697
  ],
  "b2" : 0.022774148284406204,
  "feature_version" : 1,
  "hidden_size" : 96,
  "input_size" : 34,
  "version" : 1,
  "w1" : [
    0.2594894654185751,
    0.12604400257224704,
    0.2288853855638478,
    -0.454953853100209,
    0.23442368032148356,
    -0.13426667147084317,
    0.0004968819997940566,
    -0.23595835354391914,
    0.30094754860429945,
    -0.08791080373466936,
    0.43074262573201194,
    -0.12825803330860866,
    0.6784627209651405,
    -0.20696219721173217,
    -0.34609433870323225,
    0.0019338795776666796,
    -0.24749573686245574,
    0.04030620738851854,
    -0.06314311498114257,
    -0.029814016826162918,
    -0.003919831064836158,
    0.01824948099141108,
    0.047393347417724066,
    -0.32529622661522617,
    0.11985765975548911,
    0.3871100631410706,
    0.029752975480221842,
    0.09325346506069396,
    0.20380128733292835,
    -0.1081592116811902,
    -0.4545387721146121,
    0.14938765254101813,
    -0.013000818474491515,
    1.1638576231952302,
    0.0652014933810962,
    -0.1705113123581083,
    -0.021465554782023524,
    -0.09109366210705108,
    0.0461934564016852,
    -0.07698571911186909,
    -0.30121035876099606,
    0.14161731168437727,
    0.03528199469120013,
    -0.17495067741955214,
    -0.1708116116183845,
    -0.13481275517201927,
    0.013649507277219022,
    -0.08940597437012665,
    -0.2420528035296158,
    0.0566918040688781,
    -0.2665237680045639,
    0.18457483140685124,
    0.17764015162370647,
    -0.22921045186977043,
    -0.1679099483170312,
    0.19515887478447494,
    -0.22859802352421865,
    -0.01417215195059177,
    0.034014253838837515,
    0.12624324178057691,
    -0.0882080407164267,
    -0.0692592306851427,
    -0.026160190801895328,
    -0.003536154440255645,
    0.11303308775841389,
    0.012011718246516812,
    -0.03317532883842524,
    -0.06583538592432786,
    -0.07143600850463178,
    0.1990862882289582,
    0.007566306904470505,
    -0.036105066677958604,
    -0.30789938963700547,
    0.15304699353747936,
    0.1291605575482956,
    0.08168575434478817,
    -0.25384256913529124,
    0.2771051253069803,
    -0.20797469565890522,
    0.17386513687557206,
    -0.5809594061174237,
    0.2744791680485098,
    0.008058531742599616,
    0.26094126385564675,
    0.21013386623994584,
    0.3036076307232099,
    0.2206376210815932,
    0.19667347416387287,
    -0.11945124226716498,
    -0.17521495540652715,
    0.11067708839075034,
    0.09918286334679825,
    -0.14464608572504,
    -0.26390421551241217,
    0.078690423083598,
    0.3939998486645577,
    0.3538028050442741,
    0.38634298101312486,
    0.018701601879946905,
    -0.014244729375396562,
    0.30181437647791437,
    -1.2876642243829193,
    -0.2627156267091814,
    0.28633570610073455,
    0.2587659966190112,
    -0.42380700963634904,
    0.00991333651955049,
    -0.09267844313982518,
    0.24442994905722226,
    -0.2528659736395156,
    0.2289252878728599,
    0.0035310196574463693,
    0.25223665723683947,
    -0.07175127707485199,
    0.3511295258262575,
    -0.027560159160999447,
    0.026248767857061726,
    -0.1847658410776049,
    -0.18046157536859683,
    0.27174360067667547,
    -0.05624056438598177,
    0.03023168495644533,
    0.07933282890101023,
    -0.007465231938461116,
    0.16227032789803045,
    -0.1703050054572173,
    0.10966289231166824,
    0.6493875345431963,
    0.21185361801800148,
    0.272028614033964,
    0.2165700068141299,
    -0.5654830155186191,
    -0.2822968816886337,
    0.2239820626718164,
    -0.1353081710068179,
    0.8408150043970156,
    0.16494409990777623,
    0.052121886045003125,
    -0.37037939827912203,
    0.24384954162039513,
    0.044590202165984194,
    -0.08110255828960755,
    0.32890148925790863,
    -0.15300426842428416,
    0.10706733391994087,
    -0.4043253982780077,
    -0.07037507009511607,
    -0.1700954593455941,
    -0.3811627036107873,
    0.10362180186172949,
    -0.23561437287314993,
    0.02654257528953733,
    -0.11295484331462428,
    -0.18620231397282708,
    -0.14668819971988448,
    0.1202564936756506,
    -0.22172791961282123,
    0.11524187267608392,
    0.009208725608444546,
    0.05383718140976471,
    -0.1491148234478413,
    -0.042821834058482805,
    0.29125101609693005,
    0.3207571472405422,
    0.4677802170943321,
    0.23477737224066658,
    0.13464180293507455,
    -0.033100727732238766,
    0.30429731988317066,
    -0.9160869318990631,
    0.2251278963406659,
    -0.052186570070135656,
    0.11397905923094574,
    0.07336927650794692,
    0.15749939104581218,
    -0.03964847717066098,
    -0.03336358572269266,
    -0.007171086146783676,
    0.26251009577777307,
    -0.2319047925015885,
    0.26540000271197806,
    -0.30748109008848074,
    0.6629400829059169,
    0.06287268934057866,
    0.16224941033718226,
    0.1621573575037774,
    0.08399435472424549,
    0.11707020569823548,
    0.14402228578378637,
    -0.032712799949067214,
    -0.249520573089407,
    -0.13675784945344638,
    0.2787515942953567,
    -0.16444878704648033,
    0.1443853631596447,
    0.1320882049698923,
    -0.13733706506104182,
    -0.19095752240670658,
    -0.03428479014675305,
    -0.17797366693490269,
    -0.1760478616489072,
    0.019587638857751066,
    -0.07610889642690606,
    0.7598329652592749,
    0.05168867992800972,
    0.12722086838755337,
    0.10275719272693944,
    0.05057464351101875,
    0.23977791708833315,
    -0.1118050026537832,
    -0.07915194878282229,
    -0.007031735257020438,
    0.2844680240533623,
    -0.042112049739516336,
    0.059685500558909296,
    -0.18644946675352372,
    0.6026975483716298,
    0.11727787904212877,
    -0.036389565068441536,
    0.11917654618817047,
    -0.11506283600655698,
    -0.10770164865568739,
    0.22714842929353368,
    0.08695781758994195,
    0.21930757648681637,
    -0.12148779215595655,
    -0.09086114510593842,
    0.10448450966750727,
    0.1713421004304311,
    0.09532106264943699,
    -0.09169634355592023,
    -0.305087472749252,
    -0.26248697425344797,
    0.08468556039614034,
    -0.11584992512534438,
    -0.05030226233469261,
    0.15692449073433884,
    0.82796492077867,
    -0.15121861399639774,
    -0.14453289283232656,
    -0.37246754355661343,
    0.39631406062410496,
    0.028902820745287622,
    -0.1659383403484202,
    0.08106823672527261,
    0.08657341776328055,
    0.015852058998533924,
    -0.06387396846428567,
    -0.14703723255577866,
    0.18700694220305047,
    -0.08337572688140453,
    -0.2403128405046402,
    0.16995389453691873,
    -0.23821086326133606,
    -0.020121775503240926,
    0.169883519208775,
    -0.16957433533477062,
    -0.04387087811505064,
    0.08814576916356008,
    -0.04564778604931598,
    -0.2736022090171383,
    0.013706948790993437,
    0.22800212633160877,
    0.0758516446333096,
    0.5925355592950519,
    0.34762788904831426,
    0.3938573490971482,
    0.17248869410304155,
    0.4585185150680433,
    -0.08597242270202583,
    0.02934065619220745,
    -0.34999955384034653,
    0.17017930174217713,
    0.05655964753853167,
    -0.12176549811816813,
    -0.18194098399224096,
    0.23780475362096826,
    0.10992692934641007,
    -0.06478388416447516,
    -0.16259331516684875,
    0.12411842450693272,
    0.07180207375706481,
    0.09793451533823704,
    -0.1105869856770218,
    0.4639576809070775,
    0.06541678027589984,
    -0.24440745624413884,
    -0.11079462948918604,
    -0.3556330655995339,
    0.046849016671399284,
    0.14478527101927813,
    0.16903112618413643,
    -0.18932103108965997,
    -0.43988524306409,
    0.24401608253052157,
    -0.26287290460120283,
    0.15009857383305478,
    0.5628413135017303,
    0.1830308946579058,
    0.19737662670762562,
    0.08692612657126317,
    -0.10951824694274483,
    -0.06336943804518477,
    0.07696732680333328,
    0.19844260952124795,
    1.0231708557935835,
    -0.057279302659553916,
    0.22328470283553983,
    0.11226564844979639,
    0.07789283749104524,
    -0.15964481260955396,
    0.034615680211195425,
    0.1432308166360434,
    -0.07949901726331292,
    -0.19329462926629068,
    0.19410322437288477,
    -0.18236686056171542,
    0.1796322183406936,
    -0.30562899613119815,
    0.06963446901936646,
    -0.007889689440383636,
    0.23816439854014101,
    0.015829528725574523,
    0.3161091961837341,
    -0.07803452383997968,
    0.07159096470169662,
    0.08953082888709746,
    0.019150501689767813,
    -0.20465623087289989,
    0.05419605306581857,
    -0.035588609470272106,
    -0.12518414414183054,
    0.09084009058671041,
    0.17029626625742528,
    0.2617541848508948,
    0.10715396512528211,
    0.2937035123268784,
    -0.16104336026978938,
    0.11444699244868822,
    -1.1442661938981478,
    -0.025562772030391888,
    0.15831196522134003,
    -0.09322397030955983,
    -0.1556986129109493,
    0.07176464183365307,
    -0.280469750848569,
    0.0524863798807141,
    -0.06295551965037206,
    0.13512581725704176,
    -0.4688331741741259,
    0.10456177008233802,
    -0.14790751914601413,
    -0.18928730722665454,
    0.0112316862551129,
    -0.11074049075742101,
    -0.18589333579330033,
    -0.10073915130229871,
    0.0018416973452282446,
    -0.4679833929563416,
    -0.09085328686428604,
    -0.2059510322325675,
    -0.07543100998537085,
    -0.0639542305106127,
    -0.23565446539074725,
    0.23475719399225387,
    -0.1634007258588157,
    -0.14287002728513643,
    0.25392331822875075,
    0.03225500144234725,
    0.013911390973067204,
    0.29556358356314244,
    -0.02704107396229031,
    0.40311311712015174,
    -1.1158618093133874,
    0.09798678100529118,
    0.0140833571065306,
    0.22931071665171435,
    0.14837541972823504,
    0.148201467213484,
    0.290256780685929,
    -0.11890973766233152,
    0.13515642603900108,
    0.18194026900225313,
    0.17794540511488505,
    0.017114904895944496,
    -0.16730990681998703,
    0.4177155791283049,
    0.20140232385133672,
    0.2878155884210898,
    0.18146569148788963,
    0.05087726174791249,
    -0.05581784874218629,
    -0.09199430100806963,
    -0.06951026905492992,
    0.13196440835372614,
    -0.24439804902413104,
    0.22708059970247257,
    0.09441712886427658,
    0.09008867718594853,
    0.11152725958414894,
    -0.07906962457183361,
    -0.08091135290173247,
    -0.26865770918460385,
    0.20933711702392843,
    -0.08370675243781306,
    -0.15582670015746028,
    0.15631698696483184,
    0.5863947394074328,
    0.025235757527451285,
    -0.2231524690884735,
    0.16744393245393754,
    0.03741443401151907,
    -0.13160039428914427,
    -0.16492302375874723,
    -0.15387882978854656,
    -0.06612135300926543,
    -0.0659848173934113,
    -0.13408627790469346,
    0.09575471178937765,
    -0.014977823290518005,
    -0.15862388259400587,
    -0.12855610031952985,
    -0.2058955467355603,
    -0.16102061147619087,
    -0.0911519338064554,
    -0.11675104512958534,
    0.22356550694338587,
    0.10733456734459387,
    -0.08546107532953938,
    0.14553433751114206,
    0.12979001379526384,
    0.11261894807747125,
    -0.16926008173730614,
    -0.03001805273768058,
    -0.16971502325339902,
    0.039149694417793826,
    -0.15399705684594928,
    -0.10881232560710401,
    -0.1306324708416244,
    0.003067362137523375,
    0.025008992206083134,
    0.011367622216123209,
    -0.08294791207037865,
    0.2012977505490396,
    -0.16860085792133903,
    0.2964355912548304,
    -0.10026202243431823,
    -0.2430060738094252,
    0.13270408528241634,
    -0.11978173252632815,
    0.012620367499180524,
    0.06026222390556584,
    0.13080902079246973,
    0.22493701301079697,
    -0.7628285961798572,
    0.33849921612567,
    0.19453945199736344,
    0.04047889749824451,
    -0.18238441451669032,
    -0.23214818100763193,
    -0.15780002874343574,
    0.41165209995642543,
    0.312279761107354,
    -0.07258988717718623,
    -0.0031140019866403483,
    -0.025922926087186753,
    0.048408989829731366,
    0.014551440638651087,
    0.5404655181820659,
    0.6859078209826468,
    0.5225339867518005,
    0.04134845721696398,
    0.07666672941967131,
    -0.024888379509899212,
    0.4546032549536729,
    -1.162006287763694,
    -0.5203128293528181,
    0.0046366360108568904,
    0.33046790883552796,
    -0.6522778068273551,
    -0.2917618423098851,
    -0.03187521476495253,
    0.06141440093242432,
    0.1784186201912155,
    -0.07778081453894899,
    0.20552940444763254,
    -0.10051406311290206,
    0.030680401213552477,
    -0.4191776837501115,
    0.21818849417741235,
    0.06312335382378692,
    0.11475283123264425,
    -0.38257338719110623,
    0.07081627162566247,
    -0.09126882086095824,
    -0.26666377174200345,
    -0.06676470542613765,
    0.20675224798206546,
    -0.16335103089919809,
    0.21832923875213495,
    -0.13140553403982133,
    -0.3230850859313023,
    0.06890157306126081,
    0.2339188305863532,
    -0.018393214222366658,
    0.12275360484613855,
    0.26336938582617275,
    -0.0857242855058651,
    0.14405279183165506,
    -1.1598309487461425,
    0.044487565954396756,
    0.226468800798905,
    -0.10567984048719935,
    0.25822211312368104,
    -0.05304603247392586,
    -0.02678505169501668,
    0.13615108816108507,
    0.07303370433191729,
    -0.061727910282908874,
    0.30641337349562375,
    -0.1058733083425179,
    0.25900907610556695,
    -0.6100852151420835,
    0.23457111658480817,
    -0.11177248146058018,
    0.1681427901875636,
    -0.0736694057319568,
    0.38721196323729073,
    -0.18440005166212167,
    0.10135585802783527,
    0.1672219503190866,
    -0.1364614765276771,
    0.1321486851204686,
    0.18853299845274338,
    -0.09413710977130339,
    -0.2765755099230307,
    0.36643252021506156,
    0.4326311216129519,
    0.1972955181760419,
    0.10689204972102166,
    0.1676280482601553,
    -0.039257076526698624,
    0.05602444846002372,
    -1.2778462064308282,
    -0.033600144597804825,
    0.07923134584414583,
    -0.16423197513881582,
    -0.03167059418675909,
    -0.17596030795827225,
    0.07123204937657684,
    -0.08937394561400878,
    -0.22974736432011736,
    -0.0018887711539813609,
    0.04753696946176931,
    -0.00022677508567961263,
    -0.12897206872470182,
    -0.11190656038086728,
    -0.10663838285777154,
    -0.014586187932407792,
    -0.13304195233164756,
    0.06148107720531488,
    -0.04301001881764169,
    0.14026864144515436,
    0.027479330523014187,
    0.02128510791818967,
    -0.04806940283664674,
    0.0011830024773187584,
    -0.07082788613855955,
    0.04583280492910023,
    -0.012608078480028874,
    -0.1512806920834539,
    0.006009799100842494,
    -0.1318936537645275,
    -0.21563489068711508,
    0.07911336616372709,
    0.13775488872297106,
    -0.1776730730764678,
    0.2027586601077498,
    0.33941121082533626,
    0.10744659501009379,
    0.1488280160961936,
    -0.20115252216001217,
    -0.09571648409807446,
    0.20920357001012457,
    0.024856603588057753,
    0.2838450095944086,
    -0.01005000886732231,
    0.23941952080994836,
    -0.204473831104256,
    0.1776821391973277,
    -0.06460070175442327,
    0.05671828264329942,
    0.17471583248014735,
    0.029710403722258465,
    -0.0630420416671626,
    0.21642936457782674,
    0.09237527489548274,
    0.1690214202543761,
    0.16896381250624543,
    0.4080286268397202,
    -0.05735142907379831,
    0.35500197748700024,
    -0.09847118903933906,
    -0.004393431580334166,
    0.005495112667621287,
    0.2213802004216864,
    0.42962154405116604,
    0.26812182186288774,
    0.13446569699613775,
    0.011909805174083847,
    0.20312120672987932,
    -0.6254402159774104,
    -0.06068055151401859,
    0.0694042077731585,
    0.044245437639765295,
    0.28305253319678864,
    -0.2907081327778394,
    0.06419399373675538,
    0.10157311122415681,
    0.26206672737004527,
    -0.04435447082959575,
    0.3222122373546219,
    -0.035610233850202476,
    0.06875891657426147,
    -0.5491973824386002,
    0.3005008730054329,
    0.1867284717581703,
    0.26589102451895674,
    0.16871501766044306,
    0.02224472945344968,
    0.008978136862596858,
    0.2602122482863807,
    -0.16324585146189247,
    -0.05639888068633437,
    0.016758742712656136,
    0.11800206042963536,
    -0.10732007165265876,
    -0.3028031602191233,
    0.18928564181429589,
    0.43149652203642797,
    0.30146622460691186,
    0.37580940827468556,
    -0.04068762307330849,
    -0.20023402409773527,
    0.17618638483072874,
    -0.900885305231144,
    -0.024109366020892156,
    0.12262003819535373,
    -0.14463880699149878,
    0.35051572133381576,
    0.40413583876206444,
    0.09611676487805618,
    -0.2888747573171694,
    -0.0456932601632636,
    0.3668461087239832,
    0.05273386294174981,
    0.08240289519007214,
    -0.2478232991319683,
    0.4141932069967051,
    0.07173905221878978,
    0.11664776895915548,
    0.2506714518328251,
    0.32219352574135,
    -0.20304205654514534,
    0.32369081421729323,
    0.05509321725416522,
    -0.036063226087685585,
    -0.017198491368776526,
    -0.09937120090726097,
    0.15987852754103188,
    0.2246010569387311,
    -0.09145824336019208,
    -0.2863029137390917,
    -0.2808523990056755,
    -0.39857720382789674,
    0.05990633079101171,
    0.14793208210052922,
    0.011641783621202299,
    0.06838637587247084,
    0.5226579769842117,
    0.42351921059354664,
    0.06568723555182716,
    -0.07310143874618927,
    0.06058527744747405,
    0.11575801336401931,
    -0.0782024551968985,
    -0.06628314341406819,
    -0.17049407993817076,
    0.1301985550321194,
    -0.09962315174691706,
    0.13648901885087927,
    -0.13705791641293294,
    0.7687519561229823,
    0.14853799480769106,
    0.0032131918158698086,
    0.19093765089751888,
    0.07054611969846965,
    0.09907450039010159,
    0.003934591866657424,
    0.08534895156188713,
    -0.01965847410997487,
    0.04287744222176966,
    0.05863118488735234,
    0.012087938447369207,
    0.08371734008298679,
    0.3821019891771643,
    -0.12215687600621017,
    -0.1638344108977667,
    -0.0634815798879082,
    -0.04581643440271441,
    -0.25846507171549077,
    0.1342128568175985,
    0.0914425650506595,
    1.0362523456441997,
    -0.18150911959650876,
    0.08591460740473349,
    0.1328665522600065,
    -0.07905991582928017,
    0.08541483886229943,
    0.03840101644733961,
    0.01858463520824616,
    -0.14304103235048393,
    0.08843401704197253,
    -0.25793951704545,
    0.3030895745790602,
    -0.146059642439836,
    0.5076737682736437,
    0.0916720630467228,
    -0.0007068206100883431,
    0.1278145535833291,
    0.25439864224946784,
    0.06379628363113213,
    0.034676478938633855,
    0.07774587501362244,
    -0.05448691378007339,
    0.08488520774328795,
    0.03771138223126109,
    -0.015338188725444001,
    0.015757107788606402,
    0.11008882880491667,
    0.013945339283940358,
    -0.27331136926978095,
    -0.1705167402146784,
    0.03787741866776003,
    -0.07344654322050272,
    -0.018910190775934484,
    0.2813154590905228,
    0.6645410592116179,
    -0.37561963966125095,
    0.32533533770339795,
    0.010335843025960249,
    0.3001130292842376,
    0.3236479484093375,
    -0.18011392085949274,
    0.03171581645054709,
    -0.15933692238089278,
    0.062356975044094265,
    0.0734962156961087,
    0.18159086306135985,
    -0.3152570211071861,
    0.5682511686051714,
    0.324649881659464,
    -0.18767509227905296,
    0.013274359503470766,
    -0.02479800467576972,
    -0.24826780544586965,
    -0.024692419537006148,
    0.38495388481662185,
    -0.28631200512407023,
    -0.19014099657706116,
    -0.07265235004740393,
    0.1464912104416237,
    0.2711075039559779,
    -0.3396175110055027,
    -0.5728641370769105,
    -0.14661977126834339,
    -0.12056436385783224,
    0.14792574186808705,
    0.10419647899724649,
    0.05287086510750065,
    0.0909562927992107,
    0.8594995563872602,
    0.36572638908816724,
    -0.17817260776777763,
    0.1108764169921267,
    0.06911864472555722,
    0.15818300755107606,
    -0.1615174855519978,
    0.10475458215830503,
    -0.11975968027515745,
    0.21948199911481328,
    -0.2597734840012822,
    -0.026986275308117754,
    -0.36358084527145074,
    0.2782406289484495,
    -0.21145075755382903,
    0.15444453498313704,
    0.1324751892173852,
    -0.12115526318917476,
    0.0783468698776459,
    0.06491590041901088,
    0.0761269794898959,
    0.16424931142210902,
    0.011749613046323663,
    -0.08264911724252609,
    0.21339629807262414,
    0.36540292469464686,
    -0.04865422935221466,
    -0.084715185977432,
    -0.22530827976799636,
    -0.0815664687549681,
    -0.08113793946835779,
    -0.14800616178349318,
    0.1622603851949323,
    -0.04531317980151603,
    0.4855925823647707,
    -0.029549256981621145,
    0.1798017762717951,
    -0.42599034587432905,
    0.054764363757748166,
    0.1284039788591006,
    0.1958048000731146,
    0.1861603273382464,
    0.025061910063984248,
    0.13445252359953744,
    0.08361055875183702,
    0.00804370454562189,
    -0.13028073959660091,
    -0.24622298895271888,
    -0.10300205754466855,
    -0.3201532544487752,
    0.21628829844289815,
    0.2188810657849469,
    -0.14571896902752884,
    -0.23793333571752673,
    0.44890052226616384,
    -0.4436179797298743,
    0.10305939544694538,
    -0.07165021481014096,
    0.1639733976467118,
    -0.17424147444381138,
    -0.0890455432547931,
    0.4060894165611788,
    0.30705025249425794,
    0.44707770611561226,
    0.2455527375547853,
    -0.016269720809432037,
    -0.04459028176793754,
    0.12994457812931762,
    -1.1160239310104159,
    0.1529614942894792,
    0.151608598540901,
    -0.2511277305752345,
    0.09850201555549484,
    -0.01900814238266149,
    0.0575218632518533,
    0.12206615124249635,
    -0.004172633369540876,
    -0.10454915154319369,
    0.09910773787915027,
    0.007219025083002843,
    -0.09292425541692341,
    -0.0015164333629175085,
    -0.18518145698565164,
    0.2699068110118653,
    -0.04096789330010942,
    -0.1545944151210715,
    -0.026948179577207892,
    -0.17612503481459252,
    0.2753548926389491,
    -0.10544170866948066,
    0.039006488963046766,
    -0.08965462960220362,
    0.4524703979218648,
    -0.02535422558802677,
    0.015184724635505463,
    0.1861715366445058,
    0.09722096737317819,
    0.26256683790456053,
    0.13507538952861164,
    0.39951939216629917,
    0.006114489868886973,
    0.1706325961913141,
    -0.9298096159804553,
    -0.027610185488639985,
    0.19695035570856623,
    -0.5255270647709517,
    0.673809448757201,
    0.09606520374348677,
    0.056479938707128995,
    -0.1301213317755825,
    0.2580132946173255,
    -0.15369032889053177,
    -0.18892881355674088,
    0.07691067380189613,
    -0.0687980491458277,
    0.20703349230109427,
    0.13261058081894914,
    0.10306154232331143,
    0.055120292447100705,
    0.021913092019293007,
    -0.1874574012667686,
    -0.2287659878316664,
    -0.2254171867805155,
    -0.21892127972273467,
    -0.04059878694397497,
    -0.13230565911330336,
    -0.10649749906904457,
    0.25319312264299004,
    -0.5573943988553515,
    -0.6719644930496891,
    -0.3760703390020589,
    -0.262229284357013,
    -0.01295998456799326,
    -0.13517509416916332,
    0.0898353665305353,
    0.16862442097643943,
    1.0029249851748627,
    -0.24059316310597215,
    -0.07638173846355437,
    -0.1132081934542721,
    -0.10968302176353116,
    -0.05457908725451129,
    -0.1454668121256677,
    -0.1414840365302732,
    0.06785810420444242,
    0.11660884863771621,
    -0.10520457567270024,
    -0.09319052579532894,
    0.17088096585846727,
    -0.054229599930867824,
    -0.02119644986597417,
    0.008082736148181868,
    0.06314599466684684,
    -0.176510681998518,
    0.06438263996335078,
    -0.24107494967309476,
    0.10634752663929552,
    -0.20987939212652496,
    0.0399107511361775,
    -0.101621717826299,
    -0.19748327958673786,
    -0.18789624681277997,
    0.10137843357261916,
    -0.0534363702974123,
    0.034911115451437685,
    -0.12041628606792591,
    -0.21561515680968418,
    0.06733287165069364,
    0.032912635120570376,
    -0.1689262407938073,
    0.24574372649390033,
    0.2319057947471514,
    0.029003635102374966,
    0.22581116297355797,
    -0.36744803583325003,
    0.31573741213086126,
    -0.2301092378167158,
    -0.00011343885007441793,
    0.059294196567869564,
    0.08496086403241734,
    0.09503368775100499,
    0.019520344792902378,
    -0.08261374813058307,
    0.4871277748897959,
    0.004165656680652359,
    -0.17349157395699003,
    0.190131313737774,
    -0.33723154393182664,
    0.1433852178310542,
    0.08376755227470171,
    0.18819730400920304,
    -0.115912181978725,
    0.041654844142692056,
    -0.06688840477379716,
    -0.1324737191446421,
    0.024290093992634813,
    0.4122619486586724,
    0.17681280601465582,
    0.19430620177925514,
    0.24340100481925128,
    -0.16087023311089899,
    -0.07163661806877245,
    0.06867486404053537,
    0.18182931349831297,
    0.8877337879004032,
    0.14799346130175314,
    -0.15495768216254688,
    -0.344160367685404,
    0.4355059586179949,
    -0.06048537219395973,
    -0.026792553252897193,
    -0.11890983215647025,
    0.11112045527690845,
    -0.39173940233788795,
    -0.2549431420690246,
    0.10223760131200782,
    -0.17993111041268048,
    -0.3061757125067333,
    -0.20531087372958345,
    0.2991356010849878,
    -0.0034700927325577112,
    0.1668666761021916,
    -0.08884085472309909,
    -0.06294217773089521,
    0.06921278109051145,
    0.008034943598052948,
    -0.08462452868291305,
    -0.0033075306264287747,
    -0.12153342549834201,
    0.1958656035197381,
    -0.564367534747199,
    -0.6217940772701566,
    -0.36969223642903637,
    -0.33772483929235997,
    0.04539028528033375,
    -0.1289332447858959,
    0.021366671457114152,
    -0.1763970599341759,
    0.0734426834125154,
    -0.12973403482774054,
    0.11587531137019809,
    0.22036984563162465,
    0.22485337291097512,
    0.00756957791093583,
    0.08616120685596358,
    -0.09010712538927902,
    0.23001250811017832,
    -0.05827619748284688,
    0.07821128270785865,
    -0.12229218968637025,
    0.14139207372356397,
    0.010617208204754711,
    0.1621619244818707,
    0.055178687950085306,
    -0.11022444652697788,
    0.12452253943325929,
    -0.08565751963250703,
    0.1428053386520039,
    -0.19698550370979925,
    0.129688464628658,
    0.010597585354811027,
    -0.2232246810283361,
    0.11382430770950559,
    0.0027643253974925937,
    0.15557695639000851,
    0.06052010185428292,
    0.03321021231953688,
    -0.03551657933343783,
    0.02503389979530517,
    -0.05244507422099637,
    -0.010481152563797046,
    -0.1669103951009909,
    0.11067581897393038,
    -0.01880101870639067,
    0.015528232874052196,
    -0.2428488281804676,
    0.5407852031694627,
    -0.01833933227244112,
    -0.1217224761656724,
    -0.019416469597412406,
    0.2068250740031711,
    0.14425546053175303,
    -0.24465659876219542,
    0.21782266547923448,
    -0.0497017266894268,
    -0.13315993808829674,
    0.18899812442216035,
    0.1527107543368936,
    0.037335601506346676,
    0.342686966901096,
    -0.0954495999819567,
    0.026839560912237204,
    -0.19192219377977018,
    0.35804828370894337,
    0.2463814854331149,
    0.1347661691811205,
    -0.17463371036630224,
    0.22698043463041637,
    -0.5689514769595967,
    -0.9066159080178494,
    -0.5789334531278391,
    -0.3876415565487065,
    0.054127761426119816,
    -0.15278238012529025,
    -0.07962180998259383,
    0.07283043161020457,
    0.5770753172461042,
    0.3943337776202498,
    -0.08572703681296376,
    -0.03330822857215362,
    0.12136973343950282,
    -0.04452821898066527,
    -0.03348561141307606,
    0.08862509694293762,
    -0.19274736791119804,
    -0.019160112758396783,
    -0.16960977934133553,
    -0.22589177144162056,
    -0.08030468876166404,
    -0.40190601851184354,
    -0.019894220787273535,
    -0.03039134292328132,
    -0.14474125152987688,
    -0.22020770609047788,
    -0.08087207599319271,
    0.0032022428925193957,
    0.017763745441639313,
    -0.1724920441388706,
    0.03570173821450856,
    -0.06602192603880812,
    -0.1470302132450078,
    0.034276382858124496,
    0.012633917926459631,
    0.21827801798614024,
    0.17067625338651915,
    0.1663152874491217,
    0.17864429426453282,
    -0.0490130487117166,
    0.05612842916654639,
    -0.1453588061657536,
    0.04129188556913848,
    0.19710720647992633,
    -0.1293650053933019,
    -0.3176410966593884,
    0.5845016061913971,
    0.13643139408906496,
    -0.05937167670015847,
    -0.1615944324778678,
    0.0030356840284258154,
    -0.1430809604029544,
    -0.23545307961637682,
    -0.21443008062558874,
    -0.09654415197157935,
    -0.5025400325439717,
    0.1296468663261124,
    -0.04115155668333102,
    -0.08959861241388319,
    0.0853927227331922,
    -0.20065485476041414,
    -0.02549246939219743,
    -0.11816477073022495,
    -0.004053980687258089,
    0.14353988380353752,
    -0.13648783841322723,
    -0.054878889429048006,
    0.17425380231556659,
    -0.5865536805527961,
    -0.5696936395155682,
    -0.6059591500236174,
    -0.7203139724204463,
    0.08190911467610197,
    -0.01631833568904264,
    -0.0761408524812574,
    -0.10942985558794038,
    0.193885423672944,
    0.09341825252022833,
    0.2518097153055279,
    -0.5353407350818037,
    0.3847435524342068,
    -0.02950896624445392,
    0.07300382132864598,
    0.3010314167188033,
    -0.211564648604331,
    -0.015056574043506781,
    -0.16204978342453802,
    -0.005674318657704907,
    -0.08070314862737103,
    -0.2597990667840978,
    -0.01464471462720991,
    -0.2819360845047787,
    0.1796635851077904,
    -0.05181994920202231,
    -0.22781334740192852,
    -0.4221624594439631,
    -0.036937176685883595,
    -0.13948069441804534,
    0.012274036698075608,
    0.04551591891702986,
    -0.008714040512114676,
    -0.324671904978054,
    -0.1312954746877901,
    0.5401930595991348,
    0.8241689623775474,
    0.6326422875585417,
    0.02604873410596347,
    -0.04514191305474896,
    0.1478116403507765,
    0.2799923789274867,
    -1.2369758626757594,
    -0.11894862577883945,
    0.009140833164195398,
    -0.07744983715339288,
    -0.15455518451610023,
    0.03293477957570982,
    -0.11352814036817385,
    -0.12675306768438505,
    0.06820899105520849,
    0.07132452575081927,
    0.13783120481238537,
    -0.12784631852765085,
    -0.18593652178821413,
    -0.011646042669241448,
    -0.2045827162837384,
    -0.038876137214792786,
    -0.2511516331851592,
    -0.1474751682565641,
    0.03858239537062191,
    -0.0005474801990614009,
    -0.05962120445511275,
    0.09450112938923469,
    -0.11443260140732117,
    0.09251128623650708,
    -0.176773268638906,
    0.02547378752650778,
    -0.09684998162406004,
    -0.12604076410362267,
    0.020998136445991248,
    -0.22325247786173844,
    0.034950774411610395,
    -0.13277474643670234,
    0.09071324778621621,
    0.05717732222655563,
    0.028619643200437212,
    0.030593233531109144,
    -0.16917530054519822,
    0.2925657635477367,
    0.09773468660792416,
    -0.1180902840682368,
    0.007766229088339903,
    0.20139202566018752,
    0.08862776970174482,
    -0.11954135713716214,
    -0.018203419241409894,
    -0.18979805060266042,
    0.1810796223300245,
    -0.3628104594600365,
    -0.0010056471187055423,
    0.02765924573429895,
    0.10566963275415318,
    -0.11126615884849429,
    0.1431804593341035,
    0.0976481040538976,
    -0.09325803249616801,
    0.19868380512675665,
    0.243367249892654,
    -0.09506235484637972,
    -0.14992884360366288,
    -0.08993050575849712,
    -0.1831691978199912,
    0.22874936006284485,
    0.24770913500068456,
    -0.0914883142760555,
    0.2553778444930817,
    -0.03024308223692843,
    -0.07563955487339431,
    0.003039035100619506,
    -0.6270298565008233,
    0.4375505271953997,
    0.08588141372498861,
    -0.43187416592825617,
    0.3332383756093002,
    0.3566376972041571,
    0.04396292895473014,
    -0.09504023344443725,
    -0.12033122243116343,
    -0.03379996032252099,
    -0.1750324053035827,
    0.1312616924476067,
    -0.05855394408777366,
    0.502276293109379,
    0.23921101228938824,
    -0.2016030698234183,
    0.26418424692631853,
    0.140572948735737,
    -0.26610678535093735,
    -0.22977100423810337,
    0.03433137682975695,
    -0.4032558362194438,
    -0.23713308481669593,
    -0.16769172515332686,
    -0.155731559391022,
    0.06653387414344536,
    -0.34203704298283555,
    -0.49627746649238436,
    -0.22916863717613078,
    0.07491815591727052,
    0.14954710886124634,
    0.20847287382052043,
    -0.04654426710832136,
    -0.04072112116356704,
    1.1192205209827029,
    -0.19564648231534357,
    0.23786975703475294,
    0.2937274706941635,
    -0.2445648637940856,
    -0.07746049004603271,
    -0.10993798542572322,
    0.004355890614720144,
    -0.20753494047618842,
    0.023481138477101583,
    0.0614216195674587,
    0.22628206684732782,
    -0.15384389323561642,
    0.7349845102583914,
    0.0016908992881372144,
    -0.15231619549042547,
    -0.0008784874459834551,
    -0.39451763646838023,
    0.20069245077360617,
    -0.05014816579575563,
    -0.010440477346104626,
    -0.03059709139170483,
    0.033064161653595235,
    0.09238749628253654,
    -0.312012637308424,
    0.028372539807806588,
    0.685981093392178,
    0.23012979244910511,
    0.25935806210757395,
    0.121667876229583,
    -0.4742707586650834,
    -0.24291649261436754,
    -0.006008872772722965,
    0.0004656569082299831,
    0.9104598059265891,
    -0.09518081456978197,
    0.3035657700575043,
    -0.14530626769869678,
    0.30584411893601277,
    0.17412382332684906,
    -0.2635304527911072,
    0.15904872656505276,
    -0.09375581088768037,
    0.143743185183182,
    -0.49651326894326747,
    0.13526687435719834,
    0.013281868772854788,
    -0.21486453092394645,
    -0.08994436781847677,
    -0.06697825377258654,
    0.07365732652788055,
    0.14060248111494833,
    -0.17763822861164036,
    -0.1868842079142612,
    -0.10948936420432334,
    -0.10697655430543535,
    0.07029668130072539,
    -0.1298257220783234,
    -0.20131512737834248,
    -0.00319363804930585,
    0.025319865343785462,
    0.252038305689313,
    0.1917006899418536,
    0.2892459352644721,
    0.05906906128406871,
    0.13462226193664506,
    0.19714689609566938,
    0.4129384697082263,
    -0.8438922547226968,
    -0.2210165558307762,
    0.13691471766459487,
    -0.301436059831402,
    0.1105493425604055,
    0.2306187240054138,
    -0.2792483785414687,
    0.2770328872884193,
    -0.0626775760182256,
    0.04102839415099352,
    -0.02533085314212508,
    0.08282313541089732,
    -0.16666668183673655,
    -0.14666356382559903,
    -0.13730372752846484,
    0.018919357701323906,
    -0.17650390785482525,
    -0.1813691086381436,
    -0.09349233863326382,
    -0.3547989179168554,
    0.1444059094324685,
    -0.1216545273391908,
    0.12043966105043051,
    0.1638515975188208,
    -0.1895394364466615,
    -0.09433755436430963,
    -0.03801415599925705,
    0.1773847794964313,
    0.24716897914637195,
    0.07028737439065157,
    0.026585235258081864,
    0.19980271422139456,
    -0.08424575745345295,
    0.33037859503731715,
    -0.8824597818549026,
    0.095301603290977,
    0.24215568465863477,
    -0.058970727673116424,
    -0.24745111643070158,
    -0.11581805283219457,
    0.3154770848138567,
    0.16069717019746288,
    -0.1761588462489301,
    -0.08874416725774001,
    0.13604875422156829,
    -0.05766566934337338,
    -0.1991681205086371,
    -0.22664690256900233,
    -0.017915734936043225,
    -0.04423273778594783,
    -0.07847980190681979,
    -0.2192133967351162,
    0.3239365173190649,
    -0.09041273922940542,
    0.019492529543519158,
    0.044294779716102614,
    0.035661873509718084,
    0.20653975236797392,
    0.10216927014833443,
    -0.39928719128945545,
    -0.2165068005859752,
    -0.11413737533138518,
    0.15472133452113646,
    0.1647245573233727,
    -0.13267922372277216,
    0.14170090711826527,
    0.023368799328629203,
    0.1493801483149052,
    -1.136963244538788,
    0.09302729170109958,
    0.17677557021875698,
    0.22292342388296782,
    -0.250433175882567,
    0.16058770490069704,
    0.06627967978321843,
    -0.06863969064619846,
    -0.04768343638236193,
    0.11213777072255654,
    -0.014290215984298943,
    0.31894754257068725,
    -0.07538025889372374,
    0.6493688243671292,
    0.014186487734727814,
    -0.20278255591233807,
    0.06312814569408155,
    -0.03119812287385958,
    0.05346119855296503,
    0.09611633963487098,
    -0.052434864947577285,
    0.1008734418528965,
    -0.14909612096689764,
    0.006587263683854684,
    -0.070774521182044,
    0.5268543410126137,
    0.3864578652611344,
    0.17228231475980285,
    -0.017977111383591555,
    -0.1506044013789291,
    -0.17962236837824325,
    -0.0010703108616740649,
    0.07790563989453028,
    0.20075453240868893,
    0.8602294064714667,
    0.06967162394260304,
    -0.23061903502526385,
    -0.5599330372852701,
    0.3205335380838262,
    0.11882279957671898,
    -0.04745352715262719,
    -0.36965481169766073,
    0.23065670275655617,
    -0.12656925691510265,
    -0.37899258515138556,
    -0.07653826055390169,
    -0.47780056958424816,
    -0.813651257831633,
    0.10074513970912007,
    0.10461160576362961,
    0.1553437334605035,
    0.3554814065292916,
    -0.3468483325460338,
    -0.372077251290421,
    -0.24284591229159183,
    -0.4332321215454853,
    -0.016833356402371956,
    0.2878938845213703,
    0.00882709507867443,
    0.1976457639221033,
    -0.8330497946219761,
    -0.36937732983351346,
    -0.4213081153925342,
    -0.6122364887725188,
    0.32980895806356586,
    -0.22227072481450025,
    -0.15171972393149374,
    -0.3344244297009961,
    0.303643844269063,
    -0.11660759942327067,
    0.09251175454052195,
    0.07477622999627724,
    0.15721354927198944,
    -0.16825424654005086,
    0.02573489007627176,
    0.10380778756240823,
    0.13507741476039303,
    -0.129862323832397,
    0.13316127807756112,
    -0.11462980306395816,
    0.17916255391687283,
    -0.49056710979584,
    0.11259608889403655,
    -0.06471336446384342,
    0.20180548755926703,
    0.08000690284304952,
    0.16133910185531908,
    -0.12901781102799167,
    -0.1557305579023957,
    -0.11552961815511573,
    0.2539261442504447,
    0.1734818869149101,
    0.11846286031669383,
    -0.20841170679129928,
    -0.3029303516617006,
    0.3200052402957425,
    0.3152584822385003,
    0.32334490901609203,
    0.19975254991512528,
    0.32928602904184556,
    0.07526788438974755,
    0.15989946720949658,
    -1.1492170882599462,
    0.08614801594976022,
    -0.004624266763843455,
    0.1731006628574472,
    -0.02779371818413489,
    -0.1271806169533218,
    0.27815290728518866,
    0.04259870876931996,
    0.27444877678747415,
    -0.22935019268501747,
    0.10273323230218238,
    -0.1073846553526902,
    0.26043898246474906,
    -0.19674317266621288,
    0.09213394272086894,
    0.36279578482038577,
    0.21625162198638245,
    0.034963128344512096,
    0.034047327363336426,
    0.0509660163419026,
    0.053799420572331474,
    0.04434013049929682,
    0.20968323944763204,
    0.037726251221519874,
    0.34193752753428014,
    0.06336658076574982,
    -0.17877967265244296,
    0.14661555768298237,
    0.14915301538497303,
    0.28493272428040567,
    0.18333843213760656,
    0.38589606327275366,
    -0.02310666083767601,
    0.08779882333431473,
    -0.8233386437459541,
    0.042242912625903,
    0.24345878578171679,
    -0.1519224102728627,
    -0.28287742737634214,
    -0.07081813756699594,
    0.09155078020149093,
    0.1223830294998957,
    -0.08164659818084931,
    -0.047251295051293156,
    -0.006620269097084892,
    0.1557617788377901,
    -0.11557248436087701,
    -0.4831519703657719,
    0.2346904179904995,
    -0.23326682425382156,
    0.1226819298217775,
    -0.48443973794602074,
    -0.18876136917808162,
    -0.15181573007259003,
    0.23653428720188893,
    0.4370670922718441,
    0.19269511904888392,
    -0.15425169739740135,
    0.21269311516618472,
    -0.08034010491483022,
    -0.28631451810001224,
    -0.19303638848392973,
    0.3634198566116759,
    0.2489563277850938,
    -0.012464775115716437,
    -0.20996347607830584,
    -0.036626198566676205,
    0.30126882321371273,
    -1.0274277680417334,
    -0.08953691176837494,
    -0.06403584963587133,
    0.04314937736278124,
    -0.1401598538666725,
    -0.07783080277318694,
    0.03972374101633313,
    0.07086503953381157,
    -0.17614043489876377,
    -0.054672735554923614,
    0.1010039237562494,
    0.07260557215736259,
    -0.037035521051198374,
    -0.03588622725399536,
    -0.07440092239289935,
    0.18963633004043975,
    0.013187778105565574,
    -0.07967556746469129,
    0.30219945705479495,
    -0.2640431742043397,
    0.018071679510500895,
    -0.00015328368354011515,
    -0.06895723531797418,
    -0.10765504904038253,
    -0.09524734061371723,
    0.16972511840835605,
    0.2376206442594812,
    0.16813882435755684,
    -0.19374640681665298,
    -0.010387209438100889,
    -0.14186861578803864,
    -0.1562097795133234,
    0.039735551622607765,
    -0.12677029812716512,
    0.09903123098302342,
    0.004105262599942534,
    -0.0031604588507599648,
    0.013535181229118232,
    -0.012529883121832614,
    0.02197139258319896,
    -0.0035011931915026177,
    -0.012769942721454042,
    0.013187569672914535,
    0.014574526426760787,
    -0.007571567785320261,
    -0.00596104904886656,
    0.006723211261372467,
    -0.009381340772217658,
    0.009692101456049486,
    -0.0028703749864679457,
    0.008492359561049287,
    0.000849220356567841,
    0.006607209057301063,
    0.012366651851923486,
    0.007547845711601203,
    0.011350830505303966,
    7.977703822960106e-05,
    0.000831774914747855,
    -0.003728605908109217,
    0.011506806806758958,
    0.00030853321644173725,
    -0.0060994474238607954,
    0.0044866797767080056,
    0.004190588119483762,
    0.004143630003816874,
    -0.019039515658838713,
    -0.00364847621064019,
    -0.0038199833413749286,
    -0.012814353989048195,
    0.003939073217819959,
    0.010319783955429351,
    0.007899781226344592,
    0.00906922115027987,
    -0.01425186419520915,
    0.011688754247654653,
    0.00913177229792834,
    -0.003448795652681432,
    -0.01322985859447041,
    0.00468422746010861,
    0.0048047776406282584,
    -0.003751259227195233,
    0.01695325963928378,
    0.006908799351830163,
    0.008592086526485136,
    0.0093163890878198,
    0.0024892312321225124,
    0.005877677154968538,
    -0.0031619582257792086,
    0.005740925650389732,
    0.01272292716660901,
    0.003189859691715239,
    0.009415067972411083,
    0.009098634547827136,
    -0.007910149899334733,
    0.004475890215360816,
    0.009767760156098258,
    0.0027266754576105697,
    -0.004118004168031548,
    0.014347225290524878,
    0.01944244489785062,
    0.008635218321835399,
    0.005643291996675827,
    0.0093956372736559,
    -0.00023854037396696206,
    0.008687277856667949,
    -0.00299251797783409,
    0.0067803780345273,
    -0.020723202653889616,
    0.006054516565955053,
    0.010470219852821098,
    -0.0010090036888259217,
    -0.013394653016659357,
    0.01456185555621477,
    0.0008203033459285175,
    0.0033563278863632724,
    0.01220426516211063,
    -0.0002676218550565715,
    0.00555931993729934,
    0.008989535154433029,
    -0.008918394612849507,
    0.011195459644881457,
    0.00165321020931345,
    -0.0005574499824942562,
    -0.002604361088401046,
    0.013317031453511248,
    0.0030917902235652645,
    0.00420741682406288,
    -0.017137587259982368,
    0.0028852493973276975,
    -0.0020592326348470706,
    0.0062719269104622955,
    -0.004730583370560832,
    0.012242475558994307,
    0.014994267251924806,
    0.007824450105601417,
    0.009118366975754261,
    0.008581642074106938,
    0.008563402063117117,
    0.00605748986580548,
    0.003328243931546119,
    0.007755116089264962,
    -0.022817999843894286,
    0.013508371810388964,
    0.00885840714501144,
    -0.0046478257231436304,
    -0.008747255148660713,
    0.00646345010773843,
    0.0061823602587953745,
    -0.002968054589406013,
    0.020049310272800668,
    0.006840454226623867,
    0.0012761314212963643,
    0.011436486077300703,
    -0.003153509053900845,
    0.005974302527272423,
    -0.005835259523158209,
    0.006089186439618901,
    0.010155758841581286,
    -3.3340688522484895e-06,
    0.004323855078731993,
    0.0074370400226798266,
    -0.002966913904930536,
    0.006431537544551161,
    0.005797698759734675,
    0.01232405358764761,
    0.003204905804702308,
    0.015929538564896806,
    0.02130968395033089,
    0.008571118316594725,
    0.007486112379189981,
    0.009953593847630938,
    0.003003577691473778,
    -0.0018906568870874203,
    -0.0021003854670213875,
    -0.005858835863261234,
    -0.0037038892151879895,
    0.0021375031210698068,
    -0.005853317918322236,
    -0.005625498369054942,
    -0.005298982736859445,
    -0.0038301266800031156,
    0.0013675012862136458,
    -0.0020050231071292177,
    -0.003725501655301287,
    0.0007462185985080933,
    0.0022189885914069606,
    -0.0037196860304402183,
    0.0030899352513542775,
    0.00027094685707872374,
    -0.0017415565518746367,
    -0.002878449651716764,
    0.0012157119331270836,
    -0.00547206230856751,
    0.002042306583122625,
    -0.003025739164092702,
    0.0005535805894364438,
    -0.0043966684400038565,
    0.0004926973098602922,
    0.004017389102351299,
    0.001574392982160273,
    -0.005990115822714708,
    0.004381019068148497,
    -0.005835068694942593,
    -0.0023518855801596956,
    -0.0007300966082945264,
    0.0058903082752961005,
    0.007602851390089191,
    0.006080041444669404,
    0.009747153714515622,
    -0.018005081338106327,
    0.009032319553087486,
    0.016429290667819296,
    -0.007623321628102108,
    -0.021536022691351596,
    0.016916898713106,
    0.007947614188074261,
    -0.007563118737628129,
    0.015699229955978375,
    0.008558407283159946,
    0.010574960343913246,
    0.011349916849526766,
    0.0048378625337949285,
    0.008927276444827653,
    0.004819754226275208,
    0.003378136389838142,
    0.005757852036461915,
    0.002786522579528948,
    0.003749539664550512,
    0.0025730619995590854,
    -0.0057644905102073605,
    0.013530780993727341,
    0.0015990909033898669,
    -0.0025273209950728184,
    0.0005455501485031693,
    0.006300785895885123,
    0.011636096214892075,
    0.0031735476297544162,
    0.008939253287223057,
    0.010529517254448494,
    0.0008712683408772933,
    -0.0014785250006398402,
    -0.003236513070413654,
    -0.006718591624169556,
    -0.00593185764348824,
    0.0009801226336385548,
    -0.0074860781032487144,
    0.007294486298602284,
    0.010166029224026759,
    0.002409995303894038,
    -0.003947328156728735,
    0.012317454529173093,
    -0.0012474514379821158,
    0.001701129816994851,
    -0.0015851991752440018,
    -0.0013769614640666732,
    0.005037812414439846,
    0.001353973449101891,
    -0.01138007683647044,
    0.0029742111963427867,
    0.0006511340035989964,
    -0.006390912184501567,
    0.00023315873576854412,
    0.014509474132965971,
    0.0024582290944800377,
    0.0014710693579913093,
    0.0048584928857281,
    -0.000290501957427421,
    -0.0068463620867261306,
    -0.007686728924505187,
    -0.008843244413095886,
    -0.008596348131638166,
    -0.006898747823471231,
    -0.021820714663317278,
    -0.00521515100192707,
    0.009283033135148897,
    -0.0006085336267496477,
    -0.001224136609948833,
    -0.011268000308851302,
    0.019490305705101203,
    -0.008784293183192435,
    -0.006452397390095098,
    -0.010316080425486809,
    0.01589111559156247,
    -0.007855665692113458,
    -0.009076248882012746,
    0.013954027248853808,
    0.0038638595640069725,
    0.00932324749073494,
    0.0036437618387767145,
    0.002354411754676245,
    -0.00011009906495669323,
    0.01314025988073617,
    0.0010930477533517755,
    -0.006865047324797004,
    0.004351813017096459,
    0.0004009841426256032,
    0.0023252215820024533,
    0.005343246138079296,
    0.008776534485165695,
    0.012082074393011913,
    0.0017495062161016538,
    -0.0029508977120165595,
    0.0013598425911909944,
    0.005423081406988477,
    0.007572545780345974,
    -0.009120420166615626,
    0.002459310576158592,
    -0.005623801133980183,
    0.0005388958376122058,
    -0.003560613102050721,
    0.010896522260289273,
    -0.005146479819780854,
    0.010218310990665632,
    -0.005556454388314691,
    0.0036466573840681898,
    -0.0015463944347618634,
    0.0021812475588876947,
    -0.00047152267773596364,
    -0.013239244604128914,
    -0.002585502768972081,
    -0.006326753774205445,
    0.0015537565708092717,
    -0.007402283617255999,
    0.011137814382864037,
    -0.007316027811571322,
    -0.006840653575128848,
    -0.0014344979954261357,
    -0.0039801338933211925,
    -0.014581919711515966,
    -0.007446181666507794,
    0.0052972894420834195,
    0.006966222975473992,
    0.012054529910529493,
    0.004399886171602377,
    -0.007934264029438738,
    -0.006796819600936357,
    0.004554915060471656,
    -0.00143975391777672,
    -0.0019209896834227996,
    -0.006736481860412195,
    0.009205009372753698,
    0.0033086096447620117,
    -0.007992981139626232,
    0.005774661690680724,
    0.0009730710587269273,
    -0.003784008366884017,
    -0.0030622712217537036,
    0.0002948232604126151,
    -0.00022473429629618426,
    -0.002653664238109466,
    -0.006425269325861724,
    0.0009458893620826658,
    0.0057230189465221895,
    0.0024410270172977944,
    0.001814706031137771,
    0.012820332189070487,
    -0.01626587121541542,
    0.0026130385389589853,
    -0.0005452048670061574,
    0.00485341757531431,
    -0.0034620820606973846,
    0.01428662581823679,
    0.0074163165831814815,
    -0.009826107144525607,
    -0.004014149840231707,
    0.00028211560129575846,
    -0.0008086118597293967,
    -0.002573670674732077,
    -0.00028722592069566305,
    0.007552930871256211,
    0.0025422956471177747,
    -0.004902368163081455,
    -0.009675796335259095,
    -0.005300437702656848,
    0.0025660844354585956,
    -0.0002235219338246694,
    -0.0023720284720899726,
    -0.001636250339834982,
    0.005999797403425028,
    0.006208085503171191,
    -0.0019016265302704422,
    -0.002590667149661748,
    -0.01007598093467744,
    0.002507682492583387,
    -0.007745709950590344,
    -0.0064132458451197265,
    -0.001853299158181508,
    -0.010661562803722303,
    -0.008541778173624592,
    -0.011870189617445797,
    -0.007540245608071704,
    -0.006070170587667859,
    -6.898955336654203e-05,
    -0.005007731335544904,
    -0.005985248546987078,
    -0.004622032357337953,
    -0.002935836834911851,
    -0.0019608824781566017,
    -0.004727791487137795,
    0.002286625920125633,
    0.001676104538897904,
    0.0029276560454127476,
    -0.010577017592801734,
    -0.00012204619392286648,
    -0.006330461612630804,
    -0.0035602516491846587,
    -0.005890356065724257,
    -0.005663497740733684,
    -0.0027307400776557305,
    4.315080504055333e-05,
    0.006823588300684076,
    0.014779347087623749,
    -0.004698829785406879,
    -0.017772693132771838,
    0.006274355321777055,
    0.012995630322718967,
    -0.00598779664447371,
    -0.012859285882645491,
    0.017228534165472032,
    0.01445124882250787,
    -0.007421895906365182,
    0.01810353110274678,
    0.002110375980272778,
    0.0048327776085872656,
    0.007601397174918512,
    0.005998370614602189,
    -0.003359896710338217,
    0.010148622056867602,
    0.010434618230264578,
    -0.00023241744139252004,
    0.010200414494070645,
    0.007494240113138926,
    -0.004443975380231959,
    -0.009615107535995907,
    0.008637369574595705,
    0.005246364261072793,
    -0.0034631059826261993,
    -0.001181395363503642,
    0.009905648464462796,
    0.019318978297680336,
    0.00791161044038576,
    0.00783189815116798,
    0.00955517091116964,
    0.005867043150651916,
    -0.0024747943833976957,
    0.0047696431399494536,
    0.0018065684575009865,
    -0.01755045818863313,
    0.006654730539286032,
    0.011776144799235987,
    -0.006224621621402792,
    -0.00643262957988946,
    -0.000790207806956806,
    0.01653432706200005,
    -6.328544284554764e-05,
    0.01316343387427131,
    0.0024210710099747284,
    0.00865480195004157,
    0.004973139574956559,
    0.01100751304626504,
    0.004333415999499995,
    0.003939352246238519,
    0.000538503580854957,
    -0.0024296701091132537,
    -0.007010747573922171,
    0.0125316149880641,
    -0.000901129670176612,
    -0.006528315672436627,
    0.004980186160918091,
    0.011665709881683707,
    -0.002580416702817918,
    -0.007029210007122802,
    0.011154602284244742,
    0.016317055420426767,
    -0.002324424432225547,
    0.006614421707672409,
    0.007302680638066577,
    -0.002448926662699693,
    -0.0005325784590122853,
    -0.0019969530916778703,
    -0.00791610842707031,
    -0.010728750939674693,
    -0.0032995406774117015,
    0.0011628244005547153,
    -0.007955702079682688,
    -0.0012744873387696947,
    -0.011128128050642096,
    -0.00045035820518831413,
    -0.006564819049598274,
    -0.003743056451240837,
    -0.010906235656298169,
    -0.004337740202372684,
    -0.0034906149328626504,
    -0.010966034259000617,
    0.002484373874760333,
    -0.0012819403067565929,
    0.006849410068773391,
    6.159568291131242e-05,
    0.0010730182853936716,
    -0.0027325543653738075,
    -0.01040813092111989,
    -0.007660927756533863,
    0.0006545694225535577,
    -0.005431653463191744,
    -0.005075053287164743,
    -0.0016940167993412581,
    0.002364533200794768,
    0.0006617869634616486,
    -0.005643708774799353,
    0.0036438444574995485,
    -6.566252862142382e-05,
    0.00457441262973734,
    -5.204468300730165e-05,
    -0.0004908871820070262,
    0.0010017315387474265,
    0.02025997019670173,
    -0.015345429881253779,
    -0.009518493473343539,
    0.008611985140949196,
    0.01759971413668414,
    -0.015154126991220821,
    -0.007398789856274443,
    0.009920127286086048,
    0.0004599556519210613,
    0.008627502376344109,
    0.005860962777986909,
    0.008280773987591881,
    0.005226229006226786,
    -0.0071465941323186665,
    0.007225157792419429,
    0.01260389572760449,
    -0.0041101435092575425,
    1.8217941175036217e-05,
    -0.0032544533095919515,
    0.008359027039929409,
    0.00961155172379599,
    -0.0025697785360452178,
    -7.815412631385275e-05,
    0.008255231113114514,
    0.017417923298792444,
    -0.0031612952571623515,
    -0.01130583331267062,
    0.007354925952923176,
    -0.009469829318850573,
    -0.003167482276900036,
    -0.0007056625743439821,
    0.007221062442830788,
    0.008825941752668294,
    0.007665603640301855,
    -0.021423619550278925,
    0.012508528335953298,
    0.008852441162841056,
    0.00027648720476437783,
    -0.013673187513763306,
    0.009062400755357051,
    0.012850537983293862,
    -0.0008933835481122918,
    0.016322944798291713,
    0.00977651170414557,
    0.006836297746979775,
    0.003251134214578718,
    0.004670486855137135,
    0.007221292470667588,
    0.004915985713600341,
    0.006081011455428337,
    0.008207124574317205,
    0.0018152031737225798,
    0.006929973206481737,
    0.005948590036038585,
    -0.005299961498541245,
    0.012276164327279774,
    0.0014353991971445923,
    0.0032777661666759696,
    0.0010719016992856406,
    0.007911706856774475,
    0.017889118233992665,
    0.0008217494922050853,
    0.005326818350945055,
    0.008105371053456182,
    0.000717951186461662,
    -0.0019320706817429693,
    0.012123601724127438,
    0.0068721992999540085,
    -0.014686346390876627,
    0.006414559026974459,
    0.010655912590291894,
    -0.006952516751883624,
    -0.018023575036197708,
    0.01611882153290652,
    0.011727152542440406,
    -0.0018478104448561294,
    0.019110576777367997,
    0.005605768342838068,
    0.008294024101112043,
    0.007763335090335331,
    0.01133588507768894,
    -0.0006750695656047293,
    0.007678623983530498,
    -0.003366285957988891,
    0.006378460142700835,
    0.0020051793124870386,
    0.0026102237317163065,
    0.012864896449375092,
    0.0015678011762208504,
    0.012127735073568001,
    0.006140377208466147,
    0.0021567604010400126,
    -0.006586508508223472,
    0.008915026215847529,
    0.01587111190973262,
    0.004727722398928379,
    0.007028551537074011,
    0.01270163940459836,
    -0.0002896067551896339,
    -0.004865860615916735,
    -0.0055955914659241435,
    0.0018320924032513507,
    -0.0036661873507171094,
    -0.005048231203735998,
    -0.007955491631764924,
    -0.0006811226555749166,
    0.0057867843835370004,
    -0.008477662542307215,
    -0.005898157936093215,
    0.00362086745217937,
    -0.008487484440526084,
    -0.004252590360492232,
    0.002815429356091982,
    -0.009856694068382016,
    -0.008760938330127286,
    0.004654732013613929,
    -0.0012815280017148612,
    -0.003935128161937937,
    0.004288294909624777,
    -0.005660396405141687,
    -0.0029873092771042563,
    0.0016650876435953697,
    -0.010197957049101439,
    0.0030880789547656157,
    0.0005460890914808894,
    -0.001748361241119286,
    -0.008424697143358962,
    -0.007976623930330797,
    -0.0038663643681112548,
    -0.001067009941496464,
    -0.0011963753997953565,
    -0.006960148952953784,
    0.004831431361729882,
    -0.007386688763451192,
    0.0035487967305329366,
    0.008503554709085773,
    0.013062583506751801,
    -0.007957182207826995,
    -0.004745901328835516,
    0.008819413807354128,
    0.009958855933656684,
    -0.005119242489857832,
    -0.006802713564198287,
    0.013139397224478388,
    -0.007644536713580906,
    0.0032301291171308306,
    0.007403370575557258,
    0.005671486494991649,
    0.010322681948787684,
    -0.014237740933159423,
    0.01720352183625322,
    -0.01081837247104022,
    0.0062675983478741705,
    0.003876804234973126,
    -0.005558641135590603,
    -0.005632252175432494,
    -0.0008465636391636798,
    -0.0003655736450160042,
    0.002219598283177763,
    0.002398557361157201,
    -0.0017372168763640536,
    0.001724658068329788,
    -0.0013445554169906797,
    -0.006155413410271407,
    -0.00769031854873226,
    -0.008347273917672706,
    0.006523521108019638,
    0.0043044222768014685,
    0.012230627570233386,
    0.004450465689591568,
    -0.020219808266829297,
    0.008665498061241358,
    0.01501547539598724,
    -0.00990320793202787,
    -0.015834747773162766,
    0.01639633281962846,
    0.017234397189409622,
    -0.007407581536216756,
    0.023350281828272125,
    0.008624669688964502,
    0.006275086212150119,
    0.007770591995672911,
    0.010211837526776494,
    0.003272259472255953,
    0.0026877285240022083,
    0.00312498920441326,
    0.0058675962334654224,
    0.008485880744099223,
    0.009369155214664544,
    -0.00042083704092097773,
    -0.004733556851174723,
    0.009687537946344187,
    0.008731746953059588,
    -0.0006004470421689748,
    -0.0058896775056727895,
    0.010760861526103466,
    0.015768937738340767,
    -0.0005325988192788007,
    0.010813914737732888,
    0.010964403455488332,
    0.005635342242782636,
    0.008290851801534514,
    0.006722314130236527,
    -0.003162525823936932,
    -0.01954293577916284,
    0.014686404491717386,
    0.007983420116520114,
    -0.009224504104321248,
    -0.013633150452795997,
    0.017149435707184052,
    0.016432198606285118,
    -0.005929463561709825,
    0.022105113291737387,
    0.012671591993581848,
    0.0036648464019875026,
    0.01198932259095943,
    0.0063708831096366365,
    0.010003787130254864,
    -0.0016109258414111133,
    0.008419546872807097,
    -0.0037219810947593263,
    0.002745012420959454,
    0.014755986371290343,
    -0.003618517688683862,
    -0.003635535812153194,
    0.0038512866495274884,
    0.005231758027172688,
    0.001340393425800106,
    -0.005548338506984481,
    0.01100326152070993,
    0.019998046769618853,
    0.007303503976290824,
    0.0008909148549099512,
    0.00830171186559464,
    -0.0027170645944763266,
    -0.0016225359624750244,
    0.006818624724139532,
    0.009664132972154706,
    -0.006665182318053302,
    0.004956520328152019,
    0.0032445991106954475,
    0.0003839006618841264,
    0.002461768594823967,
    0.009900471492016514,
    0.010742676870757131,
    -0.004526092392831898,
    0.005848744822230092,
    0.004293456362820813,
    0.006303702381567045,
    0.00564966276326938,
    -0.0023443104277243087,
    -0.01060062541355547,
    0.0022685162004141414,
    0.008684191191637023,
    -0.0051713148302982535,
    -0.0009799574072196268,
    -0.011242112553814304,
    -0.0021489916918440827,
    -0.0011637943216033409,
    0.007941091563684789,
    0.008607926251328538,
    0.0009434872382400133,
    0.0023258140144306917,
    1.61591877356166e-05,
    0.0028852085952430512,
    0.004430401220679553,
    -0.011769981982812212,
    0.003284552024067932,
    0.0045012109923018,
    -0.002679168106283511,
    0.005006030502962905,
    -0.007993125365632606,
    -0.0033296839527016467,
    0.0031316615367425987,
    -0.004954922232473037,
    0.009561386412116494,
    0.0020285095852581214,
    0.00019979579848257437,
    -0.0007648296753048551,
    0.008400146404600396,
    -0.00424568864870306,
    0.00042773637153102856,
    -0.0024233121426719844,
    0.005854101692696072,
    -0.00957738247875475,
    -0.014183719877094422,
    0.016554678134226383,
    0.002774051483557967,
    0.01938037881984004,
    -0.007710775459334411,
    0.0063965792324401,
    0.004514623443269717,
    2.4021310477785336e-05,
    -8.930508813375942e-05,
    -0.00638714011291592,
    0.0017870016363631435,
    -0.004457200961218101,
    -0.00418582043198099,
    -0.01461041811535868,
    -0.01043636954670956,
    -0.0012905765096605007,
    -0.004703004947907121,
    -0.004164019662923209,
    0.006794536828735798,
    0.004180080134011327,
    0.008772832335323446,
    0.024167881793524387,
    -0.0058678521239680145,
    0.004492087905318874,
    0.0007816180857969902,
    0.015213979358897742,
    -0.005056199210030903,
    -0.004399535524462347,
    0.008331431743041484,
    -0.011615453887691734,
    0.014219481495195842,
    0.011187718450808026,
    0.006368238223289005,
    0.005720605901990095,
    0.006933065718475186,
    0.001657305962124215,
    0.008453948137821153,
    -0.00030733704740236033,
    0.0015024591459431276,
    -0.007332892113201054,
    0.014889816279678593,
    0.010928148723774718,
    -0.005450559319072943,
    0.008600520362245815,
    0.0023542895860174887,
    0.011063698332608679,
    0.004952155172777107,
    -0.009307812603545835,
    -0.003272896864112743,
    0.003635068082547159,
    -0.021957744033227047,
    -0.006945606973187922,
    -0.005397971698213594,
    -0.005314979127162835,
    0.004695578367941015,
    0.0029307339206921,
    -0.0018043583892022774,
    -0.0027010533786524815,
    -0.0004360627463034498,
    0.0005886604453965285,
    -0.010211974439179554,
    -0.0033242349793422827,
    0.009613874058074713,
    -0.009649930602790386,
    -0.0058718535903212014,
    -0.006172030073626796,
    -0.004073335051660897,
    -0.0005432457907596219,
    -0.004285912711345474,
    -0.005657238803072709,
    -0.008941870352696014,
    0.0040125549006422186,
    -0.0014606792628023303,
    -0.004630803214075272,
    -0.010731416371680907,
    -0.010394779784982672,
    0.0026464734607681596,
    0.005031728280880251,
    -0.003873605866086382,
    -0.002545800907295578,
    -0.00554991257280211,
    0.0005501747459976467,
    0.0017905317386140303,
    -0.006210110993783374,
    -0.0012743563246403271,
    -0.003099570803971704,
    -0.007530154858640996,
    -0.005397903458799183,
    0.005861760853286145,
    -0.0005757698264054173,
    -0.001317860428468359,
    -0.00519134320414534,
    -0.00660100449992398,
    0.00098117144275216,
    -0.005237962607170693,
    -0.0012008215842875803,
    -0.0032001985190531117,
    -0.0011953538013595919,
    -0.010512208832956685,
    -0.008501909807888095,
    -0.011103069308266345,
    -0.006912328460949978,
    -0.008893157484329112,
    -0.00902966845124308,
    -0.002260800774622732,
    -0.003926969155531495,
    0.0004492731597158089,
    -0.0027768718302000326,
    -0.000794898599074293,
    -0.0018412455439027649,
    0.0027424821907212284,
    -0.0068089591255684565,
    -0.010924441711316527,
    -0.0030385418919494566,
    -0.0058652974092423356,
    -0.0052644501894081415,
    -0.0053738455277643465,
    -0.002950031777644791,
    0.004445341572255854,
    -0.007375184173761643,
    0.00080345125807146,
    -0.010949638037746297,
    0.0012008989182281196,
    -2.573733428128029e-05,
    -0.0005026740230842446,
    -0.007992947979688062,
    -0.0005245293844034357,
    -0.004367138666886116,
    -0.005472155029126608,
    0.005498547331102622,
    -0.008861209910721257,
    -0.002424600043281473,
    -0.003135744944770819,
    -0.008402376828749558,
    -0.0036644229331875135,
    0.00011452420267149728,
    0.0002211270699180903,
    -0.000916723372446566,
    -0.0009210656901880144,
    0.0012257063919087943,
    0.0006377292701516265,
    0.0018543043638434736,
    -0.004209314058413348,
    -0.00579938293510935,
    -0.004407406041197015,
    -0.005292114503806495,
    0.0076409026278617285,
    0.0067198373269985725,
    -0.003887370130387264,
    0.0036821293275407876,
    -0.0037109778767571546,
    0.005005662233429372,
    3.806534310270531e-05,
    -0.0028365402038808413,
    0.008829036824977422,
    0.009501267274591016,
    0.0028598949820140157,
    -0.019290023324417323,
    0.013237580961008643,
    0.011531449651213317,
    -0.009707434900852857,
    -0.0168675495522695,
    0.012667419718725315,
    0.01135050551923686,
    -0.0027656846486906277,
    0.019898975315358256,
    0.002098085846277948,
    0.0050060632521944735,
    0.008497810677344335,
    0.011942005577983715,
    -0.0010911643551176288,
    -0.0053964540452957005,
    0.0060798909847985085,
    6.265779040403784e-05,
    0.0009451857090541207,
    0.006484641414176528,
    0.010119206684284789,
    -0.003519850895046379,
    0.006895954663498487,
    0.002746954810069618,
    0.0026431596903685782,
    -0.0006888221928759641,
    0.010513508529699902,
    0.016084382055837673,
    0.005793302783213261,
    0.0018491309075702581,
    0.012383019768873137,
    -0.004671048073304352,
    -0.005873063058290513,
    0.007832123169482091,
    0.005452597795604514,
    0.01712788667123147,
    -0.0047951276548065655,
    -0.011677728715070446,
    0.00505748511835504,
    0.01043328140356621,
    -0.005643829953206067,
    -0.020710668190938107,
    0.011430219032004377,
    -0.0056756069115609835,
    0.014421303662461946,
    0.010273538577945959,
    -4.206659439938068e-05,
    0.005722480901968876,
    -0.012133612971441431,
    0.019635480896397686,
    -0.0039143087874162884,
    -0.011383032554248032,
    -0.0017980534233272318,
    -0.008665883140842807,
    0.011489858798016589,
    -0.003025233937218365,
    -0.001821623225027151,
    0.0014128521574245732,
    0.012905253225737314,
    0.008826574062584018,
    -0.005414258676616537,
    -0.013931776879269898,
    0.007126930425158078,
    -0.006005117446420545,
    -0.014116160703305734,
    -0.003297705162472599,
    -0.0016224621651853522,
    -0.009035409246362367,
    -0.005384272907553497,
    -0.005202926095159924,
    -0.0034256079060297133,
    -0.004369431933883154,
    -0.0009098087145111842,
    -0.004881269211222617,
    -0.0004499225067341879,
    -0.005363481136323773,
    -0.006321378093701194,
    -0.005915901845187662,
    -0.006551515941645083,
    -0.00681588232263957,
    -0.004985004627358085,
    -0.0029754302988615053,
    -0.00034777430386467384,
    -0.001566305183086254,
    0.004495916362737428,
    0.0008154573258559364,
    -0.005206381264600448,
    -0.003524888569043569,
    -0.0056191427152689506,
    0.0006989194658316106,
    -0.007693522901262883,
    -0.0011490617249434384,
    0.002346002640579923,
    0.0010579399513906207,
    -0.004084951744672945,
    -0.003281440714823015,
    0.0025240926539618243,
    -0.004214174655459643,
    -0.0012070699727063448,
    -0.010797268335669408,
    -0.003835614734165045,
    0.00893037727694378,
    0.006059133728643118,
    0.021920879098032864,
    -0.009719400350181134,
    -0.0014546973934726304,
    0.011832142547744959,
    0.021014123946009298,
    -0.005622280274402388,
    -0.007495610764989954,
    0.004551191085837837,
    -0.00262013183701835,
    -0.00022616039107845276,
    -0.0003045245676442627,
    0.0064220450730349135,
    0.006218009148387134,
    0.0023656342054472874,
    0.006429793143158759,
    -0.002373805513219804,
    -0.005740394988964075,
    0.0033359067679999154,
    -0.01295595109318853,
    0.008237327911521897,
    0.005917460308228645,
    -0.006210880312557661,
    -0.0010711660657063355,
    -0.0029053554981206824,
    0.003686138079056849,
    -0.006079176150331592,
    -0.008035173954313692,
    0.003263319845655651,
    -0.0031787440529576667,
    -0.009716611267457499,
    -0.003719502952426233,
    -0.0022543091378665345,
    0.0004843638185699593,
    -0.0004153580668073372,
    0.0015778838655968498,
    -0.005723954161579809,
    0.0021407492429454714,
    -0.002429108017295171,
    0.005910148625575158,
    -0.0034632532477061966,
    -0.000955314913244772,
    -0.01018859652104096,
    -0.005733028612546779,
    -0.008685397167375765,
    0.0021608419574202908,
    -0.003331285861811203,
    -0.006617261331783427,
    0.0013728903295544953,
    0.0026055718236687613,
    -0.0020451169674714823,
    -0.0025066504323182745,
    -0.007290404251140817,
    -0.0021919657849904825,
    -0.006189196262829999,
    0.008350052294632086,
    0.0038497996211435286,
    -0.0023917331917327565,
    -0.0085810873116674,
    -0.003048411354684243,
    -0.0019584867772993275,
    -0.0018133095771607362,
    -0.011206686144951761,
    -0.004375365251369176,
    -0.007710965687454133,
    0.002607875883696912,
    0.003034991129454641,
    0.009476270514497799,
    0.005613160244197123,
    0.02272490288694236,
    -0.007862412351623318,
    -0.009834995585200816,
    0.0024368414282140306,
    0.018688183461979212,
    -0.00955035284916774,
    -0.010319687881768399,
    0.008682357173015869,
    -0.0033845176035204234,
    0.00953571028062134,
    0.010635971913405737,
    -0.0005790271799318673,
    0.009523386134222822,
    0.002995255267676185,
    0.007869126550937041,
    0.003968921734531884,
    0.006076392687329306,
    -0.0028774435409118716,
    0.0045332548445542855,
    0.01550626692749542,
    0.004755500964666133,
    -0.001499267256735657,
    -0.0006083147262648466,
    0.01175301685245251,
    0.007372844529783544,
    0.004254900316830431,
    -0.013770625592742895,
    0.011172585057768762,
    -0.0002262285570265583,
    -0.009952347921988566,
    -0.004526051637483172,
    0.0008983412966928503,
    0.01618504392176529,
    0.00798987626907621,
    0.02329318924275328,
    -0.007462517161050963,
    -0.010159145433205058,
    0.013106557165751676,
    0.014388823092805782,
    -0.006483917568469227,
    -0.008364422540047675,
    0.00836183610292445,
    -0.0007915933745561982,
    0.003535553757758958,
    0.008502227020195754,
    0.0015051742017078314,
    0.010213890938384557,
    -0.010320401479999353,
    0.0006228563586413043,
    0.004975071400525204,
    0.002616608515544083,
    -0.002405094427537164,
    0.0032048964071910366,
    0.011320833334132053,
    0.004150677480469447,
    -0.006223552272467127,
    0.0016028810635529821,
    0.010000681351007326,
    0.004109892603471256,
    -0.00011742682727777119,
    -0.01590632769241723,
    0.0024794463539024422,
    -0.0024432961113117846,
    -0.01170051721997864,
    -0.002953636004015495,
    -0.004861833109059197,
    0.001318618291200777,
    0.0006691066076992754,
    -0.00989527048572836,
    0.00173316631175656,
    -0.004512583507386549,
    0.004285567711818047,
    -0.010830815465958177,
    0.0020908607546298976,
    -0.007053141399568908,
    0.010997309558179204,
    -0.004113646349454054,
    -0.005639212190265841,
    0.006582939230273358,
    -0.005484125558022426,
    -0.006229549244178274,
    -0.013024028233674585,
    0.014518517308276033,
    0.002878820150479629,
    -0.004325501152700711,
    -0.002017184910698419,
    -1.4269663842193344e-05,
    -0.0012582833150767802,
    -0.0007038534052419746,
    0.003555843975329775,
    -0.0029529590660034807,
    0.004082400314410589,
    -0.0011903461537735793,
    -0.0031541364834211335,
    -0.0019933386706850373,
    -0.005771693260764103,
    -0.009719084169389365,
    0.0018026261172253849,
    -0.004750357053521189,
    -0.009445475626270097,
    -0.00820655565397563,
    0.002574555752831918,
    -0.002274406842548075,
    0.0053597365319107285,
    0.004373505606685923,
    -0.0017971502347000814,
    -0.010766412452287502,
    -0.005461901368496495,
    -0.0011249680822464057,
    -0.006946589934912401,
    -0.007612425552381927,
    -0.005455722447414858,
    -3.904326791171125e-05,
    -0.0023583747265517895,
    -0.005731349815934148,
    0.004498845642205984,
    -0.008804265171869313,
    0.0010431593958483113,
    -0.0010123504061240497,
    -0.0010700954976714096,
    -0.007296201104952479,
    0.0021778640469426063,
    -0.0057073266841166205,
    -0.0037387128424728007,
    -0.00041311637889678856,
    -0.00048724315391939616,
    -0.005035590241857445,
    0.002146507081566962,
    0.004412232562016675,
    -0.00912294284553035,
    0.005960831203760105,
    0.00573853324250391,
    -0.010010062570247412,
    -0.010090694706900983,
    -0.0019484427350358864,
    6.0685559884239806e-05,
    0.014504294869155719,
    -0.007561524565585779,
    -0.002945793985145867,
    -0.0020797549608380333,
    0.012797229925084287,
    -0.0013898505665461886,
    -0.0019493774023067129,
    0.007474112284871137,
    -0.0006850630772930326,
    -0.0008374938691976282,
    0.005975685542201026,
    0.003229979609980209,
    5.4866198525086615e-05,
    0.01704692361617818,
    0.00341816989206192,
    0.007652729653880002,
    -0.004991714985877244,
    -0.0077715189046766945,
    0.0026553347244260865,
    0.017415494868852133,
    -0.005815418957060539,
    0.0038493507638458356,
    0.00272819444173721,
    0.018654053875432904,
    0.002380194662600596,
    -0.006693819416334806,
    -0.018097638285890148,
    -0.0001959652614366989,
    0.0038355630327785045,
    0.001117947438176948,
    0.0005979467100699798,
    0.008405588189304506,
    0.003531733237255868,
    0.005451826323976052,
    -0.021289602121079772,
    0.009851497299498255,
    0.009526148779437638,
    -0.0035523208196766923,
    -0.01014331272434204,
    0.005284095401560716,
    0.013639977589677431,
    -0.0041373366201993365,
    0.013377604984201149,
    0.010260539978227056,
    0.011161315947233736,
    0.007928459632409896,
    0.00136469836959633,
    0.00544179426611165,
    0.012763937835044887,
    0.0005628877133274504,
    0.0058280963547367335,
    -0.0012456816541193533,
    0.007603334545852913,
    0.003232140845337933,
    -0.004889583853882833,
    0.011451103602347202,
    0.009157200007304802,
    0.004008364803030805,
    -0.0021341296935800695,
    0.004832570911785672,
    0.018805064017919104,
    0.008467322615895804,
    0.010350752066100767,
    0.01018966249424728,
    -0.0007091369729093353,
    0.010238272284394317,
    0.0029157948400382163,
    -0.003204019310637974,
    -0.017239781504172005,
    0.007970755003569401,
    0.015375338867587265,
    -0.013364682913995528,
    -0.01602697253321804,
    0.006910798959445609,
    0.013964508081476194,
    -0.007642688272773153,
    0.01737179575351032,
    0.013030925863064063,
    -0.005277182544310465,
    0.00830872314520407,
    -0.005272263195397604,
    0.008511269369265995,
    0.008217339920367777,
    0.005832078614961058,
    -0.006255617651639499,
    -0.000625999308893818,
    0.008423993882572688,
    -0.005893791603932036,
    0.0017771595782809827,
    0.011615447667830748,
    7.036016921455393e-05,
    0.0034868421761996182,
    -0.008157388985900444,
    0.007945246683519305,
    0.016188876296040315,
    0.005960719656561543,
    0.01012423484231511,
    0.01238278996055102,
    -0.0033939111317283703,
    -0.00032437481827026025,
    0.012926975029587354,
    -0.005348191484201066,
    0.027067995710271776,
    -0.008286901423846969,
    -0.013729313054207742,
    0.01043561039361619,
    0.01155673254241704,
    -0.003985043584615148,
    -0.010046427323272558,
    0.013777937958743517,
    -0.009315780606479989,
    0.005786940244117951,
    0.0162365872542223,
    0.01325442045927627,
    0.01202544988209999,
    0.001274810079634331,
    0.011082864651116655,
    -0.003932039393760613,
    0.013808711702499109,
    -0.0001714364511676622,
    0.007909428721791666,
    0.0012292421438045292,
    0.017310603923451826,
    -0.008560490339144702,
    -0.0011196087914401391,
    0.011562922450397906,
    0.007415097687177123,
    0.003792754952456214,
    -0.009557145213899703,
    0.003219762003912228,
    -0.0036207487567631474,
    -0.012822534006331567,
    0.0066586891548593916,
    -0.007675196541147483,
    0.008409894160381742,
    0.011904359787437082,
    0.016431366557272984,
    -0.01119536120320104,
    -0.006546969774861768,
    0.005692312036232401,
    0.007407761172066534,
    -0.0059619106524102725,
    -0.009769256555739202,
    0.016562703226427427,
    -0.004648570613773696,
    0.0008004716273998173,
    0.005973480995203238,
    0.0018356723182213254,
    0.003096829650166499,
    -0.0018213879008549254,
    0.00972779980820534,
    0.013694789974401924,
    -0.0035827623127422156,
    -0.0005246925758052838,
    0.0002945752364843553,
    0.007308345073128096,
    -0.004158452941676183,
    0.005725778116585367,
    -0.004866229593868005,
    0.003002814838380111,
    0.01869733743917257,
    0.0019044120660763539,
    -0.00826319788475977,
    -0.01098058650186817,
    -0.002495383300796947,
    -0.008785903119159378,
    0.0007649371354957959,
    0.008269408754659391,
    -0.005975777438191774,
    -0.007765415503555269,
    -0.011364947069228427,
    0.011694069330259804,
    -0.009677604972024512,
    -0.004777271296243315,
    -0.014476086993496009,
    0.019569583101192146,
    -0.0034014127705462313,
    -0.0003686749977353797,
    0.014430790187308666,
    0.007585929764486166,
    0.001450501507941394,
    0.00448435655030965,
    -0.001005001079187583,
    -0.014982885741252118,
    0.00023681053607122726,
    0.00919741539294275,
    0.0073267961133833765,
    0.007961487243928492,
    0.0026078218997975453,
    0.004979672437313134,
    0.004939146862679323,
    0.007167887445651653,
    0.005967858798418155,
    0.0073956488846296025,
    0.004531186561311508,
    -0.0017401669199576797,
    0.009787872393084908,
    0.008450879283244556,
    0.01507693408575603,
    0.008213572651998126,
    -0.005755005155363138,
    0.00013586525523297903,
    -0.004901732583183665,
    0.0017989156243149802,
    -0.003717278509972139,
    -0.01041400952605774,
    0.007944959270368842,
    -0.013067504735668835,
    -0.005869603527793079,
    -0.007582447042714323,
    0.010724920599290826,
    -0.007948085357026062,
    0.0014640235166534221,
    -2.4506794116590877e-05,
    -0.00838872264662558,
    0.0014785077834286128,
    0.00637085340513701,
    -0.0012731219224667504,
    0.010669722631689306,
    -0.0031574586843525405,
    0.005696103581124189,
    0.0031731707602998325,
    -0.009443434235761978,
    -0.009220226503202976,
    0.005805581548064398,
    0.00782681463895516,
    0.0015405324513644745,
    -0.0011378388898829143,
    -0.004883633951285402,
    -0.002116817986376967,
    0.002945134688379208,
    -0.012399376099838369,
    0.001270826279462388,
    -0.00506856026941458,
    0.0007211555025824042,
    0.0074438286134454554,
    0.003755563735700669,
    0.011277440420399038,
    -0.019214890455905374,
    0.01408302810821632,
    0.008127920233251562,
    -0.003061732034335306,
    -0.010009758410563015,
    0.016048139745534665,
    0.007277069057264075,
    -0.0043792460812227445,
    0.01916880722700693,
    0.0009256692984812756,
    0.007888160341990783,
    0.012552294890957884,
    -0.0005096228018706946,
    0.0029285184173261777,
    0.001900543837395446,
    0.004853217245007317,
    0.00823878758517819,
    0.0032670196291409875,
    0.006942082705510708,
    -0.004496949234581259,
    -0.005218968251354312,
    0.007587513851788146,
    0.0029174325668238806,
    0.007616643593062335,
    -0.007225503310577668,
    0.0067520357299650675,
    0.020892393767617992,
    0.008825773871957262,
    0.003239010149136462,
    0.01194485601918469,
    -0.008048472935062312,
    0.004106765001889645,
    -0.004557471428941953,
    -0.008690745854547422,
    -0.006138154454774744,
    -0.008414222215251121,
    0.0030096318656975514,
    0.007090429609635239,
    -0.004952453466900035,
    -0.003152199224668041,
    0.004287731659419564,
    0.005997785521852821,
    -0.003782830658373888,
    -0.006258022684801343,
    -0.004150572184525842,
    0.005222407289802695,
    -0.003955127052687351,
    -0.007907387132847055,
    -0.007132883896557393,
    0.005156757019548818,
    0.007716526113636955,
    -6.266971278468688e-05,
    0.012815695268227232,
    -0.012673781868449923,
    -0.007159908946330937,
    -0.010507760623057059,
    -0.007476585842745724,
    -0.004653692051837114,
    -0.00040391815191198415,
    0.005615881493859197,
    -0.009170698392241983,
    0.006131235675637346,
    0.002913743743535443,
    -0.011643913006718073,
    0.003722622542423458,
    0.002485796998236728,
    -0.002193707635000529,
    0.0007822151430700579,
    0.024522932909882337,
    -0.004386171398840205,
    -0.014255108768758691,
    -0.017530547118390388,
    0.016384161786748182,
    -0.005369918148928256,
    -0.011320602711912608,
    -0.007491877835353422,
    -0.0005784446320957892,
    0.009842013408020567,
    0.0016860330742237803,
    -0.0032426929498206693,
    0.007517075671670868,
    -0.006383221646563439,
    -0.0037401223307629234,
    -0.004956499519940395,
    0.013528230569018043,
    0.005258487134877378,
    -0.007218381455794181,
    0.0013302884216406428,
    -0.0017469103882863134,
    -0.003526576989308244,
    0.002993798319709508,
    0.014990025271293572,
    0.02005860961494013,
    0.009002650059538113,
    -0.003208549762283216,
    -0.0040190729626404,
    0.001589873032910312,
    -0.013442857929365623,
    0.0007743887028843776,
    -0.004202288109702878,
    0.002974496216717609,
    0.0031583453784109353,
    -0.0027001699179790522,
    -0.008173861293917315,
    -0.0094418730434371,
    0.006637539025431225,
    -0.002690042105984769,
    -0.009077381303920985,
    -0.0009140079074944495,
    0.009038388481671844,
    -0.008242556329597786,
    -0.005821796718637694,
    -0.007387573745454541,
    -0.011478604334586463,
    -0.008267598318930432,
    -0.0068159227603476775,
    0.0004717410733564372,
    0.004976908387379561,
    -0.0073279908659963245,
    -0.001899425929142841,
    -0.0071674503062174365,
    0.003677778330559506,
    0.0013952315353239885,
    0.003896112726948753,
    -0.0018755810693310234,
    -0.003547912019935681,
    -0.0009030922720723644,
    -0.005118343164282308,
    -0.008086605807974653,
    -0.00453577050613512,
    -0.005732411511981854,
    -0.005870151795123227,
    -0.00023264106108818636,
    0.000391472421456059,
    8.046079640417716e-07,
    -0.00223708755013561,
    0.00027960441819194475,
    -0.005960266006696621,
    0.008033921878612913,
    -0.003467724054912112,
    -0.01126285078915201,
    0.002217573894520782,
    0.010952398722879767,
    0.0016449197956065742,
    0.0020079847925377307,
    0.007352304260195496,
    -0.008013100673434647,
    -0.0016026911556771184,
    -0.007791449066823887,
    0.007719799610812105,
    0.0062500314037614016,
    0.002149094843342333,
    -0.002572237803938722,
    0.008415372632094536,
    -0.009918193010775591,
    0.0027202866162040857,
    0.0020263827977603436,
    -0.005987141976234469,
    0.004465263371519704,
    0.009335987684953426,
    0.0070099432191701744,
    0.0068375637523085476,
    0.02352931825072346,
    -0.014494463851777304,
    0.013424814357706434,
    0.007331086620086066
  ],
  "w2" : [
    -0.42663940831165825,
    -0.038776718195804125,
    0.5981427663025641,
    -0.6055793966679464,
    0.5040148135960453,
    -0.41364874232085375,
    -0.30146230687892106,
    0.57784923072704,
    -0.356252618164402,
    0.28240780583455954,
    0.24782455821551364,
    -0.06924128129487234,
    0.0008032658764178904,
    0.835143634422878,
    0.459541209562247,
    0.6098065385041801,
    -0.06191802461923121,
    0.1421377399379966,
    0.5775645639031102,
    -0.40085341162036087,
    -0.41236502080641424,
    -0.20200442653236317,
    -0.4676536470664003,
    -0.1085444301987952,
    0.5254226450583043,
    0.300779500544846,
    -0.7578623041966263,
    -0.08462628421642077,
    -0.3797763868103832,
    -0.4567081733317471,
    0.04685231664111677,
    -0.4578826421204569,
    0.13867000288531686,
    -0.5895486389394093,
    0.7613584623509881,
    -0.007028219839729114,
    0.09904820020997065,
    -0.5466914194007817,
    -0.7312391863468248,
    0.2845174193423891,
    0.31033041658798394,
    0.40681152045146785,
    -0.47746423893269113,
    -0.5861165113566937,
    0.2767071387280909,
    0.293208483445466,
    0.6750291788486247,
    -0.055042235613453484,
    0.02313904311647284,
    -0.021045298113746527,
    -0.020748357700766298,
    -0.02418710196699926,
    0.005905302666403663,
    -0.01821823693848382,
    0.0018039857028554346,
    -0.013329977953912678,
    -0.008863926011457853,
    -0.0005191398877806976,
    -0.0021763598028449226,
    -0.01818308396305436,
    -0.018494452418430587,
    -0.00048806440519648164,
    0.019330845901293976,
    -0.01716384857107786,
    -0.015960107175156876,
    -0.00040324697896416945,
    0.007229490583893379,
    -0.020688916598095627,
    -0.01848288335773591,
    -0.005635148614677498,
    0.01687674107554943,
    0.014898668353492009,
    -0.004262815144632793,
    -0.002035227443129204,
    0.00038614058455921244,
    -0.018729064385609638,
    0.011087623201910998,
    0.00176823232350384,
    0.010221109130736568,
    -0.002027143556864685,
    0.01481391178449168,
    0.01814500747016955,
    0.0017338140724965114,
    0.0009128788632518811,
    0.009340012812630144,
    -0.012596004715100582,
    -0.01821165679752663,
    0.019044448932878762,
    0.008234197810629037,
    -0.020183918282802523,
    -0.003791336362909405,
    -0.016834615563828564,
    0.007834000165135697,
    0.014358685644121048,
    0.0008613850931419258,
    -0.007713253966795976
  ]
}