{
  "b1" : [
    0.028549064570020575,
    -0.16253047675962945,
    0.09931623113636333,
    0.025483526951543146,
    -0.036733937153168986,
    0.19246662199054854,
    0.2510527682061902,
    -0.19063432672003872,
    -0.05861862010005808,
    0.12514087195688287,
    -0.05626454870026245,
    0.04320730783498793,
    0.09368796217824658,
    0.10593960611244922,
    0.10499268701327426,
    0.25705751694339113,
    -0.1357611374562723,
    -0.009099708855771774,
    0.15812885413629252,
    0.13355215426356576,
    0.2524661913855714,
    0.13069911706642973,
    0.07847677692480866,
    0.18034233703062866,
    0.11163562228682145,
    0.21921199440970296,
    -0.06237816235432312,
    0.053580141541506886,
    0.018972549544112146,
    0.13898100619600318,
    0.13409633525304474,
    0.06281600729607068,
    -0.006396873453574379,
    0.17715807676919754,
    0.16399307521209372,
    -0.0381263169299754,
    0.057941637534124193,
    0.1565413351851166,
    -0.06988595895639566,
    -0.1630318207581,
    0.12410548366703014,
    0.06681010320895783,
    0.25230955638321306,
    0.022448304277785738,
    0.14220481411855784,
    0.24697676563992405,
    0.11924900171586336,
    -0.12120344739475904,
    0.010915297238624276,
    0.0008706519194584337,
    0.006913406634725986,
    0.002197170489683176,
    -0.003820911383424941,
    0.008652830616385042,
    -0.008562320153755442,
    -0.002657617778611482,
    -0.006394449782534337,
    -0.008059577628587177,
    -0.011418209057604102,
    0.0035004531404799707,
    0.010729701028169853,
    -0.007595733843892582,
    0.012742276463147765,
    0.005880382173222043,
    0.006167318921948248,
    -0.007768387079694665,
    0.0042730936481148295,
    0.0017039815062859954,
    0.0035593083772469053,
    0.0046372786236201025,
    0.002237392399820965,
    0.01005850317494904,
    -0.009554318695547199,
    -0.008511486021129411,
    -0.010945764337841401,
    0.008407752501808289,
    0.008686075008699685,
    -0.007517259200738101,
    0.006647105486209338,
    -0.012468349868113003,
    0.01141627754070073,
    0.013120592564807066,
    -0.0009372976092653593,
    -0.010172436781956368,
    0.0020085421085043686,
    0.003981345080988182,
    0.006437383309491444,
    0.008070486529940874,
    0.008907505229328936,
    -0.0011233858344770252,
    -0.0033651237315498158,
    0.005694783644165727,
    -0.004182250514269569,
    0.0009915574755682921,
    -0.011684855381043562,
    0.006112817048132605
  ],
  "b2" : 0.026554665810196627,
  "feature_version" : 1,
  "hidden_size" : 96,
  "input_size" : 34,
  "version" : 1,
  "w1" : [
    0.25948944216832015,
    0.12424673269614908,
    0.22933228953372067,
    -0.4534420116049775,
    0.23172796521511324,
    -0.13292418021508257,
    -0.0003302486016737676,
    -0.23484107898723536,
    0.2982486111226645,
    -0.08656831663239427,
    0.42991545658052704,
    -0.1271407684018732,
    0.6794378609969527,
    -0.2077878391131285,
    -0.34627447534513695,
    0.0004954581282337404,
    -0.24624380479293062,
    0.04061671026269914,
    -0.06366021185279185,
    -0.028814132363435736,
    -0.002638009541113757,
    0.01816795619341824,
    0.04916751959017443,
    -0.32646215219544644,
    0.11791467767154235,
    0.3855933014334952,
    0.029341174928900902,
    0.09099553184173893,
    0.20217211637294255,
    -0.11019849598314078,
    -0.4520365307564738,
    0.14763200907167165,
    -0.013659054895304593,
    1.1676872056133472,
    0.06520148753904273,
    -0.17112275407312552,
    -0.02029672878494486,
    -0.09109365394505911,
    0.046208809654041935,
    -0.07612925796206546,
    -0.301210331772549,
    0.14187650519085365,
    0.03529734892122378,
    -0.17409420749208854,
    -0.1708115963136651,
    -0.13455353689741,
    0.014113306361878127,
    -0.08988019310133283,
    -0.24019507600484866,
    0.05666481355009618,
    -0.2658024079829613,
    0.1862096257783635,
    0.17846513247432694,
    -0.229210431332515,
    -0.16883216196178785,
    0.19516116652551616,
    -0.22859800304183678,
    -0.014615571508808592,
    0.034853227593364594,
    0.12604175269603873,
    -0.08636851657696555,
    -0.06997760593429961,
    -0.027809583423747536,
    -0.003941015809790389,
    0.11618938661329582,
    0.011254177229372275,
    -0.0330579929204832,
    -0.0649545894517146,
    -0.07143600210396571,
    0.20286856265378087,
    0.007296601679531285,
    -0.03383056360339162,
    -0.30574758285084824,
    0.15227807417138345,
    0.12916138605551977,
    0.08133181226652567,
    -0.25106115250454963,
    0.2753639495217103,
    -0.20652448602573573,
    0.17367428559705234,
    -0.5816509433362032,
    0.27676979762470055,
    0.008296664322565593,
    0.2635607122376347,
    0.2111504070977163,
    0.30481534571032115,
    0.2217530463297093,
    0.19557082261514933,
    -0.11960966314471659,
    -0.17560522568101536,
    0.1116564827392505,
    0.09834709765200327,
    -0.1419107825703309,
    -0.2633687845712386,
    0.07945169543545576,
    0.3965316809069973,
    0.3553127615919712,
    0.3906954485312382,
    0.016165592945544267,
    -0.012293366171524116,
    0.302466785238189,
    -1.2933490645911088,
    -0.2627156031698616,
    0.28463284961675445,
    0.2596391670726723,
    -0.42143274968196004,
    0.007372574913476541,
    -0.09064984678431616,
    0.24468972127704566,
    -0.25126864547406036,
    0.2261163870085013,
    0.0050135532709189735,
    0.25138617733956975,
    -0.06954710154833452,
    0.3521024267158814,
    -0.02718475871033893,
    0.028358718468677793,
    -0.18510940868279005,
    -0.1786578599942629,
    0.27188565865974823,
    -0.055329107720704256,
    0.02894357140104119,
    0.08087138062741796,
    -0.005494526511470098,
    0.16287848369709176,
    -0.17093823634176755,
    0.10971461076343203,
    0.6503906194839584,
    0.21347526255921356,
    0.2718572535214017,
    0.2160963721827919,
    -0.5668952334082155,
    -0.2799107371393609,
    0.2229512017329668,
    -0.1361567210285175,
    0.8434420998111472,
    0.16494408512878575,
    0.05568990214532675,
    -0.3694828901727857,
    0.24548352380728536,
    0.0471621170110458,
    -0.07976517385422757,
    0.3280023594385338,
    -0.15320558839031942,
    0.11030662196357852,
    -0.4045996187957165,
    -0.06916374771300737,
    -0.17034702013001188,
    -0.37876724350005486,
    0.107101489937287,
    -0.233282924832475,
    0.030232426844590224,
    -0.11127836056309588,
    -0.18697012995493562,
    -0.14640094166314083,
    0.12212421494047704,
    -0.22242385544074228,
    0.11495979997251835,
    0.013491581783842896,
    0.05621291003622792,
    -0.1468636289855931,
    -0.04166240325815443,
    0.2935874261460537,
    0.32362330439171605,
    0.46944293914955715,
    0.23919381317404612,
    0.13350608295175956,
    -0.030646560105136708,
    0.30558259380572506,
    -0.9211785233348059,
    0.22512787616920696,
    -0.05413287360738411,
    0.11448967277845334,
    0.07336926993622471,
    0.1552239913151488,
    -0.03870428882420161,
    -0.033201487784259985,
    -0.006122437032715773,
    0.2598160940618052,
    -0.23017193526296784,
    0.26414270075312524,
    -0.30593311266251055,
    0.6642854625989417,
    0.06129310984823531,
    0.16276366955802551,
    0.16018140376872084,
    0.08414468299176335,
    0.11707019520871578,
    0.14402227287935757,
    -0.032712797017977156,
    -0.24900992697199667,
    -0.13733869860565556,
    0.2790430778568051,
    -0.16457946825021624,
    0.1425014972527456,
    0.1317151048504427,
    -0.13799310308281296,
    -0.1932244154356304,
    -0.035676910423700366,
    -0.18242339471787342,
    -0.17387723059072077,
    0.017834391865016397,
    -0.075887375364954,
    0.7641652168021879,
    0.05168867529670426,
    0.12412953650785524,
    0.10275718351931222,
    0.051548434112397255,
    0.23750331941132743,
    -0.11105752662862758,
    -0.07890567159510507,
    -0.006513463373208486,
    0.28177479298277053,
    -0.04039126657637324,
    0.058428442984015415,
    -0.18604359759233255,
    0.6039229755680946,
    0.11401711700567596,
    -0.03509771802955597,
    0.11624870085107894,
    -0.11587532954805559,
    -0.1077016390055729,
    0.22714840894088123,
    0.08695780979852748,
    0.21930755683681158,
    -0.12133585980767403,
    -0.0908491262884284,
    0.10270508173596452,
    0.16878444580456672,
    0.09509912900485924,
    -0.0926411263027177,
    -0.3075502532900167,
    -0.26395043081035374,
    0.08037431080976198,
    -0.1137110284223241,
    -0.05215532583361992,
    0.1562710991016593,
    0.8331846843491214,
    -0.151218600447211,
    -0.14273522403334707,
    -0.3747759443395868,
    0.3959641766843051,
    0.027956886123953556,
    -0.16437176027112418,
    0.0788034536891663,
    0.08541500259758514,
    0.014331797829692882,
    -0.0635012534202103,
    -0.1485614232699187,
    0.1856469074364509,
    -0.08557967099595722,
    -0.24222622365847984,
    0.16803219079092296,
    -0.24021764920739438,
    -0.022204155118434366,
    0.1674353998291109,
    -0.17139855874093726,
    -0.04556701991179036,
    0.08815385063094745,
    -0.04680115437768617,
    -0.27427241491868204,
    0.01316442575034485,
    0.22541839808361397,
    0.07369748599301496,
    0.5904555877449672,
    0.34813496012250605,
    0.39379691753575163,
    0.1745543317795255,
    0.4568157482403883,
    -0.08590333527767378,
    0.03143375943006382,
    -0.35333379721281144,
    0.17017928649411238,
    0.05621574738791952,
    -0.12178685703545523,
    -0.1806796846263579,
    0.236409208084541,
    0.11157557756715243,
    -0.06502940660885273,
    -0.1625830703997633,
    0.12220363327466434,
    0.07369296705232864,
    0.09695585689432805,
    -0.11026823873295638,
    0.46499768039660033,
    0.06482314998318855,
    -0.24292428898104879,
    -0.11100402917286248,
    -0.3549421663764681,
    0.048974523129604174,
    0.1461270846801667,
    0.16786254523571015,
    -0.1906598693394183,
    -0.4401091339716075,
    0.2454712642340336,
    -0.26217372870329847,
    0.15031723413983,
    0.5629801891922871,
    0.1838356672078386,
    0.19697032484412927,
    0.08590559612717137,
    -0.11057502348926525,
    -0.06100789320807589,
    0.07418026363836883,
    0.2001465348071122,
    1.025719498583319,
    -0.057279297527328604,
    0.22707109013871324,
    0.11243343688116544,
    0.07862719133756087,
    -0.15719578468311915,
    0.03380718086129192,
    0.14300730180402432,
    -0.08011164811293234,
    -0.19013790100422567,
    0.19233586370130318,
    -0.1811897116021774,
    0.1793456242678996,
    -0.3060914354200844,
    0.07181985075608216,
    -0.008801548022200775,
    0.24132756460554988,
    0.016408205746179915,
    0.3162176709412908,
    -0.07694295562051949,
    0.06993392931915304,
    0.08991137003602688,
    0.019271367789961066,
    -0.2053081254525081,
    0.053024075469587414,
    -0.03249863341366634,
    -0.12598362490889536,
    0.0908876564406558,
    0.17279028462575707,
    0.2633752210981098,
    0.11161882393286618,
    0.2915604371821388,
    -0.1590895876504697,
    0.11509978533221564,
    -1.149951810116811,
    -0.025562769739967593,
    0.1619945187885309,
    -0.09323475927215177,
    -0.15569859896035454,
    0.07525035668108053,
    -0.2806008505099323,
    0.05324771414033516,
    -0.06175283015792801,
    0.13861152642730812,
    -0.4689642569581274,
    0.1053230996760043,
    -0.1467048220418714,
    -0.1862223582661945,
    0.01431420303353246,
    -0.11130632765261911,
    -0.18211485244558465,
    -0.10097890794673094,
    0.0014570655314163142,
    -0.46798335102503097,
    -0.09071906105570701,
    -0.20595101377935604,
    -0.07372813261356434,
    -0.061013866342877254,
    -0.23254705865035766,
    0.2356019823407632,
    -0.15998945330442113,
    -0.142229002707275,
    0.2570978625887678,
    0.03439448378359917,
    0.017447977657139114,
    0.29521901419322244,
    -0.024764362253615287,
    0.405871212439308,
    -1.1202633490091727,
    0.09798677222567603,
    0.010866916561797115,
    0.22931069610531613,
    0.14837540643415897,
    0.14592595766492908,
    0.29106093501955355,
    -0.11860691761187976,
    0.13563436055866862,
    0.17924518997782266,
    0.17970898330653015,
    0.015998167176476376,
    -0.16694415169112145,
    0.41914134509309003,
    0.19789374538936072,
    0.2878155626330085,
    0.1783500227536725,
    0.050105519637304294,
    -0.05581784374092108,
    -0.0919942927654289,
    -0.06951026282680434,
    0.13196439652971165,
    -0.2449619599044157,
    0.2245862798850528,
    0.0926394931632393,
    0.08753266523045583,
    0.11119699951669677,
    -0.07983157594933973,
    -0.08341243193657046,
    -0.2699139386459603,
    0.2052749424257744,
    -0.08156855490180935,
    -0.1575850024498829,
    0.155660091556213,
    0.5916145457342941,
    0.025235755266327552,
    -0.2231524490940133,
    0.16731752890422413,
    0.037414430659185885,
    -0.13160038249774902,
    -0.16492300898164478,
    -0.15259604271525146,
    -0.06742387391367816,
    -0.06598481148117176,
    -0.13408626589056333,
    0.09703747649550835,
    -0.01628034877739082,
    -0.15886645476437788,
    -0.1279626880988389,
    -0.20524048130257397,
    -0.1611819480003367,
    -0.09189675554384544,
    -0.11675103466869206,
    0.22443542819423404,
    0.10661617543086231,
    -0.08546106767222732,
    0.14571989819296846,
    0.12752154280209735,
    0.11308025757578222,
    -0.1692600665716032,
    -0.02963988858928094,
    -0.1696374712148588,
    0.03823763652818159,
    -0.15405258771688268,
    -0.1091355859280029,
    -0.130632459136956,
    0.0030673618626877396,
    0.025008989965277485,
    0.011367621197584296,
    -0.08294790463824606,
    0.20469267409406589,
    -0.16495824439908643,
    0.2964355646901064,
    -0.09761798996160673,
    -0.24299257367938953,
    0.1324412704191382,
    -0.11956970094521928,
    0.01624820360978539,
    0.05838513766061155,
    0.1320316914296439,
    0.22515930345494564,
    -0.7606818895868858,
    0.34281368433447706,
    0.19714996461011328,
    0.04529640200717245,
    -0.1804826066691484,
    -0.2314684389201519,
    -0.1574261896825286,
    0.41339546501549485,
    0.312507803821529,
    -0.0722824071675712,
    -0.0005276921376660162,
    -0.02419029716113673,
    0.049967663129509815,
    0.015989961322561575,
    0.5425469231641785,
    0.6893027996925063,
    0.524169700334695,
    0.04582418516588906,
    0.07617042774887509,
    -0.023195284582424057,
    0.4552593429768703,
    -1.1677239519023936,
    -0.5203127827327911,
    0.007767405444706794,
    0.33048376923708633,
    -0.6522777483832647,
    -0.2884972325321815,
    -0.03391416292564281,
    0.06242938122614221,
    0.1785746847298874,
    -0.07451622393394458,
    0.2034904350154893,
    -0.09949906831039439,
    0.030836478989568324,
    -0.4194023005985699,
    0.22037326783043276,
    0.06421645226610835,
    0.11665741378512323,
    -0.38127372404851334,
    0.07117770081007957,
    -0.09071792476778397,
    -0.2657762945320796,
    -0.0678438598274655,
    0.2072731844839015,
    -0.16377940503534463,
    0.21922291850987094,
    -0.12813317941336383,
    -0.32208197277519446,
    0.06935992206476436,
    0.2362781336888184,
    -0.01717598660938113,
    0.1258526497265952,
    0.26132692063510826,
    -0.08419973345863169,
    0.14506819072364488,
    -1.164941970884275,
    0.04448756196831102,
    0.23025084626406478,
    -0.1063577193343945,
    0.25865418369113696,
    -0.05115680867782903,
    -0.02735133299637409,
    0.13566994949400732,
    0.07290995084484457,
    -0.05908478166512056,
    0.3049139562201135,
    -0.10500184370567098,
    0.25913353438372644,
    -0.6115499115295026,
    0.23683417833917153,
    -0.11306398201371108,
    0.1712278998176824,
    -0.0730076484566631,
    0.38793478099542844,
    -0.184708745165711,
    0.1011352918228251,
    0.16766737844981877,
    -0.13575435729759663,
    0.13311060207716546,
    0.18755012429746745,
    -0.09245824269023337,
    -0.2762510782514207,
    0.3664587994408963,
    0.43523415553587363,
    0.1987094247593919,
    0.1108527721168505,
    0.1651845219564382,
    -0.03730620465853267,
    0.056677094763244215,
    -1.2835322344957167,
    -0.03360014158723192,
    0.0792313743224476,
    -0.1642319604236315,
    -0.03167059134907409,
    -0.17596029219222914,
    0.07123207857161554,
    -0.08937393760610365,
    -0.22974734373475428,
    -0.001888770984747472,
    0.04753700077988688,
    -0.0002267750653605661,
    -0.12897205716880514,
    -0.11190651477661025,
    -0.10663835907164819,
    -0.014586186625485427,
    -0.13304190483365902,
    0.06148110727404051,
    -0.04301001496394421,
    0.1402686288770847,
    0.0274793280608663,
    0.02128510601104412,
    -0.048069398529628424,
    0.0011830379487516194,
    -0.0708278797923811,
    0.04583280082248104,
    -0.012608056892963845,
    -0.15128067852870458,
    0.00600980300970397,
    -0.13189363749951746,
    -0.21563486425050862,
    0.07911335907516995,
    0.1377549119575634,
    -0.17767305715696083,
    0.20275865836129187,
    0.3394111804140937,
    0.11123060546521851,
    0.14939010388805618,
    -0.19940463081621757,
    -0.09331132780697454,
    0.2084353763278355,
    0.02535807753812321,
    0.28335705499867025,
    -0.007350885060961214,
    0.23765237862218727,
    -0.20320916243515416,
    0.1773016346111966,
    -0.06581963557928659,
    0.05989240584642351,
    0.17658647576794573,
    0.03346528795560776,
    -0.061114920627554116,
    0.21642934518578777,
    0.0923752666187432,
    0.1690214051100601,
    0.16896379736712835,
    0.4105558335561721,
    -0.05490874040678321,
    0.3567817946000089,
    -0.09663509629609988,
    -0.00358140291991318,
    0.007135262292918318,
    0.22401761792177613,
    0.4313193593088929,
    0.27230526142301203,
    0.1323231110977878,
    0.013861106545500811,
    0.2037725742394136,
    -0.6311260815303499,
    -0.06068054607704143,
    0.07318645803605499,
    0.04469570238746546,
    0.2830525078327006,
    -0.2887363142278716,
    0.06338846276272382,
    0.10162197673406997,
    0.26170382401965003,
    -0.04194036024815139,
    0.32044883182808026,
    -0.034106417575016375,
    0.06857271030499223,
    -0.5504394226271502,
    0.30334797508823486,
    0.18745012982425105,
    0.2689893713285784,
    0.17021082366283904,
    0.024035309088960823,
    0.008879057033683666,
    0.2598662079196898,
    -0.16411086927632448,
    -0.05543081919171524,
    0.019672750396574047,
    0.12014220831847185,
    -0.10537801702037199,
    -0.3020371443694626,
    0.18993844304345087,
    0.4339505427543944,
    0.3027803178542723,
    0.37992497712274326,
    -0.04224709643562499,
    -0.19828272029204935,
    0.17683892219221325,
    -0.9065700893544741,
    -0.024109363860693067,
    0.11907986810902073,
    -0.14496336846940167,
    0.35051568992957666,
    0.40186064538942373,
    0.09669261946855108,
    -0.2886280723694797,
    -0.04531052332978479,
    0.364152010355571,
    0.05423648488096534,
    0.08097903954379704,
    -0.2474340974931376,
    0.4152066480776953,
    0.06872430332661716,
    0.11568440115941972,
    0.2481782361167693,
    0.32040133317937197,
    -0.2041396442699813,
    0.32517909846401316,
    0.05650133760598003,
    -0.03706531105886655,
    -0.01834775232332325,
    -0.09714538647836071,
    0.1614953544240121,
    0.2215317895491855,
    -0.09248505536266426,
    -0.2867384355301502,
    -0.28317369012527993,
    -0.39973971648816253,
    0.055973678760202594,
    0.14972841167952655,
    0.009810587702459987,
    0.06773302067912347,
    0.5281797015766947,
    0.4235191726462275,
    0.06190760266541083,
    -0.07310143219702536,
    0.06058527202080713,
    0.11348227731332682,
    -0.07739583359408435,
    -0.066121091412749,
    -0.1700090870774663,
    0.1275040901451037,
    -0.09785782546318575,
    0.13523233362077464,
    -0.1366812426717603,
    0.7700600773097648,
    0.14479142190553648,
    0.003213191529201475,
    0.1871815386554194,
    0.0689748160714952,
    0.09907449151317868,
    0.003934591513862992,
    0.08534894391456699,
    -0.019658472348639017,
    0.0403510610637043,
    0.0561354973535268,
    0.010307885503912914,
    0.08115969167853455,
    0.3817600784636638,
    -0.12291961009499724,
    -0.16642810674953495,
    -0.06489051748017506,
    -0.05003113542723124,
    -0.25632504755448704,
    0.13226262788377058,
    0.09078927479633439,
    1.0419344813731954,
    -0.1815091033332922,
    0.08242474063779938,
    0.13286654035480752,
    -0.07905990874451067,
    0.08314211600607542,
    0.03918678115479744,
    0.01874655710172299,
    -0.14255136665223944,
    0.08574296935176179,
    -0.2562014793669299,
    0.3018325972975934,
    -0.14571537828333314,
    0.5089355668481567,
    0.0881296904188943,
    -0.0007068205461578801,
    0.12435452697497311,
    0.25282719114280783,
    0.06379627791498757,
    0.03467647583153212,
    0.07774586804769956,
    -0.05448690889816043,
    0.08303460126156079,
    0.03525928758053524,
    -0.016805072465135264,
    0.013230298234598164,
    0.10976672058831624,
    0.013182436163343208,
    -0.2759450170934053,
    -0.1718669073096837,
    0.03368078674014913,
    -0.07130896859288621,
    -0.020816481956839026,
    0.2806615518502881,
    0.6701282508109635,
    -0.37561960600573346,
    0.322727353100863,
    0.010074946391186102,
    0.29966391761806943,
    0.321244692633846,
    -0.1785130676224297,
    0.030174307016002617,
    -0.15932792722359093,
    0.06022400488136312,
    0.07512081704374217,
    0.1801267191578768,
    -0.3156108081611845,
    0.5679400338769957,
    0.32259606366155347,
    -0.18763622144658962,
    0.011374095908286029,
    -0.026393229571570982,
    -0.24835739299827042,
    -0.023652082291927026,
    0.38356119404287253,
    -0.28574368244371295,
    -0.19180828570665356,
    -0.06996656369271988,
    0.14599790671769866,
    0.2688798068033794,
    -0.34161303516263924,
    -0.5734120091168954,
    -0.14842104101553188,
    -0.12115625987843245,
    0.1456678606149594,
    0.10476092409372444,
    0.05063269676981668,
    0.09103311657643252,
    0.8641576458745025,
    0.3657263563190848,
    -0.18187967061154942,
    0.10992154938538155,
    0.07044104397981024,
    0.15589386612756725,
    -0.1623903241172103,
    0.10549897204591124,
    -0.11885732081064984,
    0.21672109918546065,
    -0.25961779385685185,
    -0.02827139068808657,
    -0.3631538645498523,
    0.2758993994245756,
    -0.21380889286772659,
    0.15493458370502203,
    0.12967827876506308,
    -0.12005385891815397,
    0.07740752061212963,
    0.06569532672649302,
    0.0760985171420618,
    0.16332550614485436,
    0.010785547226207427,
    -0.08217533305420288,
    0.21262201802465733,
    0.36381861305102164,
    -0.04866380703893924,
    -0.08421730124882056,
    -0.2288250839036108,
    -0.08361538931457868,
    -0.08510037050261098,
    -0.1461675307114362,
    0.1591894600733117,
    -0.047445618696272944,
    0.48966312022690933,
    -0.02954925433400781,
    0.183584127510755,
    -0.4243518729823841,
    0.05476435884836368,
    0.13066019351987257,
    0.19544540445662809,
    0.18615330415247971,
    0.024957452022876615,
    0.13759784878154202,
    0.0822384693848215,
    0.00971716969880237,
    -0.13000278303986537,
    -0.2452357702886076,
    -0.09953628520267524,
    -0.31893092654443334,
    0.21924022660321724,
    0.22156807615062138,
    -0.14379934971920078,
    -0.23910012208859913,
    0.4497309148001224,
    -0.44386227547103485,
    0.10453042717745469,
    -0.07085899862390745,
    0.16384011242656227,
    -0.17254417827687762,
    -0.08865961174265252,
    0.40826694413198056,
    0.30965996396084583,
    0.448215440938601,
    0.2494020605459185,
    -0.017535741459735656,
    -0.04263968853540655,
    0.13059722295187645,
    -1.12171079190446,
    0.15296148058413028,
    0.15541263839325778,
    -0.25194107424417994,
    0.09850200672835548,
    -0.016614073828558173,
    0.05637012025402733,
    0.12176342487618302,
    -0.004838317178042392,
    -0.10157921315901909,
    0.0968679222235953,
    0.0081080179336181,
    -0.09373111127760445,
    -0.002524572034436921,
    -0.18395184033163664,
    0.2701843190575332,
    -0.04001656562339215,
    -0.15250218590274536,
    -0.02649992194056263,
    -0.17625457965437105,
    0.2745834801102145,
    -0.10600243015521131,
    0.03962617290069839,
    -0.08986979933051732,
    0.45425087309823553,
    -0.025111128527332795,
    0.014478163225001438,
    0.18721690255056744,
    0.09948068591298308,
    0.26379852661422193,
    0.13777758761507622,
    0.3973757288047465,
    0.008075272813482718,
    0.17128710960512272,
    -0.9354976246710377,
    -0.02761018301476746,
    0.19796616320914814,
    -0.5251716705625374,
    0.6725292822111879,
    0.09487168911183141,
    0.058082660490659375,
    -0.13032195898364274,
    0.2590343126439816,
    -0.15313448240547592,
    -0.1861741693286408,
    0.07639656200119752,
    -0.06783478724783028,
    0.20814235313366233,
    0.13262052923622253,
    0.10141042372577778,
    0.05625461334827406,
    0.021695207092453872,
    -0.18745738447058638,
    -0.22876596733423454,
    -0.22541716658313649,
    -0.21892126010738872,
    -0.04077399510777289,
    -0.13037141129311405,
    -0.10567921397358164,
    0.2516166631474629,
    -0.558182432510047,
    -0.6735247569244223,
    -0.3754759137060984,
    -0.2615279627297214,
    -0.01335640979720964,
    -0.13517508205747503,
    0.08991295054757209,
    0.17032725438267832,
    1.0043944550167534,
    -0.24059314154882544,
    -0.07788812719650723,
    -0.11171848467906248,
    -0.1099839594549319,
    -0.05671783275090643,
    -0.14503678087526675,
    -0.14148402385330439,
    0.06923697881893894,
    0.11447008780288272,
    -0.1047745480297955,
    -0.09319051744545799,
    0.17225522079183553,
    -0.053517853686123246,
    -0.021379717834639107,
    0.00996589952490748,
    0.06277897609629904,
    -0.17435515933341666,
    0.06659907311962301,
    -0.24200365697056997,
    0.10683583694630243,
    -0.2098793733213324,
    0.039961484147511175,
    -0.1015618845235269,
    -0.1988465857992291,
    -0.18750076933865928,
    0.10147288416388058,
    -0.051360904542796196,
    0.03386717173332958,
    -0.12125631059954735,
    -0.21622375971745983,
    0.06808553782079635,
    0.03203051975760264,
    -0.16951356300228834,
    0.24698519298966284,
    0.23190577396839324,
    0.02855285607015744,
    0.224884810290143,
    -0.36637666978612504,
    0.3133559799774297,
    -0.22798031386741555,
    -0.0007339273464010329,
    0.05992975694339042,
    0.08226667771860133,
    0.09716252389798667,
    0.018841192152915742,
    -0.08196863280688062,
    0.4891337761757046,
    0.004568060903430002,
    -0.17284809255733477,
    0.18984594585136716,
    -0.3360905837051505,
    0.14338520498371557,
    0.08300378361099468,
    0.18819728714675987,
    -0.11602120872040513,
    0.04054699472888652,
    -0.0654256447671531,
    -0.13047185411032078,
    0.024069831157236155,
    0.41142114259828694,
    0.1772975703558729,
    0.19300648696240566,
    0.24286783156512454,
    -0.16273626376973793,
    -0.06949727552644397,
    0.06816946120687715,
    0.18195780338273781,
    0.8913025250247906,
    0.14799344804153977,
    -0.15495766827833918,
    -0.3442184634827893,
    0.43538987623082526,
    -0.060855402085639575,
    -0.028304535379665815,
    -0.11784951588584215,
    0.11279788461984029,
    -0.3917393672380396,
    -0.2549431192261201,
    0.10217946551736597,
    -0.17993109429085377,
    -0.30623380896792074,
    -0.205184278229532,
    0.29857350815626066,
    -0.0028769570243815015,
    0.16674740484953954,
    -0.08884084676295875,
    -0.06294217209127626,
    0.06921277488904662,
    0.008034942878122056,
    -0.084139463727772,
    -0.004220475156414627,
    -0.12176271417656824,
    0.19475447266018012,
    -0.5647261626366574,
    -0.6222485021876716,
    -0.370791012630881,
    -0.3372973654492735,
    0.04440746125234017,
    -0.12893323323347822,
    0.02136666954266051,
    -0.17639704412900029,
    0.0734426768320512,
    -0.12973402320357136,
    0.11676838830202424,
    0.2195072766145856,
    0.22485335276392482,
    0.009883116516075435,
    0.0853445380000471,
    -0.09119868160795425,
    0.22951914606470766,
    -0.05559963104954434,
    0.0764351309351585,
    -0.12184543072707077,
    0.14100459968825058,
    0.008433943625195452,
    0.16300281552547694,
    0.05679005520267611,
    -0.11012774899093755,
    0.12436680969213262,
    -0.08493438576541767,
    0.14280532585667016,
    -0.1962207302556468,
    0.12968845300857215,
    0.009000668378849426,
    -0.22345123882765802,
    0.11157575976477406,
    0.004476647936499215,
    0.15548613332494268,
    0.06129322059628232,
    0.03484947218936504,
    -0.03440052889464669,
    0.028443511277689945,
    -0.05454723280503052,
    -0.00878796028270209,
    -0.16788677307841765,
    0.1068266462727605,
    -0.01880101702181952,
    0.01465070390536809,
    -0.2418669687302518,
    0.539807667429729,
    -0.019400306186498368,
    -0.12361192968036967,
    -0.018966349813936776,
    0.20761214093499256,
    0.14408442572040242,
    -0.24512190553481017,
    0.21764323450172288,
    -0.04919155628602053,
    -0.13320956649802995,
    0.18841589304837125,
    0.1513699867897202,
    0.037242157575592905,
    0.3427275618271734,
    -0.09584220407513953,
    0.02673442383284706,
    -0.19235855505230373,
    0.3582944267631329,
    0.24600655490348194,
    0.13545580937827068,
    -0.17438327817229637,
    0.22585022125065113,
    -0.5701067688323687,
    -0.9078558873877733,
    -0.5788870835278889,
    -0.3865916884130504,
    0.0517523191222787,
    -0.15269675360825075,
    -0.07976373902444028,
    0.07227362116686034,
    0.5788949279444565,
    0.3943337422879456,
    -0.08572702913182144,
    -0.03480445970623437,
    0.12225349550167637,
    -0.043393003913724464,
    -0.03223765150245587,
    0.08689618749612629,
    -0.19251059728459738,
    -0.020639429262616853,
    -0.1696097641442999,
    -0.22622821332012674,
    -0.08030468156636435,
    -0.40341658892491916,
    -0.01892922073298961,
    -0.02990186167514421,
    -0.1434389140002115,
    -0.21932391342296712,
    -0.08087206874705487,
    0.0026054448680487763,
    0.016544761248183618,
    -0.1724920286835846,
    0.03632678544242565,
    -0.06511272371351322,
    -0.14688508001352119,
    0.03656795939217133,
    0.011653692802253571,
    0.21910722222577655,
    0.1718555080974239,
    0.16687977902098466,
    0.18167674258871602,
    -0.04949457319899438,
    0.05612842413743934,
    -0.14535879314160496,
    0.04129188186938573,
    0.1971071888191214,
    -0.1293649938021979,
    -0.317641068198747,
    0.583610481651792,
    0.1358621927354634,
    -0.060479528942132335,
    -0.15962458177475455,
    0.0024773987675327613,
    -0.14308094758290088,
    -0.23545305851978157,
    -0.21443006141265455,
    -0.09654414332122364,
    -0.5025399875163862,
    0.1289624806810688,
    -0.042103891633275166,
    -0.0901482256429818,
    0.08450164291374122,
    -0.20065483678174,
    -0.02549246710807226,
    -0.11816476014266199,
    -0.004053980324021441,
    0.14364492002756846,
    -0.1371907915770851,
    -0.05614965693791333,
    0.1729973478482923,
    -0.5876443078796066,
    -0.5709278854073744,
    -0.6071909984133571,
    -0.719701247244135,
    0.08017890769793075,
    -0.01631833422691977,
    -0.07614084565903737,
    -0.10942984578302573,
    0.19388540630081094,
    0.09341824414995323,
    0.25559504250291226,
    -0.5337284260253046,
    0.3860318345081876,
    -0.027113827874608996,
    0.07320170962937057,
    0.30085053714424603,
    -0.21206347851266877,
    -0.011913797785986835,
    -0.1637789519766688,
    -0.003942848632218482,
    -0.08108204279932416,
    -0.2578918670554034,
    -0.010972794613285585,
    -0.28014520321584924,
    0.18297253268244754,
    -0.04996582000990148,
    -0.22822715427421197,
    -0.4218186328664517,
    -0.03564419246515024,
    -0.14039203128031916,
    0.012280045975767742,
    0.047066556451319005,
    -0.008127506178609054,
    -0.32203076232978584,
    -0.1299788025786322,
    0.5420212932268806,
    0.8271187552463509,
    0.6341576189976139,
    0.030149158905753006,
    -0.047451795179836755,
    0.14976236141037833,
    0.2806472571119516,
    -1.2426608069806069,
    -0.11894861512104311,
    0.00914083234517679,
    -0.07744983021388764,
    -0.15455517066795627,
    0.032934776624753664,
    -0.11352813019605293,
    -0.12675305632731065,
    0.06820898494368341,
    0.07132451936014222,
    0.13783119246271028,
    -0.12784630707262104,
    -0.18593650512830237,
    -0.011646041625756075,
    -0.20458269795312758,
    -0.03887613373149113,
    -0.2511516106819741,
    -0.1474751550427895,
    0.03858239191363943,
    -0.0005474801500071784,
    -0.05962119911305309,
    0.09450112092193379,
    -0.11443259115416066,
    0.09251127794749626,
    -0.17677325280002162,
    0.0254737852440565,
    -0.09684997294630211,
    -0.12604075281037044,
    0.02099813456455835,
    -0.22325245785831702,
    0.034950771280021185,
    -0.13277473454008548,
    0.09071323965830948,
    0.05717731710346777,
    0.028619640636117286,
    0.030593230789955527,
    -0.16763277294641246,
    0.2928702184518385,
    0.09998400817459945,
    -0.11695126716460978,
    0.007911514201831012,
    0.20111766848143045,
    0.08835254057002997,
    -0.11846152133528794,
    -0.018932163361277312,
    -0.18886486260047494,
    0.18076446462903975,
    -0.36388311510776367,
    -0.0002729892468792752,
    0.02820555878588992,
    0.10715090155237343,
    -0.10958211854147103,
    0.1440262932527317,
    0.09852551181231281,
    -0.09347289844620903,
    0.19767270450490507,
    0.24475913476266667,
    -0.09362113395323306,
    -0.1474789954375373,
    -0.09021343451171086,
    -0.18355568922806378,
    0.22933421886130617,
    0.24955480368238295,
    -0.09131551856793585,
    0.25893210899429814,
    -0.03153899768565927,
    -0.0753705646513246,
    0.0037315160922263904,
    -0.6299499717310089,
    0.43755048799087404,
    0.08332710540052816,
    -0.43019645091249814,
    0.33187516425832675,
    0.3543857666734073,
    0.04450434210245209,
    -0.09510777979217278,
    -0.11976420415816438,
    -0.03654487680621672,
    -0.173534231687477,
    0.13054829137462887,
    -0.058361291334249166,
    0.5023822235948638,
    0.23784516490432828,
    -0.20209023041980442,
    0.2630810397627177,
    0.1396714444638714,
    -0.2657376044708024,
    -0.2296930803187453,
    0.0359428186538143,
    -0.4022961522826503,
    -0.2373301486096792,
    -0.16657202451320333,
    -0.1568759158503341,
    0.06473323475630148,
    -0.34430276606186877,
    -0.496899220825004,
    -0.23133312232785,
    0.07445857382958027,
    0.1466553885776684,
    0.20996291011933166,
    -0.04860967534072606,
    -0.041258688954144716,
    1.1239532854251364,
    -0.1956464647854194,
    0.23685964960215342,
    0.2930025730350464,
    -0.24313108667889913,
    -0.07969836845038687,
    -0.10851113473715802,
    0.004802925364994022,
    -0.2074303854089127,
    0.02121429082371723,
    0.06271598523829468,
    0.2256503962750253,
    -0.15360312120483177,
    0.7353623009126715,
    0.001328356431311295,
    -0.15124967242833642,
    -0.00174242195847847,
    -0.3946360101751445,
    0.1998662816060852,
    -0.052763121900162545,
    -0.009485861114347785,
    -0.029981431469618538,
    0.03317520292887508,
    0.09295238668311054,
    -0.3124412667145936,
    0.028656572295081603,
    0.6860338745625604,
    0.23064925706351588,
    0.25822872579592077,
    0.11987550582630246,
    -0.4759692345881462,
    -0.24049189156173428,
    -0.007016999966520735,
    0.0004375752586201932,
    0.9128032772949413,
    -0.09518080604158136,
    0.307537380457739,
    -0.14448876039209532,
    0.305472987839547,
    0.17628737980565698,
    -0.2619110784261234,
    0.1587472290615752,
    -0.094277127012536,
    0.14663117212118768,
    -0.4956380776532054,
    0.13660426630957986,
    0.012880106491219146,
    -0.21199710067949923,
    -0.08616148204051138,
    -0.06443659708172617,
    0.07742613353785402,
    0.1420589796888416,
    -0.17778234635906487,
    -0.188431777987242,
    -0.10897390785027929,
    -0.10505885109547458,
    0.07174467725813496,
    -0.1275896212833385,
    -0.19929143672173807,
    -0.0035368440522765983,
    0.026150899184910897,
    0.25445716804719576,
    0.19495795738926672,
    0.2907351292659936,
    0.0632113746354648,
    0.13373591870527393,
    0.19923372993696142,
    0.4150678766145649,
    -0.8489901865391389,
    -0.22101653602769367,
    0.14085701965660133,
    -0.30104859497296754,
    0.10964476897370695,
    0.23315343254684692,
    -0.2793045625047953,
    0.2758739273111962,
    -0.06175478512033013,
    0.0446839438327135,
    -0.026001389805943104,
    0.08316927559183866,
    -0.16588607214469533,
    -0.14397868255471785,
    -0.13462633977103386,
    0.017764234078618147,
    -0.17327587586010385,
    -0.1813707317057447,
    -0.09596562550265067,
    -0.35495499828366656,
    0.14537786389269425,
    -0.11946522996309991,
    0.12140124394969633,
    0.1645871417341934,
    -0.1896421285174536,
    -0.0924016929691369,
    -0.037916084610210635,
    0.17663042921094596,
    0.2500915838941746,
    0.0719340414418348,
    0.02992251214876464,
    0.19807028947816224,
    -0.08194675124289945,
    0.332626341895754,
    -0.8870344044716428,
    0.09530159475195364,
    0.24594920865072245,
    -0.0599423251990104,
    -0.24745109425908277,
    -0.11262131110493256,
    0.3135218641062861,
    0.1609505994502313,
    -0.17496353969899683,
    -0.08554742795629802,
    0.13409354959077524,
    -0.05741222052529534,
    -0.19797281189707291,
    -0.2264147023678485,
    -0.016624390156529004,
    -0.04554689053340388,
    -0.07697714049487517,
    -0.21778372846510824,
    0.32377534583002776,
    -0.09100348772687461,
    0.01822062275773307,
    0.04203691625374216,
    0.03630465955700152,
    0.20723423565168803,
    0.10172931702258195,
    -0.39622201411200925,
    -0.21615509454652804,
    -0.11573557791740888,
    0.15656436262537032,
    0.16615295306695366,
    -0.130450123242865,
    0.13913852680289737,
    0.025612544513686247,
    0.15117815478207494,
    -1.1424218192410145,
    0.09302728336585471,
    0.17299562591094636,
    0.22292340390820858,
    -0.24962727112277117,
    0.158295171043983,
    0.067921154362312,
    -0.06915812203048068,
    -0.046825699255784684,
    0.10944304588726281,
    -0.012524746594392113,
    0.31769076994533557,
    -0.07500350128574741,
    0.6506775897210727,
    0.01231176136128994,
    -0.20142485646204655,
    0.06012881332191905,
    -0.03110330632579389,
    0.05346119376280299,
    0.09611633102267045,
    -0.052434860249398786,
    0.10087343281461773,
    -0.14851657409484353,
    0.0073987496465495696,
    -0.06916012876920687,
    0.5242966198460262,
    0.38635071719224456,
    0.1729087909599856,
    -0.020439494921994077,
    -0.15162870511240817,
    -0.18331933433502134,
    0.0010698517129512153,
    0.07595555747437278,
    0.20010110583853535,
    0.8659120201701579,
    0.06967161770002592,
    -0.2290164741596159,
    -0.5607334314498827,
    0.3190423685104971,
    0.11864424833857923,
    -0.049467567536561105,
    -0.36958275614405217,
    0.2316816344117791,
    -0.12714263867897915,
    -0.37899255119365116,
    -0.07653825369607381,
    -0.47780052677331947,
    -0.8142141175140349,
    0.09990489759092346,
    0.10326174373521421,
    0.15330543434502317,
    0.353916838361027,
    -0.346848301468424,
    -0.3720772179523012,
    -0.2428458905325992,
    -0.4332320827278888,
    -0.01773978706290416,
    0.28750418191183036,
    0.007987037042988998,
    0.19612547751341936,
    -0.8332654372145346,
    -0.3712798948425384,
    -0.4227882890863105,
    -0.6118441817068428,
    0.32680523724959404,
    -0.22227070489904432,
    -0.15041807806108282,
    -0.333435423430014,
    0.3036235559746027,
    -0.11660758897523031,
    0.0962954653186118,
    0.07418602620761479,
    0.15920096469707648,
    -0.1661249228778755,
    0.024733850915601877,
    0.10374748471122468,
    0.1345494983618278,
    -0.12687981693983374,
    0.13116852760264158,
    -0.11323411333425916,
    0.17873814487382322,
    -0.49195324721359507,
    0.11530681905461733,
    -0.06362936344017976,
    0.20511256083386006,
    0.08156472716612395,
    0.16063756605940327,
    -0.12929531606342465,
    -0.15633252838325698,
    -0.11430354930599188,
    0.25629644867910856,
    0.17587267076463334,
    0.1183540775545308,
    -0.20694920013124318,
    -0.30279753031811524,
    0.3215200297359852,
    0.3180062638937379,
    0.3247243928646657,
    0.20397754892696157,
    0.3272275693665108,
    0.07721901216577137,
    0.16055163336383935,
    -1.1549050292743879,
    0.08614800823089848,
    -0.0008421776094827609,
    0.1731006473481846,
    -0.027793715695302892,
    -0.124902668869124,
    0.27734498807822233,
    0.04243736117675006,
    0.27396215820862035,
    -0.22665296073876803,
    0.1009668948903167,
    -0.10612535584091211,
    0.26006009466472507,
    -0.19805562969133608,
    0.09588272258751278,
    0.3627957523129245,
    0.2200100633615302,
    0.036534118560067226,
    0.03404732431268038,
    0.05096601177552021,
    0.0537994157518028,
    0.044340126526505146,
    0.21221010908136764,
    0.040224831904853056,
    0.34371782598913475,
    0.06592516152499711,
    -0.17844133702833126,
    0.14737838268703693,
    0.1517500004814624,
    0.2863412581987224,
    0.1875584868307103,
    0.38375432098827783,
    -0.021156149666955212,
    0.08845105403945683,
    -0.8290229669570524,
    0.0422429088409382,
    0.2464360252872263,
    -0.1525529669654273,
    -0.282877402030526,
    -0.067583038430541,
    0.08950193423890797,
    0.12351423182725108,
    -0.08189903830601644,
    -0.044016198026427124,
    -0.00866910626354221,
    0.15689297817440967,
    -0.11582492144628488,
    -0.48296435031583934,
    0.23526235920605437,
    -0.23162789736184053,
    0.12353074507971515,
    -0.4851077307183647,
    -0.18880284560089855,
    -0.15224888078661536,
    0.23791537540290772,
    0.4376479149260378,
    0.19124944223969642,
    -0.15311179199662264,
    0.21189061152069424,
    -0.07742868085873557,
    -0.285074611803492,
    -0.19187237146028677,
    0.36432523916243387,
    0.2496895269515938,
    -0.011712808166257846,
    -0.2088582155616414,
    -0.0351291956012037,
    0.30207081945970893,
    -1.0326280534975096,
    -0.08953690374586795,
    -0.0637834656479423,
    0.043752614799928535,
    -0.13805726959808345,
    -0.07761228291177134,
    0.040789978360508,
    0.07197417558015672,
    -0.1743000948246608,
    -0.05473863238647663,
    0.10120726950531567,
    0.07238020680916901,
    -0.035108576552557544,
    -0.03401320170493584,
    -0.07300427470723184,
    0.19149075136746926,
    0.014343810091547008,
    -0.07807115413752937,
    0.3020934481675127,
    -0.264806424036736,
    0.019010252469660763,
    0.000990077229780996,
    -0.06856574597018868,
    -0.10725342362671993,
    -0.09371288933053447,
    0.17091131486970695,
    0.23954832008104607,
    0.16988575728343566,
    -0.19349017781728278,
    -0.011400223573893187,
    -0.14208436937787616,
    -0.15212159860728264,
    0.03987525085417387,
    -0.1260502508639327,
    0.09772702988871379,
    0.00410526223211102,
    0.00024337265675931753,
    0.015496407816904917,
    -0.01149906439707274,
    0.024271559122354625,
    -0.004921450901011336,
    -0.010987604403586428,
    0.012687283189896079,
    0.01729938263176118,
    -0.009220321742141081,
    -0.0043881234932123,
    0.006332030640172062,
    -0.009803711787153429,
    0.0123091959260356,
    -0.001532769425836357,
    0.01223016203378235,
    0.002056568317959811,
    0.008971798022922172,
    0.011896940576208022,
    0.009309755943738705,
    0.013238768065826485,
    0.0012059670203694913,
    0.0020983550773893173,
    -0.004188353868027293,
    0.014475918958879872,
    0.0017708527302922464,
    -0.0046934804372546325,
    0.007515605612629121,
    0.005764041372686351,
    0.007756670201163269,
    -0.020363856885218266,
    -0.0016831048709837284,
    -0.0034499958993597472,
    -0.018046394937847272,
    0.003939072864879004,
    0.006541611673439637,
    0.008365556025579979,
    0.009069220337775396,
    -0.016487427009969666,
    0.01249167451353004,
    0.009287161357190016,
    -0.0029601544106154206,
    -0.015874682937948838,
    0.006446643720076506,
    0.003553895516205511,
    -0.0033749918423861473,
    0.01831801903350633,
    0.003233309238860629,
    0.009338632423559801,
    0.005732139598142018,
    0.0011810331848982416,
    0.005877676628323859,
    -0.0033530305921891427,
    0.006091183882301914,
    0.012722926026628176,
    0.0006349954751549786,
    0.0069265358269035415,
    0.00732548599637604,
    -0.00997121329337466,
    0.004146439396078248,
    0.009068572683549306,
    0.00017291725505102582,
    -0.00549180282259809,
    0.010145355439103979,
    0.02158637594322195,
    0.006703845253389638,
    0.004974071060061272,
    0.015075046869573259,
    -0.00023854035259374536,
    0.006616540322968958,
    -0.0030351042184476895,
    0.005884878805780428,
    -0.023364621983053845,
    0.006857156365595942,
    0.010613511064704421,
    -0.0010823164039771213,
    -0.015747220530841235,
    0.016333028882579034,
    -0.00042198661981834715,
    0.0034421879911410106,
    0.013170525141973153,
    -0.0013171435647253218,
    0.004889307594299308,
    0.006650197824093891,
    -0.011287388710061,
    0.012661476726676007,
    0.0005962074698040094,
    0.00035330070490692745,
    -0.0034705823842359255,
    0.01341275801575342,
    0.001922682573251414,
    0.0026658153033563294,
    -0.020219118572007058,
    0.002854026177402478,
    -0.003229507300042749,
    0.003906493553291643,
    -0.005981066779917185,
    0.007788097433502294,
    0.017235174575676953,
    0.006781315223833593,
    0.008290804338940201,
    0.012970518651941484,
    0.008563401295836322,
    0.0022683636039487224,
    0.0047255456433444925,
    0.006412174000588524,
    -0.025033946864462142,
    0.014312091202786108,
    0.009015250389525196,
    -0.004160177005646085,
    -0.011305197033623341,
    0.008226816993813753,
    0.004932008844905649,
    -0.002592228795073205,
    0.021546686346534717,
    0.003639058533052551,
    0.0017572099073465577,
    0.0079537300280862,
    -0.003950832456447835,
    0.00633064983279899,
    -0.0055242187560584285,
    0.006440216721747495,
    0.009702267106460421,
    -0.0020535124479130738,
    0.0023749466793916893,
    0.005662432982305828,
    -0.004871376531048008,
    0.0060364119468165785,
    0.00531165963883466,
    0.009712039110771026,
    0.0016848831901863832,
    0.011849564406821445,
    0.023453482209926088,
    0.006638447943812443,
    0.006775817155146914,
    0.015648448446938946,
    0.003003577422353232,
    -0.001890656717684573,
    -0.002100385278826858,
    -0.00585883533830957,
    -0.003703888883319533,
    0.0021375029295495366,
    -0.005853317393864961,
    -0.005625497865010307,
    -0.0052989822620706,
    -0.0038301263368237834,
    0.0013675011636855366,
    -0.002005022927479159,
    -0.0037255013214963586,
    0.0007462185316469103,
    0.0022189883925855906,
    -0.0037196856971563686,
    0.0030899349744960914,
    0.00027094683280188625,
    -0.0017415563958311788,
    -0.0028784493938076865,
    0.0012157118241993001,
    -0.005472061818270742,
    0.002042306400131961,
    -0.0030257388929864834,
    0.0005535805398356272,
    -0.004396668046062394,
    0.0004926972657146155,
    0.00401738874239325,
    0.0015743928410946661,
    -0.005990115286000347,
    0.004381018675609193,
    -0.005835068172120449,
    -0.0023518853694307522,
    -0.0007300965428778738,
    0.005890307747524498,
    0.005528486085375675,
    0.006135151231235781,
    0.009747152841255952,
    -0.01971796798307181,
    0.009840276641879244,
    0.01658185454321628,
    -0.007128861503424031,
    -0.023558773625760417,
    0.018684505754202625,
    0.006694376152007477,
    -0.0071818690528053855,
    0.01765808275344052,
    0.006734129642092158,
    0.011665196703863567,
    0.0096417822641504,
    0.003964323109347936,
    0.00928359352418848,
    0.004819753794414626,
    0.0037280132481200385,
    0.005838709506218825,
    0.0005788380391565063,
    0.0039295807908578595,
    0.002015534995906416,
    -0.006889015032906006,
    0.013245015624187013,
    0.0012599342343541987,
    -0.004536627623769298,
    -0.00023328292244010395,
    0.0023956574122711797,
    0.013789345730800108,
    0.0022293052644329486,
    0.008302816942958936,
    0.015232532349011889,
    0.0008712682628116539,
    -0.0010695105192378522,
    -0.004895748099536686,
    -0.005307916963367349,
    -0.005497084067246471,
    0.0011373197802444447,
    -0.00786029089737513,
    0.007098534486922968,
    0.010815815160546038,
    0.0014825447900213803,
    -0.0026812066325085163,
    0.011603332968868398,
    -0.0034378438329896385,
    0.0019332285607882435,
    -0.0011682808432666478,
    -0.0021124820407380745,
    0.00431279170008379,
    -3.260538953154798e-05,
    -0.010678123312395345,
    0.0033019364429102893,
    0.0017454772765697886,
    -0.008220051192971228,
    0.001940589483929922,
    0.014555725229598289,
    0.0014207103805687273,
    0.0012820377933796246,
    0.005109822610453974,
    0.0006084086411747956,
    -0.006065801481347205,
    -0.007027509143007345,
    -0.00944052188231861,
    -0.007661566962715325,
    -0.007029162842748647,
    -0.0233794620887071,
    -0.005215150534649574,
    0.008316821228109818,
    -0.0015137845530469594,
    -0.0037524550400809373,
    -0.0125129581894199,
    0.020304787088655917,
    -0.008527273608420156,
    -0.007275390855666461,
    -0.012172178526767535,
    0.017669461718042394,
    -0.009092303603186335,
    -0.009835015916972502,
    0.014539008382406887,
    0.002665575168487703,
    0.010823852181244976,
    0.0017044388783013752,
    -0.0004048526516125663,
    -0.0006531311405929942,
    0.012971342488166194,
    0.0024222408225161693,
    -0.005261800082226757,
    0.0031373147344556196,
    -0.0009307055441906423,
    0.0043198320393811945,
    0.0027798303286331507,
    0.009067946179337294,
    0.011844078192059838,
    -1.6074987996323553e-05,
    -0.004253183739512844,
    -0.0018314165455933118,
    0.007635119829803957,
    0.005820400587870962,
    -0.008205029931237905,
    0.0051440976817449195,
    -0.005623800630087617,
    0.0006177354255661461,
    -0.001039685036951511,
    0.01031572947626869,
    -0.004564480535471732,
    0.009725676380178074,
    -0.004615758764617388,
    0.0051111343621858575,
    -1.9549789240597707e-05,
    0.0030376329791189727,
    -0.0020421397184030602,
    -0.00985250866125487,
    -0.0001662374931138149,
    -0.005235487192227811,
    0.0018905732927576142,
    -0.006009287226975434,
    0.010626776925592819,
    -0.007552400667207835,
    -0.0057643908371822405,
    0.0012768510694078042,
    -0.0037643126404669786,
    -0.015479235858029836,
    -0.006093364431310082,
    0.0065649165176005315,
    0.00687917642287988,
    0.013849489439729776,
    0.004357062743270209,
    -0.009697243590514222,
    -0.008406984303199184,
    0.0026750155639899825,
    0.00024997615627815535,
    -0.0020148640123455,
    -0.006561136490248687,
    0.011089674870777158,
    0.0033086093483105984,
    -0.007992980423455124,
    0.005386603604409677,
    -0.0017873624925141948,
    -0.0046199627226199,
    -0.002829071018485053,
    4.1158636147794626e-05,
    -0.0008031843406093875,
    -0.0023569125627077433,
    -0.006657537183449315,
    -1.0008706761454048e-05,
    0.006407257035865199,
    0.0020282221500721974,
    0.0016268672869403761,
    0.012224648059805363,
    -0.01723802305485741,
    0.002020950429099592,
    -0.00045993398162565835,
    0.004295578839727402,
    -0.0038839363858285915,
    0.015058373155375261,
    0.006345728762676604,
    -0.010532532752178676,
    -0.004762401968970968,
    -0.00021594726917022785,
    0.0001346134181672331,
    -0.002572255700860474,
    -0.0006312674113604056,
    0.007690287210153386,
    0.00036590362191042734,
    -0.004476683408636598,
    -0.009675795468307801,
    -0.00530043722773766,
    0.0025660842055374427,
    -0.00022352191379710522,
    -0.002372028259556232,
    -0.0016362501932269595,
    0.0059997968658432035,
    0.0062080849469267506,
    -0.0019016263598847115,
    -0.0025906669175379832,
    -0.010075980031869602,
    0.002507682267895041,
    -0.0077457092565747605,
    -0.006413245270492921,
    -0.001853298992125912,
    -0.01066156184844633,
    -0.008541777408281298,
    -0.011870188553876844,
    -0.007540244932465717,
    -0.006070170043780591,
    -6.898954718507831e-05,
    -0.005007730886852183,
    -0.005985248010708836,
    -0.004622031943203872,
    -0.0029358365718608866,
    -0.0019608823024615347,
    -0.004727791063527703,
    0.00228662571524396,
    0.0016761043887189456,
    0.0029276557830947747,
    -0.010577016645101,
    -0.00012204618298752797,
    -0.006330461045421465,
    -0.0035602513301861228,
    -0.005890355537948369,
    -0.0056634972332843024,
    -0.002730739832981432,
    4.315080117424146e-05,
    0.0041185219659505634,
    0.015817848533992047,
    -0.0034474301623358163,
    -0.019445975665725746,
    0.00708248420683035,
    0.013146996844360548,
    -0.005491830561683563,
    -0.015146101226534474,
    0.01899530445176657,
    0.013193632821922936,
    -0.007037450099274294,
    0.019797834315312672,
    0.0006138548490439066,
    0.006480379022389059,
    0.0054002813371175585,
    0.006034676387199787,
    -0.0030035795508934465,
    0.010148621147538337,
    0.01043461729532344,
    -0.0002455206782874545,
    0.007675264892364505,
    0.005271565710972051,
    -0.004756904348459943,
    -0.00994363715091249,
    0.008406185043792511,
    0.00525285061716022,
    -0.005250425102725236,
    -0.0021508169514937053,
    0.006100467960824391,
    0.02147094285622045,
    0.006642928336825472,
    0.00711637653917416,
    0.014716064944866856,
    0.005867042624964867,
    -0.002970121803693469,
    0.004373041435348383,
    0.0018065682957118566,
    -0.018770461772881497,
    0.007455281325037997,
    0.011927915092631696,
    -0.0057282898940072225,
    -0.008042613784473688,
    0.0009683610891408223,
    0.015277818279538061,
    0.00032061009105321367,
    0.015213238287496468,
    0.0020663397471413344,
    0.008997012933874778,
    0.004553891742857819,
    0.009582660470641612,
    0.004333415611223955,
    0.003939351893261227,
    0.0008878282054778873,
    -0.002429669891416324,
    -0.006648148362386444,
    0.010045034380056677,
    -0.0005031936631216181,
    -0.008855998197873638,
    0.005099623474357378,
    0.010893768531466386,
    -0.004110207218839171,
    -0.00707945300358574,
    0.007618281227387922,
    0.01845568173458302,
    -0.0023552276566436614,
    0.006226391916796259,
    0.011145927929405379,
    -0.002448926443275874,
    -0.0005325784112932574,
    -0.0019969529127508833,
    -0.007916107717787044,
    -0.010728749978378669,
    -0.0032995403817728725,
    0.0011628242963656506,
    -0.007955701366851782,
    -0.0012744872245756343,
    -0.011128127053561846,
    -0.0004503581648362207,
    -0.006564818461390513,
    -0.0037430561158629926,
    -0.010906234679099513,
    -0.004337739813711165,
    -0.003490614620103568,
    -0.010966033276443979,
    0.0024843736521604374,
    -0.0012819401918947437,
    0.006849409455066268,
    6.15956773923395e-05,
    0.0010730181892512373,
    -0.0027325541205369484,
    -0.010408129988551383,
    -0.007660927070114758,
    0.0006545693639041391,
    -0.0054316529765156005,
    -0.005075052832439983,
    -0.0016940166475573602,
    0.002364532988932601,
    0.0006617869041655389,
    -0.005643708269123062,
    0.0036438441310110946,
    -6.566252273806145e-05,
    0.004574412219869998,
    0.0038648738584067667,
    0.0001354273399829854,
    0.0010017314488994728,
    0.022560346955250964,
    -0.01472423102723575,
    -0.009402878548198624,
    0.008110522959277942,
    0.020325829456081513,
    -0.015429223174225355,
    -0.0057671755624837066,
    0.009527930261007301,
    0.0010743144088830804,
    0.011904887245745944,
    0.00610347485361835,
    0.011345897640207997,
    0.006737460666970455,
    -0.008016501212528879,
    0.006710373415359713,
    0.013726672625819772,
    -0.0034864005794220483,
    -0.0005487663752991599,
    -0.0015767508477028504,
    0.009057968090139045,
    0.011892410835571628,
    -0.0012596791411620715,
    0.0011880162806454362,
    0.011395844475431119,
    0.019250205114421194,
    0.0013794218897054706,
    -0.012801152463699329,
    0.009362708061520184,
    -0.007494423472660282,
    -0.008764391558111553,
    -0.0007056625111166178,
    0.005903651744646928,
    0.008798496015200758,
    0.007665602953547277,
    -0.023018849446471236,
    0.013316008511649404,
    0.009006553929984116,
    0.000766376515135053,
    -0.015455530469243082,
    0.01083033290956166,
    0.011602698485243557,
    -0.0005175124764956846,
    0.018283702065777823,
    0.00832882591288646,
    0.007665849846288911,
    0.002346050801623514,
    0.00406934075796867,
    0.007577602220442908,
    0.004915985273118955,
    0.0064301392621905155,
    0.008207123838955064,
    0.0015500009341036368,
    0.007031932652277632,
    0.005392954744619345,
    -0.006047004195826093,
    0.012135014976636264,
    0.0010299094851694425,
    0.0014790105471420853,
    0.0005925404296868406,
    0.004098283566542692,
    0.02004160480842024,
    0.00047333122698498117,
    0.004661048542673507,
    0.012404823938725567,
    0.0007179511221332399,
    -0.0025453898738642786,
    0.01212360063780588,
    0.0068721986842864916,
    -0.01624271464411481,
    0.007223507329740526,
    0.010806775327895483,
    -0.006456422827858385,
    -0.01988202685156401,
    0.017887385604102784,
    0.010472631625989829,
    -0.0014651407098486367,
    0.021003716665808622,
    0.004833038069058587,
    0.008294023358008783,
    0.007273568580790906,
    0.009747656833395539,
    -0.0006750695051149835,
    0.007678623295513742,
    -0.003366285656373163,
    0.006378459571187325,
    0.002331258630546589,
    0.0032908570561563403,
    0.011090107534415973,
    -0.0007469742515498846,
    0.012363704431660882,
    0.005366466176557299,
    0.0003568804272767349,
    -0.007048301033542875,
    0.00526312703479872,
    0.0180272874544885,
    0.0042298288563729115,
    0.006766495976706388,
    0.016241365264179568,
    -0.0002896067292408699,
    -0.004865860179935644,
    -0.005595590964559177,
    0.0018320922390958807,
    -0.0036661870222267356,
    -0.005048230751414499,
    -0.00795549091895293,
    -0.0006811225945463301,
    0.005786783865041135,
    -0.008477661782708718,
    -0.00589815740761828,
    0.003620867127749665,
    -0.008487483680047515,
    -0.004252589979460148,
    0.002815429103829519,
    -0.009856693185222249,
    -0.00876093754514723,
    0.004654731596549963,
    -0.0012815278868899605,
    -0.003935127809350455,
    0.004288294525393575,
    -0.005660395897970198,
    -0.002987309009441351,
    0.0016650874944035229,
    -0.01019795613536452,
    0.003088078678073752,
    0.0005460890425513088,
    -0.001748361084466126,
    -0.008424696388506115,
    -0.007976623215625336,
    -0.0038663640216850194,
    -0.0010670098458923788,
    -0.001196375292600127,
    -0.006960148329324461,
    0.004831430928833638,
    -0.003407097675695894,
    0.005162052548776315,
    0.008503553947136757,
    0.015370730510990057,
    -0.006658480474395895,
    -0.004882923588766869,
    0.008291725672480163,
    0.012697098533627781,
    -0.004501664791107354,
    -0.0044451795485846044,
    0.012725598500854546,
    -0.005559845026429453,
    0.006882603033441032,
    0.0076188773714980645,
    0.009351358555238339,
    0.012136439962500686,
    -0.014588545382950707,
    0.01720352029482187,
    -0.00853956604120089,
    0.0075953968146571845,
    0.005926767783904437,
    -0.0036128176386720236,
    -0.005562645102353315,
    0.000659345564718964,
    0.0011846164246991518,
    0.003967762541880854,
    0.0057980316158609164,
    0.000935202267865873,
    0.005735361222609694,
    -0.0020025581379705354,
    -0.003481537965744373,
    -0.00591799750874786,
    -0.0132516776997568,
    0.006523520523512178,
    0.003187350138536483,
    0.01283449914698102,
    0.004450465290925043,
    -0.021706323849545173,
    0.009472395960499487,
    0.015168264763181753,
    -0.009409159026200244,
    -0.017546178452675747,
    0.01816194015422875,
    0.0159771534157409,
    -0.007024928357033528,
    0.02535343277735672,
    0.00761671960752716,
    0.006619050186006212,
    0.0067450971995592504,
    0.00853909513498714,
    0.0032722591790547086,
    0.0026877282831715564,
    0.003475206887793844,
    0.005867595707724588,
    0.0073938937313154885,
    0.008634837190898876,
    -0.0012099565545780058,
    -0.0071337815807342555,
    0.00960080852778627,
    0.007961090094622772,
    -0.0022474427554435555,
    -0.005991271302002277,
    0.0068321215031337795,
    0.017918045434022627,
    -0.000549133651851305,
    0.010187809925421946,
    0.015403763226422819,
    0.005635341737855984,
    0.0050084893121013635,
    0.006272262758707823,
    -0.0037241130812328263,
    -0.02227474280458206,
    0.015490662514791404,
    0.008136412268678651,
    -0.008730352322088266,
    -0.016213265544117908,
    0.018913177447043912,
    0.015177743634326755,
    -0.005547174948223373,
    0.02353312796918612,
    0.00918241462465692,
    0.003085289564268425,
    0.008541062210683912,
    0.00413288201281191,
    0.010003786233915606,
    -0.0017955336820271181,
    0.00876875329590134,
    -0.004531706251425254,
    8.668535699927236e-05,
    0.012265780160897556,
    -0.0055002368742851455,
    -0.006447550421607058,
    0.003528338266998893,
    0.00423173728942591,
    -0.0012385851857165144,
    -0.006916515489778793,
    0.006669348489779249,
    0.022145653485750587,
    0.005593968420258095,
    0.00023422444437771285,
    0.0137789321474524,
    -0.002717064351027348,
    -0.002666541208482905,
    0.006370618440644281,
    0.009149184593168724,
    -0.008719428061143614,
    0.005790411564833393,
    0.003328269829726633,
    0.0010735231484440544,
    4.7094365278421477e-05,
    0.01169153519907552,
    0.009423180573283231,
    -0.0038582447581088464,
    0.007494561261970453,
    0.0025381937883420546,
    0.005707587897828352,
    0.004713931097569254,
    -0.00447432998394214,
    -0.009842766081581387,
    0.001507155252581284,
    0.008684190413535029,
    -0.006049998935320621,
    -0.0005668802010573337,
    -0.010149728878231411,
    -0.0012515031832096163,
    -0.0035122675702609096,
    0.008153894582852653,
    0.007927261959427495,
    -0.0013935004219121085,
    0.0010898352667344658,
    -0.003307543473869707,
    0.005037076885520809,
    0.0032353834418008547,
    -0.011756994315332898,
    0.005907552421551622,
    0.004501210588993304,
    -0.0037304400074641034,
    0.005458695659532312,
    -0.009018729855841769,
    -0.0025530208191732566,
    0.001041224887930868,
    -0.0037327954117115317,
    0.009994885581382723,
    0.0028051722386923912,
    -0.0018906405876339986,
    0.0004572967700243758,
    0.008841351912864776,
    -0.005542976780839341,
    -0.000608273048222677,
    -0.0022409446248702943,
    0.005645140712661321,
    -0.01137518690098423,
    -0.013676667464141834,
    0.016828632899439512,
    0.002558984626461628,
    0.018539316101777024,
    -0.007863713250504561,
    0.009010648334139252,
    0.0037873850705933006,
    -0.0014151010181863248,
    0.0010732851974165807,
    -0.005795109122397294,
    0.0024557055669365726,
    -0.004747626103293396,
    -0.0030243416956624615,
    -0.015759453403230136,
    -0.011826341624703383,
    -0.0017282949337372204,
    -0.0052904769993921755,
    -0.004164019289827064,
    0.010624717707367828,
    0.005800368461253496,
    0.00877283154919548,
    0.026505947032600712,
    -0.006557439242903173,
    0.004341427864521838,
    0.000276270015988592,
    0.017982956624542648,
    -0.006713075481802753,
    -0.0031297722806337127,
    0.007934447214715173,
    -0.012648132307355049,
    0.018147919697592642,
    0.013114064665811696,
    0.010348526569967974,
    0.006941865219539714,
    0.00647286271824218,
    0.0010205790937457162,
    0.008984491342312575,
    0.0012971052054964246,
    0.003288701012009302,
    -0.004847511621819678,
    0.016675866449346217,
    0.013492627742588574,
    -0.0049192002294452305,
    0.009695173640336298,
    0.004991903132697689,
    0.012472947228282722,
    0.009297429178122771,
    -0.010909163483556129,
    -0.0013219209170551801,
    0.004289056224902515,
    -0.027718425722881183,
    -0.006945606350861565,
    -0.0053979712145553575,
    -0.005314978650940736,
    0.004695577947217206,
    0.0029307336580983476,
    -0.0018043582275317712,
    -0.002701053136638102,
    -0.00043606270723222984,
    0.0005886603926525547,
    -0.010211973524186695,
    -0.0033242346814908435,
    0.009613873196671611,
    -0.009649929738156633,
    -0.005871853064203136,
    -0.006172029520612914,
    -0.004073334686690093,
    -0.0005432457420848008,
    -0.004285912327327703,
    -0.005657238296184126,
    -0.008941869551504457,
    0.004012554541117323,
    -0.0014606791319254724,
    -0.004630802799155329,
    -0.010731415410146043,
    -0.010394778853610459,
    0.0026464732236441448,
    0.005031727830037423,
    -0.003873605519011317,
    -0.002545800679191822,
    -0.00554991207552997,
    0.0005501746967019924,
    0.0017905315781823914,
    -0.006210110437357452,
    -0.0012743562104580038,
    -0.0030995705262501757,
    -0.007530154183939146,
    -0.005397902975147047,
    0.005861760328072383,
    -0.0005757697748164428,
    -0.0013178603103880704,
    -0.005191342739001,
    -0.006601003908474003,
    0.0009811713548392054,
    -0.005237962137849277,
    -0.001200821476693969,
    -0.003200198232315336,
    -0.0011953536942558973,
    -0.010512207891062844,
    -0.008501909046117005,
    -0.011103068313431396,
    -0.006912327841605372,
    -0.00889315668750223,
    -0.009029667642184816,
    -0.0022608005720549927,
    -0.003926968803675063,
    0.0004492731194609362,
    -0.0027768715813923273,
    -0.0007948985278513816,
    -0.0018412453789271692,
    0.0027424819449948317,
    -0.006808958515485742,
    -0.010924440732486614,
    -0.0030385416196961152,
    -0.005865296883711715,
    -0.005264449717713431,
    -0.005373845046267799,
    -0.0029500315133219497,
    0.004445341173953263,
    -0.007375183512945164,
    0.0008034511860822317,
    -0.010949637056658778,
    0.0012008988106275837,
    -2.5737331975215222e-05,
    -0.0005026739780446545,
    -0.007992947263519977,
    -0.0005245293374056064,
    -0.004367138275590507,
    -0.005472154538821533,
    0.005498546838432801,
    -0.008861209116756915,
    -0.0024245998260373144,
    -0.0031357446638080842,
    -0.008402376075896629,
    -0.003664422604855237,
    0.00011452419241012915,
    0.000221127050105106,
    -0.0009167232903081557,
    -0.0009210656076605319,
    0.001225706282085505,
    0.0006377292130110861,
    0.0018543041976978088,
    -0.004209313681258838,
    -0.005799382415484655,
    -0.004407405646293446,
    -0.005292114029633063,
    0.0076409019432368925,
    0.006719836724901182,
    -0.003887369782078913,
    0.0036821289976220126,
    -0.0037109775442535475,
    0.005005661784922058,
    3.8065339692050675e-05,
    -0.0028365399497268513,
    0.0069051717185878835,
    0.009052812708113147,
    0.002859894725859367,
    -0.02119777866815183,
    0.014043512221756744,
    0.011684265847566051,
    -0.0092136930128623,
    -0.019196296644224647,
    0.014433137203439701,
    0.010096574919372438,
    -0.002384767915188731,
    0.02163414753980555,
    0.0003275141286539186,
    0.0054580011975970885,
    0.0066849785057779615,
    0.01033600185427336,
    -0.0012811524474442308,
    -0.005242061528520347,
    0.006429541401641745,
    0.00017224985487264446,
    -0.00012672779534551144,
    0.005387108476134066,
    0.008344565602225755,
    -0.00546754902261796,
    0.006917846749411642,
    0.0020039622649515587,
    0.0004680328498406731,
    -0.0017350315008535868,
    0.006644901279465298,
    0.018234829809754802,
    0.004297631856743275,
    0.0015025707478594382,
    0.016672800052707645,
    -0.004671047654778471,
    -0.0033608277342002026,
    0.007869832347633483,
    0.006187237674104605,
    0.019439094674573713,
    -0.0048673681289753785,
    -0.013130831891555492,
    0.004542675636629216,
    0.013176592941594248,
    -0.006561425538040359,
    -0.019657907642814575,
    0.011022925615449949,
    -0.006192449505501012,
    0.016742816275562886,
    0.009880913107048984,
    0.0013548198427109812,
    0.005282452831836957,
    -0.013461440580231058,
    0.02000272817968998,
    -0.00291345135312809,
    -0.010605562435354302,
    -0.0015411047875208694,
    -0.006650192951655872,
    0.010426783542495892,
    -0.0045390838187620314,
    -0.0010484243050311013,
    0.001823693914671853,
    0.015021557214121661,
    0.010578099427489149,
    -0.002698044951839856,
    -0.014596864074772066,
    0.00909751821041949,
    -0.005271908099354383,
    -0.018169931178993917,
    -0.003297704866998228,
    -0.0016224620198127477,
    -0.009035408436789748,
    -0.005384272425122656,
    -0.005202925628977767,
    -0.0034256075990952584,
    -0.004369431542382063,
    -0.0009098086329923259,
    -0.004881268773860915,
    -0.0004499224664211327,
    -0.005363480655755891,
    -0.006321377527305747,
    -0.0059159013151228795,
    -0.006551515354629285,
    -0.006815881711936532,
    -0.004985004180701679,
    -0.0029754300322629565,
    -0.000347774272704098,
    -0.001566305042745317,
    0.004495915959903352,
    0.0008154572527909622,
    -0.005206380798108705,
    -0.003524888253213568,
    -0.005619142211793785,
    0.0006989194032084288,
    -0.00769352221192327,
    -0.0011490616219875132,
    0.0023460024303781006,
    0.0010579398565992053,
    -0.004084951378661297,
    -0.003281440420805937,
    0.0025240924278031344,
    -0.00421417427786962,
    -0.0012070698645528816,
    -0.010797267368234213,
    0.0003739582225656717,
    0.010199661169569331,
    0.006009117263224029,
    0.024228323322761477,
    -0.008823341383061652,
    -0.0012897038760276475,
    0.01139763751573907,
    0.023750414398663256,
    -0.006020735195369044,
    -0.005210312135439501,
    0.004200615629939864,
    -0.001231108622145735,
    0.003148573941297822,
    0.0004113411002626584,
    0.009551547504625599,
    0.006283809456720709,
    0.002012485879243065,
    0.005973172707354628,
    -0.0004344126358993117,
    -0.005790838784870807,
    0.004976577023985924,
    -0.012575678468649914,
    0.00956103921081457,
    0.0058069719337457745,
    -0.005185478608849367,
    -0.00014776024418891953,
    0.00043319950155481455,
    0.005578543538931607,
    -0.002083145147573261,
    -0.00892065064765417,
    0.004891965183680972,
    -0.000379690596406681,
    -0.014714308676227906,
    -0.0037195026191587867,
    -0.00225430893588044,
    0.0008108525643699321,
    -0.0004153580295912565,
    0.0019043725134174315,
    -0.00572395364871355,
    0.002140749051134349,
    -0.002429107799647105,
    0.0062366368852248355,
    -0.003463252937398715,
    -0.0009553148276485603,
    -0.010188595608142729,
    -0.004843843300741587,
    -0.008366000397461553,
    0.002483745131538867,
    -0.0030203328732799823,
    -0.006617260738876845,
    0.0013728902065435259,
    0.002932060379408507,
    -0.0020451167842290164,
    -0.002506650207722405,
    -0.0072904035979206305,
    -0.00219196558859035,
    -0.006189195708278039,
    0.008676540335666415,
    0.004179698690456105,
    -0.0020652441882345017,
    -0.008581086542801984,
    -0.0030484110815465985,
    -0.0019584866018189195,
    -0.0018133094146882038,
    -0.01120668514083275,
    -0.004375364859336474,
    -0.007710964996551638,
    0.002607875650031242,
    0.006969714740789172,
    0.0111132085154572,
    0.005613159741174166,
    0.025042665149162233,
    -0.008564448584458798,
    -0.009785166077867715,
    0.0019324515825276357,
    0.021433340392241765,
    -0.011157042808274942,
    -0.008898421420463674,
    0.008287155047636368,
    -0.003949524278197699,
    0.0133503439289388,
    0.01267146365435182,
    0.0031165465857443723,
    0.011099617694197142,
    0.0034593095086516736,
    0.007869125845876882,
    0.005090355979941164,
    0.007219242579634952,
    -0.0010906159475894625,
    0.007092184741831036,
    0.017286660741218013,
    0.007321588564678339,
    -0.0008712278573774885,
    0.0005894214645961112,
    0.014507642328243935,
    0.008916731351366667,
    0.008564541382529238,
    -0.015185363368167962,
    0.013123525864787842,
    0.0005619085968435768,
    -0.015685412470621257,
    -0.0045260512319489545,
    0.004406851559194841,
    0.01791858254848952,
    0.007989875553097698,
    0.025599987403822386,
    -0.008132769347374648,
    -0.010014415332750076,
    0.01260236334705894,
    0.017121892518247,
    -0.008130253680462699,
    -0.0066589295769172024,
    0.007967851339556879,
    -0.0015929685085351803,
    0.007006879095711967,
    0.010237136417144537,
    0.005181811010050925,
    0.011788642003290955,
    -0.008415705221137626,
    0.0006228563028386795,
    0.0040969721888851705,
    0.0031945414573752422,
    -0.0009611499114235333,
    0.004624432363304594,
    0.012646235116805923,
    0.0063662847682907624,
    -0.005603773692923596,
    0.00274562733990365,
    0.012516049542048806,
    0.005571231344319499,
    0.0041687194201163996,
    -0.017784911966889572,
    0.004420409307154537,
    -0.0018032512294953538,
    -0.0169541690701433,
    -0.0029536357393697248,
    -0.004861832673438971,
    0.0008265774799413779,
    4.629244365421626e-05,
    -0.009895269599112135,
    0.0002926431684363377,
    -0.004449054937288018,
    0.0038965922009937056,
    -0.01083081449551713,
    0.0013561890914746272,
    -0.006989612601836391,
    0.010603873934563956,
    -0.004476455336215724,
    -0.0056044248393085985,
    0.005207001929965847,
    -0.005505087930824273,
    -0.008341831196168147,
    -0.013900628446772022,
    0.015818790297963608,
    0.002023373403240508,
    -0.003299280001264884,
    -0.0026899119467456893,
    -0.0002870424787675534,
    -0.0015385740222346538,
    -0.0015564704951350242,
    0.003104095834721503,
    -0.003994642940953768,
    0.004864599469861787,
    -0.0008097062607282945,
    -0.0020221329641435582,
    -0.0015404508158904228,
    -0.005771692743620405,
    -0.00971908329855946,
    0.001802625955710092,
    -0.004750356627889226,
    -0.009445474779955495,
    -0.008206554918668259,
    0.0025745555221517347,
    -0.0022744066387612263,
    0.005359736051678356,
    0.00437350521481985,
    -0.0017971500736754277,
    -0.010766411487616983,
    -0.005461900879110158,
    -0.0011249679814492712,
    -0.0069465893124979776,
    -0.007612424870308628,
    -0.005455721958582161,
    -3.9043264413434573e-05,
    -0.0023583745152414262,
    -0.005731349302405229,
    0.004498845239109436,
    -0.008804264383007174,
    0.001043159302381237,
    -0.0010123503154174547,
    -0.001070095401790856,
    -0.007296200451212887,
    0.0021778638518060007,
    -0.005707326172740179,
    -0.0037387125074841484,
    -0.0004131163418815624,
    -0.0004872431102624117,
    -0.00503558979066858,
    0.002146506889239933,
    0.004412232166680658,
    -0.009122942028114716,
    0.005960830669669652,
    0.005738532728331348,
    -0.010010061673345835,
    -0.006833610810216851,
    -0.0009577432767384752,
    0.00048501131651712087,
    0.016904906113224018,
    -0.007406465445270823,
    -0.002750427763698377,
    -0.00248067119718074,
    0.015657526044853026,
    -0.00219504812585187,
    -4.548590654595535e-05,
    0.006893387045043097,
    -0.000420155524861523,
    0.00218823485526705,
    0.006813184132647528,
    0.005764573805331531,
    -9.155046945582364e-05,
    0.017014603987139693,
    0.0015210872030619446,
    0.010339415859323223,
    -0.0041039237260404385,
    -0.006755658758719574,
    0.003884741945078619,
    0.016328657051205144,
    -0.00729134567284436,
    0.004694121844047545,
    0.0038992495182391244,
    0.021972760370464972,
    0.004696374451621716,
    -0.0024165370113291337,
    -0.019447532240346635,
    0.0017685096133419,
    0.005447139963087675,
    -0.0034351672500925277,
    0.0005979466564939556,
    0.005503847176659328,
    0.004384902241191637,
    0.005781084270698627,
    -0.023284770185610638,
    0.010657215292036063,
    0.009677027284301429,
    -0.0030588343172142513,
    -0.012610750581031999,
    0.00705043814714853,
    0.012394515240079958,
    -0.003760024253439779,
    0.01494334551387341,
    0.0074162391981539766,
    0.013582240052793494,
    0.005352078813112365,
    -1.2422551641401628e-05,
    0.0054417937785292475,
    0.012763936691385824,
    0.001754805773378633,
    0.006021955934396508,
    -0.0018010065690348268,
    0.005166644902672947,
    0.0031253771736372195,
    -0.00713649472760487,
    0.011099126517011906,
    0.008437674014947013,
    0.0015946501429561213,
    -0.0035960484937709153,
    0.0007792250219594422,
    0.020956840877508646,
    0.006948038868786118,
    0.009660561495170856,
    0.015330377392709427,
    -0.0007091369093706645,
    0.006965205061445973,
    0.004517397293200292,
    -0.0025354932615685214,
    -0.01945277146013935,
    0.008774677758934958,
    0.015526974373494453,
    -0.012772501448793584,
    -0.01839546129523285,
    0.008673630640252566,
    0.012709269292001755,
    -0.0072457737837985535,
    0.019216278853304364,
    0.011619894987655444,
    -0.0037753763758359682,
    0.006388805419294665,
    -0.0047744593981402395,
    0.010111529192768651,
    0.007668605734245449,
    0.008005851805924148,
    -0.006047700682023835,
    0.0005862311338764086,
    0.008033008780481798,
    -0.005382535728179936,
    0.0015956677512937061,
    0.011805950628130694,
    0.0008443376859766531,
    0.0018763495406762714,
    -0.009874497256850872,
    0.0044501673317973904,
    0.01833443672300678,
    0.004253527145891129,
    0.009463060499499859,
    0.017805047576949923,
    -0.0033939108276339405,
    0.0026727880808982305,
    0.015452928455019247,
    -0.005348191005091909,
    0.029372925993332258,
    -0.009034546543385466,
    -0.013583466572029102,
    0.009933446857804683,
    0.014286677684161963,
    -0.00569481949210972,
    -0.008429727981551964,
    0.013386355936587614,
    -0.009908308807024984,
    0.008954915631140812,
    0.01879529926059025,
    0.01652473946036378,
    0.013855770417104934,
    0.0021889479621498456,
    0.011082863658101225,
    -0.0013210393567104105,
    0.013808710465244966,
    0.002228255148830612,
    0.009881423873656646,
    0.0003124865825639941,
    0.019870466712290962,
    -0.007902190916034463,
    0.0003388699162526107,
    0.014176454682233587,
    0.008969411788257985,
    0.007885671263813943,
    -0.011310942509737614,
    0.005184754874867758,
    -0.003270856072887102,
    -0.018125743220148226,
    0.006658688558240881,
    -0.0055943734194512495,
    0.008449436836615537,
    0.011904358720768962,
    0.018738652086933448,
    -0.010759446265865334,
    -0.007431135625867585,
    0.005164460837216062,
    0.010148513014892554,
    -0.006779115315763407,
    -0.009209724097123752,
    0.016142314346303147,
    -0.004861170443915603,
    0.002664701643870376,
    0.004447766528075882,
    0.004094352266193976,
    0.002503425700337526,
    -0.00264000872360892,
    0.007952113429310076,
    0.013694788747347206,
    -0.004276812809134764,
    6.774196225722971e-05,
    0.0010665771650277761,
    0.007361353338156005,
    -0.003922274109507911,
    0.006346727947309562,
    -0.004641344774511183,
    0.0056975463411902865,
    0.020112912163350163,
    0.0053529343743399975,
    -0.010153273855351478,
    -0.009593549181764836,
    -0.00136135841932003,
    -0.011902111684390718,
    0.0007649370669574329,
    0.00537224386767408,
    -0.005193403814162188,
    -0.007613052274868525,
    -0.013505580384086979,
    0.012506698823664964,
    -0.009000365935538065,
    -0.004355028201648971,
    -0.01712380538644423,
    0.021345404859692912,
    -0.003970342036579349,
    -9.565342299472765e-05,
    0.016151881294482084,
    0.007018460650498271,
    0.002288578908880667,
    0.0028524607109876856,
    -0.0014741314160591338,
    -0.01365932941759068,
    -0.0009463605190954486,
    0.011072419595546067,
    0.00810744063934518,
    0.008119873186827959,
    0.0030324685952815133,
    0.005407678978338837,
    0.0033321845096540115,
    0.007150333600958898,
    0.006702938190238178,
    0.004921925963743661,
    0.0023088679070015373,
    -0.004965913067792632,
    0.011446252216638041,
    0.00698293014070416,
    0.01437796049379996,
    0.01338831634534787,
    -0.005755004639714694,
    -0.0006447496654485386,
    -0.006216465467621421,
    0.003944386448800144,
    -0.00495627662289765,
    -0.00997849026525337,
    0.008549326398554082,
    -0.012168951043547222,
    -0.006119503619397126,
    -0.008022440813458882,
    0.01002246868330725,
    -0.00840617766405236,
    0.0007972204632818354,
    -4.417120147611084e-05,
    -0.007042008100541963,
    0.0008738677985050871,
    0.006323719523906663,
    -0.0018475185726791895,
    0.010471249923561283,
    -0.0033823888805065796,
    0.004592685423926338,
    0.003669488209586844,
    -0.008555997773882936,
    -0.009000355782991293,
    0.00430165602126434,
    0.008605857651512547,
    0.0019422359912969773,
    -0.0018873021785098445,
    -0.005245382771354177,
    -0.0036016466895328345,
    0.004137009928819821,
    -0.012681962644916143,
    0.0005272858757507931,
    -0.0035259218862774126,
    0.0007211554379668739,
    0.004065261733386714,
    0.0048432415905830615,
    0.011277439410029733,
    -0.021355937267822787,
    0.014892878692961208,
    0.008281312240028954,
    -0.0025670490740249277,
    -0.012546030635076493,
    0.017818587897975028,
    0.006026041670147623,
    -0.003997086218237132,
    0.020738334235062997,
    -0.0020849198938518725,
    0.007308729331494651,
    0.009695190179522915,
    -0.0016066082474662634,
    0.003215981150363119,
    0.0014976357505389862,
    0.005568493279276338,
    0.007785464030849339,
    0.0006432423559101328,
    0.004516448054545563,
    -0.004187265711263,
    -0.006769247345331408,
    0.007318337281563385,
    0.0026481047720759306,
    0.005287905053776936,
    -0.008419995730370836,
    0.0025415763992095684,
    0.02304991655723871,
    0.0071790918638165325,
    0.002436594156413773,
    0.01744275999430749,
    -0.008048472213919189,
    0.0036639516020596486,
    -0.004730132298363092,
    -0.009351026014599147,
    -0.0056332096798957145,
    -0.009903007069440906,
    0.003593302728952295,
    0.0068512873293373674,
    -0.004447508798259808,
    -0.004640984550335057,
    0.004981621004554026,
    0.005766242966363524,
    -0.004387953873281741,
    -0.006532667053004676,
    -0.003952968918774864,
    0.004810008444948195,
    -0.004646579836842907,
    -0.007254194017429613,
    -0.00774399529533641,
    0.0050533317092397055,
    0.008321081235375428,
    -0.001130160354507701,
    0.01373716746272063,
    -0.012367523105967405,
    -0.006226324325781842,
    -0.009282640646533488,
    -0.0064398501680422915,
    -0.0046486293264956825,
    -0.0007583720114833483,
    0.006191959196253063,
    -0.009306958248276905,
    0.004877262186271087,
    0.004250584339762523,
    -0.013126300310390205,
    0.0037226222088764917,
    0.00558877831260373,
    -0.002262823322528135,
    0.001952747955201185,
    0.02683699777370162,
    -0.004446013037638846,
    -0.014706429935350476,
    -0.01764437799231852,
    0.01912103651846579,
    -0.006651326599744281,
    -0.010169851419146503,
    -0.008081546420589041,
    -0.0001867420732338268,
    0.012520632589269123,
    0.0022645143587875817,
    -0.0011542969909088,
    0.00921938226599648,
    -0.005940397871256511,
    -0.005684582352652128,
    -0.002830942266166652,
    0.014375815111173083,
    0.005247746091030786,
    -0.007094074417303958,
    0.0012589970231784895,
    8.92515423732917e-05,
    -0.0017108575454582618,
    0.004480829211522711,
    0.016523472753465027,
    0.020992525236257376,
    0.012233958756408245,
    -0.0035664607324150522,
    -0.0016906486830522449,
    0.002421495529978319,
    -0.018073667976094884,
    0.0007743886334991516,
    -0.0042022877331778724,
    0.0035619866646222687,
    0.0031583450954232044,
    -0.002700169676043839,
    -0.008173860561539379,
    -0.009441872197445309,
    0.007225029145127261,
    -0.002690041864957013,
    -0.00907738049058764,
    -0.0009140078255993458,
    0.00962587838625178,
    -0.007736715881319468,
    -0.005322110289359367,
    -0.006856905688381508,
    -0.010852393450064746,
    -0.008267597578153634,
    -0.006815922149641033,
    0.0004717410310884392,
    0.0055643986558681045,
    -0.007327990209408362,
    -0.0016690093001977542,
    -0.007167449664013918,
    0.004042081888548757,
    0.0013952314103112514,
    0.0044770715754247035,
    -0.0012880901868594582,
    -0.0038172623813470287,
    -0.0009030921911553014,
    -0.0051183427056787825,
    -0.008086605083414805,
    -0.004535770099730099,
    -0.005732410998357805,
    -0.005870151269157645,
    -0.00023264104024354795,
    0.0007775332660993752,
    0.0018141127678757587,
    -0.0025490205579437944,
    -0.0015826463661762344,
    -0.00453642065811203,
    0.007615287787395313,
    -0.0024193680789947394,
    -0.012286990779838313,
    0.004028721026602609,
    0.009739504446143927,
    0.00261094725264957,
    0.00450727172570975,
    0.008223586920021552,
    -0.007303114351023748,
    -0.0009714885682156379,
    -0.007686994192186644,
    0.009046444821387133,
    0.005341694971046323,
    0.0030970867061603114,
    -0.0013996133638076503,
    0.008978879687133415,
    -0.009534823895047007,
    0.003987888671026435,
    0.0006706977261670755,
    -0.005227378910348894,
    0.004717990120619147,
    0.008861602084062956,
    0.00803069792702553,
    0.004574310459057709,
    0.025641050958367807,
    -0.013355749221620422,
    0.012477314757769179,
    0.009443716051242005
  ],
  "w2" : [
    -0.42355701497341547,
    -0.040601888120103465,
    0.6015435940518509,
    -0.604892945741701,
    0.5079783918556328,
    -0.41266059354680873,
    -0.29972267355065946,
    0.5765778435063642,
    -0.3577533286406923,
    0.2848997027849915,
    0.25293949451375913,
    -0.06863563696195697,
    0.002152818628397917,
    0.8402983853009237,
    0.4605205048951583,
    0.6152295620173897,
    -0.061918020521178244,
    0.143530128347574,
    0.5810463094351607,
    -0.39883097997928935,
    -0.4117303455074668,
    -0.20023495231221317,
    -0.4660212379579948,
    -0.10642819587598598,
    0.5313229409793799,
    0.3040980912422121,
    -0.7597891427314531,
    -0.08606669502590235,
    -0.3786013838487725,
    -0.45728857785816024,
    0.0461433929925052,
    -0.4598608251142187,
    0.14097663517508885,
    -0.5893840166065861,
    0.7661611971927158,
    -0.00702821921000065,
    0.10202446986406251,
    -0.5453598798348053,
    -0.731834101137905,
    0.28806605395081164,
    0.31342944374805615,
    0.40793233657720296,
    -0.47734039805896344,
    -0.5846893914394403,
    0.28088854444995576,
    0.2942699429748894,
    0.6791113582240633,
    -0.05586432226928037,
    0.02578791500776704,
    -0.02159859174167189,
    -0.022292991354440427,
    -0.024760466421590275,
    0.005905302137288566,
    -0.01924288228141532,
    0.0011667803490701934,
    -0.014633521034742634,
    -0.007862269233155928,
    -0.0008741874730573536,
    -0.0021763596078430885,
    -0.019069622468295775,
    -0.018681633135823376,
    -0.00048806436146591283,
    0.021445671056573728,
    -0.018229301844641874,
    -0.01706536039064876,
    -0.0004032469428332422,
    0.008593412721639885,
    -0.021460987890213005,
    -0.019138751774205005,
    -0.005714623111749369,
    0.01711393589332355,
    0.01885430869421245,
    -0.00426281476268457,
    -0.002035227260772825,
    0.0003861405499610177,
    -0.019630589659330136,
    0.012837506545541605,
    0.0017682321650702283,
    0.012004928758793791,
    -0.0015735186906320868,
    0.017924014431497864,
    0.020541545325157555,
    0.002006353957225889,
    0.000912878781457938,
    0.011859268041492644,
    -0.013418250107905667,
    -0.018737649653827,
    0.021471278593156465,
    0.009655710151835263,
    -0.0220467073168364,
    -0.0033407030135845857,
    -0.018067728117983867,
    0.007665245261883119,
    0.017468169547561925,
    0.0011688044140955322,
    -0.007689849516595425
  ]
}