{
  "b1" : [
    0.02923612735727737,
    -0.16230692936055988,
    0.10034186521535468,
    0.02839853594714061,
    -0.03578052665904577,
    0.19318230619739987,
    0.2523539984294059,
    -0.19071695819948217,
    -0.05753005552319464,
    0.12454638240241062,
    -0.05815071195238379,
    0.04318998108948496,
    0.09418131794088216,
    0.10470880369412752,
    0.10475204188725398,
    0.25763271996913195,
    -0.1357611352840943,
    -0.009915985264591148,
    0.1584129039817721,
    0.13385520582006014,
    0.2529890932751612,
    0.13199633895386248,
    0.0795993065380942,
    0.18157899586102655,
    0.11109153426327156,
    0.21859027354849073,
    -0.06299809346910348,
    0.053024239896637404,
    0.019837956309539263,
    0.13715457623063765,
    0.13393538509215488,
    0.06191864211591563,
    -0.006143712422962704,
    0.17629884792972464,
    0.16351133520602343,
    -0.03812631631995437,
    0.05864094793854605,
    0.15802755706368118,
    -0.06827142667401098,
    -0.16368358060267132,
    0.1237714010551075,
    0.06783742856586582,
    0.25330691026372265,
    0.020440377036867397,
    0.1411633096145055,
    0.24645424369837413,
    0.12095618972192453,
    -0.12102963018841079,
    0.01207524220309793,
    0.0017608837892755037,
    0.0078035561859068694,
    0.002862830254556982,
    -0.0038209113222903573,
    0.009013479333140171,
    -0.009413669462807776,
    -0.00152486392784847,
    -0.007517392019064475,
    -0.008547250379872421,
    -0.011418208874912768,
    0.0034419655375631736,
    0.010272589868056662,
    -0.007595733722360839,
    0.011711650561655101,
    0.005659387145042807,
    0.005156925202727877,
    -0.007768386955400476,
    0.002165455701476385,
    0.001086707767806151,
    0.004719298863719532,
    0.003851903151473914,
    0.0032785848798724325,
    0.00956813074223015,
    -0.009554318542678093,
    -0.008511485884945625,
    -0.010945764162709173,
    0.008464513310627428,
    0.007486356299363539,
    -0.0075172590804619506,
    0.005267180133692835,
    -0.01338979859097317,
    0.010821947319105272,
    0.012588322517430603,
    -0.0013389040879636766,
    -0.010172436619197376,
    0.00030584759226864,
    0.004344152644441573,
    0.0069808567544298135,
    0.007624113998961051,
    0.008994014175007486,
    0.00030572469986145736,
    -0.002169745447273016,
    0.005729379824532611,
    -0.0030853536718362605,
    0.00026783994034492364,
    -0.011705798207460937,
    0.006213482757449549
  ],
  "b2" : 0.026030785853130924,
  "feature_version" : 1,
  "hidden_size" : 96,
  "input_size" : 34,
  "version" : 1,
  "w1" : [
    0.25948943801648927,
    0.12563871582846287,
    0.22870287463029704,
    -0.45314033445184587,
    0.23265065000841575,
    -0.13265587962744482,
    -9.865976771930952e-05,
    -0.23524174904311257,
    0.29915972335667107,
    -0.08630001678645047,
    0.4301470385305502,
    -0.1275414401809554,
    0.6804057117414983,
    -0.2072137311616094,
    -0.34629778402454686,
    0.001380047147052992,
    -0.24630034370026319,
    0.041672291311475144,
    -0.06400842054778404,
    -0.02875835631018891,
    -0.0033493889165303855,
    0.017990412426242323,
    0.04991242539857661,
    -0.32550475947429797,
    0.11821167444872037,
    0.38695205799084803,
    0.02919638887379184,
    0.09342856774891536,
    0.20424731350301362,
    -0.10911073839302704,
    -0.4509114539072938,
    0.15007413953004842,
    -0.014621759215873407,
    1.1661331505435328,
    0.065201486495819,
    -0.17108972173964795,
    -0.020051279405778073,
    -0.09109365248756068,
    0.046261878600416764,
    -0.07612925674399727,
    -0.30121032695318367,
    0.14273599535442716,
    0.035350418042181975,
    -0.17409420470658113,
    -0.1708115935806797,
    -0.13369404231095583,
    0.01462828846878089,
    -0.08900414293243095,
    -0.23924602241380477,
    0.0571443274373871,
    -0.26649393567058655,
    0.18744631848490256,
    0.1784992749999549,
    -0.22921042766514815,
    -0.16857548315384419,
    0.19532035577695359,
    -0.22859799938426875,
    -0.013937643808268398,
    0.035482973941516484,
    0.12650854527270441,
    -0.08609619800267015,
    -0.06968073207064987,
    -0.025846191554681024,
    -0.003475183537599716,
    0.11606200993678172,
    0.01300757805024666,
    -0.034099223791524504,
    -0.06501356233587934,
    -0.07143600096098977,
    0.20235363500106782,
    0.008661931422251178,
    -0.033937998341173385,
    -0.3056218056881466,
    0.15279226075669888,
    0.12841105048394474,
    0.08217518217481572,
    -0.2517177389855267,
    0.2759331282773642,
    -0.20679570923499319,
    0.17399341740240132,
    -0.581237710618784,
    0.27728933644902093,
    0.009299293384016884,
    0.26460412939156136,
    0.21130627164565857,
    0.30649801726819337,
    0.22157929340046598,
    0.19570263357908763,
    -0.11896869488999687,
    -0.17411282267069672,
    0.11194988181823773,
    0.10006832493021098,
    -0.14266624907529218,
    -0.26520079172458605,
    0.08034040171386818,
    0.39617381268737123,
    0.3548181124963433,
    0.3922478795673122,
    0.01686854457794828,
    -0.013387081612202407,
    0.3035489382907252,
    -1.2931628429860043,
    -0.2627155989664116,
    0.28602595938388364,
    0.26161058407890475,
    -0.4197433542412916,
    0.00884835599482067,
    -0.09062302002528909,
    0.2450436124902308,
    -0.2500423749253096,
    0.22755900067913573,
    0.0053343148323364755,
    0.25187236676227615,
    -0.06935658347786802,
    0.35417816008981845,
    -0.024716777322298236,
    0.030085344698259964,
    -0.18261740111596025,
    -0.17682400575715518,
    0.27196571272341635,
    -0.0557185147512125,
    0.030140186232324378,
    0.08044064859426048,
    -0.004660214793497359,
    0.16405416829210256,
    -0.16926729633090645,
    0.11066886729109944,
    0.6528322258753315,
    0.21533619362338144,
    0.2737659275386488,
    0.21788485270309607,
    -0.5643790266875359,
    -0.2784630012348607,
    0.22466252970709336,
    -0.13673371010924404,
    0.8423234204009685,
    0.16494408248968037,
    0.05630747845269788,
    -0.36865752748752495,
    0.24595004647185859,
    0.04695767570515093,
    -0.07865433946825535,
    0.32734525515425505,
    -0.15182801251661904,
    0.10957655913003093,
    -0.40274657183880835,
    -0.06890874056876602,
    -0.1696912206845248,
    -0.3781151587179381,
    0.10732262323919649,
    -0.23277779143388758,
    0.03133188523807287,
    -0.11028848945283326,
    -0.1867039132965581,
    -0.1456581393226575,
    0.12209809388035305,
    -0.222340939456185,
    0.11660542097823687,
    0.014125298234452207,
    0.056983725863699375,
    -0.14506483174853668,
    -0.04303005816272692,
    0.29443576364888147,
    0.3251893933382895,
    0.4704432582754592,
    0.2406519513431254,
    0.1332424789508463,
    -0.031436811499806205,
    0.3074271297411871,
    -0.9211685719418525,
    0.225127872567161,
    -0.053246850641574466,
    0.11295010819965022,
    0.0733692687613051,
    0.15563534220317585,
    -0.039145191361780816,
    -0.03250432422721847,
    -0.006686176270977629,
    0.26073773930270266,
    -0.23062952328248426,
    0.2645652778222014,
    -0.30644700144993947,
    0.6654329958204643,
    0.062017254173919595,
    0.1612243026780198,
    0.1609257286154724,
    0.0852269058547719,
    0.11707019333543632,
    0.14402227057503544,
    -0.03271279649456527,
    -0.25054948573488717,
    -0.13674445824005885,
    0.2778197555202203,
    -0.164327887863755,
    0.1427613913817527,
    0.13393099934077635,
    -0.13872677055804156,
    -0.19206257299814647,
    -0.034263938862883384,
    -0.18256802544038686,
    -0.17250581400056642,
    0.019265052469256683,
    -0.07685073373727913,
    0.7634347222343466,
    0.051688674469685475,
    0.125529288500046,
    0.10275718187510278,
    0.05143919036172044,
    0.23791462564281243,
    -0.11139257466354012,
    -0.0781703126850228,
    -0.006860911478300685,
    0.2826964245437484,
    -0.04072746953464376,
    0.058880885166640334,
    -0.18588161616600712,
    0.6054162531225545,
    0.11535694878595344,
    -0.03495047290273662,
    0.11758820164584759,
    -0.11439005078486952,
    -0.10770163728245023,
    0.22714840530650446,
    0.08695780840720942,
    0.21930755332787533,
    -0.12039099154783046,
    -0.09051265613670502,
    0.10088337991489475,
    0.16940207911423233,
    0.09734518658367426,
    -0.09311255153432849,
    -0.3060633695075034,
    -0.26255377520154527,
    0.08003392411437021,
    -0.1122734402984217,
    -0.05034797262561856,
    0.1551899942200356,
    0.8320906019847818,
    -0.1512185980277135,
    -0.1433623438328232,
    -0.3747150363514097,
    0.3962463830140542,
    0.028974271575358052,
    -0.16412145740185122,
    0.07812956272839372,
    0.08556231865048945,
    0.014590256545785467,
    -0.06310601476430101,
    -0.14822482503617443,
    0.18550243930144375,
    -0.08701308844894097,
    -0.24280908382152563,
    0.16779802517743947,
    -0.24019609047757076,
    -0.020604581063049347,
    0.1668789913578181,
    -0.17122886932921688,
    -0.04523232924774799,
    0.08577571761178479,
    -0.04635833816757787,
    -0.2758773245055456,
    0.012339328312907821,
    0.22639452444059296,
    0.07161863288306541,
    0.5904926935571074,
    0.3482995335486003,
    0.3951283727680128,
    0.1763275438696098,
    0.4551514957205718,
    -0.08456141879091889,
    0.029308555499553943,
    -0.3528954900676849,
    0.17017928377124378,
    0.05605064808222849,
    -0.12088514777304052,
    -0.17888412285019237,
    0.23604352831646302,
    0.11085696497546019,
    -0.0651778229993258,
    -0.15984033655356003,
    0.12234168935379473,
    0.07283100051981112,
    0.09710980781847289,
    -0.10855938458705965,
    0.4661623619455829,
    0.0666003857960822,
    -0.24175922729232832,
    -0.1100915922845171,
    -0.3535025911809142,
    0.049346198851009895,
    0.14555053762205394,
    0.1678776428839533,
    -0.19136489070989018,
    -0.4398851005911334,
    0.24504887312297063,
    -0.2623369820584989,
    0.1513832310549258,
    0.5647448134955779,
    0.18474728524988143,
    0.19828867627309993,
    0.08826830814242448,
    -0.11031793439389824,
    -0.05987390085757538,
    0.07722625165402018,
    0.19794503554596804,
    1.025641845262123,
    -0.057279296610859814,
    0.22653721141529928,
    0.11009144643410146,
    0.0808700422049325,
    -0.1582765798817009,
    0.03427470880494496,
    0.14232280864095231,
    -0.0791156129243334,
    -0.19222404998910814,
    0.192857350477318,
    -0.1815898292898953,
    0.17956534712432207,
    -0.3081711399175281,
    0.07124859379412084,
    -0.010287473948420845,
    0.2405289181132387,
    0.015655039546890657,
    0.3157113151760974,
    -0.0771128940700179,
    0.06895332402079163,
    0.08779372967241826,
    0.018014403875946345,
    -0.20422093179868764,
    0.05408785316907795,
    -0.03408427942827441,
    -0.1278155341905166,
    0.08945543045708335,
    0.17188464420360747,
    0.26261281373690043,
    0.11235178431397749,
    0.29010647349956403,
    -0.16019134204061905,
    0.11618236860706031,
    -1.1497634509027472,
    -0.025562769330963263,
    0.16017980363232237,
    -0.09414811080186239,
    -0.15569859646917705,
    0.07386943960848963,
    -0.2819175592036457,
    0.05278502681071236,
    -0.06206608942618795,
    0.13723060834093853,
    -0.47028096263802666,
    0.10486041151317534,
    -0.14701807995089952,
    -0.1880819831346395,
    0.012591343295372417,
    -0.11162444365755315,
    -0.18396922290730755,
    -0.10049726026721534,
    0.0019149426931957263,
    -0.4679833435372973,
    -0.09137949570732258,
    -0.20595101048413994,
    -0.07391953585044628,
    -0.06143036529692566,
    -0.23294920434559374,
    0.23623022623602213,
    -0.16219974922712618,
    -0.14183309233156685,
    0.25603946175672077,
    0.03353752413035506,
    0.015311248391143123,
    0.294716877162561,
    -0.026058147593958997,
    0.4047131854031634,
    -1.1188026134490454,
    0.09798677065788769,
    0.01084959033374039,
    0.22931069243639676,
    0.148375404059996,
    0.1463383980288623,
    0.2906031804250512,
    -0.11809087289367669,
    0.13491551793504186,
    0.18016839408762556,
    0.17920221856535098,
    0.016212160286641956,
    -0.16713880066910108,
    0.4198554024330283,
    0.1984244304744074,
    0.2878155580278779,
    0.17822995376585954,
    0.04987033725749545,
    -0.0558178428478555,
    -0.09199429129350704,
    -0.06951026171463294,
    0.13196439441828794,
    -0.24541533735547372,
    0.22444023605924562,
    0.0908180400931871,
    0.08815126076111811,
    0.11325504264986269,
    -0.08028380520664606,
    -0.08261895064761819,
    -0.26940566611664524,
    0.2040814279159228,
    -0.08013174522208971,
    -0.15679155070939885,
    0.15458068903388092,
    0.591744965763869,
    0.02523575486255548,
    -0.22315244552357424,
    0.16781088348878667,
    0.03741443006055496,
    -0.1316003803921431,
    -0.16492300634287646,
    -0.15160461373380918,
    -0.06771326930020975,
    -0.06598481042541472,
    -0.134086263745183,
    0.09802890148281439,
    -0.016569744982218807,
    -0.15773835439006828,
    -0.12736273459079833,
    -0.2040671822003847,
    -0.1609851517968365,
    -0.09212631271131691,
    -0.11675103280067543,
    0.22598631650984502,
    0.1059784212531742,
    -0.08546106630485022,
    0.14614403612944338,
    0.1290015807663629,
    0.11203477598375934,
    -0.169260063863442,
    -0.028017411526473756,
    -0.16798925757347993,
    0.03895955958941077,
    -0.15412059114864984,
    -0.10875686226670415,
    -0.13022193144887237,
    0.003067361813609949,
    0.025008989565133637,
    0.01136762101570237,
    -0.08294790331107968,
    0.20458553515497746,
    -0.16655123440468272,
    0.29643555994784543,
    -0.09812751058633258,
    -0.24251120889250813,
    0.13194414654897108,
    -0.11949881286512398,
    0.014746445041425601,
    0.05924672300970698,
    0.1318534963514727,
    0.22485393481280713,
    -0.7620107195566754,
    0.34159290205728954,
    0.19608368943174026,
    0.04429577753431334,
    -0.18115577761730967,
    -0.23202252281331692,
    -0.15658816893071847,
    0.41219973388580844,
    0.3122458031453272,
    -0.07147804280646423,
    -0.0006569340352277403,
    -0.024356468878456227,
    0.049584051425474306,
    0.013187047634110442,
    0.5420635383386955,
    0.6886194343931802,
    0.5243063468145699,
    0.04707622311783297,
    0.07340412372281606,
    -0.024040775092055353,
    0.45634056062493916,
    -1.1675036735412363,
    -0.5203127744077864,
    0.008355432085508327,
    0.33002563367843496,
    -0.6522777379468201,
    -0.2907629993035454,
    -0.03268157590258538,
    0.06215152649844713,
    0.17835186435599495,
    -0.07678199412900452,
    0.20472301824007313,
    -0.09977692044723421,
    0.03061366097948718,
    -0.41989030428826635,
    0.22025171393714046,
    0.06295547806068354,
    0.11690389406731115,
    -0.38039771474343054,
    0.07105337809152955,
    -0.09158234873986115,
    -0.26698702115997863,
    -0.06690554405347099,
    0.2067245500483197,
    -0.16290872595050745,
    0.21937024008073341,
    -0.12914049033519107,
    -0.32313638529916433,
    0.06872231277537942,
    0.23429790534139644,
    -0.018531561670876717,
    0.12653354986430818,
    0.26039717672933704,
    -0.08494351932771091,
    0.14626034220340547,
    -1.165363745890582,
    0.044487561256510065,
    0.2297278619390263,
    -0.10460530868577121,
    0.25822208585291606,
    -0.05135891456854935,
    -0.026912285634920343,
    0.13540211021912119,
    0.07356715602832387,
    -0.05998361741954296,
    0.30539679249422275,
    -0.10476078323170714,
    0.2592737128400128,
    -0.6113042307819239,
    0.23700183178501863,
    -0.1113162682443381,
    0.17127162815095304,
    -0.07253425465614435,
    0.3892051822387783,
    -0.1834974680018565,
    0.10165649213019297,
    0.16790956934023618,
    -0.1342070963183997,
    0.13361658547273728,
    0.1888143243623177,
    -0.09287378188564129,
    -0.27779543811945967,
    0.3683092974602536,
    0.4345686168468904,
    0.19809233856677813,
    0.11214984530038635,
    0.1640018291578323,
    -0.0384042675777684,
    0.05775903980370924,
    -1.283344686115346,
    -0.03360014104962963,
    0.07923137305474566,
    -0.16423195779592012,
    -0.03167059084234465,
    -0.1759602893768643,
    0.07123207743190232,
    -0.08937393617612063,
    -0.22974734005879696,
    -0.0018887709545271354,
    0.047537000019294846,
    -0.00022677506173216514,
    -0.12897205510525225,
    -0.11190651298610606,
    -0.10663835736543441,
    -0.014586186392106444,
    -0.13304190270498845,
    0.061481106290342834,
    -0.04301001427578401,
    0.1402686266327866,
    0.027479327621197053,
    0.02128510567048243,
    -0.04806939776051809,
    0.0011830379298230114,
    -0.07082787865913494,
    0.045832800089156196,
    -0.012608056691234933,
    -0.15128067610821366,
    0.006009802913547123,
    -0.1318936353892193,
    -0.2156348608003507,
    0.07911335780935627,
    0.1377549097534847,
    -0.17767305431419209,
    0.20275865511715338,
    0.33941117498351503,
    0.11070958768985513,
    0.1483671178445199,
    -0.19996632471634795,
    -0.0939628758867653,
    0.20889847546240464,
    0.024295453069326272,
    0.2840836840467906,
    -0.008271461588463348,
    0.23816167647331773,
    -0.20366059526273422,
    0.17750627373622616,
    -0.06672201984911406,
    0.05919584258737194,
    0.17589738621005652,
    0.03262300389082925,
    -0.06237787099954066,
    0.21642934172299935,
    0.09237526514075163,
    0.1690214024057234,
    0.1689637946637041,
    0.4111088652170679,
    -0.05407502190414519,
    0.3586042517713592,
    -0.09727742874347961,
    -0.005779639464539317,
    0.006621542684115707,
    0.2226985459250122,
    0.43047210987421564,
    0.2733423456284049,
    0.13088496877306688,
    0.012763171904914272,
    0.20485485203745094,
    -0.6309404393982533,
    -0.06068054510615273,
    0.07267025188713593,
    0.04527673641185905,
    0.28305250330464904,
    -0.2888093876349627,
    0.06384459800330251,
    0.10083936747070811,
    0.2625511988770425,
    -0.042371347022360756,
    0.320954251325935,
    -0.03464752108449559,
    0.06889897852320502,
    -0.5506033320610244,
    0.30296271176794115,
    0.1883638392364187,
    0.2692870014887978,
    0.1698125342855259,
    0.024078333220748014,
    0.010020081680687788,
    0.2585601052917259,
    -0.16512229050103758,
    -0.05414466184447041,
    0.01998446740402539,
    0.121184245010822,
    -0.10575194696536226,
    -0.30406639837964,
    0.19086217323501165,
    0.43307006827101113,
    0.3020324336765069,
    0.3811501048155577,
    -0.043212671909304695,
    -0.19937673492064856,
    0.17792070549569572,
    -0.9063841129898217,
    -0.024109363474943246,
    0.11970445115276056,
    -0.1449707326806127,
    0.35051568432045815,
    0.40227210642717587,
    0.09625853531094199,
    -0.28761775922627136,
    -0.046310495446510704,
    0.3650738954666915,
    0.05375244542010268,
    0.0820472640758318,
    -0.24805919114826136,
    0.4157621461559804,
    0.06940894777881437,
    0.11562099718301083,
    0.24844709132787757,
    0.32085034666098416,
    -0.20464424332611866,
    0.3238317840355015,
    0.05512062729365899,
    -0.03582031453724425,
    -0.019203892344389743,
    -0.09797493949679424,
    0.15998279297107454,
    0.2224842735664123,
    -0.09093025643688735,
    -0.2876827649740818,
    -0.28217461820771766,
    -0.39892847656972646,
    0.05515790743861813,
    0.15114758609397014,
    0.010979321491515157,
    0.06665200261781593,
    0.5278807119737469,
    0.4235191658699209,
    0.062430507603938076,
    -0.07310143102747113,
    0.06058527105108782,
    0.11389363211541177,
    -0.0778539720407995,
    -0.06542394949691724,
    -0.17073560287021647,
    0.12842584344147262,
    -0.09836598219015408,
    0.13565474667846553,
    -0.13688549402282005,
    0.7709620247353194,
    0.14550244167865034,
    0.003213191477410601,
    0.18768106250838998,
    0.06943763768264963,
    0.09907448992768643,
    0.003934591450959115,
    0.0853489425490216,
    -0.01965847203410377,
    0.03978057713438772,
    0.055988881394160785,
    0.008486142270741414,
    0.0817771098177446,
    0.38387870396029716,
    -0.12337206485172189,
    -0.16550679027156534,
    -0.06416363641145538,
    -0.051094837556221,
    -0.2548874388111993,
    0.1333599317463111,
    0.08970801223982622,
    1.041747073808963,
    -0.1815091004291464,
    0.08372196329762222,
    0.13286653822883104,
    -0.07905990747989206,
    0.08355352426335474,
    0.03885063950246795,
    0.01944316506923413,
    -0.1431108455855321,
    0.08666491606154267,
    -0.2565492057840911,
    0.30225466325618955,
    -0.14575853763720745,
    0.5100669828261184,
    0.08944444978701682,
    -0.0007068205350591318,
    0.12566019120000838,
    0.253289833407981,
    0.06379627689414029,
    0.034676475276682425,
    0.07774586680374394,
    -0.05448690802635336,
    0.08280910041585551,
    0.0356893790538357,
    -0.016844513634923647,
    0.013847964396650278,
    0.11192672333305902,
    0.012730120210781987,
    -0.2747670200722042,
    -0.1709253459716199,
    0.03288089783277809,
    -0.06987115114424887,
    -0.019388134220997572,
    0.2795805036411788,
    0.6690872885262112,
    -0.37561959999582,
    0.323596412188202,
    0.011389390885573244,
    0.2995083382930964,
    0.32148979919461457,
    -0.1787693269722034,
    0.031459145899729514,
    -0.15903302422034862,
    0.06120577570929129,
    0.074803163762753,
    0.18095223457220183,
    -0.3151143705124633,
    0.5695434082338455,
    0.32413471274398764,
    -0.18836308081133496,
    0.012669597150269522,
    -0.02515505503484709,
    -0.24776740984701384,
    -0.024476954816945815,
    0.3829407492862992,
    -0.28475000012158264,
    -0.19095603060226174,
    -0.06998480760824916,
    0.14634509858992786,
    0.26885749050174884,
    -0.34140902037799287,
    -0.5740040005202159,
    -0.14708557271773828,
    -0.11925544115770527,
    0.14658314985414364,
    0.10612001946390373,
    0.05252377710529871,
    0.08962797005904626,
    0.863483873704642,
    0.3657263504674634,
    -0.18068676066169234,
    0.11026467009246066,
    0.07156786030760408,
    0.15649451389797914,
    -0.16282128154861347,
    0.10587383412969788,
    -0.11848659435379155,
    0.21755653163980607,
    -0.2608368712585146,
    -0.027997673563668068,
    -0.36239499359584004,
    0.2773836050886468,
    -0.21202198468107397,
    0.1552142242471384,
    0.13092686583396435,
    -0.11919001820207627,
    0.07660945624155252,
    0.06531814109644876,
    0.07620729252740623,
    0.16335598877742052,
    0.01262720729060123,
    -0.08465272048819797,
    0.21289098101250772,
    0.36318009998946404,
    -0.04733361761704699,
    -0.08421476337453974,
    -0.22766367771923357,
    -0.08322760180778911,
    -0.08406517984262843,
    -0.14450613938268236,
    0.16105102431217622,
    -0.04794326363708145,
    0.48835302388759066,
    -0.029549253861219725,
    0.18306080287017767,
    -0.4246205685912568,
    0.0547643579726571,
    0.13046772520445898,
    0.1956367624088275,
    0.18523598390789944,
    0.0261133067679102,
    0.1364516598328504,
    0.08238139256313769,
    0.009014618374468843,
    -0.1293347724567893,
    -0.24626708208361694,
    -0.10098260071299123,
    -0.31841975742247913,
    0.2190604924100392,
    0.21909198109767553,
    -0.14322089640009977,
    -0.23801702414485312,
    0.45015110579720785,
    -0.4438872898083459,
    0.10503373678143829,
    -0.07145552255826798,
    0.1657339541906354,
    -0.1727852810105653,
    -0.09059210714400372,
    0.40805444093144316,
    0.3096095341783155,
    0.4485111226540177,
    0.25042623201985237,
    -0.019054446858418964,
    -0.043737849214203046,
    0.13167926106415248,
    -1.1215221562722426,
    0.15296147813674665,
    0.15491342919177253,
    -0.2523882568435368,
    0.09850200515265904,
    -0.01742853757479868,
    0.057118539786650754,
    0.12136735569232406,
    -0.0046710646931305624,
    -0.10338830551264977,
    0.09790327482906556,
    0.008439799713683579,
    -0.09395117762598044,
    -0.0035493172624341484,
    -0.1841525826884727,
    0.26934605730984135,
    -0.04038625755033976,
    -0.1539781484448756,
    -0.02616880682137426,
    -0.17540500665780356,
    0.27430922065863583,
    -0.10737957503611967,
    0.038917892389078036,
    -0.08896609557567224,
    0.45607305885115895,
    -0.02541661489019295,
    0.012390154310109395,
    0.18597179885723245,
    0.09916107775562195,
    0.26376321273408,
    0.13932126098483003,
    0.3959396823082471,
    0.007000194033401081,
    0.17237277255802821,
    -0.93530268609752,
    -0.027610182573004557,
    0.1986354777123499,
    -0.525215237250522,
    0.6709930036337662,
    0.09414524247564876,
    0.05858343618909411,
    -0.13177539062248858,
    0.2587565857591465,
    -0.15433319513835841,
    -0.1847493208889226,
    0.0744731944596779,
    -0.066399349865608,
    0.20886492657830813,
    0.13245930646081674,
    0.10012311640623368,
    0.05589703754969604,
    0.02086162933499081,
    -0.18745738147126825,
    -0.22876596367397897,
    -0.22541716297646197,
    -0.2189212566046484,
    -0.041529789969718546,
    -0.1311625058576479,
    -0.10710522042404304,
    0.251433397408607,
    -0.5581814637688061,
    -0.6750522650785571,
    -0.37652929280124803,
    -0.26213342878244184,
    -0.014634314447330212,
    -0.13517507989467353,
    0.09054922438515237,
    0.17050433132205048,
    1.0034648165933369,
    -0.24059313769933538,
    -0.0778128170912537,
    -0.11228744673328882,
    -0.10975041014709973,
    -0.056764016894953806,
    -0.145466796764373,
    -0.14148402158955892,
    0.06862766322224882,
    0.11442390091982857,
    -0.10520456456309767,
    -0.09319051595440866,
    0.1716511231876124,
    -0.053533290808641325,
    -0.022224592332654832,
    0.010080278129330007,
    0.062320771148270344,
    -0.1768211245068053,
    0.06777521589201702,
    -0.24175701407120428,
    0.10668808861480451,
    -0.20936700462953,
    0.039458879822767544,
    -0.10020885378949392,
    -0.19901020180267515,
    -0.18581740491167834,
    0.10215440866071437,
    -0.05130103566030318,
    0.03420732945105398,
    -0.12111221334156856,
    -0.21713241228088492,
    0.06926355795116157,
    0.031701706638452176,
    -0.16982532989990237,
    0.24698578837350169,
    0.23190577025790088,
    0.02870623889834605,
    0.22479723404711174,
    -0.3651946527211845,
    0.3141580691530762,
    -0.22850911040744312,
    -0.0007827733965858306,
    0.06045849150113081,
    0.08318824088867924,
    0.09663361526900016,
    0.018597730204597814,
    -0.08191408865825077,
    0.4901490231256175,
    0.005525166869226138,
    -0.1717711557189885,
    0.19036813232752176,
    -0.3342785893847358,
    0.1433852026893863,
    0.08300378228293057,
    0.18819728413560924,
    -0.11602120686414662,
    0.04099461819982282,
    -0.06646678384078794,
    -0.1315310463284894,
    0.02464196492947723,
    0.41348654557847736,
    0.17859013119915965,
    0.1946841359044586,
    0.244451250573875,
    -0.16273235429994254,
    -0.06805954816105364,
    0.0690288177318252,
    0.1809570705069658,
    0.8915541216792835,
    0.14799344567364456,
    -0.15495766579901665,
    -0.344695858737203,
    0.433563015687551,
    -0.06096395643610483,
    -0.02845901006009471,
    -0.11790489159796416,
    0.11047047752464828,
    -0.3917393609702098,
    -0.25494311514703016,
    0.10170206312058545,
    -0.1799310914119562,
    -0.3067109440256789,
    -0.20704853540583643,
    0.2966458865476614,
    -0.004274597514776472,
    0.16492097443991163,
    -0.08884084534150513,
    -0.06294217108420161,
    0.06921277378164223,
    0.008034942749562976,
    -0.08570180176766698,
    -0.005064487016469199,
    -0.12182987143634588,
    0.1948099996838588,
    -0.5662846026933394,
    -0.6241151183890833,
    -0.3724989824440857,
    -0.33877138661355627,
    0.042465552948495015,
    -0.1289332311705466,
    0.02136666920079381,
    -0.1763970413066477,
    0.07344267565696828,
    -0.1297340211278269,
    0.1162191039667209,
    0.21940558957622652,
    0.2248533491663221,
    0.009390285813070814,
    0.08581223403361232,
    -0.09180545492823615,
    0.23024523631776128,
    -0.05657287150763423,
    0.07695568538109306,
    -0.12238351270753185,
    0.1412097035081609,
    0.007993094538527626,
    0.1625264650153948,
    0.05561296793792578,
    -0.11015935555529342,
    0.12422069403808457,
    -0.08509328432030411,
    0.14280532357179065,
    -0.1969165890844215,
    0.129688450933562,
    0.008564712416084024,
    -0.22227969432115516,
    0.11348527054421137,
    0.0028377361627654847,
    0.15364718333564287,
    0.0618621437137915,
    0.033953698853201104,
    -0.03503553679141253,
    0.02941113825643496,
    -0.05562320454870856,
    -0.009632135552221744,
    -0.16758287225015495,
    0.10703928920627416,
    -0.01880101672100326,
    0.016116191353698836,
    -0.24306583082692515,
    0.5387382982793456,
    -0.018910358029255715,
    -0.12238059563208546,
    -0.018940928004150377,
    0.20561019713133222,
    0.14438672997828972,
    -0.24327387753907212,
    0.21747917010793116,
    -0.04958455451550216,
    -0.1331280904666666,
    0.1880296935334269,
    0.1503035813811138,
    0.03671071793387801,
    0.341898718544685,
    -0.09654463653687122,
    0.026941135404960924,
    -0.19308694758240114,
    0.35840074239374814,
    0.24586224361237458,
    0.13408615852774464,
    -0.17508749408565483,
    0.22610868387676203,
    -0.5687332930972131,
    -0.9089406822161654,
    -0.5800948643110351,
    -0.38753166270399747,
    0.050500321576342294,
    -0.15336206944021896,
    -0.07932081642459826,
    0.07379749168011686,
    0.5775308677483865,
    0.3943337359786059,
    -0.08572702776018908,
    -0.034807723451705276,
    0.12250233780689747,
    -0.043339575163555626,
    -0.031844079501618765,
    0.08599521751174971,
    -0.19061450297214946,
    -0.020659609131989363,
    -0.16960976143054357,
    -0.22589174758745093,
    -0.08030468028148947,
    -0.4034157274307767,
    -0.018802846458368983,
    -0.029431172951669384,
    -0.14368270920368525,
    -0.21907506565250723,
    -0.0808720674531017,
    0.0032022425543625594,
    0.01626424516888752,
    -0.17249202592371227,
    0.034454229902928124,
    -0.06317937469388422,
    -0.1484961368416572,
    0.036472420663461305,
    0.011030446005990116,
    0.2194927374255861,
    0.1738424272561191,
    0.1689546515952468,
    0.18342269450104798,
    -0.04901304353593901,
    0.0561284232393846,
    -0.14535879081586447,
    0.04129188120871566,
    0.19710718566540633,
    -0.12936499173235805,
    -0.3176410631164897,
    0.5827512463090803,
    0.1366195119481774,
    -0.06098252103707615,
    -0.15927710398012196,
    0.0012003148239171874,
    -0.1430809452936059,
    -0.23545305475253284,
    -0.21443005798177364,
    -0.09654414177651728,
    -0.502539979475746,
    0.12819532496085434,
    -0.04291885959392233,
    -0.09105753442533737,
    0.08364241555677136,
    -0.2006548335712628,
    -0.02549246670019281,
    -0.1181647582520259,
    -0.004053980259157757,
    0.14361330856570523,
    -0.1372613083053969,
    -0.05663817861487851,
    0.17230830486468363,
    -0.5881034189445906,
    -0.5717708591918338,
    -0.6087016026877784,
    -0.7216642504403306,
    0.07934696385204448,
    -0.016318333965826402,
    -0.07614084444078387,
    -0.10942984403214828,
    0.19388540319864442,
    0.0934182426552613,
    0.255072514124233,
    -0.5339685986181004,
    0.38512507707032495,
    -0.027240836356305097,
    0.07359768154098542,
    0.300102955334408,
    -0.21118678920094708,
    -0.012686021597199821,
    -0.16321208158715625,
    -0.004564324637217546,
    -0.08069954785324111,
    -0.25819938232583345,
    -0.011746271033074834,
    -0.28034965347695734,
    0.18271057731734555,
    -0.050684205553921786,
    -0.2279539315139277,
    -0.4213001689048494,
    -0.03561507021449644,
    -0.1383546319206941,
    0.01322747600176607,
    0.04725661611814238,
    -0.006963829234208913,
    -0.3228753372581943,
    -0.1325269866075735,
    0.5420537071568555,
    0.8274528622656091,
    0.6345242413150475,
    0.03164480732016183,
    -0.0471945936660997,
    0.14866401878718877,
    0.28173112066848705,
    -1.2424712158257367,
    -0.11894861321786528,
    0.009140832198923475,
    -0.07744982897469045,
    -0.15455516819507348,
    0.032934776097797255,
    -0.11352812837960283,
    -0.1267530542992618,
    0.06820898385233973,
    0.07132451821894997,
    0.13783119025741122,
    -0.12784630502707997,
    -0.1859365021533181,
    -0.011646041439419406,
    -0.20458269467980464,
    -0.03887613310947303,
    -0.2511516066635485,
    -0.1474751526831872,
    0.03858239129632112,
    -0.0005474801412474962,
    -0.05962119815911394,
    0.09450111940991594,
    -0.11443258932323924,
    0.09251127646731584,
    -0.17677324997164942,
    0.02547378483647592,
    -0.09684997139670255,
    -0.12604075079371826,
    0.02099813422858821,
    -0.2232524542862779,
    0.03495077072080884,
    -0.1327747324156897,
    0.0907132382068976,
    0.05717731618863067,
    0.028619640178203024,
    0.030593230300463858,
    -0.16771297900357726,
    0.2937305221839904,
    0.1017098891080397,
    -0.11608125364749805,
    0.00826125469040079,
    0.20045572419836805,
    0.08889920240579403,
    -0.11791492093005576,
    -0.018776923937376306,
    -0.18918053716311198,
    0.18082549789460065,
    -0.36450415210843695,
    0.0005459354947761675,
    0.029534754840756683,
    0.1074930828077183,
    -0.10951770978893977,
    0.14593669777145118,
    0.0980617232714996,
    -0.09292357601627091,
    0.19674707205752393,
    0.24622020944464593,
    -0.09414998595940133,
    -0.1461320095698153,
    -0.09066605549712763,
    -0.1847449368644988,
    0.23113057914684676,
    0.24925936528782835,
    -0.09082860073102139,
    0.26030722693493635,
    -0.033285766463104195,
    -0.07517461949363592,
    0.0037523221538904934,
    -0.6302094414179663,
    0.4375504809900661,
    0.08504653240073984,
    -0.4296006785416657,
    0.33074798462417093,
    0.35505267680433367,
    0.04539153630347302,
    -0.09449424113878865,
    -0.1207518743115496,
    -0.0352194068403005,
    -0.17248803290138395,
    0.13108374600375475,
    -0.05836133938026201,
    0.5044077467374402,
    0.23960524622851256,
    -0.20304272496281311,
    0.26506009633515043,
    0.13924412623740987,
    -0.2655291828181318,
    -0.22922756532833738,
    0.03631738724163893,
    -0.40149123239461876,
    -0.23504838156210175,
    -0.16516862870252708,
    -0.15708205161123467,
    0.06493738608681199,
    -0.3432504140017981,
    -0.4988080273559985,
    -0.22914815201287833,
    0.07548634264904179,
    0.1471097010449425,
    0.2101829139245035,
    -0.04682867599384541,
    -0.04136894141253695,
    1.1227131283649914,
    -0.19564646165507585,
    0.23741299511829092,
    0.29338102441558295,
    -0.24134758093884257,
    -0.07972015907061879,
    -0.10968251067833928,
    0.004364371185411178,
    -0.20521188246160646,
    0.021086554125196926,
    0.061569823583039855,
    0.22560943516248558,
    -0.15206438401493483,
    0.7368442524527081,
    0.0025148663844901747,
    -0.14969880533240476,
    -0.00023642649976635414,
    -0.392790776520232,
    0.19956336052880969,
    -0.052804929063301864,
    -0.008857627563411349,
    -0.030246675474678728,
    0.03470621379595508,
    0.09375777987268055,
    -0.3120684550869521,
    0.028579414697863917,
    0.6881471165391626,
    0.2322959219743841,
    0.25980900974686466,
    0.12203732226595325,
    -0.47589831103822017,
    -0.23908302225457348,
    -0.0049912397496223075,
    -0.000980170293409073,
    0.9124444401413363,
    -0.09518080451868843,
    0.3076276731491988,
    -0.1451371417494757,
    0.30704675947969456,
    0.1762442037834511,
    -0.2611853266327739,
    0.15748113317397555,
    -0.09351130217552547,
    0.14616154367082404,
    -0.49440325014229175,
    0.1353022785464089,
    0.013040598516778043,
    -0.21310054949403762,
    -0.08718348328534811,
    -0.06525580823438977,
    0.07711522644818189,
    0.14229689692001107,
    -0.1777598535269358,
    -0.18778907515286652,
    -0.10962118147435233,
    -0.10749206330107139,
    0.07156394846222665,
    -0.12632073471502037,
    -0.19795552166425998,
    -0.0028134208260361896,
    0.023554090345445637,
    0.253428366853659,
    0.19496038404665209,
    0.2917330846985725,
    0.06479039349958605,
    0.13234715222462268,
    0.19871059960053145,
    0.41602875102233133,
    -0.8489511543758954,
    -0.22101653249142905,
    0.14029213046795533,
    -0.30130546248465884,
    0.10988184994822421,
    0.23282310529427835,
    -0.27817123703075225,
    0.27504572209611056,
    -0.061529295126110585,
    0.0434447613925681,
    -0.024820582855390537,
    0.08301232604002172,
    -0.16636283720728942,
    -0.14508377531235295,
    -0.13533099337807641,
    0.018302164824097987,
    -0.17379623130199293,
    -0.18092790198659334,
    -0.096194646629339,
    -0.35562646504153256,
    0.1454126878087419,
    -0.12109161524412096,
    0.12082453931639237,
    0.16630318011644696,
    -0.1901474114350285,
    -0.09238202463451785,
    -0.03833325830027184,
    0.1772214443489647,
    0.25056015260026565,
    0.07179014636101927,
    0.029732490718171477,
    0.19649998394710347,
    -0.08373041575417037,
    0.3342845307450997,
    -0.8863842747466151,
    0.09530159322712804,
    0.24609328412576023,
    -0.05939096696491416,
    -0.24745109029986537,
    -0.1132547968635556,
    0.3142028500485516,
    0.1608471258357726,
    -0.17430636281157086,
    -0.08618091414810326,
    0.13477453840389372,
    -0.05751569064594882,
    -0.19731563464149837,
    -0.2255166821042022,
    -0.01612566212809715,
    -0.04443494340423908,
    -0.07618448769630137,
    -0.21845240162846966,
    0.32489404236286756,
    -0.09097697316199921,
    0.017826055415781555,
    0.041989199256644544,
    0.03698096233841411,
    0.2069555848584029,
    0.10196433054596535,
    -0.395939322507453,
    -0.2152611001006543,
    -0.11531715929421893,
    0.15718144261030217,
    0.1650106063684026,
    -0.1307277629943987,
    0.13970652803246467,
    0.02377973344447916,
    0.15267560085727985,
    -1.1426007157464837,
    0.09302728187741822,
    0.17351850240712433,
    0.22292340034164126,
    -0.24843428294156988,
    0.15870468115216232,
    0.06767653313864459,
    -0.06837409571148512,
    -0.04681432487870782,
    0.11036474342495334,
    -0.013032973264620981,
    0.31811320266352827,
    -0.07520768764995574,
    0.6515795499939665,
    0.013495239326461867,
    -0.20020775986931266,
    0.06065482171559411,
    -0.029988063797998784,
    0.053461192907197586,
    0.09611632948481506,
    -0.05243485941037694,
    0.10087343120069121,
    -0.14801949220399835,
    0.006487623486859957,
    -0.07018968386688086,
    0.5249139391185249,
    0.3884459850533854,
    0.17397596986406708,
    -0.01935718989119956,
    -0.1507248257273884,
    -0.18346025637091054,
    0.002507411416625366,
    0.0770528524840913,
    0.19901984289333932,
    0.8657245803414612,
    0.06967161658528007,
    -0.22968708957880313,
    -0.5610456387059841,
    0.3170375745052137,
    0.11796535601077589,
    -0.04991691395416368,
    -0.3684524148924736,
    0.23009535328307193,
    -0.12768070552767097,
    -0.3789925451297702,
    -0.07653825247146184,
    -0.4778005191285111,
    -0.814746322403369,
    0.09779706256728714,
    0.10126351621682741,
    0.15166259047221542,
    0.3519089058166119,
    -0.3468482959188514,
    -0.37207721199906596,
    -0.24284588664706508,
    -0.43323207579617584,
    -0.017698104434269467,
    0.28604187969431233,
    0.006946113266348662,
    0.19581718400441214,
    -0.8343371224459376,
    -0.37326854161123724,
    -0.42508372366051955,
    -0.6146693775891727,
    0.32476499785686674,
    -0.2222707013427131,
    -0.1509475229278815,
    -0.33387798349930686,
    0.30424060758353205,
    -0.11660758710950896,
    0.09577358162813832,
    0.07403892097364707,
    0.15926581412963686,
    -0.16653889698454202,
    0.025223748253430333,
    0.10293606970261227,
    0.13531063626667983,
    -0.1284059048367087,
    0.13170931037186084,
    -0.11369242211798672,
    0.17896957971296718,
    -0.49302054289769914,
    0.11434723216827805,
    -0.06528264337468051,
    0.20451707560342225,
    0.08061282323434944,
    0.16020766887635818,
    -0.13023800119283477,
    -0.1574556896210368,
    -0.11347993549282687,
    0.2559810132895672,
    0.17566844331224515,
    0.11887826474537204,
    -0.20703093204379144,
    -0.3051878313432032,
    0.32110460858850437,
    0.3171245446327282,
    0.3241443953399433,
    0.20504522784141532,
    0.32582552784940366,
    0.07612145268388164,
    0.16163338575490407,
    -1.154719097138984,
    0.08614800685253039,
    -0.0013646955859296834,
    0.17310064457852356,
    -0.027793715250373933,
    -0.12531404071513633,
    0.27780323435191784,
    0.04173990157401688,
    0.2746887946210102,
    -0.22757451595435751,
    0.10147534149428758,
    -0.10654809043107968,
    0.26026456093229206,
    -0.19895755370245446,
    0.09517210440856502,
    0.3627957465084242,
    0.21951091605374135,
    0.03607179566077766,
    0.0340473237680471,
    0.050966010960001286,
    0.05379941489104672,
    0.04434012581704687,
    0.21277394615175674,
    0.040371409571328544,
    0.34553978674301356,
    0.06530781526557904,
    -0.18055984182635498,
    0.14783088704829753,
    0.15082856251024077,
    0.2856140483121686,
    0.18862232697199294,
    0.3823166155173353,
    -0.022253804455907734,
    0.0895327085479209,
    -0.8288359163657396,
    0.04224290816505163,
    0.2471899394329481,
    -0.1511152540860633,
    -0.2828773975044878,
    -0.06873401269268757,
    0.09089349418202353,
    0.12367083764037248,
    -0.08137471156574247,
    -0.04516717266564314,
    -0.0072775447496900465,
    0.15704958345347123,
    -0.11530059416319677,
    -0.4809151967485295,
    0.23648515585943322,
    -0.2305027240004183,
    0.1256263202694535,
    -0.4835773956601597,
    -0.18823323411562018,
    -0.1522095511254808,
    0.2385698854690211,
    0.4386789094325798,
    0.1929804793350778,
    -0.15073554318730015,
    0.21396555353602945,
    -0.07713281262735217,
    -0.2845184295723552,
    -0.19058215757827474,
    0.3664786674228908,
    0.24960912634791316,
    -0.009623100143792918,
    -0.20855138788389835,
    -0.035596085294239355,
    0.3032947952854923,
    -1.0329967733220915,
    -0.08953690231327746,
    -0.0635742086874659,
    0.04228598948249309,
    -0.13675072147593817,
    -0.07992342480141405,
    0.04057840704593842,
    0.07177969984407147,
    -0.17309444119297424,
    -0.05606327292487924,
    0.1007257983273151,
    0.07188233990818922,
    -0.03538246870897324,
    -0.03426794294305412,
    -0.07264211460033947,
    0.19222715003957472,
    0.01399809247523317,
    -0.07651772844098995,
    0.3028713902256761,
    -0.2649323132543861,
    0.018587314284649013,
    -0.0012368717649552234,
    -0.0689249721402667,
    -0.10799464807840443,
    -0.09335954017955563,
    0.17071528381324313,
    0.24039158277761308,
    0.17047011198195922,
    -0.19331000023716566,
    -0.011668888883616543,
    -0.14192890336410208,
    -0.1518921196085799,
    0.04067857737171693,
    -0.12689406158566247,
    0.09804396358319223,
    0.004105262166426826,
    -0.0002936062577804691,
    0.014696388805227781,
    -0.010518742910066345,
    0.023859464837449048,
    -0.004320436368530646,
    -0.011976782099932378,
    0.01342072414616563,
    0.016378426495744624,
    -0.008770883848027442,
    -0.004857477681078473,
    0.006535957666965857,
    -0.010718316743599738,
    0.013419123773374337,
    -0.0004755066476941374,
    0.012857380412053159,
    0.00303439693903556,
    0.008313317922214427,
    0.011998986486872878,
    0.008927967455752629,
    0.012972434515487094,
    0.0021999550292823252,
    0.0014324586121776375,
    -0.0016965022221516804,
    0.013864779382444509,
    0.0012535784948520857,
    -0.0037881415321460326,
    0.006518907428844175,
    0.004958597347751208,
    0.008937829907390518,
    -0.022368343119483373,
    -0.00278722661945476,
    -0.002375648951616759,
    -0.017858689922246356,
    0.003939072801853836,
    0.007582802722705967,
    0.008291858682351827,
    0.009069220192638726,
    -0.016140753669107166,
    0.012033415699749054,
    0.009987173781127182,
    -0.003692143607114131,
    -0.014636761176331288,
    0.005939155926722499,
    0.0039745037303060985,
    -0.0035782256827447787,
    0.019290595725200338,
    0.004311239668267884,
    0.009165918567446064,
    0.0066214900051730936,
    0.0012838782375794544,
    0.005877676534270674,
    -0.0029772601140104515,
    0.005740925044152653,
    0.012722925823055202,
    0.00012877868912095886,
    0.006777670555284829,
    0.005501181869277588,
    -0.009156597341321626,
    0.006247082990930288,
    0.008544734589898573,
    0.0010794600644210561,
    -0.004811993973082661,
    0.00917837910147601,
    0.023021289830179353,
    0.0077861742154994905,
    0.004124893714794136,
    0.014385235526196903,
    -0.00023854034877709957,
    0.005414363661417926,
    -0.0021346216788459852,
    0.007386534844368696,
    -0.021317948856683665,
    0.006390591352075849,
    0.011325111273514273,
    -0.0018106716275687964,
    -0.014469611421214942,
    0.015826194527943063,
    -6.2462275257231715e-06,
    0.0033331171853228305,
    0.014345420830773963,
    -0.001453001066235386,
    0.0064898268593520545,
    0.0072284317902984495,
    -0.00977965419103074,
    0.012269104693934127,
    0.0013801698056229975,
    2.5347405100490875e-05,
    -0.0029476949617885263,
    0.015067966473683688,
    0.002206141895920076,
    0.0032216149249983616,
    -0.018354580878178015,
    0.0045001837475571035,
    -0.0008705012282706758,
    0.004816558578545794,
    -0.005506115030606575,
    0.008100821236498572,
    0.018466993681864555,
    0.0067208579651478065,
    0.007144085950967559,
    0.014729641857281314,
    0.008563401158821895,
    0.0029121648576271933,
    0.0049075428386012795,
    0.00539481706545381,
    -0.02461082295020367,
    0.013853852999368687,
    0.009715244885912109,
    -0.004891691654615321,
    -0.010159081157125348,
    0.007719463451470267,
    0.005353000376209346,
    -0.002795717287690239,
    0.022358987341901077,
    0.004187424706065909,
    0.0018627888789267955,
    0.008757869586299082,
    -0.0038174531794806306,
    0.0059743018963824834,
    -0.004158797222171863,
    0.0060891857966069475,
    0.01015575776913286,
    -0.0024238156445714923,
    0.0018436993010187408,
    0.0038384518136203504,
    -0.0037831141017424306,
    0.008209262029068107,
    0.005442657309954045,
    0.010668542977178966,
    0.002595712302850656,
    0.010829499060712983,
    0.024889110645443618,
    0.007728661134664525,
    0.005786837634710194,
    0.015364318284524985,
    0.0030035773742959934,
    -0.001890656687434066,
    -0.0021003852452206916,
    -0.005858835244568208,
    -0.003703888824057313,
    0.002137502895349491,
    -0.0058533173002118894,
    -0.005625497775002347,
    -0.005298982177286879,
    -0.0038301262755417623,
    0.001367501141805518,
    -0.002005022895398793,
    -0.0037255012618883387,
    0.000746218519707414,
    0.0022189883570817755,
    -0.0037196856376413992,
    0.0030899349250571315,
    0.0002709468284667368,
    -0.0017415563679662775,
    -0.002878449347752499,
    0.0012157118047479117,
    -0.00547206173071775,
    0.002042306367455058,
    -0.0030257388445746602,
    0.000553580530978339,
    -0.004396667975715707,
    0.0004926972578314596,
    0.004017388678115029,
    0.0015743928159043822,
    -0.005990115190158499,
    0.004381018605512889,
    -0.0058350680787593555,
    -0.0023518853318005893,
    -0.0007300965311963292,
    0.005890307653279581,
    0.005858133966159078,
    0.005512754115670973,
    0.00974715268526407,
    -0.01941922436280108,
    0.00938357446157433,
    0.01728177456637652,
    -0.0078593366596109,
    -0.022390469830631244,
    0.018178382909484665,
    0.007111352101829113,
    -0.007387193258161967,
    0.018551125255482838,
    0.00685054744484845,
    0.010933277763663186,
    0.00997127457381084,
    0.0038586009438997698,
    0.008927275502103097,
    0.004233462536548487,
    0.002728457109410332,
    0.005757851428429863,
    0.001633108527996435,
    0.0027960662432204818,
    5.199654526527554e-05,
    -0.0058857305349445345,
    0.015360797739337129,
    0.0010497008302018732,
    -0.003777381999031372,
    0.0003236052698423773,
    0.0013388709433475715,
    0.015224893349212237,
    0.0028744911325394515,
    0.0076061121207504755,
    0.015090862304651382,
    0.0008712682488713622,
    -0.0015150755663443105,
    -0.004514563143928254,
    -0.006463035054840782,
    -0.006107987284714409,
    0.00048724781790365263,
    -0.008314040952286076,
    0.0071857148158324955,
    0.0101683550990293,
    0.0005674225554780453,
    -0.002681206589609209,
    0.012251507835699341,
    -0.0031157121795162062,
    0.0019623903743739486,
    -0.0025511567679840433,
    -0.0018736130242591128,
    0.003870099432491777,
    -0.001005338511763236,
    -0.01135152785715223,
    0.0029964193080194005,
    0.001941683301268156,
    -0.00819812795119824,
    0.001974911304127733,
    0.014047940786786756,
    0.0010133409720607786,
    -0.0008220729371300377,
    0.004050510950218062,
    -0.0009741311664949582,
    -0.006192541187075779,
    -0.00606047081814033,
    -0.010153044722277427,
    -0.007807652795533217,
    -0.008064125924280081,
    -0.023420857910632368,
    -0.005215150451207168,
    0.009241472642273324,
    -0.0012973013956725885,
    -0.003277242877423699,
    -0.012638477014411967,
    0.01984658370564107,
    -0.007308258823113307,
    -0.007638364628791194,
    -0.011105480906127702,
    0.01716437956539006,
    -0.007937247686641316,
    -0.00956426812920329,
    0.016144164883448192,
    0.0037235489667334157,
    0.010109034215311253,
    0.002914045290136851,
    0.0007999875049379018,
    0.0004451921233811115,
    0.012545000744029476,
    0.001599735242820825,
    -0.006546337001516607,
    0.003923939482869076,
    -0.00030841476404543425,
    0.003239321759536827,
    0.0041139332166057,
    0.010863700110950867,
    0.011192927656416812,
    0.0009954032678952558,
    -0.003625462870233043,
    -0.0023035953342095,
    0.009033109440675816,
    0.006764528822386488,
    -0.008397385132031737,
    0.004621060129408351,
    -0.005623800540106802,
    0.001454044180936867,
    -0.0025440691225865554,
    0.008801901243756974,
    -0.006109490112314387,
    0.009602401635569809,
    -0.0037804032744974294,
    0.004174792123977349,
    -0.0004433395940093526,
    0.0027634320523379522,
    -0.0016163810170824865,
    -0.011305905402280115,
    -0.000705250297866926,
    -0.006826355682758643,
    0.0005904812702859048,
    -0.006830376103617304,
    0.010995835055815037,
    -0.008296817240504736,
    -0.004737752440840782,
    0.001042894659582083,
    -0.004306208168232274,
    -0.016048195532371256,
    -0.005091745706417354,
    0.005999294030399532,
    0.007553520484760794,
    0.015196850629126327,
    0.003196650749719471,
    -0.009819561069338106,
    -0.009280915789986162,
    0.0011364935152077746,
    0.00039186400044616927,
    -0.0016217489032447675,
    -0.005597129266223494,
    0.010535381915887255,
    0.003308609295372847,
    -0.007992980295567447,
    0.004534427958429058,
    -0.0008241320458234612,
    -0.004117581904763718,
    -0.002626107739799419,
    0.00024861798188171425,
    -0.0014997647532646488,
    -0.0036998903401465276,
    -0.005349855085680462,
    0.00020890851844561158,
    0.005375830216691383,
    0.00044122155515829867,
    0.0013465974336032897,
    0.011415591915737011,
    -0.017614886061906507,
    0.0011395527484152853,
    -0.0010442836231802598,
    0.005039157648372661,
    -0.00480656205198485,
    0.014880771301926322,
    0.005686855618263908,
    -0.008997872148748814,
    -0.004567753881969655,
    0.00014424587699054633,
    -0.00016156180284210782,
    -0.003127520398973313,
    -0.000771318636728338,
    0.007235063988060498,
    -0.0001440468827206909,
    -0.005048184068749897,
    -0.009675795313495083,
    -0.005300437142930665,
    0.0025660841644800977,
    -0.00022352191022075463,
    -0.0023720282216037783,
    -0.001636250167046957,
    0.005999796769846451,
    0.006208084847597386,
    -0.0019016263294586886,
    -0.002590666876087314,
    -0.010075979870653923,
    0.002507682227772122,
    -0.007745709132643409,
    -0.006413245167881002,
    -0.0018532989624731283,
    -0.01066156167786134,
    -0.008541777271612871,
    -0.011870188363953822,
    -0.007540244811821802,
    -0.006070169946657868,
    -6.898954608124557e-05,
    -0.005007730806728484,
    -0.00598524791494487,
    -0.004622031869251361,
    -0.002935836524887503,
    -0.001960882271087416,
    -0.004727790987883046,
    0.002286625678657948,
    0.001676104361901276,
    0.0029276557362522796,
    -0.010577016475868733,
    -0.000122046181034789,
    -0.006330460944134084,
    -0.003560251273222099,
    -0.005890355443702679,
    -0.005663497142668343,
    -0.002730739789289597,
    4.3150800483828676e-05,
    0.0035614567492907897,
    0.014421928188618397,
    -0.0034132138546423304,
    -0.019168409478778656,
    0.0066252018327459024,
    0.013847891074653586,
    -0.00622100835001809,
    -0.015012715715852968,
    0.018487939537824544,
    0.01360979682075263,
    -0.007241759248538719,
    0.02053716535303436,
    -4.382777875354172e-05,
    0.00610124004649425,
    0.004969343409768592,
    0.006847973050383449,
    -0.0033125070908324042,
    0.010148620985157992,
    0.010434617128368351,
    0.0003085597947088314,
    0.007883865185344797,
    0.0048602367557732526,
    -0.0068851210954993325,
    -0.009558606938720175,
    0.010533943907543739,
    0.005314645835777758,
    -0.0042534472615952295,
    -0.0017798156469169609,
    0.005118616733062717,
    0.02290812736165242,
    0.007373095461759238,
    0.006057788574605997,
    0.015096181607000604,
    0.005867042531092179,
    -0.003474391990029319,
    0.0036583911004974394,
    0.0018065682667786013,
    -0.018804733548929253,
    0.006999851440392404,
    0.012628215190018619,
    -0.006460511117333102,
    -0.007366067723194105,
    0.0004628262746724662,
    0.015693571770690768,
    0.00011391742883464607,
    0.016227182751606367,
    0.0013831293789715489,
    0.008907825743833744,
    0.004048541154322117,
    0.009655756439128877,
    0.0043334155418803776,
    0.003939351830234381,
    0.0005385035239912244,
    -0.0020886087641399094,
    -0.006501889867199457,
    0.009914410867519567,
    -0.002281638336279589,
    -0.007847936955523173,
    0.007102185668906798,
    0.010441367274944486,
    -0.00328773404580161,
    -0.007021007309967038,
    0.006568803160394201,
    0.01989236845616431,
    -0.0018403867868796743,
    0.0054372921131296,
    0.011227303213463402,
    -0.0024489264040930504,
    -0.0005325784027720025,
    -0.001996952880799636,
    -0.007916107591129332,
    -0.010728749806718677,
    -0.0032995403289802273,
    0.0011628242777604616,
    -0.00795570123956055,
    -0.0012744872041838384,
    -0.011128126875511827,
    -0.0004503581576304899,
    -0.0065648183563534225,
    -0.0037430560559740932,
    -0.010906234504599766,
    -0.004337739744307332,
    -0.003490614564253736,
    -0.01096603310098744,
    0.0024843736124104563,
    -0.0012819401713836994,
    0.006849409345475723,
    6.159567640680861e-05,
    0.0010730181720829462,
    -0.002732554076816081,
    -0.010408129822021316,
    -0.007660926947539926,
    0.0006545693534310288,
    -0.005431652889609157,
    -0.005075052751239138,
    -0.0016940166204530934,
    0.0023645329511000723,
    0.0006617868935769481,
    -0.005643708178823725,
    0.003643844072709591,
    -6.566252168746109e-05,
    0.0045744121466794055,
    0.0025419698933325774,
    0.00017693695425412408,
    0.0010017314328918633,
    0.022146290612015795,
    -0.01491639200428825,
    -0.009995931652463352,
    0.00884426579535463,
    0.019401776433067952,
    -0.015640769807687218,
    -0.0060733632086560265,
    0.009732164715530164,
    -0.000187341436174426,
    0.010902866022832164,
    0.0064688921158512665,
    0.010319853592207634,
    0.006564581608666313,
    -0.007571347685475913,
    0.006605908483479168,
    0.01331613089841208,
    -0.003744789019326802,
    -0.0008725113276201868,
    -0.0019210825844920005,
    0.010628089127038902,
    0.010982882366229626,
    -0.003618339715075944,
    0.0016920757868422735,
    0.010463904007140427,
    0.01858438021304745,
    0.0019515669989963193,
    -0.015255756823514146,
    0.00825983330297324,
    -0.007471795686635152,
    -0.008008869285203928,
    -0.0007056624998260174,
    0.005354899011536341,
    0.008011728411693125,
    0.007535622336541477,
    -0.02292045281256165,
    0.01285815904886286,
    0.009709872462079076,
    3.43805779096605e-05,
    -0.014598372756865837,
    0.010322949732800527,
    0.012020790440166716,
    -0.0007225400202956468,
    0.018998176718050958,
    0.008035979516054078,
    0.007190852581703046,
    0.0020497569924145588,
    0.0034577078252581973,
    0.007221291708090074,
    0.004330187448145812,
    0.005548542184755941,
    0.008594252662257449,
    0.002238185341166518,
    0.005894434227327993,
    0.0035413837891638132,
    -0.006087574653206133,
    0.014139407405635905,
    0.0008833793065664967,
    0.0020953768712288234,
    0.001045843704334078,
    0.003026553355030063,
    0.021477047384751646,
    0.0008716871337909804,
    0.003929384045106536,
    0.012685239792517618,
    0.0007179511106460225,
    -0.0035557834536813146,
    0.012123600443835099,
    0.006872198574306004,
    -0.01635409898772369,
    0.006765560250517908,
    0.011510379373520075,
    -0.007186802980140659,
    -0.019524926399581765,
    0.01737906777110907,
    0.01088942603308703,
    -0.0016696625803290833,
    0.021704221968780132,
    0.0036717453957840055,
    0.008294023225291363,
    0.0062467806563179865,
    0.010012027099891366,
    -0.0006750694943200709,
    0.00767862317265778,
    -0.0033662856025119714,
    0.006378459469133823,
    0.0029707136499084537,
    0.0017770375448430608,
    0.00899801000520202,
    0.00010852358581419905,
    0.014196039675727858,
    0.004913446799410301,
    0.001143461796793136,
    -0.006937019091545392,
    0.003959988407380748,
    0.01946357747872479,
    0.004899581082463161,
    0.005680012894959248,
    0.01688725113699808,
    -0.00028960672460716244,
    -0.004865860102081879,
    -0.005595590875029723,
    0.0018320922097824054,
    -0.0036661869635677413,
    -0.005048230670642804,
    -0.007955490791665083,
    -0.0006811225836483687,
    0.0057867837724525925,
    -0.008477661647066138,
    -0.0058981573132477665,
    0.003620867069815792,
    -0.008487483544247783,
    -0.004252589911418714,
    0.0028154290587826558,
    -0.009856693027515151,
    -0.008760937404972219,
    0.004654731522074259,
    -0.0012815278663855152,
    -0.003935127746388416,
    0.004288294456780862,
    -0.0056603958074038655,
    -0.002987308961644405,
    0.001665087467762122,
    -0.010197955972197234,
    0.0030880786286644904,
    0.0005460890338138848,
    -0.00174836105649235,
    -0.008424696253710968,
    -0.00797662308799937,
    -0.003866363959823198,
    -0.0010670098288202226,
    -0.001196375273458123,
    -0.0069601482179620835,
    0.004831430851530738,
    -0.004940989689852374,
    0.0031972790369839744,
    0.00850355381109515,
    0.014952232757250654,
    -0.006914784268701685,
    -0.005974812804900172,
    0.009034074420802242,
    0.011765680078818294,
    -0.005058574900192168,
    -0.005990138045675162,
    0.012929395968191407,
    -0.007963508942070539,
    0.00504016416909902,
    0.005846122044116611,
    0.007407329171304431,
    0.009992626765807148,
    -0.016821560177824785,
    0.017203520019565252,
    -0.009710472085156642,
    0.006968670919212449,
    0.004917746946901,
    -0.004148937141542414,
    -0.005543820519478206,
    -0.0009859604991363591,
    -0.0017340379609506607,
    0.002661261421595197,
    0.004583708391502128,
    0.0004376550285536854,
    0.005951724743740493,
    -0.004304837728774083,
    -0.003523068579522956,
    -0.007724457694212409,
    -0.011728142566256523,
    0.006523520419135851,
    0.0025762954583360437,
    0.012203825582687972,
    0.004450465219650279,
    -0.021707162724811904,
    0.009015959848167764,
    0.015867229091337677,
    -0.010139058106614411,
    -0.017225850183390568,
    0.017655865989125427,
    0.016394066243640128,
    -0.007230263856299313,
    0.026129728933155218,
    0.00658336279305234,
    0.00627508554951943,
    0.0061364820206723306,
    0.008667705928513904,
    0.003272259126691099,
    0.0026877282401702248,
    0.0031249888744114152,
    0.005867595613841044,
    0.006734725185556793,
    0.008412492044517973,
    -0.002921601821141455,
    -0.005814487374375494,
    0.01168877999916919,
    0.007508601867337655,
    -0.0015051244169523351,
    -0.005949098313569308,
    0.005707276261682055,
    0.019354324764948475,
    -5.007355819656868e-05,
    0.0092994084430059,
    0.01586328845109572,
    0.005635341647690512,
    0.005674965148758613,
    0.006540676043605636,
    -0.002598936913864351,
    -0.0214731781650262,
    0.015032634197451974,
    0.008835331589950033,
    -0.009461247129318031,
    -0.015236484222375897,
    0.01840607754255389,
    0.015597247711880605,
    -0.005749580824292227,
    0.024398254224295056,
    0.010252199756351025,
    0.003978317890077939,
    0.009428093493377528,
    0.005885430833656641,
    0.010003786073844093,
    -0.0021394329429513387,
    0.008419545983704224,
    -0.0033009245122771094,
    0.00028220237296919715,
    0.0121172622007951,
    -0.0062829795213851436,
    -0.004663285239634267,
    0.005556741828378702,
    0.004318119995928421,
    -0.00025516843981416995,
    -0.006019144936287918,
    0.005837687148332454,
    0.023581057809409327,
    0.0064555473066152235,
    -0.0005659113466680272,
    0.013217834005045335,
    -0.0027170643075543175,
    -0.003431793149397323,
    0.006077224759533204,
    0.008701996208670584,
    -0.008463805439831436,
    0.005353536118409543,
    0.0040770531363216005,
    -0.00024208824738655469,
    0.0010974591978354436,
    0.011219152815276903,
    0.009896718873672163,
    -0.004658472081208915,
    0.007622903020346783,
    0.002143923214847458,
    0.005659566453636832,
    0.00383767390069824,
    -0.0038266408408489426,
    -0.009613351808890343,
    0.001507155228466365,
    0.008684190274587503,
    -0.006518704246717682,
    -0.0011348006751573556,
    -0.01083108401365358,
    -0.003430263734913424,
    -0.004297271371497386,
    0.009355511825066363,
    0.00745804268847956,
    -0.0008175064085739561,
    0.001562376956196814,
    -0.004821813391785058,
    0.006501834470154003,
    0.004253683729139371,
    -0.013445420299853,
    0.00642898077678818,
    0.004501210516973941,
    -0.0033298571604546876,
    0.0068772265297861596,
    -0.008611218012341928,
    -0.0023269986470383745,
    0.0025272097376951128,
    -0.003283473377352803,
    0.009677083360795606,
    0.0030311943250961866,
    -0.00040465569095990753,
    0.0009066187373416308,
    0.008518298572258392,
    -0.004968557744346854,
    0.0003734152343613157,
    -0.0025239313054440274,
    0.006659840741322381,
    -0.009736788277428339,
    -0.015220241956011312,
    0.016799095664889567,
    0.0042552603747715205,
    0.019505875892753204,
    -0.007127905481350287,
    0.008627049394071485,
    0.0064653672512028125,
    -0.001678703661622496,
    0.0007108178317163522,
    -0.005904091904484278,
    0.0016399412251043783,
    -0.004000138107133239,
    -0.001971076092932922,
    -0.017009878893938634,
    -0.010203943309327513,
    -0.0029714053737948582,
    -0.00528631068185696,
    -0.004164019223202761,
    0.010101021784361515,
    0.006283638679421803,
    0.008772831408857193,
    0.026093858748233518,
    -0.006060751536562453,
    0.003628979113316925,
    0.0010122075618269144,
    0.017064430147667065,
    -0.006176511959747307,
    -0.0035609999077308345,
    0.00813828503888241,
    -0.013643952958114835,
    0.017399361261111083,
    0.013530880691235802,
    0.009818817988508798,
    0.006702575878580197,
    0.006891871967200572,
    0.001020579077414854,
    0.008944064739330956,
    0.0011379174207042941,
    0.003825264755115496,
    -0.004216769580832263,
    0.018505063409290895,
    0.01288310776896643,
    -0.006963362499199774,
    0.010353353790539362,
    0.004093472380609858,
    0.011746677511805798,
    0.010315365404437617,
    -0.012614224121709731,
    -0.0024259746267434874,
    0.005377451290627821,
    -0.027526621755201746,
    -0.006945606239731862,
    -0.005397971128187819,
    -0.00531497856590108,
    0.004695577872087956,
    0.002930733611206607,
    -0.0018043581986620387,
    -0.0027010530934212552,
    -0.00043606270025522666,
    0.0005886603832339881,
    -0.010211973360795117,
    -0.0033242346283030907,
    0.009613873042849632,
    -0.00964992958375775,
    -0.005871852970253482,
    -0.006172029421860441,
    -0.0040733346215167405,
    -0.0005432457333928682,
    -0.004285912258753113,
    -0.005657238205668309,
    -0.00894186940843454,
    0.004012554476916456,
    -0.001460679108554607,
    -0.0046308027250624864,
    -0.010731415238443391,
    -0.010394778687293998,
    0.0026464731813005717,
    0.005031727749529781,
    -0.00387360545703363,
    -0.002545800638459009,
    -0.0055499119867313765,
    0.0005501746878991971,
    0.0017905315495338877,
    -0.006210110337995683,
    -0.0012743561900683035,
    -0.0030995704766570474,
    -0.007530154063456675,
    -0.005397902888780605,
    0.00586176023428422,
    -0.0005757697656041262,
    -0.0013178602893023053,
    -0.005191342655939512,
    -0.006601003802857945,
    0.0009811713391404645,
    -0.005237962054041885,
    -0.001200821457480824,
    -0.003200198181112162,
    -0.0011953536751302379,
    -0.010512207722867525,
    -0.008501908910086457,
    -0.011103068135782306,
    -0.006912327731008133,
    -0.008893156545211717,
    -0.009029667497710133,
    -0.002260800535882185,
    -0.0039269687408435595,
    0.0004492731122725665,
    -0.0027768715369623814,
    -0.0007948985151330049,
    -0.0018412453494672432,
    0.0027424819011151193,
    -0.006808958406542402,
    -0.01092444055769557,
    -0.003038541571079449,
    -0.005865296789866963,
    -0.00526444963348224,
    -0.005373844960286283,
    -0.0029500314661214462,
    0.00444534110282781,
    -0.0073751833949422235,
    0.0008034511732270131,
    -0.010949636881464586,
    0.0012008987914132036,
    -2.573733156341789e-05,
    -0.0005026739700018711,
    -0.007992947135632832,
    -0.0005245293290131374,
    -0.004367138205716289,
    -0.005472154451267056,
    0.00549854675045605,
    -0.008861208974977577,
    -0.0024245997872437163,
    -0.003135744613636169,
    -0.008402375941458613,
    -0.003664422546224477,
    0.00011452419057774204,
    0.00022112704656707328,
    -0.000916723275640583,
    -0.0009210655929234818,
    0.0012257062624742051,
    0.0006377292028074183,
    0.0018543041680289408,
    -0.004209313613909822,
    -0.005799382322694532,
    -0.0044074055757749525,
    -0.0052921139449592395,
    0.007640901820982464,
    0.0067198366173837985,
    -0.0038873697198809993,
    0.0036821289387079514,
    -0.0037109774848779046,
    0.005005661704831471,
    3.80653390830052e-05,
    -0.002836539904342211,
    0.006502543456631832,
    0.009870485432807804,
    0.0028598946800659623,
    -0.02097646940165275,
    0.013585949382529331,
    0.012384605105432123,
    -0.00994349828632276,
    -0.01797655673011674,
    0.013926282718377085,
    0.010514216883255144,
    -0.002589137146152932,
    0.02246130798994352,
    -0.0001098047255728214,
    0.0060588301144037906,
    0.006593926273235601,
    0.010832678743026368,
    -0.000554892401457929,
    -0.0043119223922168425,
    0.006079890342765181,
    -0.00036353719731095434,
    0.0001934713259257003,
    0.0038622458181640324,
    0.006318418381125356,
    -0.003907904442728951,
    0.008753635886449233,
    0.0024243676132662535,
    0.0012549328651862506,
    -0.0016146432056803335,
    0.005546430980504342,
    0.019670164769557404,
    0.005141199623569684,
    0.00045070847104174605,
    0.01702388945698322,
    -0.004671047580041713,
    -0.004300645445498831,
    0.006953178843115271,
    0.005960632266918963,
    0.01902425625220068,
    -0.005109046804203747,
    -0.014202715178468066,
    0.005481099191927739,
    0.01225113103493553,
    -0.006991236480141514,
    -0.020974425803240895,
    0.011422432344292337,
    -0.007004221098498236,
    0.015063128726258807,
    0.008958453831141746,
    0.0006342637662558537,
    0.004882200084352385,
    -0.014786553419649495,
    0.018616632281998738,
    -0.0027682254494164555,
    -0.010296802015150926,
    -0.0027150972700100344,
    -0.007833847988425138,
    0.010503299324911218,
    -0.00396689496746178,
    -0.0038440397231811704,
    0.0013478955715933126,
    0.013931445891669118,
    0.010168069864922705,
    -0.0012978539728366102,
    -0.016872631008137504,
    0.009037637600906865,
    -0.006290922346846534,
    -0.01770065751543058,
    -0.003297704814234948,
    -0.0016224619938533568,
    -0.009035408292223223,
    -0.005384272338974303,
    -0.005202925545730955,
    -0.003425607544285539,
    -0.0043694314724711525,
    -0.0009098086184353885,
    -0.004881268695760611,
    -0.00044992245922237313,
    -0.005363480569940203,
    -0.006321377426163708,
    -0.005915901220468456,
    -0.006551515249805039,
    -0.006815881602882421,
    -0.004985004100941616,
    -0.002975429984656077,
    -0.0003477742671397096,
    -0.0015663050176844366,
    0.004495915887968699,
    0.0008154572397436455,
    -0.005206380714806618,
    -0.0035248881968153556,
    -0.0056191421218875085,
    0.0006989193920257178,
    -0.0076935220888269176,
    -0.0011490616036025287,
    0.002346002392842064,
    0.0010579398396721692,
    -0.004084951313302079,
    -0.0032814403683028934,
    0.0025240923874176547,
    -0.0042141742104428335,
    -0.0012070698452397645,
    -0.010797267195477932,
    -0.0019235405322670326,
    0.009888994670324988,
    0.007314070030230823,
    0.023810439352422372,
    -0.009047596268083291,
    -0.0024821563146065913,
    0.01233575655090121,
    0.022821602191310793,
    -0.006616836262795549,
    -0.006148867199200246,
    0.004599260971155843,
    -0.0028648976237576167,
    0.0017215676346227391,
    0.00023880069215556502,
    0.00846659957391492,
    0.005926802603561236,
    0.0010409447768898468,
    0.006661771781653145,
    -0.0007706005263907543,
    -0.00652872099625189,
    0.00372551560331017,
    -0.012152826048234481,
    0.010947055913097543,
    0.00556698521259527,
    -0.007392118742111344,
    0.0001248358218042328,
    -0.0009448817092580045,
    0.005182675938742755,
    -0.001420461050109286,
    -0.01090130329671445,
    0.003930891393938335,
    -0.0016903009558863079,
    -0.012861532500148591,
    -0.0037195025596467456,
    -0.0022543088998115,
    -0.0001105963709574695,
    -0.00041535802294552824,
    0.0009829235605937098,
    -0.005723953557130295,
    0.0021407490168823657,
    -0.0024291077607813817,
    0.00531518786308489,
    -0.0034632528819866677,
    -0.0009553148123635232,
    -0.010188595445125213,
    -0.005762009064091847,
    -0.00927723449718926,
    0.001567116437667574,
    -0.003925542417153261,
    -0.006617260633000676,
    0.0019584626660203905,
    0.0020105443976811623,
    -0.0020451167515071495,
    -0.0025066501676160005,
    -0.007290403481274174,
    -0.002191965553518902,
    -0.006189195609250906,
    0.0077550912744880065,
    0.003254239907446269,
    -0.0029866930775443567,
    -0.008581086405504588,
    -0.003048411032772024,
    -0.0025512958652079924,
    -0.001813309385675252,
    -0.011206684961525791,
    -0.0043753647893306396,
    -0.007710964873176203,
    0.0026078756083052304,
    0.006442059426292114,
    0.01142534576715786,
    0.005613159651387568,
    0.024629031919056278,
    -0.008110057335849043,
    -0.01049309602929628,
    0.002668853172854245,
    0.020511622171465852,
    -0.010666281346893852,
    -0.009327239116188298,
    0.00849173797688847,
    -0.004986235046732937,
    0.012571335511242471,
    0.013001008790840677,
    0.0025225638821376245,
    0.010636565920783287,
    0.0034967671755596914,
    0.008398368247245777,
    0.005061789327516252,
    0.00649240023498816,
    -0.0007622267438149354,
    0.0073446569577008125,
    0.019115509342345557,
    0.00670907339134919,
    -0.0029559112439335477,
    0.0011656087897824316,
    0.013588184572758547,
    0.008190927218575898,
    0.00962551536634276,
    -0.017034373349719228,
    0.012017446868513568,
    0.0016503981781660771,
    -0.015489242844071497,
    -0.004526051159532132,
    0.003839620743116733,
    0.017977395867970952,
    0.007989875425293587,
    0.025187062975388676,
    -0.007716213135325664,
    -0.010605759620585235,
    0.013337139530302132,
    0.01619919960138694,
    -0.007670538275872035,
    -0.006954072448332628,
    0.008172014676584334,
    -0.0022229559297244042,
    0.006361609697988443,
    0.010391384401577691,
    0.004630914758427328,
    0.011325541372632881,
    -0.008639242068566597,
    0.001152140817438126,
    0.0040969721233337615,
    0.0024573864371466463,
    -0.0013974019352092505,
    0.00452887761909417,
    0.014130639000167927,
    0.005755259492603061,
    -0.007386100589390513,
    0.0033144713356563753,
    0.011567193086239439,
    0.004849798173302758,
    0.005265117297606471,
    -0.01948228346068996,
    0.00331769044764377,
    -0.0007381884330523837,
    -0.016757399518083693,
    -0.002953635692111555,
    -0.0048618325956496546,
    0.0004249709730210593,
    4.629244291353715e-05,
    -0.009895269440787818,
    0.001213757963692315,
    -0.004008912191994993,
    0.003302719720378917,
    -0.010830814322224111,
    0.0022773038697138683,
    -0.006549469815894452,
    0.010010001346632661,
    -0.005183373785661948,
    -0.0056701307337039455,
    0.004629709347450723,
    -0.0058548752467502225,
    -0.007370037921563784,
    -0.01390062822436196,
    0.015187206308290601,
    0.0014297315170597425,
    -0.003146111479108583,
    -0.0033593087683587534,
    0.0002458333765833045,
    -0.0015450350910618457,
    -0.0014365264833505456,
    0.0016151641426519706,
    -0.004808204093677123,
    0.0037792978143795374,
    -0.0013360644556755744,
    -0.002556338251694115,
    -0.0021535433494345403,
    -0.005771692651273317,
    -0.00971908314305413,
    0.0018026259268680764,
    -0.004750356551883524,
    -0.009445474628827912,
    -0.008206554787363375,
    0.0025745554809588453,
    -0.0022744066023707176,
    0.005359735965922579,
    0.0043735051448437695,
    -0.001797150044921026,
    -0.01076641131535439,
    -0.005461900791719744,
    -0.0011249679634497839,
    -0.006946589201352551,
    -0.007612424748509834,
    -0.005455721871290612,
    -3.904326378874233e-05,
    -0.0023583744775074367,
    -0.005731349210703638,
    0.004498845167127918,
    -0.00880426424213894,
    0.0010431592856906887,
    -0.001012350299219849,
    -0.0010700953846693297,
    -0.007296200334473685,
    0.00217786381696018,
    -0.005707326081422962,
    -0.003738712447664749,
    -0.0004131163352717013,
    -0.0004872431024665219,
    -0.00503558971009914,
    0.002146506854895822,
    0.0044122320960849485,
    -0.009122941882147644,
    0.005960830574296359,
    0.005738532636514821,
    -0.010010061513184839,
    -0.008261166917774565,
    -0.001429400532080961,
    -0.000678117591603518,
    0.016495819950235354,
    -0.008190493494113183,
    -0.0032734008180990925,
    -0.0026349115088499814,
    0.014739759613357417,
    -0.0027673771225538843,
    -0.00041048900394123416,
    0.006846728828984986,
    -0.0016511661496511473,
    0.00024036139808312218,
    0.005481574615389807,
    0.004480654813432705,
    -0.001459971648492081,
    0.01579146079006056,
    0.0017479911128736561,
    0.010436857706414381,
    -0.003974138662452189,
    -0.008299548486098457,
    0.004913468411048686,
    0.018569821714381235,
    -0.006844205201091969,
    0.0019147850103346273,
    0.0027389747667206964,
    0.020595336476717543,
    0.00373828978974122,
    -0.0033820387291719637,
    -0.02121890945572553,
    0.0010197231095718743,
    0.004329033123044108,
    -0.0021330062495818008,
    0.0005979466469268099,
    0.006356269500318327,
    0.0025378181086902945,
    0.006109494849261672,
    -0.023159961219847244,
    0.010200945867152714,
    0.010381304700508933,
    -0.003792238957891166,
    -0.011528782234210978,
    0.006544169091695399,
    0.012808631275521032,
    -0.0039662968492797,
    0.015757837335592197,
    0.007961447299454682,
    0.011392417165851083,
    0.005770137604196151,
    -0.00024198142313594824,
    0.005977843231245379,
    0.012763936487162118,
    0.0014077008318091357,
    0.005828095739287451,
    -0.0018094814851244323,
    0.004719502250235116,
    0.001197243981163401,
    -0.005893527382134135,
    0.013185735866507646,
    0.0077333859760888475,
    0.0022634263345868667,
    -0.003056762852704575,
    -0.00022202192400336734,
    0.022394808476857188,
    0.007749037214892193,
    0.009172277909986266,
    0.01466309358251968,
    -0.0007091368980244741,
    0.007104390833494129,
    0.0034958334954887584,
    -0.0011638018854336443,
    -0.019155416518266872,
    0.008319130132360077,
    0.016225908859059605,
    -0.01290258273760212,
    -0.01786969683161094,
    0.008168172491962741,
    0.013123732571895638,
    -0.00746602212887542,
    0.01945966410229053,
    0.011601163752637637,
    -0.002857382011766841,
    0.006557554203336991,
    -0.003968652527075976,
    0.009117686756719548,
    0.00751401847572512,
    0.0074568993051011894,
    -0.006005561039859749,
    -0.00031295877058072744,
    0.007195077843640874,
    -0.0051928346279609214,
    0.0020065908800668115,
    0.013915657218726516,
    0.001581380881005633,
    0.0024267885086189126,
    -0.00900970125564174,
    0.003412357212923498,
    0.01977230138908506,
    0.005159877432488283,
    0.008307476690541384,
    0.017867809612256112,
    -0.0033939107733313677,
    0.0022241858962384156,
    0.015261995173892103,
    -0.005348190919510769,
    0.02895956071979459,
    -0.008575363868090186,
    -0.01428806091033778,
    0.01066893818184827,
    0.013363852493680621,
    -0.005185104523823667,
    -0.008890211670112443,
    0.013591114689654299,
    -0.010697906301180652,
    0.008346437055047244,
    0.018630738550961673,
    0.016090810728055786,
    0.013393186133330586,
    0.0017607970218321107,
    0.01107502140129392,
    -0.0014703051793897306,
    0.013808710244306702,
    0.003063667482041066,
    0.010033145667188093,
    0.0022195186629130176,
    0.01925875228478461,
    -0.009979091847659879,
    0.0007085232905382421,
    0.013276121534305083,
    0.008237594779386886,
    0.008933006851874566,
    -0.01298726148993872,
    0.004081277003511549,
    -0.002141008702108792,
    -0.017959845688749126,
    0.006658688451701867,
    -0.005688419378445544,
    0.009527841427989575,
    0.011904358530321244,
    0.018323328868370726,
    -0.010636303466544426,
    -0.007678028605460161,
    0.0059022366957364155,
    0.0092221459092713,
    -0.006657003865095746,
    -0.00855951498136387,
    0.01634399519340672,
    -0.0049981317433193655,
    0.002490360914650574,
    0.0057678103243849095,
    0.004215349049593152,
    0.002947725475830789,
    -0.0038354166053026243,
    0.008112096424253921,
    0.013694788528231867,
    -0.0026141776622252972,
    0.000369609595962591,
    0.0012927757250634625,
    0.009423477293576761,
    -0.003453453114260858,
    0.003915088722017366,
    -0.004194066487656955,
    0.005212155328838375,
    0.020729390000748197,
    0.006391455209266611,
    -0.01184085040333968,
    -0.008758275865531732,
    -0.00290849234045548,
    -0.011781319672060394,
    0.0007649370547184401,
    0.005772841355810011,
    -0.00444948835543502,
    -0.0063925770241105885,
    -0.012568538693820587,
    0.012047776733587702,
    -0.008194230339696556,
    -0.005142308707850884,
    -0.015835036876903335,
    0.020837377048433296,
    -0.003692121242889222,
    -0.00025774041156572736,
    0.01646479075498611,
    0.007456833273179031,
    0.0035734009321548277,
    0.0038294958802474886,
    0.0006825411549346631,
    -0.013725986922008767,
    -0.0005991612846323673,
    0.010923601554434299,
    0.008528547855061812,
    0.00854538491939005,
    0.0035106541998546335,
    0.004732044689533791,
    0.00459082978627056,
    0.00950406696486311,
    0.008127307430086012,
    0.006184766081500349,
    0.003560562057570407,
    -0.005706312122660827,
    0.012999191212357042,
    0.008029436053882545,
    0.013335137043650167,
    0.013354010213452254,
    -0.005755004547634614,
    -0.0005469652994701375,
    -0.005473482794215093,
    0.005475838187462979,
    -0.003736164655568252,
    -0.010523160507012809,
    0.00910384586083763,
    -0.012221711830429714,
    -0.004916471887244953,
    -0.008951710939073248,
    0.010167943964390046,
    -0.008833405602976458,
    0.0013726901626515127,
    0.0011789510932009766,
    -0.005863455413492021,
    0.001776644371002477,
    0.007989284397366994,
    -0.002011837816198245,
    0.009406651503977797,
    -0.0020700409304203722,
    0.005155012139408172,
    0.005164949752053204,
    -0.009931305830705924,
    -0.00846615068121568,
    0.0043763973283248,
    0.009520030060520197,
    0.003109408963395389,
    -0.0020878746504410634,
    -0.005621473237667927,
    -0.0025506103402364007,
    0.005875412332704331,
    -0.01137293946738081,
    -0.0007830220233006329,
    -0.0038576423389334678,
    0.0007211554264283868,
    0.004497962806655868,
    0.003991039249262918,
    0.011212978181954346,
    -0.02131956700154348,
    0.014433056306949346,
    0.008985900284560156,
    -0.003299249267587546,
    -0.011862234571140235,
    0.017309096595914137,
    0.006447550381942334,
    -0.004199210535279269,
    0.02125420009566239,
    -0.001955184514559946,
    0.007109059405595887,
    0.009766387802676475,
    -0.002041583791245143,
    0.003067382755998477,
    0.0010875391268461256,
    0.005044640215429174,
    0.008238786715161282,
    0.0017591842921433531,
    0.004298521954132944,
    -0.006360890318987034,
    -0.006341696000467041,
    0.009309978230689542,
    0.0022841242771460615,
    0.0058239202754808254,
    -0.008011902928822555,
    0.0013185690790325799,
    0.024486330828648976,
    0.007748967501707052,
    0.0016997109354497696,
    0.017169156761838594,
    -0.008048472085143643,
    0.004007725770449962,
    -0.0033321631801577806,
    -0.008835542655600633,
    -0.004699914865733638,
    -0.008186640299136443,
    0.003119610651417648,
    0.00780581038594765,
    -0.003514214003068949,
    -0.0029245206044216415,
    0.004406799364447614,
    0.006687222987574579,
    -0.00365743749260419,
    -0.005771822367830268,
    -0.0031231069845444157,
    0.005970511638616943,
    -0.0031832044398043824,
    -0.007615924876149269,
    -0.007241835269617986,
    0.005287011438976993,
    0.008345538833630383,
    -0.0008626305767371115,
    0.016305065072724337,
    -0.01104466564244971,
    -0.0059346810598313775,
    -0.009133466239928384,
    -0.006759452887753945,
    -0.003595595883733766,
    -0.000388028631190764,
    0.00666305479945174,
    -0.009650489432117828,
    0.005271978535895835,
    0.004166445642385235,
    -0.01329625638768717,
    0.003722622149314539,
    0.004279013469147374,
    -0.0030513230026503854,
    0.0038986780037574254,
    0.02642359929148633,
    -0.004334001923898189,
    -0.016312669528305037,
    -0.01624668317513371,
    0.018202045793237955,
    -0.006321651511308235,
    -0.011866106586479581,
    -0.00773513490802245,
    -0.0010707156751386848,
    0.011374679976851172,
    0.003971265687466163,
    -0.0020269622264602297,
    0.007967036519798793,
    -0.0060832254089216034,
    -0.005289631165096233,
    -0.0036738007836177363,
    0.014126241487037245,
    0.004494670919377464,
    -0.006292102358453967,
    0.00097708516177647,
    -9.929456994862099e-05,
    -0.0034431345548872443,
    0.006093017586911552,
    0.016643672903726803,
    0.020427801095178652,
    0.012929701877494067,
    -0.005731643762601686,
    -0.0033375821857653683,
    0.0029683444732990227,
    -0.01684680608774732,
    0.0007743886211089342,
    -0.004202287665941267,
    0.0035410435942554246,
    0.0031583450448896826,
    -0.002700169632841127,
    -0.008173860430757605,
    -0.009441872046375347,
    0.0072040860161517424,
    -0.0026900418219163447,
    -0.00907738034534954,
    -0.000914007810975221,
    0.009604935218862666,
    -0.008257471352337842,
    -0.005292941890243316,
    -0.00684067847437741,
    -0.010934045297857384,
    -0.008267597445872079,
    -0.006815922040586282,
    0.0005830168474223129,
    0.005496319099090328,
    -0.007327990092160525,
    -0.0018994257285634764,
    -0.007167449549334721,
    0.0042443256338307355,
    0.0013952313879875495,
    0.004514024511095864,
    -0.0013090331796250714,
    -0.0034639764221971805,
    -0.0009030921767058268,
    -0.005118342623785304,
    -0.008086604954029136,
    -0.004535770027157776,
    -0.0057324109066392275,
    -0.005870151175235219,
    -0.0002326410365212915,
    7.92658019848893e-05,
    0.0016242694855971148,
    -0.002318789208013538,
    -0.0005544556113734048,
    -0.0053609065806079215,
    0.008622677473482427,
    -0.003322039659218971,
    -0.011763943610684174,
    0.0035033198942832095,
    0.010023334293746715,
    0.0028063427149011243,
    0.00555570962029022,
    0.008032748409836655,
    -0.006829195524287662,
    -0.0008227283918398426,
    -0.007283540756473162,
    0.007317364643896784,
    0.00584358338175621,
    0.003239437097959226,
    -0.0011942375843712644,
    0.00847172855977554,
    -0.011284836774445741,
    0.003516230643541589,
    0.0012446167263886739,
    -0.004683040926655796,
    0.005089845669821442,
    0.009358729133809049,
    0.007857973122975056,
    0.004204543058446394,
    0.027089690634380492,
    -0.013046561071392992,
    0.011174588278543101,
    0.010274067424565199
  ],
  "w2" : [
    -0.42455575876822405,
    -0.040985117245047345,
    0.6033296043711556,
    -0.6065782665802163,
    0.5074921782163866,
    -0.41415025597760763,
    -0.30038039089907537,
    0.5757308087258173,
    -0.3575034895606955,
    0.2862975202484332,
    0.2518916107279973,
    -0.06818930760816516,
    0.00198712674423795,
    0.8399708529217516,
    0.462821686755548,
    0.6168120770507368,
    -0.061918019530489934,
    0.14452744321380587,
    0.582945317528936,
    -0.3991155968859503,
    -0.4133044681443694,
    -0.20130916592455722,
    -0.4677481499090878,
    -0.1066011382119807,
    0.5313165708750088,
    0.3039573823018469,
    -0.758569263388033,
    -0.08708281715429259,
    -0.3803785008539903,
    -0.4559065971680296,
    0.04686899293769603,
    -0.4574564602109519,
    0.1404970676480113,
    -0.5887429038400255,
    0.7658184796158295,
    -0.007028219097549144,
    0.10404530256860717,
    -0.5465420716966469,
    -0.7328134558607632,
    0.2874025001712274,
    0.3132004386053887,
    0.4089160974215804,
    -0.47900346547281636,
    -0.5830535811555766,
    0.2827459566293997,
    0.2955362686237948,
    0.6798338248770773,
    -0.05612247342306453,
    0.0262886943426653,
    -0.022030142715488702,
    -0.02207569797950372,
    -0.025230105906341508,
    0.00590530204280373,
    -0.019934182738787724,
    0.002316694622125237,
    -0.014693679386545356,
    -0.008826148262358374,
    0.0002488320868600449,
    -0.002176359573021332,
    -0.020000189018391505,
    -0.019774608565878392,
    -0.00048806435365688337,
    0.021569516863825185,
    -0.019042839021870612,
    -0.017962433691534576,
    -0.00040324693638129125,
    0.008948348921437843,
    -0.022264246082794106,
    -0.019497916045055116,
    -0.007491775941530966,
    0.017570903535573362,
    0.0188945518669601,
    -0.004262814694479531,
    -0.002035227228209188,
    0.0003861405437827688,
    -0.020286883415262448,
    0.013452289818706243,
    0.001768232136778514,
    0.01219573142728865,
    -0.0008681676442469251,
    0.01784678780624869,
    0.021035157552157225,
    -7.743191544546865e-05,
    0.0009128787668518769,
    0.011685822056675187,
    -0.014491597936729422,
    -0.01973774073838956,
    0.021947476890078813,
    0.009954072204443032,
    -0.021646155186464892,
    -0.004304389131822473,
    -0.01866863156888551,
    0.00850480856701157,
    0.017142589901826717,
    0.0014190148331499873,
    -0.008738483893335699
  ]
}